0.05389040
0.03745632
0.03050320
0.00790857
-0.01885471
-0.00481455
-0.03307686
-0.04446867
0.05415326
0.01913983
0.00416920
-0.03662089
-0.00750952
0.03223085
-0.04577782
0.02690193
0.03669159
-0.00045225
0.02437386
-0.01782433
0.00812760
-0.03365050
-0.03144117
-0.04082195
0.05226089
0.01258021
0.03673690
-0.04740384
0.04764070
-0.02773171
0.05050584
-0.02023428
-0.03681112
0.02021844
0.01811190
0.04402625
0.03521939
-0.01399732
0.03976050
-0.02052900
0.00686723
0.03296138
-0.02086296
0.04645326
0.01331891
-0.01945620
-0.01711338
-0.03278429
0.04235140
0.01840430
-0.02485225
0.03665582
-0.03090564
-0.00701091
-0.03383205
0.01603595
-0.00158056
-0.03714992
-0.01618165
0.01148387
-0.02465899
-0.00435218
0.03333386
-0.01434339
0.02636889
0.01477880
0.03839748
0.04497591
-0.03688895
-0.03545604
-0.01275438
-0.02493255
-0.00486433
0.03382454
0.03021547
-0.01074288
-0.02232347
-0.00522599
-0.00245273
-0.02904865
-0.04786441
0.02972013
-0.03667289
0.01466222
-0.01515928
-0.00156584
-0.00734016
0.01368785
0.04624444
0.04542658
0.02993743
-0.03672197
-0.04682177
0.05137138
-0.00270630
-0.03188765
0.01136662
-0.02215331
-0.02135221
0.02199794
-0.03639644
0.03618133
0.02706087
-0.00991613
-0.00376914
-0.03692348
-0.04668745
-0.00364440
-0.01864784
0.01237597
-0.02372270
-0.04380925
0.03590979
0.02816813
-0.04681285
0.04312265
-0.04323232
0.00672055
-0.02371829
0.01353843
0.03924384
0.00474227
0.04135693
0.02576231
0.02995914
0.01370037
-0.01292511
-0.04370647
-0.04355415
-0.03852125
0.03172350
-0.04503085
-0.01132845
-0.01084343
0.04922190
-0.04471532
0.00730895
-0.02149555
0.03457203
-0.04882925
-0.02939110
-0.03826550
0.01686879
0.03222326
-0.04397849
-0.01078774
0.00244696
-0.04518551
-0.02359406
-0.01645619
0.00328544
0.04219481
0.01947236
-0.00975097
0.03266851
-0.02293856
0.03429731
-0.01530042
-0.04140514
0.03313291
0.03666769
0.00209211
-0.03269562
-0.04794022
0.01263877
-0.00905366
0.00551866
-0.02613007
-0.00946200
0.02417971
0.05356261
-0.02368173
0.00942075
-0.00875069
0.04752140
0.05059806
0.04389703
-0.00035101
0.01102121
-0.04012008
0.01295833
-0.03157154
-0.02232818
0.02632963
-0.03296204
-0.00125153
0.05068764
-0.00949137
0.02250331
-0.03790571
0.03384497
0.04217619
-0.03923387
0.02166718
-0.01677493
-0.03663952
-0.00012522
0.00723352
0.04141347
-0.01154725
0.05056665
-0.02153209
-0.03443022
-0.03678020
-0.02748606
-0.04211216
-0.03384605
0.00265916
-0.02425428
-0.02283179
-0.00606286
0.00805162
0.01362327
0.04928520
0.03353979
0.01304249
0.03113271
-0.02913119
0.01471136
0.04191041
-0.00316099
-0.01176530
-0.02474048
0.02712345
0.03279226
-0.03758487
-0.04462619
-0.02867424
-0.04427516
-0.03669497
0.02102869
-0.01959237
0.02149799
-0.00191221
0.05385766
0.00598898
-0.03941060
0.05132934
0.03845678
-0.00746598
-0.04380834
-0.03868159
-0.01002623
0.03482195
0.00486161
-0.00118467
0.00364196
0.04800551
0.02506617
0.02044765
-0.03360470
-0.00218876
0.03578641
-0.04754332
-0.04006831
-0.00254612
-0.01942149
0.04185052
0.01687643
-0.03145698
-0.03589312
0.04526231
0.03114259
-0.04413095
-0.02153875
-0.01366352
0.00839943
0.01370951
0.01035341
0.04789079
0.00589559
0.02724881
-0.00360249
-0.02861217
0.04834856
0.02472845
-0.04756006
0.02456190
0.04702573
-0.04312938
-0.02312060
0.00162577
-0.01144893
-0.01990007
0.04333521
-0.02992200
0.03111394
-0.02077651
0.01679043
-0.04776039
0.05303589
-0.03185343
0.01809348
0.01596364
0.04473525
0.02784951
-0.04126511
0.03543147
0.02794517
0.03438435
0.01074754
0.01503234
0.03964474
0.02584612
0.01517263
0.01427030
0.04160687
0.04164818
-0.00095134
-0.00027021
0.04627863
-0.03525192
0.05086991
-0.03143693
-0.03444531
-0.03708250
-0.00597396
0.02067780
0.03358496
0.04962489
-0.03189701
0.01836875
0.02263676
0.02802617
-0.04158581
0.03091059
0.05215771
-0.00740662
0.03150398
0.03306910
-0.02059767
0.02220014
-0.01853740
-0.01470021
0.04221102
0.03995349
-0.02869454
0.00900208
0.00749470
0.04536829
0.00971613
-0.00009408
0.02406325
0.01566167
0.05013671
0.03003976
0.04856165
-0.01793035
0.05123723
-0.04497770
-0.03327301
-0.04460899
-0.02584823
0.02290279
-0.01047532
-0.00059704
0.01251058
0.00816231
0.01291545
-0.01859996
-0.00598032
-0.02262912
0.04980015
0.03023874
-0.04356039
-0.00688052
0.01163882
-0.00308914
-0.01475863
0.02324948
0.02063686
0.00557962
0.04153306
0.01346321
0.00636573
-0.03339225
0.03089795
-0.04159241
0.04620869
0.02421910
0.01065957
-0.00485152
0.04887022
-0.01493974
-0.03263006
-0.00931046
-0.01963057
-0.02657988
0.05103808
-0.03205308
0.01425874
-0.04644808
0.04804980
0.04718962
0.03369133
0.01544007
0.03210797
-0.03199258
0.03958708
-0.03414049
-0.00365784
-0.02690417
-0.03499605
0.04708239
-0.03194832
0.04888950
-0.04107165
-0.02186848
-0.02408994
-0.02917167
-0.04380249
0.01014258
0.02314170
-0.03919601
-0.01381485
0.01135282
0.00234417
0.00618014
0.03389512
-0.04037112
0.05221435
-0.01570352
-0.04294279
-0.02064208
-0.01098351
-0.02177718
0.04915481
-0.00201472
0.02225175
0.03251702
-0.03271338
0.02394211
0.03952530
0.02015942
-0.00645790
-0.00550695
0.01684365
-0.02535698
-0.04603347
-0.02036412
0.05095081
0.03813660
0.05051235
-0.02990221
-0.00789766
-0.00831698
-0.01735353
-0.04274513
-0.04211941
0.01547356
0.04750397
0.04951815
0.03577108
0.04218858
-0.04730918
0.04414138
0.01265296
0.00264244
-0.00030521
0.02936122
0.01806883
0.03560082
-0.04497492
0.02403713
0.05200015
-0.03984191
-0.03644983
-0.03920148
-0.01171375
0.00499628
-0.01855201
-0.03232436
0.04184626
0.04672131
0.03959400
-0.00010280
-0.01834559
0.01714418
-0.03227191
0.03822549
0.01838989
0.03196530
0.00067690
-0.04340746
-0.02885090
-0.00164520
-0.02904443
-0.03919651
-0.00684426
0.00182993
0.04344801
-0.04165046
-0.03550092
-0.00654761
0.04389960
-0.01939984
-0.04429078
-0.02067988
0.00821011
-0.00668105
-0.00213903
0.01172293
0.04572945
-0.03190430
0.05108937
0.04594352
-0.03252888
0.00974453
-0.00717974
0.03980669
-0.00327489
0.00156893
-0.00965217
0.02941966
-0.03705207
0.00306856
-0.02912254
0.03428836
0.01034951
-0.02011810
0.02685678
0.03112197
0.00327447
0.01382844
0.05057949
-0.03333959
0.01843794
-0.01516029
0.02685163
-0.04590140
0.03468185
-0.02998386
0.02475464
0.04941794
0.04462479
0.02548405
-0.03654407
-0.04147860
-0.01952878
0.03306383
-0.03329779
-0.00317633
0.04014153
0.04079467
-0.00755729
-0.05042191
-0.00453016
-0.00930193
-0.01785645
-0.04026009
-0.01071157
-0.01864162
-0.01676616
-0.00218732
-0.02820819
-0.04528802
0.03308068
-0.01780437
-0.00056773
-0.00188622
0.02725434
0.00115816
0.00428015
0.04286679
0.04282955
0.04668699
-0.01118209
-0.03345719
-0.03551362
0.01532569
0.01698137
-0.04749705
0.01413919
0.04405962
-0.03038071
-0.00564680
0.01557914
-0.00766491
0.05122061
-0.01915009
-0.00180450
0.01973596
-0.02382478
-0.03189907
0.02779916
-0.02552206
0.01060166
-0.01225648
-0.00122022
-0.01184868
-0.01138464
-0.00923164
0.04516606
0.04116270
0.00052056
-0.00374787
-0.03009029
0.01354162
-0.03830433
-0.00296143
0.03078055
0.02490416
-0.01254586
0.04967468
0.01442454
0.00683351
-0.04453434
-0.01426467
0.02481918
0.04466943
0.03791661
-0.01765088
0.01875369
0.03997602
0.02153802
0.04869656
0.04332019
0.00482507
-0.00451694
-0.03866400
0.00126537
0.00011849
-0.03613616
0.04211127
0.03878946
0.00597785
-0.02581853
0.05330116
0.01217623
-0.03087571
0.01549710
-0.04325061
-0.03310648
-0.04552067
-0.01670890
-0.02488249
-0.04700399
0.03791085
0.01097842
0.00930281
-0.01413874
-0.04764786
0.00482832
0.03533727
-0.01091784
0.00853738
-0.03216522
0.02097626
0.00256482
0.01694401
-0.04276189
0.03136034
0.02659262
-0.01965972
0.04481765
-0.04697447
0.03928979
0.02873410
-0.02510872
0.04445656
0.00849217
-0.00712461
0.02447922
0.00492738
0.04461548
0.01331164
0.00350271
-0.03698664
-0.03454726
0.04173925
0.03280276
-0.04525427
-0.03262971
-0.03837982
0.03448462
0.01148018
-0.00397869
-0.00072332
-0.01555932
-0.03186613
-0.01855993
0.01560879
-0.03691995
0.00095778
0.02494192
0.00117773
0.00614908
0.02935899
-0.04017010
-0.02712188
-0.04210121
0.04584873
0.02926154
-0.03148597
-0.04575614
-0.00007919
0.00926860
-0.04271479
-0.03596595
0.00241937
-0.03245093
-0.04691771
-0.04400611
-0.04732917
-0.03620505
0.04556728
0.02191211
-0.03723581
-0.02885097
0.04365550
0.04849423
0.02361910
0.00411146
0.03087524
0.04897606
-0.02634982
0.01775444
0.02141433
0.01709744
-0.03705299
0.03075239
-0.01161670
0.01210274
0.02556325
-0.04795563
-0.03422150
0.03582738
0.04972862
0.03157294
-0.00598598
-0.01587050
-0.01219325
-0.04697404
-0.04023487
0.01498722
-0.01434246
0.02865750
-0.03363096
-0.04245500
-0.00752084
0.00684569
-0.02629581
-0.02252578
0.02881455
-0.02876699
0.00639678
0.04104006
-0.04043170
0.00016352
0.03233388
-0.04126827
0.03924663
-0.00581120
-0.03984346
0.02367757
0.03945066
-0.00101943
-0.01649882
0.04180832
0.02387126
-0.01980446
-0.01289821
0.00980639
0.02183622
-0.01368988
-0.02003111
-0.00191661
0.00447947
-0.00322900
0.00332422
-0.03667287
-0.04594534
0.02994457
-0.00533796
0.03849984
0.02362586
-0.02990966
0.01476880
-0.03145280
-0.03609251
0.01216348
0.03045991
0.04243453
0.02315686
-0.00216847
-0.04497625
0.01696281
-0.00995947
0.00563495
-0.00928712
-0.03797614
-0.00122780
0.01742575
-0.03970002
-0.02870459
0.01014425
-0.04643437
-0.02690037
0.00758697
0.05333734
0.01457770
-0.04363042
0.00624448
-0.02447037
-0.04008130
0.04777816
0.03379145
0.01883234
0.04838790
-0.03635686
0.00007122
0.02669996
-0.00529714
0.01823722
-0.00280819
-0.01210056
0.05034585
-0.04686982
0.02565543
-0.04756786
0.04130626
0.01479026
0.03006167
0.03045228
-0.00287467
0.04024371
-0.02642374
0.00926266
-0.03196811
0.00311471
-0.00392635
-0.01905381
0.05321059
0.00998854
-0.03707115
0.04660167
0.02949266
0.03513455
-0.02890536
-0.00558405
0.04263983
-0.00046799
-0.03844358
-0.03786894
-0.02515328
-0.04120521
-0.02582093
-0.03835679
-0.04128755
-0.02047014
0.04218403
0.02874807
0.00715394
-0.04394965
-0.03184613
0.02806768
-0.04672357
-0.04104961
-0.04289801
0.02271338
-0.04594095
-0.03394541
0.05091742
-0.04577762
0.02129599
0.00768452
0.04985652
-0.03168554
-0.02476554
-0.00400530
0.03242065
0.04487338
-0.00962418
0.01943172
0.05231874
-0.02339250
-0.04135441
-0.02763256
0.00853377
-0.03112504
-0.00833678
0.03532378
-0.00252142
-0.03063814
0.01604799
0.05332337
-0.04045128
0.01039520
0.04176597
0.01525305
-0.03946594
-0.01231675
0.00513950
-0.04455940
0.03562800
0.03619627
-0.05066021
-0.00842192
0.01293221
-0.00002640
0.01535717
0.03286145
-0.02067001
0.03026204
-0.00066208
-0.00048951
-0.03441161
0.00365426
0.04714761
0.00259836
-0.01587092
-0.01856785
-0.01411395
-0.01913196
-0.02838618
-0.04148697
0.01089429
-0.01184448
-0.04464724
0.02784306
0.03715617
-0.01778821
-0.03368349
0.00846388
0.04108598
0.01228427
-0.00658802
-0.03730012
-0.02675432
0.00365996
0.05362943
-0.03062584
-0.03755386
0.03942727
-0.03199307
-0.03071631
0.04376367
0.03699505
-0.04765917
0.01603977
0.00661647
-0.00172266
-0.04497808
-0.03075610
0.02966513
-0.02257556
0.03492186
-0.00024886
-0.02752432
0.04940890
0.04823548
-0.01250021
-0.03844538
0.05073078
0.01730261
0.02449901
0.04075806
-0.04366503
-0.01635051
0.01128692
-0.03946998
0.05035155
-0.04399184
-0.02635300
-0.01987635
-0.01153821
0.00317430
0.04216266
-0.04479723
0.01471272
-0.00374542
0.04221505
-0.02113800
-0.02268855
0.02168996
-0.02590815
0.00458276
-0.01235943
-0.01208955
0.04072159
0.01170250
0.01070569
-0.04699729
0.01210767
-0.01687484
0.03249847
-0.02532808
0.04421643
0.02538466
-0.00323290
0.02484064
0.05044413
0.03995815
0.01960767
0.00744100
0.04687544
0.01478135
0.01990157
-0.04068580
0.00793121
-0.04797512
-0.02147211
-0.01853369
-0.02028223
0.02980668
0.01566960
-0.04612117
-0.03263007
0.04619624
-0.00932266
0.01602415
-0.02590544
0.00252203
0.02813776
0.05084607
-0.01905497
-0.02915442
-0.01383458
-0.01266714
0.04403750
-0.01257886
0.03128319
0.04923229
-0.02763130
-0.01997849
-0.00672430
0.00098685
-0.01148080
0.03932559
-0.00553972
0.01935659
-0.00143119
-0.02211376
0.01680714
0.01407265
0.03869690
-0.02721908
-0.01269715
-0.01606082
-0.02966051
-0.03654137
0.01328527
0.02373801
0.04371450
0.01362623
0.03654384
-0.02421503
-0.00192110
-0.01059529
-0.02157976
0.04980670
0.05067569
0.03092771
0.04156820
-0.03272905
-0.01026494
-0.03888774
0.00119263
0.04405483
-0.00002292
0.04074380
-0.04002696
0.01646029
-0.03007017
-0.02144697
-0.02387031
0.05097688
-0.02822580
0.04193368
-0.04833655
0.02655202
0.04698047
0.03566916
-0.01786704
0.03501685
0.02127572
0.03385013
0.01830560
0.02658134
-0.01067289
0.03499936
0.01284309
-0.03021117
-0.00749510
0.05119345
0.01157280
-0.02058345
-0.00081889
-0.03936616
0.00564768
0.00601135
-0.00657376
-0.04682626
-0.03397481
-0.00109741
0.00452174
0.00848839
0.03413394
0.03409206
0.04263789
-0.01035669
-0.04615505
-0.03846521
0.00024919
-0.01991801
0.02385576
-0.00327322
-0.00159575
0.02566982
-0.03157672
0.00489016
0.00304967
0.01453732
0.04642821
-0.00040747
-0.02714751
-0.03188803
0.03381829
0.04804991
0.05217386
-0.00898385
-0.03718673
-0.04310501
0.02157101
-0.02959527
0.02833356
-0.01963523
-0.02129544
-0.00166893
-0.00806035
-0.02024733
0.03835265
0.02015389
-0.02034722
-0.03585504
-0.00706807
0.04180964
-0.00182475
0.04751834
-0.03881216
-0.02528854
0.03486882
0.02650263
0.01272841
0.03913478
0.04046297
-0.01495360
-0.02935263
0.00359978
-0.03445183
0.01049271
0.01584547
-0.01770723
0.01588772
-0.02125082
0.00962250
-0.00392612
0.03716261
0.02247955
0.05119573
0.00651921
-0.02737801
-0.03206148
0.05162248
-0.04753597
0.01578471
0.02877763
0.01276623
0.04682462
-0.00415858
0.01090573
0.05046661
-0.04680548
0.01824960
0.01969761
0.01662867
-0.02914916
-0.03224700
0.03366032
-0.03413337
-0.02933818
-0.04890924
0.03556280
0.01444267
0.01740731
-0.04338299
-0.02589724
-0.00223273
0.03162688
0.03743184
-0.01955172
0.00750089
-0.03869465
-0.00768277
-0.03777246
-0.04848065
0.01287453
-0.04159986
0.01527310
-0.04262407
0.04881934
-0.01463239
-0.00273974
0.00828546
0.00892245
0.00405006
-0.02022626
-0.00201234
0.04433763
-0.00157784
0.01200731
-0.01466380
0.05367099
0.05118271
0.02255644
-0.02916087
-0.00110323
-0.00930782
0.04745961
-0.01908577
0.02057129
-0.00293714
-0.04693286
-0.03530484
0.03510443
0.03927669
0.00208400
0.00107999
0.00771787
0.02868938
0.01334941
-0.01523852
0.03396008
-0.01939467
0.02441600
0.04041107
0.01074281
0.03044335
-0.01021822
-0.03155931
0.02052155
-0.01930391
0.04315914
-0.02313603
0.04175761
-0.03738175
-0.02689535
0.02759837
-0.01136661
-0.03206322
-0.04348066
-0.01670815
-0.03269453
0.05377636
-0.02919307
-0.01607633
0.04925587
0.01173369
0.00672403
-0.01695904
-0.00278314
0.01153868
0.03315492
0.04027001
0.02275734
-0.04148138
0.04948654
-0.00629729
0.03405546
0.03998422
0.04856573
0.02709274
0.02368528
-0.03568157
-0.00707876
0.04183212
0.04047006
-0.02632714
-0.04773740
-0.04067126
0.03505258
0.04462672
0.00892083
-0.02881466
0.02686620
0.02097359
0.04091336
0.01959826
-0.00282960
0.05307708
0.02944759
-0.03576038
-0.01210863
0.02665234
0.00091553
-0.00854480
0.00121868
0.01407198
0.03318071
0.00017849
0.01783314
0.01507860
0.01261067
-0.03687389
-0.00334970
0.02447709
0.00263533
-0.01155291
-0.01430556
0.01571578
0.04620311
-0.01010123
0.03591767
0.00680630
-0.03392243
0.00223908
0.04619664
0.00160240
0.00257475
-0.01102760
0.01422107
0.04872160
0.04902872
0.04985306
0.03955076
0.04204728
-0.01419355
-0.04614911
0.03205592
0.00734136
-0.03170818
-0.00008464
0.04740664
0.03767726
0.04670836
-0.01870497
0.01617480
0.02814913
-0.03562322
-0.00128606
0.04092554
-0.04728395
0.04611695
0.04958470
0.01729783
0.04917151
-0.01207425
-0.02569810
-0.03273470
0.02723922
0.04064500
0.03678049
0.02683325
-0.03167216
0.02868829
0.03199262
0.03585974
-0.03361943
0.05313385
0.03798945
-0.04537779
-0.03367263
-0.03401911
-0.04217895
-0.04449220
0.04317303
-0.02158921
-0.04130318
-0.01069047
-0.01124807
0.02843930
0.04127705
0.04978612
-0.00085704
0.03902521
0.03668269
-0.00792717
0.00161523
0.02523148
0.05285171
-0.00820018
0.03086492
-0.02974428
0.01765134
-0.04599367
0.00181064
0.04821616
-0.04410148
0.04270319
0.00566977
0.05123061
0.03665375
0.03958310
0.03284833
-0.02262999
0.02348297
-0.02348575
-0.02668931
-0.02904646
-0.04642804
0.05154799
-0.02303107
-0.04011533
0.04759263
0.03153939
0.00537839
0.01134372
0.02163835
0.04529145
-0.04728070
0.00752551
-0.03219373
-0.00812236
-0.04421928
-0.01025795
-0.03158000
0.01968759
0.02493182
0.02699246
0.00535200
0.00109891
0.03484165
-0.00847549
0.02364283
-0.02331539
-0.04323143
0.00086283
0.04848073
0.04037599
-0.02837452
0.04494802
0.02755212
0.02867913
0.02730531
0.04879895
-0.02964049
-0.02025368
-0.01684823
0.02596494
0.04115050
-0.02951677
0.05345599
0.01701503
-0.01941716
-0.03741094
0.01147336
0.00522233
-0.00161992
0.04694744
0.03639483
0.00437116
0.03663830
0.04938925
-0.01978427
-0.03981104
-0.00737907
-0.04275506
-0.02556613
-0.00361620
0.05189681
-0.00125153
-0.03177948
0.00549512
-0.04461495
0.01047271
-0.00325660
0.00093862
0.03935700
0.03703570
-0.01617828
0.00810933
0.02148494
-0.01732217
0.00167119
-0.04060308
0.03171315
0.01708209
0.05251642
0.04015355
0.02724408
-0.03399755
-0.03334340
0.04826270
0.05163760
-0.01401926
-0.00993949
-0.02950815
-0.00999412
0.01369254
0.03864041
-0.02303848
0.03784001
0.01635509
0.02438755
0.03292564
0.04724500
0.05325452
0.02964410
0.04754135
0.00775241
-0.00241687
-0.00134034
0.04008972
0.00245351
-0.03929828
0.03551972
-0.01419279
-0.04671629
-0.01879567
0.04999790
-0.03844854
0.00363321
0.04472014
0.01479512
-0.03627031
-0.02212443
0.02889046
0.04198080
0.03399184
-0.01481494
-0.03527469
0.05050819
0.03453175
0.01968683
0.01679093
0.05235353
0.03005598
0.01238470
-0.03429188
-0.00082817
0.03824237
-0.04190197
-0.03656887
0.04183062
-0.01787709
-0.03796293
0.02043543
-0.04543808
0.01807984
-0.04771319
0.03295270
0.01942473
-0.03056613
0.02826102
0.04771019
0.04087726
-0.03650948
-0.00443352
-0.03103588
-0.03424811
-0.03789289
0.00049807
-0.02329046
0.03307999
0.01605916
0.00132191
0.03490817
-0.01600751
-0.01771384
-0.03946589
-0.02389662
-0.00157176
-0.03196890
0.00864568
0.02118422
0.02891690
0.00706199
-0.01799799
0.05174135
0.01747192
-0.04030706
-0.01696208
0.00975519
-0.03416647
-0.00998690
-0.03952076
-0.01794970
0.04554167
0.01679779
0.05131353
-0.00420085
0.02021044
-0.04585222
0.01570924
-0.01817295
-0.00767409
-0.02523324
-0.04482684
-0.02481603
-0.03876945
-0.04794718
-0.01909132
-0.01870637
0.04322018
-0.01530681
-0.00528350
-0.02691912
-0.01605085
-0.02553650
0.01672431
-0.03850025
-0.02523129
-0.00483090
-0.00100252
0.00783829
-0.02785653
-0.04162928
-0.00873021
0.02819937
0.01847728
0.02081177
-0.01972938
0.03681737
0.03969717
-0.00855733
-0.04319121
-0.01571811
-0.04681390
-0.01283413
0.01555747
-0.04813460
0.03432354
-0.00510860
-0.00689417
-0.04648930
-0.04497888
-0.03761594
-0.00685677
-0.03013942
0.04946236
0.03726367
0.02574111
0.05375666
0.00868536
0.00102808
-0.04166818
-0.03859635
0.00636629
-0.03569878
0.05021632
0.02612175
0.01180669
0.00270790
0.03073503
-0.03289226
0.04118573
0.00357446
0.04574088
0.01914391
0.02226515
0.00898052
0.03645413
-0.00249317
-0.02781045
0.05363080
-0.01117486
0.03121005
0.03001035
0.02724646
-0.01453657
0.02661953
0.01080102
-0.00172484
0.04130216
0.04187329
0.01463866
0.01224159
0.00077635
0.04670438
0.02115973
-0.04342339
-0.00831151
0.04219507
0.02751367
-0.00160557
0.03293810
0.01956635
-0.04511079
-0.02033990
-0.03231336
0.04288451
-0.01972420
0.04506695
0.05029571
0.05002715
0.00807741
-0.00455057
-0.03216365
-0.01525977
0.02254244
0.02501571
0.01654774
-0.01545665
0.00120825
0.01856249
-0.00519733
0.03946855
0.03630938
-0.04276305
0.02018502
0.02911011
-0.04725213
0.01070265
-0.03281356
-0.03687980
-0.01027845
-0.00259516
-0.02341215
-0.04561306
-0.00711697
0.04928660
0.02791202
-0.00509646
-0.04491482
-0.01048618
0.05342610
-0.01250479
0.05141088
0.00721872
0.03903541
0.00287200
0.04371724
0.00190891
-0.04374216
-0.03406101
-0.03962059
-0.04490311
-0.00653138
0.01111274
0.01959085
-0.01997768
-0.00379953
0.04837462
-0.01645257
-0.02570801
-0.02240181
-0.03670938
0.03366851
-0.01658408
-0.02144942
0.00912814
0.02928114
0.01379952
-0.01745604
-0.04584007
0.04244972
0.03937076
0.00606523
-0.03786517
-0.01616110
-0.01268567
-0.04061387
0.04832482
-0.00150404
0.04031362
-0.03150676
-0.03000074
0.03586524
0.02598219
-0.04356651
0.03176878
-0.04611371
-0.02091837
-0.04473272
0.01519264
0.02252313
-0.03333454
-0.04355114
0.01523965
-0.00899733
0.01786307
0.04550591
0.01325808
-0.03516432
0.03664557
-0.04335855
-0.00341226
-0.04590170
0.04793952
0.00428216
-0.00551822
-0.00344838
0.04492910
0.02533463
-0.04475649
-0.00013003
0.03978934
-0.02534501
-0.00133965
-0.00531158
-0.03469605
-0.02061170
-0.03749794
0.04402893
-0.04530118
0.00467086
0.05175105
-0.04737389
0.04728505
-0.04032042
-0.01074506
0.00713137
-0.00602525
-0.02314509
0.01844131
0.00697584
-0.02064132
0.02297917
-0.00945584
-0.02284142
-0.01342464
-0.02068814
-0.01004360
0.05126275
0.04724457
-0.01398196
-0.04539004
-0.01092297
-0.04755642
0.03895935
0.00857751
0.05149359
0.02338966
-0.04254178
-0.03653097
0.04862105
-0.04434695
0.03161414
0.01554309
-0.04265300
-0.03387144
0.02440782
-0.03214191
-0.03526627
-0.00506192
-0.02085518
0.03891860
0.05097158
-0.00486002
0.00532594
0.04147560
-0.01938373
-0.03015101
-0.04677884
0.00387843
-0.00281754
-0.03031645
0.01593906
0.04138480
-0.00394043
0.04658146
0.03973277
0.00488067
0.00046225
0.02910714
0.01798012
0.02553298
0.01535589
-0.04295415
-0.00982806
-0.04638669
0.01443040
-0.03549250
-0.04351233
-0.03845159
0.00869968
0.02736964
-0.03403107
-0.01289178
0.01480467
-0.00685428
0.01165668
0.02943344
-0.02298823
0.01383514
-0.01433611
0.05092092
0.02721712
-0.00991397
-0.03385351
-0.03446960
0.01358768
-0.02678140
0.04581130
-0.02611389
0.03708421
-0.01110088
-0.01304076
0.04324244
0.02634776
0.03802048
0.01019827
-0.00419779
-0.02787206
-0.04033554
-0.00068866
0.02788923
-0.03837713
0.01797969
0.00714321
0.03066053
-0.00777756
-0.00685050
-0.01443734
-0.02307919
-0.04020723
-0.04347077
0.00938230
-0.04711337
0.02713198
0.04045325
0.00903878
0.01973586
-0.04013696
-0.00956110
-0.03936782
0.01491167
-0.02604893
0.00452378
-0.01416993
0.02222263
0.02600416
0.05389815
0.00348486
0.04319078
-0.02430742
-0.02477632
-0.03498289
0.00659659
0.03561364
0.00230535
0.02014014
0.02609236
0.04929501
0.00155719
0.02509619
0.02709101
-0.04249185
-0.00398162
-0.00370099
-0.03152353
-0.04424713
-0.00456349
0.04095880
0.00789506
0.00486340
-0.02616663
-0.04158978
0.04740186
0.03277769
-0.04711216
0.01059416
-0.04656362
-0.00418480
-0.01392586
-0.03386999
-0.01982527
-0.03579114
0.02383112
-0.04147260
-0.00111214
-0.03874948
0.01244104
0.04041794
0.00498662
0.00225227
-0.02043907
0.03092194
0.00992290
-0.02441739
-0.00326103
-0.01264537
0.01174563
0.02153395
-0.03879803
-0.01395012
-0.03842716
0.02470885
0.03602975
0.04964493
0.00061091
0.03572483
-0.00300323
0.01462879
0.04513514
-0.00816915
0.02207578
0.01553290
0.02693099
0.00130911
0.04543106
-0.03488211
0.03343222
-0.03712950
0.01281949
0.03588541
-0.02624255
-0.02710185
-0.00912652
-0.00144747
0.00325080
0.04325118
0.02587124
0.01423591
0.02524529
-0.00815357
-0.03420410
0.00339333
-0.04301252
0.03326082
-0.01831871
0.01821444
-0.00567430
0.02925435
-0.01087250
0.02089218
0.01404508
-0.04158748
-0.02210040
-0.04208766
0.03189456
0.04690383
0.01686076
-0.02435692
0.01499718
-0.02671821
-0.02304963
-0.03345934
0.04197906
-0.03460335
-0.02874996
-0.02497032
0.03351855
0.00087419
0.04454402
0.01310023
0.03743987
0.03216088
0.01007976
0.04006270
0.04181730
0.05234922
-0.02006150
-0.01044232
0.04181180
0.04131541
0.01775519
-0.02722440
0.02971174
0.03780405
-0.05047049
-0.03226100
0.00244636
-0.03442603
0.03928229
0.00180186
-0.02185939
-0.00120803
0.01293259
0.02497577
0.02362236
-0.01812184
0.00219483
0.04724506
0.03458048
0.05081082
0.01692401
-0.01172865
0.01744333
-0.04247680
-0.03695187
0.04729892
-0.04766151
-0.04719396
-0.00366305
0.02866911
0.01060055
-0.02140461
0.02985340
0.02464197
0.00501223
0.00472461
-0.02887285
0.04957872
-0.02725230
0.05216982
0.00568995
-0.01578435
0.00869647
0.01387371
-0.02494096
0.02313928
0.01626200
0.03776255
-0.03888702
0.04511591
-0.00191475
-0.04513349
-0.01402558
-0.03128666
0.00362967
0.00295668
-0.01203073
0.02276879
0.02902578
0.02059073
-0.00554079
0.02210365
0.03618644
0.03347776
-0.01415461
0.04722710
-0.00167490
0.00708791
-0.02322953
-0.04376356
-0.00025333
0.00263834
0.01166876
0.01610117
0.01900277
-0.00306507
0.01228725
0.02512434
-0.00777207
0.04203735
-0.00621452
0.04056991
0.01155829
-0.03761157
0.05021333
0.04395857
0.02234455
-0.00820346
-0.01717627
0.02899861
0.04245218
0.03052533
-0.02061913
0.03056188
-0.03634503
-0.04716007
-0.03920163
0.03547228
0.04577078
0.01767188
0.03538811
-0.01402943
-0.02065649
-0.00219353
0.01988991
-0.04402998
-0.01482752
-0.02348354
-0.02687073
0.02152174
-0.02371540
0.01818706
-0.00410488
0.02772947
-0.00806711
0.05359221
0.01237103
0.04468681
0.01072570
-0.00333681
-0.02132689
-0.00788204
-0.01072932
-0.00079458
0.04109409
0.01051888
0.04813622
0.01523613
0.01853232
-0.00584953
0.00563636
0.01034119
0.04781180
0.01307560
-0.02024254
0.04242267
0.00337402
0.04520533
0.04691980
0.04794491
-0.04906605
0.05252020
-0.03305407
-0.00375423
0.04795334
0.00903296
-0.04667823
0.02068784
-0.04214295
-0.01323552
0.00510828
0.00544892
0.01054554
0.02466625
-0.02471479
0.02092486
-0.01755805
0.03691779
0.01769677
-0.02926224
-0.02825802
0.05062335
-0.03673478
0.00166677
-0.03797939
0.01456778
0.03981253
-0.04243098
0.03712983
-0.04856948
0.03232773
0.02052915
0.04861722
0.04125405
-0.00418128
0.01298853
-0.02320669
-0.00150074
0.02278840
0.03616692
-0.02797901
0.05198086
0.00033686
0.01658400
0.02312245
-0.01802761
-0.02676788
0.04666305
-0.02321999
0.04124886
0.05325158
0.01377782
0.05355945
0.05131934
-0.01856462
-0.00779283
0.03465164
0.03909520
0.00186867
0.02214736
-0.02174189
-0.03457330
-0.02683349
0.04482318
0.04687345
0.01343841
0.01737097
0.00630508
0.02465716
0.03360330
0.00974023
0.01870356
0.03327551
0.01158255
0.03099869
0.03980861
0.03422265
0.05208329
0.03224104
-0.03597781
0.01437196
0.02758826
0.02534174
-0.03437587
-0.03158318
0.00088797
0.03609178
-0.04248353
0.03277588
0.03807036
-0.02625485
-0.02893350
-0.04860073
-0.01761945
0.04675993
0.03299111
0.03355534
-0.04771838
-0.01178374
0.05224571
-0.02860691
-0.03816538
0.03614476
0.00985733
0.01147636
-0.03835694
-0.03700915
-0.03747308
-0.01927311
-0.00580192
0.01411060
-0.00263582
-0.01566764
0.01604654
0.01927272
0.01180540
-0.04370603
-0.00070680
0.03034382
-0.01348929
-0.04868071
-0.03562987
0.00056483
0.04272485
0.00830051
-0.04199666
0.01014051
0.02909203
-0.01792841
-0.03274646
-0.01741575
0.00721632
-0.01712763
0.01998576
-0.00533994
-0.02269627
0.03834410
0.03153651
0.03928166
-0.00112764
0.03573205
-0.02579419
-0.01780823
-0.04294148
0.02772027
0.04090737
0.04804397
0.03986064
0.02309597
0.03383191
-0.00154794
0.00235486
-0.02622931
-0.00005114
-0.01608002
0.02693586
0.02967982
0.02176160
0.03079134
-0.01570263
0.01669816
-0.03533252
0.03961484
-0.00837659
0.04089907
-0.04076713
-0.03645835
-0.01917644
0.04311338
0.01444320
0.01496971
0.04461377
0.00169181
-0.03283514
-0.02368459
0.02194416
-0.02834375
0.02388450
-0.02243530
0.05165029
-0.00292798
-0.02205264
0.00360905
-0.03524620
0.00451263
-0.03519313
-0.00023863
0.01852997
0.03137923
-0.00754660
0.01942671
-0.02315559
-0.02903615
0.01305172
0.02905363
-0.03467354
0.03182396
0.01839825
0.01518414
-0.00685303
0.01118690
0.04524820
-0.02699141
-0.01030088
-0.00141782
-0.02328198
0.04615750
0.02680738
-0.03172389
0.00884984
-0.02251473
0.01482977
-0.02063088
-0.01041188
0.03633104
-0.00556193
0.00469939
0.02575010
-0.02211813
-0.01425096
-0.01507369
-0.02369820
-0.00283243
0.03456475
-0.00209684
0.00529865
0.04186641
-0.04701559
-0.03513754
0.02692635
0.04983972
-0.01068550
-0.03266723
0.00257865
-0.00507230
-0.00162517
0.02381591
0.02075077
0.03597951
0.04676010
0.00785714
-0.02845089
-0.04479954
-0.03617782
0.03459327
0.04262089
-0.00431302
0.02818797
-0.03307471
0.03653837
0.01788668
-0.00573383
0.00283468
0.02052497
-0.01965717
0.01212885
0.01716652
-0.00081947
-0.00247862
-0.04112114
-0.01931215
0.01088290
0.02017974
-0.02728739
0.01659222
-0.01979388
-0.03194122
0.05070178
0.03578917
-0.03095974
0.01249886
-0.03579034
0.01329337
0.00251228
-0.03301112
0.02455661
-0.01294095
-0.02461281
-0.03206277
-0.04464182
0.01668094
0.02082358
-0.01084086
-0.02232504
-0.02513084
0.04668510
0.05086990
-0.04716884
0.04610997
0.04556061
-0.02936625
-0.03388255
-0.01015208
-0.04245652
-0.04474077
-0.02562694
0.04413221
-0.04732408
-0.04321139
-0.00323736
0.01979800
0.01086934
0.04349593
-0.04794952
-0.02427077
0.00755524
-0.01753308
0.01437040
-0.01248983
0.04688353
0.02531885
0.05072875
-0.02414809
-0.00939003
0.00119407
0.00038747
0.04993333
0.00397776
-0.00156193
-0.02057806
0.00511099
0.02252479
0.02083327
-0.00220213
-0.00295091
-0.04022767
-0.01270403
-0.00430123
0.02736001
0.00361753
0.04311077
-0.00223527
0.04773558
-0.01481127
-0.03053772
-0.04503217
0.01906362
-0.04900476
0.05192504
0.01897253
0.02433986
0.03793577
0.00938508
0.01008613
-0.04773614
-0.01496102
0.00297195
-0.00898019
-0.01173127
-0.00505976
0.03731244
-0.00921848
-0.04688691
-0.04430350
-0.04573053
0.04238551
-0.04726146
0.01095203
-0.03547741
-0.02237856
0.01641185
0.02942161
-0.00352937
-0.01235493
-0.02793187
0.03931588
-0.00430080
-0.02513845
-0.01622842
0.04726387
-0.01336279
0.03175638
0.04405602
0.02836801
0.05073230
0.02080406
-0.01161337
0.00747025
-0.02338963
-0.04139001
-0.02416228
-0.01868900
0.02752795
0.02649494
0.02494121
0.01127775
0.04211665
-0.04516281
-0.02008914
0.03425036
0.01379852
0.02255600
0.03292962
0.02849073
0.01328630
-0.04672254
0.00256194
0.00214361
-0.01932962
0.03795373
-0.00360525
0.01390077
-0.03970705
0.02985448
-0.04704634
0.01405621
0.02892380
0.04221746
-0.03233146
0.01410247
-0.00548622
-0.00069144
0.03251227
0.01434659
0.01678242
0.01225802
0.00219445
0.04606090
-0.01293799
0.04261897
-0.02065031
-0.02300680
-0.02297459
0.05031231
-0.02038345
-0.04814138
-0.01986326
-0.04266092
0.05119981
0.00689182
0.01321817
0.01069070
-0.02433187
-0.03518808
-0.03335471
-0.03421171
-0.03129177
-0.01730868
-0.04867682
0.00400868
-0.04303752
-0.01547922
-0.01476632
0.05177777
-0.01309550
-0.01079181
-0.00146447
-0.02818550
0.00116272
0.05240686
-0.02443658
-0.00198708
-0.01862342
0.01933548
0.04595549
-0.02155103
-0.00797349
0.01590939
-0.02991675
0.01786169
-0.01900069
-0.01855402
0.04259475
-0.02497915
-0.01421188
0.02136863
-0.04701229
-0.01782949
0.02886433
-0.02853899
0.02707511
0.01577825
0.00248982
0.02755976
-0.03482117
-0.01225092
0.03907948
-0.04061456
-0.01127377
-0.00071985
-0.04026508
-0.01603072
-0.04950655
0.04897732
-0.02698185
-0.00377636
0.04478097
0.00328761
-0.01831254
-0.04437051
0.00858846
0.04300473
-0.04619484
0.01831449
-0.02123875
-0.04562537
0.00236455
-0.01436969
-0.02929081
-0.00858819
0.02253219
-0.02971632
0.00768397
0.05071486
0.03562821
0.02166487
0.03871622
0.02556426
0.03649705
0.01059987
0.03355223
-0.03634045
0.01107765
-0.01084367
0.03339453
-0.00438287
0.02577296
-0.03220730
-0.00366801
0.02979067
0.03750980
-0.00593894
-0.04047775
0.02452629
0.01294393
0.04983029
0.04113035
0.05177129
-0.00767866
0.01621669
-0.01963559
-0.03024203
0.02211894
-0.00590155
-0.01331509
-0.04155824
0.05206170
0.02476113
-0.00241296
0.03008299
0.02356539
0.01829389
-0.00652092
-0.00459250
-0.01095597
0.04804612
0.02998153
0.01922653
0.04933049
-0.04011248
0.03940136
-0.01556445
-0.04739845
0.01149413
0.03986610
0.03977745
-0.02256455
0.00126514
-0.01704851
0.01783294
-0.00425914
-0.03859101
0.01219969
0.01983034
-0.00342329
0.04822733
-0.03388360
0.02871154
-0.03653041
-0.00045997
-0.00634888
0.02557785
-0.00013304
0.02414384
0.00658179
0.01287390
0.02957682
-0.00532791
0.02603124
-0.01298621
-0.01869547
-0.01541597
0.04993456
-0.04734836
-0.02262517
-0.03775329
-0.03148592
-0.00342136
-0.03381845
0.03742466
-0.04937553
0.00383679
-0.01578622
0.04964303
0.01389708
-0.03368388
0.01335178
0.00647157
-0.02721983
-0.00663378
0.00589077
-0.00162426
-0.03939675
0.03688773
-0.02465500
-0.01443431
0.01828677
-0.01966517
0.00930311
0.01189936
-0.01054759
-0.04663661
-0.04339090
0.02716556
-0.02359291
-0.01131006
0.02687057
-0.03111612
0.02509952
0.00281735
-0.03847082
0.05022602
0.04243200
0.04539728
-0.02473153
-0.02679799
-0.04688936
-0.04661037
-0.01000645
0.00576642
0.03303158
0.00228977
0.00606338
0.04698313
0.04227247
0.03094116
-0.03950012
-0.00118095
-0.01192260
0.00222406
0.05020545
0.02357319
-0.04141061
0.01751467
-0.03408582
0.04268093
0.03066902
-0.02580547
0.03114481
0.01915624
-0.00268057
-0.00157374
-0.04003909
0.04162519
-0.01615878
-0.03908475
0.00352698
-0.03890847
0.04969312
-0.00038957
0.02686337
-0.02311983
0.00729082
0.03547078
0.00719320
0.01029889
0.01526871
-0.00261929
0.04654768
-0.00140056
0.04389297
0.04997152
-0.01257002
-0.04895906
-0.03624298
-0.03329556
0.04865016
-0.02081389
-0.00929101
-0.02222987
0.03982628
-0.01167852
0.00527059
0.04829507
0.03074756
-0.04580694
-0.02412176
-0.04019260
0.04553169
-0.00652246
0.00080259
0.02627781
-0.00051589
0.00274767
-0.01637988
0.01583317
-0.02379073
-0.00150721
-0.03946507
-0.02128230
-0.04486096
-0.04100010
-0.04291968
0.03619076
-0.00361501
0.04231944
0.05026075
-0.01706476
0.03385426
0.01462338
0.04327298
-0.03616315
-0.04733701
0.02175973
0.02886721
0.00685416
-0.00656776
0.00175278
0.02327180
-0.04652304
0.02481807
0.04614113
-0.04869399
-0.04576415
0.03166992
0.03114618
-0.01473375
0.04809818
0.04113616
0.03945404
0.02397826
-0.04032572
0.01380049
-0.04758258
-0.03038087
0.01212554
0.05250724
-0.01829736
0.03452238
-0.03595196
-0.02100312
0.00812564
0.02265138
0.02441575
0.05120917
-0.00021320
0.02148864
-0.02466123
-0.02138451
-0.01628384
0.01265862
0.01274402
-0.04613084
0.04648106
0.02221354
-0.01822870
0.02526118
-0.05024463
0.03382397
0.03513994
-0.03525041
0.02695560
-0.01682385
-0.01396122
0.00842280
-0.04887170
0.02318097
0.02181767
-0.00192548
-0.00128313
0.04262992
0.03122702
0.04468589
-0.02737836
-0.00067118
-0.04509365
-0.02952884
-0.01888750
-0.04839833
-0.01411804
0.00383395
-0.03440340
-0.01010083
-0.00887688
-0.01706936
-0.01576074
0.02923111
-0.03317774
0.01773120
-0.02239635
-0.01902090
-0.00151188
0.03113467
0.01170364
0.01896786
0.03925885
0.04333902
-0.00290064
0.04657573
0.03724050
0.03130791
-0.04688755
-0.03628886
0.04137230
-0.00395359
0.02321531
-0.02074073
0.02615592
0.04925451
-0.03431346
0.00237315
0.01852485
-0.01974580
-0.00326982
-0.00149786
0.04032256
-0.01131560
0.02596894
0.02315706
-0.00031859
-0.01684309
0.00770999
0.04393703
0.05129548
-0.01218168
-0.01855393
0.01888856
-0.02403471
-0.03179973
-0.00645097
0.00824325
-0.02498431
0.01480237
-0.00029088
0.03974237
-0.03291564
0.01205710
-0.03715199
0.01280678
0.00143456
0.00875833
0.01167529
-0.03034118
0.03031021
0.01714436
0.01754473
0.00504379
0.01368332
-0.00258157
-0.03690821
-0.03717895
-0.02735868
0.00285294
-0.01094723
-0.01552768
0.01189753
-0.01885408
-0.01084946
0.04073004
0.03948855
0.04849854
0.03411793
0.02980611
-0.02339520
0.03420691
0.03231627
0.01888943
-0.03105430
-0.04904152
0.02456324
0.01323872
-0.02825864
0.00178070
-0.00916850
0.02674436
0.01114170
0.01095800
0.02189052
0.01518080
0.04055566
-0.03603240
-0.02323855
0.04542738
-0.00014675
0.04413329
0.02861877
0.03613875
-0.02910874
0.03215968
-0.02095882
-0.02890085
-0.01718044
0.00252209
0.02628430
-0.02054420
0.00820787
-0.04768649
0.01851539
-0.00991619
-0.03297516
0.03704879
-0.01477279
0.02510583
0.00352625
0.03134032
0.04803582
0.00267811
0.03013293
0.00638523
0.03003439
0.03012866
0.01652697
-0.01615610
-0.01688875
0.01509305
0.03731518
-0.00683370
0.03726563
0.02536986
-0.04789465
-0.03165692
0.01715038
0.03063810
0.01131531
-0.01137745
0.02083978
0.03753746
0.00315793
0.01650031
-0.03288798
-0.02919007
-0.03382819
0.00325186
-0.01452834
0.04741833
0.02534371
0.04641967
0.04531662
-0.04969024
0.00190345
-0.00742820
0.02872004
-0.03588244
0.02663201
-0.01109009
-0.02884447
0.00542636
-0.03124789
0.02218399
0.04868238
0.02995329
-0.04250787
0.03460550
0.01639823
-0.03789704
0.03547702
-0.00016715
-0.00471367
0.03373980
-0.04309555
0.04346981
0.01007013
0.04443748
-0.02517181
-0.03443439
0.00814232
-0.01276758
0.02034192
-0.04139226
-0.01616891
-0.01696199
0.02789745
-0.00275537
0.03108089
0.02850955
0.01834960
0.03951337
-0.03930987
0.00196493
0.02455857
0.02931704
0.04095365
-0.04803556
-0.04413500
-0.00281080
0.03792900
-0.02319986
0.03222415
0.00741962
-0.03211015
0.01128119
0.00963350
0.01023914
-0.00090383
-0.02021088
0.00396272
0.01757580
0.04327492
0.00617194
-0.04893956
-0.03612249
-0.01715244
-0.00009983
-0.04966602
0.04394173
-0.02097192
-0.00361843
0.04726528
0.02557220
0.01402451
0.04216296
-0.03596073
-0.01666632
-0.04302990
-0.02552954
0.01474541
-0.03379478
0.04375473
-0.01753750
0.02987516
-0.02329509
0.02722644
0.02198346
0.01979369
-0.03740610
-0.00791616
-0.02101422
0.04394510
-0.02151873
-0.04752595
-0.00687574
0.00418115
0.00752845
-0.04368065
-0.04926422
-0.01208363
-0.02530490
-0.04435547
0.03755569
0.00372003
0.02076301
-0.04925597
0.03548375
-0.02390895
0.03397102
-0.03478838
0.02430930
-0.04499083
-0.00933032
0.00774224
0.03910980
-0.04776803
0.00295466
0.03933322
-0.04592414
0.01705633
-0.00225063
-0.01747515
-0.00890685
0.04495994
-0.04863048
-0.04277764
-0.03806290
-0.01966722
-0.03543822
-0.04353897
-0.03135367
-0.00908223
0.01878235
-0.01377435
-0.02390787
0.03650951
-0.01107404
-0.03414554
-0.04437524
-0.04714736
-0.00517779
0.02892862
-0.02734530
0.02909490
-0.03569968
0.01058933
-0.04519415
-0.03560851
-0.03864123
-0.04837071
-0.01744523
-0.04574601
-0.01092666
0.01339986
-0.03593297
0.01065338
0.00260434
0.04154209
0.02956854
-0.00035125
0.01501030
-0.01582454
0.05058949
0.01768543
0.02457313
-0.00428932
0.00462093
-0.03516762
-0.04959312
0.02540627
0.02970949
0.02429511
-0.01907747
0.01950958
-0.03646514
-0.04918769
-0.00937085
0.04830272
0.02107195
0.00260062
0.01999224
-0.00216177
0.02716067
0.04220024
-0.03963216
0.03595592
-0.00776123
-0.01430564
0.04468239
-0.03327682
-0.01572662
0.01167274
-0.02253584
-0.00491775
-0.00455983
-0.00902460
0.01873856
-0.03142645
-0.00896125
0.00630268
0.00141158
-0.03570061
-0.03733961
0.01030455
0.02619966
0.03953466
-0.01680841
-0.02507677
0.02347930
0.02029498
-0.03138927
-0.02039480
0.03152374
-0.03628515
-0.04886071
-0.00211568
-0.02119040
-0.02025955
0.00752967
0.01745241
-0.00056157
-0.02485165
0.02002042
-0.02531091
-0.00434912
0.04628032
-0.01688607
0.02924334
-0.00323757
0.03300127
0.00704234
-0.04501433
0.04467474
0.01022745
-0.00925724
-0.02407974
0.01768650
-0.01406099
-0.03287011
-0.00403888
0.02266844
-0.01531962
0.00461437
0.00177527
0.03093395
-0.03157591
0.01548357
-0.02130787
0.00008528
0.03839295
-0.00765216
0.05033369
0.03609725
0.00471670
0.02612505
-0.02647899
-0.01652050
0.02992747
0.01550366
0.01544055
-0.02621597
0.01919250
0.00655805
0.01933315
0.02162549
-0.01186954
-0.01294532
0.00981941
0.00318959
-0.03829129
0.04720216
0.02227268
0.01684402
-0.00037318
0.00947257
-0.00568375
0.03090677
0.02430326
0.04359402
0.03047866
-0.00593341
0.01675548
0.02685574
-0.04372530
0.01834775
-0.01816518
0.00161627
0.03364284
0.00896963
-0.01894444
0.03351859
-0.03470692
-0.03550440
0.03023999
0.01063863
0.04506721
0.04872436
0.00217281
0.00537914
0.04200239
-0.02451186
-0.03049022
-0.03838097
0.04719231
0.00324546
-0.01748245
0.05050229
-0.03523344
-0.01201889
-0.00088199
-0.02309465
0.03336544
-0.00550888
-0.04981197
-0.04733057
-0.00627516
-0.00966444
-0.02579762
0.03979032
0.02329174
0.00985777
-0.00588146
0.02461726
0.03321039
-0.03246157
0.00976535
0.04834823
-0.01313386
0.03845695
-0.03598591
0.04814694
-0.03945854
-0.04856882
0.02647796
0.02329063
-0.00256873
0.02297741
-0.02180901
0.01183110
-0.01352153
0.01087945
-0.01522494
0.01385939
-0.04882441
-0.02514570
-0.04304815
-0.03926425
0.01926894
0.01446736
0.04181689
-0.01105589
0.03586606
0.03768441
0.01793620
0.03003720
0.01888283
0.03052824
-0.02094883
0.01268919
-0.00419017
-0.00457893
0.02491639
0.04292565
0.02542969
-0.01509474
-0.02303040
-0.04112536
0.03322839
0.03410907
-0.00785522
-0.03392748
-0.03154247
-0.04729133
0.02572028
0.04786628
-0.00848257
0.04491246
-0.01120949
0.03357921
-0.02496039
0.00099609
0.04558455
0.01050222
0.02563219
-0.01740157
-0.03517598
-0.01421552
-0.00777042
-0.02007089
-0.02691177
-0.01024283
-0.04139497
0.01708908
0.03029332
0.02833991
0.05236188
-0.00808716
-0.01291073
0.04121842
0.01859180
-0.01820966
0.03394753
-0.04831144
0.03734414
-0.03158872
-0.04445423
-0.02063771
-0.03020597
0.03515030
-0.02275699
-0.03586920
-0.00548704
0.00820847
0.03703283
0.03730381
0.04446792
0.01485753
-0.04267956
0.01865467
0.00329878
-0.00791558
0.04298402
0.02877046
-0.02804357
0.03258111
0.02555327
-0.02158979
0.00322129
0.04077467
0.00604364
-0.02758143
0.03226544
0.04059657
0.02052065
-0.04651310
-0.02546131
0.04031576
0.04220765
0.04406437
-0.00545554
0.04734381
-0.02064475
-0.04199847
-0.04373997
0.01374421
-0.02131794
0.04272346
-0.02181501
-0.04693669
0.03729560
-0.02786992
0.04556233
0.05061907
-0.01048944
0.03472322
0.01253710
-0.03186780
-0.01483144
-0.04804666
-0.02385658
-0.01177700
0.04639170
0.00364217
0.02807820
-0.00998250
0.02173033
0.02856563
0.01761042
0.03613970
0.01192044
-0.04854462
0.03743755
0.02146327
0.01522705
0.00091969
-0.01035430
-0.04843998
-0.00406538
-0.04657578
0.01290683
0.02081281
0.02677438
-0.01438946
0.04359229
-0.01280690
0.03267726
0.04504069
-0.03539290
-0.01952613
0.05157526
0.02344546
0.04120299
-0.03375917
0.04609223
0.04052244
0.04354465
0.03651741
-0.03833264
-0.03623518
-0.02911173
0.04508263
-0.02231534
0.03653896
-0.02910198
-0.03616265
-0.03536893
-0.04502691
-0.01221265
0.02395103
0.01532694
0.02682034
0.04232479
0.02829842
-0.02914181
0.02119856
-0.00024408
0.01418584
0.03042849
-0.02460338
0.03400823
0.02454641
-0.03417492
-0.00894743
0.02890398
-0.04346630
0.03999246
0.00254919
0.03067478
0.02334727
-0.03281011
-0.03058159
-0.04016064
-0.04053121
0.04632894
0.02429089
0.01277153
-0.04302038
0.04055959
-0.02689987
0.05081388
-0.03691043
0.02787833
0.04648745
0.04412017
0.04190133
0.01227977
-0.01580687
0.03336335
0.01791055
-0.03525630
0.04472269
-0.02829989
0.02027354
-0.02986252
0.00429025
-0.02197811
0.02376080
0.01983810
-0.01238384
-0.02013774
-0.01851419
0.01389746
-0.04502453
0.00176353
-0.03628412
0.01428479
0.01903064
0.03774686
0.02615804
0.03851650
-0.03282290
0.04981247
-0.00265754
-0.02531625
0.04877580
0.00003469
0.01280424
0.01455155
0.05190069
-0.02575326
0.04698642
-0.00353926
-0.02960299
-0.00108051
-0.04661306
-0.03704051
-0.04625760
-0.02368508
0.04325158
-0.00518495
-0.01335182
-0.00963779
-0.01766429
0.02326564
0.04243790
-0.01927730
-0.02804768
0.00127463
-0.04766389
-0.03130246
0.02540478
0.03232191
-0.04794485
-0.01171417
-0.00853035
0.02237886
0.04528969
0.02689515
-0.00599398
-0.04162482
-0.02469734
0.01707978
-0.00953180
0.04822527
-0.00539095
-0.02952276
-0.00532211
-0.02920699
-0.04281222
0.00058849
0.02639680
-0.01890879
-0.00275422
0.04957829
0.02401245
-0.01701855
0.03654468
-0.01308998
0.05397203
0.03768625
0.00770861
0.02304653
-0.02013499
-0.04416005
0.00130292
-0.00188528
-0.02859380
0.03395982
-0.03920317
-0.04514223
-0.01290868
-0.04858593
-0.01254846
0.04460776
-0.00104331
0.03436664
-0.00936147
0.00269117
0.03497523
0.05041807
0.03283245
0.01685146
0.01928622
0.02319561
-0.01345275
0.04128933
0.04193566
0.03977438
0.01055549
0.02116696
0.03955444
-0.01992076
-0.04676029
-0.04614880
0.04754164
0.04491013
-0.02667800
0.04518813
0.02483893
0.01507703
-0.03788256
0.01226483
-0.04855200
0.01329437
0.04638439
0.05020201
0.04235429
0.04059172
-0.02701443
-0.03036747
-0.01060795
0.00449173
-0.00187050
-0.02475509
-0.01594635
0.04361212
-0.03570887
0.01640249
-0.05064340
-0.04735414
-0.00684806
-0.02037713
-0.00821732
0.02014306
0.04889116
0.04137596
-0.00494178
0.03173579
-0.03075848
-0.02921578
-0.00316868
0.02436484
-0.01898144
0.01625807
-0.04585881
0.02221082
-0.00963108
-0.04354180
0.04926433
-0.03013552
-0.00319245
0.01583901
0.00318740
-0.02692438
0.05024452
0.03074609
0.01579769
0.00572859
0.01822186
-0.04645256
-0.00752438
-0.03623301
0.01192669
0.05065068
-0.03960491
-0.03434754
0.04440657
0.03961572
0.02999580
-0.01843451
-0.02092895
-0.01833131
-0.00547577
0.04363663
-0.03828720
0.04187965
0.03522675
-0.02022930
-0.01071039
0.03457884
-0.01037163
0.02386148
-0.01528727
-0.02174466
0.02026313
-0.04855169
-0.03052904
0.04957931
0.03481489
0.01778053
-0.01588034
0.00986116
0.00383651
-0.02126931
0.02406183
0.00711419
0.01432174
0.03341127
0.01532300
0.01025860
0.04984640
0.03990268
0.02744827
0.01206968
0.04169680
0.05005918
0.01982840
-0.04736817
-0.03463541
-0.04469972
-0.02968057
-0.04807828
-0.02426107
-0.00255679
0.01520638
-0.02703234
-0.02630254
-0.00104355
0.01001076
0.02013720
-0.01866269
-0.04170676
-0.04719587
-0.04605763
0.03202318
0.02059118
-0.04752646
0.00822703
-0.02235856
-0.00447324
-0.00339574
-0.03706248
0.02066536
-0.00427743
-0.00788094
0.01147806
0.02395515
0.04752540
-0.03920404
-0.04047595
-0.04388634
-0.01986013
0.04793750
-0.04456535
0.03434758
-0.00846786
0.01564725
-0.00061568
-0.01588132
0.04381360
-0.01277384
0.00629595
-0.00479857
-0.00730111
-0.01270325
-0.02885438
0.01948559
-0.04741507
0.04009604
-0.03467823
0.01817319
-0.00796833
0.03187006
-0.01953443
-0.02015435
0.00278064
0.02356821
0.01871927
-0.02053930
-0.03635208
0.04625398
0.04671138
-0.01306493
0.00229075
-0.00581871
-0.04365879
0.03610443
0.04488121
-0.00658259
0.00034728
-0.00989494
0.01055053
0.04952786
-0.00002133
0.02995521
0.00857732
-0.04170031
0.00488173
-0.03218900
-0.01456268
-0.04322054
-0.01859265
-0.04325713
0.01342520
0.01757165
0.01151688
-0.00734116
-0.02864073
-0.04577771
-0.00886750
-0.02186500
-0.00059193
-0.00696584
0.02328777
0.03275438
0.01855201
0.03229755
-0.03238223
-0.00649497
-0.00375504
-0.03483858
0.02965706
0.02700708
0.02283274
-0.01589975
0.00050457
-0.01933542
-0.01363765
-0.00647414
-0.03003784
0.05181114
0.01207251
-0.00629501
0.01555999
0.03404121
0.00220947
0.01724088
0.00617366
-0.00819374
-0.03945573
-0.03024087
-0.04655369
0.00212752
-0.04206948
0.01789472
0.04361812
0.03585723
-0.03440260
-0.01258169
-0.02953468
0.01869957
-0.02627732
0.02802465
0.04112960
0.00291879
0.01897170
-0.04624130
-0.01682524
0.01671038
0.03893215
0.03387256
0.04073490
-0.00396519
0.00597474
-0.04793103
0.01380421
0.02484614
0.00489348
-0.03614398
-0.00263235
-0.04802388
0.01965026
0.03451822
0.00877640
0.00471098
-0.04292591
-0.02092849
0.04349806
0.02155743
0.03815121
-0.04560167
0.01473205
-0.01977724
0.01381756
0.00133004
0.04666904
-0.02163713
-0.03184272
-0.01755936
-0.03419376
-0.00591977
0.03228605
-0.02852281
0.01001769
-0.04601666
0.03598655
0.01669498
0.02473566
-0.00058785
-0.03378976
0.04205777
-0.01352201
-0.03252636
-0.03379787
0.00434013
0.02923648
-0.03078972
0.02144823
-0.00169755
-0.02050534
0.02081726
-0.00969286
0.00704903
-0.01626702
-0.03851504
-0.03833028
0.04739686
-0.05032600
0.00307197
-0.04959600
0.01161722
-0.00018224
-0.03137206
-0.04857858
-0.00073055
-0.02396756
0.01166707
0.03270175
-0.04419743
-0.00428636
0.00993351
-0.01109241
0.01524415
-0.03791113
-0.01761149
0.04557276
0.05085291
0.05054364
0.01011466
-0.03905088
0.03313075
-0.02523649
0.01008473
0.04476504
-0.02030876
0.01906949
0.00081714
-0.02372688
0.00425035
0.02941254
0.03127780
0.02909155
-0.00317889
0.05102029
0.02858992
-0.00114301
0.04488837
-0.03671499
0.00935562
0.04159534
0.02969811
0.01242567
-0.04826809
-0.00227126
0.01413575
0.02717566
0.04721956
-0.00694842
-0.00322810
0.02772506
0.03476414
-0.01178024
0.01690501
-0.01464126
0.03157879
-0.01762303
0.04317434
0.04454870
-0.01436023
0.03171047
0.03485837
0.01464600
-0.03709676
-0.01777048
-0.02984053
0.01859941
-0.01001009
0.03986510
-0.02803312
0.03582386
-0.02729864
0.03427248
0.05225789
-0.02080202
0.04158411
0.00144300
0.01077470
0.04140698
0.03730674
0.01949805
0.04232395
0.04342352
0.02325488
-0.03684147
0.04249488
0.04230805
0.01069927
-0.01413378
0.00399485
-0.01711082
0.03472160
-0.03549615
0.03444878
0.00973339
-0.03243871
-0.02951580
0.00689738
0.01713981
-0.00728427
-0.03321287
0.01008124
-0.02898297
0.03436972
0.04263312
-0.05081379
0.04780383
0.04611534
-0.04200365
-0.03666798
-0.04629347
-0.02252501
-0.04204699
0.03950724
0.01497757
0.04506694
-0.01615163
-0.01178938
-0.02652434
0.05231644
-0.03737427
-0.04712494
0.00673350
0.02897676
0.00820665
0.03117645
-0.00001926
0.03722869
0.04182307
0.04204500
0.05065640
0.01611758
-0.02753205
-0.01197168
-0.02833262
-0.01783125
-0.00972890
0.00707236
0.05371087
0.02721092
0.02564101
-0.00379988
-0.00208013
0.03900053
0.02824341
-0.03167539
-0.00169294
0.01428192
0.00168087
-0.04711387
0.05104773
-0.02818648
-0.03401095
-0.02681021
0.01909374
-0.01747070
0.04805293
-0.00089052
-0.00575704
-0.02464938
-0.02776995
-0.00655474
0.00676114
-0.04710092
-0.00012369
0.03368213
0.04101969
0.03618069
-0.04811837
-0.00618170
0.01500031
-0.00364400
-0.01988746
0.01886034
0.03681378
-0.02670546
-0.03335034
0.01384119
0.04771551
0.03843356
0.02966714
0.02773859
0.04801352
0.00640427
0.04178194
0.04102936
-0.00464777
-0.01943227
0.04677656
-0.04012896
0.00910389
-0.00860424
0.02838540
-0.02986489
-0.04359428
0.04449118
0.05363096
0.02723131
-0.02561994
0.00609177
-0.01644211
-0.03686942
-0.02652580
-0.03350595
-0.03606961
0.03145360
0.04986396
-0.02701262
-0.03153607
-0.00353438
-0.03325576
0.01106572
0.02429554
0.00593059
-0.00157757
0.02686336
0.01613712
-0.03253599
-0.04813828
-0.00799103
-0.00576779
0.04222464
0.00471665
0.01561177
-0.00590974
0.01282830
0.04234079
-0.01444376
0.02243026
-0.04229034
0.00092440
-0.04119026
0.03791827
0.02535406
0.03846802
-0.00905625
0.02432048
0.01962489
-0.03909117
0.05030239
0.03216850
-0.04304888
-0.02013727
0.04100117
-0.04527099
0.04807591
-0.03231570
-0.01336465
0.04452579
-0.02162009
-0.02232476
0.01805221
-0.03146802
-0.03739163
0.00986432
-0.01656185
-0.00663453
-0.02354320
0.02159511
0.01476748
0.01898751
-0.04485748
0.02768032
-0.01545321
0.04590971
0.02542681
0.00967623
-0.03791770
-0.00536517
-0.04378536
-0.01861989
0.01970607
0.00740561
0.01073531
0.00248867
-0.00731729
0.03304839
-0.00311296
-0.02821713
0.03065171
0.01028197
-0.02021149
-0.03246881
-0.01646088
0.02966509
0.00429580
-0.02892384
0.02901315
0.04541349
0.04356063
0.01922588
-0.02496945
-0.04515631
-0.02961377
0.04132671
0.00447396
-0.03005014
0.00585391
-0.01077249
-0.03509939
-0.02436188
0.03951741
-0.03026875
-0.00232443
0.04112789
-0.00109952
0.04322550
-0.03524154
0.01782405
0.04101289
-0.03521878
0.00722964
0.04117486
-0.02278201
0.02420751
-0.03744294
0.03775118
-0.00443875
-0.00857979
-0.01459409
0.00652019
0.01625563
0.03326384
-0.00482791
-0.03357214
-0.01887404
-0.03016041
-0.01832156
0.02081508
0.01488077
0.04251058
0.00636784
-0.00300394
-0.04706790
0.03599124
0.04748645
-0.03389130
-0.00030876
-0.02067281
0.02490043
0.02025810
0.04987935
-0.04191527
0.04675394
0.01186220
-0.01205235
0.00502126
0.01055548
-0.02640920
0.01459463
0.02893749
0.04690824
0.01300075
-0.03256363
0.02308393
0.00581412
0.00613717
-0.00073850
0.05203418
0.01732917
-0.00704827
0.01968401
-0.00656636
-0.02699615
0.01174604
0.02018289
-0.01653462
-0.04317534
-0.01003532
0.02107452
-0.00564857
-0.03298970
-0.03419236
0.01281919
-0.02077385
-0.01015355
-0.02441547
0.04430777
0.05409110
-0.02573593
0.03683489
0.04555105
-0.01246634
0.01968776
0.04147409
0.00085304
0.00636776
0.01172178
-0.04487622
0.05336858
-0.02420981
0.04303815
0.03337414
-0.01678426
-0.03035262
-0.04657834
-0.00881040
0.00748417
-0.04685175
-0.02851189
0.04630123
0.02286554
0.04591676
0.01928574
0.01031196
0.04856751
-0.02522941
0.03982320
0.00768121
0.02197405
0.00564317
0.03336026
0.00019582
-0.04659032
-0.00997224
0.01585634
-0.02655805
0.00119822
-0.03722327
-0.01085558
-0.01687255
0.01780905
0.00986966
-0.01941468
-0.01371892
0.04733845
-0.01946721
0.03068032
-0.04010316
-0.00609071
-0.00882540
-0.04886201
0.02922229
-0.01782577
0.03739494
0.00966188
0.03791969
-0.01772264
0.02990157
-0.03898371
-0.00893709
0.01247733
0.03862054
0.03174185
-0.00295132
-0.04419854
-0.03869563
-0.01498668
0.03915553
0.02146412
0.04674302
0.04457106
0.04253557
0.02536609
-0.01007579
-0.02373591
-0.01199584
0.02552185
0.00367850
-0.04116366
0.05154553
-0.01746259
0.04388830
0.01347593
0.03569192
0.04073109
0.01324678
-0.02381129
-0.00012162
0.00543944
0.03580081
-0.01023663
0.01110277
0.00919806
0.01900615
-0.02785289
-0.03345164
0.03130598
0.01104875
0.01003207
0.01427850
0.03026239
-0.04123045
0.02115160
0.00877617
-0.00700640
-0.01519365
0.04934643
0.03343104
-0.02156736
0.00678617
-0.02488552
-0.02504800
0.02188696
-0.02922730
-0.02295036
-0.01911002
0.00457331
-0.04185504
-0.00813533
-0.03026771
0.03933956
0.04475695
-0.00417190
0.05060995
0.04128471
0.02768798
0.00508656
0.02995377
-0.03892668
-0.00254735
-0.02603312
-0.00621842
0.01528469
-0.02749003
0.01057475
-0.02907452
-0.02485821
-0.02295116
0.01039687
0.04026450
0.01458246
-0.03209962
0.03348402
-0.00755781
0.03650035
-0.03574505
0.02349105
0.00418254
-0.01928902
-0.01974969
-0.01910215
-0.00128946
-0.01698499
-0.00454467
0.04344097
0.05222348
0.01368541
0.04586736
-0.04708280
0.00690173
-0.00391230
0.01757300
-0.03711669
0.04534912
0.00054376
-0.03708432
0.05025692
0.00357337
0.04320751
0.00486308
-0.02268460
-0.04708072
0.01023614
0.03269839
0.03242448
0.04815444
0.00810142
-0.00962337
-0.04482150
-0.03324278
0.04282767
0.02180024
-0.04588244
0.01339057
-0.00668279
0.05050528
0.02208785
0.02392032
-0.01606695
0.00380908
-0.03841296
-0.04542344
0.00574464
-0.01492139
0.04111680
0.01921169
0.05212037
-0.01099919
-0.03910369
0.03027072
-0.03286448
0.00812639
0.02315600
0.05005778
0.01914467
0.03700678
0.02758536
0.02010910
-0.01068362
0.03786818
-0.04238531
0.02351848
0.05254108
0.01398830
-0.02461292
0.01516525
0.03741508
-0.00245351
0.02033383
0.04941674
-0.03869472
0.03002988
0.02819274
0.02894671
-0.00233754
-0.02663231
0.02957785
-0.01121674
-0.00829874
-0.03817959
0.00474904
0.01775939
0.04593990
0.02761558
0.02940268
-0.04189761
-0.00788239
0.05315021
0.02514932
-0.00659677
-0.01847658
-0.00441813
-0.04081819
-0.00036108
-0.02357851
0.00621013
0.02061192
0.03233719
0.05074521
-0.00361078
0.03775195
0.01307279
-0.02096550
-0.01796041
-0.03515094
0.03667627
-0.00244847
-0.03931061
-0.04267889
0.00157765
-0.02200385
-0.03911323
0.02757835
0.00321373
-0.03339620
0.05377283
0.02012447
-0.04123199
0.04842469
-0.01635517
0.04820142
-0.04004631
0.01050805
0.04085385
-0.03184820
0.02013261
-0.00972985
0.00684778
0.04683221
0.02345712
0.01097138
-0.04058779
0.01742176
-0.02658423
0.01318378
0.00174723
-0.03179646
-0.00042280
0.04156250
-0.01017005
-0.04334754
-0.02955774
0.02627051
-0.04059763
-0.03420166
0.04175819
-0.01930150
0.03016470
-0.00598217
-0.03086685
-0.01999523
-0.04368718
0.00384950
-0.01450920
-0.04437890
0.00400689
0.04176630
0.05009960
0.00939304
-0.01824750
0.01663858
-0.02324060
-0.01406311
0.04511909
-0.02221585
-0.03639401
-0.02563350
0.02607214
0.02875549
0.03616733
-0.04835365
-0.03327768
-0.00487879
0.04469474
-0.00817644
0.00389590
0.00353331
0.05153507
0.04356487
0.02240454
-0.01257182
0.04171021
-0.00738028
0.01801825
0.01315649
0.03642157
0.03890640
0.00978224
-0.04205679
-0.04157532
0.03797347
0.02987922
-0.04162068
-0.02823222
0.01730249
0.04867101
0.02384435
-0.00250225
0.02382929
0.03476739
-0.00259590
-0.00041616
0.02573899
0.01507020
0.03766929
0.00222503
-0.03711656
0.02644820
0.04209564
0.00296799
-0.00464318
0.05291358
-0.02262595
0.05068308
0.04561900
-0.03226199
-0.02433100
-0.00962160
-0.02278889
-0.04031280
0.04629719
0.04512810
0.02939158
0.02857173
0.04257938
-0.02085197
0.02505165
-0.03691215
0.02101847
0.04549615
-0.01041132
-0.00222603
0.02805481
0.02251257
-0.02824821
0.02404338
-0.02855320
-0.01629389
0.02810384
0.04097703
-0.00446579
-0.01974618
0.05056858
0.04130521
0.01921544
0.04715996
-0.04206490
-0.02754621
-0.03188187
0.01557152
-0.02189817
-0.00948553
0.03637883
0.00929532
-0.04699280
-0.01534059
-0.03907749
-0.04724184
0.01634055
0.04684096
-0.03714819
-0.02487076
-0.01983113
0.04681232
0.01754705
0.00210802
-0.00372745
-0.01793253
0.02143034
-0.00951514
-0.00277055
0.03855007
0.04770454
-0.03492882
-0.04269411
-0.01846313
0.05299168
0.01753646
-0.02168245
-0.02898550
0.01343606
-0.02120821
-0.03162289
-0.04001793
0.03783891
-0.00051508
-0.01792258
0.00481510
-0.02002838
-0.04855065
0.00005582
0.01822955
-0.02800503
0.04718743
-0.00992213
0.03236984
-0.00447244
-0.01816519
-0.00985843
0.04700944
0.03052054
0.05071917
-0.01706556
0.01259584
-0.03579662
-0.01995954
0.02618393
0.00576527
0.03646784
-0.04098956
0.04720573
-0.02181054
0.03291930
0.04116420
-0.02221855
0.00523018
0.05168575
0.03145903
0.04340961
-0.04120422
0.01448258
0.00281514
0.01110669
-0.01529122
0.04855374
-0.04823337
-0.03966689
0.02853100
-0.02421897
0.04658614
-0.01411053
0.03734072
-0.03540627
-0.04080711
-0.03126385
-0.01907242
-0.00666695
0.04971464
-0.01288560
-0.03510069
0.02153363
0.00988205
-0.02837580
-0.02909034
-0.04860272
-0.00848641
0.04125490
0.04900683
0.02361079
0.02321525
0.03269815
-0.03226228
-0.00449144
0.05202756
0.03653013
0.01567042
0.03184675
0.02435835
-0.00006241
-0.03720136
-0.04744577
-0.04546320
-0.00464264
-0.04762758
-0.01347828
-0.04038469
-0.00037793
-0.01718776
0.05398863
0.02775851
-0.00209091
-0.00585796
-0.00324651
-0.04055358
0.04982543
0.00050101
0.02115375
0.04853792
0.01943390
0.04501991
-0.04844495
-0.04440334
0.03556346
-0.00105251
0.05065924
0.00471261
0.04351856
-0.04714660
0.00476647
0.02836619
-0.01174299
0.02117563
-0.02081806
0.02051020
0.00061542
0.02302779
0.03671959
-0.03160766
-0.04434907
-0.00867924
0.00808831
0.02030360
0.04316548
-0.00282534
0.00951073
-0.00508168
0.04349570
0.04216428
0.03652589
-0.00507859
0.01365207
-0.01802278
-0.03396731
-0.03518387
0.00433955
0.02649496
-0.01477443
-0.02768697
-0.02774459
-0.00739683
0.04506565
-0.01290934
0.01855850
0.01536749
-0.01257746
0.04738847
0.01411649
-0.02331095
-0.02355142
-0.01542295
0.04871490
0.03212213
-0.04684266
-0.00207952
0.00691783
0.01293712
0.05038854
0.03919636
0.04183790
-0.02019244
0.01449682
0.04590280
0.04909988
-0.02171347
0.00664150
0.04098936
-0.04689014
-0.01361937
0.05376799
0.04564760
0.03834316
-0.02538038
0.00537863
-0.02725950
0.00278355
-0.03733261
-0.00563360
-0.04304878
0.00677287
-0.00442358
-0.02318357
0.02136849
-0.01166883
0.02732888
-0.00308811
-0.04514538
0.00884535
0.02954882
0.03748311
-0.00480449
0.00330459
0.00697327
-0.04561623
-0.00381541
0.04341989
-0.01351747
-0.01373968
-0.00483273
0.01179335
0.02075747
-0.03020484
-0.03214299
0.01246793
-0.03800013
0.02065290
-0.00684740
-0.03812448
-0.03204771
0.04436297
-0.04228815
-0.02669191
-0.01017099
-0.04187010
0.00707900
0.05351244
0.01788157
-0.02171162
-0.04271802
-0.02861689
-0.02016993
-0.00906811
-0.01854225
0.00100612
-0.04109598
-0.01790548
0.03710489
0.01981244
-0.00471424
-0.00937863
0.04289799
-0.01329098
0.01795300
-0.02727864
-0.03169343
0.01321171
0.02522908
0.04090739
0.02945864
0.01665572
-0.00078626
0.02231563
-0.03734950
-0.04871792
0.00988610
0.03552996
-0.04744264
-0.00590104
-0.01174349
0.01677526
-0.00857788
0.01658099
0.02949363
-0.02551029
-0.01192724
-0.00501107
0.00270279
-0.03207291
-0.00148851
-0.03056950
-0.01740026
0.03522024
0.02676102
-0.01531448
0.04903751
-0.04702554
-0.02371259
-0.04567113
-0.00000228
0.03466649
0.04572499
0.01939289
-0.00460613
-0.03231963
0.00383992
-0.01905466
0.01197165
0.01671081
0.02304430
-0.00551078
0.00006710
0.01255956
-0.04156221
0.00353879
0.01854333
-0.00237686
0.01380997
0.04831101
0.04930724
-0.02821444
0.02536202
0.04208435
-0.00386628
-0.04730773
-0.00988705
0.01927304
0.04155961
-0.02602597
-0.04449707
-0.02730500
0.04818749
-0.04694574
0.02098812
0.03005375
0.02737824
-0.03550674
-0.01716938
-0.03596434
-0.03519998
0.03448250
0.02216427
0.00536348
-0.02282308
0.04367854
0.00627189
0.02935914
0.03582500
0.04215736
-0.04903552
0.02187602
-0.03111690
-0.03267734
0.00525276
0.03585277
-0.01824907
0.01931410
0.00445009
0.01944619
0.00062344
0.03428481
0.00385580
0.03982866
0.03824096
0.03675000
-0.01986365
0.01901330
-0.04724263
0.00991543
-0.04208557
0.02754754
-0.00391459
-0.02416411
-0.01477122
-0.04355989
-0.03045588
0.01558825
0.00683363
0.02997778
-0.02227317
-0.03779795
0.00556987
0.05124663
-0.04548930
0.01823398
-0.04577021
0.01306985
0.02684142
0.02324179
0.02427806
-0.03000045
-0.04377454
0.04223800
0.03795388
-0.03881102
0.03761426
0.04625845
-0.04792710
0.02899612
-0.01794898
-0.02054764
-0.02352406
0.02436553
-0.02259841
0.01516755
-0.03004673
0.03837623
0.02289998
0.01210211
0.03227079
0.03745892
-0.01058371
-0.01769138
0.02575343
-0.00875819
0.04322297
-0.03097966
-0.01314489
-0.01013940
0.00603838
-0.01440380
-0.00690624
-0.00264425
-0.00087951
0.05103498
0.03929416
0.02789443
-0.03258012
0.03883816
-0.00840507
-0.02557572
0.03640860
-0.03761323
-0.02246218
0.00973857
0.00884508
0.02476496
0.00943198
-0.01989611
-0.01187709
0.02122342
-0.04410913
0.02828852
0.03248906
0.03464467
-0.03272751
-0.04586000
0.01206952
-0.03853696
-0.03303545
-0.02120964
0.01166532
0.01173131
0.04790299
0.01689920
0.01871877
0.02716091
0.01066546
0.00554909
0.02358383
-0.01248305
0.03256979
-0.03959022
-0.04362159
0.05006405
0.02888897
0.01473062
-0.04595895
0.01940379
-0.04307652
0.04426368
-0.04342365
-0.03401017
-0.02123487
-0.00108550
-0.02019436
-0.00872361
0.03906626
0.02895494
-0.04400814
0.01988248
0.03164025
-0.01800918
0.02968701
0.04529884
-0.03327345
0.05299571
-0.00202383
0.00796050
0.05027894
0.02982791
0.02748551
0.02457613
0.03104922
0.04017310
-0.00756014
0.03317158
-0.03609456
-0.00204503
-0.03656769
0.00847425
-0.00090759
0.02916138
-0.03126768
0.04414587
-0.01179534
0.02295620
0.00415164
0.00472588
0.01205637
0.01540725
-0.04519987
-0.04196313
-0.02289061
0.04376590
-0.01432338
-0.04605538
-0.01033727
0.01343125
-0.03376136
0.03127860
-0.03143425
-0.03474946
0.03548907
-0.00236434
-0.03499623
-0.00258874
0.00183719
-0.01971298
0.00388014
-0.03098609
0.02821938
0.00834033
0.02321297
-0.03685940
0.01298594
-0.03764865
-0.02398331
-0.01489369
0.00290014
-0.03186404
0.00320756
-0.03240650
0.02127384
0.04748025
0.05226979
-0.04220204
-0.03728615
-0.03563794
-0.02562967
0.03474807
-0.03238481
0.00118734
0.00251366
0.02361597
0.03893328
-0.04812181
-0.01809406
0.02956133
-0.00245625
0.02633508
-0.02856505
-0.03777624
0.05300109
0.03730414
-0.03359631
-0.04155670
0.02914134
0.03068998
0.01748588
0.05295748
-0.02159918
0.02226682
0.02993951
-0.00305521
-0.03049593
0.05151493
0.00507039
0.02894045
0.03395629
0.04135834
0.02701836
0.01684223
-0.01394145
-0.04104054
0.02702288
-0.00784800
-0.04165302
-0.02656951
-0.04774743
-0.03978772
-0.01794468
-0.04074810
-0.00798599
-0.03236086
0.03780014
0.00529255
0.02425693
0.00149609
0.02456820
0.04611157
0.02067369
-0.02947127
0.01855327
0.02647449
0.04203524
0.01367106
0.03591538
0.01893309
0.01288251
-0.02989528
-0.03454731
-0.00072578
-0.03806031
0.02452888
0.03439169
0.00630197
0.05079288
-0.04033651
0.04677229
0.03837230
0.03652585
0.01809874
-0.04188304
0.00203205
0.04329523
0.04464428
0.01040851
0.03990703
-0.02666701
0.03462875
0.00758032
0.02593822
0.03837658
0.00158456
0.04035638
0.03373329
-0.01382969
0.04141284
0.03593628
0.02159691
-0.00465620
-0.01762202
0.00813667
-0.02630051
-0.00810361
0.03847828
-0.02944332
-0.04239745
0.03316952
-0.03297353
0.03856117
-0.03040525
-0.02825770
0.00602063
-0.02509516
-0.03515985
0.01538685
-0.04892072
0.05079061
-0.00759516
0.02245308
0.03267249
0.02431815
-0.02433573
-0.00552023
-0.02192629
-0.00741323
0.02711903
-0.01108648
-0.03635012
-0.00469604
0.03880389
0.01767138
0.02347842
0.01491934
0.02331764
0.04409243
-0.00791396
-0.00680467
0.03069632
0.02152946
-0.00105112
-0.03571824
0.01680001
0.02353287
0.00462041
-0.00535198
0.00831145
-0.02718493
0.02982159
0.01010824
0.04339830
-0.04403903
-0.01846904
-0.02899717
0.02916381
-0.04704416
0.04416029
0.03412089
-0.01315008
0.03235509
0.04451061
-0.02270518
0.05254480
-0.00040471
0.02253218
-0.01967727
0.02549164
0.01598307
0.04356343
-0.03460353
0.03913392
0.04667167
-0.01403852
-0.01524103
-0.01781296
0.02424795
0.02965972
0.04024777
-0.03769422
0.00744932
-0.04360026
-0.03222056
0.01124675
0.03958319
0.02489780
-0.02588237
0.04126198
0.04662514
0.02305115
0.03195294
0.04484414
0.02604154
0.02739306
-0.01680562
-0.03732691
-0.04008087
0.03432200
-0.01513343
0.01498129
-0.04651568
-0.03069478
-0.04049977
0.03447909
0.04826931
0.03054291
0.05256556
-0.01618357
0.01335909
0.03672160
-0.00555974
-0.00526138
0.01781569
0.04435181
-0.03905803
0.04766669
0.04122648
0.00659187
-0.03195180
0.01432437
0.03763219
-0.01049023
-0.04857289
0.01629995
-0.03814718
-0.02066164
0.01189857
-0.02852372
0.03104570
0.01277125
0.01166916
-0.02723500
-0.00160642
-0.02551978
0.04602835
-0.00276731
-0.01622489
-0.01634004
-0.00416084
0.02980477
-0.04197004
-0.01721146
-0.03029031
0.01887450
0.02253652
0.00274742
0.02387106
-0.01275769
-0.00363561
0.02712553
0.02036118
-0.03001522
0.02021238
0.03707193
-0.01168956
-0.03503868
-0.03844794
-0.03080696
0.04972793
0.01337923
-0.05004118
-0.00019475
0.01522792
-0.01134142
0.03845381
-0.04066970
-0.02136119
-0.04032470
-0.02253183
-0.01536015
-0.01777365
-0.04238898
0.04002158
-0.04753484
-0.00939094
0.00551590
-0.01234149
-0.02488639
0.04198906
-0.01849597
-0.03395141
-0.04351304
0.00244411
0.02621892
0.00657593
-0.00774488
-0.01796482
-0.03724456
0.00727543
0.00446235
0.02339344
0.03788773
-0.01458163
0.04904430
0.02127219
0.01407641
0.02886465
0.05103296
-0.00483786
-0.03247054
0.00845223
-0.00069717
-0.02323678
0.02455698
0.03701878
-0.02347961
-0.04460876
0.00542850
0.00484032
0.03489629
-0.01551543
0.00042064
-0.04195133
-0.00653382
-0.02865159
0.02111101
-0.04468139
-0.02550295
-0.03990674
0.00952316
0.04429698
0.01148829
-0.01794935
0.03187822
0.03887430
-0.04674690
0.00070583
0.02076320
-0.00938853
0.01865141
0.00255945
0.03385755
-0.00314358
0.01432269
-0.02759069
-0.03932230
-0.02381844
0.00321647
-0.01791653
0.02550962
-0.04680404
0.01950720
0.02108948
0.03074619
-0.02427235
-0.00001568
0.01562110
0.02546900
-0.02844756
-0.00408323
0.03417149
-0.00835358
0.00277818
-0.01868713
-0.01259537
0.03512620
0.04583909
0.02772636
-0.02878945
0.00247761
0.02930619
0.03878007
0.00417013
0.00314631
0.01970908
-0.01188920
0.05350858
0.00625320
0.03500712
0.05185990
0.03213195
-0.00772845
-0.01875351
0.01544640
0.01526734
0.01128769
-0.01783212
0.00936829
-0.02089348
0.03816283
0.01514239
0.00421237
-0.00307567
0.01829948
0.00662485
-0.03056104
0.03647477
-0.04429236
-0.00679089
-0.00687275
0.02193141
0.03690137
0.02891442
0.02001654
0.00167705
0.04040792
-0.00737798
-0.03909506
-0.04344169
-0.04812009
-0.03911732
0.04625465
0.00447946
-0.02878390
0.01278740
-0.02104270
-0.04793396
0.01697359
-0.01733485
-0.01217844
0.00350119
0.03831037
-0.04940166
0.03105070
0.01389863
-0.00505742
-0.01950577
0.04217561
-0.02594951
0.04348377
-0.03401478
0.04920803
-0.00543263
0.01984177
-0.02271036
0.03768621
0.05004147
0.03097262
-0.03724677
-0.02797185
-0.03538631
-0.02309617
-0.03495936
0.01257232
-0.02170981
0.03563884
0.02174165
0.00579859
-0.04251603
0.00200108
0.01938494
0.01391888
-0.04558660
0.03550795
-0.02292902
-0.03647903
0.03861781
0.03135982
0.02557855
0.05152711
-0.03882257
0.01704276
-0.00914805
-0.00452813
-0.01868597
-0.03767137
0.00121255
0.03620033
-0.03479705
0.00032179
-0.02522202
-0.00321670
0.00903280
-0.02176317
-0.00453494
0.01427810
-0.02184469
-0.01865834
-0.01596052
0.01950799
-0.02305169
-0.00832855
0.04531858
0.02688495
0.01690967
-0.00282683
0.01664150
-0.01188991
-0.02172048
-0.04399967
0.05291036
0.03717142
-0.02620144
0.05319328
0.04161971
0.04233556
0.02133500
-0.03292234
-0.04634603
-0.00104511
-0.03648877
-0.00289341
-0.02558875
-0.01133208
-0.04771334
-0.04577305
0.00332400
-0.04057498
0.01623669
0.00041453
0.03423304
-0.03593776
0.04734262
-0.04744644
0.04285312
-0.04655799
-0.04598667
0.02771865
0.02441477
-0.03706614
-0.00925701
-0.00189063
0.03775338
0.02469810
0.01219196
-0.02187585
-0.03032807
0.00884999
-0.00769410
0.03274928
-0.01404899
0.02579663
-0.02462724
-0.00005682
0.04375295
0.02386339
0.02331408
0.04409200
0.02234688
-0.03720534
-0.04468036
0.03745764
-0.00152344
0.03997413
-0.01308630
0.04298074
-0.02513525
-0.01744557
-0.04582957
-0.03761149
0.04348748
-0.03073935
-0.04546268
0.04630263
-0.04800655
0.03855172
0.02608310
0.02018075
-0.01192002
-0.00238538
-0.00065754
0.02605892
0.04221415
-0.02022765
0.00106600
-0.00646518
-0.00989289
-0.02420885
0.01807189
-0.03662442
-0.01668950
0.02813708
0.04522905
-0.02457442
-0.00686290
-0.02873626
0.02641878
-0.00139878
-0.04332277
-0.02580684
0.00334567
0.04411205
-0.03598687
-0.03768941
-0.03379177
0.04804182
0.00516585
-0.03494205
-0.01283110
-0.01295360
0.01150958
-0.03449612
-0.03594496
0.02353220
-0.00540986
0.03909035
0.03854249
0.05083505
-0.04311362
0.04991486
-0.04713117
0.02780450
-0.00816656
-0.02190722
-0.04133777
0.05132704
-0.03238060
0.04193725
0.04614249
0.05246196
-0.02825770
-0.03463611
-0.00742625
0.02432713
-0.04751487
-0.03345892
0.03219813
-0.04667527
0.02003229
-0.04618740
0.00068387
-0.04782680
-0.04627427
-0.03975587
0.02949699
0.02620225
-0.01771820
0.00884877
-0.04487850
-0.00456367
0.04629327
0.00337263
0.05017966
-0.02467954
0.01870511
-0.02804763
-0.03497458
0.00912938
0.04260788
0.02479274
-0.02938878
-0.02049304
0.01342956
0.01802482
-0.01268978
-0.05094020
0.01331973
-0.02425585
0.01796538
0.02533141
0.03390568
-0.04579913
-0.00153475
0.03270181
-0.02936429
-0.00061614
-0.00470357
-0.00164851
0.04904914
-0.04325807
0.01624087
0.01972108
-0.04093228
-0.00009470
-0.03944159
0.00728531
0.03036667
-0.00494137
0.00985289
0.02813224
-0.03523741
-0.00564167
-0.00073155
0.01717995
-0.04000752
-0.01248180
-0.00288453
-0.03823446
-0.04327530
-0.03765461
0.03262965
0.04650340
-0.01846664
0.00018972
-0.04016234
0.01342272
0.01510487
-0.01733415
0.04538809
0.02578758
0.01291198
-0.03866625
-0.01202514
-0.04545432
-0.04130797
-0.04822102
0.01748699
-0.01688808
-0.02920124
-0.02746120
-0.01045702
-0.00006227
0.00580865
-0.04854614
0.01242703
0.00244516
0.00804857
0.02610053
-0.01466888
-0.00664810
0.03605470
-0.02313961
-0.01208155
0.04824786
-0.03044350
0.04007643
-0.01620718
-0.00791262
-0.03340229
0.03153272
0.01610848
-0.03367098
0.04360541
-0.01072497
-0.03675901
-0.00960415
0.01116984
0.02269727
-0.03201560
-0.04543574
-0.03983230
-0.04129068
0.02445273
0.01163157
-0.00381833
-0.01597676
-0.01295472
0.04174411
-0.02090475
0.04988008
-0.01613202
0.02540942
-0.01156365
-0.04647334
-0.00390128
-0.00161642
-0.01834821
-0.04350089
-0.03600331
-0.01668650
-0.04414157
0.00488557
-0.01272453
-0.01582887
0.00649096
-0.03410672
-0.00708420
-0.00938782
-0.03436780
0.01036463
0.03775109
0.00816680
-0.03095856
-0.00330759
-0.03773939
0.03739224
-0.04968806
0.01920355
-0.00252956
0.02432446
-0.03343010
-0.01309346
-0.01511847
0.03078603
0.02345821
-0.03274553
-0.03276678
-0.00388417
0.04142471
0.03652355
0.03461546
-0.02493375
-0.03142657
0.01077146
-0.02762617
-0.04556961
0.03697904
-0.00001205
-0.01530680
0.03681570
0.03200546
-0.00730904
-0.03814309
-0.03480358
-0.01615714
0.00449310
-0.03040481
0.05017700
-0.02389034
-0.03379453
-0.02285790
-0.01724358
-0.02451670
-0.03345389
-0.03418239
0.00169253
-0.00448136
0.01407141
0.00820444
-0.01239819
0.03407153
-0.04643681
0.02784820
0.05218930
-0.03915461
0.02503295
-0.04330995
-0.04296200
0.04531782
-0.01205385
0.02747118
0.03442805
0.00937776
0.05101983
0.03235314
-0.03095393
-0.01525501
-0.03028519
-0.00980988
0.02096688
-0.00081971
0.02065708
-0.01815362
-0.04478062
0.00759760
0.03423263
-0.03607908
-0.02518288
-0.03888233
-0.01408184
0.03903661
-0.04129163
-0.02820940
0.02014836
-0.04526780
0.03868444
-0.00946424
0.04764277
0.03148292
-0.04712374
-0.00557558
-0.03505945
-0.01241380
0.02404176
-0.03310570
0.05343405
0.00534741
0.04932852
-0.03241993
-0.00450782
-0.01417748
-0.02831948
0.03401710
-0.02789448
-0.00350909
-0.02420215
0.02145308
-0.03316892
-0.00915210
-0.02098353
0.01566737
0.02230417
-0.01454353
-0.00905997
-0.00145512
-0.00825073
0.03968877
-0.03765478
-0.03375279
0.01572998
-0.01139553
0.05055536
0.02658552
-0.02406389
-0.00789599
-0.04532901
-0.01005111
-0.04554490
0.00376179
0.04011632
-0.04324285
-0.02637120
0.00023380
0.01055161
-0.04498532
-0.04620748
0.02791666
0.03729159
-0.04172355
-0.01345638
-0.02027988
-0.03169314
-0.03800577
0.04201496
0.04509870
0.00689705
0.04451141
0.02047144
-0.03756593
-0.00245965
-0.03229130
-0.01169131
-0.00789119
-0.04671070
0.00879270
0.02108320
-0.02101542
-0.04189656
0.03105035
0.04055181
-0.01576291
-0.01135387
-0.04279945
0.01317754
0.04058936
0.00250094
0.02115357
0.00443624
0.00080626
0.02883342
-0.04434801
0.01562495
0.02173541
0.02070046
-0.00695775
0.03531150
-0.02902720
-0.00275763
-0.04746707
-0.03602694
0.04576856
-0.04065910
-0.01270384
-0.03861959
0.04750878
-0.01646378
-0.03210109
0.00156071
0.04139855
0.01645396
-0.04285358
-0.03331972
0.00117523
-0.01153024
-0.03809502
0.04663295
0.03312617
0.01258483
0.00080771
0.05064516
-0.04119610
0.03417401
-0.01814980
-0.02245093
0.02985993
-0.03515479
-0.02930077
0.00940238
-0.03610846
0.02806363
0.05393104
0.01871989
-0.04317160
0.00119740
0.05321560
0.04666259
0.00116725
0.02035390
-0.04172423
0.05035570
-0.00966509
-0.03638848
-0.01295890
0.02380461
0.04626600
-0.01984359
0.04513612
0.04721854
-0.02238441
-0.00493951
0.03388063
0.01504300
-0.03227668
0.01614744
-0.00285959
0.03768285
-0.04964377
-0.01507724
0.03223320
0.01926786
-0.02807247
0.00870639
0.04207747
-0.00277813
0.01624859
0.04794736
-0.03071838
0.02281330
-0.01292273
-0.02101719
0.04544412
-0.00555759
-0.03809135
0.01763324
-0.02703468
-0.02509010
0.03750816
-0.00388436
-0.01241985
-0.02977479
-0.01785001
-0.01225627
-0.02918014
-0.02779998
0.00071620
0.03565815
-0.01810085
-0.01119188
0.04754973
0.04390547
-0.01371068
-0.00834067
0.02085029
0.01753720
-0.03095353
0.02088644
0.04507336
-0.02291889
0.00087256
0.05074775
0.01448909
-0.02159506
-0.03611327
-0.02380899
0.03213915
0.04575635
-0.02245167
0.00592251
-0.03154698
0.02785274
-0.03148344
-0.03157123
-0.01934042
0.01064576
-0.01352831
0.03715210
0.00249023
0.05299222
0.01276599
0.04437595
-0.02826577
0.00118172
-0.00354974
0.01715442
-0.02279782
0.00922327
-0.01054199
0.02299089
0.01851037
0.01962125
-0.02224193
0.01723795
0.02733918
-0.01300157
-0.02422322
0.03923995
-0.03629506
-0.02237444
0.02731748
-0.04607458
-0.02870683
-0.00193903
-0.01176077
-0.00399670
0.04387291
-0.03967652
-0.01275553
-0.03031390
0.00749307
-0.01633266
-0.01419767
0.03500110
0.04864684
0.05080985
-0.01372796
0.05221914
0.01988738
0.00825042
0.03378052
-0.03456755
-0.00486602
0.01169791
-0.00863880
0.02735984
0.02526959
0.01171174
-0.03291625
-0.03357058
0.00440573
0.01075045
-0.04143034
0.00796591
-0.02902804
0.02803321
-0.00397471
0.00991098
-0.01302583
0.03549293
0.04521328
0.04464842
-0.01337057
-0.02578180
0.03437078
0.02215555
0.00313183
0.03250502
0.03524625
0.05170573
-0.03661586
0.02338141
0.02300542
-0.01842357
0.04635449
-0.03725915
-0.04391880
0.00896126
-0.03834892
-0.01439683
0.01956310
-0.04480583
-0.01784677
-0.03192169
0.02804962
-0.03082963
-0.00315498
0.03780390
0.01448123
0.01300358
0.04160350
-0.04188288
-0.04720514
-0.00613424
-0.02464947
-0.00367819
-0.00257760
-0.04552486
-0.02445181
-0.00833989
0.04363535
0.04584710
-0.02587829
-0.02445198
0.00049267
0.02914911
0.01343289
-0.04341687
-0.01557168
-0.01523750
0.00397594
0.01344806
0.00167635
-0.03723122
0.00706529
-0.00938519
-0.02341646
-0.01204830
-0.03295236
-0.02821834
0.05188966
0.04536169
0.02978042
-0.00944842
-0.00112239
-0.01597736
-0.01388794
-0.01896294
-0.02064616
-0.04223349
-0.04125141
0.01613954
0.05203021
-0.01201881
0.01378668
0.05023773
-0.00533748
0.01685376
0.03974764
-0.04439123
0.03933412
0.03938430
0.03728111
-0.01359213
0.04857374
0.02271798
0.00163341
0.02864176
-0.04035369
0.03786806
0.00105320
-0.03852807
-0.03434415
0.04571745
-0.04691840
-0.01630975
0.03758604
-0.03127839
0.04393046
-0.03396190
0.00778536
-0.00704986
0.05041341
-0.02787239
0.01588471
0.04875413
0.03601146
-0.01335597
0.01914779
-0.00947786
0.03686622
0.02508685
0.04750016
-0.01908439
0.03104566
0.01455077
-0.04090772
0.04476704
0.04004319
0.04772051
-0.00236674
0.03201381
-0.02754354
0.02307779
-0.00184058
0.01032820
-0.02442799
-0.03000217
-0.04553463
0.00092671
0.04335187
-0.04252409
0.02826800
0.04660738
-0.03907340
0.01875053
-0.03995654
-0.01722569
-0.03356069
0.02130303
0.03126211
-0.01906829
0.00669647
0.02530312
0.01794302
-0.04779778
0.02078053
0.01992158
-0.02022160
-0.01419472
-0.02442413
-0.03503687
0.00385379
-0.04536404
-0.01941708
0.04222965
0.02360055
0.04259599
0.00487083
0.02483978
0.03834111
-0.00308363
0.02430583
-0.03785505
-0.03551436
-0.00482302
-0.02343417
0.04368656
-0.01713129
0.04448827
0.02047813
0.02789285
0.02038323
-0.04705597
0.01393141
0.01141683
0.05038037
-0.01421149
-0.00452070
-0.04498885
-0.04586301
-0.02387655
-0.02270957
-0.01346024
-0.04415812
-0.03881694
-0.01847264
0.04672900
-0.02672047
-0.04526948
0.01219515
0.03635498
0.01053190
-0.01152110
-0.01365875
-0.03895175
-0.01393391
-0.03373253
0.01671388
0.00274134
-0.03096973
-0.03477937
-0.00737871
0.01816459
0.00574229
0.03993907
-0.04652830
-0.02192755
0.03182801
-0.01869081
0.00787299
-0.00102878
0.00287555
-0.01528895
-0.00185009
0.02928068
0.00594591
-0.00988023
0.03585180
0.02722255
-0.03721486
0.01784950
0.02200976
-0.03320455
0.01638072
0.01133178
-0.01616227
-0.03356295
0.04646252
-0.01918546
0.02522884
-0.02471989
0.01489911
-0.03448965
-0.03159994
-0.02331436
0.03683351
0.02914443
-0.03814828
0.04040345
0.02841325
-0.01658321
-0.00409562
0.03236970
0.01163822
0.04634173
0.04914773
0.04398936
-0.01971274
-0.00469214
0.03923182
-0.02531253
0.04318907
0.04346224
-0.01034202
0.03615424
0.00442672
0.01354259
0.02913745
0.03589815
-0.02312516
0.04604829
0.00022838
0.04990007
-0.03757856
0.00467486
-0.00483534
0.04934722
0.03759376
0.01111593
0.03061320
0.02367420
0.01090167
0.03914331
0.00435845
0.00096703
-0.01934828
-0.04579590
-0.03988932
-0.00321262
-0.02526290
0.01490953
0.02852463
0.04106198
0.00123118
-0.00202969
-0.00895822
-0.02125503
0.03428783
0.00982039
-0.00085369
0.01134321
-0.00536201
-0.00843986
0.02030067
-0.00942977
-0.00506911
0.02325940
0.05007492
-0.00186046
-0.04718635
0.02361840
0.02639428
-0.04629738
0.00624384
-0.01259016
0.00445774
0.03567745
0.03899299
0.04508220
0.02864940
0.01665303
-0.00712709
-0.03017482
-0.04579332
0.00431364
-0.02491452
0.01556978
0.00190925
0.04083232
-0.02668368
0.01859324
0.02881170
0.03829797
0.03149165
-0.02458843
-0.02146473
0.04014125
-0.02288979
0.04455407
0.05089097
0.00471369
0.02762711
0.05051348
0.00376315
-0.01607901
0.01687512
0.00953839
0.01062663
-0.04287509
0.02806889
-0.04299956
-0.02037913
0.00812279
0.01324035
-0.01544216
-0.04573565
0.02406393
0.04219401
0.04361989
0.04779106
-0.00638734
0.01301987
-0.03785232
-0.04617545
0.02867036
-0.03855546
-0.02005417
-0.00704967
0.04130884
0.01134048
-0.00319001
-0.02672391
0.05242821
0.04238178
0.03400363
-0.04592397
-0.04082849
0.00359736
0.01768476
-0.04137832
0.01545670
0.03395839
-0.03704982
-0.03091869
-0.04614874
0.04929976
0.02504109
0.02159468
-0.00737955
0.01151323
0.00317198
0.00107287
-0.00316976
0.04265291
0.04978871
0.04675376
0.01097298
-0.04343494
-0.02022787
-0.01985072
-0.01484152
-0.04234789
0.02248806
-0.02127381
0.02373291
-0.00584383
-0.01089507
0.01385473
0.02382557
0.03784272
-0.04952977
-0.03255758
-0.00465795
-0.01755532
0.02396040
-0.01768124
0.04973033
-0.02414599
0.01351060
0.02965374
0.04934074
-0.02623990
-0.03708920
-0.04802991
-0.04564370
0.01967431
0.00000322
0.02722251
-0.04461437
-0.01875301
0.00163589
0.02125540
-0.00996255
0.01487644
-0.04632447
0.01250955
-0.04943947
-0.00857598
-0.01666528
-0.02949271
-0.01546590
0.01568241
0.02089445
0.02999756
-0.01902298
0.04352434
-0.00240079
0.03521113
-0.02298082
0.04789223
0.02401902
-0.04121934
-0.03195819
-0.02403604
0.02555342
-0.01420736
0.02451967
0.04052166
0.03572038
-0.04700942
-0.04049991
-0.03517035
0.03765272
-0.00004218
-0.03730939
-0.00449007
-0.02977478
0.03738260
0.01714801
-0.01039824
0.03203925
-0.00273698
-0.00002197
-0.02838544
0.02449727
-0.03334976
0.05076925
-0.04118186
0.04507925
0.02764720
-0.00181362
0.05044178
-0.03179300
-0.02449553
-0.03640699
0.01567673
-0.02394726
0.01713698
-0.01879068
0.00371023
-0.01567432
0.04212098
0.02834602
-0.02627542
-0.00679143
0.02549306
0.02454050
0.02993549
0.04315291
-0.01739633
0.02117939
0.04535300
-0.03170193
-0.04688315
-0.02035474
0.00884504
0.04296502
-0.04665940
-0.01007042
0.04255304
-0.01307565
-0.01167783
-0.00213749
-0.03644153
-0.05030024
0.03192500
-0.04506945
-0.03406838
0.03353708
-0.04906900
-0.02628420
-0.01014855
-0.00205351
0.04815461
-0.00927404
0.04205889
-0.03666278
0.04676073
0.04342559
0.04793840
-0.04932000
-0.02022814
0.01794605
0.03798970
-0.04126220
0.03444622
0.00865946
0.00602262
0.04655199
0.00055823
-0.00343691
-0.01589475
-0.00456942
-0.04597702
-0.02567512
0.02152690
-0.01391127
-0.00259567
-0.04796328
0.02897620
0.02513110
0.04823051
0.03128757
-0.01857653
0.01635572
-0.02176699
0.00684898
0.00572748
-0.00691389
-0.04131734
0.00882253
0.00967917
0.02101219
-0.02353476
-0.04055161
0.02145813
-0.02371310
0.01541770
-0.03291244
0.04341890
-0.03512777
-0.00623616
0.01643835
0.00261305
-0.03166670
-0.04591925
0.01046859
-0.01920526
0.03019623
0.03285822
-0.04727012
-0.03239764
0.01052395
0.03276336
0.02299379
0.00168593
0.04894478
-0.04300207
-0.03574206
-0.03171350
-0.03492351
-0.00278119
0.04017476
0.03185850
0.02390351
-0.04572547
0.03374984
0.03526878
0.03271737
-0.00684331
0.01940359
-0.00748799
-0.01541261
-0.04662354
-0.02640497
-0.01322006
-0.00295786
-0.01241003
0.04486614
0.01121388
0.00820754
0.04725999
-0.02546672
0.02728370
-0.04569761
-0.00121198
-0.00291081
0.02979313
-0.03422511
0.03975005
0.01412608
-0.01642596
0.00994813
0.01661243
0.05053083
0.02709694
0.03143767
0.01074113
0.02125832
-0.01744156
0.05005234
0.01996797
-0.02928388
0.02342913
0.00482820
-0.02510552
-0.02068229
0.02673795
0.00168794
0.04466058
0.01621005
0.04402684
-0.04651629
-0.03619976
0.00654340
-0.03762466
-0.03075608
-0.02078713
-0.03452330
0.03435874
0.03622606
0.03339995
-0.02872152
0.00334643
-0.01739999
0.02173798
0.04072008
0.02742399
-0.03887571
-0.04846148
-0.04580704
-0.01393555
-0.03137793
0.04570644
0.03465492
-0.01639936
0.00497771
-0.02388936
-0.04579459
-0.01965488
0.02974104
-0.04107247
0.00436279
0.05091815
-0.00524778
-0.02710004
0.03683994
0.04742457
0.02263214
0.00247558
0.00320998
-0.01819092
-0.03987592
-0.01794169
-0.04322788
0.01665400
-0.03689661
0.03483308
0.03551790
0.03674262
0.02191916
0.01301498
0.02108423
-0.05093529
-0.02553508
0.00755658
-0.01234638
-0.01024785
-0.03068453
-0.02516191
-0.04972636
0.03250254
-0.01720264
-0.04106158
0.01074730
-0.00884937
0.03107405
0.02379730
0.01092786
-0.00606664
0.01788122
-0.02238649
0.04588387
0.03420336
-0.00419366
0.03908911
0.01532554
0.04842702
-0.01477484
-0.00729252
-0.00786642
0.02701931
0.00485423
0.01042876
0.01624238
0.03801952
-0.00983206
0.03225374
0.03921457
0.02013563
-0.04730551
0.02187224
-0.04275493
0.00163953
0.03210805
-0.02091639
-0.01955302
0.01564544
0.04494804
0.00816969
0.04432670
0.04923975
0.04619690
0.00147382
-0.02474028
0.04000798
-0.02361709
-0.02138542
-0.04039021
-0.00935367
0.01635972
-0.02389800
-0.03565962
0.03159907
0.02144058
-0.02567210
-0.01368297
0.03373170
-0.04676897
-0.05040999
0.02854174
-0.01715446
-0.00083693
-0.03874035
-0.01391828
-0.00316923
-0.02554038
-0.01101892
-0.04321548
-0.00080055
0.00332762
-0.04115072
0.01296593
-0.02938395
0.00018743
-0.00536031
0.00451329
-0.00226293
0.02487054
0.02229426
-0.04823389
-0.01829674
0.00464674
-0.00739388
-0.02590041
0.00318880
0.01516335
-0.02582688
-0.01757286
-0.01430491
0.00523253
-0.00346431
0.04403055
-0.00809373
-0.00516495
-0.00463836
0.02035645
-0.05070101
-0.00346312
-0.05089201
0.04180653
-0.04060394
-0.03007641
0.01978688
-0.03590284
0.03693337
0.00520781
0.00126202
0.04955381
0.03670345
0.04686885
-0.02278166
-0.02707892
-0.01977050
0.00174082
-0.00345935
-0.02720282
-0.04248648
-0.00799178
-0.04955430
0.03448170
0.04327991
0.01808321
0.04537573
-0.02485677
-0.03237905
-0.01331941
0.04547045
-0.03267369
0.03909787
-0.01418160
0.04136547
0.01798608
-0.04507752
0.02495094
0.03207812
-0.03505200
0.02218162
-0.04190043
-0.01134785
-0.00546647
-0.04652377
0.00817133
-0.00316950
0.03378806
0.00036056
-0.04887924
0.03143767
0.03581893
-0.03257104
-0.01322377
-0.01551253
-0.03864612
0.03515870
0.00740282
0.01522239
-0.02483850
0.01832888
0.00152868
0.00345831
0.02270480
0.03541440
-0.01318973
0.01861181
-0.04700084
0.04402157
-0.01365152
0.00503926
-0.04993816
0.04599818
0.04538811
-0.01511059
0.01044316
0.00137849
0.04662142
0.02469613
-0.02463502
-0.02604690
0.02068583
-0.04402665
-0.02966367
0.03021508
0.00762136
0.02130207
0.00656610
-0.03705256
-0.00129692
-0.03802954
0.02112666
-0.03878258
-0.03496574
0.02296561
-0.04145678
0.00661943
0.04273178
0.04048174
0.02662183
-0.02583112
-0.00796678
-0.03883595
-0.01961832
0.00569339
0.04375649
-0.00661619
0.00435336
0.04400267
0.03898398
-0.00655929
-0.02833419
0.02946447
-0.03825847
0.00013078
-0.02006451
0.02446450
-0.03515999
-0.05102803
-0.00346467
0.03985375
0.02355558
0.00366184
0.00019472
0.00498029
0.04079606
-0.03667697
-0.03444758
0.00112174
-0.00964678
0.03407864
0.01874879
-0.01436901
0.04148936
0.02610069
-0.01408368
-0.00190486
0.04536169
0.03063387
0.01932275
0.01221414
-0.01293768
-0.01487430
0.03807748
-0.02726164
0.03258403
0.04438837
-0.02865958
-0.03891494
0.04308293
0.03903622
-0.02709841
0.04744928
-0.00407837
-0.00861182
-0.03999244
0.01627902
0.03755017
0.00508592
-0.03595388
-0.04283834
-0.01238436
-0.00168166
-0.01951559
-0.03169560
0.02585796
0.00019885
0.00568739
-0.03753974
-0.02016387
-0.01298875
0.01034520
-0.03227612
-0.04664132
-0.00198339
0.03194493
-0.00944980
-0.04818432
0.00569743
-0.03550847
0.02063149
-0.04823752
-0.00655139
0.03272856
-0.04641630
0.03696997
0.03162527
-0.00213303
-0.00768199
0.04249851
-0.05045445
-0.03630364
0.00938740
0.03917035
-0.04675782
-0.02371431
-0.04135715
-0.04515469
0.02786390
0.02487694
-0.00284303
-0.00556548
0.02241744
0.01683521
0.00315377
0.00008423
0.03528051
-0.03533787
-0.02632724
-0.04453407
0.02552830
-0.00887207
-0.02821464
-0.00548324
0.01278043
-0.03545716
-0.00034731
-0.04993105
-0.02217841
-0.02521702
0.01307276
0.02626758
0.02085676
-0.02552604
0.00654073
-0.04300086
0.04585935
-0.02204067
-0.00719000
-0.00897381
-0.05072445
-0.03477184
0.03407143
-0.00736959
0.02569697
-0.04752202
0.00354554
0.00280142
-0.01266279
-0.01491842
-0.04736817
0.02941761
0.03059017
-0.04620588
-0.01835073
-0.01256410
0.03110717
-0.00292176
-0.02020178
0.03353316
-0.01442799
0.02869030
-0.02120308
-0.04774964
-0.03120574
-0.00235990
0.01111038
-0.02406845
-0.02462384
0.02935820
-0.00807893
0.00750623
0.02647545
-0.04478053
-0.02105244
-0.03602747
0.00925854
-0.01030695
0.03031036
-0.04220303
0.00843629
-0.03767043
-0.02046393
0.04851807
0.05102306
-0.00401758
-0.02034981
-0.01068761
0.01584058
-0.00284713
0.00679241
-0.04994029
-0.04610664
0.01920206
-0.01078295
-0.00696764
-0.04330077
-0.05078584
-0.04131891
0.01828288
0.00164667
0.04941178
0.02157073
-0.03032640
-0.04453589
0.02608301
-0.04721124
0.01684368
-0.02475735
-0.02557335
0.02743963
0.00321648
0.02653563
0.03541037
0.00324543
-0.01437223
0.02467739
-0.02901277
-0.03922310
0.00132449
0.02302925
0.02438831
-0.03033504
-0.02112673
-0.04071812
-0.00535076
-0.03915739
-0.04050352
0.04290511
0.00033641
0.02823064
-0.02196706
0.02703653
0.03488492
-0.01106886
-0.00877500
0.03298074
-0.02128527
-0.01485078
0.02754785
-0.01762058
0.04823627
-0.05038352
-0.01183727
0.02778208
0.03702577
0.01470016
-0.02634027
0.00077556
-0.02654118
-0.00621671
-0.01362414
-0.05091615
-0.00627898
0.01918838
0.03368320
0.01947971
-0.01716344
-0.03465994
-0.00684982
0.03262974
0.04299410
0.02769852
0.04880700
0.02037032
0.00946619
-0.02106922
0.02949999
-0.02439334
0.02344754
0.00487445
-0.00166189
-0.01449493
0.00698219
-0.01999896
-0.02403776
0.03993548
-0.01350929
0.00573230
-0.03297611
0.02601100
0.03386784
0.00524594
-0.04178088
-0.02257050
0.04807883
-0.00603696
0.01129943
0.04880331
-0.01585783
-0.02804572
-0.02711980
0.02575277
-0.04980622
0.01764688
-0.03550352
-0.03307347
-0.03899875
-0.01952611
0.00667872
-0.02608329
0.00031675
-0.04345037
0.02707481
-0.02219667
0.01465338
0.02170382
-0.04852885
-0.02527734
-0.01385358
-0.04570686
-0.01181007
-0.03538115
-0.03640513
0.03765026
-0.02762273
0.01671633
-0.03705722
-0.01476075
-0.04206241
-0.00660882
-0.02156628
0.03519326
-0.03372012
-0.01679152
-0.00733105
-0.01610868
0.01314011
-0.03538017
-0.03981455
0.03628194
-0.01118230
0.03886029
0.03247184
-0.03559741
-0.02728318
-0.00427023
-0.00479897
0.04315561
0.03130323
-0.03400283
-0.01756084
-0.02294136
-0.02865432
0.02276369
0.04894441
0.00032403
-0.01116218
-0.00080657
-0.02932898
-0.00928963
0.02966439
-0.05022763
-0.01387588
0.02724187
-0.02679593
0.04992451
0.01293015
-0.01934059
0.02993554
-0.00097945
-0.04160839
-0.02948631
0.03924014
-0.03634297
0.00501236
0.00317421
0.04688922
-0.04496871
0.02225531
-0.02306550
0.05053648
0.00382131
-0.03394872
-0.04042064
-0.04465441
0.01980122
0.00604646
-0.03296922
-0.04241559
-0.04165610
0.00958980
0.02196965
-0.00498129
0.01156349
-0.01886330
0.02801716
-0.03287984
-0.04698946
0.03704645
-0.00834481
-0.02409729
-0.00385057
-0.03067450
0.01277786
0.03015397
-0.05079893
0.05005412
0.00152235
0.03556767
0.00290465
-0.02121793
-0.03793852
-0.05052499
0.00845225
-0.01690670
0.03188086
0.04477576
-0.04947622
0.02193253
-0.01480193
0.01525322
0.03242665
0.01735230
0.02786206
-0.01109118
-0.00021143
0.00311271
0.03792249
-0.02770552
-0.04985606
0.04835515
-0.01894778
0.01691169
-0.04611577
-0.03574609
0.01376721
0.04661788
0.04763809
0.00216977
-0.04385208
0.00549808
-0.02177730
0.03966483
-0.02541316
-0.05082543
-0.04162049
-0.02071843
0.01153952
-0.00567597
0.04511192
-0.01698956
-0.04127339
0.03980242
-0.01517528
0.01549214
-0.04064583
-0.02192512
-0.03116140
0.02646921
-0.01350964
-0.00217627
0.03297499
0.01833082
-0.04950128
0.03472636
0.04434635
-0.03737568
-0.03776995
0.02377219
-0.01745422
-0.02559184
0.03691071
0.02077605
-0.05006764
-0.04759730
0.04728216
0.00462419
-0.04319927
-0.03866286
-0.01836541
-0.01566943
0.00262481
-0.04437114
0.04048883
0.01425394
-0.00125976
-0.00531004
0.01851166
0.00522836
0.01411434
0.03337596
-0.01077211
0.03317429
-0.00767470
-0.04499813
0.04763677
0.04800137
0.02504595
0.04221865
0.01068809
0.03368095
-0.03655592
-0.01323942
-0.00894773
-0.02479303
-0.00141171
0.00445962
-0.04069117
0.01619674
-0.02341226
0.01383375
-0.03736306
0.04252960
-0.04168603
-0.01305376
0.05084978
0.02818061
0.02567469
-0.02993486
-0.04104614
0.02697985
0.00455600
0.01484612
0.01329000
0.04555231
-0.02698757
0.01471122
-0.01896610
-0.03694715
-0.00705029
-0.00680933
0.01512923
-0.03906037
-0.02043353
-0.04216421
-0.03105810
-0.03544710
-0.05075639
0.01637983
-0.00459492
0.03918934
0.04164244
0.04737826
0.03213936
-0.02387090
0.01177672
0.02505080
-0.01525408
-0.03293172
-0.00203555
0.04560911
0.04855677
-0.01579490
-0.01277687
-0.00185547
0.01907159
0.04111279
0.03390494
0.04772587
-0.02354648
0.01933530
-0.02711689
-0.02529924
-0.01488091
-0.03016665
0.02402493
0.03408378
0.01809175
-0.04775727
-0.02148295
-0.03220382
0.02306471
0.04831380
-0.01698219
-0.04909672
-0.03854693
0.04453218
-0.04541533
-0.01747017
-0.04747900
0.02804557
0.02587868
0.03498064
0.01206499
0.04558478
0.04957388
-0.01650215
-0.03909806
-0.00918296
-0.01632057
-0.00330590
0.00160364
0.02416342
-0.02463585
0.00526430
-0.01572511
-0.03793186
-0.03800124
0.03680936
-0.03197622
-0.04633326
-0.02216621
-0.03164593
0.01504470
-0.04205581
0.03576064
-0.04750793
0.00931189
-0.00849299
-0.03406753
0.02661815
0.00361189
0.03044324
-0.00656626
0.02329269
-0.02415416
-0.03252987
0.02360488
-0.04121747
-0.04553838
0.00941042
-0.01323019
0.02671535
0.02015391
0.03080694
-0.00670771
0.05017400
0.04362083
-0.04529130
-0.04535968
-0.03305274
-0.04252887
0.03733344
-0.00648119
-0.00896306
-0.04688989
0.00506054
-0.04687882
-0.00368448
0.04216446
0.03146838
-0.04616710
0.02757443
-0.04600331
-0.02587221
-0.04581060
-0.02665442
0.04292960
-0.01859549
0.00327153
-0.00882589
0.00654292
-0.04987180
-0.04821758
0.00731061
-0.00232099
0.00297381
-0.01318710
0.03708506
0.00926707
0.02445400
-0.01019269
-0.04106045
-0.01591799
-0.02344645
-0.04640629
-0.04455309
-0.04033843
0.03936479
0.03272900
-0.00417389
-0.03943454
0.04732852
-0.04620122
-0.02128994
-0.00321330
0.01723270
-0.01660276
-0.03326417
0.01088322
-0.02206245
0.02696578
0.01110147
0.01454732
0.00244226
0.03547830
-0.00046937
-0.03765025
0.02823172
0.04505348
0.02903621
0.02697753
-0.02031642
-0.00375065
0.00908688
0.01764357
-0.00582900
-0.00230424
0.02419136
-0.00121273
0.00282348
0.04134425
-0.02439168
0.01768776
0.00679144
-0.00877862
-0.02826590
-0.03175279
0.01020704
-0.04064791
-0.01365785
0.00920052
0.00056717
-0.04017254
0.02936164
-0.03370182
-0.00038672
-0.03153846
-0.01379473
0.05114005
-0.02004749
-0.00539209
-0.01452249
0.00982806
-0.00371384
-0.05020086
-0.02023157
0.03312787
-0.03489549
0.02073498
0.00997861
0.01942224
-0.04264448
-0.02297986
-0.04768042
-0.04012968
0.04622291
-0.02155321
0.03937644
0.01050501
-0.03894598
0.02171015
-0.03868306
0.00353408
-0.02533498
0.02673351
0.03308222
-0.04412480
-0.04752095
0.03554423
-0.00578348
0.05148756
0.01046095
0.01513331
-0.00392187
0.00686725
0.04219875
0.02155090
0.04239507
0.02325296
-0.00736268
0.01211930
-0.01168713
-0.01113845
0.00621292
0.02761089
0.00054796
0.04599601
0.03366303
0.02050894
0.00308755
-0.02753364
-0.00336980
0.03024033
0.01430569
0.01756141
0.03072994
-0.00359680
0.00204413
0.05124262
-0.03696404
-0.03789670
0.02800883
-0.02191054
-0.04065603
-0.01699013
0.02048470
0.05048976
-0.01754869
-0.02187546
-0.02686952
0.02882365
-0.01813963
0.01649752
-0.04896434
0.03143724
-0.02282775
0.01775425
0.01913373
-0.03338013
-0.01893147
0.04503092
0.03307550
-0.04276107
-0.02636418
0.02774943
0.04272382
0.00365419
-0.03053229
-0.01626579
0.00050674
-0.00021662
0.02995587
-0.04762185
-0.00158920
0.01114060
0.00702461
0.02605636
-0.00820381
0.02321786
0.00351799
0.00705945
-0.01310978
-0.00352195
-0.01867569
0.04938339
-0.00401984
0.03303223
0.00899118
0.02895699
-0.01319616
0.02052691
0.04884566
-0.00273875
0.02608358
0.00372587
0.04035680
0.03912319
0.00841485
0.03639983
0.05209726
0.04168358
0.03660478
-0.03256892
0.02980341
-0.00189077
0.04315217
-0.00766223
0.01846463
0.02107525
0.02226941
-0.03195770
-0.01854108
-0.01235999
-0.04378317
0.03849709
-0.01496873
-0.00864948
-0.03075489
0.00261419
0.01029490
0.00133156
-0.01663475
0.04837047
-0.04042150
0.03551774
0.01683309
-0.02765472
-0.04595709
-0.03760339
0.01317421
0.01931078
-0.02437429
0.00436951
-0.01984030
-0.01897153
0.05212501
-0.02957383
-0.04804309
0.05142985
0.05139318
-0.00292770
-0.00283970
-0.02781786
-0.03158697
0.03313701
0.02176323
-0.04241415
-0.01498743
0.00841868
-0.00415968
-0.03577797
0.02884226
-0.04838562
-0.02673117
0.03167398
0.00255704
0.03881273
-0.00686937
0.01990245
0.00087898
0.00536782
-0.03735956
0.00338086
-0.02179638
0.01291521
-0.02049724
0.03443616
0.00170355
-0.04075151
0.03153159
-0.02357342
-0.02699972
-0.04526498
-0.01080511
-0.01938456
-0.01372604
0.03727224
-0.01603094
-0.00372849
-0.04580814
-0.01482360
-0.03307468
0.02589394
-0.01532780
-0.01705557
-0.02582363
0.01555018
-0.02281339
-0.03135033
0.04241826
0.04892028
-0.01196488
0.03733577
0.02927947
0.00523057
-0.02980443
-0.00922631
-0.01998007
-0.04799308
0.01177755
-0.02755805
-0.00977375
0.00301326
0.04621734
-0.04291775
-0.02396376
-0.03972738
-0.03844713
0.00401728
0.04594857
0.00790538
0.01510331
-0.04240489
0.03921526
0.00610628
0.04510590
-0.03838260
0.04129516
-0.02879366
0.04279293
-0.02950465
-0.02598779
-0.04921610
-0.00865692
-0.03306453
-0.03294906
0.02195914
0.04759109
0.05235211
-0.02419985
0.02779022
0.01334709
-0.03036474
-0.01823862
-0.01189499
0.04477007
-0.03823109
-0.00733320
0.01342867
-0.04044884
-0.01203906
0.01341605
-0.03741406
-0.02293862
-0.03005558
0.01025569
0.02800171
-0.04067057
-0.02279192
-0.00191834
-0.03865390
-0.01068054
0.00950116
0.01153844
-0.03433653
-0.02550194
0.02338793
-0.02034901
-0.03148257
0.00023890
-0.01321552
0.03404636
-0.02236471
0.01690055
0.03983216
-0.02399489
-0.01434894
0.02329171
-0.03943425
-0.00170641
0.00949755
0.03504317
0.01465264
-0.03690151
-0.01533892
-0.02992406
0.01614565
0.04694224
0.05305390
0.01507592
-0.04024398
0.02121308
-0.04323158
0.03103328
0.02209480
0.05089434
-0.02549440
0.04711180
0.00378404
-0.01011048
0.02225856
0.01853637
-0.00842847
-0.04974438
0.00867196
-0.04884363
0.04418039
0.00663839
-0.01626668
0.04564294
0.02281902
0.01865062
0.04212901
-0.01689482
-0.02039832
0.03472832
0.03706141
-0.04700014
-0.03014467
0.04115399
0.02839860
0.00565808
-0.01453271
0.03483380
-0.01347087
0.03652742
0.03487163
0.00466343
0.02954310
0.03008736
0.00660388
0.02502608
0.03394697
0.04203523
0.02826600
-0.02702693
-0.00163448
-0.02256042
0.01992084
-0.01839239
-0.01660936
-0.00731386
-0.00018252
-0.01168579
-0.00590816
-0.03146055
-0.01367880
0.02537925
0.02324335
0.04606944
0.03150512
-0.00335003
0.02733879
-0.00630518
0.01605034
0.01074954
0.00038305
-0.04070746
0.03287276
-0.03161528
0.04308598
-0.01229548
0.00833864
-0.04801611
-0.00814712
-0.02013104
0.00341727
0.02555606
-0.01599989
0.00672011
-0.04688488
0.04383787
0.01837700
-0.00668981
-0.00393157
-0.00589527
-0.02637182
-0.00116020
-0.04392404
-0.03627713
-0.00851205
-0.04749541
-0.02195594
0.00114165
-0.02851145
-0.00745671
0.02653437
0.02121627
0.01849283
0.04842024
0.03464891
-0.02753241
0.03123827
0.02178774
-0.02247502
-0.00625795
-0.02511214
0.00759698
0.04941944
-0.03269311
0.03816452
0.04403398
-0.01344402
0.04322840
-0.00945412
-0.01053725
0.03198161
-0.03997926
-0.03373825
-0.02025471
0.04410325
-0.03203363
-0.01290116
0.04171595
0.00627205
0.00523678
-0.03229211
-0.04715524
-0.02080230
-0.03602188
-0.03163397
-0.00705586
-0.00674478
0.03042291
0.02685743
0.00855043
0.00105511
0.02108752
0.00915029
-0.01215030
0.04254513
0.05246564
0.04619109
0.00743271
0.00562999
0.01051572
0.04578506
-0.00891850
0.04589063
-0.00694989
-0.03714790
-0.02551751
-0.04719507
0.02068220
-0.01670794
-0.01844845
-0.02074600
0.01867894
0.01918414
0.01082006
-0.00990082
0.01689688
0.02335552
-0.03993125
-0.00865495
0.04631100
0.05191042
0.01377259
-0.04439897
-0.00930690
-0.00822333
0.04857098
0.02454665
0.00709122
0.03263219
0.02358980
-0.03600699
0.00538927
0.03583800
0.03331225
0.02118072
-0.04818465
0.04326169
0.00215497
0.04930083
0.01219782
-0.02714912
-0.03223671
0.02237666
0.01241946
-0.01748986
-0.01973254
-0.01989431
0.03195226
-0.03734533
0.01209636
-0.00038054
-0.02362113
-0.03462634
0.01935206
0.01695199
0.04352643
0.04985003
0.00242790
0.01094504
0.02632138
0.00633190
-0.01118842
0.00312092
0.02293647
0.02659044
-0.02475107
0.01299292
0.04942854
-0.01382117
0.00954940
-0.04665447
0.01561745
-0.01199884
0.04394481
-0.00730422
0.05074396
0.04288056
0.01194701
0.03578758
0.02534806
-0.03718313
0.03695729
0.00829728
0.01463109
-0.03300511
0.02694109
-0.01493557
-0.00097847
0.02771579
0.01464271
0.04457103
-0.04725749
0.02237918
0.00815759
0.01432920
-0.01433017
-0.01290434
-0.02933240
0.00065463
0.01448692
0.04690341
-0.04692501
-0.03210169
0.02074002
-0.00695254
0.03704063
-0.00487982
-0.02754335
-0.04333312
0.00624118
-0.00125840
-0.03715064
0.00484467
-0.03783787
-0.03320453
0.02912035
0.05053245
-0.02279973
-0.01116025
0.02996859
0.01765690
0.04112442
0.02904917
-0.00432373
0.00359178
0.02344085
0.00157165
0.03141058
0.04030458
-0.03277377
-0.02917270
0.02635751
-0.02119912
0.01055840
0.04772562
-0.00316302
0.01741224
-0.01268730
0.00491136
0.03470955
0.04971262
0.03196826
-0.03866031
-0.02102288
-0.04646172
0.02585627
0.01434845
0.03040542
