0.03740935
-0.01636845
-0.04861192
0.07081604
0.00692704
0.05567771
-0.05937561
0.04931768
0.03100689
-0.03164214
-0.06018172
0.02624433
0.00373311
-0.05989351
0.02554855
-0.03967502
-0.03428857
0.04000276
-0.01625654
0.05912624
-0.04863716
0.06219528
0.07124355
-0.00258137
0.05698305
0.00353815
-0.02418920
-0.05838795
-0.06940058
-0.02241567
0.00501954
0.07213537
0.01733149
0.01462330
-0.01314024
-0.01202902
0.05333032
0.04174384
-0.02509437
-0.02944694
0.02650568
-0.04312304
0.04201909
0.07274538
0.00255174
-0.04512372
-0.01657617
0.02672143
0.06154615
0.06929395
-0.06592163
0.05242863
0.05260264
0.06351109
-0.06907390
-0.01002157
0.03923158
-0.02605081
0.04387748
-0.00652601
-0.02309299
-0.05255780
-0.04708010
0.07149582
-0.04998087
-0.04107041
-0.00814278
0.05690446
0.03277605
-0.01444344
-0.02213958
0.03624129
0.00618840
0.04483035
-0.05038390
0.04787128
0.01370821
-0.06149851
0.05262725
-0.02140823
-0.03098105
0.05148425
-0.05300520
0.07441503
0.03617273
0.00579269
-0.01309765
-0.00623297
0.00976657
-0.04098140
-0.03507454
-0.00080001
-0.05604973
0.01361638
-0.02929938
-0.05402405
-0.00743608
-0.03027430
-0.04324635
0.03511338
-0.04501603
0.01391309
-0.04484201
-0.04270960
-0.01873658
-0.00974918
-0.03935169
-0.03726970
0.03606277
0.06819755
-0.05486557
0.04836079
0.04179475
0.02077123
0.01434042
0.06901704
0.05231488
0.05805635
-0.03260851
-0.05812917
0.00015500
-0.01871353
-0.04655274
-0.05628554
-0.06672937
0.02787152
-0.04611132
0.03703970
-0.03805690
0.06638313
-0.02671703
0.05314714
0.06991114
0.04577264
0.01684959
0.04454789
-0.01461378
-0.04765310
-0.00873240
0.05945833
-0.00168473
0.06179395
0.02247623
0.04515415
0.06756499
-0.05468827
-0.04180489
0.06200346
0.07227428
0.03670668
-0.06805681
0.00465395
-0.01543467
0.00053325
0.06881711
0.04990438
-0.01378738
0.05374992
-0.06127509
-0.00162358
0.06185561
-0.02899161
0.03951906
-0.01880782
0.02475064
-0.04962987
0.02536970
-0.03323217
-0.04323937
-0.04648824
-0.03352048
-0.06939885
-0.01039144
0.02310950
0.01476826
0.06029508
-0.02925274
0.03372546
0.00686712
0.05593002
-0.00858305
-0.05565953
-0.03927713
0.05965635
-0.00700442
-0.02017041
-0.01736127
-0.00940812
0.00319150
0.00176533
0.07276425
-0.05629604
0.06519376
0.01817699
-0.00679584
-0.06117169
-0.03087254
-0.06246381
0.07464523
0.02754404
0.06932462
-0.03428885
0.03000679
-0.02307029
0.05620252
0.01431508
-0.05683761
-0.04068991
-0.00899936
-0.01183831
0.06981650
0.02695691
-0.06298248
0.00175892
0.06067018
-0.00463544
0.03361779
-0.04386394
-0.06667884
0.04613803
0.07238802
0.03107416
0.05191159
0.00948705
-0.01449265
-0.06623709
0.05828703
-0.03440389
-0.00599993
0.01409063
0.06052420
-0.00955880
-0.00790872
-0.02914485
-0.02654332
0.03333647
-0.00996054
-0.04482368
-0.00153891
-0.04426213
0.02390061
0.04906955
0.05369684
-0.06384208
0.03275838
0.05279190
0.01834536
0.05669639
-0.01181859
0.05553913
-0.01293866
-0.02575234
-0.00304365
0.01733423
-0.03307734
-0.03044451
-0.06908140
-0.00536460
0.04556499
-0.00371320
-0.06572803
-0.02456703
0.02684752
0.02959994
-0.01155581
-0.06449741
0.06909706
0.06212669
-0.00270437
0.03007996
-0.05812873
-0.02327162
-0.03371077
0.01600200
-0.06690999
0.07215767
0.06199209
0.05902858
-0.05170638
0.00533777
0.01578284
0.04587631
0.07124271
0.01294493
0.01289660
0.03518724
-0.01276188
-0.04589272
0.07033292
-0.05597792
-0.04006242
0.02881391
-0.01834564
-0.05342498
0.07226219
-0.01917630
0.06490266
0.02403696
-0.02844476
0.07068872
0.04248022
0.07492035
-0.03176683
-0.05239987
-0.06644981
-0.02319663
0.01045236
-0.02738490
0.05089569
0.03589756
0.02565709
-0.05265889
0.03176399
0.06905024
0.00070540
0.03390334
0.03280383
0.05165647
0.00149478
0.02428995
0.01468522
0.01940027
0.06628376
-0.02665068
-0.00901976
0.05145332
0.05447590
-0.04423324
-0.05614864
-0.06381590
0.00132923
-0.01441602
-0.07119037
-0.00213085
0.00436591
-0.05547765
-0.02870696
0.05775116
-0.05837119
-0.03497446
0.00748925
0.03193208
-0.04665946
0.03596634
0.00623994
-0.02427601
0.07115573
-0.01505593
0.00027658
-0.01629148
-0.05382270
0.07301253
0.03321163
0.05567506
0.03546439
0.00151300
0.02452542
-0.03073561
0.02902238
0.05865352
-0.00258982
0.01857246
0.06561410
-0.06835455
0.03318314
-0.00583466
0.01829845
-0.01734938
-0.05131302
-0.06313444
0.02402089
-0.05353612
-0.00504444
0.06803714
0.03154998
0.02748639
0.05736014
-0.03493860
0.04551545
0.03040853
-0.01015577
-0.03018832
0.03349599
0.05426773
0.05085493
0.06746338
0.03375598
0.02131080
0.02115086
0.00397552
0.00533581
-0.00153902
0.03960640
0.06162074
-0.03717035
-0.02653848
0.03745084
-0.04821089
-0.03131396
-0.02449308
0.05342777
-0.04771290
0.05001946
-0.01585657
-0.03295816
0.04831206
0.06115765
0.02040957
0.07271796
0.01629164
-0.03300201
-0.01830318
-0.01749566
0.00850908
0.05068108
0.05042197
0.03236591
0.02043081
-0.03188579
-0.00560336
0.03613416
-0.04818763
0.01555933
0.01843402
0.07436366
-0.02044864
-0.06435955
-0.04328060
0.01212726
-0.03673320
0.02649528
-0.01293653
-0.03583099
0.07330254
0.03216173
0.00357783
-0.03005633
0.04851024
0.05865050
0.04908480
-0.06830358
0.06337526
-0.05963636
0.00780094
0.04445753
0.07142839
0.03924791
-0.06071215
0.07455219
-0.01198723
-0.03852943
0.01317387
0.01369574
0.01898612
0.01727791
0.04807093
0.02125747
-0.00589658
0.03455698
0.00588255
-0.01442487
-0.06194558
0.02340431
0.00225034
-0.05653403
-0.01954534
0.06116125
0.07506365
-0.01420789
-0.04588134
-0.06577210
-0.05417448
-0.01098655
-0.02851200
0.07488775
-0.01662861
0.06031746
0.07513568
-0.01540195
-0.03313716
-0.03283216
0.00189753
0.04025206
0.05841727
-0.04209122
-0.06552231
0.04624208
0.04689644
0.03923203
-0.01839506
-0.06513447
-0.02485196
-0.05635703
0.00872421
-0.01163515
-0.00024354
0.02773767
-0.04964644
-0.06070833
0.06069246
0.00288988
0.01886619
-0.02864839
0.07522561
0.01001813
0.03212867
0.06840247
0.05338637
-0.03052280
0.04063897
0.03560934
-0.01269322
0.03766711
-0.04124800
0.06722405
-0.00974871
-0.00857797
-0.02914145
-0.05178004
-0.05944654
0.04329044
0.00989648
0.06717791
0.03593424
-0.05527408
0.06930619
0.05122247
-0.06249037
0.05514656
-0.01888741
-0.05947122
0.04925540
0.01195461
0.04298811
-0.06313872
-0.04137451
0.00151564
-0.06044331
-0.03965878
0.05758847
0.01032416
0.01408000
0.03689209
-0.06755242
-0.04587025
0.03969479
0.04507715
-0.01615532
0.02573645
-0.01108936
-0.00100947
-0.03990883
-0.00363242
0.04447628
0.05493255
0.07510176
-0.03201895
0.01104612
-0.04765910
0.04744232
0.04197586
-0.06300536
-0.01929687
-0.05098435
-0.04648932
0.02292031
-0.02116718
-0.05502779
0.03802179
0.03509776
-0.05078341
-0.01661971
-0.01586154
0.00991399
0.01771577
0.04326603
0.06228231
-0.03038087
-0.05327943
0.01138823
-0.03369354
-0.04506928
-0.01763525
-0.00642124
-0.00624645
0.05751945
0.06427774
0.04158849
0.06561884
-0.00777029
-0.04385854
0.01199391
0.01183724
0.00049985
0.05010841
-0.03567113
-0.03265988
0.01606869
0.00695539
0.06094529
-0.07151461
0.00521472
-0.03922564
-0.05585532
0.03947907
0.05123510
-0.00280281
0.01526320
-0.05153708
-0.04294534
0.01013371
0.02054317
0.03246963
-0.04658519
-0.00029516
0.04513067
-0.04944336
0.05184300
-0.04802504
-0.07200088
-0.06853791
0.06364286
0.05054058
0.06534335
0.00678058
0.03040258
-0.01826532
0.03676730
0.05678243
0.05531746
-0.04356400
-0.00590332
0.02437801
-0.02885724
-0.03904661
-0.05243445
-0.04861751
-0.04068161
-0.03034215
-0.03265672
-0.00038372
-0.00219693
-0.02731352
0.04719539
0.05621969
-0.05635589
0.00840795
-0.00119440
-0.03093901
0.02166646
0.06386999
0.02669843
0.05007498
-0.01128424
0.06847577
0.05770392
-0.06207733
0.04801720
0.02236009
-0.01239596
-0.04222957
-0.04136018
-0.06194049
-0.02493671
-0.05160787
-0.02188746
-0.06769174
0.06539042
0.03387676
-0.07114017
-0.01121413
-0.01329462
0.03836465
-0.05444191
-0.03431169
0.03004918
0.06405865
-0.05550995
0.00838061
-0.01647828
-0.06578336
0.03604995
-0.07026005
0.06675366
0.02303634
-0.04125820
-0.03327157
0.06011648
0.03893416
0.06294536
0.06628199
-0.06873447
0.06336419
0.02236697
-0.03506008
-0.04342767
0.00052720
0.03711293
-0.03934899
0.01614576
-0.01186992
-0.06956682
-0.06425955
-0.03478450
-0.01030718
-0.06746408
-0.05552384
0.02280121
-0.02009088
0.04500527
0.06041239
-0.00628646
-0.02976158
0.06680746
-0.04938475
-0.04131175
0.05434590
-0.00084390
0.01301426
0.04518420
-0.02236530
-0.07239544
-0.00606168
0.06457394
-0.02754718
0.02809131
0.07091517
-0.01324978
-0.02015420
-0.02176582
0.02524435
0.01988831
-0.05213574
0.04287943
0.05670284
0.00637695
-0.06882553
-0.02483503
-0.01152837
-0.02454708
0.03406261
-0.03673303
-0.07120508
-0.06694026
-0.00732339
0.04810369
-0.03990927
0.05173106
0.03680317
0.01049181
-0.05268075
-0.05331092
0.04739451
-0.05368003
0.03506298
-0.00862355
0.04810106
-0.06756745
-0.00471627
0.00757889
0.04036992
0.00907246
0.02224708
0.06921215
0.03765322
-0.06653733
0.06822491
0.06093191
0.01667973
-0.03938653
0.03325279
-0.04498104
0.07071283
-0.07060309
-0.06449998
-0.01885587
-0.04814159
-0.01136437
-0.07293691
0.01080332
0.01328583
0.05922334
-0.06072048
-0.01530094
-0.05913353
-0.05835884
0.01429856
-0.05510220
-0.06762902
-0.01332268
0.06123884
-0.01959932
-0.05733033
-0.05981040
-0.07149339
-0.06435647
-0.05077293
0.02875325
0.01697372
0.01802488
0.06683258
-0.01685840
-0.04497134
-0.00755663
0.01994022
-0.01819561
0.03698781
0.05899935
0.06744705
0.01040364
0.03859440
0.03877398
-0.01407497
0.03565303
-0.05496914
-0.00672740
-0.04494489
0.01703662
-0.02194753
-0.05546674
0.05350425
-0.04797935
-0.07016549
-0.04517746
0.02992408
-0.06136183
-0.02257425
0.03409392
-0.02697862
0.05060525
0.04566317
-0.05748608
-0.01907543
-0.04485229
-0.07153468
-0.04470580
-0.02433390
-0.06231113
-0.02622046
0.04496877
0.02888737
0.04786158
-0.04849282
-0.05716604
-0.06155864
-0.00220844
0.05897456
-0.03006227
0.02826509
-0.05406697
0.00604037
0.04781536
0.00007427
-0.01744028
-0.00051214
0.00873557
-0.05003830
0.05879469
-0.01070672
-0.03196847
-0.01426406
0.01260794
0.05917785
-0.04984324
-0.03991843
0.05268243
-0.05420377
0.02574700
0.06251038
0.06692119
0.00850298
0.06963028
-0.06556524
-0.01094159
-0.04001728
-0.04448671
-0.02065084
0.05627202
0.00352153
0.07010683
-0.03167553
-0.05374926
-0.05850346
0.06968042
-0.01510822
0.06396451
0.01489920
0.02226084
0.05971372
0.05464887
-0.01926562
0.06829123
0.00418428
-0.05853864
0.05940940
0.01634823
-0.01599386
-0.06270119
0.04251148
-0.01535497
-0.03709635
-0.02414488
-0.01748810
0.04830613
-0.06818835
0.03897696
0.03889110
-0.04171719
0.04210771
0.04952042
0.06479980
-0.01621009
0.05461809
-0.00623800
-0.06730301
0.05857639
0.05351501
-0.04446569
0.03776036
-0.04282485
-0.05569560
-0.05047389
-0.02778759
0.00848238
0.00996509
0.05966116
0.02568202
0.03251133
0.01316614
0.00520575
-0.06893455
0.06624062
-0.02859443
0.00619702
0.00149031
0.05292164
-0.02885265
0.07035968
-0.05493300
-0.04338340
-0.07273138
-0.02315612
0.00533835
0.03698049
0.03879274
0.05983871
0.04959460
0.01205302
-0.05567085
-0.03520749
0.02737398
-0.01442335
-0.05111799
-0.05191365
0.03116465
0.01320815
-0.02442078
0.01396976
-0.03563125
-0.06659180
-0.02951132
0.00695804
-0.00781913
0.00356816
-0.05108008
-0.03227879
0.01655267
0.05304902
-0.06943700
-0.01332695
0.02045934
-0.05049352
0.00800097
-0.05029831
0.06392652
0.00949017
-0.06083716
-0.02653779
0.00686923
-0.00813174
0.01979346
0.06165658
-0.00483859
0.01128443
0.04138496
0.06038408
-0.00327643
-0.01006294
-0.03841402
0.02299518
-0.03665565
-0.00589513
0.04159786
-0.05162838
-0.05189167
0.06126898
0.01849765
0.04565195
-0.02856299
-0.07149862
0.04234613
-0.01171217
-0.03693965
0.05078847
-0.03102473
-0.01873932
0.04151756
0.05496367
0.03679365
0.04669992
0.02933380
-0.00746383
0.04665836
-0.01768888
-0.02976941
-0.06499897
0.04751425
-0.04353269
-0.04913916
0.04013750
0.01440409
-0.00539951
-0.03241221
-0.03491138
0.04775898
-0.00897293
-0.02059106
0.01902706
-0.03116548
0.01408978
0.01859358
-0.02722051
0.04271651
0.05597047
0.05854137
0.02768684
-0.01153103
-0.03999881
0.06794500
0.02045793
-0.01965821
-0.01270838
-0.02659083
-0.03881457
0.01227497
-0.05102296
-0.00279698
-0.06992006
0.05038114
0.03524987
-0.04213721
-0.04925450
0.03695614
0.00320887
0.00775356
0.04814468
-0.02711401
0.06980483
-0.01691938
0.04117271
-0.00562941
-0.04940427
-0.07201049
0.05568109
0.04722297
-0.00305186
0.00501829
-0.06902900
-0.01556611
0.00240611
-0.03545035
-0.04082698
0.05005913
0.03824041
-0.04753702
0.05675323
0.02346816
-0.06561261
-0.05194429
0.04784004
0.05525590
0.03027459
0.00883470
-0.06690463
-0.04539989
0.03905283
-0.05775744
0.02965640
-0.02621162
-0.07076362
0.01397867
0.05086856
0.02780149
0.04949747
-0.03983320
-0.05918712
0.02084392
0.03188047
0.05914997
0.02227699
-0.07122339
0.00407676
-0.05557962
0.00315580
0.04469428
-0.05970278
0.04174819
-0.01331694
0.00929481
-0.02343740
0.02009660
-0.04506673
-0.02371564
0.05771333
0.01255189
0.01849299
-0.01347793
0.06855506
0.05344395
0.04290440
-0.05586056
-0.03677737
-0.05660280
0.05703376
-0.00556211
0.00450362
-0.03375648
-0.04583132
-0.01743445
-0.00409386
-0.06056143
-0.04603282
0.05010715
0.04199882
-0.06889378
-0.07021262
-0.06385744
-0.05635860
-0.03618533
0.00034797
0.00143931
-0.04961707
-0.02042409
-0.01226526
0.05295470
-0.03083316
0.02817784
0.06725809
0.02622319
-0.04342800
0.05155580
0.04974396
-0.05823670
-0.00811747
-0.03567480
0.02959238
0.01297198
0.02508765
-0.01856857
-0.06952077
0.05393299
-0.01942086
0.06097575
-0.04720663
-0.04922061
-0.00002624
-0.07244108
-0.04850856
-0.03665327
-0.04638742
0.01648838
-0.02597002
-0.02211873
0.05433166
0.06548771
-0.01116786
-0.00265583
0.01714851
-0.03362735
0.06584829
-0.04593575
-0.04373846
-0.04873781
0.05924676
-0.01537248
0.00284117
0.05383569
0.06705792
-0.00951040
-0.03712018
-0.05630326
-0.04069286
-0.05246188
-0.01842174
-0.03540987
-0.02892541
-0.05208756
0.03216098
0.06928936
-0.03663782
0.03260687
0.01375646
-0.01674950
0.01444032
-0.04413417
0.07045563
0.05816367
-0.05505242
-0.01245828
0.00956609
-0.06468614
0.05777820
0.02686709
0.03344045
-0.02248766
0.07032023
0.03719426
0.05442357
-0.02888805
-0.00319174
-0.04683159
0.06930579
0.05546572
0.01533203
0.05261351
0.04881947
0.07098641
-0.06034459
0.05146794
0.05235746
-0.05391842
-0.00746209
-0.01031970
-0.04869813
0.04918255
-0.00577742
-0.03304128
0.04084859
-0.07284962
-0.04810720
-0.01373702
0.04490619
0.05591519
-0.01712170
0.03181349
0.04845025
0.01918864
-0.03936996
0.02265083
0.03180217
-0.03410326
0.06892280
-0.02330695
0.02750855
0.04401242
0.04343221
0.04215831
0.02107199
-0.06757656
0.00927597
0.01795969
-0.02574152
0.00285960
-0.03332270
-0.02250408
-0.02664119
-0.01194568
0.05485636
-0.05247563
-0.04326790
-0.02110342
-0.02446411
-0.02242948
0.04470593
-0.01027936
-0.00120647
-0.03225894
-0.02486722
0.00245494
0.00554605
0.03350645
0.05517243
-0.00439287
-0.05956850
-0.00168987
0.01615527
0.03462938
0.06657759
0.05509649
-0.05461426
0.00631567
-0.02634227
0.03214318
-0.04393703
0.00411961
-0.06048333
0.03124569
-0.06135289
-0.06806016
0.05483859
-0.00053721
0.01859462
-0.00597364
0.00956206
0.03656381
-0.00511352
0.02713300
-0.01887586
-0.06483089
-0.00189928
-0.02371978
-0.05284888
0.03875721
0.01408535
0.02349545
-0.05841453
-0.04851836
0.01447407
0.05293238
-0.06444924
-0.05870757
-0.02487937
0.03477136
-0.00053293
-0.05983152
-0.03073276
-0.00058911
0.03041228
-0.06761698
-0.06868309
0.00616615
0.04709816
0.01587303
-0.00615189
0.05043434
0.01725220
-0.05826464
0.00751271
-0.02536113
0.01410767
-0.01271854
-0.03238533
0.06752903
-0.02536997
0.02170422
0.06690799
0.03605792
0.05075335
-0.00929141
0.01344692
0.00614803
-0.06302243
-0.04751970
0.04443273
0.01805722
-0.03616235
-0.07112326
0.00255056
0.02842082
0.04952556
-0.04266678
-0.06445649
-0.02262222
0.06686673
-0.07239432
0.01087230
-0.05933636
-0.02714601
-0.05238231
0.03643346
-0.03309737
-0.02252194
0.06171002
-0.00923536
0.02995223
0.04467087
0.06683947
-0.05050853
0.06392016
0.06626420
0.02747018
-0.02052652
-0.04684950
0.02614126
0.05692693
0.04881989
-0.01020400
0.01628722
0.00565941
0.06953117
0.05207967
-0.01400554
0.01298445
0.05727256
0.05170423
-0.00926018
-0.02402344
0.04511076
-0.00153958
-0.03285606
0.06639764
-0.02455677
-0.05382546
-0.02545277
-0.02525904
0.00593824
0.04335945
0.06681219
0.00525211
0.04398697
-0.03832857
0.03832506
-0.02200395
0.02836149
0.03109501
-0.02574808
0.06139947
-0.00046432
-0.00714305
0.00046603
0.07173056
-0.05889375
0.04329867
0.05743027
0.00238402
-0.06205879
-0.00783511
0.04902134
0.03278077
-0.07100286
0.00080077
-0.02183947
0.03771912
-0.03969615
0.02572649
-0.05809932
-0.04972996
0.01214695
-0.06315701
0.02395993
-0.05868279
-0.05933722
-0.04480243
-0.04872610
-0.02181702
0.00316242
-0.04318656
0.04650730
0.02216284
-0.00376524
-0.03173010
0.06524258
0.05802735
0.03486333
-0.04233102
-0.02328546
-0.03207138
-0.02932790
-0.06012161
-0.04704725
0.00370725
-0.06748030
-0.06012333
-0.06268157
-0.00354881
-0.01361011
-0.00095587
-0.02439204
-0.01840074
-0.05366129
0.05028432
0.01765751
-0.04347541
-0.01571057
0.02301909
0.00588431
0.04779460
0.05392898
-0.01309593
0.00530111
-0.03584591
0.05015026
0.01146311
-0.02806402
-0.04650619
0.00404289
0.03753150
-0.06339588
0.05931897
-0.07253412
0.05327078
-0.04212917
-0.00582588
0.02652908
0.00338140
-0.02199486
-0.00417650
-0.05354370
0.05031295
0.03775660
0.06156805
0.05545330
0.01309822
-0.02190862
-0.04559922
0.05110006
-0.02705590
0.02985201
-0.04261004
-0.03777293
-0.03390807
0.06442997
0.01516729
0.00212864
0.04591552
-0.04108970
-0.01441692
-0.00909462
-0.04682261
0.00306859
0.00119914
-0.00549165
-0.03315192
0.05325405
-0.07040627
-0.06395455
0.01462092
-0.05802095
0.07010563
0.06079651
-0.02017269
-0.02167346
0.06730852
-0.03345794
-0.04932448
-0.04102867
-0.06902944
-0.06533758
0.00912462
0.07088283
-0.03509570
-0.00963360
-0.05081690
0.01565756
-0.01245779
-0.03690284
0.06078544
-0.02271712
-0.06155756
-0.03701085
0.00375514
-0.01495829
-0.03880924
-0.05259703
-0.06024300
0.06467912
0.02427273
-0.07122972
-0.01653037
0.00919530
-0.06701264
0.03468194
0.01223543
-0.05304130
0.02513155
-0.03312070
0.04995266
0.03407842
0.01914264
0.05773452
-0.03185030
-0.06427348
0.06598270
0.04550334
-0.02283645
0.06540462
0.06133594
0.01595450
0.06947834
0.05714933
0.00797568
-0.04657554
0.02415622
-0.02156006
0.01203780
0.06912142
0.06148265
0.03629377
-0.06442952
0.05791235
0.04495489
-0.03191095
0.01562246
-0.06174644
0.02423758
0.02950411
-0.06092906
0.04111842
-0.06552111
-0.04584628
-0.03222836
-0.01034521
0.02432472
-0.05028144
-0.06745448
0.01536458
0.01318949
0.07114875
0.06948094
-0.02054320
-0.00251113
-0.06819256
0.00930119
0.00540249
-0.02542010
0.01801601
0.03615019
0.02220225
-0.05793776
-0.05841474
-0.00702315
0.02440855
0.03826734
0.04718240
0.06525146
0.04508802
0.01325473
0.04064120
-0.05263962
-0.00359892
-0.00016124
-0.01343315
-0.06957652
0.02806312
0.01684975
-0.03848239
0.05838162
-0.04534877
-0.02681871
-0.00588949
-0.01213026
0.06476922
0.02800218
-0.07188851
0.01825379
0.02479976
-0.00101575
-0.05729932
0.00187696
0.01237774
-0.02401175
-0.07078516
0.02253831
-0.03082344
-0.06926426
0.05893183
0.06793719
0.01484344
-0.07199786
-0.06069757
-0.06013520
-0.04833621
0.00392146
-0.07314350
0.00125987
-0.01504038
0.01680316
0.02606539
0.06762932
-0.05003962
0.01525162
0.02897593
0.00141974
0.03232902
0.01102163
-0.04945342
0.02631479
0.07086673
0.01785760
0.03029121
-0.01278736
0.04505752
-0.00658751
0.05403096
-0.00880830
-0.03211143
-0.06194781
0.06539448
0.07133608
-0.01991868
0.04381211
0.00752305
-0.06055644
-0.03452795
0.00579577
0.05233431
0.01354777
-0.06276438
0.05051603
-0.07033143
0.01419288
0.04802488
-0.05195531
-0.02489522
0.01067745
-0.05133862
-0.05715412
-0.02784857
0.03693357
0.00164404
0.04449365
0.03375240
-0.00190524
0.06962386
0.03255553
0.01365842
0.00423003
0.00479014
0.02074319
0.01984418
-0.04637365
0.04990205
-0.04444551
0.04113477
0.06403779
-0.04050864
0.04067760
0.01626470
0.01024210
0.02864785
0.06053415
-0.05920934
0.04900428
0.00315209
-0.05053573
0.00555939
0.03215317
0.05800299
0.06425688
0.06081802
0.01363296
-0.03372231
-0.06633559
-0.03022879
-0.00761588
0.07534325
0.04379198
0.04632353
-0.01587527
0.00305527
0.05747238
-0.05071501
0.00065987
-0.02216454
0.02376799
0.01616185
-0.06957626
-0.03766948
-0.03057141
-0.03939401
0.02989753
-0.01327772
0.00563464
-0.05394679
0.01287739
0.07405999
0.06284667
0.06220961
0.04429103
-0.02304626
-0.01372051
0.00691155
0.00507212
0.03409056
-0.02477128
-0.05083129
-0.02630689
0.01424750
-0.01867142
0.07041753
0.01771119
-0.06155147
-0.02464018
0.06251770
-0.01135917
-0.02544562
-0.03530996
-0.00667163
-0.07099254
0.00228115
-0.02892256
-0.00386719
0.06586289
0.00573373
-0.00862011
-0.02640771
0.04826118
0.02741968
0.00352455
0.00045131
-0.03855382
0.03119582
-0.06234432
-0.07034462
-0.02033067
0.00054347
-0.01409535
-0.05841540
-0.04262733
0.06255184
0.00273479
0.00596759
0.03834546
-0.02729894
0.06286234
-0.03343501
0.06334673
0.06220966
0.07053837
0.01568958
0.01863464
0.00822802
-0.05698650
-0.00385207
-0.04844065
-0.06276058
-0.06365071
0.02892027
-0.02826907
0.04651154
-0.05313870
-0.05010134
-0.04575623
0.07031690
0.03012544
-0.02648408
0.01360011
-0.04223058
0.06299616
0.05608836
0.03304891
-0.06110082
-0.03342935
-0.05055313
-0.01822959
-0.05353785
-0.04109848
-0.01043048
0.04268387
0.00220521
-0.01706673
0.03260110
0.03478460
0.05945288
0.03248039
-0.03517334
0.03712007
0.02584341
-0.01879081
0.05710778
-0.07147600
0.01527520
0.00100124
0.07043784
0.03458459
-0.06155749
0.00659963
-0.02165037
0.00507471
-0.03129509
0.03001109
-0.01926474
0.04872039
0.02085478
-0.05953451
-0.03169666
0.05918813
-0.00507606
0.02709495
0.01374501
-0.00081647
0.03269250
-0.01233569
-0.00344716
0.01906884
-0.05592060
-0.03854164
0.00234294
-0.04801770
0.00857383
-0.06650872
-0.01587468
0.05842248
0.03600053
-0.06591623
0.04071191
0.03125398
-0.04691989
-0.03942665
0.01143467
-0.01776337
0.00404264
-0.01535425
0.03253793
0.07015204
0.02347025
-0.01901374
0.04900779
0.01808921
0.00487777
-0.05656676
0.04555554
0.01569079
0.02375547
-0.03351632
-0.01362345
-0.02381687
-0.03637218
0.03306413
0.04487700
0.00409664
0.00593464
-0.04686166
0.03088334
0.01421272
-0.02336401
-0.02248048
-0.02591489
-0.00176272
0.01579653
0.03488583
-0.00092437
0.00588090
0.00565429
0.02061485
0.04355595
0.06958508
0.03574369
-0.00329711
-0.05750928
0.06258349
0.02769898
0.01322411
0.04740018
-0.03755144
-0.00986491
-0.05819586
0.03158386
0.03414495
0.05782395
-0.00285341
-0.04082118
-0.02164420
-0.06147189
0.02033191
0.06511547
0.00196835
-0.03980483
0.05193415
-0.00203536
0.02087633
-0.04126546
-0.04027539
-0.01839692
0.01540854
-0.00386731
0.04619570
0.01909453
-0.03554033
-0.01933337
-0.04118216
0.06094823
0.03208185
0.04517934
-0.05814259
0.04115435
-0.00220764
-0.02226389
0.00237040
0.06105165
0.00536204
-0.01342118
0.07325526
0.00425060
-0.04529781
0.04024643
-0.05700835
-0.05184785
0.00128909
-0.03677028
-0.06190351
-0.04342858
-0.05420320
0.02282126
0.06924260
0.06288838
0.05036248
0.01581845
0.07432943
-0.02901888
0.04051815
0.07460230
0.01214170
-0.05375586
-0.02335751
0.03223751
0.05840464
-0.02673190
-0.02633882
0.01361002
-0.00959852
0.01459597
0.06927166
0.05306265
0.04528526
-0.00216464
0.01148012
0.06637570
0.03533899
0.00267612
0.06342814
0.01841087
0.04091231
-0.06753558
0.01411587
0.07323040
-0.01982553
0.01728396
0.00614094
0.03711704
-0.00629166
-0.06547292
-0.00166859
0.03976857
0.07194492
0.03086151
0.03439407
-0.03424289
0.03176226
-0.00004218
-0.00438358
-0.05093023
0.02692598
0.04393269
0.01106759
0.02122715
-0.02111096
0.00728080
0.06409752
0.04482818
-0.00000779
0.05214546
-0.00238543
-0.02611491
0.05811225
-0.01496784
-0.01131765
-0.05592599
-0.01241642
0.05060605
-0.02690602
0.03517703
0.06567019
-0.01579140
0.03043479
-0.06604917
0.03374883
0.01931398
-0.03140775
0.04443303
0.04773093
-0.00064891
-0.01548246
0.03106861
-0.03298182
0.02153910
-0.00652986
0.05613302
-0.00970672
-0.03540130
-0.05592228
0.04737578
0.04811716
0.07187369
0.02008533
-0.00189797
-0.04272005
-0.06761587
-0.05066638
-0.00628191
0.00555798
0.06427690
-0.05879715
-0.01618860
-0.00171751
0.01896060
-0.02127253
-0.06304038
0.01950015
0.06842738
0.04703654
0.05974832
0.03404160
-0.04496459
0.00696437
-0.03666737
0.06594530
-0.06853615
0.02206442
0.06370026
0.03240430
0.03846303
-0.04278754
0.05321586
-0.03883300
-0.06846771
-0.04627161
-0.01008253
0.01294899
0.05260355
-0.05408938
0.02428382
-0.00861173
-0.00294498
0.07148558
-0.03809276
-0.04605776
-0.06111166
-0.06556597
-0.06263493
-0.03864346
0.00855467
-0.02777489
0.05351090
0.01551299
-0.03364709
-0.05235466
-0.05803281
0.00509431
-0.01123793
-0.01195838
-0.02953229
0.02204334
-0.06037779
0.00139569
0.07257391
-0.06708842
-0.02780101
0.01713938
-0.01916119
0.01476748
0.02877348
-0.05126812
0.05153586
-0.04637631
0.00300652
0.05204315
-0.05119663
0.00362129
-0.00518539
0.03711251
-0.05196878
0.06010877
-0.04914290
0.01652883
-0.01316189
-0.03715011
-0.02781517
0.05124406
-0.05175753
0.04038033
-0.00297867
-0.04009918
0.03886717
-0.02534959
-0.03171081
0.05047214
-0.02114034
0.06123906
-0.03542065
0.03036298
0.07330851
0.00972805
0.01989272
0.03718989
-0.02751535
0.03898199
0.05835285
-0.02841925
-0.02624388
-0.01353830
0.05005001
0.05973767
-0.06157276
0.06132673
0.04273947
0.04647514
0.04880757
0.03231043
-0.03334492
-0.00030110
0.02633933
0.03064124
-0.01950871
0.02067026
-0.02534126
0.01374823
-0.00926875
0.01211720
-0.00055380
0.04356904
-0.05187042
-0.04488909
-0.01384295
0.04025875
0.03271118
0.03275554
-0.04520632
0.04902003
0.05103821
-0.02900478
0.00658060
0.03069079
0.06694321
0.01331743
-0.02595632
-0.05929147
-0.01786449
-0.05106900
0.01259786
-0.02852423
0.01346634
0.04270202
0.02609835
-0.01471753
0.01102457
-0.03746199
0.01252015
0.04062977
-0.00136787
-0.00276932
0.04201127
0.00433206
0.04843022
0.05962047
0.06840126
0.04550396
-0.02991081
0.02355819
-0.02749066
-0.00263892
-0.02003246
0.02203562
0.02840676
-0.04466802
0.04572078
0.02759275
0.00918606
-0.03874728
-0.00850796
0.06382845
0.05784627
0.02012851
-0.06746066
0.03439904
0.04385302
0.00300015
-0.06161779
0.06725023
-0.05640262
-0.01546197
-0.03622564
0.01078200
0.03880112
-0.04739124
-0.04873514
-0.02576856
-0.01580382
-0.03299650
0.04522051
0.03032045
0.00728212
0.05115333
0.07290687
-0.03305283
0.01238748
-0.01410044
-0.00671535
0.04999704
-0.03041344
0.04153877
-0.02234077
0.06683067
0.05262945
-0.03238185
0.07044630
0.04116876
-0.06247332
-0.02790543
0.05420525
-0.05174686
0.00940353
0.00089259
-0.06832635
0.07446685
0.02344089
-0.05707009
0.05263528
0.00944225
-0.01834928
0.06367039
0.02454085
-0.05385130
0.00212935
0.03089891
0.01804485
-0.02879883
-0.06758682
0.07372065
-0.04864302
-0.00271531
0.05008050
0.00285757
0.02646100
-0.02598531
-0.06164991
-0.01316128
-0.06608682
-0.00895447
-0.02192044
0.06363922
-0.00824625
-0.01336262
0.07142612
0.01713679
0.05680365
0.03411311
0.01809717
0.01268207
0.03637129
-0.04184964
0.02409976
-0.06386164
0.00344166
-0.03985758
-0.04058318
-0.00222865
0.00090094
0.03388826
0.06585650
0.02136935
-0.04808941
0.00156398
-0.01869973
0.02020278
0.05667090
-0.03538771
-0.05962475
0.04852239
0.04689144
0.00277509
-0.00851074
0.02071693
0.07003030
-0.01881474
0.06946982
-0.07109185
-0.03595535
-0.05750778
-0.01732231
-0.05228761
-0.06175578
0.05188448
-0.02022159
0.03203591
-0.05044759
-0.05217778
-0.03964899
-0.04286039
0.04475673
0.06565672
-0.04944138
0.05854855
0.01073565
0.06993689
0.03694132
-0.04078740
0.05437229
-0.03431291
0.06733731
0.06668802
0.00999111
-0.06607721
0.01002684
-0.02134106
-0.02229057
-0.05548287
0.05725434
0.00569178
0.06895865
0.03794141
0.03654164
0.00605175
0.01967978
0.03269055
0.05704124
-0.03513549
-0.03234191
0.01825277
0.04669248
0.00786222
-0.02169748
-0.02747505
-0.04409832
0.02066757
-0.02824748
0.03493321
0.05398186
0.05171893
0.02813546
-0.01656054
-0.06393179
0.03873022
0.06131395
-0.06948169
-0.02587829
0.01932405
-0.04051376
-0.03551163
0.01567318
-0.00986842
0.01217175
0.01156088
0.00189953
-0.00336589
-0.00111676
-0.03572351
0.06897130
0.03913123
-0.03988326
-0.05842782
-0.00819412
-0.05471975
0.00505245
-0.02899775
0.00555252
-0.00051849
-0.03682058
0.07378860
0.01418729
-0.01002645
-0.00445925
-0.03337584
-0.06158525
0.02640053
-0.04337426
0.02694702
0.02165354
-0.04520716
0.01688257
-0.00528152
-0.00811984
0.02084825
-0.01462930
-0.05758796
0.00954612
0.01502107
-0.04777201
0.04979734
-0.04808364
-0.03873013
-0.03436024
0.06095536
-0.04869463
-0.06204247
0.05983644
0.01894661
0.02299844
0.06032995
0.05983900
0.00613764
0.05773525
-0.05201817
0.02739925
0.00997705
0.05299503
0.00722867
0.02836308
0.04242650
0.02509543
-0.04974484
-0.02900610
0.04582379
0.03984725
0.00137210
-0.06543062
0.04002525
0.06936757
-0.00745211
0.01407003
-0.05306263
-0.06938922
-0.04792417
-0.05974980
-0.03069641
0.03787694
-0.01289589
0.02616794
0.05895496
-0.05494167
0.00821338
-0.02237653
0.01948355
0.07162569
0.06412296
-0.05248412
0.05127358
0.02712786
0.06567321
-0.04485220
-0.01678677
0.03336887
0.04092205
0.03176787
-0.00767204
-0.02044490
-0.02259350
-0.03541441
0.00812861
0.02121390
0.00442678
-0.00056480
0.07459659
0.01192060
0.03989578
-0.00777920
-0.02025856
-0.05983303
0.03695329
-0.03285856
0.03714010
0.01246865
0.02263652
0.03762139
-0.05176477
-0.02181769
0.04983150
0.06361067
0.01594378
0.05434493
-0.04767823
-0.03603017
0.02373656
0.05530564
0.00962173
-0.00802961
0.01074729
-0.01964977
-0.01091624
-0.02728561
-0.06231860
-0.03685849
-0.03279669
-0.05841664
-0.01056966
0.05307052
-0.05092890
0.06171507
-0.00086072
-0.04213732
0.02493527
0.01966110
-0.07149246
-0.00408517
-0.00021293
0.03456522
0.00188148
0.03992357
0.05582901
-0.06253859
0.01495159
-0.03196667
-0.06442993
0.03737562
0.05516975
0.04823257
-0.04844516
-0.01680976
-0.06098701
0.05389992
-0.00593392
0.00654517
-0.03431189
0.07161183
0.06166220
0.05301341
-0.00460489
0.07121963
-0.00116927
-0.00499061
0.04405655
-0.01652018
0.05622651
0.02119675
0.01612807
0.01426405
-0.05964291
0.02725236
0.00220345
-0.00074387
0.01523522
-0.01971108
-0.04081127
-0.06559891
0.06513775
-0.05251228
-0.00041004
-0.01882169
0.01967931
-0.00368509
-0.01494531
-0.00357393
-0.00212938
0.01912430
0.01528102
0.07461992
0.02265917
0.00771833
-0.06579698
-0.07208100
-0.03065472
0.06273012
0.01360548
0.02979806
-0.01983056
0.00563811
0.02537093
-0.06300054
-0.06531341
-0.01338912
-0.06019877
0.01282213
0.06243235
0.03990423
0.03263719
-0.01771852
0.06669648
0.02806021
0.06709306
0.04030729
-0.04274797
0.04935549
-0.02711030
0.04191813
-0.03137490
-0.02157381
0.05752342
-0.00415097
0.04222981
-0.03936806
-0.00712179
0.05894220
-0.03039007
-0.04140135
0.00233173
0.05620084
0.06245191
-0.05957812
0.04176010
0.03543786
0.03517761
-0.05345153
-0.03567805
0.04652074
-0.01636717
-0.04540781
-0.01070376
0.04114572
0.05555883
0.02032302
-0.01552881
0.06069541
0.04249567
-0.03591208
0.06215435
-0.04226059
0.06815392
-0.01698625
0.05916620
0.05803033
-0.02561190
0.01516578
-0.03836938
0.01572071
-0.05654448
-0.05451551
-0.01923642
0.01853403
-0.01635893
-0.06397220
-0.02380714
0.00966308
-0.05613548
0.06181712
-0.01207700
-0.01153965
-0.02737829
0.01443311
-0.06420133
-0.00157991
0.01385606
0.06867314
0.01195084
-0.02837023
0.03358040
-0.00538595
0.06680553
0.00152283
0.04372205
-0.06822266
0.02721116
0.05238092
0.03817300
-0.01174999
0.07426944
0.02960467
-0.03280777
-0.04802060
-0.02032248
0.00504713
-0.01278181
-0.04393200
0.04366143
0.06755201
0.06698569
0.00602639
0.02426716
-0.06701918
0.01171859
0.03239182
-0.02707367
0.03931622
-0.02268392
-0.00204533
-0.01434358
0.04107857
0.00376597
0.00307149
0.06569634
0.07273334
0.02396365
-0.00722538
0.03756817
0.00555923
-0.06955748
-0.04224630
0.03140831
-0.05798166
0.07405607
0.03206402
0.00498661
-0.00520338
-0.03534301
-0.00577864
0.05658498
0.00804134
-0.04647803
0.04339936
-0.02918191
-0.05245319
0.06176846
0.01480521
0.06209469
-0.00455694
-0.02154475
-0.01083453
-0.01938843
-0.00936383
-0.06450196
0.01805678
-0.02736842
0.07468092
-0.01123736
0.02727070
0.02684713
-0.06621952
0.04163588
0.04563223
0.01090518
0.03966501
-0.03713026
0.05373901
-0.03246123
0.03622517
-0.00061322
0.07444508
-0.03561777
-0.01816726
-0.06054638
-0.05388551
0.04463666
0.02568919
-0.02020909
0.06321084
0.04120103
0.02818631
-0.02064366
0.00279228
0.00227058
0.01194122
-0.01225474
-0.06643850
0.00113971
0.05478105
0.01116416
-0.04822611
0.01620558
-0.00475695
0.01033563
0.05226661
0.06748297
-0.04225483
0.04168765
-0.00513905
0.03616314
0.02364232
-0.03040191
-0.06604145
-0.04732070
0.04681792
0.02023281
-0.02077257
-0.02594683
-0.00564815
0.03902361
0.06107163
0.02774564
-0.05039920
-0.03050952
-0.02298294
-0.00546690
0.01034718
0.02623702
0.04618903
0.00364470
-0.03904366
-0.03471371
-0.03503951
-0.05152569
-0.00622296
0.05730002
-0.00429716
-0.06715917
-0.01274286
-0.06584374
0.00919777
-0.02779978
-0.04293227
0.03494868
-0.05458194
0.00229448
0.05374714
0.02243505
-0.06494559
0.03273287
0.04154421
0.07022469
0.06037872
0.04763126
0.07271836
0.02076552
-0.07004833
0.04474278
0.01760714
0.01289029
-0.04936138
-0.00909437
0.01886938
-0.05081174
0.01461560
0.06224732
-0.04304948
0.03176601
-0.02846360
-0.00310011
0.05777168
0.05877596
-0.00746557
0.02606435
-0.02887291
0.06789087
-0.02017271
-0.02525837
0.02828574
0.00327960
-0.02175734
-0.04209830
-0.02899223
0.01624884
0.01988857
-0.02345391
-0.05069135
0.06690718
-0.06901671
0.03716421
0.00569547
0.03090718
-0.04480315
0.00651799
-0.07020496
-0.04310723
0.00505877
-0.02623265
-0.03395355
-0.06614579
0.05822697
-0.05483429
-0.03660759
0.07503384
0.05900932
0.01563212
0.03535561
0.04111197
0.02682438
0.02058779
0.06094902
0.06146800
-0.06888381
-0.01497561
0.02840119
0.03960731
0.07412942
-0.00031492
0.04889429
-0.07006355
-0.06380581
0.00598662
-0.00485248
0.06799713
0.06034698
-0.02950687
0.03211734
0.05819191
-0.05411989
-0.05196001
-0.01353330
-0.06607597
-0.06354577
0.00851299
0.02060631
-0.06097121
-0.00747477
-0.05503037
-0.00640398
0.00685425
-0.00083458
-0.06037768
-0.06044830
-0.04450482
0.01838382
-0.05370216
0.06757550
-0.04035922
-0.03903493
0.01912582
-0.04778545
0.06566644
0.01716176
-0.05654890
0.00270604
0.00732039
-0.06555658
-0.01693216
0.04351287
-0.00957966
-0.02200920
0.03328001
0.02145612
0.00384053
0.06765194
0.05979819
0.07104016
-0.00022175
-0.04097240
-0.01976404
0.05873413
-0.05291255
-0.06645289
0.03705265
-0.04269145
0.04515736
0.05218564
-0.03160032
0.05762538
0.05843188
0.03965436
-0.06339409
-0.00750011
0.07133330
0.03623727
0.03303541
-0.06098627
0.04839838
-0.04741039
-0.06660189
0.02774247
0.00083124
-0.03323599
-0.05930573
0.00674542
-0.02063854
-0.05084046
0.05924405
-0.02474923
-0.05320681
0.05907103
-0.06299625
0.01103689
0.05857430
-0.00366565
0.03426619
0.04444275
0.07173821
0.01726799
-0.00161210
0.06810115
0.04476466
-0.02891631
-0.01163785
0.02859293
0.06863542
0.07431238
-0.03277418
0.04300922
0.03108342
0.03702735
0.02119230
-0.02372910
0.06383205
-0.02929869
-0.03449407
0.01241310
-0.06867905
-0.00071580
0.01092030
0.02324351
-0.00617022
0.03797375
0.03920967
0.00944739
0.05801472
0.04847388
0.02237498
0.04210091
0.05913861
0.03139866
-0.02342100
0.06019980
-0.06663991
-0.01549794
0.00688409
-0.01596378
-0.02575913
0.01643812
0.00660611
0.05305852
0.00331016
0.03295396
0.06491912
0.05459291
0.05443886
-0.02057330
0.04800960
0.06402411
0.04018478
-0.04942846
0.07488557
-0.02745767
-0.04269591
0.03885893
-0.00010245
-0.01166427
-0.04608881
0.03393931
0.02454489
-0.05945726
0.05739371
0.00461809
-0.06123566
0.07263432
-0.06001322
-0.04906692
-0.06856988
0.02129905
0.05299539
0.00403947
-0.06772247
0.01517808
0.02189181
-0.03780733
-0.02150888
-0.01518791
0.00252424
-0.00180695
0.06769712
-0.06430315
0.00545204
-0.05492713
-0.03941246
-0.00494539
-0.05136528
-0.04522904
-0.03214396
-0.03330839
-0.01082851
-0.01571075
0.05997469
-0.00189610
-0.03336795
0.02384345
-0.01901582
-0.06762757
0.04464339
0.02546398
-0.02390135
-0.03229514
-0.01770990
-0.02199089
0.02096101
0.06961646
0.02582377
-0.03534778
-0.02526117
-0.01399453
-0.03346908
-0.00564926
0.00226204
-0.05715371
-0.00332827
0.04607690
-0.06409350
0.02876596
-0.00692559
-0.02123788
0.01571804
-0.04030230
-0.04051505
0.06552833
0.02324614
-0.01336644
0.06763020
-0.02073130
-0.00601429
-0.04831995
0.02290785
0.01753615
-0.04192927
-0.01988625
0.02216640
0.02414875
-0.02565069
-0.02279464
0.01175423
0.01452162
-0.04729535
-0.05980292
-0.01985986
0.00597123
0.03606305
-0.04994968
0.06329168
-0.02966654
0.05302610
-0.04110457
0.01875641
0.04115370
-0.06104643
-0.01424835
0.07211877
0.04559609
0.04376177
-0.00644811
-0.00398120
-0.02613599
0.01059274
-0.04874611
-0.00477733
0.02889439
0.02293637
0.01857322
-0.02505557
0.04987129
-0.01864303
0.02928537
0.01337675
0.03169037
0.02627868
-0.02213075
0.00669845
0.07053129
-0.04140689
0.06351484
0.00425978
0.06733227
0.01703059
-0.06403600
-0.00109534
0.03344810
-0.05900736
0.01685011
-0.06954330
-0.04166760
0.04495328
0.03979777
0.01103409
0.05502973
-0.05563064
0.00846504
-0.02797036
0.06899798
0.05554510
-0.04470073
0.07114419
0.06737108
0.04013316
-0.02665402
-0.05485794
-0.06685335
0.04653918
0.00694132
0.04227814
-0.03855305
0.05914547
-0.04485423
-0.03057025
-0.04399274
0.01368023
-0.03420532
-0.02523142
-0.03303614
0.01626683
0.03491244
0.02202214
0.02686369
-0.00577497
0.05742494
-0.04036267
-0.05928746
0.01665138
0.07114717
-0.00973412
0.05304567
0.04615951
-0.03878298
-0.00318087
0.06394949
0.02958113
0.04771805
-0.07070602
-0.01253276
0.06898855
-0.07088633
0.01545627
0.06989218
-0.04983848
-0.04784752
0.03425691
-0.06761701
-0.02497659
-0.02554160
0.05174684
-0.01160938
-0.04299882
-0.00047513
-0.05322564
0.07205021
-0.01923250
-0.01118864
-0.06512767
-0.05136136
0.00435996
0.05475941
-0.02724903
-0.05898657
0.06529883
0.03449083
-0.02616418
0.04737981
0.03131144
-0.01384214
-0.05451561
-0.06598096
-0.03682987
0.06573825
0.06082119
0.02299888
0.03873359
0.06613732
0.06941321
0.05495872
0.02740717
-0.02783703
-0.04645532
0.01656140
-0.04847712
0.06607432
-0.00412924
0.02445910
0.06148912
0.06679723
-0.02521772
-0.04635595
0.03835601
-0.01984159
0.05632356
0.04595887
0.02930968
-0.03283896
-0.03062048
0.03035351
0.00674373
-0.02943437
-0.03934861
0.01512047
0.02080088
0.05560352
0.04554763
-0.05194472
-0.05662654
-0.02456067
-0.03135198
-0.03079257
-0.01174995
-0.01240519
0.03065844
0.06752160
-0.03022145
0.03983067
0.04533171
0.03436840
0.06314686
-0.01234053
0.06212928
0.05299709
0.00858655
-0.00946767
0.00072145
0.03871321
0.04800203
-0.01051594
0.06996306
-0.06668001
0.00923508
-0.01924529
-0.05069352
-0.02455223
0.02555639
0.03298108
-0.02613306
-0.03903637
-0.05626973
-0.02305808
0.07377595
-0.05569213
-0.00967488
0.07433087
-0.01499988
-0.03849767
0.04534846
-0.03958597
0.06442909
0.02661910
-0.01173492
0.00017304
-0.02341750
-0.02365532
0.07087071
0.03886147
-0.03337989
-0.06628488
0.00567875
0.04054943
-0.06189792
-0.02901652
-0.04206230
0.04649936
-0.05867889
-0.01965612
-0.01697306
-0.04768197
0.00565090
0.03760315
0.07487130
0.02932020
0.05958013
0.04449156
-0.01892805
0.06094402
-0.04836296
0.00819607
-0.02096433
0.00817309
0.03002609
0.01425923
-0.02322322
0.01359893
-0.05264758
-0.05098224
-0.05693292
-0.03819317
0.03458238
-0.02992730
-0.00820742
-0.05490472
0.04580535
-0.03899391
0.00825640
0.07096496
-0.04148373
0.02270947
0.04879174
0.05224009
0.01218105
0.06707945
-0.00493397
-0.04070031
-0.07135502
0.03294770
-0.01759552
0.02248990
-0.04095713
-0.05913226
-0.00140627
-0.05090961
0.00336174
0.05730873
-0.01248632
-0.01005344
-0.04635387
0.01661412
-0.06588900
-0.05408039
0.01008340
-0.06213538
-0.00537752
-0.01215659
0.00870271
0.01875734
0.07202249
0.04032100
-0.03104434
-0.05037004
-0.06632479
-0.03859973
0.03927235
0.07157637
0.04223230
0.00202608
0.04196128
0.05889029
-0.02391445
0.05953048
-0.03089409
-0.03815049
-0.06767052
0.03713827
0.06565645
0.04131793
-0.02156208
-0.05189494
0.02258215
0.03243266
-0.03743252
0.03185641
-0.01771932
-0.03744688
-0.03405990
0.03752933
-0.04453869
-0.01420264
0.06765304
-0.06410992
-0.04748922
0.00410533
-0.02335872
-0.00133489
0.06736407
-0.02925657
0.04343485
0.01745599
-0.04692406
-0.06702159
0.05211305
-0.05816507
-0.03289013
-0.05938267
-0.04734914
0.02973056
0.06503332
0.01812613
0.04879851
0.02951876
-0.05681116
-0.05239995
-0.03027391
0.03520251
0.01993185
0.01972830
0.02028710
0.00131157
-0.06884024
0.03548951
0.04209992
0.04978075
-0.03198887
0.03514793
0.00344010
-0.00745421
0.01505576
0.01892794
0.00119899
-0.04406931
-0.02973962
-0.05317538
-0.04933115
-0.03830826
0.02482447
-0.06230629
0.01834030
-0.03499220
-0.02375561
-0.02517936
0.01190576
0.00861364
-0.00328791
-0.00198735
-0.04682524
-0.01722202
-0.06780981
0.07439984
0.06045512
0.03117289
-0.05165549
-0.06165003
0.03200474
-0.00973159
-0.04361087
0.04609898
-0.04806304
0.05709778
0.01730691
0.05149246
-0.04451331
-0.03275156
0.02754275
-0.05708052
-0.03681301
-0.02368432
-0.01218338
-0.03480344
0.07338464
-0.05425641
-0.01448801
0.03600153
-0.05650755
-0.04848740
-0.01411774
0.02153733
-0.04751437
0.03936764
0.04219789
0.05523155
-0.05087259
-0.03683277
0.01795651
0.04399189
-0.00418741
-0.03942340
-0.04786501
-0.05310445
0.05115801
0.06099527
-0.00871041
-0.03882137
-0.06180734
0.01868123
0.02628133
-0.01956652
0.02404497
0.02143982
0.03165255
-0.03853520
-0.03501088
0.06968914
0.00895546
-0.01344773
0.07459211
-0.02473726
0.06870537
0.05647096
0.06869484
0.07246026
0.05287577
0.01778710
0.00472717
0.01907830
-0.01564910
0.05609433
-0.00926430
-0.01427716
0.03313382
0.01442457
-0.03404388
0.03673672
0.00371493
0.01736063
0.00902214
0.06416276
0.05438742
0.00197101
-0.06795413
-0.05842457
-0.01356832
-0.04901563
-0.00407868
-0.05627738
-0.05027393
-0.04794269
-0.03181212
-0.00601908
-0.05711652
0.00931559
-0.06948482
0.03609710
0.05717181
0.04043313
-0.06195258
-0.00319217
0.03020676
-0.01517770
0.02491406
0.06676125
0.07092558
-0.01554420
0.00377380
-0.01734558
-0.03525591
0.01917395
-0.01394441
-0.01887180
-0.03603521
-0.01111395
0.04434932
-0.04977664
0.03150376
0.06497204
0.05414649
-0.05370888
0.02457478
-0.05957200
0.06738067
0.06027931
-0.00047704
0.05999874
0.00989090
0.01913144
-0.01454068
0.02102875
0.00057030
0.06906286
0.03133412
-0.03178723
0.06112443
-0.05940971
0.07026244
-0.04036320
-0.02389409
-0.04051160
-0.00742710
0.06733631
0.06298628
-0.00936794
-0.02018749
0.00797384
0.04346574
-0.00443302
0.00885660
-0.01472424
-0.02794238
0.06593099
-0.04299951
-0.02316537
0.03127662
-0.02631894
0.00395451
-0.03793799
0.02672535
-0.04874321
-0.02455512
-0.01482692
0.05814365
0.04635762
-0.04452972
0.05009625
0.02309852
-0.00969346
0.02713639
-0.06801681
0.04764071
-0.01406052
0.03147331
-0.04497570
0.05311068
0.02173916
-0.02610496
-0.06545340
-0.02992698
-0.02949180
0.04893946
-0.01055812
0.02342976
-0.00816476
-0.03763822
0.00081838
0.02860174
0.01652111
0.01430869
0.02484980
0.03216278
-0.02991774
0.02227931
-0.03912989
-0.03863883
-0.04916319
-0.01453783
-0.04568273
0.06177846
0.02114033
-0.04069671
0.03596672
-0.05626319
-0.05052336
-0.00535343
-0.06948037
0.03806517
0.07112344
0.03797963
-0.03636352
0.02717048
0.05875130
0.01917350
0.00792330
-0.00396695
0.02328955
0.00462231
0.01256151
0.01899318
-0.06513330
0.07201571
0.06324787
-0.05374482
-0.05719101
0.07102876
-0.06547514
-0.06144206
0.01225266
-0.03243950
-0.06076063
-0.04190511
0.04538527
0.06247845
0.00103248
-0.06652576
-0.01065029
0.07515281
0.04875679
0.04285702
0.02289444
0.06793386
0.00114537
-0.01208349
0.02069210
0.05454079
-0.02555806
-0.00870710
-0.06819867
-0.03848562
-0.05357812
0.00775574
-0.05851130
0.01116045
0.01679134
-0.05408385
-0.02075682
0.03592154
-0.00459641
0.05999449
0.01144294
0.00283631
0.05423213
0.03442677
-0.02758508
-0.05943480
-0.06422456
-0.02593701
0.05778972
0.05306178
-0.00053931
0.02764731
0.00447163
-0.06150918
-0.05667545
0.07337421
0.06448939
0.01592410
0.06353140
0.04199065
0.01854812
-0.03317685
0.07137161
-0.05453032
0.01546766
-0.02557017
0.06278221
-0.01125447
-0.04325194
-0.04677951
-0.02449644
-0.01622911
-0.05324700
-0.02549373
0.05670647
0.00201147
-0.01822767
0.03611252
0.01037396
0.00551797
-0.01464405
0.03434678
-0.03451455
0.04580864
-0.06859054
-0.01447212
0.06966066
0.07045668
0.04613671
0.03631066
0.04787304
-0.00499714
-0.04745522
0.01619372
0.04569910
0.01791812
-0.06289142
0.04855487
0.03930450
-0.03300633
-0.00410809
-0.05094919
-0.05429685
-0.00383231
0.02365902
0.02893164
0.03508198
-0.04265746
0.05362274
-0.04533656
0.00281177
0.06215574
0.03554543
-0.03406089
-0.06358280
-0.03594713
-0.00756883
0.00925361
-0.05795394
-0.00812750
0.05585583
-0.02763707
-0.01479632
-0.06467758
0.04680540
-0.03750629
-0.02340501
0.02094033
0.01111921
-0.02685949
0.05376347
-0.06034127
0.06741793
-0.05196421
-0.05597660
-0.06331150
0.07232447
0.04791230
-0.02345789
0.05177955
0.02410325
0.04415254
-0.00262041
0.01553567
0.01968127
-0.04506158
0.03920797
0.07511120
-0.05835102
0.04481220
0.01971774
0.02827040
-0.04093329
-0.05288250
0.06954629
-0.04864525
0.03727896
0.00383282
-0.02958351
0.03816938
-0.00108487
0.07008190
0.02284222
0.07392472
0.06613144
0.03443876
-0.06005803
-0.00604904
0.02973342
0.05081182
-0.05710357
-0.00962395
0.05054747
-0.04585611
0.04593515
-0.06228169
-0.02333277
-0.00005342
-0.06184402
0.03419769
0.05283067
0.02556914
-0.00428300
0.06289140
0.03001957
-0.00315078
0.01160669
0.00993830
-0.06359937
-0.01052806
-0.02668516
0.02445164
0.04157703
-0.00845374
-0.00403802
0.06425060
0.07056283
0.04043190
0.02879823
0.06057606
-0.02083716
0.03768541
0.00201023
0.06259076
-0.06448418
0.06412192
-0.04357414
0.01777866
-0.02020331
0.00685391
0.05395853
0.04038541
-0.03555151
0.06487092
-0.00628998
0.01823380
-0.06531148
0.01547816
-0.01094510
0.03358691
-0.05481771
0.03118212
0.05892505
0.01364329
0.06679363
-0.00775447
0.04944918
0.06084565
0.03830288
0.05105516
-0.03241646
-0.00368803
-0.01762496
0.05403315
-0.00080062
0.04154092
-0.03867352
-0.00842318
0.06401821
0.06200545
0.00696870
0.06282929
0.00663738
0.06584530
-0.05315434
-0.01101683
0.01564272
0.04282273
-0.03137061
0.07348818
0.03717595
0.03698569
0.07101406
0.00925213
-0.04733840
0.06583939
0.05150513
0.00165074
0.05254040
0.00791957
-0.00591692
-0.03775448
0.01332989
0.04353949
0.06637574
-0.03365588
-0.02728630
0.06653832
-0.01154894
0.06328400
0.04571516
0.02803748
-0.03014608
0.00764735
0.03185453
0.05252971
-0.03194825
0.03121768
-0.03530553
-0.00588631
-0.06795137
-0.06170635
-0.03092069
-0.03269131
0.03062726
-0.05700251
-0.00798123
-0.05079329
0.06199670
-0.06070161
-0.03535246
-0.02067802
0.04449584
-0.00227007
0.06377840
0.01705078
-0.01014163
0.04365334
-0.04083698
0.00093541
-0.04498034
-0.04748432
0.02310145
-0.04107875
-0.02025024
0.01430071
-0.06967627
-0.03267172
0.04938729
0.07105657
0.04980052
-0.06727403
-0.06650686
-0.05766954
0.03145780
-0.00648210
0.00790795
0.04335259
-0.00439199
-0.01590502
0.01796160
0.03377191
0.01076748
-0.01235426
0.04959317
-0.03167230
-0.02091841
-0.03829715
-0.05708256
0.02130198
-0.02064838
-0.00511503
0.05065686
-0.05942157
-0.04088400
-0.05362982
0.02965632
-0.05892557
0.01100318
0.01508866
-0.05536084
-0.02957038
0.07047173
0.01472926
-0.02124839
0.02005155
-0.01291340
0.06795175
-0.06270872
-0.04901556
-0.00914857
-0.06559347
-0.06712735
-0.04470341
-0.00719631
0.03844645
-0.04990731
0.02146521
0.01556860
0.04631625
-0.05596957
-0.04556636
-0.02747378
-0.02005374
0.06677708
0.05162350
0.05662886
-0.05980764
0.00743881
0.03194240
-0.00824343
0.05882208
0.00867153
0.00937458
0.07204983
0.05530269
0.00879323
0.00489897
0.06327067
-0.04771829
0.03441826
0.07462502
-0.05596004
0.00709741
0.05409939
-0.04975980
-0.04577630
-0.04400974
-0.06370732
0.05418441
0.07184283
-0.01199497
-0.00211408
0.04679023
-0.01681202
0.03447775
0.02161140
0.03802146
0.03705589
0.05103459
0.05158725
0.05305905
-0.03480857
-0.06150420
-0.04363520
0.06546989
0.06067584
0.01042053
-0.06708638
-0.04784158
0.06075799
-0.06106479
-0.04068064
-0.01567274
0.05086313
-0.00030248
-0.04666732
0.01727847
0.06653979
0.03839695
0.05674415
-0.04242569
-0.02197754
-0.02155937
0.06198028
0.05548160
0.01614129
-0.04566053
-0.05473282
0.01039575
-0.05252682
-0.05970648
-0.05612609
-0.03140699
-0.02909496
-0.06105874
0.04682803
-0.04394418
-0.01536328
-0.06557328
0.04396356
-0.06347585
-0.02634768
0.07359258
-0.04437160
0.02670166
0.06807338
-0.02996700
0.00723166
0.05081899
0.03160065
-0.06347811
-0.05720694
-0.05864180
-0.05918173
-0.04967184
-0.00603792
0.00576088
-0.05927341
0.03955169
-0.00324601
-0.00515719
0.05820950
0.01531863
0.04240387
-0.02310313
0.01025339
0.04299032
0.05915561
-0.06811029
0.03298268
0.04715430
-0.01647092
-0.01768222
-0.02630224
-0.02134581
-0.04640516
0.02843995
-0.01203701
0.07030344
0.05203374
-0.01954388
0.02682096
-0.05428801
-0.04305652
0.04203765
-0.03007014
-0.00029591
0.06036582
-0.03007488
-0.04743475
0.04379745
-0.00685267
0.05606660
-0.02422850
0.03197028
-0.04896405
-0.01408175
-0.06797935
-0.06219214
0.03665018
0.03887703
-0.01184485
-0.02997065
-0.06909329
-0.04762503
0.00118882
0.04523562
0.06737230
0.06937349
0.06253177
0.03878801
-0.01716726
-0.07155157
0.05520656
0.04337068
-0.01247227
-0.01364871
-0.03524863
-0.05642242
0.02414076
-0.04733614
0.02695831
0.02899251
0.01118857
-0.01756605
0.00803719
-0.05806058
-0.00700760
-0.02736914
0.06246817
0.03348658
0.05674855
-0.03170364
0.04428666
0.03925307
0.01447625
0.03374312
-0.00721094
0.01891863
0.02502198
0.01777665
-0.03776543
-0.04825030
-0.03423713
-0.01264855
-0.01985064
-0.06094240
-0.01263087
-0.03874381
0.02089360
0.04478822
-0.06486861
0.02776339
0.06305430
-0.05344129
0.07155195
0.05504993
0.03702517
0.03834030
0.02207157
0.06760496
0.04971179
0.00566486
-0.06077410
-0.03526366
0.06856270
0.01035938
-0.03018025
-0.01553583
-0.04834176
0.02240617
0.04795731
0.01003327
-0.06444577
-0.01400278
0.02214861
0.02689549
0.05397881
-0.01524575
-0.02857019
0.04211643
-0.00690719
-0.01771427
0.01643791
0.05894223
-0.03530804
-0.05588225
-0.03766473
-0.00535463
-0.01603809
-0.01999701
0.05775175
0.03761181
0.01029896
0.04978256
-0.02277049
0.03860519
-0.05312271
-0.02839556
0.01337106
0.04119875
0.02779974
0.02119193
0.07070625
-0.05943305
0.00244466
0.00375152
0.02111166
0.02570783
0.01156440
0.04509744
0.03839840
0.02464926
0.07465599
0.06900585
-0.04180615
0.02305654
0.00805262
-0.06425804
-0.02593362
-0.06920139
0.00474141
-0.04088166
-0.02449583
-0.02108474
-0.03936097
-0.03592430
0.00715403
-0.02203911
-0.01936832
-0.00162371
-0.02756285
0.02763040
-0.01021685
-0.04877762
0.07350870
0.00862869
0.00260613
-0.06603854
-0.05717421
-0.04728093
0.06979670
0.04168805
-0.01925798
0.07244521
0.07120454
-0.03827007
-0.05313102
0.00916391
-0.02633160
0.05026388
-0.06699244
0.01531474
0.05166691
-0.02007298
-0.02306153
-0.03294278
-0.05399506
-0.02994853
-0.06853458
-0.06533645
-0.01166231
-0.02788059
0.05696228
0.06734899
0.00782964
-0.03643813
0.07046673
0.05563741
0.02606335
-0.03294455
0.00637601
0.06027108
-0.06586666
-0.01906560
-0.03169895
0.07085758
0.01072778
-0.01722281
0.04049069
0.04615571
-0.00019840
-0.00949868
-0.04845111
0.04648165
0.02722057
-0.06797693
-0.01905997
-0.06204952
-0.04360478
0.00978380
0.03958624
0.01439926
0.06669385
-0.04896428
-0.03229984
-0.05100631
0.02686283
0.03255045
-0.05655781
0.05884784
-0.07203886
-0.01890254
-0.01324557
0.00815861
0.03663674
0.02461489
0.02087943
0.01249543
-0.05977430
-0.00876185
-0.01726700
-0.01213390
-0.03456327
0.07271216
0.03581410
-0.01318165
0.06255644
0.02090526
0.07067326
-0.01909620
-0.00010992
-0.04639053
0.06364565
0.01937013
-0.05177278
-0.01935251
-0.03436821
-0.03053209
0.06787962
-0.05117869
0.04727422
-0.00796551
-0.06555186
-0.03946052
0.04508091
0.04168966
-0.02531645
0.01946774
-0.04950902
0.02337436
0.03538696
-0.00982355
-0.02004622
0.04361476
0.03191734
-0.00117212
0.03893207
-0.06831189
-0.01004886
0.03866883
0.03124185
-0.02245212
-0.02245309
-0.03366835
0.02754545
-0.05273218
0.05004849
0.00201806
-0.05724836
-0.04985327
-0.06720942
-0.05335765
0.07287022
0.00581450
0.02579656
-0.01779544
0.05583409
0.06468461
0.06203296
0.05725347
0.01134891
0.03254069
-0.04289960
-0.05075249
-0.02003800
0.07035329
0.00320821
0.03340471
0.07308999
-0.01948137
-0.01989342
0.05570222
0.01958413
-0.00100423
-0.00265776
-0.06203096
0.02715732
0.04553066
0.00045701
0.00070784
0.02260539
0.04399124
-0.05361255
0.03718419
0.01400663
-0.06557745
-0.03197122
0.04055648
0.06670544
0.03688006
0.02655075
-0.04631939
-0.02919301
0.05061983
0.04049881
-0.02592247
-0.01683812
0.03555726
-0.00844630
0.04062671
-0.06978202
-0.02879708
0.02281894
-0.01670692
-0.05863636
-0.01949143
-0.03455010
-0.04026834
-0.00703938
-0.00164113
-0.01009254
0.01904427
0.03258873
-0.04050671
-0.03074372
-0.00324850
-0.05835583
-0.05692402
0.04370978
0.02930117
0.03308905
-0.03055212
0.00199793
-0.05367401
0.01559607
0.05577428
0.00009384
0.00613547
-0.04644887
-0.02046034
0.04558356
-0.05220473
-0.05548627
0.02538055
0.06155851
0.04798024
-0.04576050
0.00068451
0.02132324
0.05195455
-0.04126903
-0.05366739
0.03004027
-0.00742475
-0.03428218
-0.06753433
-0.02199301
-0.01355661
0.02238438
-0.00792292
0.02305943
0.04086083
-0.01639864
-0.05361179
0.03740411
-0.00065682
-0.06809326
-0.02123965
0.02142018
0.06809428
0.04266719
-0.06911171
-0.06994704
-0.01053433
0.02225073
-0.02819154
-0.01981894
0.05020484
-0.07012495
0.06678533
0.02097553
0.06138791
0.03227286
-0.06755284
0.00750269
0.00082454
0.07151110
-0.05703457
-0.00807049
0.05054095
-0.06566339
-0.03646342
0.04390471
0.00941717
0.00508441
0.04253976
-0.04495185
-0.01652256
0.05844853
-0.06643753
0.05429386
0.04486362
-0.01813954
0.04571019
0.02546196
-0.01668456
0.02805996
-0.05800878
0.01758865
0.00726767
-0.01624245
0.03816445
0.05634958
-0.03849128
0.01689794
0.00359496
0.01788486
0.00591410
0.00172403
0.03281480
0.04123565
0.02174041
0.05107670
0.00489694
-0.05501620
0.03074781
-0.01896495
0.05104235
0.01658824
0.06661965
0.05930788
0.02526282
0.00330351
0.03586259
-0.02377001
0.03718862
0.05478531
0.02868726
-0.05836295
-0.04599869
0.04454060
0.05788378
0.00720707
0.01878147
-0.03090448
-0.01651193
0.04150962
-0.04048554
-0.00887509
0.07272042
0.05035178
0.05872710
0.04359905
-0.01148799
-0.01785093
0.02374729
0.01541762
-0.03632715
-0.04309283
0.05589072
-0.01497863
0.02909550
-0.05893514
0.03487065
0.06302629
0.02436675
-0.00649677
0.02436566
0.05625088
-0.02900157
0.05873813
-0.02155322
-0.06412919
0.03018691
-0.00857669
0.00270279
-0.00907645
-0.05766530
0.03461144
-0.01421394
-0.02354270
-0.07055944
0.01909832
0.05358414
0.01576220
-0.04672866
-0.03705810
-0.03532884
0.03501725
0.02100734
0.03076073
0.05846664
0.06348871
0.03585197
0.05483789
-0.03774768
-0.02060330
0.06325906
-0.00276266
-0.05935268
-0.04156597
0.03439773
0.02331887
0.01270764
0.07176092
0.05918772
0.01229336
0.03098834
0.02994175
0.06701073
-0.06753309
0.05718456
0.05675705
-0.00795104
0.07044769
-0.03893075
-0.01705085
-0.05526441
-0.06908573
0.04403594
0.04428048
-0.00024779
-0.04633908
-0.01610867
-0.01530933
0.01951210
0.07331948
-0.00637423
0.04192099
-0.05314120
0.02328601
-0.05772444
-0.04272746
0.03116934
0.06178995
0.01580733
0.00349119
-0.03793233
-0.04074173
0.04017586
0.00279767
-0.04444442
0.01505669
-0.00228489
-0.06171728
-0.01113705
-0.06661192
0.00013109
-0.06580205
0.02217696
0.05950682
0.00509121
0.00819460
0.03400942
0.07307705
-0.04195063
-0.03537114
-0.05731558
-0.05384472
-0.02267611
0.05689255
-0.02939075
-0.01295443
0.02600341
-0.01098140
0.07362224
0.00712197
-0.05573096
-0.00528359
-0.00046064
-0.01428121
-0.04365865
-0.05239816
0.00655090
-0.06341808
0.04923381
-0.06780860
-0.01726388
0.00711754
-0.00706275
-0.04540049
-0.06216959
-0.01971895
-0.05296746
-0.02515296
-0.04108763
0.04719733
-0.03361512
0.04529963
0.00464141
-0.02172675
0.03505800
-0.02708321
0.03322391
0.06091388
0.07129233
-0.06297801
0.03088138
-0.01832039
-0.01613580
0.06595399
0.04285122
-0.03330028
0.06157113
-0.02710975
0.04556623
0.02073347
0.00687501
-0.04714717
-0.00670139
-0.06395938
0.00577602
0.04945619
0.06446563
-0.06458143
-0.05378791
-0.00761076
0.04090157
0.05692845
-0.01626770
0.02909635
-0.01604614
-0.03869816
-0.00284823
0.06462570
0.03980606
-0.06365616
0.05197154
-0.00186641
0.06265386
0.02651749
-0.06430224
0.02987132
0.03853938
0.04019421
0.00073380
0.03095938
0.02953731
-0.05706352
0.01633560
-0.04120408
-0.02028802
-0.05961709
0.05120908
0.01414950
-0.00349689
-0.06785841
0.00285203
-0.06281021
0.06383149
0.01341194
-0.00659485
0.02003413
0.03693843
0.06732932
-0.00573521
-0.05104536
-0.05933452
0.05394059
-0.00041906
0.01218657
-0.04243166
-0.02724831
0.01622039
-0.04248577
0.06085332
-0.00972011
0.06184021
0.06639177
-0.06634640
0.05560235
-0.05777322
-0.01917416
-0.06211490
0.06077071
-0.05942580
-0.05873884
0.06156654
0.01789856
0.03802213
-0.03920605
-0.06752610
0.03872339
0.05628194
-0.03239267
-0.01476694
-0.03775758
0.05860967
0.06682581
-0.02542458
-0.04180941
-0.04925138
-0.00122066
-0.02157152
-0.06157117
-0.04908209
0.04632896
0.01434192
-0.04111426
-0.04033217
0.04968608
0.00097562
-0.03778697
-0.00059022
-0.06084264
0.00314083
0.03772648
-0.06811479
0.00882111
-0.03645478
-0.03754609
0.02159779
-0.04901085
-0.03353071
0.01111837
-0.00229086
-0.02711188
0.00270379
-0.01428241
-0.02848372
0.06420223
0.00222512
0.01788242
0.05852166
0.02186174
0.01633284
-0.03576951
-0.03472730
0.00137040
0.07156575
-0.02079458
0.02793467
-0.02342233
0.01127506
0.05390259
0.04508258
-0.00231593
-0.00095983
-0.01354101
0.00611254
-0.03819721
-0.02033931
-0.03782682
0.04998053
0.00740876
-0.05938624
-0.05793511
-0.04561993
0.06424612
-0.07196043
0.06070964
-0.00566012
-0.06138166
-0.00611237
0.03781367
0.01371263
0.01150747
-0.02229439
0.01332221
-0.05995866
0.07148726
0.01825243
-0.05102696
0.07291514
0.04973886
0.07077744
0.00810532
-0.00418067
-0.02600072
0.01378584
0.01563080
0.04819799
-0.04331552
0.06780372
0.05618154
0.06446280
0.02227505
0.00387686
0.04222022
0.02683754
0.05712540
0.05046723
-0.03111420
-0.00051197
0.00369608
0.05817458
0.04450450
-0.02081953
0.02325976
0.01254661
0.04378491
-0.06239714
0.05211929
0.01688266
0.07016214
-0.01914188
0.01769543
0.00311862
0.02526975
0.01227853
0.06374093
-0.04674760
0.02050187
-0.03634276
0.03947555
-0.04340110
0.03775926
-0.06372910
-0.06707737
0.01833955
-0.00923484
-0.01604364
0.07293200
-0.00366445
0.01833650
-0.05762989
-0.01820038
0.03469732
0.01384425
-0.01594675
0.03029096
-0.03334633
0.00230743
-0.00442046
-0.03676121
0.06818388
-0.00146115
0.01431857
0.01636809
0.02327854
-0.02272802
0.02364417
0.01907846
0.07513790
-0.03574428
0.05088491
-0.03218588
0.00705085
0.05141388
0.00523020
0.00422403
0.03810964
-0.03868096
0.06837173
0.06090932
0.06748130
0.06680728
-0.03044500
0.00087781
0.07102930
-0.01662443
-0.01385541
0.04295715
0.07072107
-0.04224389
0.04752270
-0.03739266
0.06688565
0.04269146
-0.01581392
0.06243631
-0.01805057
0.00968292
-0.03026637
-0.04310677
-0.06235557
0.03218134
0.06176355
0.02186579
0.05170535
0.00216662
-0.02043159
0.05705626
-0.05317805
-0.03653437
-0.00353948
-0.02407060
0.05898232
-0.00957827
-0.02751068
-0.03948999
-0.05619777
0.04329465
0.05914684
-0.00315524
-0.02482449
0.00468417
0.06125992
0.04395205
0.02045460
-0.03402136
0.04743695
0.06632028
0.03432205
-0.06885163
0.01928463
-0.01801565
0.02702683
0.05021247
0.02683736
-0.01298265
0.05429165
-0.06593594
-0.00819942
-0.00623202
-0.02164359
0.02635494
-0.02322097
-0.05703129
-0.05515156
0.04405160
-0.06389523
-0.00216463
-0.04097903
0.03528100
-0.01377205
0.04372236
-0.06356914
0.02207462
0.05313294
0.02833968
0.01489776
0.05507105
-0.06147251
0.00274447
0.05787582
0.02861278
-0.06112524
0.01562481
-0.04203270
0.03258862
-0.05140999
0.06239545
-0.06876954
0.03200780
-0.00300149
-0.02041947
-0.06074143
-0.04547242
0.04729244
0.04563560
-0.00536525
-0.00854184
-0.02032472
0.03254315
0.03023202
0.01913425
-0.06143875
-0.02337192
-0.00389934
-0.01868637
0.00046484
0.06527975
0.03569905
0.04029341
0.06343599
0.01186754
-0.05253197
-0.02649322
0.05500193
0.01577934
0.04267946
0.05105926
0.00184774
-0.04642877
0.00312835
0.04414849
-0.03461949
0.04407388
-0.04460783
0.00753976
0.03414839
-0.02608554
-0.03882150
0.03463271
-0.05483231
0.05158944
0.00594800
0.03377673
-0.03963174
0.04071615
0.02347200
0.06134829
0.00376816
0.05773507
0.02376379
0.00240499
-0.06010632
-0.05172870
-0.05851076
0.00433409
-0.02655283
0.06408342
0.06134080
-0.04399427
0.06481249
-0.05604204
-0.03581806
0.01839561
0.04507937
-0.05917946
-0.06868804
0.04909431
-0.03376031
-0.00478296
-0.01282178
0.04533290
0.06242681
-0.02382018
-0.05377218
0.02197735
-0.01752345
-0.03688843
-0.02497269
0.01193269
-0.05344762
-0.06323788
0.01941386
0.01275693
0.01421569
-0.04816853
-0.02904796
0.06362664
-0.01110640
-0.05479019
0.00340739
-0.02278409
-0.02413279
-0.00700501
-0.03062545
0.04916616
0.07323308
0.04932734
0.03251670
0.05491653
0.04630214
0.03816383
-0.03974693
0.04850817
0.06833284
-0.02725800
-0.04385092
-0.05040559
-0.01211862
0.03164966
-0.06943116
-0.01635995
0.02809842
0.04080706
0.04226311
-0.01659636
0.06532320
-0.06967680
0.03358828
-0.03606443
-0.01323151
0.03525582
-0.02641357
-0.01933174
-0.01448485
0.05723315
0.03454562
0.01577249
0.04133885
0.07125615
0.04521657
0.03957586
-0.02715775
0.01529378
0.04978595
-0.01710702
0.02167377
0.00654356
0.05025858
0.07022630
-0.05838896
-0.05330773
-0.06479789
-0.03196355
-0.03455100
-0.00419778
-0.02945841
0.06410790
0.06661043
0.06426623
-0.05550056
0.04344730
-0.03246718
0.01911281
-0.05102916
0.00425784
-0.00386530
0.02080266
-0.02601457
0.05851539
0.01009712
0.02784399
0.02300904
0.04575962
0.04813614
0.05340926
-0.05871250
0.00391642
0.01911606
-0.04099473
0.06779610
0.00772900
0.05253175
0.06563259
0.00098854
-0.03414885
-0.02220150
0.05046972
0.07072652
0.03901263
0.00844875
0.04604555
0.02880718
0.01876607
0.01126888
-0.06431442
0.00359108
-0.03893806
-0.00803108
-0.03256614
0.03998310
0.06615652
-0.02865030
0.03537592
-0.00853347
0.05640808
-0.01904569
0.04101730
0.03497984
0.00401473
0.02332673
0.04211529
-0.03104246
-0.01665929
0.01424330
-0.07024275
0.02163259
0.03920449
-0.06361740
-0.03607533
-0.06347561
0.06977503
-0.02265711
-0.02705191
0.01775227
0.07190879
0.00971314
0.00841293
0.01291779
0.04082068
0.06584831
0.03702386
0.02985842
0.04335631
-0.00668941
-0.02044404
-0.02241180
0.01789477
0.06613417
-0.06870610
0.01571454
-0.00906497
-0.00251880
-0.00783110
0.07324782
0.00929855
0.07091897
-0.01196556
-0.04126263
0.01505449
0.05670945
0.04743902
-0.01461994
0.04142738
-0.02232920
-0.05417342
0.06017589
0.03001215
-0.04935791
-0.00817251
-0.01250302
0.02210977
-0.07159050
-0.02167428
0.01174959
-0.02171124
-0.01243483
-0.01490374
-0.04929393
0.03126697
-0.00955810
-0.02846373
-0.06400996
0.05843784
-0.06227354
0.04133442
-0.00601743
0.00200626
-0.05982801
0.05861478
0.02635744
0.06586762
0.03490082
-0.00949707
0.06426553
-0.02422144
-0.02748520
0.00267710
0.05439731
0.04405927
0.06878190
0.07102413
0.07052770
-0.04338387
-0.06969458
0.03108605
-0.00516102
-0.00269763
0.02364501
-0.06452357
-0.02795936
0.00946608
0.02761476
0.06259482
-0.03455775
-0.06322995
0.01428549
-0.00291773
-0.04912085
-0.04412727
0.01920961
-0.05866001
0.05659175
-0.03458111
-0.01149249
0.07322228
0.01089431
0.01255399
-0.03901958
-0.05254160
0.02043498
-0.06611428
-0.04530482
0.03266581
-0.01413231
0.04903198
0.04249076
0.05433960
0.06902697
0.02853664
-0.02143400
0.03552118
0.00595674
0.01840763
0.06913582
-0.01750445
0.00685223
-0.03821525
-0.01205862
0.04746922
0.02233062
-0.00132132
-0.02272442
-0.05399746
-0.03226082
0.05081360
0.01753651
0.01089931
0.03936376
-0.02673033
-0.05258071
-0.04377063
0.02964401
0.01709839
0.00161747
0.06733897
0.00106287
0.07059502
0.04782543
-0.06118707
-0.01875880
0.00867453
0.00747492
0.04150486
0.05141233
-0.04923797
0.05752660
-0.00311921
-0.06088700
-0.05370669
-0.03917973
-0.00675804
-0.05629802
-0.04103044
0.05724052
-0.04801553
-0.05255742
0.05704743
-0.03721638
0.05181804
0.06909270
0.00191565
0.01378622
-0.04876470
0.03902111
-0.05127656
-0.07052074
0.06328595
0.07304244
-0.06192869
-0.04336474
-0.02851785
0.05436867
-0.02545188
-0.04166174
-0.04489647
-0.03633266
-0.00649981
0.02323502
0.05517556
-0.03114069
0.01709677
0.03886302
-0.05111153
-0.01686846
-0.01732535
0.01307180
0.03735496
0.04705502
0.01821162
0.07072328
-0.00330850
0.00509431
-0.03043725
-0.01849564
0.01018176
0.04086017
-0.06252192
-0.03695176
0.01537356
-0.06453947
-0.04221613
-0.03466069
0.04739178
-0.00033487
-0.00388791
-0.05536217
0.03938854
-0.06666973
-0.04683435
-0.02722580
0.02937014
0.00310626
0.04272985
-0.02362616
0.04451975
-0.02249439
-0.04761026
-0.02193735
-0.05449851
-0.01081638
0.06827001
-0.03840900
0.01131581
0.01016676
0.05493135
0.04808494
0.05990717
-0.04318973
0.05593156
0.00937277
-0.06388453
0.00685192
-0.03985496
-0.05707925
0.04612201
-0.06295951
-0.03741788
0.03633610
0.06872965
-0.04058627
0.01560513
-0.05678179
0.03586476
-0.04316228
0.01867533
-0.00231757
-0.00639665
-0.04680929
0.07404122
0.06894208
-0.05863465
-0.00891328
0.00124668
-0.05147576
-0.03690314
-0.02135742
0.03368948
0.00988491
-0.02605636
0.03006005
0.00786078
0.07371201
0.04736473
0.03995204
0.06688205
-0.01834313
0.07089291
0.01618753
0.06163632
0.07403973
0.02959898
0.06653887
0.00969536
0.04923492
0.01613549
0.01609290
0.01926759
-0.06546037
-0.04018210
0.02741440
-0.03731493
0.02769824
-0.01495026
0.06762458
-0.06502371
-0.06520397
0.01296217
0.00491794
0.07042832
-0.04605161
0.07230418
0.03496911
0.02267903
-0.04270237
-0.00672929
0.06349340
-0.01916633
-0.01517720
-0.03332111
-0.01064557
-0.03305685
-0.01189737
0.02152794
0.03328278
-0.06212238
0.07204142
-0.01370160
0.02943692
0.07004400
0.06875298
-0.00761097
0.02529203
-0.04106945
0.02000435
-0.04924013
-0.04429914
0.00609075
-0.04321829
0.06576385
0.02256952
0.02226348
0.03711493
0.05731548
0.06561373
0.00968553
0.03313947
0.04014605
0.07178659
-0.02543492
0.02725250
-0.02952007
-0.03738496
-0.06681249
-0.03443412
-0.01544288
0.03054454
0.04896649
0.00292556
-0.03145551
0.00426991
-0.00056910
0.01570914
-0.06216818
0.00258470
-0.06832728
-0.02575686
-0.00626594
0.00174529
-0.06559007
0.00253459
-0.06361420
-0.01866298
-0.01312814
0.02937994
0.06694118
-0.07032118
0.02714762
-0.02281568
-0.02860833
0.02004931
0.05597896
0.03146967
-0.02051483
0.01825043
-0.01398980
0.07188124
0.03597770
0.04623395
-0.05298944
0.00433400
-0.01380596
0.02870420
-0.02354544
-0.05569275
0.01566605
-0.05386200
-0.04209145
0.05080654
0.00290233
0.00659696
0.03763352
-0.04734309
0.05812022
-0.07080014
0.03865376
-0.02081608
0.01928511
0.01165221
0.01726195
-0.06943078
0.06708942
-0.04010873
-0.02489956
0.06120742
-0.06568902
-0.06502174
0.01358900
-0.05875870
-0.04704995
-0.05350862
0.05309222
-0.03258819
-0.05176967
0.06852993
-0.06342898
-0.02192363
0.02433240
0.06850538
-0.04520523
-0.00341600
-0.06533751
-0.04589997
0.07148708
0.03034938
0.01892607
-0.06199212
-0.00780872
0.05518051
0.04880731
-0.05587656
0.04548095
0.05967279
0.00197811
0.04831085
0.03120079
-0.04125296
-0.06788680
-0.00756848
-0.03805085
-0.03794730
-0.04256891
0.05077646
-0.03056440
0.06195998
-0.06915952
0.00049616
0.01107651
-0.03813097
0.01908332
0.00144581
0.07212073
0.02594236
0.05031905
0.04310159
-0.06952913
0.03608888
-0.05820951
-0.05395693
0.05963510
-0.05864298
-0.07071063
0.05825762
0.02796456
0.02494743
0.05010881
0.05304821
-0.05454921
0.03631054
-0.07016705
-0.01090391
0.01567419
-0.05712011
-0.04701332
-0.05180674
0.01436675
0.06005763
-0.04535944
-0.06046451
-0.07200317
-0.00214707
-0.04021964
-0.03802267
-0.00607576
-0.00736627
0.04323114
0.01800494
-0.05343438
-0.04879057
-0.00117803
-0.03418120
-0.00711087
0.05425484
-0.02129271
0.06152835
-0.05388465
0.02415574
0.03787385
-0.02780071
0.01567540
0.00993113
0.03341834
-0.06752796
-0.01055504
-0.04009480
0.03472762
0.06470758
-0.05915378
-0.02814843
0.02314026
-0.02009041
0.02475425
0.04069388
-0.00907864
0.00619045
0.06129055
0.03656609
0.02190146
0.06268571
-0.02939084
-0.00121175
0.02270101
0.03688596
-0.06476852
0.06877716
0.04805806
-0.06313600
-0.01044613
0.03998099
-0.00373103
0.05420035
0.00790782
-0.00933071
-0.00064107
0.02446062
0.01428243
-0.04864490
0.00243114
0.02354972
0.01365346
-0.00430938
-0.00377028
0.04038873
0.01450367
0.02618508
0.03719333
0.04546671
0.06199117
-0.06897771
-0.07254808
-0.00760674
-0.06200526
-0.03177596
0.05776629
-0.07184602
-0.05288773
-0.03844887
-0.03735624
0.05735363
0.03329666
0.05295300
-0.01476319
0.00063281
0.04280256
0.01539692
0.00636169
0.06714070
-0.07100713
0.06876340
-0.05745373
0.01012771
-0.04141001
-0.06606712
0.00220809
-0.01964220
-0.00490537
0.06797335
0.06406461
0.05706205
0.01756819
0.05804646
-0.06680151
0.06136824
0.00724063
0.01617160
0.01068311
-0.04380021
0.05059944
-0.00987599
-0.06602459
0.03121290
-0.05211934
-0.02844600
0.07130889
-0.04306911
0.03552773
-0.02365934
-0.01983726
0.07224830
-0.04030133
-0.00131375
0.01717673
0.06887666
0.01404298
0.06446449
0.00536364
0.04022235
0.03517091
0.04711640
-0.02137242
0.06685629
-0.01481244
-0.01757386
-0.05386064
0.03181849
-0.02344863
0.02208945
0.03723571
0.03629273
0.06878069
0.02035936
0.06363270
0.00385300
0.03719338
0.00621273
0.06230004
-0.02791335
-0.03235719
-0.03119346
0.06852589
0.00241405
-0.02478481
0.02825117
-0.03201849
-0.05582424
0.04590276
0.01618877
0.02468325
-0.00033914
-0.04367318
-0.01282393
-0.05207936
0.01868793
-0.01326081
0.04372588
-0.06965836
-0.06708369
0.04823475
0.00458997
-0.02183039
0.06991325
0.06096878
-0.04209663
-0.03773951
-0.00341396
-0.03490225
-0.02700635
0.05865435
0.03981259
0.07230517
-0.02711436
-0.01467710
-0.04744263
0.01154415
0.03692161
-0.06869684
-0.01285941
-0.01997997
0.04913186
0.07215391
0.04127080
-0.03632329
0.02857983
0.02416197
0.03193290
0.05705500
-0.00174169
0.04671312
-0.04185504
0.00021497
-0.05145014
-0.06449907
-0.03852481
-0.07110824
-0.06877623
-0.01796358
0.03028180
0.00337446
-0.03007693
0.01415045
-0.05402023
0.03508355
-0.06864000
-0.02112008
-0.05193796
0.06293764
0.06207864
0.05185382
0.02415820
-0.02603917
-0.05964938
0.00513009
-0.01966373
0.05037624
0.04419998
-0.07126139
0.02535359
-0.02222986
-0.04634758
0.03175996
-0.03753858
0.01371394
-0.05594311
0.06852575
-0.02520753
-0.00813640
-0.00998301
0.04820092
0.07339197
-0.02709408
-0.06143699
0.04305704
-0.03254627
0.04343455
-0.03179874
-0.03437466
0.03836341
-0.07028047
-0.03073474
-0.05617277
-0.06508821
0.03370043
0.05300863
0.07168923
-0.02289839
-0.03042370
-0.05741414
-0.06315374
0.03758269
0.00477804
0.04036627
0.00389266
0.03551047
0.00050618
0.04470834
0.00257070
0.02801917
-0.02701667
0.00682227
-0.01263794
-0.03142853
-0.00894338
0.06963497
-0.00861343
0.07141285
-0.01365442
0.04463284
0.07063928
0.04956810
0.05005684
0.02229278
0.03805434
0.03494271
-0.02988962
-0.01518594
0.06431758
-0.06485556
0.04405633
0.04524738
-0.00862263
0.03892691
-0.02045950
0.01230300
-0.05703977
0.02154999
-0.03231470
-0.00270176
-0.04215090
0.02735151
0.03059323
0.01232495
0.05665803
0.00202343
0.00799866
0.04044354
-0.05767803
-0.05521492
0.04234217
-0.05382386
-0.00698462
-0.04423921
0.02656604
-0.00865682
-0.02511954
0.03250223
0.01809648
-0.00005766
-0.00986370
-0.02423704
-0.01683404
0.00738609
-0.03899845
0.04527212
0.01439033
-0.02115463
0.07207949
0.02929398
-0.01706727
-0.00254148
-0.05491880
0.03031119
-0.03493871
0.02694680
0.00394978
0.01039524
-0.03076953
-0.00316797
-0.01790655
-0.05681266
0.06357955
-0.04307669
-0.02686177
-0.01723395
0.03395821
-0.03145919
0.05068636
-0.05002282
0.06938758
0.05839004
-0.02527411
0.00603745
0.04417068
0.05609316
0.00973292
-0.04601232
-0.00423939
0.05283992
-0.00982103
0.01180062
0.04455629
-0.06678217
0.02777117
-0.00755534
0.06320690
0.05502746
-0.03192016
-0.05295599
-0.02998747
0.05048873
-0.02003576
0.01395300
0.00585920
0.00397436
0.02537773
0.01993036
-0.00830884
0.01044910
-0.01050640
-0.00725234
0.00567359
0.06723555
0.07100416
-0.02663171
-0.02453718
-0.02745630
-0.01641472
0.05988007
-0.01473717
-0.06217791
-0.00945576
0.04005583
0.03981923
0.00094120
0.05386540
-0.04866225
-0.01679002
0.07191654
0.03285827
0.06391262
0.05172404
-0.05541615
-0.01890885
-0.05515945
-0.00941861
0.03067914
-0.03551763
0.03726113
-0.00341430
0.06796750
0.05616495
-0.06602959
0.00332756
0.01776635
0.06376604
0.00706839
-0.02684704
0.04190196
0.05810016
-0.05134655
0.00616605
0.05107700
-0.06942511
-0.05977898
0.01841491
-0.06199782
-0.00486187
-0.05473291
0.02232323
0.07120168
-0.03319442
0.06202715
-0.05420138
-0.06371900
-0.05466512
0.03738057
0.06657285
0.00348953
-0.03628181
0.04902468
-0.00418056
0.00222405
-0.00538481
0.05932999
0.06745078
-0.00509329
-0.04044827
0.00879597
0.05767416
0.06792875
-0.05705595
-0.06181699
0.05676208
-0.02531555
-0.04508285
-0.00784437
0.07294437
-0.02640059
-0.01913018
0.00572861
-0.06236125
-0.00283208
0.01493017
-0.02625971
0.01057300
0.04821232
0.06409236
-0.05276078
0.04687803
0.02793890
0.07237642
0.05591392
-0.03009345
0.06058642
0.04052180
0.04353002
0.07443690
-0.04474138
0.06483477
-0.05837757
0.00906157
-0.01724532
-0.00537825
0.03039976
0.04540219
0.04049313
0.04508625
-0.00596957
-0.00290829
-0.04659796
-0.06352165
0.02707330
-0.03131975
-0.02915858
-0.04653832
0.05184282
0.00058635
-0.02016023
-0.02755357
0.00968568
-0.04437767
-0.05407021
-0.06026675
-0.06365350
-0.00667142
-0.06685986
0.00364704
0.00642577
0.00959561
0.06692611
0.07500449
-0.04082762
-0.01335291
-0.05892188
0.00221421
-0.00907824
-0.06666965
-0.04183470
-0.00355655
0.07195020
0.05713211
-0.06365483
-0.03068390
0.01465037
-0.04408639
0.00401234
-0.03835010
0.03497122
0.06291599
0.07349969
0.01034151
-0.06013735
-0.05244692
0.01676011
0.04505081
0.07300909
0.06823295
-0.03436470
-0.05186177
0.03498209
-0.03770367
-0.03707851
-0.04130372
0.04864053
-0.05836725
0.05337834
0.01815493
-0.02257409
0.02510395
-0.04643293
-0.05511962
-0.05482117
0.06034832
0.04476804
0.03869857
0.05336246
0.02140282
0.05026133
0.04321183
-0.05504047
0.03126642
-0.01611937
0.04641916
0.06270377
0.01029988
0.05044004
0.03995322
0.03457315
0.06317145
-0.02662420
-0.01254744
-0.03071189
-0.01643280
0.06800508
-0.06952222
0.01139203
0.03086555
-0.06808153
0.01066302
0.03694198
0.05730825
0.01179698
-0.05320292
-0.04960822
-0.01250263
0.05145591
-0.03481340
-0.04011315
0.07252176
0.05194711
0.02822266
0.04368151
-0.01696768
0.02577835
0.05946065
0.01856657
0.04673497
-0.06547324
0.07324207
-0.00370225
0.07177063
-0.05824452
-0.01967368
-0.06394935
0.02073774
0.00301556
-0.03606796
0.06458558
0.03714980
0.04694259
0.04169058
-0.03223324
-0.05714362
0.00767354
0.06721178
0.03208247
-0.04414786
-0.03628561
-0.06172911
-0.06618153
-0.03962101
-0.05462405
-0.04861209
0.02098971
0.01058037
0.00574228
-0.02622863
0.04375194
0.06894352
-0.06169180
-0.06803397
0.07175774
-0.02840989
-0.02232473
-0.00834218
0.01043849
-0.01144058
-0.05844697
-0.05558859
0.06121343
0.01511284
-0.06010244
-0.03133046
-0.06340612
0.07132232
-0.01212734
-0.01211863
-0.07073155
-0.00450665
-0.00392569
-0.00303027
-0.07037845
0.04978565
-0.03194736
0.07298910
0.04476058
0.02501347
0.04710229
0.00150487
0.02082926
-0.06000660
-0.02029894
0.00503426
0.00221402
0.01618516
0.02643036
-0.05716338
0.03176830
0.06185145
-0.01693566
0.03869565
0.02936956
-0.02402864
-0.00134629
0.07111466
-0.05952652
0.03664605
-0.02262643
-0.02379005
0.04743586
0.00892358
0.04542109
-0.04903913
0.00732849
-0.04366177
0.02341667
0.05858625
0.02029304
-0.06382497
0.05465807
0.06768612
-0.01260694
0.04920394
0.00224802
-0.04762288
0.05046142
0.02773671
-0.01269606
0.00436191
-0.00545778
-0.04084049
-0.00625230
-0.05977416
0.02155336
-0.01373866
-0.04874067
0.02454802
0.06179043
0.03653833
-0.02124695
-0.05353054
-0.05177465
-0.02974948
0.04590835
0.03902310
0.00622965
0.02007876
-0.06591025
-0.04792652
0.06556284
-0.02887348
-0.03379225
0.04869763
-0.04523541
0.02436667
-0.01128472
0.03838921
0.03242184
0.04012346
0.06077878
0.05254895
-0.05944988
0.04773218
0.00571587
-0.01606361
0.04425411
0.02341190
-0.01199891
0.02659258
0.03945673
-0.05880284
0.00029641
0.02514805
-0.02205169
-0.04457323
-0.04719314
-0.02811963
-0.05802448
-0.04978336
-0.03748514
-0.04107594
0.04589063
-0.04645980
-0.05050247
-0.06896656
0.01812600
-0.04644274
-0.02213528
0.00562369
-0.05344485
-0.01298302
0.07022000
-0.01005276
-0.00464129
-0.01004552
-0.01354311
0.00847091
0.01408152
0.02828717
0.05970621
-0.06830268
-0.02647541
0.04860553
0.02518483
-0.03797212
0.02310185
-0.02099148
0.05602422
0.03143821
0.05968410
0.03872352
-0.06239627
-0.00903970
-0.06569329
0.06812858
0.04027856
0.06177596
0.00073474
-0.07073712
0.03222690
-0.06682511
0.05460389
0.00614363
0.03790613
-0.00802245
-0.05491727
0.03996710
-0.05650458
0.01443342
-0.04144180
-0.02536491
-0.00473985
0.00407047
0.00894391
0.07283685
0.05950676
0.04842338
-0.00411929
-0.04916865
-0.03631226
-0.04695800
-0.06810782
0.01616520
-0.03841148
0.07370678
-0.02218081
0.01738035
0.00985376
0.02460178
0.03806444
0.04514486
-0.04103989
-0.01173622
0.00765454
0.01502358
-0.02697570
0.06193552
0.01433007
-0.06278156
-0.01332319
-0.01740238
0.03558627
0.01577305
0.00444062
0.04517761
0.05484978
-0.01354741
0.05911126
0.07210909
0.06398784
-0.02223140
0.01838857
0.03774276
0.03954109
-0.01318541
-0.02881354
0.02023645
0.05151660
0.04495185
-0.02261068
0.03926710
-0.04373024
0.06278607
0.02783541
-0.06112637
-0.05306167
0.06383973
-0.00172900
0.00698635
-0.06909491
0.01362929
0.05094123
0.01587224
0.05906861
0.06570692
0.00468991
-0.00079488
-0.01253254
0.02597048
0.01340694
0.06003769
0.04970760
0.06578703
-0.05337367
-0.06919082
-0.01599929
0.06107572
-0.06802121
0.02701231
-0.03586221
0.02095646
0.07381356
-0.01581587
0.03201507
0.06250221
-0.06741872
0.03073296
-0.02093609
0.02252577
0.01637956
-0.04134502
-0.05642826
0.04348156
-0.03410118
-0.05541727
0.02119778
-0.03227334
0.03791793
0.02401832
0.01938360
0.02295028
0.00710689
0.03410898
0.06268641
-0.04507024
0.07113945
0.04399962
-0.01447388
0.06363193
-0.02617409
0.03101954
0.06213161
-0.04233173
0.00020586
0.06994274
0.03655202
0.01655429
0.00630303
0.07477472
-0.02820566
0.01543139
-0.02819807
0.04721618
0.04324267
-0.00684266
0.01766121
0.07018957
0.06622306
0.07494044
-0.05100672
-0.06395095
0.04346287
-0.06267453
0.02826905
-0.06725271
0.04156443
0.02700868
0.07098740
-0.05045896
0.00693709
0.03082977
0.04048924
0.03666085
-0.05951706
0.04963134
-0.05676518
-0.02587788
0.06329329
0.02455371
0.06479768
0.07076029
0.04599538
-0.05035343
0.03235594
0.04894103
0.04370053
0.01796066
-0.02336920
0.00214089
-0.06056379
0.03007150
-0.01457871
0.05403129
-0.06134601
-0.06777050
-0.01841551
0.06148615
0.01154883
-0.05718294
-0.03444365
0.05771098
0.04557352
-0.02421566
-0.01676801
-0.01417403
0.06370445
-0.05509447
-0.06527024
0.02834143
0.04311670
-0.03662593
-0.02799928
-0.00704056
0.03192277
0.01123168
-0.04504331
0.00102541
0.02871753
-0.02480345
0.04269001
-0.06553437
0.06534229
-0.00582535
0.00094338
-0.00509341
-0.04796745
-0.06528749
-0.03805862
0.04978148
0.05352976
-0.04365331
-0.04659313
0.04172788
0.03814406
-0.02695795
0.02661681
0.01560513
0.04189298
-0.03600098
0.04179088
-0.04530442
0.07104275
-0.01290143
0.05687376
-0.03582521
-0.03905400
0.05904992
-0.00286069
0.06734164
-0.01489297
0.04069446
-0.04773222
0.06663761
0.02892282
0.04935735
-0.04912382
0.06387047
-0.06428295
-0.03768612
-0.06109762
0.01488487
-0.01255239
-0.06176472
-0.04228162
-0.04673430
-0.06291081
-0.01183316
0.02714675
-0.05881728
-0.02410121
0.00036229
0.04592538
-0.01297974
0.06659982
-0.04282967
0.03082465
0.03412762
0.03172307
-0.01922151
-0.02949715
0.03368426
0.05947868
-0.06065915
-0.03751216
0.06954258
-0.03725174
0.05315213
0.03973661
-0.05935470
-0.02722397
-0.05704965
0.04564504
-0.04360402
0.06105335
0.03484873
0.01994174
0.02822541
-0.06449242
0.06098713
-0.07194056
-0.01504432
0.03162155
0.04104845
-0.00881609
0.02868327
-0.05664037
-0.02845581
0.07050898
0.05637461
0.06208180
-0.02540532
0.01646606
-0.04117116
0.02757518
-0.06402443
-0.01241995
-0.06964748
-0.06615721
-0.06081372
0.05277181
0.05988409
-0.01098651
0.03320930
0.06885807
-0.02393398
0.06101612
0.04689666
0.02719019
0.06322826
0.03180350
-0.04724350
0.01095324
0.04668482
0.00361076
-0.03222824
0.06722952
-0.03633954
0.05256102
-0.02926077
-0.06292292
0.00157482
-0.02655248
0.02423379
0.05211098
0.03687111
0.01748719
-0.05661982
-0.05407365
0.04959562
-0.02698219
0.04256386
-0.03357033
0.02560094
0.00444937
-0.06308787
-0.01931693
0.01670905
-0.04042835
0.01217463
-0.01989309
0.01856588
-0.05389861
-0.05234017
0.07076146
-0.04873186
-0.05541100
0.02905153
-0.01662212
0.03382283
0.00123593
0.01065620
0.05159542
-0.00130916
0.01144974
-0.03830623
0.05664909
0.04557201
-0.01014114
0.04352784
0.05205184
0.01400232
-0.01948660
0.07110346
-0.03537191
-0.03205993
0.00720086
-0.06765429
0.04336968
-0.00010865
-0.06094003
-0.05383106
-0.02456472
-0.05625399
-0.05868266
-0.06097383
0.00178614
0.01591596
0.04753172
0.05520924
-0.02841512
-0.03839013
0.00386037
-0.06748480
-0.04781822
0.04451367
0.05283093
0.05503590
-0.01805834
-0.02690973
-0.03697330
0.02818315
0.04926855
0.05219362
0.05408749
-0.03010659
-0.07118884
-0.03892047
-0.03258533
0.01387580
0.03782466
-0.02873708
-0.06418305
0.03555144
0.04189839
-0.07007851
-0.06860717
0.03183246
-0.00695016
-0.06362749
0.04816082
-0.01758185
0.02201354
0.00260715
-0.06048548
-0.07107555
0.00704656
-0.02942425
-0.05684025
0.00226214
0.00751445
0.01153222
-0.00879414
0.07087487
0.06287785
-0.01994947
0.02448139
0.06513625
0.06919381
-0.03115992
0.04141491
0.00616906
-0.01393439
0.01716554
-0.06377768
0.04550983
0.00878073
0.06911689
-0.01975216
0.03789227
-0.00710245
-0.06053336
0.01866988
0.01602718
0.00467617
-0.04377796
-0.03076800
0.06933756
0.06849065
0.05306211
0.00071829
0.06254640
-0.02255183
-0.05642745
0.01500186
0.00271025
-0.00611893
0.06272516
0.02325991
0.04896631
-0.00451038
-0.07164508
-0.02916593
0.06286184
-0.02540233
0.01465983
-0.01736625
-0.02256366
0.01106105
-0.02820718
-0.04425465
-0.02083346
0.06928782
0.04731944
0.06064800
0.05561893
0.07056271
0.04457931
0.03466408
-0.00838374
-0.02299288
0.01565483
-0.01458833
-0.04585898
-0.05220021
0.03017840
-0.04882357
0.00847938
-0.02956368
0.01262166
-0.00386476
-0.05678276
-0.03573544
0.01174096
-0.04339617
-0.00047012
-0.01144164
0.03008407
0.05146298
-0.07221919
0.04100179
0.04521409
-0.01518645
0.00092607
-0.06844823
0.04427518
-0.06075943
0.05830137
0.00291171
-0.02759620
-0.03712156
0.04137456
0.02346855
-0.07128199
-0.01660373
-0.00593496
0.02086220
0.01536089
-0.06595384
-0.03240043
0.06918745
-0.04119258
0.03314817
0.04937581
0.05667431
-0.06935787
-0.03855560
-0.00892442
0.06650399
-0.02435496
0.06575982
-0.06177207
-0.01044800
0.02725933
0.00735798
0.00677608
-0.06148466
-0.06480837
0.01700707
-0.00257358
0.05307185
-0.00261146
0.02551381
0.06241785
0.01224473
0.05826836
-0.03500434
-0.05851317
-0.05395694
0.06697251
0.04765128
0.05740589
-0.01256340
-0.06854365
-0.02629502
-0.06723225
0.00778402
0.07044368
-0.00821118
0.03704669
-0.01919872
0.00651950
-0.07296219
-0.00889644
-0.00810731
-0.04367112
0.04977498
-0.02652437
0.05766752
-0.01623990
0.03177174
0.02780371
0.02466130
0.04310350
-0.01193959
0.03100000
0.01087615
-0.05458439
0.01309140
0.03622885
0.03246491
0.03722959
-0.03849249
0.02376102
-0.04879492
-0.01118921
0.03863222
-0.02241105
0.02420512
0.07068967
0.06172967
-0.00777314
-0.06884092
0.06127769
0.00521276
0.05915736
0.06965309
0.00324782
-0.05063438
0.00395173
-0.06146832
-0.02643758
0.01914870
0.01976524
-0.05723421
0.01487700
0.01612761
-0.04294398
-0.05852282
0.02577254
0.06805280
-0.01293668
-0.05372391
-0.05890782
-0.03721943
-0.00603346
0.00781250
0.07025383
0.02100090
0.02284380
-0.01442086
-0.01582447
-0.01394401
-0.03798110
0.01650900
-0.06669835
0.05056238
0.02954119
-0.03872271
-0.05109346
0.04682503
0.03713028
0.05353932
0.03676103
0.00468330
-0.06523869
-0.00053036
0.04804839
-0.01439539
0.04350004
0.06870851
-0.05029804
0.01167934
0.01580550
0.02595207
-0.03962835
0.00471384
-0.00701488
-0.06857386
0.05134883
-0.00694062
-0.03911056
-0.00020571
-0.03778696
0.01619472
-0.01460607
0.01602340
-0.03589150
-0.01303252
-0.04784575
-0.04879745
-0.03667539
0.03001525
0.04695112
-0.06430581
-0.03116211
0.05682949
0.03972862
0.02889528
0.05601016
-0.00634431
-0.06114486
0.01693274
-0.03136113
-0.03462072
0.00730560
-0.02728437
0.00081992
0.06438863
0.06887355
0.00848189
-0.02128963
-0.05438010
-0.04501392
0.02494201
-0.01347692
-0.05892517
-0.05791600
-0.06623279
-0.02526718
0.06028717
-0.00840187
-0.04284690
-0.04888017
0.01143970
-0.05143790
0.00416640
-0.04875796
-0.04145474
0.02526348
0.03214271
-0.06649638
0.03120445
0.04763546
-0.03235568
-0.00214354
-0.04363982
-0.06246058
-0.04229072
0.03350563
0.01416261
-0.00101908
0.03105880
-0.01395233
-0.03537495
0.06952357
-0.03446693
-0.05533212
0.00492940
-0.00982443
0.03716757
-0.03387075
-0.00636361
0.03833252
0.05372152
0.00816031
0.00925311
-0.02349650
-0.02579198
-0.00725520
-0.00555103
0.01533698
0.03728508
-0.00513951
-0.01343875
-0.05003642
0.04012804
0.04123965
-0.04466281
-0.07323077
-0.04858470
-0.06203727
-0.02922692
-0.00111749
0.02858578
-0.04902842
-0.02635396
-0.06130083
0.06679167
-0.05640096
-0.03744234
0.02706863
0.02993919
-0.03853098
0.03053346
-0.01872133
-0.06895194
-0.00789366
0.04444975
0.02764723
-0.02170319
0.00398906
-0.00472760
0.02252747
0.04412670
-0.01007286
-0.03157609
-0.06897418
-0.04069945
-0.02030533
0.03611592
-0.02067974
-0.03455343
0.03520521
0.05203442
0.03576889
0.00934872
-0.07123179
0.02155995
-0.02865099
-0.03024276
-0.06374793
0.02726798
0.04740094
-0.00134379
0.02698586
0.04883887
-0.03623331
0.05724264
0.05362003
0.01184996
-0.00587624
0.07041605
-0.02573789
0.00949472
0.03145688
0.06274597
-0.00583657
-0.05320763
-0.01529444
-0.01493818
-0.05622012
-0.01092742
0.00494309
0.03112150
0.01992199
0.01790304
0.00348447
0.03203288
-0.01923736
-0.06212731
0.01556198
0.02011750
0.02370403
0.03210325
-0.05180193
-0.05808565
-0.06831154
-0.04984767
0.03442802
0.04377896
0.05381164
0.03485794
-0.00587883
0.03433891
-0.05127302
0.00434891
0.04818328
0.01308278
-0.02575341
-0.01304172
0.06798732
0.03416932
0.06447075
-0.03624842
-0.02566320
0.04673637
-0.04136755
-0.02209368
-0.05028572
-0.04176382
-0.05097244
-0.05671982
0.04115714
-0.05155746
-0.00530559
-0.04233203
0.05475147
-0.02056364
-0.01696052
-0.01238355
0.03190462
0.02721256
-0.01577396
-0.05285564
-0.01625074
-0.04594417
0.07118247
-0.04262108
0.04462099
0.05807819
-0.02683663
0.01362772
-0.02601393
0.03609878
0.02133706
0.07432472
0.06659687
-0.02749084
-0.06417795
-0.00101954
0.06075485
-0.03043545
0.01033773
-0.06560595
-0.01835150
0.01502918
-0.05722799
-0.06359252
0.00215370
0.06091715
-0.02887091
0.01961698
0.05303865
-0.05489774
0.05636478
-0.07007334
-0.03465677
-0.04342946
0.07422569
-0.00252693
-0.03996490
0.06141996
0.02010453
-0.04846201
0.04233576
0.04564799
0.05449083
0.00060554
0.06733122
-0.00999351
0.02635001
0.01988471
-0.06043452
0.01414816
0.06837401
0.00710258
0.06525674
-0.03919112
-0.05054953
0.01873373
-0.00137235
0.00626142
-0.03399453
-0.01115871
-0.04615946
0.00278203
0.02913046
0.00116910
-0.06597206
-0.04114871
-0.00066695
-0.03088965
-0.02749321
0.03874895
0.02991918
0.04083263
-0.00878379
0.02917940
-0.06097846
0.03701447
-0.01217971
-0.06430144
0.02097975
0.06114175
-0.00221562
-0.05411719
-0.03747336
0.05923076
-0.06146225
-0.01484899
-0.06236342
-0.06691951
-0.04010272
0.03290892
-0.01180038
0.07342239
-0.00132216
-0.00882123
0.00348711
-0.00583966
-0.00315709
-0.05101578
-0.06985912
-0.06867504
-0.06915873
-0.00571543
-0.00117996
-0.03249366
0.04125116
-0.05688941
0.03314545
0.06652208
0.06799480
-0.03095810
0.04509037
0.02007663
-0.05919957
-0.04324396
-0.00023423
0.01236273
0.04830169
-0.02849274
-0.00230208
0.00311307
0.06592779
0.00663984
-0.00125376
0.04008101
-0.05173699
-0.05466999
0.00152797
0.03076175
0.04518409
-0.00025619
-0.04826884
-0.02644295
-0.02097680
-0.04739106
-0.02675272
-0.00741493
0.06434152
0.00714882
0.07312337
0.05029533
0.04564176
0.06642242
0.07106865
-0.02409050
0.06958147
0.01654451
-0.03961393
-0.04738647
0.02986796
0.00371450
0.05159263
0.02117383
0.02481098
0.04586253
-0.02574431
0.02292706
0.03924757
-0.02586412
0.03191790
0.06766859
0.06617240
-0.04335980
-0.02811514
-0.02811734
-0.00470252
-0.01522946
0.02551020
-0.04771195
0.03742661
-0.00566058
0.06598930
0.04863121
0.05278853
0.00954826
0.03103251
-0.02631631
-0.01223431
0.00158655
-0.03482215
0.01027012
-0.03665059
0.03739028
0.03378057
-0.02005984
0.05590072
-0.06516737
0.06780669
0.00554352
-0.05283348
-0.00996369
-0.02163037
0.05146758
-0.01447300
-0.03171795
0.00932535
0.05202882
-0.06880193
0.04220404
-0.06647944
0.00923361
-0.00441230
-0.02010606
0.00049956
-0.02092641
0.06466920
0.02150834
-0.07090029
-0.03735293
0.00717216
0.03488264
-0.02907034
-0.00745727
0.04547105
-0.06574705
0.02482732
0.02993061
-0.01789608
-0.05915784
-0.04508769
-0.00104950
-0.03102757
0.06205174
-0.02830639
-0.01140440
0.02318698
-0.03818115
0.01447072
0.01013318
-0.06206392
0.06326986
-0.00852611
0.03229070
0.03331827
-0.04751112
-0.05766463
0.04047583
0.01562216
0.00122966
0.01037514
0.04649228
-0.06865439
0.00391321
0.04444266
-0.04026670
-0.00422355
-0.00915495
0.04030642
-0.03167241
-0.00566683
0.04753380
-0.04368921
0.03604346
-0.02474895
-0.05318515
0.03427088
0.03121360
-0.07117164
-0.01200652
-0.06672028
-0.03159419
-0.06128141
0.04777027
-0.03523213
0.03819175
-0.04797372
-0.02202236
-0.02112668
0.03777129
0.02007525
-0.01684752
-0.04949904
-0.06252365
0.02561251
-0.06821561
-0.02803608
0.01793179
-0.02466056
-0.01444439
-0.06855622
0.02847105
0.02114861
0.04780048
0.02720229
-0.02048984
0.02728280
0.02563226
0.05647388
0.00757292
0.06832178
-0.00459140
-0.05702724
0.02368995
0.04982592
0.02705635
-0.04239408
-0.05627887
0.02330299
0.01771299
0.05913723
-0.06524259
0.00520581
-0.00963325
0.01700363
0.06026454
0.06744073
0.01458594
-0.00199608
0.05942306
-0.05298751
0.05235962
-0.04027219
-0.05323043
-0.03593981
-0.02663385
-0.05790231
-0.05358075
0.07520404
-0.02348593
-0.03240093
-0.00514899
0.04728864
-0.05651380
0.03670986
-0.00549684
0.04691377
0.04290219
0.07067135
-0.00553402
0.05439914
0.01305161
0.04705122
0.06903110
0.06098369
0.01127357
-0.06147312
0.04707628
-0.04322242
-0.01768626
0.05996505
0.05627144
0.02619857
-0.01063274
0.04863200
0.00767564
0.06628219
0.03908191
0.00119715
-0.06672795
-0.03582285
-0.03916172
-0.01553131
-0.02812075
-0.03655181
-0.02767417
-0.00886286
-0.04512007
-0.03746359
-0.03794395
-0.02645667
0.04708316
-0.02991759
-0.02003703
0.01626122
-0.04768249
-0.03830462
0.04149389
0.01016548
-0.03895769
0.05012849
0.02916448
0.07146072
-0.05491044
-0.01221085
-0.06171493
-0.02049574
-0.07078753
0.02228273
-0.00469852
0.04050672
0.01679041
0.04583868
-0.01691050
0.01433090
0.06258392
-0.06864663
0.02172725
-0.05941207
0.05968924
-0.05515552
0.02862427
0.01940673
0.03922349
-0.00437564
0.04880214
0.03948163
-0.05482583
0.05971519
-0.02574442
-0.01238058
0.03001411
-0.01079632
-0.02943631
0.07149784
-0.06862924
0.03239582
-0.01013302
-0.02106917
0.03391057
0.02329696
0.03620272
-0.05252077
-0.01843211
-0.04726778
0.06438141
-0.06501655
0.00672270
0.06254478
0.03263903
0.06882716
0.05294015
-0.01258616
0.02567600
0.03118304
0.00383238
-0.01210053
0.03978792
0.06090459
0.00601886
-0.02034866
0.07441001
0.06874627
-0.05669555
0.01611628
-0.01830005
-0.02514343
-0.03798533
-0.01155762
-0.01645402
0.04725332
0.01586879
0.07179178
0.06152631
-0.04448277
0.03411173
0.04680267
0.05067227
0.06074770
0.05802853
0.00889388
0.04599399
0.02037107
0.03500330
0.02177070
-0.04166388
-0.03270246
0.07244158
0.01340677
-0.04822014
0.04028359
-0.03068075
0.00350018
0.05421266
0.00590172
-0.05342075
0.01520417
0.06398809
0.04279675
0.06213491
-0.02531696
-0.02937342
0.02345854
-0.02107036
-0.04287492
0.01120161
-0.06246458
0.02419847
-0.03055624
-0.03713512
0.05346416
-0.00366434
0.00282634
-0.01405857
0.01634175
-0.03281051
-0.00725936
-0.06744012
-0.00768788
0.00403599
-0.00307375
-0.06219551
0.02206602
-0.06050013
0.07103491
0.03543046
-0.03364418
-0.01212192
0.05335813
0.03040073
-0.05238619
0.00176185
0.01422429
-0.05099116
0.03591845
-0.02506125
0.00953352
-0.06572098
-0.03135271
0.06333581
0.03076217
-0.04034062
0.02480261
0.05840766
0.03496290
0.06444319
0.01018355
-0.01979717
-0.04899235
0.01545119
0.01938658
0.03805899
-0.03306099
-0.06905092
0.02577574
0.05374463
-0.05997176
0.04537017
0.05292621
0.01579256
-0.04988220
0.03282814
-0.01680347
0.04692706
0.03044773
0.00365079
0.03117574
-0.05801762
0.05560896
-0.05011223
0.03521520
-0.01622684
0.01227510
-0.00161698
-0.06363441
0.03973015
-0.01169767
-0.05416393
0.00830745
0.07164624
-0.01400871
-0.05639741
0.07502661
0.01466984
0.07454930
0.06528028
-0.01245206
0.05135952
0.04474390
0.01718726
-0.03932417
0.02632110
-0.05209837
0.05107492
0.00830768
-0.05253970
0.07333352
-0.03967948
-0.07166115
-0.00689409
-0.02272804
0.01649400
-0.06600209
-0.02733500
-0.06758579
-0.00426249
0.00365011
0.03394071
-0.06969615
-0.02859592
0.05370685
0.00458948
0.04959745
0.00801561
0.04556308
-0.06292971
0.03077328
0.05240764
-0.01835065
0.03533033
0.06112432
0.02059701
-0.05375890
-0.00181979
-0.05714178
-0.00012952
-0.01312392
0.02675052
0.00228546
0.04328824
0.01414727
0.05827920
0.05047131
-0.03896368
-0.00605355
-0.06297245
0.06168548
-0.06094933
-0.02840498
0.04154447
-0.02405830
-0.04335248
-0.05661844
0.06689668
0.06281069
-0.00743118
-0.03516325
-0.02554712
-0.04610069
0.04639104
-0.03832827
-0.03722389
0.03449991
-0.04779827
-0.04590026
-0.04485881
0.00052008
0.00023328
-0.00972428
-0.00560554
-0.04824843
-0.01333679
0.03529997
-0.03585819
0.04077035
0.05119966
0.04546181
-0.04381764
-0.05861206
-0.03454910
0.03207557
-0.06665678
-0.00428675
0.04335764
-0.00930551
0.00884348
0.06452597
0.04739125
-0.02949407
0.06561685
-0.01685359
0.01336804
0.00734121
-0.05736466
-0.06432875
0.00598893
-0.05512445
-0.01652773
0.03978925
0.02387294
-0.04323260
0.06647434
-0.01595093
-0.03763956
-0.04193226
0.02505799
-0.00765644
0.01166420
-0.06672341
-0.04412369
0.04566347
0.00449532
0.04216034
-0.02057873
0.04726440
-0.01892904
0.03459971
-0.06765384
-0.05850509
-0.00606386
-0.00187920
0.03261077
-0.00187690
-0.03192892
-0.06147999
-0.03107464
0.01356607
-0.02961523
-0.04082197
-0.03777427
-0.05791071
0.01615268
0.03834091
0.06167982
0.02701453
0.00452234
-0.03074460
-0.04801354
0.01670555
-0.03413400
-0.02751652
-0.03229035
-0.05515040
0.05160733
0.02351782
-0.00209542
0.03407649
0.06655136
-0.00342874
-0.04647151
-0.03431203
-0.00690595
0.05193928
0.02810158
0.05753963
0.00876749
-0.02986881
0.04688140
-0.04498171
-0.05146096
-0.00250997
-0.02841149
-0.01132731
0.02812108
-0.04945880
0.00507579
-0.02745173
-0.01005619
0.05146739
0.02400753
-0.04987347
0.04211894
0.02779288
0.01570556
-0.05785248
0.03817990
0.04235319
0.05444788
-0.00693084
0.01706661
0.00692362
-0.02943906
0.03034954
0.01543548
0.05091092
0.00694808
-0.02897419
-0.03107688
-0.02387582
0.04854278
-0.01272560
-0.06602947
0.07208197
-0.04192278
-0.00590786
0.04151788
-0.02870669
-0.00256244
0.06539106
0.00069994
0.00913283
-0.03499007
0.01065981
0.00859381
-0.00180641
0.00719333
-0.05788997
-0.02126590
-0.04196855
-0.02420766
-0.01732382
-0.04454864
-0.01890679
0.04528448
0.05457834
0.06887954
-0.00848981
0.03883908
-0.05389204
-0.00852680
-0.05724373
0.05401287
-0.01137259
-0.02234399
0.03473559
-0.01256284
-0.02166219
0.05730228
-0.04183362
-0.02978679
0.01329884
-0.05746933
0.05045465
-0.04354469
0.06982054
0.04196016
-0.05277585
0.01406027
0.04902048
0.01366385
0.02174286
0.03812215
-0.00684181
-0.00203429
-0.04094974
0.01924669
-0.03596365
-0.00492334
-0.05056446
-0.05280569
0.05831230
-0.02070228
-0.02083433
-0.04052683
0.00507891
0.03707677
0.02000182
-0.00937502
-0.02158126
-0.01425530
0.00559711
0.07026828
0.03003741
0.02829992
0.05735877
0.05946755
0.07448240
-0.06266142
0.06503546
0.03854663
-0.00640207
-0.03043114
-0.02692848
0.02101641
-0.04619863
-0.07059118
0.03921009
-0.05425078
0.01335540
0.03113959
0.03773400
0.05143066
0.05778020
0.00510313
-0.03782252
0.03367915
0.05601475
0.04261455
0.01125204
0.07115754
-0.01528155
-0.06530351
-0.02420280
0.00524814
-0.05927679
0.07408243
0.01759665
-0.00048911
0.02359662
-0.06691280
0.01543825
-0.00549392
0.04615591
-0.06641855
-0.03690315
-0.01991578
0.06502324
0.02908945
0.01119588
0.01502737
0.06013032
0.03088516
-0.04843702
0.05516139
0.05623274
0.03388920
0.00489576
0.02902079
0.02705507
-0.05677552
0.02302991
-0.02948943
-0.01706921
0.02093483
-0.00155425
0.07495172
0.03469573
-0.01174359
0.04499419
0.03110873
-0.03861782
-0.03817495
-0.03796331
-0.04931960
0.02366255
-0.00454834
-0.02677664
0.00812891
0.07159352
-0.01597424
0.00721556
0.05408014
-0.03902338
0.06404052
0.06406777
0.07466504
-0.03707900
0.01898255
-0.05791014
-0.02910688
0.06806251
-0.01936002
-0.02967444
0.05640095
0.03872567
-0.01799324
0.02261222
-0.02718362
-0.05622690
0.03587972
-0.03445335
-0.04588830
-0.00270364
0.00532617
-0.05137512
-0.03301139
0.03411918
0.02744529
-0.02853031
-0.01415135
-0.03479704
-0.05512566
-0.00628143
-0.01425075
0.04230689
0.04391160
-0.00757885
0.00173827
0.01366373
-0.06104854
0.00706504
0.06432234
-0.01520993
0.06817585
0.05523635
-0.02127865
-0.02908084
0.01867677
0.00023113
-0.01112493
0.05784132
-0.04212484
0.01543575
-0.02944717
-0.03997729
0.02695766
-0.04817007
0.00581506
-0.05219962
0.00345705
-0.04277038
0.03507131
0.05977612
0.02880879
0.01921580
0.05763599
-0.04283372
0.01763608
0.03016651
0.03240949
-0.05692135
-0.00380023
0.00604996
0.00505350
0.06400574
0.03562583
-0.05154698
-0.03454126
-0.03761205
0.07251749
-0.01249429
-0.00651235
-0.03911764
-0.00549949
-0.06171915
-0.00465035
-0.02749345
-0.04836517
0.06654008
-0.06857442
-0.06843487
-0.01397159
0.05676757
-0.02163689
-0.02757357
-0.03330475
0.05753428
-0.02348251
0.02850796
-0.06102646
-0.06249484
-0.00590568
-0.00283402
0.05450622
-0.05715141
0.00897738
-0.03665234
0.02200448
0.06518241
0.07470331
0.06615220
-0.02204658
-0.01772959
-0.03411285
0.05403247
0.06597282
-0.02455337
-0.03677810
0.03733897
-0.01162597
0.00068075
0.07072226
0.04884508
0.03556712
-0.00088631
-0.04615381
0.04567714
0.06127290
-0.01201522
-0.01283060
-0.01007842
-0.03069105
-0.06629597
-0.04607221
-0.03201009
0.03868699
0.01475432
-0.02817007
-0.00706054
-0.06739918
0.06699371
0.05606719
0.03773630
0.05125496
0.02516594
0.04168572
0.03378918
-0.06049571
0.04670625
-0.05077160
0.03993615
0.02044278
0.05255577
0.04271884
-0.02426432
0.04159547
0.06192188
-0.03396241
-0.04532301
-0.02833407
0.07016624
0.05854120
0.05889845
-0.03794144
-0.03035795
-0.03506932
-0.06032931
-0.02138897
0.06172537
0.07330217
0.03230072
-0.05058016
0.02433426
0.02720406
0.07382974
0.07084741
-0.05774369
-0.04221817
-0.05550503
-0.04149901
0.02531700
-0.03776954
0.05764392
0.03179931
0.01595013
-0.06046590
-0.03640903
0.05069951
0.03093633
0.05459068
0.02908696
-0.06672291
-0.04408788
-0.03971419
0.05776627
0.00180349
-0.05602915
-0.00987951
0.06782752
-0.00232301
0.03569056
0.02380557
0.05527658
-0.06643886
0.05144427
0.00438487
-0.03912291
-0.01447851
0.01712955
0.00250718
0.03087771
0.06607114
0.04589313
0.03956044
-0.03083902
0.06379420
-0.04162675
-0.04037933
0.07365758
-0.04071323
-0.03507631
0.06993936
-0.02594976
0.00795324
0.05794777
0.04879994
-0.03951903
0.00616140
-0.05832369
-0.06129218
0.06198511
-0.05397782
-0.06673801
-0.00979148
0.02548325
0.03299025
0.00019471
0.00856742
0.00210578
0.03419680
-0.06359939
0.03428161
0.03892896
-0.01828657
0.00272632
-0.07215296
-0.01913694
-0.02171917
-0.03473728
-0.06407382
0.07089789
-0.03739325
-0.04583078
0.07063664
-0.06665333
-0.00325036
-0.02226923
0.01568289
0.05234006
-0.00672840
0.06528908
0.03624001
0.01696552
0.07318477
0.00519629
-0.01428729
0.05712565
-0.05100000
0.03344700
-0.00105018
-0.05588181
-0.03343865
-0.01886840
0.00885495
-0.04807450
-0.03047843
-0.02495674
-0.00352382
-0.02171069
0.06045272
0.01987480
-0.06135159
-0.03312666
-0.03662134
-0.06224911
-0.00305316
0.01966295
-0.02735352
-0.01242038
-0.06352137
0.01186342
0.05433268
0.04050565
