-0.06816091
0.13075559
0.08453123
0.10986294
-0.07853758
-0.07343897
0.09999894
-0.09863909
-0.01360836
0.08123220
-0.08266634
-0.04575891
0.13304313
0.02795674
0.06596962
0.05191463
0.12206879
0.05422231
-0.06172389
-0.01215002
0.11888424
0.06803578
0.07426876
0.06478376
0.13055505
0.03497025
0.11861739
0.13406657
0.05767909
-0.02235412
-0.01434769
-0.02925479
-0.00445351
0.13587162
-0.06157526
0.02993077
-0.07746445
-0.04499917
-0.02534380
0.00648730
-0.11370780
0.04291821
-0.05495669
-0.01096515
-0.03106081
-0.07485329
-0.01574324
-0.08238997
-0.07652041
-0.11839081
-0.04821264
0.07737175
0.14245388
0.11356127
0.07510287
-0.13008519
0.08007813
0.04326919
-0.12182301
0.00927724
0.11147711
0.10487727
-0.13645712
-0.07907922
-0.09887518
0.12518477
0.07778829
-0.09707130
0.02817592
0.07590085
0.02801341
-0.04253941
-0.11995839
0.06473795
0.02153721
0.04203608
-0.12643513
0.11736941
-0.01922471
0.13294078
0.13045169
-0.11902813
0.02020371
0.07037458
0.04231006
-0.10292097
-0.05773607
0.11121362
0.12850185
0.05413860
-0.01709001
0.14328213
0.13999099
0.02809461
-0.03328780
-0.09196819
0.09813460
0.01470440
-0.06492920
-0.04154320
0.07000401
-0.00340444
0.02730904
0.09249367
-0.08430184
-0.02946040
-0.10415505
-0.10079260
0.02019139
0.07105656
-0.01984133
-0.11123007
-0.10640270
0.00187157
0.10234622
0.13790895
0.12399991
0.02102219
0.09285755
-0.12122904
-0.05913429
0.09254421
-0.09090933
0.06571337
-0.09475647
-0.01256936
0.07149695
-0.11126624
-0.08326901
0.10912620
-0.04928888
0.08419497
-0.03815944
0.10897211
-0.10905018
0.04668510
0.08775053
0.00895671
0.01697455
0.06702921
-0.09829416
-0.08374711
0.11093670
-0.12091383
-0.10698552
-0.05061662
0.11864891
-0.06929036
0.03509214
-0.05665011
0.12896970
0.10570936
-0.12589036
0.06714620
0.07460187
0.08376595
0.03539026
-0.03716509
0.02888689
0.10526407
0.09335209
0.06700201
0.01623633
-0.01410348
-0.08514710
0.14117162
0.10789278
0.13202336
-0.01986311
-0.12528990
-0.13021228
0.08005352
-0.02822226
-0.05120835
-0.05334475
-0.05598642
-0.05998084
-0.12581787
-0.12805226
0.08963657
0.08997196
-0.12061330
-0.05662286
0.10419406
-0.01476791
-0.02738466
0.11962298
0.01673262
0.01690795
0.06602245
0.11992727
0.13570915
-0.03280638
-0.11021953
-0.01423472
-0.03185594
0.01175157
0.06475969
-0.11117732
-0.07547683
0.01873415
0.05141576
-0.06692357
-0.14069974
-0.09556840
-0.10382461
-0.14223434
0.09613775
0.12343948
0.04695473
0.05471221
0.10226487
0.10487430
0.07553432
0.10370034
0.13785988
-0.04525677
0.08739412
0.07339594
0.02705489
-0.01558831
0.13018741
-0.03651891
-0.09839074
-0.01308180
0.03487926
-0.06072095
0.14546667
-0.03040859
0.01851111
-0.08616580
-0.05331597
0.01485462
0.07936829
0.00387884
0.07635733
0.10455117
-0.00542817
-0.09366135
0.02222309
0.07010514
-0.10082766
-0.08150709
0.09931824
-0.00145773
0.01815233
-0.01716652
-0.02130673
-0.07080619
-0.04969849
0.10634407
-0.11666480
0.09707811
-0.05242874
0.09839576
-0.10543838
0.00278521
-0.12402476
-0.03945808
-0.01002096
0.01565873
0.02232423
0.03888940
0.02160787
-0.13184002
-0.01756000
0.09185709
-0.10256656
0.13780007
0.04433310
-0.05997368
0.06340638
0.01912807
0.07293684
0.13840732
-0.08303581
0.07423396
0.09299457
-0.01370933
-0.07529401
0.00236851
0.11490857
0.08125374
0.10653491
0.11885154
-0.05021334
0.10520729
0.09899072
-0.04506409
-0.07855259
0.11763336
-0.03524659
0.11996397
-0.09660031
0.09294678
0.01401098
0.02296755
-0.12954190
-0.04653754
0.09476360
-0.12136768
-0.08286358
-0.04650189
-0.12131353
0.03427680
-0.02483815
0.06362990
-0.12597688
-0.07133891
0.08499762
0.03778730
0.04416124
0.11171699
0.08300072
-0.10525849
-0.13687603
0.09456130
-0.12115438
0.12501056
0.13364154
-0.00760538
-0.04043254
-0.10857741
-0.12568143
0.09851479
-0.10862848
0.07306359
0.07718006
-0.05619456
-0.04796325
0.11221820
-0.07401673
0.09545682
0.00690960
0.13657773
0.05980346
0.05111993
-0.02256858
0.00899505
-0.09447420
-0.08959167
0.02604598
0.03366220
-0.07630573
0.04121451
-0.10752939
-0.06330868
-0.07546175
-0.08869600
0.00028165
-0.05712682
-0.00976706
-0.07680549
-0.02206130
-0.00990861
0.04174304
-0.06867621
-0.13078259
0.13318539
-0.06842238
-0.14243667
0.07573756
0.02609772
0.08531048
0.09893732
0.11370773
0.05071308
0.11908006
0.01146206
-0.06158078
-0.04223912
-0.06392792
0.08868184
0.12690993
-0.02434756
-0.14215063
0.07202008
-0.05708082
-0.08915862
-0.01921031
0.00583175
-0.04909972
0.07704989
-0.11718717
0.04952615
-0.05373538
0.01326780
-0.01146133
0.06887308
0.02038025
-0.00961677
0.12983128
0.05644861
0.00290425
-0.11356971
-0.07326756
-0.11167399
-0.01555348
-0.04004076
-0.02833574
-0.09573863
0.03932030
0.03736351
0.09799226
0.01723476
0.04935063
0.02674224
0.08479975
0.06420697
0.06699576
-0.11922495
0.02095957
-0.11642469
0.11926872
-0.03711492
0.00541032
-0.04505440
0.03876572
-0.05031658
0.04062231
-0.09838428
-0.14523812
-0.07697938
-0.09739970
0.08871660
0.00686768
0.11590818
-0.05597573
-0.12223293
-0.08066143
-0.14452298
0.12061825
0.03740314
0.11821984
0.04587270
-0.02135987
0.03623769
0.08423779
-0.03855678
0.05891387
-0.12124974
0.09836689
0.02000768
-0.09961632
-0.13767676
0.04637055
-0.11270750
-0.10408835
0.07271600
-0.11278892
0.14383438
0.09487231
0.14148520
-0.07176928
0.06424606
0.05118791
0.11961043
0.00364758
-0.10632623
0.07399309
0.03973208
0.00104868
-0.13474183
0.07315931
-0.13344333
0.06652155
-0.01471755
-0.02859084
-0.08799593
0.09757175
0.02312161
0.05016231
-0.07329412
0.07834718
-0.00339454
0.03538298
-0.06789806
0.12220564
-0.02547899
-0.04484742
0.02426621
0.04387975
-0.09330891
-0.01845163
0.04766041
-0.02987440
-0.03180064
0.11318950
0.11136379
0.07786069
0.03619662
-0.08063865
-0.05429868
-0.09065646
0.00269427
-0.12517315
-0.01510461
-0.04635781
0.01272751
0.10550269
-0.04875544
0.07499697
0.08451629
0.00291215
-0.14051054
-0.01660914
0.12099896
0.13794911
-0.02184539
0.08687639
0.06356449
0.02513513
0.13684149
-0.10463430
-0.04733814
-0.10582281
0.10352528
-0.08724891
0.09982640
0.00776533
-0.12088478
0.03749553
0.01018836
-0.13923578
-0.10431150
-0.06072000
-0.04626780
0.12490483
0.08495713
-0.14102264
-0.13351698
0.03639926
-0.13904767
0.10049435
-0.12674570
0.02756600
-0.08594556
0.14041397
-0.02876354
0.08073333
0.09403006
-0.08512507
0.13541971
-0.13349010
0.10218444
0.03922065
0.09873205
-0.12866999
0.09047195
-0.00453798
-0.08532533
-0.00978628
0.03644835
0.04240029
-0.05568957
0.10272989
0.09764413
-0.11010298
-0.11516946
0.12021659
0.14293082
-0.13066733
0.04134702
0.05494326
0.08330696
0.07297859
-0.12997518
-0.08210514
-0.13501358
0.00167952
0.11237292
-0.03873239
-0.01992364
-0.04420556
0.00407496
-0.05775191
-0.10721110
-0.05118010
0.00572102
0.06594419
0.13650580
-0.11058340
0.06291363
0.13783388
0.00129707
-0.08207192
-0.10797467
0.13116544
-0.04300529
0.03822102
0.10293577
0.08210303
0.03244221
-0.03049230
0.09332440
0.06880966
-0.04540039
-0.11758999
0.11788455
0.12662698
-0.11821981
0.13629164
0.13567942
-0.03395345
-0.07989480
-0.01226929
0.10812484
-0.07218798
-0.02973589
0.09888826
-0.01880265
0.14148460
0.10344245
0.01212826
0.14289908
-0.12669960
0.03856662
-0.00774378
-0.03976292
-0.11692926
0.12413491
-0.07473966
-0.13747402
0.10550594
-0.11990372
0.12145766
0.03016758
0.10794854
0.02893986
-0.10869050
0.02215224
-0.10555996
0.08059362
0.13967818
-0.14258491
-0.07387328
0.02770980
-0.07843852
0.04721031
-0.11772405
-0.05861665
0.11142939
0.09938342
-0.00565849
0.02185433
0.12412817
-0.09334657
0.03940876
0.11197839
0.12732777
-0.09277496
0.00170381
0.07247764
0.08477544
-0.02817116
0.04398808
-0.10136148
-0.09668401
0.05223373
-0.12205248
0.05685025
-0.02273330
0.02536860
-0.13811350
-0.08684741
-0.13349432
0.13349219
0.13146643
0.06075729
-0.04375257
-0.12848221
0.01040768
-0.11785104
0.07284432
-0.03837124
0.04442162
0.03783137
-0.05385001
-0.07874189
-0.00817411
0.03566555
0.12018263
0.00233944
-0.00023170
-0.09490997
-0.11115795
0.13744245
0.03922722
-0.06395157
-0.13321683
-0.04479739
0.11380126
-0.00320173
0.09762825
0.11994541
-0.10335623
0.03274080
-0.01776060
0.12637445
-0.06151405
0.01236458
-0.04124939
0.02566622
-0.04141223
0.10422035
0.00181532
0.10943138
0.01372295
-0.04879487
-0.00668713
0.09493449
0.10638086
0.14048344
-0.09324782
0.10403566
0.12255286
0.00715666
-0.10395859
-0.06026039
0.01746465
-0.12331118
-0.00666564
0.08609779
-0.09692250
0.07091471
0.05888125
0.02713377
0.01346450
0.03120940
0.04717070
-0.10921368
-0.06878199
-0.11427381
-0.01361950
0.04675565
0.08041876
-0.11113397
-0.00128221
-0.02373484
0.11096518
-0.08666088
0.07912342
-0.12609062
0.14239313
0.01553196
0.02116649
-0.04505848
-0.08043388
-0.12720990
-0.09220118
-0.03606851
0.05279834
-0.00701132
0.02280098
-0.13303232
0.02769306
-0.13748522
-0.02982991
-0.05613340
-0.03739215
-0.06662700
-0.13583113
-0.00578051
0.12882943
-0.00458946
0.00451305
-0.05038938
-0.02508726
-0.03990710
-0.10869411
-0.07690273
-0.10967338
0.00968847
0.10103934
0.01177908
0.10692984
-0.07633916
-0.07269740
-0.11969635
0.03922223
-0.00057163
-0.08515396
-0.07352963
0.06082803
0.04758059
-0.01575364
0.13726398
-0.13566272
0.00044956
-0.10285962
0.14096341
0.05230840
0.09270167
0.03242098
0.01651228
-0.00463557
0.02121317
-0.00425177
-0.01668834
0.06109180
0.05082839
-0.03272981
0.10549440
0.02296825
-0.10728842
0.02172267
-0.10177703
-0.04078279
-0.02586700
0.02978271
0.04017919
-0.06444205
0.00703486
-0.14433759
0.00159566
-0.01419571
0.11901134
-0.01143971
-0.08091434
-0.00925873
0.05750578
-0.07576870
-0.08395709
0.03257840
0.08803019
-0.07819022
-0.11128265
-0.04704017
-0.10881422
-0.11500931
0.01436976
-0.02318938
-0.00979109
0.00809456
-0.02419677
0.07688630
-0.07631379
0.12499843
0.03091429
0.01570284
0.09842576
0.09849804
0.06062470
0.07034985
-0.07044541
-0.02001279
0.01089738
0.02877427
-0.07044438
-0.10882472
0.04028338
-0.00219307
-0.07999589
0.14487058
0.14176269
-0.03696986
0.07689986
0.02387062
0.11863405
0.06006776
0.03086810
-0.06344634
0.08888794
-0.01201461
0.13525817
0.12896778
0.13972074
-0.09362464
-0.01648731
0.11859848
-0.11011950
-0.03404941
-0.07770775
-0.03433482
0.09739221
-0.12944512
-0.04639968
-0.13134232
-0.04524469
0.04471283
-0.08595976
0.13755907
0.13890673
0.02301265
0.10800157
0.12799792
0.10808162
-0.06332064
-0.00063144
-0.12253432
-0.06092336
0.09984482
-0.13673656
0.09342591
-0.06346418
0.01980742
-0.10620155
0.05058017
-0.04072194
-0.10528452
-0.00170735
0.00897070
-0.09640270
-0.06455215
0.08127487
-0.08856426
-0.11617676
-0.07859904
0.01472011
-0.06219513
0.03336787
0.06058719
-0.13495983
-0.05836216
-0.11942330
0.10850476
-0.03221631
0.07977815
-0.03668107
-0.13481805
-0.01128327
-0.14256150
-0.08088946
-0.05977305
-0.05501516
-0.04302634
0.05059190
-0.14120419
-0.05650732
-0.06791309
0.06539837
0.06037907
-0.13767128
0.05367287
-0.07133662
-0.04187157
0.04101995
-0.07029235
-0.08964963
-0.02773023
0.03878396
-0.00163259
-0.12939838
-0.10727709
-0.04648485
-0.10774089
-0.00084885
-0.09348486
0.13291658
0.01867475
0.07674154
-0.05359646
0.06841747
0.13340120
0.03543529
-0.01703534
-0.08341910
0.07740925
0.00877347
-0.09611967
-0.12196860
-0.06425448
0.03728199
0.00731528
-0.02106034
-0.02964731
0.10880666
0.12825260
0.10274520
0.08123086
0.04133841
0.07871340
0.00902604
-0.10645968
0.08564235
-0.06838167
-0.07240421
0.01798987
-0.09410435
-0.10696167
0.08270117
0.01504180
0.03671357
0.13938607
-0.10636246
-0.11481003
-0.05065346
-0.04992061
0.04423523
0.02952821
-0.06368442
0.00173533
0.03988723
-0.09596544
-0.13065526
-0.08090411
0.05008179
0.02377655
0.03774463
-0.03292998
0.04383208
0.06523543
0.04106034
0.12982681
0.06155588
-0.06838948
-0.01089235
-0.09929855
0.04833146
0.10900826
0.07341172
0.08141503
-0.10382029
-0.05830867
-0.09589203
-0.05943485
-0.12853421
0.06251806
-0.00982605
-0.06587876
-0.04214366
0.02610613
-0.04706262
0.05270112
0.04593761
-0.06742682
-0.10736661
-0.09354401
0.00234479
0.13218990
-0.04117233
-0.08174718
-0.01482576
-0.00040055
-0.08277724
-0.12804016
0.02066182
0.00414543
0.13507009
-0.12642424
-0.05586522
-0.12543783
0.09963205
0.04447876
-0.08631934
0.13438448
0.06274617
0.13959971
-0.08174323
-0.12875457
0.11798900
0.03121979
0.10959896
-0.09948657
0.04389293
-0.09256552
0.01116216
-0.04756357
0.13652584
-0.05293470
-0.02397766
0.05327211
0.09064279
-0.14276129
-0.12472102
-0.00010525
0.14071484
-0.13668844
0.03408091
-0.08951750
0.10725246
0.03668226
-0.05459448
-0.13786379
-0.01698018
0.07479142
0.09183788
-0.12472621
-0.11340593
0.11584190
0.11483962
0.09492098
-0.05279925
0.03453564
0.14607196
-0.05757445
-0.01653486
0.11917368
0.01671252
-0.05252245
-0.06390192
-0.00066065
0.10356648
0.00841415
-0.13981062
-0.03406616
0.09819653
0.02770011
-0.01028197
0.12211066
0.07262835
0.06634044
-0.00024662
0.11599319
0.10665987
-0.13878295
0.01251627
0.11551987
-0.13470052
0.11112201
-0.08966765
-0.01899813
0.06730735
0.02517711
0.13179782
0.00394502
0.07673447
0.00098772
-0.08586186
-0.13324098
0.00658227
0.05816734
-0.06201931
-0.00538387
-0.14521231
0.00316835
0.13558692
0.02454821
0.06231540
0.13121240
0.12783267
-0.04618170
-0.08881667
-0.04550896
-0.07152931
-0.12431739
0.03329765
-0.04782866
-0.13990058
0.08563028
-0.11765512
-0.00229719
0.14720578
0.01557220
-0.01939955
0.07765019
0.07791594
0.05949325
-0.11147063
0.04033851
-0.06959427
-0.09553646
0.11164776
0.11224408
0.03357783
0.04459729
-0.12200047
0.00718446
0.08724070
0.01673569
-0.06299368
-0.10456129
-0.08046544
-0.04937004
0.09398922
0.02690493
-0.07474732
0.05874990
0.00323555
0.05111159
0.06066509
0.09399783
0.13101774
0.01541518
-0.03344352
-0.11218002
0.12932207
-0.01145866
-0.14214440
-0.02164102
-0.04007845
0.11745734
-0.08996097
0.04998625
0.05660969
-0.04132019
-0.12194497
0.09298202
-0.06094972
-0.07966591
-0.02141018
0.03707424
0.05611329
0.13643676
0.10713600
-0.10849420
0.09077986
-0.01746294
-0.12728389
0.01478565
-0.13155735
0.05514228
0.12172040
0.01572429
-0.05943730
-0.12707990
-0.11956606
0.04915109
0.01648092
0.00179922
-0.04080986
-0.09524040
-0.08840550
-0.04218149
-0.01880704
0.03142930
-0.11105863
0.09106965
-0.11954981
-0.01855047
0.08985966
0.14638227
-0.04914557
-0.03397319
0.05084194
0.08281303
0.05762197
-0.12686928
0.07020722
0.12239451
0.09532049
-0.00930778
-0.05569034
-0.05042489
0.07641893
0.06569849
-0.10089933
0.06616578
-0.11816053
0.11754876
0.06988601
0.11682065
-0.12802012
-0.02506388
-0.04734576
0.12423334
0.11761285
0.00904618
-0.11857080
0.06739400
0.06806730
0.05447454
0.01077488
-0.05691837
-0.12531747
0.05972273
0.14464952
-0.08146720
0.06736306
-0.11352992
-0.04851008
-0.13708472
-0.02594687
-0.11002365
-0.11591738
-0.02277583
0.04946638
-0.12659527
0.01365624
-0.01927957
0.05004920
-0.00014023
-0.01588975
-0.09803268
-0.00452428
0.10996074
0.03208599
-0.02638818
0.12063351
0.11009198
0.01247128
0.08435504
0.09198834
-0.00705243
0.09523414
-0.02047315
0.09780946
0.08299693
0.04271245
0.12315643
-0.10419825
0.14744820
-0.06470712
0.07546496
0.06484489
-0.05564552
-0.06988323
-0.01953044
0.13640964
-0.03100082
0.07542942
0.01787310
-0.06848319
-0.04067951
-0.10928407
0.07438727
0.07847541
0.10597780
-0.06728768
0.13250110
0.12411329
0.02380134
-0.08389843
-0.10251112
0.01508294
-0.08796321
0.01666662
0.03569210
0.03407681
0.14204097
-0.14141087
0.08143824
-0.01466362
-0.04890670
-0.05076718
0.13161418
-0.01981451
-0.04291662
0.10804028
-0.12393183
-0.09171457
0.09559742
0.02664168
-0.09337685
-0.13548116
-0.12529996
0.13617340
-0.05079406
0.10370662
0.06390006
0.14408198
-0.13887231
0.04614751
0.10388562
0.09792290
-0.10564693
-0.10244602
-0.02988999
-0.03330697
0.03089002
0.10834683
-0.09911986
-0.09420413
0.13465445
0.12129187
-0.01580843
-0.10069091
0.05957994
0.12446629
0.08680134
-0.07937835
-0.00891126
-0.09010809
-0.09743330
-0.02670958
0.10158265
-0.08076498
0.08601144
-0.04588331
-0.05557858
-0.07120952
0.07043133
-0.09254492
0.08090090
0.00477004
0.11616315
0.13300481
0.10883740
-0.03340916
-0.08392335
0.05861931
-0.10337815
0.05717004
-0.09122526
-0.01473674
-0.01252908
-0.10622730
-0.11671837
0.12600125
-0.08194976
-0.01812029
-0.07194356
0.11537420
0.08391497
-0.02724989
-0.02241158
-0.03596190
0.11448625
-0.10534467
0.05207680
-0.04434563
0.05646399
-0.01033680
-0.13067445
-0.03859987
-0.01757967
0.03261937
-0.02703173
0.02084803
0.10950737
-0.13302748
-0.03328002
0.06891265
0.06819300
0.11139380
-0.01297128
0.06626661
-0.01154218
0.12022739
0.09099635
-0.06580252
-0.07028298
-0.00305947
0.13254869
-0.06134553
0.11413995
0.03786997
-0.08613738
0.04033856
-0.01503743
-0.00929184
0.04322559
-0.03127073
-0.04395629
0.14248616
-0.02830701
0.09487244
0.05864402
-0.04941910
0.03321118
-0.10572168
0.12256137
0.08398370
0.13761558
0.03380929
-0.12847486
-0.09157036
0.03251464
0.13880575
-0.00648808
0.07748937
0.06070531
0.02313706
0.13883744
-0.05141025
0.03803866
0.08188634
-0.07610632
-0.14099830
0.06589157
-0.07724229
0.08699694
0.10067184
-0.14011361
0.01480253
-0.04213691
0.09605005
-0.10898436
-0.06395590
0.03212221
-0.13394129
0.11613962
0.04880636
0.01614530
0.11783276
0.01957729
-0.06966987
-0.02825176
0.12188733
-0.14123543
0.07663187
0.09046987
-0.08983149
-0.13350813
-0.07747130
0.04345531
0.14107795
0.02205613
-0.13582809
-0.06905612
-0.08529574
0.06297549
-0.09140288
0.03282323
0.01060933
0.10516600
-0.09360065
-0.03786129
-0.11266193
0.00482317
0.03801865
-0.01908474
0.01970504
-0.10648401
0.04700166
-0.13528486
-0.09204284
0.09125930
-0.06389133
-0.00953480
-0.10517719
-0.05919060
0.04722887
-0.07355613
0.13319485
0.00212703
-0.00634392
-0.02549663
0.09317522
0.07611503
0.02230492
0.11960363
-0.10152855
-0.02150614
-0.12127906
0.13883325
0.10888285
0.09285384
-0.14079720
0.06052845
0.09241536
-0.05580731
0.12244165
0.09687115
0.07432760
0.04919471
-0.06074152
0.04402540
0.05624441
0.11345848
0.09164752
-0.05880012
-0.07172018
-0.08391694
0.08464903
-0.09373414
0.01920057
0.00396415
-0.10525592
-0.07494978
0.06891306
-0.00392685
-0.00122973
-0.08622382
-0.10387182
-0.11274592
-0.02055735
0.12852724
0.05199182
-0.06736500
0.12677205
0.08719413
-0.01845278
-0.12526089
-0.05460396
0.13669340
0.06272399
-0.07515541
0.12163989
0.13951369
-0.04370110
-0.13540569
-0.10647388
-0.00513606
0.04616754
0.02811581
0.14042054
-0.00012560
0.12050546
-0.03702072
-0.08880168
0.06811137
-0.04513236
-0.07420022
0.00839328
-0.12286969
-0.04579826
0.05689592
0.02675181
-0.11725354
0.05885814
0.10190797
0.13010648
-0.12080077
0.04558263
0.02395463
-0.09958465
0.05119995
-0.13086197
0.11580002
0.14082395
-0.00789723
0.06103478
0.12747258
0.04427090
0.07852927
0.12295041
0.11410844
-0.01930970
0.10164656
-0.03084778
-0.09028102
0.11588872
0.03331887
0.13697292
0.04021254
0.00938010
-0.03161819
0.10571807
0.09468411
-0.06033226
0.11150726
0.08045010
0.07654333
0.04567347
-0.04449185
0.07179183
0.03419559
-0.06225031
-0.13356823
0.09233118
-0.12255811
-0.06943870
0.09025985
-0.07607538
0.01763053
-0.09702066
-0.05985529
-0.05739033
0.00078121
0.00849053
-0.07632770
0.05346560
-0.03666516
-0.12514234
0.05097046
0.00527478
0.09210990
0.04390585
-0.06135245
0.13768926
-0.02360300
0.07961507
-0.08810591
0.00446723
-0.05049407
0.08794240
-0.00472782
0.04257439
0.09248640
-0.02178964
0.06460256
0.14161487
-0.13750756
-0.13903768
0.11263630
0.02423472
-0.07467566
0.09345951
0.08674715
-0.04100800
-0.12771904
0.00194831
-0.04549468
-0.00144981
-0.06144034
-0.03641245
0.00119011
-0.10375563
-0.04866607
0.13354643
-0.08511794
-0.03847108
0.07039449
0.08605633
0.08035010
-0.12426283
-0.04411668
-0.08273702
-0.10722320
0.13012293
-0.02833348
-0.03511507
-0.02441487
-0.05365366
-0.13707502
0.10717925
0.00702210
0.13931912
-0.08064397
0.07059544
0.05903996
-0.03393624
-0.06110473
0.03880183
-0.03926685
0.05647230
0.08430350
0.01282718
-0.04164746
-0.06810445
0.01351034
0.01599646
-0.04873077
-0.13240615
0.03736472
-0.07416297
0.10912306
-0.12088730
-0.11813345
-0.12422946
0.00196751
0.07171209
-0.04638610
-0.02068835
-0.10077709
0.08163581
0.06969316
-0.00158426
-0.02313934
0.00355804
-0.01070736
0.03801420
-0.11880373
-0.03191841
-0.09436629
0.09496016
0.09075514
0.08261427
0.02592416
0.13201441
0.06643111
-0.03834651
-0.03906741
0.06314285
0.03743185
0.05970661
-0.11439584
0.03099650
0.06503420
-0.13038884
-0.01920078
0.10181938
-0.09799501
-0.00677291
-0.00732698
-0.03599673
0.05058080
0.02430953
0.14026257
-0.12631328
0.11731100
0.02338778
0.13665363
-0.07496787
-0.08910654
0.11141312
0.02025795
-0.06347812
0.06625201
-0.05066312
0.12666379
0.14102018
0.01407679
0.10155688
-0.11402821
0.12010880
0.05767512
-0.09668040
0.01648086
-0.01195205
-0.06357926
-0.10040454
-0.05553954
0.03156954
0.06984373
0.10029750
0.06617550
-0.11077958
-0.01525196
-0.00455143
0.09533346
-0.02790137
-0.04329409
-0.03300240
-0.01939580
0.13918348
0.04369989
0.04471251
-0.03466380
0.00196612
-0.09284248
-0.10595372
0.03784291
-0.06151734
0.10129374
0.00491151
0.09427420
0.02864304
-0.14512338
-0.13296397
-0.06640411
0.10944118
0.09146738
0.03714211
-0.05562091
-0.01659444
0.06840269
0.05854036
-0.00602167
-0.06247376
0.14231877
-0.08095174
0.02178969
-0.02831464
-0.06107479
0.02630182
0.13106738
0.05564902
0.05859146
0.04599379
-0.13451168
-0.07475898
0.10349411
-0.09781486
-0.13288744
-0.14281391
0.12072451
-0.03187879
-0.11065690
0.03493531
0.06807174
0.02348260
0.01384976
-0.10615779
0.03449939
-0.02483639
0.11409925
0.13843875
0.13685885
0.12605430
0.01516244
-0.13208626
0.00421670
0.13407426
-0.01276089
0.02443637
0.12192740
-0.12997146
0.07932051
-0.08581576
0.11277953
-0.01228325
0.08398359
0.12878834
0.01889106
-0.11565295
-0.12225255
0.04053249
-0.09926474
0.10373563
-0.04175749
-0.08926326
-0.04810711
0.00040766
0.07361251
-0.00687963
-0.02889579
0.01644200
-0.05524441
-0.04543850
-0.07304209
0.12149536
0.00158478
0.00709663
-0.07958736
0.00110140
-0.12143057
-0.12238021
-0.02138073
0.10605460
0.00465633
0.08174240
0.14205100
0.10054658
-0.12743150
-0.06258697
0.07615177
-0.03006629
0.06543727
0.06383480
-0.01080038
-0.07277381
0.10318998
-0.00249347
0.06340712
-0.06036766
-0.06037809
-0.08810643
-0.01499773
0.01630830
-0.03555400
-0.13506059
-0.07324175
0.01038949
-0.08858895
0.10398038
-0.05176976
0.12836365
-0.07328025
0.04919117
-0.07837118
0.12717526
-0.11363582
-0.08058962
0.10108887
-0.01221768
-0.08913719
0.00489013
0.09326106
-0.09063662
0.10792997
-0.02998651
0.05962310
0.07695065
0.06898575
0.14141597
-0.11731385
0.09920043
0.00490481
-0.00390846
0.12868547
0.00297255
0.06987377
0.06702568
0.01898876
-0.06868663
-0.09027150
0.01091718
-0.12217968
-0.03254075
0.10854001
-0.07522766
-0.00930640
-0.02427840
-0.10101617
-0.09529974
-0.01889874
-0.08402853
-0.12615058
0.07998800
-0.03246010
-0.06732146
-0.14015661
-0.06656700
0.01097527
0.04965923
0.00246749
0.02919328
0.03597242
0.06731616
-0.12683113
-0.13102265
0.06193224
-0.07963289
0.04204150
0.11429206
0.02680399
-0.14267240
-0.03477689
0.05465972
0.08223339
0.04212980
-0.10737554
0.05072635
-0.09300829
-0.08768560
-0.05110237
-0.12342311
-0.03936792
-0.05758785
0.12549476
-0.12290083
-0.12547357
0.07894190
-0.09467726
0.03967628
-0.11051977
-0.08734009
0.01981152
0.02580913
0.12021304
-0.09269388
-0.03484090
0.06825544
0.04007153
0.00820530
-0.07062764
0.05812496
0.06166762
0.08976627
-0.09819091
-0.09946427
-0.07450938
0.03679447
0.02929205
0.06623100
0.10192408
0.13861622
-0.04794992
-0.10012177
0.11768226
-0.01210397
0.14029634
0.05220207
-0.11196202
-0.00568838
0.07029046
0.10508481
-0.09069407
0.13687520
0.13894893
-0.13299796
-0.03431617
-0.09758736
-0.04130974
0.04587774
-0.10985838
0.00988773
0.02424620
0.06641997
-0.01929067
0.05191577
-0.06157364
-0.11840112
-0.03211501
-0.09686464
0.01604603
-0.06050017
-0.11832213
0.12743554
0.00309361
-0.09866467
-0.08422219
-0.09850840
0.01817061
0.04419172
0.05267376
0.09265513
-0.13765122
0.13216075
-0.04062103
-0.09537496
-0.09014153
0.02735481
0.00624905
-0.02163812
0.07671048
0.13259158
0.01953192
-0.02440594
0.05031653
0.11689258
0.14007768
-0.12486315
-0.06880409
0.08638204
0.03444444
0.02552929
0.08622098
-0.10675731
0.13311538
0.01125853
-0.02744796
0.11511516
0.06400988
0.06724807
0.08539163
-0.04889238
-0.08577347
0.00422503
0.10018583
-0.05347809
-0.12301150
0.13118045
0.07092708
-0.04927967
0.12047118
-0.00845017
0.11468043
0.04506025
0.12935130
0.13394351
0.12273009
-0.02660577
-0.12173430
-0.07481297
0.06084519
-0.12360315
0.13040537
0.11229224
0.09585074
-0.01256120
-0.02740078
-0.00530018
0.01967126
0.00196251
0.08651147
0.09760079
0.04130630
-0.09233289
0.10558117
0.12710238
0.05579620
0.09806231
0.05607022
-0.01806623
0.09774369
0.00634027
0.11327557
-0.00044612
0.05906414
0.13278775
0.01976296
0.09208043
-0.01387431
-0.06769738
-0.01738491
-0.00113156
0.14165278
-0.05892939
0.03492024
-0.12899801
-0.00393760
-0.06856798
-0.09526320
0.02857887
-0.00952189
-0.03017490
-0.08528788
0.09756438
0.00541621
-0.03972631
-0.01219118
0.10781291
0.00684434
0.02277267
0.06956824
0.06002446
-0.10009775
-0.02514456
-0.02536462
0.11248201
0.04381181
-0.06786301
-0.11972968
0.09909784
-0.10149466
0.13775003
-0.05748283
-0.01778462
0.11098006
-0.04959695
-0.02249718
0.02376510
0.06447884
0.05846349
0.01269552
0.08091210
0.13490489
-0.12948899
0.03984540
0.06642617
-0.03080418
0.02297548
0.03116049
-0.02983384
0.10168496
-0.11734611
-0.05243395
0.04666398
0.05334506
0.04195443
-0.05471065
0.05328701
-0.09310703
-0.00631079
-0.05469467
-0.01560813
-0.05879019
0.12765393
-0.00613128
-0.01583865
-0.08491060
0.13675284
0.04246262
0.10135919
-0.01299977
-0.03329149
0.02250005
-0.00159982
0.04815104
0.13484628
-0.02507207
0.12242156
0.09473799
0.07217754
-0.13011375
0.11595457
-0.03071384
0.00801863
0.07232149
-0.11679255
-0.01561615
0.02041178
0.00296226
0.05987855
0.10025101
-0.07855296
0.01295916
0.03693301
-0.02773236
-0.05873525
0.02704945
0.13778251
-0.05544588
0.12118132
-0.07814150
-0.06415270
0.05833298
-0.09747956
-0.09289258
0.13764176
-0.13370076
-0.14022948
0.08071569
0.06399520
0.11661941
0.01604716
0.05350701
0.09874342
0.00174639
-0.05836230
-0.00897130
-0.02061076
-0.10447746
-0.11625473
-0.12719350
-0.04350996
-0.09862186
0.07914481
0.11701829
0.14647922
0.06105777
-0.01016763
0.06929022
0.12305576
-0.09366902
-0.13036108
-0.03200074
0.12325791
0.01941179
-0.03264140
-0.12240676
0.02395300
-0.00922180
0.14416161
-0.01485013
-0.09735287
-0.13210088
0.13760568
0.01891528
-0.06010473
-0.03972450
-0.13790092
-0.08068957
-0.10912322
-0.03343530
0.01444886
-0.11932953
-0.14057283
-0.04918161
-0.05953624
0.02461271
-0.03935388
0.05275197
-0.02452250
-0.10932619
-0.03883440
0.04578932
-0.13691239
0.11009736
0.09928472
0.14030346
