0.00719463
-0.02819913
-0.00728802
-0.00651327
0.00245334
0.03058830
0.05429092
0.05843035
-0.00036261
-0.01331815
0.01813099
0.05604912
0.01041789
0.03801443
0.00805003
0.05719114
-0.02901564
-0.03341515
0.05231299
-0.05486237
-0.01677186
-0.00281270
0.04441056
0.04448422
0.03222536
-0.02068606
-0.00739490
0.00416724
-0.04729541
0.05379624
0.01967564
0.05554262
0.05675087
-0.02137311
-0.04885514
-0.05392199
-0.05544348
-0.05170637
0.04002198
-0.01196675
-0.05058421
0.02583300
0.05725116
-0.05069749
-0.04573541
-0.00103319
-0.04939373
0.00540201
-0.03857284
0.03333681
0.03007926
0.00433379
0.01279914
-0.01660715
0.01067429
0.04035900
0.02643248
0.02526306
0.01529474
0.01155242
-0.02449622
-0.04558269
-0.04324884
-0.00752662
-0.04922193
-0.04573565
0.05841674
-0.05532292
-0.04558981
-0.04815871
-0.02457168
0.03639899
-0.05250482
0.02830772
0.05576186
-0.04246772
-0.04434689
0.03643567
-0.02532335
0.05814016
0.04313040
-0.04766941
0.05247898
-0.00824837
0.03671480
0.02286413
0.01047335
0.05505180
-0.03567838
0.03540076
0.00461349
0.03132246
-0.04665398
-0.02628478
0.03360211
-0.02447135
0.01065408
0.05269107
0.04133773
-0.02380942
0.05856399
0.05374580
-0.03589644
-0.01526541
0.03601020
0.03684562
-0.05025352
-0.01569710
0.01744496
-0.02655606
-0.01354371
0.05846751
0.01957607
0.00448761
0.04018424
0.02590570
-0.01272263
0.03970969
-0.00195706
-0.02650384
0.05832334
0.00287834
0.05099791
0.02969373
-0.02431337
0.03009380
-0.01375164
-0.04344686
0.00962287
-0.00451272
0.01922711
0.00402281
0.00546634
0.02083087
-0.03494672
-0.05261501
0.04700992
-0.02476499
-0.04633601
0.00090967
-0.01505777
0.00840747
-0.02394561
-0.03357332
0.00096319
0.00701927
0.00080136
0.02699261
0.01626499
-0.04655899
0.01494840
-0.05645038
0.04436403
0.02825273
0.03449256
0.05230319
0.00603506
-0.03275756
0.02345122
0.01913394
0.04680955
-0.04160616
-0.02267412
-0.00848950
-0.05125678
-0.00423348
-0.04383795
-0.04329906
0.06125632
0.02047806
-0.00920562
-0.05245926
-0.02064752
0.01566862
0.04756200
-0.01999312
0.05618018
0.06089601
-0.03264838
-0.03966440
-0.03797206
0.01095014
-0.02689032
0.04431061
-0.04313872
-0.00653495
0.02239692
-0.03866708
-0.00305782
0.02173747
0.02297648
-0.01007457
0.02200527
-0.02157790
0.00804197
-0.04662680
0.00505613
-0.01897972
-0.04956798
0.04709616
0.01934585
-0.01164283
-0.03799085
-0.03158968
0.05157143
0.01064121
-0.00746266
0.05088047
-0.00967866
0.02809248
0.02276357
-0.01332458
-0.00944927
0.02094328
-0.04650880
-0.02616188
-0.02763427
-0.04550660
0.05371608
0.03045402
0.03654807
0.01720266
0.00527798
0.05672045
0.05375861
0.03381738
0.01777249
0.03041289
-0.00567434
-0.04130695
0.00855830
0.03944645
0.02624929
0.00401577
0.03402634
-0.00436328
-0.02946856
-0.02106810
-0.04193610
0.02257443
0.03590261
-0.00722150
0.01514820
-0.00052594
-0.02095824
-0.03107611
0.02669249
-0.03296080
-0.02545787
0.05142778
0.01068633
-0.02320730
-0.00346189
-0.04150848
-0.00709711
-0.04310104
0.00489247
-0.00336495
0.05899143
0.04626775
-0.03647582
0.03591622
0.02508519
0.05348166
-0.02182262
0.05040172
-0.00884836
0.05188007
-0.01895853
0.01404238
-0.02060311
-0.02392767
-0.03101382
0.01885466
-0.02886494
0.00508877
-0.04085739
0.02080053
0.05239541
-0.02904902
-0.01818743
0.04845199
0.00088528
-0.02492201
0.02119767
0.01066788
-0.04611913
0.01318785
0.05224794
0.00548841
-0.05414154
0.00070941
0.03264215
-0.00720119
0.01245894
0.05586971
-0.04482956
0.00475953
-0.03843271
-0.02427956
0.02028569
-0.04710417
0.03685601
0.05326652
-0.02276871
-0.03838065
0.03135797
0.00344453
-0.04951029
0.05955799
0.05404105
0.02557879
-0.02426829
0.00351100
-0.03409188
-0.05283303
0.05947801
0.02811852
0.05600458
0.02993500
-0.01225088
0.00140896
-0.03562751
-0.04476791
-0.01317685
-0.03011258
-0.02816631
0.03412659
-0.01432224
0.02109607
0.00034611
-0.03662343
-0.03692449
-0.03477294
0.04174748
-0.04281286
-0.01768353
-0.04304098
0.04728053
-0.00790846
0.01945242
-0.03419093
-0.01295235
0.00406585
-0.04236857
-0.03306763
0.00183740
-0.01106408
-0.01114076
-0.02019557
-0.03316523
0.04993511
0.05277243
-0.02043702
0.04379956
-0.00882723
-0.04177226
0.00320501
-0.00354608
0.04495225
0.00344266
0.02828676
-0.03505211
-0.00880087
-0.01148989
-0.00348668
0.02699898
-0.00617696
0.01674805
0.01945341
-0.01821207
-0.01705072
0.05279825
0.05991678
0.03064624
0.05310168
-0.04371546
-0.02452570
-0.00376734
0.03428468
-0.00799082
-0.00582936
-0.04477913
-0.05570639
-0.01156771
-0.02135761
0.02733408
0.01507926
-0.05114763
0.03280134
0.05604565
-0.01268813
0.01931877
0.02276722
0.03782748
0.01820712
-0.03303452
-0.03495128
-0.00912304
0.04855508
0.02011111
0.01167396
-0.05350682
-0.04057901
0.00049797
-0.00078520
0.03703977
0.01094678
0.04603698
-0.03378050
0.04157224
0.04614772
0.03431420
-0.02678177
-0.04882355
-0.04871514
-0.01820958
-0.02194057
0.01327151
-0.01410265
-0.03439284
0.02612099
-0.02314194
-0.02163098
-0.02691386
-0.04495649
-0.00901836
0.04204237
-0.04618613
-0.04200125
0.05229441
-0.05375530
0.05760545
-0.01908010
0.02175849
-0.04798559
0.01745228
-0.04924571
-0.05009555
0.02371771
0.00074789
0.01677697
-0.01298891
0.04551503
-0.02352968
0.00332399
0.04870912
-0.03736287
0.02381194
0.03933774
-0.01529646
-0.04702622
-0.05307613
-0.04645794
-0.04727962
-0.00942781
-0.00285914
0.03962417
-0.00745906
0.05604380
0.04841308
-0.00761727
-0.02878053
-0.01032445
0.00154992
0.03953725
-0.05388850
-0.01922219
-0.04462310
0.01463256
0.01550901
0.04336004
-0.01750640
-0.05608797
-0.05528594
0.00327951
0.05124712
0.04903447
0.06200314
-0.03720585
-0.00286632
0.05472735
0.02639721
-0.04324490
0.02732582
-0.01443187
-0.01494727
-0.00450909
0.01400263
-0.04379085
-0.04758381
-0.03189092
0.03086638
-0.02086378
-0.05020725
0.03787119
-0.01337287
0.04275250
-0.04270741
0.05562545
-0.04965917
-0.03667305
0.04088113
-0.01336149
-0.05475242
-0.04175792
-0.00546532
0.00913369
-0.04414107
0.00341644
0.04189273
0.02916373
-0.04477749
-0.00558275
0.02037045
-0.04340410
0.00700670
0.00491141
-0.04281051
0.02816514
0.04733409
0.01544103
0.05298489
0.03777580
0.01991539
-0.03532015
-0.00791570
-0.04378441
0.00969592
-0.00090975
0.00702246
-0.00414877
0.05316615
-0.05087647
0.03943178
-0.02742318
0.05291951
0.03396825
0.05718930
0.04731436
-0.04056228
-0.01235444
-0.03188027
0.05914014
0.03522286
0.02301203
-0.00302594
0.05217115
-0.03328039
0.00873968
0.00923493
0.02056283
0.02739555
0.00229727
-0.03611969
-0.02550323
-0.01915995
-0.03709830
-0.04841479
0.00904924
0.01068531
0.02174055
0.01262139
-0.04341508
-0.00855399
-0.02445276
0.04173366
-0.02471545
-0.04454644
-0.01661135
0.03860048
0.02850966
0.01839068
-0.01394099
-0.05544984
-0.00458499
-0.01576572
0.05622881
0.03765585
0.00099231
0.00189560
0.01445742
0.05911248
-0.00812520
-0.02909492
0.05398987
0.02908781
-0.00011922
0.03175307
-0.04779079
-0.03458799
-0.02287301
0.03803440
-0.03154375
-0.04068036
0.01180939
0.01505961
0.05415412
0.00005111
0.05519298
-0.02557210
0.01230438
0.02268630
0.03097800
-0.03288297
-0.03779049
0.00309024
0.04443272
0.01386826
0.06022639
0.02543481
-0.04939034
0.01992247
-0.02836994
0.03554967
0.02915034
-0.00121438
0.02875002
-0.00776844
0.05851742
-0.05096204
0.01284089
-0.01131855
0.04306155
0.00508616
-0.02567056
0.00834415
-0.05186877
-0.02557906
0.00073744
0.01512068
0.02846723
-0.04805916
0.03223221
0.00330174
0.05371657
0.00119189
0.01191555
0.01507788
-0.05126907
-0.04510612
0.02757054
-0.00138447
-0.04471748
-0.04469894
-0.02789199
0.02085919
0.02030204
0.02115940
-0.01326893
0.04727676
0.03824202
-0.04614402
-0.00589294
0.01699496
0.03552971
0.04247622
0.00781228
0.05321050
0.04447315
-0.02784247
0.03486446
-0.00500580
0.02095735
0.02013653
0.04948033
0.05482067
-0.01611105
-0.04282423
0.04358674
-0.03213311
-0.05550954
-0.04656107
-0.00546031
0.06144964
0.02690378
-0.00319851
-0.01176702
-0.04497832
0.05540897
-0.01768921
-0.01559013
0.00129796
0.01081483
0.00645609
0.03751953
-0.01009001
-0.02345988
-0.02198788
-0.03867069
-0.00562876
-0.03779128
-0.03691764
-0.04338340
0.04847581
0.02219642
0.04984016
0.02491146
-0.01902896
0.03570292
-0.05184973
-0.03300647
-0.01806719
-0.02179726
-0.03632575
0.05229066
0.00893077
-0.01222036
0.01436466
0.05953094
0.00662996
-0.02654658
0.02993416
-0.03707531
-0.02884741
0.04272273
-0.00491707
0.01021195
0.00025037
-0.05508478
0.05368650
0.02317855
0.02665363
-0.02067922
0.03332873
0.02709110
-0.04262054
0.01078135
-0.03923050
-0.00692141
0.04831299
-0.00610283
0.03745259
-0.00100514
-0.05133530
0.05758811
0.04130101
0.04647584
0.03937608
-0.02319278
0.01183490
-0.01025591
0.06052374
0.04351511
-0.00104888
0.03194145
0.02302480
0.00313950
-0.00687173
0.05154270
-0.01227375
0.02790868
-0.02630945
0.05186055
-0.01351821
-0.00026618
-0.04329035
-0.05644427
-0.04672612
0.05868665
0.02938362
0.04932877
0.05335063
0.00947142
-0.03314771
0.00942346
-0.03077144
-0.02444215
-0.03794014
-0.01854833
0.01113147
0.00098378
0.00208268
0.01624237
-0.03729104
0.00790382
0.00693321
0.04679739
-0.01307054
-0.00241802
-0.04641049
-0.03437013
0.01965869
-0.01452672
0.04394345
-0.01994833
-0.03440328
0.01263469
0.05208486
0.00009177
0.01274162
-0.01363060
-0.00576276
-0.01289291
0.04974640
0.02040773
-0.03856137
-0.03800897
-0.04625585
-0.00083956
-0.05576530
0.05149842
-0.02433209
0.03837669
-0.04571734
-0.00439158
-0.03471069
0.00245709
0.05397518
-0.04245112
0.02459821
-0.02535481
-0.02366626
0.02202934
-0.04965283
-0.02252975
0.05274065
-0.02782629
0.05458800
-0.04610964
0.01101430
-0.00173161
0.03487493
0.03692897
0.05147419
0.00438801
0.05740272
-0.02884852
-0.03829564
-0.02132249
-0.03554581
0.05306169
-0.01496568
0.02476980
-0.03294838
-0.04160398
0.00988863
-0.04307441
-0.03241741
-0.00078567
0.03700071
0.03005927
-0.05293098
0.05176472
0.03566143
-0.05020674
0.05189774
-0.05176564
0.02065321
0.01850760
-0.05271158
0.05844191
0.04143686
-0.02587650
0.02937164
0.02042642
-0.01362848
0.01270922
0.00658663
0.04522613
0.05704070
0.04133074
0.00219055
-0.00651737
-0.05128720
-0.03053405
0.05869291
-0.02941287
0.05647631
-0.01389427
-0.00281803
-0.03420575
0.05326364
-0.00233760
-0.02759609
-0.01800936
-0.04846131
0.03952247
0.04481178
0.05661806
-0.05686905
0.03387877
-0.04279307
-0.00101867
0.03496685
-0.00861681
0.00678269
0.01186079
0.06015132
-0.04953971
-0.00468319
-0.01023226
-0.02855359
0.04302667
-0.04447533
0.05015102
-0.04525761
0.02642741
0.02242508
0.06182871
0.00365173
-0.04967324
-0.05415150
0.03197885
-0.02400928
0.05848438
-0.04283723
-0.02150785
0.00291702
-0.01468372
0.03409736
-0.05478760
0.05805527
0.04625408
0.03141150
0.03728804
0.00251232
-0.03582241
0.05106743
-0.01630675
-0.01025467
-0.01022749
-0.02506835
0.01215881
0.00400346
-0.05824434
-0.01049868
-0.02683964
-0.02778503
-0.05042730
0.03291669
-0.00513170
-0.05480788
-0.03136466
0.04544622
0.05920166
-0.04768841
-0.04377986
-0.00485501
0.00723705
0.03356934
0.02051703
-0.01599129
0.02268395
-0.01936252
-0.00332037
-0.01280797
0.03726659
0.00749587
-0.00385911
0.03618692
0.01380171
-0.05249851
-0.04372644
-0.01977465
-0.00486895
0.01605743
0.05056752
0.02026116
0.03110415
-0.03263539
-0.05008773
-0.01669426
-0.01684832
-0.01766223
0.05242526
-0.03051211
0.00951716
0.03122129
-0.02535732
0.04555999
0.04927675
0.01239727
0.01265956
-0.04433360
-0.00392814
-0.05283454
-0.02956095
0.02537967
0.03361642
-0.01171636
-0.00983325
0.02852671
0.00423514
-0.04126035
-0.00048887
0.05603194
-0.00646340
0.04696963
0.00452975
-0.02071222
0.05604026
0.05040832
0.04894538
-0.05267288
0.04857092
0.02406863
0.02845039
-0.00113271
0.03365200
0.03490259
-0.00349248
0.05945545
0.02019949
0.04935201
-0.00195279
0.02171104
-0.00402115
0.02924527
-0.01157551
0.04171423
-0.03099335
-0.00003286
-0.04663862
0.03475914
0.02556792
-0.04518088
-0.04710370
-0.01590707
-0.00617895
0.03118083
0.02160152
-0.04523709
-0.01415408
-0.05078068
-0.01057576
-0.05856461
0.02421826
0.05440985
-0.05019401
0.00089880
0.05888556
0.01545767
0.00235682
0.00921683
0.01098106
-0.03630736
-0.03096107
0.04450868
0.00129226
-0.01443921
0.05131379
-0.01411599
-0.05175197
-0.01231569
-0.04459864
-0.02508968
0.04899403
-0.03930132
-0.02633096
-0.00601624
0.02105066
0.04085587
0.04736701
0.06021329
-0.02710831
0.03528163
0.05342330
0.05188716
-0.03549597
-0.02535619
0.03674859
-0.04917321
-0.02941459
-0.00320565
0.02770045
0.03928749
-0.00643809
-0.02538831
-0.01808370
0.05279067
0.03864847
-0.05359465
0.05406785
0.03987779
0.01894671
0.02182736
-0.02508439
-0.04589746
0.06189863
-0.00255443
-0.02967258
-0.05427161
-0.03407435
-0.05356732
0.02291375
-0.05411376
0.05613598
0.01330502
-0.01834625
-0.00200113
0.00583171
0.01407829
-0.02798987
-0.03210588
0.04539774
0.06067911
0.00552406
-0.02572153
-0.05198769
0.02467349
0.02122540
-0.00447465
0.02213080
-0.04345647
0.04499664
0.03250584
0.02398864
0.01759870
-0.03787663
-0.02044510
0.03489509
-0.00957325
0.03531521
-0.03741213
0.02705729
-0.01941839
-0.00712481
0.05850569
-0.01968746
0.06004463
0.02054592
0.04567035
0.01669288
0.03896021
-0.04681293
0.01818587
0.02108204
-0.04798612
0.02585785
0.01680455
0.02462770
0.01996379
0.04378228
-0.04410076
-0.03483522
0.04367619
0.05725516
0.00017976
0.05558190
0.05367720
-0.02746901
-0.00681507
-0.04378455
0.05252341
-0.03407257
0.00738486
0.05802729
-0.03326631
-0.01123203
-0.04046649
-0.01404069
-0.00423651
0.01487819
0.05168343
-0.04725150
0.00071141
0.03161106
0.02285380
-0.02473385
0.04471103
-0.04680207
0.03642688
0.00824640
0.03000207
0.01781964
-0.01762114
0.02923133
0.05972944
-0.01728312
-0.00139444
-0.01000822
-0.03363920
-0.01037195
-0.00625851
0.02917719
0.01861514
0.03125064
-0.03523409
0.00379239
0.02450427
-0.05356972
0.03847484
0.03464962
0.00553859
0.04596354
-0.04151883
-0.05086839
-0.03457424
0.04419905
0.05109747
-0.05078116
-0.04069697
-0.00430997
0.01718049
-0.02646041
-0.01186711
0.03833683
0.04677965
-0.04768756
0.04360620
-0.05504580
-0.02190987
-0.01357239
-0.05451734
0.02374618
-0.05188598
0.02359716
0.02718400
0.03540162
-0.02984271
0.02025955
-0.02371543
0.05900064
0.00657423
0.03626751
0.04630208
0.01535757
-0.03794144
-0.03731624
0.00534700
-0.02569631
-0.00032656
-0.03916606
-0.03418208
0.02742818
-0.01816283
-0.01945780
0.02650215
0.00951185
-0.05028287
-0.00795883
-0.03802510
0.03658140
-0.05633401
-0.04127567
-0.03835612
-0.00774700
0.02031085
-0.02985558
0.01548786
-0.00258767
-0.00961434
0.05197179
0.00354937
-0.00664955
0.04651794
-0.02683464
-0.02962605
0.04807418
-0.03420239
-0.04483344
0.03191970
0.00949054
-0.00510359
0.01112506
0.03586900
-0.03529711
0.02650211
-0.04950008
-0.05379880
-0.03285637
0.01255775
-0.02034187
-0.01647490
0.00132570
-0.00581555
-0.02519833
-0.02673005
0.02604138
0.02448114
-0.00196732
-0.02641438
-0.01231023
0.03159800
0.03508731
-0.00686017
-0.03494654
0.04858017
-0.05055161
-0.00933253
0.05641018
-0.02520959
-0.00167965
-0.02119386
0.04196252
0.03686898
-0.03638948
0.03534639
0.00532620
-0.02740013
-0.00900408
-0.01100257
0.02780854
0.03636845
-0.05384072
0.02886107
-0.01998894
-0.01625138
0.05301976
0.04483894
0.02831768
-0.01883746
-0.04433715
0.02748871
-0.05495935
0.04370566
0.02087791
-0.00925380
0.00737319
0.01340405
0.06129321
0.01561815
-0.01830603
0.05896055
-0.04337145
-0.01318792
-0.00633880
0.04515231
-0.03001134
-0.00806755
0.02756921
0.05370192
0.05518913
-0.04213710
0.03106676
-0.02600705
-0.04334243
0.02951402
0.04994025
0.05042092
-0.05131389
-0.01288563
0.02522535
-0.04512205
-0.00441230
0.01358410
-0.01745658
-0.03687158
0.00354184
0.04218790
-0.05177108
0.02686401
0.04373802
0.03991970
-0.04650674
-0.01733113
-0.03534464
0.00490857
0.00390339
-0.01657406
0.02732350
-0.04335818
-0.02203694
-0.03808388
-0.01221936
-0.04944471
0.03638250
-0.05089556
0.04703315
0.05695390
0.05188024
0.02393429
0.04212395
0.05695376
0.05523086
0.01074036
-0.01874842
0.05916963
-0.00817666
-0.02460952
0.05371173
-0.00184036
0.00205578
0.05722506
-0.02282337
0.03646415
0.01456341
0.05423157
-0.05258195
0.05838283
0.05636097
-0.01796346
-0.02478147
-0.02382512
-0.05235502
0.00405750
0.04176247
-0.01561687
0.02162284
-0.05381862
0.03998946
0.03547213
0.05720884
0.03422380
-0.03849281
-0.02586590
-0.01101874
0.01759357
-0.04596677
0.04288137
-0.03979077
0.02961487
-0.00409478
0.05786885
0.02300067
-0.02170029
-0.04270463
0.03743489
-0.05292069
0.04664280
-0.02796301
-0.02624654
-0.02785626
0.00395395
0.01837548
0.02775726
0.02313668
0.05157433
-0.03134295
-0.01741332
-0.04861452
0.05014919
-0.03756538
0.06014115
-0.04078307
-0.04469981
-0.03065751
-0.05399817
0.01714259
0.00874844
-0.04346576
0.05592654
-0.02833497
-0.03555362
-0.02767704
-0.04068318
-0.02073919
0.00777256
-0.01688042
0.01322655
0.00265465
0.05573300
0.01830824
-0.00095381
-0.05363455
-0.02913285
-0.03259329
0.00737278
-0.02380114
0.05272521
-0.02692763
0.00943957
0.05293432
-0.03690411
-0.02966120
-0.00226547
-0.00646837
0.01873945
-0.01575221
0.05330021
0.02597360
0.05766436
0.00067457
0.01553540
0.02197184
-0.05541304
-0.02267926
0.01685894
0.04322470
-0.03834840
-0.01877201
0.01219264
0.01332750
0.04845036
-0.03046880
0.05877676
-0.01960739
0.02690307
0.01741018
-0.04693493
0.05334662
-0.00442019
0.01519931
0.00649158
-0.00517481
-0.04026869
-0.05210417
0.04656786
-0.00237794
0.02188903
0.02153268
0.00886665
0.06086032
-0.04416358
-0.01519113
0.05024635
-0.03400823
-0.02068771
0.04738738
0.02555643
0.01637968
-0.00435403
0.00648493
-0.01550083
-0.02928877
0.06052956
0.04887425
-0.04265822
-0.02906202
0.01059231
-0.04466091
-0.05076097
0.01975333
0.05271794
0.04310451
0.01534150
-0.05308158
-0.00129284
0.01027121
0.02710479
-0.00365215
0.05611342
0.00798211
0.04451401
-0.02637106
0.05780762
-0.00531786
0.03115375
0.00637619
0.02188080
0.00608952
-0.05540523
-0.01394497
0.05612785
0.03982319
0.03524832
0.05635278
0.02583132
0.03950365
-0.03939906
0.03757026
-0.02158067
-0.00208103
-0.02063996
0.02487984
-0.02680999
0.03140463
0.01875961
-0.05067130
0.00794499
-0.03820554
-0.00743650
0.05498873
-0.04063438
0.02543128
0.00583065
-0.00877853
0.03292528
0.03111171
0.06105849
-0.01274148
0.04622361
-0.01121983
-0.04797156
0.00587123
-0.00675576
-0.04201492
0.02033032
0.02281050
0.02779912
-0.04544036
-0.02301312
-0.05228673
0.05982537
-0.03969210
-0.00190391
-0.03688476
-0.02501542
0.00291709
0.03798151
0.01880398
-0.01752016
0.00317817
0.03278386
-0.00965490
0.00596823
-0.05378430
0.04326557
0.00000840
-0.03595957
0.04001956
-0.01806002
0.00864901
-0.00538852
-0.05568022
-0.02165645
-0.04563297
-0.02568725
-0.01681159
0.03960412
0.05234680
0.02368182
-0.05288221
0.00799369
-0.00173484
-0.04936588
0.03651798
0.05347602
0.03191335
0.04449876
-0.04586857
-0.03225020
0.02222953
-0.03570379
-0.00776763
0.03605324
0.03633883
-0.03424916
-0.04593983
0.04427704
0.04773182
0.04499470
-0.02836261
0.04644630
0.03617122
0.01843156
0.04715469
0.01283984
0.02794711
0.05536705
-0.00173474
0.03592185
0.00362214
0.01750717
0.05294518
0.03713568
-0.01303753
0.01099691
0.02580168
-0.02391544
0.02273097
-0.05722778
-0.00519977
-0.04465991
0.01379894
-0.02183502
-0.00860684
-0.05154005
0.04162787
0.04057479
-0.00932777
-0.03250879
0.04962916
-0.05223637
0.01068992
-0.02502393
-0.00886558
-0.05129692
-0.05062704
-0.00867238
-0.02048271
0.04255085
-0.03279647
-0.03628586
-0.04324997
0.02375697
-0.04402710
-0.01148409
0.04782055
-0.01046924
-0.03232301
0.02669868
0.05971521
0.03856659
0.05394725
-0.05381403
-0.00949474
0.01532062
0.00252730
-0.00560950
0.04015701
-0.03792692
0.01420737
0.00686856
-0.00529620
-0.03166490
-0.00554549
-0.04584746
0.02421561
0.00445348
-0.01421317
-0.03125812
-0.00934121
0.02566121
0.01941008
-0.03696549
0.03590739
0.04480755
0.03681673
-0.03330896
-0.00898199
-0.02846100
-0.02943066
0.05723194
0.01323660
0.03172304
0.01993140
0.03980348
0.05459018
-0.04681289
0.05826844
0.05294107
0.02901245
0.01219779
-0.05421804
-0.02688077
0.01241653
-0.01207462
-0.02473284
0.04008486
0.04955100
-0.04781847
0.02911529
0.04894553
-0.05479803
0.01227041
-0.01247016
0.00880628
-0.04688852
-0.03518344
-0.02797623
-0.01516382
-0.02473273
0.03512808
-0.04915286
-0.05513063
0.05003728
-0.01252636
-0.01008171
0.03734639
0.02290769
0.01737564
-0.00382855
0.04280383
-0.05924877
0.04047481
-0.03648244
-0.02075871
-0.00591947
0.05134748
-0.05081654
0.01691511
-0.01379383
-0.00015427
0.04451224
0.05754952
0.00479621
-0.04996663
0.05345517
0.03497790
-0.05986639
-0.05883545
-0.03542279
0.03148603
-0.01191195
0.02590262
0.04842188
-0.00260839
-0.04701484
0.03485583
-0.05202817
0.01573842
0.02152112
0.02475005
0.00814661
0.03113082
0.01965227
-0.05472660
0.05619749
0.05446428
0.05510686
0.01337659
0.01307289
-0.02876592
-0.05016018
-0.03603919
-0.05999675
-0.00696339
-0.03171701
0.01021156
0.01373830
-0.05150852
0.03477444
0.00330548
0.05882448
0.05860608
0.05100181
0.00469080
-0.00390172
0.03428466
-0.04395569
-0.05379343
-0.03093675
-0.05898765
0.05614927
0.04442919
-0.01137818
-0.00275057
-0.00394218
0.01894111
0.04185971
0.02054925
0.04340947
0.05781349
-0.04081950
-0.00537286
0.05286163
0.01224549
-0.00057090
-0.01736023
0.00086554
0.03735878
-0.00936451
-0.02114746
-0.03214991
-0.01603551
-0.04698380
-0.05730247
-0.01055402
0.02704983
-0.02077021
0.04604753
0.01461029
-0.04879753
0.00392716
0.05732808
-0.05800508
0.02858961
0.04410790
-0.05257501
0.02949123
-0.00866661
0.00989164
0.04446378
-0.04401801
-0.01787555
-0.05493272
0.04273604
0.04583863
-0.02037105
-0.02253327
0.01630659
-0.00098254
-0.03170637
0.02163690
0.01701396
0.02128711
-0.04502120
0.03230239
-0.05553723
-0.04701083
-0.01979478
0.05744949
0.04465884
0.01356168
-0.01210009
0.00274540
0.01996987
-0.00079835
-0.04286806
-0.00712045
0.04165594
-0.04085797
-0.05610887
0.04426755
0.03315693
-0.03267559
0.01176742
-0.05203522
0.04882791
-0.02253378
-0.01416771
0.03156478
-0.03268148
-0.05222983
-0.00437765
0.01949431
-0.05421007
-0.01388361
-0.04271988
-0.03769249
-0.03654493
0.00921994
-0.04081880
0.02712864
0.00882732
0.02809373
-0.00013857
-0.02787140
0.01329778
0.04251949
0.03110885
0.01791345
0.03782445
0.05443607
-0.01012869
0.00751479
-0.00791179
0.04504936
0.03504940
0.05112537
-0.05724551
-0.05047415
0.03182053
0.04660353
0.02068397
-0.01529182
-0.02320275
0.01858340
-0.04834736
0.02879873
-0.01785399
0.01072608
-0.04941330
0.04610164
-0.03939246
0.01479291
0.04036317
0.00041604
0.04082818
-0.02287167
0.02400661
0.03762687
0.03068699
0.00203434
-0.00014031
0.05154768
0.01110120
0.00528210
-0.03237515
-0.01978903
-0.03912909
0.04791892
0.00789707
0.03441853
-0.01672846
0.02978284
0.04335279
0.01162573
0.05182783
0.04750264
0.05462409
-0.02544649
0.04609169
-0.03096673
0.04327149
-0.03983437
-0.02802602
-0.00805342
0.01145309
-0.03090931
0.03908620
-0.04320854
-0.00986700
0.00078190
-0.05205396
-0.00224144
0.05640333
-0.04384007
0.03168201
-0.01518717
-0.05802067
0.03045321
-0.03172957
-0.00942620
0.00012812
0.04671007
0.04282795
-0.02975870
-0.00331913
-0.04960546
-0.05441066
-0.02838254
-0.02822405
0.02292294
-0.01397673
0.02842578
0.00627003
-0.03947527
-0.03098625
0.01793563
-0.03758059
-0.02583997
0.03628947
-0.02670136
0.02669835
0.01252377
0.04824473
-0.05169858
-0.05015283
0.01206320
0.05065338
0.00833195
0.03817163
-0.03816614
-0.00794151
-0.01745171
-0.04060547
-0.02003403
-0.00072115
-0.00120584
-0.02861575
-0.05507643
-0.04740586
-0.00510378
0.01803178
-0.01456957
-0.04824959
-0.00497830
-0.05173806
0.01222873
-0.04187004
0.05006784
-0.03688941
0.01534293
0.04384640
0.05028243
-0.04810871
-0.01041190
-0.00605706
0.04955586
-0.00856193
-0.03618933
-0.00191250
-0.00977912
-0.02378996
-0.05669137
-0.00250357
0.03818955
0.02193696
0.00766709
-0.05552268
-0.04718135
0.03629570
0.01945674
-0.00538799
0.05160815
-0.02206165
-0.00028235
0.01556383
0.04230011
-0.04650914
0.02016738
-0.03307173
-0.04855145
-0.04800009
-0.03916510
-0.04913126
-0.05543422
-0.00414275
-0.05046327
0.01339106
-0.02902893
0.01793372
0.02402467
-0.02538003
-0.00991204
-0.04482839
-0.01140267
-0.02222942
0.05371058
0.00902940
-0.03146158
-0.04072894
0.04034127
0.00851627
-0.03857023
0.01622848
-0.02886844
0.02196871
0.04671469
-0.04965840
0.04851019
-0.04348880
-0.05419236
-0.01310105
0.02530993
-0.02082734
0.03824877
-0.03213931
0.01751453
0.04163371
0.05008225
0.02977842
-0.05740966
0.02910887
-0.04736270
-0.00358088
-0.04983369
-0.00130752
-0.04925456
-0.04268757
-0.05521467
0.03261868
0.05544023
-0.01516971
-0.02664047
-0.01124614
0.02688150
0.03798059
0.01459187
0.03362592
-0.00702522
-0.00796862
-0.04771532
0.05015428
-0.01449808
-0.03324571
0.00195939
-0.04548797
0.02629214
0.05742256
-0.02462948
-0.04581207
0.02605377
-0.00976155
0.01014772
-0.00628257
-0.04586715
-0.01320350
-0.01966803
0.03570578
-0.05728339
-0.04547362
-0.05137699
-0.05814868
0.01160115
-0.04553811
0.00662280
-0.00752272
0.00863125
0.00752012
-0.03543281
0.05320794
0.03763968
-0.04079280
-0.03421714
0.04456183
-0.05453343
-0.02365227
-0.05506562
-0.02022638
0.02396291
-0.01732945
-0.02275417
0.05230867
-0.01132683
0.02714035
0.04585123
0.03773081
-0.01293194
-0.02875536
-0.03820518
0.02170564
0.05396840
-0.02036307
-0.01814552
-0.03515426
-0.05785693
-0.04765438
0.00772354
0.02022810
0.00035844
-0.00499617
0.02326545
0.05117930
0.00453802
0.00542917
0.03642050
-0.03784467
0.02944273
-0.00049469
-0.03204921
-0.00859837
-0.02586285
0.00397050
-0.04762984
0.00215553
-0.02754154
0.04364821
0.04541728
-0.01762294
0.05757048
0.05722858
-0.02552690
0.04673314
-0.00488185
-0.02705560
0.02748279
0.01165587
0.01767273
-0.02297115
-0.00180291
0.01181725
-0.04018239
0.00594331
-0.00330986
-0.02845532
-0.00412771
-0.00499193
0.00527820
0.02600687
0.05479556
0.05573218
-0.01936096
-0.02917142
-0.01345706
0.02827295
-0.01483982
-0.02355546
0.02446391
0.03233005
-0.00531665
-0.02293902
-0.04252274
-0.01897218
-0.04636708
-0.04218337
-0.03450682
0.05478407
-0.01694398
0.00138408
0.05774177
0.04728242
-0.04494877
0.01076720
-0.04995660
0.00132624
-0.03639528
0.04004946
-0.00523028
-0.01580720
-0.04706142
-0.03871219
-0.02320428
-0.05074970
-0.03967942
0.02529089
-0.01488346
-0.02412496
0.00614323
-0.02248749
0.04949196
0.00168609
-0.05147514
-0.01321079
0.04437042
-0.00199006
-0.01370550
-0.01857349
0.03935595
-0.04525906
0.03190869
-0.00754340
0.01679298
-0.00418624
0.04316325
0.03125512
0.01827631
0.01451299
0.03668660
-0.01175577
0.03456831
-0.01169503
0.05296396
-0.00581185
-0.02510917
0.00700494
0.05479733
0.04779446
0.04843780
-0.00191355
0.05364460
0.05136925
0.04282365
0.01378089
0.05086677
0.05161013
-0.04899015
-0.01335032
0.04388082
-0.04758886
-0.05905880
-0.01309603
0.00448371
0.00242637
0.01849092
-0.01526985
-0.01407173
0.04862109
0.05564355
-0.05545886
-0.01909070
0.00822057
0.03795143
-0.04248699
-0.02059882
0.04878529
0.04305200
-0.02710327
-0.05290632
-0.02468563
-0.02324775
0.05166915
0.02221678
0.05530684
0.00942889
-0.01124496
0.01072933
0.01189828
-0.01963878
0.04444219
-0.02371304
-0.02775861
0.04120684
-0.01291628
0.02648221
0.00662938
0.02085027
-0.01107143
0.00945573
-0.00392025
0.05124705
-0.01000762
-0.02145889
-0.01732433
0.03677840
0.01631795
-0.01529685
-0.03696044
-0.00124115
-0.02766883
-0.01861880
-0.05216409
-0.01293960
-0.03244713
0.03082488
0.00762058
0.00278906
-0.03604133
-0.05401526
0.01161610
0.04901436
-0.00654602
0.04445733
-0.00959899
0.00667441
-0.01559350
0.00673393
0.03855141
0.01643199
0.02209118
-0.00123611
0.00464276
-0.05122886
0.02364289
-0.01538913
-0.03541680
0.04232544
0.05044742
-0.04415682
-0.00758046
-0.02658271
0.02831779
0.01985293
-0.04895130
-0.00494550
-0.03258147
-0.03903326
-0.04754597
-0.04863467
-0.04165727
0.00311660
-0.02895841
0.00409590
-0.02954001
-0.02038480
-0.05821434
-0.05136280
-0.01299252
0.01952818
0.02266046
-0.04701922
-0.00956137
0.05398306
0.01679938
-0.03697773
0.05909226
0.05291581
-0.01043350
-0.00701914
-0.00701590
-0.04779302
-0.00361807
-0.04385926
-0.04064800
-0.02961010
0.03297422
0.00416597
-0.05236266
-0.03376183
0.00432201
0.00163174
0.02783165
-0.00626454
0.04888489
0.05221120
0.01072685
0.03291898
0.05827479
-0.01140511
0.05118176
-0.03088203
0.01151158
-0.02429109
0.05277267
-0.03962313
-0.01122701
0.04781339
-0.04908949
-0.04506393
0.01599027
0.00585845
0.03902742
-0.00730032
0.05278096
-0.03753610
-0.05241982
0.03476110
-0.05474786
0.02882256
-0.05289919
-0.02404941
-0.03241194
-0.04967197
-0.05669913
0.03291572
-0.03269856
0.01368057
0.00920404
0.00220402
-0.05580225
0.04140272
-0.01942685
-0.00883440
-0.04620844
-0.03454724
-0.04239841
0.02329638
0.04470599
-0.00317696
0.02302636
0.04736593
-0.01578117
-0.01386662
0.02441740
0.01534449
0.04769835
-0.02606106
0.03159123
-0.04777277
-0.04693336
0.05353308
0.00860913
-0.05551491
-0.00320979
0.00004673
0.02737823
0.03788927
0.01064236
-0.00215287
-0.03999373
0.02229336
0.01718844
0.01141756
-0.05547915
0.01987758
-0.03216993
0.00803987
-0.04520560
-0.02596288
-0.05363907
-0.03006593
-0.01542712
0.00947342
0.00767829
0.01036357
-0.04829746
0.01042439
0.05424458
-0.00114743
-0.01803166
0.04701189
-0.00046734
0.01872584
0.05361478
-0.03100961
-0.03078694
0.02009367
0.01542536
-0.00744975
0.00923743
-0.01137726
0.02394830
-0.00152999
0.04504450
0.03352365
0.01027571
-0.01273547
-0.04712881
-0.00505426
0.04993728
0.03904337
0.01651274
-0.05099428
0.02740353
0.05741145
0.03579516
-0.04077772
-0.00595468
-0.03105372
-0.01087764
0.02985726
-0.05473802
-0.00397133
-0.05301675
-0.01129822
-0.00541386
-0.03789996
-0.04358282
0.05264561
0.05740028
-0.01680383
0.03632251
0.04284737
-0.04219112
0.02898613
-0.03282150
0.03996929
-0.01160986
-0.00102094
0.03757420
-0.03804390
-0.03974147
0.02453401
-0.02548094
0.04228045
0.04415445
0.01530116
-0.02281119
-0.00591439
-0.00030700
-0.01429573
-0.02461301
-0.02718634
0.04922150
-0.03482411
-0.01273825
-0.05527023
-0.02508874
-0.04448857
0.00245331
0.00823826
0.03181692
-0.01150036
-0.04863188
-0.00953629
-0.00942055
0.06034490
-0.04385116
0.03899515
0.05283834
-0.03232916
0.03121766
-0.02882958
0.02119011
-0.01654712
-0.04792571
-0.03945085
-0.00870455
-0.00631802
0.05510802
-0.02347847
0.02649122
0.03182349
0.00024791
0.05601183
0.04746766
0.05451140
-0.02447563
0.03994109
0.05306999
0.00449803
-0.04541772
-0.01830338
-0.03373746
0.03771599
0.01073567
0.02688092
0.04993233
-0.03757178
-0.03778411
0.01313906
-0.00106013
0.01255359
0.04208178
-0.04774536
0.05774586
-0.03538411
0.00445041
0.05572464
-0.04737311
-0.02855126
-0.02888091
0.05513577
0.03497425
0.06009656
0.03730467
0.05651810
-0.01205212
-0.04280509
0.00652000
-0.00722657
-0.00786119
-0.02293958
0.03818453
-0.01890803
-0.00066064
0.05673629
-0.01188734
0.05647340
0.00631424
0.01309844
-0.00185401
-0.01853820
0.05028499
0.04085891
0.05011300
0.01199236
-0.05612840
-0.05443642
0.03431387
0.03645672
-0.05148077
0.02599934
-0.04887549
-0.05572459
0.02031669
-0.03213097
0.05560488
0.01498096
0.05824832
0.03766938
-0.04981431
-0.04543541
0.01980085
-0.04464034
0.06224154
0.02640592
0.05462160
0.02820739
0.00124464
0.04882689
-0.04204240
0.04750224
0.03200087
0.00923374
0.00588505
-0.01969492
0.01408803
0.05876906
-0.04647318
0.03095813
0.01408705
0.00304993
-0.00061671
-0.01831405
-0.03329848
0.03367866
-0.03952685
-0.01472973
0.00542449
0.03135311
0.03853919
-0.03861108
0.04632873
-0.00509529
-0.01203617
0.05123163
-0.05716782
-0.00583271
0.00276665
0.01186933
0.02264591
-0.03233427
-0.02893757
0.03967425
0.04197450
-0.02700269
-0.01218061
-0.05380365
0.00096605
-0.05128767
-0.01591969
-0.02053831
0.03499643
-0.01972088
0.02361504
0.03202096
0.01320562
-0.02567454
-0.00798497
-0.02390658
-0.00140515
-0.04079868
-0.01826076
-0.03569574
0.05529676
0.00144546
-0.03049278
-0.04606857
0.05454082
-0.00891106
0.03544746
0.04409875
-0.03717055
-0.03167536
-0.04307471
0.01168093
0.03806175
0.05268157
0.02347654
-0.01405509
-0.03368166
0.00286063
-0.04613283
0.00349511
-0.03375515
-0.00968426
-0.04466021
-0.02530579
0.04819058
0.05036763
0.00978474
-0.05057340
0.02770471
0.04783813
-0.02521569
-0.04010431
0.05630543
-0.05150288
-0.03246283
-0.05476340
-0.00615442
0.03868653
-0.01632577
-0.00606571
-0.02444847
0.04655031
-0.02889631
-0.04392424
0.03197535
0.04798641
-0.01980481
0.01066568
-0.02077056
-0.00163415
0.00216848
-0.04698120
-0.05630202
-0.00831379
0.00505153
0.00330421
0.05713268
-0.04260094
0.06088888
-0.04464469
-0.02816779
-0.02511118
0.01801924
0.05636717
-0.05734409
-0.02608029
0.00814411
-0.01804601
-0.05549977
-0.05052468
-0.02900884
-0.02619238
-0.02257508
0.06096607
-0.01341790
-0.02924670
0.01663406
0.05753728
0.03616157
0.03566675
0.00981310
-0.04063299
0.05367823
0.05413831
-0.01731811
-0.05212730
-0.03035604
-0.03808060
0.05073364
-0.00428590
0.03727871
0.00735849
-0.01109240
0.02742487
0.02295037
0.04733702
0.03966530
0.00734621
-0.04756536
-0.02992253
-0.03396454
-0.01798523
-0.04984752
0.02563463
0.04934031
-0.00390077
0.03346309
0.00242377
0.01393947
0.05816143
-0.05469486
-0.01733241
-0.03356110
-0.03640179
-0.00794132
0.00822164
0.02279575
0.00792060
-0.00812678
-0.02629998
0.05548354
0.01692861
-0.03876561
0.01388978
-0.02517121
-0.02815497
0.03646472
-0.01108729
0.01780687
0.02183489
0.01015600
0.05548651
-0.01746395
0.00398864
0.00345126
-0.00203903
-0.03102587
0.00674728
0.02938934
0.03853622
0.00922832
0.01981046
0.04094815
-0.04782874
-0.00836015
-0.01753841
-0.03006646
0.05637601
0.01894396
0.02439988
-0.03432172
0.01703957
-0.00584386
0.03461877
0.00875448
0.00931651
0.04939751
-0.01569371
-0.03795351
-0.02091380
-0.04483507
-0.02427099
-0.01997173
0.04596592
0.03250536
0.04016219
0.04552794
0.03912237
0.05170268
-0.00953685
-0.03504679
0.02234470
0.00469721
0.03450898
-0.03476292
0.02710637
0.06041147
0.02013344
-0.01165050
0.00006667
-0.03672745
-0.01752177
-0.01555533
-0.01282317
0.04991565
0.01987300
-0.04530985
-0.02704705
0.03896181
-0.01994305
0.02409561
-0.00116584
-0.01356029
-0.03192169
-0.05613998
-0.01525297
-0.00583018
-0.03156286
-0.05129643
0.05699673
-0.01628198
-0.01053711
-0.05157453
-0.01527545
-0.03015722
0.00009713
-0.03274526
0.05721473
0.00511395
-0.05713044
-0.02188489
-0.02854319
-0.02786181
-0.04023856
0.05764109
0.02539931
0.02734479
-0.01153889
-0.01714125
0.01109958
0.04706834
0.00440149
0.00479413
-0.01971477
-0.05160014
-0.02535063
-0.01620783
0.01224053
-0.00690240
-0.01352888
-0.05323016
0.05335236
-0.04079824
0.04631932
-0.02350505
0.05536759
-0.04262547
0.02899185
0.01142387
-0.02066861
0.02220352
0.03319153
-0.01581750
0.03744315
0.03964582
-0.02638113
-0.04486739
-0.05513569
-0.01144296
-0.00029754
0.05139028
-0.05388885
0.00184572
0.05903346
0.00092669
0.02958724
-0.04877748
0.00510755
-0.01111340
0.01661053
0.04159181
0.02118885
-0.01177729
-0.04713801
0.02765212
0.02114354
0.03292549
-0.03872727
-0.02784537
0.00916351
0.04112277
-0.01996996
-0.02517941
0.02831725
0.00407880
-0.01230017
-0.02354411
-0.02919119
-0.04380751
-0.04635769
-0.03435865
0.00958931
0.02751761
0.02201496
0.05569958
0.04620300
-0.04368262
-0.05229155
0.01154378
0.04839978
-0.00315890
-0.01375566
-0.02253532
0.00803646
0.02433519
-0.03338848
0.00529134
0.03302911
-0.01138106
0.00492467
-0.01561302
0.01746076
-0.01006988
-0.02525403
-0.05126993
0.02101549
0.04230971
-0.05139042
-0.01665994
0.01228533
0.01060937
0.05534364
0.04846669
0.02040518
-0.05374549
-0.01633163
0.03833921
-0.02377540
0.01110819
0.02807675
0.03262857
-0.01358718
0.01340503
0.03760054
-0.00747511
0.03081412
0.05566783
0.05048035
0.01943508
0.00474316
0.00806537
-0.03145858
-0.00434066
-0.03530571
0.04911799
-0.03377238
0.04350204
0.02193629
0.04365445
0.02311395
0.02721095
-0.04392264
-0.01855530
0.05760472
0.01483478
0.04982742
0.05423342
-0.04734904
-0.00034627
-0.00425704
-0.04181892
-0.00767158
-0.02739944
-0.04696215
0.05204015
-0.00455642
0.04996036
-0.03511941
0.05451261
-0.03835889
-0.05605900
0.01478375
0.03904859
0.01568966
-0.05808768
0.00053153
-0.00320160
0.01105470
-0.00415328
-0.00453945
-0.05820601
-0.02261435
-0.02053899
-0.00103738
0.05480388
0.03693338
0.01647723
-0.00746483
-0.00198632
0.05873076
-0.00951337
-0.05145085
-0.00481331
-0.05462432
0.02864408
-0.04355390
0.02157320
0.04932423
0.02377299
-0.03975773
-0.00755256
-0.01668484
-0.01952916
-0.01491247
-0.04323966
-0.05094276
0.02665172
-0.04306791
-0.04990745
-0.05234109
0.02266308
-0.00427459
0.00602621
-0.02011158
-0.01345836
-0.04649535
-0.03684219
-0.00829376
-0.02139916
-0.01548683
0.01984178
0.00357911
0.01321592
-0.03953900
-0.02228298
0.04034249
0.01039394
-0.04083773
0.03350449
0.00932101
0.01160996
-0.04056366
0.04438121
0.04488976
-0.03346627
-0.03880482
0.04686204
-0.04889943
0.03178472
-0.03842878
-0.04648273
0.00693363
0.00079077
0.03542015
-0.04009048
0.04104747
-0.03749693
0.03624966
0.03776419
0.04706248
0.05328077
-0.00363200
-0.01102056
0.01423804
0.01762394
0.02686693
-0.01093484
0.04845557
-0.03751626
-0.01793641
0.01402352
0.05273217
-0.04400864
0.00723150
-0.04541417
0.01095387
-0.02204662
-0.00108534
0.04514214
-0.02646019
0.02285256
-0.00679973
0.05641451
-0.02680777
0.02575862
0.01432770
-0.02474765
0.05808742
-0.05037509
0.05149366
-0.04808950
0.02733405
-0.02776673
0.02995121
-0.01759532
0.01384648
0.04713149
-0.00232407
-0.03206578
0.05738716
0.05254978
-0.01811238
-0.00437034
0.04255846
0.04421191
-0.05510608
0.05343335
0.01631395
0.02548120
-0.01258700
-0.04426407
-0.01800417
0.01362533
-0.04703300
-0.05249404
-0.00612351
-0.02199414
0.02441476
0.02607027
-0.01719538
0.03000723
-0.01389595
-0.00999970
-0.04330518
-0.00314728
-0.02546282
0.01573787
-0.00999540
-0.03901550
0.02188992
0.04938174
-0.03262078
-0.01247513
0.03336756
-0.01378844
-0.05701962
-0.01258621
-0.00774745
-0.02456425
-0.01727488
0.02694744
-0.04790179
-0.00202532
-0.00138387
0.04415025
0.00999647
-0.00143349
-0.03144040
-0.05596572
-0.02185584
0.05642869
0.04967328
0.04771806
0.01352707
-0.03622840
-0.03540429
0.00216635
0.02172823
-0.02067239
-0.04192194
0.02663584
0.01968221
-0.00249001
-0.02006654
-0.04483169
-0.04689836
-0.05051712
0.00048241
0.01268537
-0.03154378
0.05206449
0.03488935
-0.04096534
0.03158182
-0.01245417
-0.00669641
-0.04952807
-0.04439881
0.00674187
-0.00377809
-0.01244187
-0.05561845
-0.05421032
0.03397239
-0.05383642
0.05433463
0.02882905
0.04907596
0.05715352
0.01437278
-0.05397611
0.04436471
-0.00010663
-0.02728853
0.05906658
0.03235444
0.03305257
-0.01579211
0.03156095
0.01232589
-0.00211349
-0.05636487
-0.03638563
-0.02773729
-0.00165023
-0.02378627
0.02460195
0.05768560
0.05847084
-0.03558758
-0.00890539
0.01740539
-0.02426760
0.01477817
-0.04581488
-0.04608047
-0.03470546
0.01664586
-0.04075264
0.01762160
0.02329169
-0.01779664
0.03439398
0.05832640
-0.04677840
-0.02236218
-0.05572933
-0.03927743
0.03170099
0.05261683
-0.01531704
0.03723365
0.00739790
-0.05461626
-0.00596013
-0.05568332
0.00806168
0.04953248
0.04519482
0.00803002
0.02407240
0.02986706
0.02686338
-0.01359947
0.03489159
0.00456997
-0.05305891
-0.04201917
-0.04797968
0.01815048
0.03205091
-0.02806088
-0.04485833
-0.01647566
0.00164048
-0.04148143
0.00573888
0.01815774
0.01969144
0.00442735
0.01059250
-0.00508189
0.02011384
0.03587140
-0.03316545
-0.02496155
0.01981684
-0.04128401
-0.02153686
-0.04359469
0.05983160
0.01342205
-0.02920328
-0.01249470
0.05665917
0.04379892
-0.03711372
-0.04134366
0.05553843
-0.01137424
0.06006758
0.03482886
0.05472144
0.05413635
0.02241051
0.05701951
0.01276572
0.05553967
-0.02394862
-0.03706257
0.02740360
-0.01320386
-0.03775940
-0.02268473
0.03634730
0.04104220
0.02548335
-0.00891175
0.00271656
0.04816414
0.05663684
-0.01751670
-0.04803289
0.04395887
-0.01243642
-0.01287245
-0.01666637
0.00763558
-0.01412563
0.01473989
-0.05529057
-0.00751088
0.05099240
-0.01536084
-0.00204925
-0.00248432
0.01268346
0.02389971
-0.01439267
-0.04610101
0.00750760
-0.00888456
0.04320669
-0.03657057
-0.00095300
-0.01360356
0.04925195
0.04343685
-0.02603683
0.02923127
0.05598047
0.03011103
-0.01962900
-0.01182570
-0.02794577
0.02886124
0.03250432
-0.04104357
0.05865787
-0.05086709
-0.00485997
-0.00033965
0.04611394
0.01110704
-0.04601765
-0.01528403
0.02299273
-0.05372221
0.00366333
-0.02075864
-0.01687687
0.03233547
0.01776007
0.01030600
0.00924150
0.04581961
-0.03887567
0.01984845
-0.03774678
-0.04695686
0.02177626
0.00205905
-0.03741626
-0.03428630
0.02785390
0.02429924
0.01030262
-0.05075294
-0.00973598
-0.01602346
0.03697885
0.05827837
-0.04224842
-0.02100535
0.00599226
0.00400467
0.01902458
-0.03391433
-0.03740612
0.01072654
0.00890826
-0.03790383
0.00243032
-0.01205096
-0.03259262
-0.01217944
0.05747491
0.03540652
0.04655191
-0.04382413
0.04118637
-0.02046396
0.04329321
0.01978046
0.01770212
-0.04408690
-0.00478419
-0.00127943
0.02576434
-0.04808081
0.03278961
0.04752649
0.01169364
0.01464513
-0.03901334
-0.03418717
0.04464369
-0.04620518
-0.05375852
0.03850876
0.05098210
0.03692966
-0.05286652
0.05213963
0.02296665
0.00797667
0.04834235
0.04389240
0.05623009
-0.03220750
0.02468569
-0.02047119
-0.03234756
-0.04433404
0.02445262
0.01788748
0.04173094
0.01255379
0.04941030
-0.02241538
-0.04307265
0.04034402
0.05199089
0.02799368
-0.02716572
-0.00535248
-0.05167865
0.01651474
0.02673970
-0.00837710
0.02090730
-0.04828205
-0.04521801
0.02568251
0.04403537
-0.04956597
0.02045077
0.00927427
0.04176574
-0.02376649
0.03720797
-0.03702508
-0.03231368
-0.03223350
0.02247599
-0.02751315
0.04013129
0.01895686
0.05299863
-0.01143137
-0.00672573
-0.00767951
0.02730528
0.00757023
0.01976646
-0.00188964
-0.03946698
-0.00657787
0.04484207
-0.02904198
-0.01379858
-0.00859374
0.04581815
-0.04848218
-0.04535377
-0.02383339
-0.02169794
0.02104408
-0.01509438
0.04193785
0.00665905
-0.03358395
-0.05222513
-0.00684814
0.04844547
-0.05287953
-0.05663936
-0.01847695
0.01533090
0.00688388
0.04234275
-0.04927074
-0.03528709
-0.03576446
-0.00095087
0.03187000
0.00689607
0.00393953
-0.01808292
0.03993347
-0.05495769
-0.02200091
0.02442596
-0.04737987
0.05328746
0.00029047
0.00863237
0.03961519
0.03863359
0.02548418
0.05587809
0.01962988
0.04497369
0.04275119
-0.01617274
0.04440881
-0.04526677
0.00372864
-0.05518388
0.04973397
0.05724004
-0.03142066
-0.01149433
0.01451615
0.02534031
0.05153954
-0.05536351
0.00180999
0.02608972
0.02214394
-0.01401605
0.04838390
-0.01554699
0.01974771
-0.05219738
-0.05195018
0.05133077
0.04014684
0.03260090
0.02401801
0.00981549
0.02927270
-0.03080249
-0.04862799
0.00543037
-0.03922198
-0.05831887
0.00764858
0.05299340
0.00981788
0.03980376
0.01087279
0.01789226
-0.02118871
0.00830239
0.01034078
-0.02103806
-0.04941342
0.03023047
-0.01397691
-0.01821808
0.00375242
0.04051306
-0.02702956
0.05424077
0.02724623
-0.00750910
-0.00927446
0.05865975
-0.02213417
0.05646130
-0.04287662
0.04910282
0.03113352
-0.05084083
0.00215548
0.01689794
-0.02975086
0.04581982
-0.02882410
-0.02560543
-0.05252044
-0.03814311
0.01244661
-0.01970247
0.00779815
0.05012798
0.04598764
-0.04447382
-0.05339010
-0.00759595
0.02987618
-0.05160118
0.05849820
0.05872682
0.00214279
-0.01146251
0.00417170
-0.02796783
-0.02157779
0.02724171
0.04693104
-0.04602627
0.05581593
0.04739019
-0.05204140
-0.03541330
-0.05757748
-0.05086914
0.05693133
0.05582030
0.01582782
-0.01599770
-0.04409993
-0.03437357
-0.05091894
0.00649812
-0.01887167
0.00837535
0.04889223
0.01378003
-0.01958344
-0.01452382
-0.00475551
-0.01454891
0.04825118
-0.02741095
0.03367079
-0.05556067
-0.00119061
0.01553875
-0.02798618
0.03883140
0.04747477
0.02027140
0.04947588
0.04495280
-0.04045904
-0.01638410
0.03714144
0.02535786
0.00185771
-0.04922630
0.01356890
0.06165169
0.03277295
-0.05386761
-0.03263923
0.01579676
-0.03371765
0.00595446
-0.01559848
-0.02505512
-0.05474560
0.03691352
0.04334591
0.03774051
-0.03733987
0.03822297
-0.02942722
-0.05143958
0.02496830
0.00068758
0.05411134
0.05062987
0.06181760
0.00949559
0.03042013
0.02887454
-0.04603165
0.05509150
-0.00254819
-0.03486576
0.01961398
-0.05373445
0.03080324
0.02905709
-0.04704618
0.02822976
0.01954163
-0.03327063
-0.04496845
0.02838868
0.01904023
0.03418767
0.00314188
0.04586191
0.04006480
0.01273745
-0.00416848
-0.03123485
0.01648461
-0.04189885
-0.02961116
0.04627683
0.03629749
0.04341289
0.02563990
-0.02184464
-0.04638034
-0.04040389
0.06002765
-0.04064452
0.03256875
0.03048994
-0.03820603
-0.03891940
0.03888378
-0.00359675
-0.03231429
-0.04329161
0.01119384
0.02352400
-0.00302481
0.04589513
0.03421007
-0.00652921
0.01767544
-0.05180097
-0.05522380
0.01434291
0.04703521
0.04362696
-0.00113415
-0.03050039
0.03435281
0.00721354
0.06165831
-0.03981489
0.05328268
0.01326738
-0.04921483
-0.05186180
-0.03431094
0.01380324
-0.00953043
0.05725862
-0.00791570
-0.05459537
0.00142222
-0.04272309
0.00051308
0.01547259
-0.01011356
0.05984387
0.03856528
-0.00805409
0.02707437
-0.04311146
-0.01792347
0.01420409
0.06059716
-0.01346080
-0.03695640
-0.04809955
0.01159673
0.00438712
0.03767500
0.01367945
-0.00902462
0.01441096
0.03290213
-0.02447699
-0.03846847
0.00772968
0.04015892
0.06027893
0.04277359
-0.01019011
-0.03472010
0.00984496
0.04959094
0.03482335
0.06144284
-0.04983014
0.00488917
-0.05338718
0.02698343
0.04400802
-0.04529014
-0.04504471
-0.01984160
0.02553533
-0.03059337
0.00933555
-0.05484838
-0.00480364
-0.02048959
-0.05042772
-0.01197821
0.02181680
0.02024215
0.01753029
0.02333366
-0.04970858
0.01575005
0.04622635
0.03236248
-0.01246500
0.00529452
0.04457264
-0.05724813
0.05814857
0.02127883
0.01467559
-0.01107784
0.02190222
-0.01639415
0.04776579
0.05626142
-0.02643652
0.01186133
-0.00443316
0.00628396
-0.05324664
0.00179783
0.04007752
0.05276404
-0.03282209
-0.02184132
0.00281043
-0.00784544
-0.05170260
-0.01318648
0.00732716
0.03395708
0.02443195
0.02305745
0.00858639
-0.04039726
0.05219534
-0.01745475
0.02872579
-0.04227008
0.00019464
0.05621877
-0.05240094
-0.02395019
0.02053575
-0.05690838
0.02537755
-0.04849175
-0.04265806
-0.00748966
0.05642053
-0.02629339
0.00510628
-0.04971926
-0.04921262
0.05686903
0.01097442
0.03256654
0.00821250
-0.00210452
0.00768005
-0.01088975
0.05506991
0.01104901
0.02808684
0.00253208
0.00495228
0.00104687
-0.02240256
0.05965049
0.01229430
-0.03028954
-0.01652321
0.04977054
0.03759011
0.03356288
-0.00406340
0.01248069
0.04120053
-0.00631692
-0.01154119
0.03225702
0.00082187
-0.03404277
0.05598519
0.05560407
0.00515312
0.04536924
0.00567037
-0.05501124
0.04170198
-0.05098778
-0.05405608
0.00995318
0.05928250
-0.02797714
-0.03812816
0.04205354
-0.00705515
0.04857711
-0.03022917
-0.05444045
0.03541352
0.04225137
-0.04903303
0.04859123
-0.04669623
0.00886382
-0.00267201
-0.00301682
-0.01351664
-0.02898987
0.02195235
-0.00370016
0.04360730
0.01537936
0.02972601
-0.01859055
-0.01928837
-0.02583604
-0.02195844
0.05707390
0.04751538
0.06044878
-0.03844779
0.01378193
0.00414119
-0.05422746
-0.04078338
-0.00050511
0.00777021
-0.04973865
0.02189317
0.03795777
0.00638609
-0.04357690
0.04651786
-0.02505816
-0.02323607
-0.02344550
0.03140362
0.00192015
-0.01640497
0.01627707
-0.05550441
-0.04671540
0.04867928
-0.01798595
-0.00183959
-0.00473944
-0.04821914
-0.00338760
-0.04752285
-0.01775827
-0.01827781
0.01027457
-0.01809027
-0.01652215
0.01158618
0.00530553
-0.01025237
-0.03541589
0.03684774
-0.03116996
-0.04422156
-0.03864511
0.02432815
-0.05032418
-0.02145238
-0.02029902
0.01674003
0.02301930
0.01330261
0.03299050
-0.04737793
0.04750128
-0.04804228
-0.02720976
0.04923847
-0.03733167
-0.00122111
-0.00472580
0.03927465
-0.00826665
0.01519988
0.01989738
0.00063286
-0.02886326
0.03210036
0.01194295
-0.00688240
0.04879422
0.02473085
-0.01109031
-0.04644851
0.00446065
-0.00887119
-0.02904774
-0.04427842
-0.05189099
0.00711957
-0.02476306
0.02205546
0.04046581
0.00196125
-0.00314682
0.00347378
-0.00447647
-0.04629344
-0.05376905
-0.01902979
-0.00966485
0.03075276
0.03898240
0.03031020
0.00313159
0.03645162
-0.03738832
-0.02337901
0.04224808
0.05389340
0.00441694
-0.05570677
0.01030956
-0.01410819
-0.00439159
-0.05860813
0.02822700
0.02232344
-0.02294867
-0.03784731
0.04918624
0.04961573
0.01557700
0.02653657
-0.03227347
0.02798525
-0.02967890
-0.00394664
0.02810346
-0.00640301
-0.00831922
0.04175533
0.04866266
0.02498775
0.02002669
0.02110897
-0.05209094
0.05011069
-0.03003475
0.05344924
-0.04835646
0.04221193
-0.04356417
-0.05375668
-0.04491826
-0.04880699
0.00961234
0.02507106
-0.01564988
0.00541834
-0.01652575
-0.04180342
-0.00188668
0.03809028
-0.01629903
-0.05844954
0.03725893
-0.04591306
0.02047465
-0.00316538
0.03570168
-0.05268029
-0.04428123
0.05515935
-0.03781958
-0.00496751
-0.04747893
0.04477795
0.02023237
0.03459777
-0.02497691
0.03623274
0.03419676
0.00835729
0.00910757
0.00014801
0.01608894
-0.05635779
-0.03488810
-0.05876975
-0.00387554
-0.00130671
0.05676445
-0.01564643
-0.05736379
0.05541878
-0.04723698
-0.04740243
0.03244399
-0.04986272
-0.05158421
-0.02429390
-0.05581780
0.01796463
0.02417592
0.02356870
-0.01538829
0.00574429
-0.03036680
0.03702616
0.05014591
-0.04798410
0.03686596
-0.02620504
0.03600085
-0.00690497
0.03383618
0.01238994
0.00494019
-0.04607137
-0.01384766
0.01381561
-0.03550178
0.05350581
-0.00102117
-0.04359609
0.01844717
-0.04714955
-0.00821889
-0.01348935
0.03332162
-0.00614411
0.02117096
0.02647786
-0.02597401
0.03168321
0.02667036
0.00009735
-0.00172683
-0.04321730
0.01301540
-0.04634954
0.04512032
-0.03527521
0.01899600
-0.01459533
-0.03616967
0.03579792
0.05737593
-0.03705790
-0.02630501
-0.00365141
0.02644407
0.03133430
0.00628965
-0.05113315
0.00000819
-0.01805653
0.02101333
-0.00905077
0.04622755
0.03728103
-0.02084257
0.05114579
-0.02190442
-0.01100512
-0.04357865
0.01166760
-0.01870028
-0.01267999
0.04802025
-0.01339487
0.02528033
0.02122534
-0.00749888
-0.05641732
-0.03151888
0.03406572
-0.04082548
-0.03951468
-0.04714013
0.04776770
-0.01717271
0.04868678
0.05018459
-0.05373716
-0.02451538
-0.01330521
0.04027652
0.04233101
-0.04204665
-0.03007686
-0.00218870
-0.05309911
0.04540204
-0.02718049
0.03542834
0.05413062
0.03063305
-0.05337543
0.02164520
0.04113574
0.02077278
-0.05655893
0.01307419
-0.05353353
0.04063242
0.00776207
-0.03157438
-0.01894722
0.01590731
-0.04188564
0.04375312
0.02764848
-0.04306451
0.02410122
0.05111181
-0.00378126
-0.04140985
-0.00172689
-0.03696908
0.03151517
-0.03077896
0.03057953
0.05344746
0.04377973
-0.05327436
0.00918736
-0.01347241
0.05476673
0.01850390
-0.04700056
-0.00621160
-0.01930123
0.00444008
-0.03976204
0.03772965
0.04487363
0.02695768
0.04641808
-0.00699246
-0.05805587
-0.04636705
-0.03531683
-0.00596995
-0.04097804
-0.03312641
-0.00400149
-0.02899899
-0.00120541
-0.03552779
-0.02907472
0.01827035
0.01806349
0.05303057
0.05812873
0.02484837
0.01491228
0.03453493
-0.00814791
0.02940822
0.05444639
-0.04252708
-0.00192387
0.05398306
0.04822280
-0.01238728
-0.04393768
-0.03488703
-0.05781637
-0.00203976
-0.04149463
0.00518443
-0.01227561
-0.01906838
0.00074782
-0.00349404
-0.05466780
-0.04483579
0.01244343
0.05698663
-0.01603425
-0.00184159
0.04269474
0.03612849
-0.00698331
0.00886350
0.02039989
0.03918563
0.01290781
0.02156226
0.00526396
0.00067587
-0.01016732
-0.01740373
0.02743617
0.02160257
0.03059271
-0.04874016
0.00391483
-0.04684982
0.01428979
-0.03752238
0.03887214
0.02419775
-0.05808860
0.03978907
-0.03696973
-0.00896452
0.04254013
-0.04651177
-0.03141818
-0.04363713
-0.01446046
-0.04177716
0.03333979
-0.05705209
-0.04171400
-0.02974921
-0.04486910
0.05270347
0.04468944
-0.03956027
-0.05360228
-0.04102676
0.04802646
-0.05684634
0.05526800
-0.05381286
0.04072744
0.00813763
-0.02853296
0.00023535
-0.04302411
0.01209979
-0.00936638
-0.05356931
0.03109271
-0.00827116
-0.05657595
0.00041072
0.02044766
-0.04710221
-0.02481251
-0.01597928
-0.05864168
0.03486338
-0.05822093
0.00889878
0.02010665
-0.04405338
-0.03863284
-0.05589923
0.04256583
0.03320490
-0.05530023
-0.03652054
0.04155523
-0.02396348
-0.05683769
-0.03228958
-0.00165490
-0.03689849
-0.02244801
0.01501180
-0.00091153
0.01336806
-0.03211942
0.01995936
-0.05591468
-0.05513630
-0.02396700
-0.02831523
0.02978943
-0.02628028
-0.02965938
0.00411962
0.05212748
0.01942491
-0.01152978
-0.02937024
0.02379273
0.03355266
0.04455904
0.01147800
0.04762792
-0.01989712
0.03239020
-0.02658321
-0.03653922
0.02087935
0.01822481
0.04289932
-0.00048169
-0.02620026
-0.05800807
0.04697644
0.01097502
-0.02207780
0.03003806
-0.02948535
-0.01079787
0.04217412
0.03753963
-0.04395771
-0.00003941
0.03224354
0.03621646
0.00078270
-0.04433157
0.01664980
-0.04521831
0.01867394
0.04931130
0.01024375
-0.02717689
-0.00464275
0.01725388
-0.02705181
-0.03211178
-0.03273465
-0.04518557
-0.04916435
0.01743365
0.02942476
-0.02017197
0.02805679
0.05212156
-0.03043542
0.02493773
0.03964452
-0.00558723
0.02034760
0.00839559
0.03821428
0.01511796
-0.04976378
0.00203909
0.04076902
0.05019022
0.01719599
-0.02582783
-0.00583376
-0.01525895
0.02404490
0.00576053
-0.03877744
0.04270129
0.01736459
0.02023976
0.03665641
-0.03114698
-0.00621519
0.03766523
0.02656977
0.05271891
0.00599763
0.03310597
0.04925080
0.05187269
0.04653147
0.05749051
-0.05335927
-0.05091276
-0.04629720
0.04853490
0.00335792
0.02896218
0.02474770
-0.04687848
0.03633045
-0.02580066
0.03910574
-0.05759378
-0.01895966
0.03853188
-0.02762653
0.02827813
0.01032914
-0.02044835
0.01880954
-0.01650318
-0.00561118
-0.04367694
0.05197365
-0.05713944
0.04640278
-0.05243781
0.05244216
-0.01261452
-0.05464235
-0.02583014
-0.02270380
-0.05698893
-0.02908047
-0.00218212
0.00685008
0.05808226
0.01707217
-0.03124376
-0.00139335
-0.05889691
0.01434525
-0.05100660
-0.03063394
-0.00705038
0.05378625
0.03324353
-0.05064576
0.02922455
0.03539338
0.01055367
0.00576139
-0.00755343
0.05862871
0.05860510
-0.05122541
-0.00027172
0.03923565
-0.00210548
0.03867552
-0.03379477
0.04550449
-0.00899869
0.01007630
-0.00321722
-0.04821039
-0.01434804
0.03555793
0.01301068
0.04945767
0.05025935
0.03453277
-0.05553832
-0.02566330
-0.01739636
0.02171831
-0.01521019
-0.03672958
0.01454131
0.01341598
0.01662511
0.01260573
-0.02095363
-0.02215531
-0.01160383
-0.03558830
-0.05114465
0.05962621
-0.02332250
-0.00346966
-0.03855852
-0.03444838
-0.03176595
-0.00650060
0.03831229
-0.05022459
0.05247889
0.01107038
0.01896201
0.05033659
-0.02525307
0.04963581
0.06160654
0.01208390
-0.02344855
-0.01992093
0.01439338
-0.00645366
0.03068593
0.04475858
-0.05772693
-0.02169124
0.05502104
-0.05377510
0.03555326
-0.05747483
0.04371540
0.02943504
0.01376769
0.00445176
-0.01740894
-0.03920458
-0.02058932
-0.04873281
0.01209571
-0.04106822
-0.02619093
-0.02383848
-0.02325308
0.00605564
-0.04307783
0.04364838
0.04009869
0.02965826
0.05380454
0.00797804
0.05785410
0.03872142
0.03447969
0.01571503
0.02421742
0.01701261
0.00124499
0.00806496
-0.00838541
0.05320360
-0.02564223
0.05006989
0.01112068
-0.01688247
0.04479774
-0.01226595
-0.01639445
0.01548422
-0.01952265
-0.03964689
0.00046702
-0.01330689
0.00335461
0.01276206
0.03884884
-0.03490610
-0.05239368
-0.05168337
-0.01176117
-0.05013634
-0.01094609
-0.02029404
-0.04065736
-0.01313762
0.01114361
-0.02669639
0.06069843
-0.02646819
0.01089721
-0.00604093
0.04709404
0.06056393
0.04288153
-0.02235164
0.04669094
-0.01871759
-0.03230920
-0.05846970
0.03859490
-0.01619403
-0.05240630
-0.01363668
0.04329811
-0.05262899
0.03152335
0.01243690
0.04084910
-0.02275313
-0.00791838
0.01047825
-0.01142076
0.03369849
-0.00450534
0.01838301
-0.00735127
-0.00336072
-0.02893394
0.02441744
0.03176125
-0.01345954
0.03323855
0.00972676
-0.02872944
0.01490523
0.05088847
0.04535541
-0.03464078
-0.03772498
-0.02099328
0.03997519
-0.01071473
0.03672984
-0.01935938
-0.01246451
0.01574028
0.01694659
0.04237824
0.03540765
0.02109986
0.03772416
-0.05012856
-0.00530521
-0.04573930
0.05745796
0.04959739
-0.04429077
0.01220009
-0.02462758
-0.03232914
0.05822824
-0.04169973
0.02368475
0.05063365
0.01543629
-0.00665157
0.02103618
-0.05319156
0.02567824
-0.04725780
0.04838352
0.01434129
0.05131076
-0.03927953
-0.05611211
0.00827228
-0.04538034
-0.04911345
0.03073356
0.01104709
0.02756188
0.02667277
0.03435502
-0.01435266
0.00050252
0.01368624
0.02388815
-0.00665225
-0.02030033
-0.02556136
-0.00227098
0.01087482
-0.01830491
0.04405101
0.05577605
-0.01258780
0.05145400
0.02783074
0.00945470
0.00891247
-0.04698808
-0.05468038
-0.03557246
-0.05816771
0.02506007
-0.01155305
-0.01875355
0.02056222
-0.02729255
-0.01945607
0.00216861
-0.02091253
0.05280185
0.02460440
-0.01718723
0.03393687
0.03064856
-0.03687912
0.00430696
-0.00721737
0.01618655
0.05519523
-0.04350173
0.03868075
-0.02847982
-0.00533405
0.05135789
-0.02039352
-0.01031782
0.05887084
-0.03053912
0.00877330
-0.01758437
-0.00673538
0.01886573
-0.01842352
-0.02258807
-0.02317331
0.02044894
0.03499813
0.04358055
-0.03596495
0.05474057
-0.03810352
-0.00012684
0.02218241
-0.01710456
-0.01500315
-0.04071356
-0.01880070
-0.00302144
0.02670733
-0.02003584
0.02643113
0.02856112
-0.01285136
0.06190807
0.03931126
-0.02756409
-0.00611891
0.03086242
-0.00692365
0.02022156
-0.03382540
0.02506201
0.03494905
0.02743238
-0.04156709
-0.02885075
0.01282344
-0.00817723
-0.02263821
-0.04240239
-0.03049815
-0.00719707
0.02539098
-0.04285022
0.01683385
0.05220684
-0.00852735
-0.02942484
0.04579099
0.04434811
0.05611949
-0.02918727
-0.02647825
-0.04339074
0.01532442
0.00033953
0.04489156
-0.05044536
0.03136735
0.05212211
0.04193505
0.00568149
-0.03399409
-0.03679333
0.00800143
-0.00461404
-0.03604515
-0.02817083
-0.05370973
-0.04829898
-0.04518764
-0.02745830
0.05406852
0.05378426
-0.03453639
0.00529990
-0.05439319
0.03659560
-0.01280036
-0.00895022
-0.03444618
-0.05166991
-0.00506082
-0.05837461
0.05787565
0.02629961
-0.01424119
0.02728845
0.00978818
-0.03482627
0.02531021
0.03034764
-0.04950244
-0.00758085
0.05346285
0.04430923
-0.00013486
-0.04406175
-0.04290470
0.06059374
-0.02169105
-0.02349926
0.03735392
-0.01449811
-0.05013693
-0.04476818
0.00050273
0.03880402
0.06116822
0.01656801
0.02729162
-0.02426743
0.04693327
-0.02989508
0.04191868
0.04565240
0.05501695
-0.03720818
-0.00499138
0.02329912
0.01454021
-0.04155273
-0.00993780
-0.00488135
0.02551975
-0.01294849
0.04778160
0.02465749
0.05406398
0.04014136
0.03954231
0.00654703
0.06111208
0.01515142
-0.04902971
0.06085356
0.02678485
-0.01678925
0.04788892
-0.03170888
-0.00641268
-0.01550136
-0.04378783
-0.01702124
0.01057255
0.03769242
-0.03654489
0.03256121
-0.05327227
0.06041927
-0.01258560
0.04371478
0.02763063
0.03598567
-0.04607137
-0.05041178
-0.02132601
0.04132854
0.06078343
-0.03512694
0.03643354
0.02604473
-0.04180218
0.02769366
0.00778694
-0.05299573
0.04324088
-0.05048677
0.06074130
0.00046728
-0.03416762
-0.02910783
-0.00723800
0.01904787
-0.01057233
0.04223201
-0.01010230
0.00135505
0.01957363
0.01913068
-0.02251835
-0.00301271
-0.05443048
0.04667409
-0.00895454
-0.00147324
-0.01886681
0.04346623
0.05114541
0.00514525
-0.00206103
-0.01721218
-0.03350962
0.02816345
-0.02070148
0.03018880
0.01234588
-0.03273819
0.01279301
-0.02168688
-0.00329858
0.05848962
0.02877371
0.05338824
-0.05307380
-0.01146355
0.03533790
0.02856109
-0.03738166
-0.00272063
0.02834632
0.01595865
-0.04899662
0.04310252
-0.04357364
0.04137563
0.03406394
0.02216256
0.05448775
-0.02100240
0.05104542
-0.02347277
0.03439937
0.02191076
-0.04570885
-0.03809852
0.04523918
-0.04968522
0.04021118
-0.05318641
0.03830586
0.06108611
-0.02184493
0.04188370
-0.03299578
0.04505069
0.05524585
0.00063432
0.04446983
-0.04930573
0.03360831
-0.00982129
0.04621156
0.00499515
0.04149923
0.05557901
-0.01913027
-0.02884922
0.03427871
0.04490916
0.04446103
0.01144650
0.06103392
-0.01703847
-0.03316706
-0.01898619
-0.02097329
0.04537844
-0.01507002
-0.01371525
0.05746505
0.04209800
-0.04171683
0.02730326
0.01149933
0.01635811
-0.00607670
-0.02987505
0.00170539
0.02821903
-0.02436635
0.01811527
0.00119553
0.01515863
0.04428679
-0.03398831
0.00616944
0.04196023
-0.03726140
-0.00652012
-0.04071012
0.03165106
-0.00178885
0.02363117
-0.02910537
0.05322932
0.03751545
-0.03839620
-0.02743195
-0.00580853
0.04304496
-0.00248164
-0.01572293
-0.01746882
-0.02954513
-0.02601474
0.05876373
0.02206206
0.02716631
0.00305423
0.05673120
0.02014816
0.04786419
0.01175445
-0.02506189
0.01251462
0.00960034
0.01190853
-0.03747116
0.05843164
-0.05263247
0.00814372
-0.01592330
0.02204913
0.00803865
0.03374929
-0.00667576
0.04724437
-0.00593447
-0.02951119
-0.00045262
-0.02628713
0.05049630
-0.00971557
-0.03315829
-0.03953463
-0.01643582
0.03789824
-0.00921583
0.03050579
0.00919860
-0.01831949
-0.02111652
-0.00396336
-0.05137437
-0.03241379
0.01301187
0.01061275
-0.04369324
0.05161095
-0.02325969
0.03713355
0.03833691
-0.00988710
0.01203564
0.02258869
-0.04563000
-0.04332262
0.05536546
-0.04061878
-0.02026056
-0.04204005
-0.02521402
-0.04614082
-0.05445147
0.05428020
0.02985647
-0.05194464
0.01183765
-0.02609656
0.04094031
-0.04764199
0.02832965
0.04133943
0.01654857
-0.02067552
0.03439699
0.03303812
-0.00151325
0.00359265
0.00734431
-0.02026539
-0.02346873
-0.03806767
0.03933281
0.04959558
0.01112848
0.04470884
-0.03005513
0.01254733
-0.00242881
-0.03647584
-0.05888359
0.02450357
0.04709699
-0.03848669
0.00648609
-0.03190929
-0.02720931
0.01154800
0.01132758
-0.00478379
-0.01306069
-0.01872144
-0.03566591
0.03858483
0.05691214
-0.04478783
-0.04807772
0.03719982
0.03663385
0.05542690
-0.05376225
-0.03130818
-0.04389916
0.01707296
-0.03570528
0.02485852
-0.03599279
-0.04878977
-0.03583258
-0.00301323
-0.01340461
0.04156088
0.04869020
-0.03300226
-0.01464324
-0.04452335
0.00266804
-0.01337486
0.02184470
-0.02479879
0.04785001
0.04292018
-0.04033391
0.05201603
-0.00246465
0.03495615
-0.05122066
0.02117358
0.05427217
0.03493658
-0.05175065
0.04470794
-0.04676918
0.02483265
0.00972526
-0.04219101
0.04247908
0.05492090
0.04760534
0.01253231
0.02094215
-0.04293194
-0.02174575
-0.00662601
-0.01706427
-0.00154374
0.03541095
-0.04090289
-0.01596462
0.02602618
0.05736443
0.00388817
-0.02333739
0.02157319
-0.04352409
-0.02900288
0.03276750
-0.03270418
0.01554865
-0.03855118
-0.05094065
-0.02210250
0.05470936
-0.03823795
-0.04248723
0.00702793
0.00217097
-0.00870804
0.01388087
0.04393063
-0.05890683
0.00388353
0.02287377
0.01490833
0.05640290
0.01556712
0.01546785
0.03895098
-0.02256350
-0.04679360
0.00887626
-0.00032800
-0.02159461
-0.03393234
-0.03353241
0.04578738
0.02173697
0.02730638
0.04171281
-0.02391204
0.02207306
-0.04363095
-0.04581049
0.04449153
-0.01754827
0.00181789
-0.05848845
-0.04063355
-0.04993644
-0.01593470
-0.01316974
0.01359941
-0.04250123
-0.05246345
0.02491756
0.00567249
0.05638368
-0.04522426
-0.00198687
-0.01914783
0.02363755
0.04148555
-0.01359612
-0.02202196
0.00658676
0.02281768
0.02480575
0.01725725
-0.05756260
0.01540114
-0.05582683
-0.02150283
-0.05130714
-0.04284707
0.04398602
-0.00607010
0.00691509
0.02184993
0.05784489
-0.03015052
-0.02157379
0.00049915
0.03135866
-0.02826724
-0.00726903
0.03296072
-0.04962767
0.05564649
-0.01191742
-0.00376066
0.05491077
-0.03650060
-0.05510584
-0.01757788
0.05304784
-0.02416306
-0.03727262
-0.04100306
-0.03995282
0.04257235
-0.00357592
0.03122180
0.04273599
0.00726193
0.01640376
-0.00821528
-0.05524362
-0.03405588
-0.03209849
0.05152610
-0.05467689
-0.03784793
0.02727834
-0.05252420
-0.05565518
0.04170268
0.00459693
-0.05741696
0.05201625
0.05077633
-0.04211073
-0.04342543
0.02828996
0.00046136
-0.04811722
-0.01641727
-0.05664558
0.01003962
0.00140757
0.05181002
-0.05058598
0.00394632
-0.04537534
-0.05808073
-0.05433075
-0.03746248
-0.04221007
-0.02649259
-0.02557336
-0.04420831
-0.04163826
-0.01410387
-0.00247940
-0.00862042
-0.02264629
-0.03493905
-0.02291931
0.03378062
-0.04824114
-0.02196853
0.02556057
-0.02486230
-0.00619063
-0.01340736
0.00483514
0.04076816
-0.00483014
0.02868093
0.02203977
-0.03906294
-0.03708266
0.02298201
0.04849347
0.05486969
-0.04777944
0.05109222
-0.05719094
0.00013392
-0.04710146
0.01701828
0.04987236
0.03320828
-0.00540873
0.01832129
0.01352227
0.00536515
-0.03869402
-0.04593246
0.00533396
0.00516660
0.00606353
0.02481431
0.04454258
0.03622774
-0.02556253
0.02900066
0.02321337
-0.02460057
-0.02990757
-0.01738707
-0.02327907
0.04032911
-0.00143718
-0.02288724
0.05008679
-0.04511803
-0.02995726
-0.00935536
-0.04290278
-0.03589299
0.02527429
0.02280013
-0.00495582
-0.05773414
0.03937795
-0.01553180
-0.05034676
0.02682126
-0.04988019
0.04167535
-0.04977759
0.04407899
0.02937065
-0.04693561
0.03331430
0.01180836
-0.01016581
-0.04325170
0.02158012
0.00108373
0.00235203
-0.05864575
-0.02099826
-0.00096801
0.03886408
0.04415929
-0.00380142
0.03849443
0.03181786
-0.05714510
-0.05148673
0.03355253
-0.00043914
0.05575410
-0.01380992
-0.05523248
-0.02336856
-0.03865796
0.03751024
0.00110779
-0.04997289
0.01096829
0.02171030
0.02326781
-0.01935435
-0.04346433
0.03651636
0.01422569
0.03121250
-0.00616495
-0.05579654
0.05280614
0.02695535
-0.02429028
-0.00198039
0.00511346
0.05627807
-0.02251136
-0.00563157
-0.05742450
0.03805701
-0.01257089
-0.04953536
0.04425856
-0.02234105
0.03625184
0.00416077
-0.03651550
0.01742971
-0.04325337
0.00485802
0.05330295
-0.05058704
-0.02592056
-0.03875552
-0.00999489
-0.03418490
-0.05689705
0.05645236
0.00781775
0.02454613
-0.04082011
-0.05572654
-0.03494009
-0.02762613
0.02188483
-0.05452098
-0.04256948
-0.01355563
-0.00964701
-0.04267897
0.04120578
-0.02585580
0.00809107
-0.01297860
-0.02923475
0.05554852
0.00727453
-0.00850721
-0.01166606
-0.05718696
0.03585087
0.01871371
-0.01516137
0.03933065
-0.02318141
0.04899359
0.02896205
-0.05888266
0.05085643
-0.00784454
0.03445081
-0.02562566
0.01307669
0.02775759
0.04071154
-0.05558561
-0.01614212
-0.05109624
0.04597484
0.01627384
-0.03929827
0.05538907
-0.00595285
-0.05242433
-0.02156688
0.05622726
-0.03789541
-0.00090013
-0.05471303
-0.01104226
0.04827014
0.01344631
0.05664087
-0.01889755
0.03805196
0.05593179
-0.02322582
0.03835911
0.00293865
0.01323147
-0.02892210
-0.00647293
0.01324067
-0.00751622
-0.05309080
0.03551302
0.01180443
-0.02358673
-0.00609001
-0.01374480
0.02459794
-0.02366050
0.02113477
0.05767396
-0.00952988
0.01431557
0.05622647
0.03247898
0.05359910
0.05705148
-0.03410893
0.04713241
0.03343684
-0.05643154
-0.01194851
0.01328079
-0.01310920
0.02628083
0.03471785
-0.00801783
-0.02889691
0.01226387
0.01296302
-0.04450938
0.01436282
0.02064107
0.05470035
0.05319306
-0.03946746
-0.04713318
-0.04533408
-0.01866989
-0.02316497
0.00831185
0.04022998
-0.03254641
-0.04559733
-0.02239083
0.02553501
-0.03433688
0.00220362
0.04608072
-0.05466886
-0.04396266
0.02101986
-0.05290921
-0.01988699
0.02886443
0.01716599
-0.03114942
0.04354741
0.03128654
0.00373177
0.01116545
-0.05516798
-0.05725573
0.03744768
0.05399424
0.04167489
-0.01336524
-0.05642305
0.01489356
0.00163894
-0.02026814
0.04607270
-0.01269667
-0.01650830
0.03079708
0.02886977
0.00257522
0.02303150
0.01621789
-0.03591378
-0.00275761
-0.02956026
-0.03712868
0.02641449
0.04748517
0.04480634
-0.03459044
0.00936284
0.00928187
0.03631194
0.01707557
0.01511501
0.01503416
0.05705228
-0.00509820
-0.01115118
-0.04017446
0.00285337
-0.00677414
-0.05244712
-0.01580355
-0.03220639
0.02732234
0.00709141
0.05421418
-0.05399995
-0.01870895
0.02426295
0.05980852
-0.00145840
0.00203705
-0.04558456
-0.01887592
-0.04454382
-0.03515487
-0.04985546
-0.01429100
-0.03640126
0.03876719
-0.02925739
0.03959725
-0.01729539
0.04447098
0.04921030
-0.04655797
0.01096431
0.02583003
0.01107895
0.01113957
0.01840762
0.00793695
0.01551146
-0.00981077
-0.04684553
-0.01172742
0.02775776
0.04210300
0.03297839
-0.04822974
0.05847352
-0.00014553
-0.00362888
0.00313454
-0.00178387
0.02421642
0.03809208
0.04141431
-0.01557408
-0.03717216
0.05740348
-0.00183167
-0.04779747
-0.03901993
-0.02513304
-0.04357806
-0.02501890
0.05573164
-0.04472382
-0.04004212
-0.01920455
-0.03196735
-0.01995902
-0.00400460
-0.01836740
-0.04147298
0.05633161
0.02830516
-0.00545877
-0.00304006
0.02032259
0.02442070
0.05440627
0.00052887
0.02763745
0.02194190
0.03887859
-0.01741595
-0.02721879
-0.00754725
-0.02919907
0.04828858
0.02277469
0.00528017
-0.02279471
-0.04018699
0.04557268
-0.04199990
-0.00054778
0.00317423
-0.00083207
0.02768863
-0.03879793
0.05877821
-0.01993283
-0.01660457
-0.03029251
0.03932818
-0.01139177
-0.03997343
0.02962780
0.05097466
0.01301323
-0.05129706
0.05080263
-0.01181148
0.04480577
-0.02719879
-0.04358908
-0.00840475
-0.03529215
-0.02284557
-0.03087343
0.03496939
0.02731236
0.01636808
0.01447354
0.06065801
-0.02605005
-0.00460569
0.06041978
-0.01052899
0.04447605
0.01137374
-0.05016963
-0.00850890
0.04169087
0.03677102
-0.03187013
-0.03664941
0.04161898
-0.01967399
-0.03271125
-0.02706448
-0.03652932
0.05231358
-0.02418036
0.05467972
-0.04522543
-0.00837301
0.03138632
-0.05433211
0.05858215
0.04200246
-0.05567928
0.03536155
0.04398801
-0.02606196
-0.00753416
-0.01685678
-0.03904663
-0.04135661
0.01413427
0.03268861
-0.04878208
-0.01199343
0.00097430
-0.01177695
-0.05569093
0.01106667
-0.03820856
-0.02978441
-0.01944883
0.02889207
0.03435856
0.00185140
0.01184945
-0.03874664
-0.00507649
-0.03765195
0.05896534
0.03371983
-0.01394433
0.00001301
0.00348029
0.01960125
-0.02221277
-0.04095967
0.03784270
-0.02996256
0.05796581
-0.02455959
-0.00672900
-0.01944078
0.04251865
0.06087735
0.00824646
0.04682948
0.04081011
-0.01002742
0.01834066
0.05351361
0.05173609
-0.05624876
0.00404485
0.00166037
0.02260097
0.04705248
-0.03703554
-0.05348555
-0.05180270
-0.04219775
-0.02235985
-0.03275307
-0.03886640
0.00626226
-0.01118105
0.04206447
-0.00616713
-0.04585428
0.00057021
-0.04888801
0.05809697
0.06084294
0.01166678
0.05151680
0.01742564
-0.02874965
-0.00802333
-0.01400599
-0.01338915
-0.01733964
-0.05265123
-0.05029336
0.00397244
-0.05156179
0.02941460
0.02889820
0.00671098
0.04672985
0.04437521
0.03063023
0.03303118
-0.00055649
0.02747243
-0.04051867
-0.05730332
-0.00462705
-0.00581076
-0.03705495
-0.01976179
0.02428231
0.03474857
-0.03411032
-0.00290957
0.03589515
0.00885862
0.04531153
0.02516082
0.02284825
0.00990205
-0.05106774
0.03868458
0.00561138
-0.04969506
0.05176034
-0.02562073
-0.03722018
0.05144124
0.00858812
0.03958096
0.06008509
-0.00865024
-0.04246166
0.00632551
0.04989667
0.05071714
0.00947665
-0.04861572
0.05707155
0.05630236
0.02620554
0.04516472
-0.03894943
-0.03104368
0.01831676
-0.04178820
-0.04626960
-0.03776182
-0.05331321
0.00320294
-0.00013465
-0.00857634
0.04583444
-0.05114726
-0.03703541
0.02825955
-0.02552141
-0.01907077
0.00442040
0.05336903
0.02009222
0.01982718
-0.03776636
-0.04900303
-0.02438024
-0.05012799
0.04622979
0.03058862
0.03646033
-0.02492297
-0.02171369
0.01589939
0.03511639
-0.01169769
0.02096626
-0.03218007
-0.02089157
-0.02425599
0.01156337
0.05926915
-0.05549505
-0.05288799
-0.02054013
0.04997305
0.05148259
0.02294732
0.03461592
-0.01245824
0.04851123
0.01757855
-0.02511778
0.03210200
0.05602874
-0.05406621
-0.01235873
0.00899925
0.00251000
-0.02799554
0.00741417
-0.00762764
0.00351380
-0.01249143
-0.03259336
-0.03757337
-0.04524902
0.05568663
-0.01996359
-0.01762262
0.05158852
-0.03369695
-0.00090526
-0.04993451
0.02054114
0.01566789
0.02190254
-0.00091424
-0.04504647
-0.03041516
0.03921377
-0.01989005
-0.03173143
0.05444970
0.05626936
0.05271306
-0.02673015
0.03579181
0.05675871
-0.00137212
0.01079796
0.00746823
-0.00203590
-0.02196539
0.03164849
-0.05059281
0.01633606
0.01318053
-0.00048954
0.01221433
-0.03912840
-0.04307941
0.03185327
0.00985906
-0.01303091
0.02073282
-0.03774844
0.04884816
0.05230311
0.01084818
0.02475169
-0.04188264
0.05012815
-0.04793605
0.04291819
0.02467809
-0.04900079
0.03691864
0.00712801
-0.05578503
0.03603436
0.01106332
-0.01179099
0.01854721
-0.01972236
-0.02205249
0.02902223
-0.00673041
0.04767375
-0.02928954
-0.00158545
0.02060685
0.04778252
-0.00708765
0.02734573
-0.04423321
-0.05534423
-0.04089601
-0.01713091
0.04270022
-0.01920225
0.04336162
0.02840748
0.01597746
0.02582464
0.05492065
-0.00448139
0.03921738
-0.02375335
0.01656750
-0.04690471
0.01538755
-0.01266952
0.02459846
0.05358517
-0.02438875
-0.05502020
-0.03923278
-0.04575507
-0.00818280
0.04593963
-0.02569948
0.03827890
0.03109597
-0.00506906
0.01388406
-0.01602559
-0.01287473
-0.05308875
-0.05543012
0.04821873
0.02558554
-0.00596678
-0.00220703
0.05025774
-0.01048554
0.04372564
-0.01328856
-0.05488188
-0.03928443
0.02958064
-0.01938736
0.00761465
0.05229981
0.00673270
0.03195704
-0.04130413
0.04554984
0.01432920
0.00046121
-0.00779510
-0.02741346
0.00385864
-0.04293512
-0.01819943
0.02270618
0.01622918
-0.04835511
-0.04979556
0.00970041
0.02935037
-0.03279642
-0.01100192
0.01061153
0.03723880
-0.02170300
-0.02792671
0.00190256
-0.00017421
0.05278207
0.05815633
0.01389046
-0.01036459
-0.01189609
-0.01702146
-0.01008962
-0.03708027
-0.00250216
0.04729177
0.02148150
-0.00495160
-0.01387894
0.01711260
0.05972906
0.00391161
-0.05375589
0.01965080
0.04693518
-0.04517782
-0.02574254
-0.04641143
-0.04737265
-0.03538846
0.00892296
0.02480952
0.05324011
0.03576800
0.02827457
0.05430058
-0.04461982
0.03388629
0.03968585
0.01849697
0.03782360
-0.04417391
-0.01108998
0.04925927
-0.02959266
-0.05377271
0.00071608
-0.04002972
-0.03477392
0.05564508
-0.05189726
-0.03133100
0.05484501
-0.02503947
0.02946631
-0.05503509
0.04079226
0.04755056
-0.02429056
0.02200351
-0.05379422
0.01985871
0.01066016
0.01737818
0.02007723
0.04932873
0.02679378
-0.00139866
0.00172352
0.05640147
-0.05605245
0.04192958
-0.00932088
-0.04683968
-0.04115764
-0.01494100
0.00333969
0.01840868
-0.04269176
-0.02430771
0.05534504
-0.05363560
0.03512002
0.02378384
0.03032829
-0.01606184
0.05400699
-0.02369806
0.05933588
0.05671498
-0.04670245
0.05645397
-0.04469256
-0.04979281
0.05009646
0.00972592
-0.01494458
-0.02200988
-0.02992010
0.01425213
-0.01953921
-0.03338210
0.04472443
-0.04814602
-0.01487584
0.04306510
-0.00564656
-0.05487512
0.00526231
-0.00228287
-0.03245544
-0.00500933
0.02390273
0.00848236
-0.05085894
0.03724689
0.00456501
-0.04942930
0.01059907
0.03845614
-0.03001239
0.04850908
0.04828483
-0.05500130
-0.01512868
0.01601222
0.00967625
-0.00908035
-0.05430465
-0.02616459
0.03188731
0.04200443
0.05409433
0.01387069
-0.00720781
-0.02807056
-0.01626279
0.03839340
-0.01899852
0.01910399
-0.01553833
-0.02737723
-0.05372068
0.03417956
-0.03474395
-0.03334993
0.01772191
0.03118069
0.04648297
0.01800256
-0.05397842
-0.03350060
0.02637452
0.04914817
-0.02977829
0.02952028
0.00875144
0.00708118
-0.00195704
-0.00267907
0.03885727
0.04763386
-0.05389371
0.05018309
-0.04723994
-0.00055793
0.01463524
-0.01452590
-0.03767497
-0.01513585
0.03805890
-0.04888702
0.05581691
0.04596661
-0.00794685
0.03009909
-0.03890944
0.05545041
-0.05326785
-0.04988001
0.02808602
0.01975000
-0.04800012
0.02768737
0.00994038
0.03558216
0.04020751
-0.01641106
-0.01748003
-0.04188500
0.02991808
0.01755209
-0.02452336
0.06064323
-0.00849594
0.02255771
-0.02308481
-0.05581776
0.03349159
-0.01574807
-0.04057349
0.05866411
-0.00505470
-0.05327248
-0.01394855
-0.02547379
-0.04311413
0.01017681
0.03409998
-0.02044520
-0.04056883
0.05177587
-0.01311296
-0.01268156
0.02336160
0.00899185
-0.00597951
0.01577917
0.01065587
-0.03875506
0.03529586
0.00107025
0.03092003
-0.01781936
0.00609121
0.01142845
-0.05092518
0.01386712
0.03574191
-0.00325962
0.05344777
0.04907321
-0.05356181
0.00766516
-0.00706208
0.03633434
0.04787671
-0.03266406
0.01616709
-0.02688114
0.05777069
-0.01287243
-0.04003549
0.05672443
-0.04690005
0.00145952
0.05070946
-0.02069314
-0.01893852
-0.03290112
0.02866808
-0.02302198
-0.00443751
-0.03734403
-0.03777172
0.01397904
-0.05105399
-0.00535725
0.03906453
-0.04449852
-0.04702900
-0.01949007
-0.00614199
0.01770802
-0.01220306
-0.05132918
-0.00185000
0.01556891
0.03294643
0.03090012
-0.03814247
0.02107766
0.04061938
0.00988001
-0.04089102
0.00970200
0.03380824
0.05064585
0.02679561
-0.00705446
0.02215465
-0.00549280
0.04657814
0.01993721
-0.02604653
-0.04367502
0.02075735
0.04674796
-0.02733070
0.00577484
0.01584616
-0.00750433
0.04355407
-0.00231765
0.03108285
0.05778976
0.05459808
0.02468393
-0.01859176
-0.02634590
0.05226505
-0.00553757
-0.02250762
-0.05819138
0.01939995
-0.01546864
-0.00724788
0.04067575
0.00293145
-0.02469049
-0.01709657
0.01202729
0.00925776
-0.01668811
0.02119383
0.03483035
0.06069628
-0.05280488
0.01338554
-0.00009270
0.03881634
-0.04431637
0.04255343
-0.02549617
0.00614522
0.00845012
0.02992636
-0.04673297
0.04505850
-0.02039918
0.00851770
-0.04596534
0.02841896
-0.03848594
0.03603304
-0.04128179
0.03639035
-0.01721053
0.01277181
0.05715479
-0.04871170
0.05489042
-0.01439272
0.05907433
-0.02235661
0.03826501
0.03559433
-0.00834693
0.05800783
0.00065122
0.02159228
0.00401975
-0.01048388
0.00341447
0.03353490
0.04726338
-0.01643353
-0.03982068
-0.04096167
0.01074139
0.01847926
-0.03781079
-0.04141749
-0.05152546
0.05918830
-0.05452544
-0.00513291
0.00609347
0.04353049
-0.01331435
0.03927859
-0.04941077
0.03769966
0.05148338
-0.03758727
-0.01568979
0.01406983
0.05571940
-0.00108189
0.00708177
-0.03810436
0.05134582
-0.00327969
0.01407197
0.05832017
-0.02795294
0.00890827
0.05543851
-0.04539338
-0.02796257
-0.04574588
0.05989505
-0.05618890
0.02474004
-0.01154251
-0.05345839
-0.02334720
-0.00861541
0.01331158
-0.05390849
-0.04122916
-0.01069324
-0.03781586
-0.03690826
0.02230464
0.01273626
-0.01432685
-0.02243216
0.03578905
0.00487756
0.01426123
-0.02324408
0.03496673
0.00287414
0.06115195
0.02183328
-0.03677378
-0.00782003
-0.03430437
0.04471631
-0.02682807
-0.00416017
-0.04853828
-0.03468997
0.01307201
-0.02760761
-0.02140759
-0.04326720
0.06071746
-0.01979004
-0.05520202
0.00657553
0.04343567
0.05622410
0.02251430
-0.04839921
-0.03151885
-0.00086397
0.06025265
0.04147576
-0.04977258
0.03931074
-0.05377504
0.00479240
0.05418787
0.05192047
-0.01808018
-0.00654235
-0.03714834
0.03679731
-0.04461388
-0.05340018
0.05288618
0.04842448
-0.02687674
0.05301293
0.03346591
-0.04392865
0.03939662
0.05861619
0.03978436
-0.02109341
-0.03903585
-0.00242003
0.04532488
0.00105116
0.01584177
0.04591876
-0.01826279
0.05856662
0.05118357
0.00495068
-0.05294080
-0.01923077
0.01981909
-0.01697478
0.01434589
-0.00811274
0.05521604
-0.03013249
-0.05269733
0.04642665
0.04184941
-0.03464891
0.00807827
-0.04019182
0.02863684
-0.01079466
0.04797019
-0.02986271
0.02754666
0.03757548
0.01981310
0.02479431
0.00869390
-0.02563483
-0.01188211
0.03453610
-0.04638866
0.04027171
0.01552514
-0.05478276
-0.04485126
0.02055803
-0.00341079
-0.02943317
0.02487609
-0.04831048
0.06119312
-0.03642263
0.00817715
0.01400778
-0.03681810
-0.02623215
-0.04567759
-0.04436719
0.04262050
0.02025928
-0.02595586
0.03803938
0.03739698
-0.05071430
-0.01591368
-0.02647157
-0.05557683
-0.01281993
0.00585347
0.05822613
0.05621810
-0.05020487
-0.00694495
-0.04364242
0.02687827
0.02613226
0.02832909
-0.02459653
0.02030590
-0.03969534
-0.01016523
0.00697029
0.02531780
0.01030089
-0.05282262
-0.00474321
0.02249486
0.04435338
0.00428028
0.03092339
-0.03712036
-0.01736460
0.05130211
0.02509292
-0.01154960
-0.01020738
-0.05472766
0.01009949
-0.00116960
-0.04757369
0.03483149
0.02046048
0.05586229
0.05179810
-0.00325769
-0.04916787
-0.03210670
0.00537794
0.00415883
-0.02765875
-0.05019087
0.02706573
-0.02263135
-0.04181013
-0.05721169
0.01795179
-0.05212179
0.04417565
-0.01489475
0.06043780
0.03967438
0.01509219
-0.03729158
0.03524620
-0.00736604
0.02766784
-0.01225180
-0.02082930
-0.01645741
0.05576069
-0.00979669
0.05055663
0.01554704
0.01678478
0.03323638
-0.03060884
0.02468978
-0.02472874
0.01541208
-0.00104386
-0.01234383
0.01314884
-0.04042191
0.00094167
-0.00988775
0.00866631
-0.03315154
-0.02356282
0.04932742
0.01732740
-0.02213893
0.02994174
0.03807440
0.03092663
0.05046394
0.04857054
0.00777112
-0.03308358
-0.05617350
0.00052759
-0.01027900
-0.04919192
0.05460175
0.02484970
0.00365513
0.02048878
0.02061888
-0.04688492
0.01577454
0.05335947
-0.02746239
0.01529958
-0.05581842
0.01765813
-0.02831859
0.02561362
0.03054843
-0.05055252
-0.05104741
0.05657882
0.02053037
-0.00073136
-0.00318614
0.03030470
0.00954869
-0.04092072
0.01559347
0.00223674
0.03879486
0.03587636
-0.02413500
-0.04724895
-0.01584988
-0.01866089
0.02915219
-0.04084212
-0.00226574
-0.00240039
-0.03668194
0.00262303
-0.00771017
-0.04857130
0.05216600
0.05734019
-0.01585286
-0.02416794
0.05929550
-0.04782156
0.03733736
-0.03164567
-0.02155983
-0.03385486
-0.05073184
0.04506117
-0.02848107
-0.00632656
-0.00334994
-0.01381880
0.04289876
0.04814076
-0.00284442
-0.01333776
-0.05274560
-0.03126056
-0.02632980
0.02790102
0.00924743
0.04970568
0.05305105
-0.05097175
-0.02076979
0.01272686
0.00478408
0.02815497
-0.02764083
0.00141633
-0.00149463
0.01025347
0.01474250
0.02586497
0.05773887
0.05269768
0.05755332
0.02135097
-0.02445346
0.04587095
-0.04785740
0.03096080
-0.03059128
-0.03989315
-0.04173634
-0.04108800
0.05278512
-0.00944302
-0.01721798
-0.02059544
0.03943356
0.05077726
0.04450944
-0.01789900
-0.04894152
0.00509007
-0.04575747
-0.04953538
-0.03058330
-0.00550583
-0.01905918
-0.00409646
-0.00631182
-0.05270771
0.04576894
-0.00129255
0.02584276
-0.02524664
0.00326651
0.05261159
-0.02112862
0.02306019
0.02206986
0.04462488
-0.04496618
0.02700063
0.04080256
0.00164856
0.00432936
-0.00378900
0.00122008
-0.05334215
0.03280164
-0.05612914
0.01988565
-0.01660506
-0.04775970
-0.04841432
-0.02658492
-0.02055429
-0.05591772
-0.02219073
0.05777833
-0.00445962
0.02387117
0.02903016
-0.03075153
-0.04611381
-0.04994380
-0.02974809
0.02218002
0.05742999
-0.01003355
-0.03990989
-0.03960542
0.00202689
-0.05746189
-0.01988555
0.00130462
-0.01142292
0.03984010
0.01799363
-0.00768253
0.02116362
-0.03876921
-0.02012088
-0.03850416
0.05568483
-0.00311325
0.05856558
0.01797732
-0.02000160
0.03006403
0.03310066
0.00997668
0.05500982
-0.05686386
-0.04984197
-0.00115463
-0.03674647
-0.02190750
0.04955970
0.03942911
-0.02818031
-0.04786519
-0.04079548
-0.02727734
0.01462748
0.04500248
0.01665135
0.05186557
-0.00379878
-0.03725141
-0.01177032
-0.02254303
0.01847963
0.01161033
-0.02247169
0.02573381
-0.04143347
-0.03966642
-0.02274279
-0.05821437
-0.00183876
-0.04038181
-0.00094407
0.02580990
0.00922419
0.05769369
0.01149296
-0.03446486
-0.00837398
-0.05325193
0.05071680
-0.02180485
0.03044231
-0.02171329
-0.03873937
0.03626468
-0.02094403
-0.04446940
0.00055795
0.02332116
-0.03101905
0.01420630
0.00495851
-0.04648355
-0.00155946
0.00070261
0.05750323
0.04157335
0.05657800
-0.01111740
-0.05574076
-0.05771254
-0.03384937
-0.04944633
0.00101256
0.01330334
-0.05015485
0.00233947
0.01121665
-0.01323456
0.00942520
0.02367939
0.00695634
0.03360682
-0.03662783
0.02848662
-0.03867739
0.00847769
-0.02457901
-0.04871419
-0.05866257
0.01285802
-0.00093754
-0.02224160
0.04314433
-0.01348702
0.01787767
0.04746455
0.02342166
0.03875751
-0.05021676
0.00823891
0.00939210
0.01774930
0.02640403
0.04639976
0.04708058
-0.04162586
-0.04291010
-0.02334028
-0.00217947
-0.01641093
0.00192269
-0.01343259
0.03706753
-0.02161284
-0.00767842
-0.00509924
-0.00674610
0.00439319
0.05253016
-0.04558628
0.04450056
-0.02133300
0.01197149
-0.05037419
-0.03272434
0.04887015
-0.00178477
0.00906136
-0.02259369
0.01421268
-0.02945528
-0.00164710
0.05078815
0.00294115
-0.05366928
-0.00327652
0.00305975
0.01926935
-0.04154151
0.04250339
-0.02389200
0.05515635
-0.04156215
-0.03858052
-0.03151341
0.03679918
-0.03932161
0.01110976
0.03660657
-0.03847269
0.02939594
-0.05714301
0.01461311
0.04243648
-0.05435302
-0.00106807
-0.01954954
0.04208785
-0.00224347
0.00980364
-0.00361652
-0.00838742
-0.04412974
0.01269912
0.02116635
0.00016966
-0.04807538
0.05125681
0.03610848
0.03439774
0.05127311
-0.04664693
0.01540463
0.05521733
-0.04476108
0.01063768
-0.02711508
0.03275363
-0.04040329
-0.02678797
-0.01008620
0.05473700
0.03150032
-0.03000537
-0.02338057
0.04395470
0.04244599
0.03863496
-0.01287874
-0.04911067
0.03503134
-0.00554577
-0.03621777
0.00340698
-0.04389441
-0.01165481
-0.00381515
0.01678629
-0.04739942
0.01685693
-0.05523906
-0.05645172
0.02816745
-0.04923806
0.04469683
-0.01250474
-0.04707415
-0.01958987
0.01989254
-0.03466102
-0.03517167
-0.00277181
-0.00188513
-0.03707576
0.00008059
-0.02674744
-0.02038554
-0.03103032
0.03762665
0.05130687
-0.02190617
0.02380612
-0.02725265
-0.04386860
-0.00072258
-0.04442213
-0.05689177
0.00317321
-0.00350506
-0.01652865
0.01349445
-0.04458092
-0.02394953
0.05296466
0.01224002
0.01454594
-0.04692404
-0.04607090
-0.03281402
0.05296618
-0.00353628
-0.01550529
-0.00528263
-0.01272704
0.00798351
0.02378678
-0.03197591
-0.04056802
-0.00939718
0.05413727
-0.01136695
-0.05499955
-0.05713211
-0.03285991
-0.04097583
0.04377177
0.00820725
-0.03774360
0.05677131
-0.03430919
0.05460338
-0.03382855
0.01937940
0.05263519
0.04120280
-0.04502119
-0.03688225
0.00154901
0.05690216
-0.01126187
-0.04155931
0.00225270
0.04156065
-0.03908166
-0.01321022
-0.01339822
0.04776984
-0.01553413
0.03150686
-0.02787955
-0.05570715
-0.00792723
0.02496081
0.02556743
-0.00888494
0.02753127
0.04827229
-0.00094889
0.02424515
-0.01632451
-0.00162826
-0.04464398
-0.03742295
0.01094283
0.00861286
0.00821345
0.00291507
-0.04959325
-0.03580977
-0.03914092
-0.01615693
0.03068526
0.00386393
-0.01285975
0.02743659
-0.00067360
0.01147258
0.04878811
-0.01752339
-0.02033673
-0.04197869
0.03743907
-0.00571992
0.03445904
0.03326700
-0.00610439
-0.02478896
0.02503648
-0.04846577
-0.01333161
-0.00444038
0.01774308
0.00253182
0.04464535
-0.03706872
-0.02549033
0.00629709
-0.00101341
0.02269634
-0.02509474
-0.05220873
-0.02067746
-0.01139436
0.02126576
0.00597130
0.03872924
-0.00193074
-0.05237050
-0.00505259
0.04151682
0.03444863
-0.05664025
-0.00040560
0.04887918
-0.03263629
-0.05833599
0.01987769
0.01358190
0.02931966
-0.02625490
-0.05251361
-0.03423496
-0.05050190
0.00367793
-0.01639839
-0.02276641
0.02265879
0.03064694
-0.00156748
-0.02948689
-0.01820411
-0.00522395
0.01619368
-0.05405244
0.01134213
0.03676002
-0.05681103
-0.04602626
0.01082091
0.04202702
-0.02841187
-0.00958690
0.04647754
-0.01282461
0.03339305
0.05439251
0.00635666
0.00649249
0.05541380
-0.05724354
0.00186273
-0.00944187
0.01393277
-0.02220689
-0.05085118
-0.00051415
0.03280651
0.01685729
0.04481610
0.01279834
-0.02675308
0.00911478
0.02146757
-0.00518576
-0.03622340
0.04554785
0.02762016
0.04499312
-0.01726603
0.00101808
-0.04129913
-0.05147053
-0.00069068
-0.02441465
0.02587375
0.04833154
-0.03947548
0.00118859
0.02711658
-0.03558918
-0.04073457
0.04892340
-0.03655065
-0.04543346
-0.00942842
0.00838319
0.05656775
0.04219496
-0.00275990
-0.00260240
-0.03520004
-0.01741797
-0.00650994
-0.05268766
0.01614852
-0.03690845
0.05222783
0.03735540
-0.02029811
-0.03342089
0.05640211
0.04186856
0.00778510
0.04719044
-0.00151666
0.05119202
0.04235476
0.02536688
-0.05400774
-0.01564503
-0.02506300
-0.01827151
0.02827089
0.03394612
-0.00997676
-0.02782900
-0.02944770
-0.00471236
-0.04169760
-0.03219304
-0.04409753
-0.04827129
0.02345173
-0.04094230
-0.01489683
-0.05702231
0.01370893
0.00840615
-0.01951629
0.00981984
0.02096279
0.01757673
0.02914513
0.01584729
0.03872868
-0.04500579
0.05745544
-0.03412819
-0.05132899
-0.02626826
0.02115554
0.02241326
-0.00824521
0.05038568
-0.04487992
0.04077556
-0.03225349
-0.04027813
0.04357686
0.03815819
-0.05299446
-0.00569729
0.03075658
-0.01981380
-0.04537974
-0.01310036
0.00528187
0.00807636
-0.01656906
0.04265890
0.05544577
0.04283010
-0.05515410
-0.04188601
-0.00751059
0.04470548
-0.01484875
0.05428160
-0.00953816
0.02490451
-0.03037850
-0.05716291
-0.00894004
0.04954473
-0.02009391
0.04187480
0.03081095
0.05780148
-0.03168105
-0.03869110
0.04955843
-0.05338348
-0.01347104
-0.01522228
0.04142638
-0.00328995
-0.05529488
0.03485388
-0.01185175
0.02120594
-0.00672328
0.01969204
0.01691169
-0.01526514
0.01255052
-0.03655259
0.03735553
0.02977357
-0.02833820
-0.01118606
0.03604385
0.00759226
0.03590345
0.00039978
-0.02376354
0.04860096
0.03410263
0.03164819
0.05243165
-0.00886333
-0.03520941
-0.04828839
-0.00479348
-0.02397388
0.05165559
-0.04393698
-0.05785774
-0.03017730
0.04901278
-0.04788202
0.01967550
-0.02733859
0.04721094
-0.03358554
-0.00459086
0.03390886
0.04211731
0.01939778
-0.01256995
0.05693782
-0.02129348
-0.05499795
-0.05774315
-0.01152461
0.00395987
0.03637613
-0.02523253
-0.00139627
0.02223809
0.01383049
-0.00437775
0.00797536
0.01033324
-0.02501156
0.00087150
-0.04595892
-0.01827509
-0.05356638
-0.03746584
-0.00178434
0.01452289
0.03438338
0.01144997
-0.04813343
0.02148666
-0.05559401
-0.01546764
0.03640886
0.03632396
0.00077023
0.05093021
0.04296407
-0.02618731
0.01857514
-0.03846887
-0.02933012
-0.04056012
0.01286322
-0.04190462
0.00873442
-0.02570176
-0.00315426
-0.04759174
0.02804041
0.00128947
0.04900460
-0.04791433
-0.03038951
-0.04634374
0.05614316
-0.03351377
-0.01007202
0.01726498
0.00910774
-0.00595553
-0.04206529
-0.01975434
0.04544280
-0.01916607
0.03235654
-0.03295031
0.03546122
-0.01819318
-0.04074657
0.04285103
-0.05735235
-0.00412654
-0.03236822
-0.03107753
-0.00197328
-0.04838878
0.03287689
0.03705424
-0.01689941
-0.05165958
0.00424545
0.03554980
-0.05838211
0.05334079
-0.03896468
-0.03373896
-0.01599356
0.04963571
-0.02044969
0.00747629
-0.03919470
-0.01428952
0.01872247
0.04575207
-0.03905344
-0.00492249
-0.04223450
-0.00996150
0.00227233
-0.01795873
0.05635512
-0.01230073
-0.02958197
0.05226536
0.03862838
-0.01432991
-0.02852700
-0.05457026
-0.00758867
0.01980005
0.03521500
0.04788294
0.05255087
0.02893098
0.01529302
0.03995246
0.01349041
-0.04488843
0.04381513
0.02445295
0.03752349
-0.03177009
0.01960819
0.00128043
-0.00670385
-0.03548113
0.05325539
0.05729506
-0.03979976
0.05736879
0.02683168
0.03481700
0.02405133
0.02398627
-0.02221601
-0.05407124
-0.01449190
0.04326432
0.04072070
-0.05398692
-0.04173854
-0.05591928
0.00082326
-0.04545019
0.05062634
-0.01833532
0.01837756
0.03925455
0.02255960
0.03422264
0.01308369
-0.04193180
0.03005173
0.00948065
0.05010034
-0.03996274
-0.04974782
-0.05795740
0.04192255
0.03309104
0.04956692
0.01889039
-0.04938788
-0.04795555
0.04893786
0.02134115
0.01803760
0.04500248
0.04601847
-0.02170471
-0.03871787
0.03358386
0.03582979
0.05692248
-0.02952249
-0.01001156
0.01411400
-0.00730330
-0.02927632
0.01565558
0.04055804
-0.04933815
-0.02352587
-0.05543040
-0.02677515
-0.00220712
0.00951211
0.03931517
-0.01365205
-0.04417964
0.05838268
-0.00217429
0.05583881
0.00738816
0.00819114
0.03481599
-0.05416882
-0.04370316
0.00670340
-0.02195560
-0.00913948
-0.01659650
0.03275592
0.02310089
-0.02674014
0.03853341
-0.05658691
-0.05531019
0.04518216
0.00976661
0.00989192
-0.03622424
-0.01359869
-0.02321710
-0.00401596
-0.02735166
0.02463951
-0.04748155
-0.04703014
0.03006010
-0.01488214
0.01974938
0.04905810
0.03289125
0.00174565
0.03611282
-0.03409734
-0.01632481
-0.01658277
0.02088625
0.04899068
-0.03523260
0.03251213
-0.05557212
0.02062916
-0.02401735
-0.02306535
-0.00659051
-0.04945358
0.00141169
-0.01137625
-0.03468470
0.04196233
0.02366695
0.00441638
0.03930363
-0.02253469
0.05888236
-0.02789409
0.02200912
0.01027990
-0.02263387
0.01717983
0.01838003
0.00246350
-0.02025109
-0.00332838
0.01820143
0.03042763
-0.00159779
0.01889919
0.05201956
0.03216441
0.04489487
-0.04628558
0.02096516
-0.01343252
0.00188327
-0.05424960
-0.03848233
-0.03941563
-0.01402109
-0.00255780
0.05760951
-0.01694044
0.02890013
-0.05427476
-0.01377308
0.04551981
-0.04818618
-0.05031972
0.01971159
0.03935477
-0.02202456
0.01127734
-0.00961320
-0.05692977
0.04126686
0.02638189
0.02159960
0.01377403
-0.05889652
0.00489836
0.02752426
0.02829154
0.04863187
-0.04476961
0.00362225
0.00858013
-0.05284178
-0.00531059
-0.01753886
-0.00005008
0.04115846
-0.02038480
-0.01011639
0.01991829
-0.05085346
-0.03336683
-0.00155099
-0.00231492
0.00722628
0.04195791
-0.03412320
0.03805626
-0.05696052
-0.00337836
-0.00650988
-0.01445280
0.01651340
-0.00966713
-0.03316019
-0.04866643
-0.04950128
-0.01635688
-0.03734196
-0.00291290
-0.00664390
0.04931078
0.04682091
-0.02554249
-0.01206867
0.02638353
0.00657172
0.04197711
-0.01151934
-0.00632984
0.04484426
-0.00070799
0.03553423
-0.02394262
-0.03872737
0.05485649
0.05481346
-0.03493792
0.04106807
-0.02848260
0.03201033
0.01547614
0.02525652
0.02980201
0.02214464
-0.05025877
0.05320800
0.03988961
0.02654545
0.01275595
-0.02453020
0.02342035
-0.01519846
0.01581071
0.03062013
0.05798968
0.01660104
0.00002809
0.04939475
-0.05027035
-0.05167740
-0.00220780
-0.02487095
-0.02496660
-0.01301617
-0.03643532
-0.04538153
-0.04704578
-0.05291780
-0.04025656
0.03646476
-0.01922130
0.05029803
0.04317903
-0.01972622
0.05818044
0.00985164
-0.04631037
0.04718587
-0.03694004
-0.05663157
-0.01784887
0.03796230
0.05119344
0.00958088
-0.03391808
0.04192149
0.00332168
-0.01724321
-0.02077466
0.01011754
-0.01271771
-0.01452986
0.02143810
-0.04255703
-0.03769477
0.03021085
0.04763353
-0.04658722
0.02981042
0.01062945
-0.05176673
0.04180079
0.00932174
-0.01334405
0.02512809
-0.02733568
0.01318111
-0.03286950
-0.04816221
0.01977776
0.02642225
0.01769898
-0.00386347
-0.02769787
0.01314859
0.04216591
-0.03222970
0.05585469
0.04489465
-0.01813407
0.00079996
0.04390242
0.02679991
-0.00109277
0.00600257
0.04644382
0.02265295
0.00258731
-0.00183520
0.04479994
0.04636909
0.01418659
-0.03139573
0.05535489
-0.00428180
0.01579543
0.00384163
-0.03586587
-0.00485043
-0.03221202
-0.00548290
-0.01921098
0.03249964
0.04504298
-0.00417614
-0.05499760
0.02135435
-0.01709463
-0.05568073
-0.02675742
0.05216715
0.00266811
-0.03719152
-0.04461913
0.04896535
-0.03677331
0.04992747
-0.01937402
-0.04767959
0.04859695
-0.02976714
0.01559298
0.00885218
0.02713246
-0.00258997
-0.00830086
0.00936691
0.04926440
0.02186373
-0.02784526
0.03465984
-0.05700279
-0.02686183
-0.02263748
0.00455410
-0.03622181
-0.04829184
0.00649800
0.00990532
-0.01679338
0.04277423
-0.05791439
-0.03751757
-0.01096155
-0.01756732
-0.02848215
-0.02531086
0.02201347
0.01578103
-0.04829368
-0.00360875
0.03125109
-0.01475748
-0.01204508
0.04418945
0.03395635
0.02608267
0.00575609
0.01688404
0.05684994
-0.02111405
-0.05275524
0.02018941
-0.00625689
0.05272314
-0.04514870
0.01754735
-0.03484256
-0.04697051
0.02021891
-0.03828359
0.05320462
0.03416293
-0.03981454
-0.02725131
0.04074045
-0.01055885
0.01668226
-0.00525658
0.00233840
0.02781537
0.00199090
0.04367371
0.04470767
0.02559278
0.03334679
0.03074374
-0.00602475
-0.04269625
-0.03798063
0.01719775
-0.03028897
-0.01402092
0.00567918
0.04847359
-0.01598274
-0.03610997
0.05979062
-0.05309746
-0.02658431
0.02330395
0.04006882
-0.03689820
0.04184984
0.00111772
0.00798424
0.05470206
0.04087937
0.00614411
0.01162739
0.02537735
-0.05672022
0.04321123
-0.02108097
-0.00603796
-0.05151024
0.04731297
-0.01972734
-0.05518575
0.05034717
0.05667106
-0.00349646
0.03038122
-0.04396912
0.00168330
-0.03477035
0.01995258
-0.01502796
0.04431437
-0.00741113
0.02654152
0.05511776
0.01226550
0.00144486
0.02726401
0.03303197
0.04686975
-0.01842491
-0.01882716
-0.01258824
-0.05392483
0.03172190
0.04215740
-0.01801022
-0.02204888
-0.02158111
0.02238562
-0.03334855
-0.02172065
-0.03072731
0.00375694
0.05116463
-0.02160500
0.02222363
0.04679805
-0.02958627
-0.05168505
-0.05407199
0.01758695
0.02586705
0.05658893
-0.00797991
-0.01690757
0.00786804
0.05550631
0.05286212
-0.03134621
-0.04856650
-0.04843988
0.02923164
-0.02979295
-0.01469559
0.00490296
-0.01033535
-0.00146631
0.03310519
0.02788966
0.04876528
-0.01849531
0.03403339
-0.02977381
-0.05635042
0.03455439
-0.05057681
-0.02630606
0.02911556
-0.01411522
-0.02511420
0.02059343
0.05607516
-0.02236277
-0.05648725
-0.05274829
-0.03822343
-0.05645340
0.02012343
0.03350903
-0.05147303
0.00721590
-0.02051524
0.02592796
0.04467788
0.00511352
-0.02395372
-0.04990750
-0.01857923
-0.03871511
0.00505442
0.00178249
0.00953278
-0.03975672
-0.02169433
-0.02201643
0.05486115
-0.01827494
0.01000453
-0.03054198
-0.04227560
0.01923005
0.04624886
0.00652281
-0.02411603
0.03827458
-0.04832291
-0.00128434
-0.04876295
0.01573325
0.05100024
0.03468342
-0.05513589
0.04523152
0.05580937
-0.03473434
-0.03535618
0.03506522
0.05041863
-0.02635380
-0.01391106
-0.03748681
-0.04657521
-0.00331718
0.03208837
-0.02021883
-0.02582377
0.03111473
-0.02386871
0.04666854
-0.05416492
0.04515831
-0.04388906
0.00248900
-0.03830639
-0.01827591
0.03042425
0.05023924
-0.05298578
0.00988356
-0.05140281
0.02381881
-0.01799755
-0.02036384
-0.01555679
0.01202119
-0.02043492
-0.03923648
-0.00527839
0.00085296
0.03168356
-0.02755507
0.02101192
-0.02021514
-0.01292419
0.03434623
-0.03106644
0.04749152
-0.00730192
0.03775602
-0.02133889
0.01625047
0.02144660
0.00815383
0.03995449
0.02066908
-0.01687241
-0.05072243
0.04446850
-0.00138255
-0.03463588
0.00707615
-0.04700867
0.04451947
-0.05782423
0.03323363
-0.04252705
0.04832524
-0.04795012
0.03139287
-0.04416861
-0.03254436
-0.00476682
0.02321096
0.01856781
0.01596213
0.05391103
-0.04146114
-0.05377810
-0.05197469
-0.01900850
0.02288661
-0.04462231
-0.01132087
0.00782073
0.01952891
-0.03587738
0.06123643
0.03864181
0.01234664
0.04884778
0.00705719
-0.04696065
-0.02795078
0.04142895
0.02327218
-0.02645491
-0.01087699
-0.00000739
-0.03405780
0.04734275
-0.01191232
0.02873937
-0.01872822
0.04511840
0.05024836
0.01271284
-0.03848770
-0.02123787
0.05647989
0.02873010
0.00873131
0.03526822
0.01574137
-0.00521308
-0.04275173
-0.00895021
0.03732364
-0.01825666
-0.03167621
-0.03224636
-0.00998800
0.04566186
0.00451473
0.05527754
0.04969343
0.00162542
0.02966069
-0.01720771
0.02296289
-0.05108653
0.02377694
-0.02437590
-0.04001869
0.00846976
0.02136707
0.03882471
0.03504825
0.02642516
0.01948869
-0.00682677
-0.00653573
0.04542423
0.05969835
-0.02818865
-0.02852757
0.00445088
-0.05295703
-0.00449645
-0.01219592
0.02331332
0.00209951
0.03541220
0.05757247
0.04636649
0.01424932
-0.02413424
0.05885449
-0.03827468
-0.03578007
-0.05266219
0.00655021
0.02874715
-0.01060413
-0.03955967
0.00833977
-0.03285598
0.04702869
-0.05236053
-0.02705841
0.02690099
-0.01055901
-0.03256506
-0.01190868
0.06158112
-0.01197134
0.03099427
-0.02687808
0.04717596
0.02626069
-0.04679449
-0.03477892
0.02539355
0.05189771
-0.00661709
-0.00488878
-0.04270570
0.00149291
0.05328192
-0.04605504
-0.04114276
0.03771513
0.01122699
0.00550321
-0.00944258
-0.05362036
0.05646154
-0.01026193
-0.03355192
-0.00952799
-0.00046035
-0.02290606
0.05461758
-0.03917771
0.02297122
-0.00362819
0.01752683
0.04498931
0.00971343
-0.03174618
-0.00256686
0.05138630
0.05443037
-0.00989777
0.00754525
0.02259419
-0.00798318
0.00920301
-0.00437113
0.02646937
-0.01387146
0.03156872
0.01489104
0.01922891
-0.03291076
0.05056863
0.01051337
0.02189896
0.06009481
-0.01089530
-0.04984133
0.03980379
0.01867289
-0.00820412
0.04132509
0.05140354
0.04258224
-0.02802951
-0.04905749
-0.04432315
0.03205350
-0.04823456
-0.01440672
0.04755506
0.04256767
-0.00030246
-0.03710407
0.05610565
-0.04886180
-0.01548385
0.05525728
-0.02130749
-0.00231903
-0.03292438
-0.02355420
0.04032287
-0.02160363
-0.01411271
-0.02085241
0.05904401
0.00450067
0.01020696
0.02998284
0.02844622
-0.01317679
0.02467652
0.04274230
-0.02963593
-0.02142563
0.04635707
-0.05637730
0.02141089
0.02873896
0.05562733
-0.00456859
-0.00787883
0.02001320
0.04930144
0.04780363
0.04350248
-0.01084422
-0.02316905
0.02153038
0.01113169
-0.01128471
-0.03208047
-0.00694460
0.03931345
0.00244216
0.02574038
-0.03370929
0.02365693
-0.01772839
-0.02747735
-0.03484832
-0.04479152
0.02828913
0.03471708
-0.02874401
0.05284396
-0.01770023
0.06126228
0.00814200
0.05652165
0.00637858
0.00447254
-0.05704388
-0.02402460
0.01821340
0.05027008
-0.04188867
0.02588834
0.01859344
-0.02977160
0.02495025
-0.00170675
0.02063033
-0.03247635
0.05786015
0.05041447
-0.02802876
-0.01064459
-0.04626676
-0.00890350
0.00744490
-0.02466133
-0.00859995
-0.02535420
-0.03547539
0.03630544
0.03755632
0.00692398
-0.03964449
0.04864316
-0.03267449
-0.02648598
-0.04754492
-0.00192144
0.05019780
-0.02670120
0.02831811
-0.02967043
0.03852917
-0.03815167
0.02193395
-0.03810824
-0.00046320
-0.01132796
0.05344535
0.01989186
-0.04005156
0.00644738
0.03043816
0.05874725
0.02545747
0.03113904
0.04967894
-0.04229426
0.02700206
0.02709913
0.04053413
-0.00851278
0.03935676
-0.02777689
-0.02263734
-0.05276868
-0.01820808
0.05547164
0.05041863
-0.01855004
0.04761148
0.00434786
0.03989418
0.02135000
0.05436428
-0.04219196
0.05223582
-0.02386733
-0.00586218
-0.00573742
-0.02976367
-0.05553466
-0.01927174
0.02910772
0.02743382
0.01524815
0.04259329
-0.01019143
0.04423742
0.00661568
0.00077654
-0.03533652
-0.02496265
-0.04472195
-0.01769944
-0.00113995
0.02480960
-0.03500706
-0.00195568
0.05979769
0.01027766
0.03307978
-0.00174418
0.01371861
-0.02351524
-0.02392377
0.00995341
0.01712998
0.03652786
-0.00207324
0.02533106
-0.04285874
-0.04780578
-0.03877646
0.01559748
0.00396472
-0.00957470
-0.03427812
0.06017000
0.05160345
0.01366848
-0.01653947
0.00500941
-0.01665185
0.05312374
0.00498664
0.01123773
-0.00762325
-0.00110944
-0.03432504
0.03635875
0.04648074
-0.00484381
-0.03212839
-0.05302418
0.02815556
-0.05678308
0.05913844
0.04376738
-0.01982700
-0.03533669
-0.04548531
-0.00221200
-0.00128107
0.03561730
