0.13713787
-0.00736352
0.09389994
0.11905301
-0.12465422
-0.03200802
0.08406803
0.10362217
0.06260659
0.07348160
-0.00804549
0.08054507
-0.01175247
-0.14034294
-0.08145740
-0.10583089
0.08928503
0.11390855
-0.10494370
0.15075682
0.11425715
0.01710912
0.03987910
0.06581061
0.12471922
-0.10663717
-0.15889059
0.11678558
-0.13116695
-0.12182685
0.03541838
0.09785543
0.04431205
0.09445976
-0.07820199
-0.00519205
0.15203887
-0.07702149
-0.02816204
-0.02256639
-0.03772561
-0.15106204
0.14778106
-0.13696560
0.06643748
-0.01336173
-0.11446182
-0.00450814
0.08030858
0.16394038
-0.03294303
-0.10418325
-0.14474110
0.10542468
-0.08034196
-0.03143971
0.07384825
-0.05068029
0.00702873
-0.01973677
0.03112500
-0.05757273
0.06087684
-0.10689369
-0.04658499
-0.09767136
0.03723051
0.00273987
0.13545452
0.09530625
-0.12505211
0.12627485
0.04131015
-0.08429418
-0.03740042
0.02853224
0.05710876
-0.05202140
0.07357434
-0.11455018
0.03928472
0.14781779
0.14565621
-0.10812414
-0.00816153
0.03451271
-0.11236667
-0.05375133
-0.00323645
-0.12716733
-0.10402774
-0.03668775
-0.10701838
0.07781886
-0.09656902
-0.06307376
0.05579123
0.04848240
-0.09305475
-0.05704252
-0.13117787
-0.02941945
0.02318686
0.09187485
0.15611295
0.03381011
-0.01233390
-0.11323411
-0.11215793
-0.02750565
0.08532719
-0.06132197
-0.01374320
-0.14613523
-0.09990964
0.15208009
0.00625053
-0.01922256
0.12469680
-0.08267754
-0.06238453
0.04228654
0.01342126
-0.00330655
-0.03017712
-0.12540445
-0.16236782
0.15958984
0.13308561
0.06739929
-0.14794618
0.11030201
0.16774368
-0.11016415
0.07932778
0.09444296
0.16544344
0.01060817
0.00023774
-0.01342177
0.09025191
-0.05176623
-0.01357986
0.16090389
-0.08671881
-0.06617219
-0.09509021
-0.10620262
0.02637697
-0.04258398
-0.12469605
0.02299348
-0.02895234
-0.10976734
0.02749479
0.07110510
-0.07999688
-0.13806956
-0.11608814
-0.08834237
-0.00098903
-0.10128972
0.02936634
0.05991983
0.04389369
-0.14409380
0.02121335
-0.12302924
-0.11386620
0.00148204
0.13857315
0.10883910
-0.12208189
0.01656545
-0.08279354
-0.04927047
-0.13714287
0.00690960
0.02753497
0.09551277
0.01787011
0.12945136
0.02964637
0.12725842
-0.00245463
-0.01101354
-0.09764778
0.01275503
0.05752450
0.03803598
-0.05279898
0.08734836
-0.13699166
-0.08652884
-0.11989613
0.08748974
0.16368249
-0.09189596
0.07270058
0.04137487
-0.13355860
-0.11417428
-0.06758137
-0.10903092
-0.14603737
0.06368355
-0.15343317
-0.03691898
-0.05174439
0.13372338
-0.14059871
0.01267327
-0.05843283
-0.03566473
0.13989282
0.14509761
-0.09042036
0.14568345
-0.16016103
-0.01637012
-0.08494473
0.04776588
0.10900760
0.13091230
0.08775701
-0.05070598
-0.12295387
0.06998705
0.01382804
-0.03173262
0.11724651
-0.02303099
0.02829355
0.08547681
0.07064950
0.04213164
0.04487743
-0.02478395
-0.03973509
0.06354892
-0.11938183
-0.12895988
-0.13261679
-0.02647003
0.08234509
-0.11394642
-0.14193754
0.10691077
0.03667206
-0.13115516
0.08934417
0.09168254
-0.09293771
0.07265925
0.08634586
0.09594349
0.06142771
-0.12996779
-0.02119953
-0.07578415
-0.11858900
-0.10802841
0.03958301
0.13623314
-0.09183257
0.09766766
0.15758483
0.09768341
-0.13708933
0.01905329
0.15254030
0.00575172
0.03791422
0.05099872
-0.01438921
-0.14318374
0.01679737
-0.12479221
-0.06335035
0.09510721
-0.10798626
-0.12406348
-0.05061698
-0.06013355
0.10162292
-0.11070663
0.03804699
-0.08906396
-0.03892704
0.06226654
0.15366916
-0.07015749
-0.00392010
0.05214228
-0.01235500
-0.02947570
0.10871419
-0.15043746
0.02827735
-0.14417692
-0.02404056
-0.09776503
-0.01507618
-0.07396685
0.11771497
0.13437818
-0.02316479
0.16342981
-0.05924223
0.02706177
0.05294523
0.13143885
-0.02015891
-0.03996716
0.14583968
-0.12753668
-0.13466321
-0.09894986
-0.08200179
-0.09060848
-0.11675235
0.15172525
0.07310165
0.07835131
0.11766184
-0.00099369
0.02544065
0.04341159
0.11909933
-0.15455903
-0.13123852
-0.13384318
0.03231109
0.03253134
-0.14162019
-0.14548934
0.03098853
0.15775409
-0.14993162
-0.13793093
0.14388482
0.12275102
0.09286433
0.04957959
0.13695820
0.05622188
-0.10821318
-0.00910835
0.01597522
-0.13871765
0.01698370
0.00294452
0.13147858
-0.09346794
0.09981021
-0.06007127
0.16283962
0.11912797
-0.00484765
-0.01253049
0.11496333
-0.09688839
-0.12518311
0.14579567
-0.13113351
-0.13400047
-0.15072176
-0.07369246
0.05644860
0.05118881
-0.09044573
0.03827320
-0.01894135
0.07092565
-0.08715013
0.15209714
-0.11642618
-0.09673303
0.00606256
-0.04039094
0.10759833
-0.02236987
-0.09258529
0.16140744
0.04776606
-0.11961589
-0.07859460
0.08564114
-0.16157916
-0.02740030
0.14269996
-0.07538484
-0.16007748
0.10716590
0.10304491
0.13608778
-0.08096430
0.13557993
-0.05855924
0.01006787
-0.00342454
-0.11936007
0.05260345
0.13800637
-0.08637305
-0.12776789
0.04974781
-0.16814072
-0.11071017
-0.09226885
0.07764503
0.14679477
0.00167507
0.10682326
-0.14513718
0.09130025
0.03764477
0.09285010
0.10852395
-0.07131663
0.05243365
0.12110218
0.05185189
-0.14552337
-0.13546795
0.03604166
0.11619279
-0.00216923
-0.13871317
0.00866148
-0.15690696
-0.06454675
0.07247462
0.07107224
0.06852366
-0.02566195
0.08030861
0.05228222
-0.01011713
-0.07055634
0.04478559
0.06456423
-0.12906025
-0.07652966
-0.00287924
-0.12352970
-0.05602650
-0.03918088
0.00830814
-0.13191898
-0.13336816
0.14104170
-0.10196950
0.12391602
0.03096152
0.07276437
-0.09795778
0.09635318
-0.13396147
0.08526169
0.06422701
0.04937240
0.07608884
-0.14273627
-0.14528370
-0.02372801
-0.11141902
-0.13581806
-0.14199196
0.13185415
0.15822490
0.12517700
0.11553101
0.07909962
-0.07349192
0.01879985
-0.13284995
-0.13634272
0.14175339
-0.02721724
0.11722638
-0.14347564
-0.11579906
0.11203589
-0.07627281
0.08767651
0.07126469
0.08687279
-0.13337016
-0.12969707
-0.06156156
-0.12024282
-0.03140928
-0.13171735
0.02495070
-0.11188830
0.08806285
-0.14635909
-0.08053353
-0.12750700
0.08848225
0.06523289
-0.13832495
-0.07577655
0.05685515
0.14134787
0.03560022
0.11258805
0.04822727
0.09062848
0.15198334
-0.15735586
-0.13356474
-0.00222922
0.02656686
-0.04646912
-0.05564314
-0.05946356
-0.00583988
0.16997199
0.12855341
-0.08973889
0.01503153
0.12967075
0.11880985
0.00604455
0.00448685
-0.04140880
-0.03886176
0.14186351
0.12703736
0.08198147
-0.03894918
0.06324698
0.01836883
-0.04452669
-0.10245331
-0.11055496
-0.04767952
-0.05330752
-0.05856417
-0.12952070
0.07263710
-0.10343364
0.07233015
-0.12058017
0.06641645
0.02654676
0.08518853
-0.04330891
-0.01980705
0.04844345
-0.11015934
0.11691401
-0.00798559
-0.13405444
0.15489368
0.10757960
0.04196401
-0.05246631
-0.03912690
0.12284661
0.06515012
-0.12112068
0.13396212
0.03892027
-0.06649154
0.11574304
0.16859446
-0.02069984
0.10753087
0.00519127
-0.15825558
0.05305572
-0.03323120
0.07998978
-0.01637825
0.03025565
0.09511159
-0.09803588
0.12356272
0.01321916
0.08289004
-0.14409427
-0.15486744
-0.03437897
-0.11058090
0.04958335
0.13165236
0.15837584
-0.10888220
0.13512385
-0.02772276
-0.11334036
0.00720838
-0.15316314
0.16942059
-0.05854828
0.11135809
0.09544158
-0.08140438
0.08654383
-0.11213400
-0.13711002
-0.09455025
0.12058645
-0.13877752
-0.13750389
0.08048972
0.01431101
-0.10502373
-0.06294100
-0.15442124
-0.11664382
0.02406413
-0.13614748
0.10714620
-0.15713637
-0.08079293
0.02730050
-0.00871838
0.14823216
-0.07931025
-0.12794493
0.16665381
-0.05030084
0.03258878
0.14287838
-0.04235489
0.08316667
0.13766091
0.15014280
-0.11319334
-0.15254988
-0.13329537
0.15559022
-0.06614819
0.02304754
0.09360230
-0.05496054
-0.09611931
0.16694105
0.15494478
-0.01409581
-0.13673387
0.09575783
-0.05898652
-0.10862234
-0.06407354
0.10597803
0.12995158
-0.14364737
0.13748641
0.12583844
-0.07941547
-0.02930840
0.08585551
0.13272974
-0.04705891
-0.06356090
0.11628076
-0.13775305
0.08377040
-0.02171200
-0.12452803
-0.11083074
-0.07842072
0.12689987
-0.06387446
-0.02588516
0.09979612
-0.13002279
-0.05004574
-0.01536431
-0.00500277
-0.00508285
0.01523849
0.10756584
-0.06464068
-0.12198930
0.03161699
0.12075180
-0.03574791
0.05629580
0.13153978
-0.04258824
0.01150136
-0.03340139
-0.09409331
-0.03872257
0.09537819
-0.15999621
-0.13389942
-0.02553911
0.06733094
-0.00692207
-0.05301871
-0.03020189
-0.00570366
-0.08188234
-0.06211241
-0.14204054
0.05857157
0.00465708
0.13398443
-0.01400912
0.01828650
0.06180758
0.16005749
-0.04111497
-0.00949979
-0.06672690
-0.01729598
-0.15108356
0.10417543
-0.00176188
0.02849951
-0.01845844
-0.06991946
0.05194595
0.08749656
0.07922072
-0.07985873
-0.04496145
-0.05873603
0.03431678
0.00846910
-0.08450823
-0.13219334
0.01408550
-0.07860523
-0.05239699
0.00814523
-0.09319034
-0.13835454
-0.15374395
-0.05344751
-0.06176816
-0.01175432
0.05695753
-0.08320130
-0.14349107
-0.06754976
0.12172585
-0.13873489
0.12764715
0.08312148
-0.01642729
-0.11758330
0.07618594
-0.00440101
0.11298385
0.02296992
-0.05546835
0.03081734
0.04687853
-0.16256680
0.11710189
-0.02859122
0.02463086
0.09696771
0.00362715
0.11994603
0.05359263
0.05878175
-0.15416965
-0.09131125
0.11943813
0.03103499
0.13677549
-0.02677395
-0.10496832
-0.14727761
0.11971637
0.04983871
0.16392876
-0.15750098
-0.14124766
-0.04187741
0.16035973
-0.12793055
0.16780484
0.03530957
0.00938844
0.13886560
0.04197402
0.07143718
-0.11360891
-0.09961594
-0.07683890
-0.05272743
0.02573344
-0.02089668
0.06395968
-0.09222311
-0.08382814
0.11363099
0.09608311
0.05129383
-0.11971601
-0.05839685
0.02900670
-0.14633855
-0.11919764
-0.04432005
-0.09361234
-0.00089020
0.09156625
-0.13098176
0.01117214
0.02876133
0.10250716
0.14295882
-0.00977717
-0.02441044
-0.01241735
0.00417524
-0.15917286
-0.13849986
0.13722718
0.15443000
0.05974302
-0.03884705
0.09425343
-0.14395159
-0.12371211
0.09940787
0.13841003
-0.04057236
0.00094717
0.01853720
-0.13809292
0.10686806
0.04696135
0.00281903
-0.13772891
0.03394105
-0.08821475
0.01767712
0.05884795
0.09240212
0.16049890
-0.04031858
-0.13152990
-0.13290922
0.14230527
-0.02301644
-0.10906717
0.01612233
0.11365500
0.08342979
-0.07547154
-0.06609208
0.00999920
0.12141108
0.11892463
-0.14221042
-0.06789136
-0.07362680
-0.05138879
-0.09659504
-0.13689055
0.16044647
-0.15306763
0.15175636
-0.15935324
0.08559458
-0.15212074
0.14489001
0.05059022
0.12510067
0.06577732
0.12387355
-0.00718714
-0.16079479
0.15163076
-0.09158208
0.03596844
0.00530398
0.16040704
-0.06857674
-0.03634821
-0.01633669
-0.05737388
0.13826549
0.00571338
-0.09858290
-0.07812681
-0.00173044
0.14340453
-0.14755507
0.13762911
-0.01628252
0.11963025
-0.09228371
-0.01587889
0.07000124
0.06364644
0.10494921
-0.05390972
-0.03781648
-0.06301842
0.09203266
-0.11351023
0.14519460
-0.06112187
-0.08923002
-0.09938218
-0.09343705
0.05541066
0.02664585
-0.15488577
0.11836382
0.09312385
-0.14935622
-0.06151577
0.15580356
-0.04320818
-0.00253046
-0.13228425
0.11156110
-0.00258310
-0.13282999
-0.04685658
-0.09785722
-0.03425527
-0.09271637
-0.06046820
0.05823187
-0.12564221
-0.00786959
-0.09940655
0.06165953
-0.12549728
0.00601181
-0.06076300
0.15932228
0.09433551
-0.12155702
-0.15943083
0.09689340
-0.09684385
0.05842176
0.02419683
0.09147409
0.10268214
0.11451429
0.10115746
0.01000594
0.02669921
0.05473845
-0.10755503
0.09747175
-0.14516746
0.14956905
0.02111644
-0.07542337
-0.10959920
0.01565753
0.05007809
0.00305812
-0.03309394
-0.10708976
-0.00281640
-0.06532072
-0.13630056
0.00283889
-0.05040246
0.05872900
0.02639470
0.16752711
0.07744813
-0.01843382
-0.07805166
0.03096371
-0.09801671
-0.07159235
0.06808913
-0.08101739
0.11797246
0.15756094
0.10485989
0.03582266
0.12876131
0.08161043
0.06377679
0.09277672
0.11941803
-0.04880325
0.10702182
-0.08534460
0.02029011
0.11442200
0.13963503
-0.01132249
0.06256939
-0.01463521
0.00877392
0.15207161
0.03593944
0.07277980
0.08208564
-0.15666047
-0.06302645
0.16028394
-0.06700013
0.07130041
0.10653029
0.08908698
0.04612224
0.14014162
0.11754823
0.02799599
-0.02312294
0.05991166
0.05707021
-0.04551979
-0.03840458
0.13591918
0.11563633
0.09159934
-0.04156214
-0.01397894
0.04635156
0.12085588
0.02042722
0.00553811
0.07876468
-0.10727328
-0.11884262
0.09331208
-0.14509211
-0.10766752
0.15541258
0.12230592
-0.07657319
-0.01494532
-0.10784154
-0.05849911
-0.12800865
-0.02917007
0.07165471
0.00222881
-0.13071136
-0.04819603
-0.09389169
0.13376389
-0.14031902
-0.02394049
0.06404241
0.12733077
-0.00157996
0.04826038
0.05040930
-0.09903018
0.07246201
0.12368677
0.06273362
0.09035399
0.05485890
-0.04243358
-0.12909634
0.08769822
0.14475869
-0.04514999
-0.13100494
0.04613823
0.01955776
-0.13668789
0.10820503
-0.06618580
-0.00436806
0.15037781
-0.12185387
-0.07334321
-0.03851067
-0.12632962
-0.02748245
-0.00096056
0.01899040
-0.01605272
0.12742704
-0.10958884
-0.08954532
-0.07984862
-0.05504863
0.09197783
-0.07866005
-0.04579267
0.15745945
0.16407309
0.06782758
0.16727605
0.13059074
0.13991475
-0.15201949
0.14322081
0.01135346
0.09291441
-0.12634380
-0.02581722
0.03639830
-0.08524271
0.03615659
-0.05224251
0.16147834
-0.05828404
0.10043854
-0.13686444
-0.01087028
-0.02273385
0.06030464
0.04784632
-0.08445033
0.09900706
0.02094217
0.10259109
-0.00051072
0.12343979
0.09170981
-0.10960437
0.01212758
-0.08138927
0.13509533
-0.13603260
0.02382093
0.15242551
-0.12813868
-0.03829867
0.06873503
-0.14846706
-0.12155009
0.14332518
-0.07033256
-0.02475961
-0.01206294
0.15161051
-0.04197371
0.01721121
-0.12819037
0.06690089
-0.10101333
0.14475770
-0.00718845
-0.13848701
0.14293835
0.16531031
0.08890086
0.02267667
0.14742455
0.00374735
0.03648549
