0.04204923
0.07408556
0.03683606
-0.04297991
-0.05772723
0.02501732
0.00400012
-0.04524298
-0.01984402
0.07685664
0.06907473
-0.03291456
0.06012097
0.00301440
0.07829928
0.07004426
-0.01110898
0.08005358
0.04825496
-0.07569145
-0.04994889
0.00404852
0.04705383
0.05196900
-0.01818030
-0.03757855
0.00575618
0.02784911
0.04496682
0.05304030
0.07593081
0.01954246
-0.07846880
0.07994203
0.00024062
-0.04577897
-0.02988607
0.00513370
0.01091400
-0.04760857
-0.04802262
0.05002499
0.00090274
-0.07689930
-0.06162738
0.03190511
0.01963444
0.05734607
-0.01776331
0.02391555
-0.06560331
0.01450588
0.01637346
0.06394103
-0.04983334
-0.04285207
0.06272520
0.06379018
-0.06249396
0.07556234
0.05772429
0.07704128
-0.01580574
0.02845256
0.02965810
0.02253766
-0.00351815
0.02189188
-0.04239579
-0.02148692
0.06115671
-0.07994658
0.00772853
-0.03661905
0.00847359
0.00596507
0.02084866
-0.01726821
-0.07478276
0.07156173
0.02087443
-0.01820086
0.04543407
0.04470141
-0.02561747
0.02590915
0.00988981
-0.03390754
0.01046437
0.01760664
0.04057647
0.01664293
-0.01892330
-0.03683322
-0.07310864
-0.07340687
0.04512774
0.08379382
0.04771190
-0.02073893
0.07790937
-0.04870468
-0.05662329
-0.02044272
-0.07599652
0.06103492
0.00064800
-0.06699418
-0.07996318
0.01133610
0.02688342
-0.07345454
0.07266697
0.07335538
0.00875678
0.02379386
0.05074038
0.00135048
0.03508813
0.02646351
0.03544904
-0.00131739
-0.02069730
-0.03685862
0.01705135
0.00749914
0.01089400
-0.06675293
-0.00949505
0.01959151
-0.04458465
-0.08291368
-0.03934783
-0.05684212
0.06091724
-0.00164578
-0.02840323
0.08179694
0.04353659
-0.02164177
0.05698733
-0.07562564
0.06943249
-0.07391644
0.06568665
-0.03776995
0.07565106
-0.07212385
0.07468581
0.06475399
-0.06765652
0.00636375
-0.06186884
-0.04078241
-0.05043691
0.01521417
0.08482098
-0.04345929
0.06865814
-0.02640989
-0.02178554
-0.05537782
0.08451488
-0.06641290
0.03483760
0.07163607
-0.00355975
0.01153998
-0.01338698
0.03796007
-0.00139354
-0.00050137
0.06525877
-0.02421067
0.04012648
0.04151597
-0.07469717
0.01575510
0.01668254
0.01629271
0.03269243
0.07735690
0.01931028
-0.01165377
-0.03704899
-0.02852968
0.08396664
0.03933984
0.07689034
0.06578954
-0.06837793
-0.03051543
0.05909924
0.00258928
-0.06150987
-0.02567889
-0.05358335
-0.03034343
-0.01773538
0.04464241
0.06659617
0.01994488
0.06669655
0.07495472
0.07607754
0.05725116
-0.02867563
0.04369996
-0.02303899
-0.01481276
-0.07576934
-0.07162357
0.08572656
-0.01232614
0.01703990
0.07070063
-0.02159325
0.06102140
0.00893216
0.03442665
0.04855703
-0.05542851
-0.08184709
0.02587559
0.01410509
-0.02692520
-0.03070333
0.01355232
-0.06178406
-0.00159867
0.04698944
0.02808241
0.04851279
-0.01850753
-0.01712319
0.03556506
-0.06727613
0.03247372
0.04501370
0.07246771
-0.04946429
0.04980177
0.02678818
0.00863835
0.03450665
0.01446933
0.01277765
0.07628870
-0.03741076
-0.07522821
0.04630715
-0.04591012
0.08589408
-0.06829035
0.08496217
-0.02279142
-0.03116305
0.01261842
0.04925608
-0.06712749
-0.03794988
0.06224886
-0.06166076
-0.03155070
-0.02566443
0.03211097
0.05929262
-0.04599268
-0.06883162
-0.02427403
0.02011655
0.03205949
0.06450091
-0.01412969
0.04222171
0.07665705
-0.02732879
-0.00519697
-0.06090556
-0.00920747
-0.04224280
0.07212561
-0.01818775
-0.05055185
0.02738648
0.00130533
0.06945613
-0.07602626
-0.03324191
0.05650647
0.05997803
-0.02192612
0.01074620
0.05306209
0.00185605
-0.05683661
-0.04648378
0.04614832
-0.00233898
0.05347453
0.03104026
-0.03740471
-0.04907868
-0.01947846
0.05705921
-0.02488570
0.04429525
0.05199284
0.07834101
0.07065798
0.04791278
0.03141841
-0.00160837
0.01056536
-0.03755742
-0.03961306
0.00474391
0.05422196
-0.05804303
0.07401079
0.03328073
0.02777211
-0.07019453
0.05309740
0.03595102
-0.05322538
-0.03769519
0.05702034
0.05822986
-0.03073775
-0.00695468
-0.03378047
-0.02151419
0.07624182
0.01804893
0.04209112
0.07870658
-0.01617472
0.02078391
-0.06546044
-0.05057400
-0.01568663
-0.03529079
0.06766945
-0.06287437
-0.03552259
-0.00594764
-0.04052253
0.01910970
-0.05051398
0.00422093
-0.07190905
0.07148042
-0.07972771
0.00963024
0.05504165
0.03589964
0.03413016
-0.04988739
0.03145297
-0.06988107
-0.07048050
0.00710385
-0.01811771
-0.05816850
0.04050612
-0.07249998
-0.08032162
-0.03913340
-0.03548996
0.01224979
-0.04182526
0.05851779
-0.05258346
-0.06198861
0.07305899
0.04754675
0.03789010
-0.08174988
-0.07696823
0.02382831
0.05938649
-0.01897954
0.06264804
-0.06278816
0.05857047
-0.03264608
0.07163641
0.07050721
0.06555673
0.02081753
0.02506562
0.03311200
0.04217336
0.05627959
0.04321607
0.01319103
0.03529187
0.06540356
-0.02255075
0.05067432
-0.04084811
-0.07222481
-0.02144874
-0.05867637
-0.01674236
-0.07014856
0.01755884
-0.06121585
0.02563591
-0.06047970
-0.02088873
0.03389383
0.02367077
-0.02515497
0.06970414
0.04862670
0.04270915
-0.00371112
0.08158468
0.03137827
-0.00878058
-0.03411013
-0.04986416
0.08350504
0.00323610
-0.04929021
0.05933026
0.03720813
-0.00254907
-0.03452729
0.01850037
-0.00220118
-0.07142830
-0.00473672
0.01296813
0.04218039
-0.02096734
0.06132787
-0.01220369
-0.00770232
-0.05106942
-0.06461858
-0.02593210
-0.00367488
0.01275449
0.01914307
0.00824224
0.04670404
0.05237466
0.07533463
0.02871656
0.03710457
0.05493606
0.07004873
-0.07226968
-0.03561381
-0.06419646
0.08165102
-0.03614131
-0.00670603
0.03483636
-0.05333358
-0.06733239
0.06429322
0.03389069
-0.03961709
0.05407396
0.06702159
-0.05419717
-0.00414222
0.04518384
-0.06857163
-0.04051271
0.03786982
-0.05383488
-0.07563836
0.00698742
-0.05044109
-0.07020999
-0.05606603
-0.00296476
0.02492919
0.02144410
-0.06357364
-0.07068235
-0.05482860
0.08121450
0.02641179
0.03954793
-0.02659899
0.02581146
-0.06039730
0.02782455
-0.07861540
0.04384613
0.07511489
0.04181571
0.08208333
0.02461944
0.02391808
-0.02342578
0.08325497
-0.01798151
-0.05169851
0.04393939
-0.06220127
-0.04053344
-0.03242896
0.04093459
0.03588878
-0.03922047
-0.00662863
0.01743629
-0.06111962
-0.00891204
-0.01531607
-0.01053779
-0.07536612
0.02292678
-0.03028932
0.08376033
0.07288691
0.08239195
0.06342310
0.03866880
-0.00416523
0.06068286
0.01524675
-0.03693632
-0.00896281
-0.05402455
0.03569724
0.08513758
0.04332127
0.03311546
-0.05639300
-0.05194207
-0.04981519
0.06066269
-0.03856403
0.00617187
0.01750590
-0.02786538
-0.07611949
0.07132398
0.05989614
0.07596731
-0.05401774
-0.05055675
0.03297697
-0.04660443
-0.07243534
-0.07845557
0.05352296
0.08440547
-0.07435149
-0.07295679
0.01914990
-0.06248602
0.00533024
0.00416829
-0.04273997
-0.03044816
0.00521042
-0.06904043
-0.03992270
0.05326331
0.02460173
0.06481300
-0.01720839
0.04252244
0.02090896
-0.02041935
-0.02170088
-0.03834445
-0.02765603
-0.01681672
-0.01371377
0.04138924
-0.03480808
-0.00016031
0.04099897
-0.04022394
0.00945507
0.03936908
0.06748684
-0.03099919
-0.07112575
0.00224917
0.00462212
-0.06772994
-0.02006285
-0.04576713
0.01058040
0.05916286
-0.02284940
-0.03832368
0.07512643
-0.05900751
-0.05207805
-0.04888943
-0.07690337
0.01400435
0.00042349
-0.08265834
-0.00465874
0.03507885
-0.05650449
0.04788632
0.02673710
-0.03615476
0.00012575
0.02071602
0.01597388
0.00821175
-0.07990631
0.01399271
-0.05125370
0.03370330
0.07491390
-0.00683947
-0.07009786
0.07580624
0.05506937
0.00420684
-0.05120441
-0.02376812
-0.05606188
0.05918724
-0.03890843
0.06887531
-0.06473630
-0.07552108
0.00434948
-0.05977098
-0.04196808
0.03771140
-0.04390236
0.04640076
0.01473962
0.05555464
0.00436504
-0.05582928
0.05912407
-0.03691583
-0.01817935
0.01262669
0.04014924
-0.02754856
0.03467821
0.04530697
0.04552484
-0.01594665
0.06652165
-0.00112289
0.01464451
-0.06396993
0.01923660
0.06314088
0.01239891
-0.07133322
0.06139205
-0.02842549
0.07883326
-0.02325636
0.00811490
0.01017583
-0.00685534
0.06529272
0.02119928
-0.06525430
-0.06436665
-0.04344404
-0.06321649
-0.08275548
-0.06823921
-0.06152001
0.05366135
0.06010461
-0.01869889
0.03519753
-0.07713573
-0.03133019
-0.08139921
-0.08137788
-0.00886709
-0.07271045
0.01603728
-0.06928986
-0.05629680
0.06600768
-0.03983425
-0.08327255
-0.05360804
0.07107972
-0.06964312
0.06743842
-0.06065206
-0.05210748
-0.08238572
-0.00920684
0.07033119
-0.04131126
-0.02740161
-0.07798611
0.01220727
0.03848674
0.02645352
0.03168374
0.00613932
-0.04393313
0.03242638
-0.02865478
-0.04750295
0.03834927
0.01822588
0.04341898
-0.05469587
-0.02022964
-0.02308410
0.00991913
-0.02252511
-0.03591403
-0.07686641
0.08013514
-0.03462716
0.07443092
-0.06312092
0.01337952
-0.05890369
0.01519527
0.01484492
0.06725783
-0.06102990
0.07955215
-0.05586470
0.03720643
-0.00714848
0.04421805
0.05667147
-0.06552049
-0.01191186
0.08081516
-0.05246013
-0.01367303
0.05403901
-0.01540277
0.03436003
-0.00513172
-0.07863959
-0.02427139
-0.01667824
-0.03206536
-0.06843779
0.07241556
0.07419300
0.04263041
-0.05429909
-0.02093797
0.08154305
-0.02589271
0.03960963
-0.05736767
0.04366631
-0.05509489
-0.04267422
0.08140999
0.06443508
-0.04351793
-0.05749660
0.06688254
-0.02796628
0.03645778
-0.07099849
-0.00252154
-0.03280058
-0.07052070
0.01028574
0.08227306
-0.03467238
-0.01242977
0.02110884
0.06200952
-0.02803560
0.08018414
0.00746770
-0.03040044
-0.03154556
-0.06265029
-0.07976454
0.06257334
-0.06608582
0.01989005
0.02999232
0.05743008
-0.05628847
0.05045759
-0.00880166
0.06954191
0.00049102
0.07961191
-0.06990086
-0.05639976
-0.07640484
0.08322111
0.01847064
-0.08085968
0.03647957
-0.02030993
-0.05680784
-0.05416143
0.01081443
-0.00053283
0.00689975
0.01764196
-0.03253990
0.00217422
-0.06372168
-0.05614423
-0.01872365
0.00901367
-0.03169112
0.07141653
0.01412275
0.03990955
-0.02207775
-0.03558327
-0.05265192
0.02756110
-0.04448298
-0.06654313
0.07884731
-0.04889359
0.01598372
0.06480248
-0.04573629
0.07607683
0.04174866
0.00929645
0.06263632
0.07404727
-0.06261479
0.04830810
-0.07346301
0.00550252
0.00489108
0.03484216
-0.06207022
-0.01403870
0.03097611
-0.08127888
-0.00838069
-0.03058507
-0.05953221
-0.05969729
-0.01213997
-0.06580812
-0.05439400
0.05647391
0.07357541
-0.03730843
-0.07093909
-0.02425776
0.00680357
-0.06865608
-0.00634273
0.06172931
-0.04423743
0.00601376
0.03530104
-0.02840424
0.03105863
-0.06640439
0.05052306
0.02842190
-0.01320987
-0.03895102
0.04403265
-0.01004261
0.05388298
-0.05433645
-0.03340379
0.01291371
0.00112373
-0.05551381
0.05300231
0.05120096
-0.02652410
0.07595441
0.08329982
0.07673465
0.08206700
-0.04893507
-0.05937355
0.04343393
-0.01505478
0.07058971
-0.00230113
-0.06728951
-0.01428847
0.03193607
-0.00549225
0.02029498
0.01674434
-0.03816296
0.00569906
-0.07984576
-0.06332009
0.02353162
0.03075069
0.07703734
-0.08249225
0.02093276
0.03524221
0.07152434
0.04728987
0.02646253
0.04604668
0.05179738
-0.05031981
-0.07595983
-0.01345064
-0.05941578
-0.07296511
-0.06755964
-0.07949813
0.04175004
0.05439481
0.07347938
-0.07761169
-0.02931473
-0.03827438
-0.03080954
0.04082907
-0.07395974
-0.00875131
0.03354689
-0.04883734
-0.07164723
0.03973857
0.01868013
0.01053137
-0.06675500
-0.02358533
-0.06611781
-0.02077074
0.06623450
0.02207020
0.01290552
-0.07564070
0.05886604
-0.04898518
0.04194934
-0.06490842
-0.06096835
0.04276428
-0.01133938
-0.07312404
-0.07345102
-0.00405848
-0.04137642
0.03575991
0.06703664
0.07744355
0.08200586
0.07613941
-0.01797995
0.04712472
0.00959020
0.01904871
0.05150625
0.03464299
-0.05386484
0.01347632
-0.01933469
-0.01858037
0.04863503
0.04556175
0.07581431
0.07946688
-0.05181895
-0.04624734
0.03140668
0.05180823
-0.05494755
0.00332781
-0.05987140
-0.05127589
-0.05082079
-0.04622125
-0.00410499
0.03898916
-0.01934918
-0.05104927
0.02860469
-0.03773476
0.05339798
0.08071449
0.05541106
0.03754897
-0.05644933
-0.03821893
0.01981900
0.04623210
-0.06654841
0.01708112
0.07731276
-0.02906431
0.02474614
-0.04031819
-0.00372937
-0.03731760
0.02656518
0.01045471
0.03576015
0.02969009
0.04675270
-0.01242557
-0.08104900
0.03053534
0.06408122
-0.00859803
0.02079181
0.03349544
-0.04061057
-0.07095687
-0.00790438
-0.07208826
-0.00883614
0.03784985
-0.02522120
0.05442338
0.04190282
-0.04499564
-0.03764900
-0.07828230
-0.04157099
-0.08250644
0.04611571
-0.02737506
-0.06132830
-0.06248838
0.00397533
0.07138901
-0.04456113
-0.04000191
0.06975196
0.02311267
0.01248564
-0.05401772
0.05846436
-0.04908526
0.05137787
-0.03103212
0.06282551
0.07770155
0.05729643
0.00397158
-0.03197691
0.01587362
-0.01994409
-0.00551625
0.00777711
-0.05465811
-0.04431951
0.04983351
-0.02656497
-0.03906783
-0.00205869
-0.03612611
-0.08156771
-0.00534825
0.00289638
0.08085389
0.04475313
-0.01171813
0.01929533
-0.03506500
0.03804323
-0.07930976
-0.00656458
-0.02062384
-0.01425571
0.05386410
-0.04586348
-0.07259050
0.03581572
0.01399989
-0.00295743
0.02874319
0.02982822
-0.03165733
-0.03215101
0.05898080
-0.01748320
-0.02448684
-0.01059881
-0.05323184
0.04244232
0.04497317
0.06175661
0.07480808
-0.05936718
-0.05583382
0.03150205
0.05088676
0.00127285
0.01137386
-0.08101477
0.01421667
-0.01571916
0.02308843
0.07694643
-0.05030357
-0.03403528
-0.05736024
0.07270768
0.03723591
0.03132771
0.01204073
-0.04050488
-0.08379801
0.01141099
0.03513715
-0.03054118
-0.02777485
0.08032063
0.06656150
0.04144232
-0.02986039
-0.00702846
-0.04400736
0.01908921
-0.03290530
0.05442228
-0.01309263
-0.08021429
-0.04213223
-0.06591038
-0.02353536
0.07765532
-0.00798063
-0.07553515
0.04478819
-0.05108357
0.01814940
0.04288523
0.04408911
0.06123932
-0.00430270
0.02325078
-0.07286120
-0.04742064
-0.05357219
0.02316866
-0.06891760
0.04376539
-0.02425841
0.08032978
-0.07323547
0.01199312
0.07944128
0.07350691
0.03706693
0.07080281
-0.07863978
0.07035875
0.03944068
-0.01627695
-0.00563862
-0.00572474
-0.03047240
-0.06758168
-0.01273763
-0.04495703
0.02951830
-0.06292677
-0.01231888
0.08418748
0.05345611
0.00320281
0.08085155
-0.00772150
-0.05599494
-0.06767553
-0.06147615
-0.06388888
-0.03651767
-0.03650280
-0.01566245
0.07368765
0.02869836
-0.05429925
0.07058636
0.04789179
0.02052245
-0.02118659
0.02626968
0.07462578
-0.03019178
0.01810765
0.01256715
0.02591062
-0.07504898
-0.00211390
-0.05231443
-0.01534215
-0.06746074
0.07097638
0.04682407
-0.03711017
-0.05165916
-0.02055913
0.07257279
-0.04208809
0.02533395
0.07365244
0.07944156
-0.04850518
0.02619629
-0.04380132
-0.02201026
-0.05176678
-0.05923633
0.08307659
0.06783424
-0.00569036
0.06500364
0.07757710
-0.00624930
-0.06766097
0.04298420
0.08302887
0.04551093
0.02382570
-0.00881351
-0.01338500
0.01566542
0.03461074
0.03546387
-0.05766044
0.03815944
0.00372136
-0.07602881
0.01831134
0.05820505
-0.01271912
0.03075122
0.01969293
-0.06407511
-0.01571986
0.01279366
-0.06490505
0.05121712
-0.00345993
-0.04770453
-0.01705408
-0.05542606
-0.02383305
0.00353206
-0.04537313
0.06786951
-0.00481512
0.01853020
-0.07176892
0.07463558
0.08116743
0.04663567
-0.02537584
0.06302382
-0.06033227
-0.00876649
-0.04187047
0.04899570
0.07472387
0.06916851
-0.03326071
0.03521965
0.07654347
0.03289036
-0.01940695
0.03245389
0.07277472
0.05022959
0.03345697
0.01158176
-0.04992880
-0.03217299
0.00909868
0.02080712
0.05796022
0.00645063
-0.03539425
-0.01293129
-0.02863048
-0.00536330
-0.03277203
-0.06911073
-0.07657260
-0.05914549
-0.07178818
0.07996984
-0.04880150
0.00763024
-0.06902491
0.08286552
-0.05261115
0.07695751
-0.04050936
0.01346746
0.06983783
0.03365790
0.06856862
-0.07336386
-0.05235211
0.00726409
-0.07267010
0.07928787
-0.00456962
-0.00979168
-0.03965503
0.04579130
0.06718605
0.01114801
0.00525246
-0.03067306
-0.04555032
0.01532428
0.07462066
-0.05124644
0.03432136
0.02991707
-0.00464425
-0.04736023
0.04980243
-0.04681410
0.06408697
0.03597477
0.01721630
0.04391097
-0.01120951
0.05295208
-0.01923877
0.04677288
-0.07671256
0.04479143
-0.04440552
0.01382537
0.07994100
0.07056534
0.03595684
-0.07993448
0.05300037
-0.00013958
-0.01328614
-0.05142755
-0.04021734
0.06213055
0.07263348
0.07631813
-0.01655105
0.07124890
-0.03045526
-0.06249067
-0.05363767
0.02347606
0.08470744
-0.05114355
-0.00650801
0.08098475
0.03991051
0.02379828
-0.00897472
0.07654729
-0.06515308
-0.05525667
-0.04007503
-0.01083642
-0.01007139
-0.02941537
-0.02035435
0.00815653
0.08448923
0.03637452
-0.06931049
-0.00345338
0.03304102
0.03389756
0.00583897
0.05046255
-0.04697609
0.01630338
0.07673153
-0.02383348
-0.06363257
0.01120741
0.02344569
0.00452499
0.00399293
0.02494662
-0.02340883
-0.06877419
0.03893526
0.01412816
0.03425428
-0.02062463
-0.02636488
-0.07493972
0.04768221
-0.06494494
-0.03805361
0.06873850
0.04886410
-0.00303809
-0.05038041
0.01127366
0.02652787
0.05722110
0.06144439
0.00415406
-0.06128504
0.00195166
-0.06508206
0.00361598
0.07475264
0.04565646
0.05920575
-0.02302710
0.04121324
-0.04948098
0.00969169
-0.02609801
0.04842652
-0.02961935
-0.03469442
-0.04406775
0.06800737
-0.07945632
0.05707743
0.05020209
-0.00095078
0.00989207
0.06651875
-0.01963109
-0.07226115
0.04578948
0.01508702
-0.06825825
0.02614853
-0.00871431
0.00119963
-0.06964566
0.00618579
-0.08002249
0.02285826
0.05417196
0.02104786
0.07884524
-0.06229016
0.07310272
0.02084811
0.03372272
-0.05767193
-0.02782747
-0.03571875
-0.04668528
0.00084029
-0.04224274
-0.07153448
0.01552889
0.06972810
0.05863713
0.05333980
-0.06448192
0.00410237
0.08047615
-0.01876059
0.06422399
-0.02814748
-0.03831520
0.04375673
-0.04905777
0.01088287
0.02783019
0.06222993
0.03385709
-0.02202252
0.01407083
-0.04063952
-0.06467065
0.06935268
0.05208972
-0.01441360
0.01119331
0.07882300
-0.03089650
0.04151316
0.07990761
0.05768111
-0.03090253
0.02309068
0.04863057
0.03431256
-0.06408782
-0.07580160
-0.03836872
0.02119062
-0.05267859
-0.00383845
0.03780174
-0.04712661
0.08037248
0.07821726
-0.06015657
0.01266082
0.06347942
0.01126683
-0.00437893
0.01539037
-0.01267563
-0.05059391
0.03781486
0.04860671
0.00641289
0.00314315
-0.02785701
0.06570553
0.04553391
0.01246977
0.06015773
0.03247529
-0.05527584
0.06715176
0.06413530
-0.06455664
0.05012791
0.06513138
0.03189631
0.00190257
0.07897101
0.04358407
-0.04918677
-0.07554617
-0.00949490
-0.02050101
0.01018508
-0.03951665
-0.00239782
0.07783295
-0.04577985
-0.07619924
-0.01414249
-0.05781553
0.08163455
0.02883474
-0.01058033
-0.06481573
-0.06262439
-0.00740302
0.03277398
0.03593864
-0.06941925
-0.03043960
-0.03143302
0.02052195
-0.01869483
0.04481195
0.02224074
0.03469924
-0.08240717
0.02468815
-0.02301123
-0.05597637
-0.02812781
0.06314071
0.02043574
0.02930813
0.04407896
-0.02458478
-0.01524290
-0.05243986
-0.08071888
0.07478818
-0.00963094
0.03982179
-0.05205706
0.07138561
-0.03541815
0.02802562
-0.06325109
-0.01159691
0.06895762
0.05110579
0.01272734
0.00795908
-0.03307890
0.08225476
-0.03867894
-0.06718953
0.00381277
-0.04191383
-0.07141443
0.08405124
0.08354706
-0.03342571
-0.06688967
0.02124659
0.05455949
-0.03375313
-0.03456103
0.03133310
-0.01383794
-0.04800297
-0.03882926
0.07869808
-0.02358786
-0.07544030
-0.05700215
0.07845268
-0.03022806
-0.01591907
-0.05999952
-0.05734643
-0.05732920
-0.06559317
0.07273203
0.04583012
0.02682280
-0.05049614
0.07710207
0.03254934
-0.02439779
-0.02172335
-0.00441073
0.06252608
0.04082997
-0.01545977
0.04548583
0.01092257
0.04199650
0.06764206
-0.06272519
-0.00273973
-0.00418421
0.04600389
-0.02898056
0.07698083
0.06533474
-0.00474325
-0.02036718
0.00641805
0.08436657
0.04029577
0.00396197
-0.04367072
0.07093887
0.03937312
0.01390211
0.01100857
0.07594963
0.01312239
0.00586581
0.06912636
-0.05985202
0.06378832
-0.02391408
0.06688238
0.08517022
0.00348022
0.05552752
-0.01465130
0.08083502
-0.03688480
-0.07127005
-0.06787139
-0.01242173
0.04751516
-0.01697314
-0.07139826
0.03746948
0.01900738
-0.01922341
0.07240817
0.04469323
-0.00755352
0.06148411
0.07838765
0.04025827
-0.05920601
-0.06739214
0.04117563
0.01410780
-0.05853168
-0.03016552
-0.04767517
-0.06595430
0.03250553
0.06366278
0.04685424
-0.04063540
-0.06648540
0.06281618
-0.06968033
-0.03619914
-0.01285636
0.00956689
0.06169313
-0.03889446
0.02418250
-0.01790510
-0.03260653
-0.03305100
0.03655564
-0.00447312
-0.06388649
0.01288205
0.00542691
0.02158306
0.08138155
0.04968442
-0.05841604
-0.05459598
-0.06082334
0.02999342
-0.07489575
0.01099396
0.05761087
0.01402498
0.07194042
-0.08177563
-0.01608685
0.02426700
-0.05379004
-0.05496310
0.04440494
0.04774695
-0.07560102
-0.05522558
0.02671554
-0.02496102
-0.07813307
-0.05092727
-0.02647681
0.03508265
0.00738862
0.04179561
-0.00178138
0.00376751
-0.02576895
0.01642971
-0.02538274
0.05919446
0.07555954
0.05131545
0.02698133
-0.02592111
-0.01447639
0.04023219
-0.02215065
0.01833167
0.06242822
-0.07082433
0.07605851
-0.07251424
-0.03433464
0.03543996
0.00519738
0.00470931
0.05183263
-0.07582710
-0.07240842
-0.06929609
0.02441755
0.02448566
0.03908578
0.07156502
0.07176827
-0.01700623
-0.05173799
0.06626249
-0.07491505
0.00465954
0.05894387
-0.04027783
0.08040398
0.07583164
0.07717457
0.05833177
0.01738739
-0.01022362
0.05582144
0.08123174
-0.03234117
0.05790280
0.05327895
-0.07490624
0.05287682
-0.04528643
0.08137316
-0.03272976
0.05373327
-0.00399914
0.02332849
-0.03298508
-0.04451025
-0.01820725
-0.02012037
0.00732607
-0.00868464
0.02263309
-0.06264193
-0.08321281
0.07939882
0.07593109
-0.00633720
0.04130716
-0.06677014
0.04799134
-0.01926074
-0.06967240
0.07541782
0.06905098
-0.01358008
0.01168737
-0.03695569
0.03998218
-0.05906533
0.03046406
0.02888054
0.03130847
-0.05284307
0.01634574
-0.06492639
-0.07165277
-0.00280497
0.00270066
0.01873521
-0.03606125
-0.00625986
-0.03797104
0.07778241
0.05112514
0.01630143
0.07513565
0.05771042
0.05776726
0.06216970
0.01331104
-0.07743654
0.06434330
0.04863408
0.05258466
0.05593823
0.00890551
-0.00862638
0.07246024
-0.01303321
-0.00475925
-0.05228426
-0.06326586
-0.04958324
0.02950048
-0.07139939
-0.01178140
-0.00184276
0.02733926
-0.06560296
0.06405520
-0.05819747
-0.07364500
0.02873847
0.03458814
-0.03469936
0.00849657
0.06775416
-0.04965572
0.07461507
-0.07905516
0.00234851
0.02017610
0.01985015
0.00559226
-0.03961146
0.05071935
0.03648081
-0.03201177
0.02534961
-0.07658150
0.01896909
-0.03368532
0.01032224
-0.04852755
-0.05768502
-0.01938700
0.02198203
0.08321131
-0.07407825
-0.00156620
-0.06526686
-0.04489132
-0.01383893
0.07147677
-0.07834465
0.04235334
0.07419842
-0.03543296
-0.02760754
0.04925345
-0.05356856
0.02936594
0.03674551
0.03754756
0.06170693
-0.08032364
-0.01248662
-0.01410725
0.04965881
0.06150965
-0.04985814
0.02429102
0.04683807
-0.05014025
-0.06140231
0.07370384
0.01883211
-0.03591840
0.04268510
0.01765684
0.07041413
0.08228686
0.07453925
0.04949565
-0.04533196
0.05341174
-0.07916646
0.07858083
-0.02577789
0.02967041
-0.05895808
-0.03633488
-0.03001483
0.04523831
0.06469481
-0.03504043
-0.01034097
0.02523393
0.07958470
-0.06934384
0.01037514
-0.04987642
-0.05250420
0.05494658
-0.04208365
0.02149504
0.00008747
-0.04827774
-0.00172633
-0.02314763
0.06903327
-0.00562870
0.04133343
-0.03133478
0.06863339
0.05564577
0.03051635
0.01444034
0.07937044
-0.03825009
0.01329020
-0.01263150
-0.07326508
-0.03459650
-0.01494232
-0.02559553
0.05722838
-0.02760560
0.03748597
0.06072485
-0.00281982
0.04470008
-0.00196204
-0.00478314
-0.06510637
-0.08019336
-0.05137794
0.06146942
-0.03813746
0.02230011
-0.07038085
0.06368481
-0.01696669
-0.06155970
-0.07859730
0.04609967
-0.02868824
0.05783806
-0.00788422
0.04759559
0.02614378
0.05860842
0.02941375
-0.06980330
0.01423214
-0.02670880
-0.01507847
-0.03288906
-0.02842553
0.02850777
0.05466644
-0.08199146
-0.00461645
0.00397104
0.04099829
-0.01499332
0.04676116
0.06508561
-0.03523804
-0.00807143
0.03116394
-0.07973567
-0.06758276
0.03586172
-0.00855547
-0.02438148
0.01177489
0.06814087
0.06839105
0.01560353
0.04856177
0.01443094
-0.05123756
0.00060155
0.00064288
0.07791164
-0.07515503
0.01934617
0.05906284
0.07893565
0.02735193
-0.00106525
-0.01890937
-0.01969069
-0.02249880
-0.05902511
0.06611133
-0.03012968
0.05835042
0.04395967
-0.06333797
-0.06395765
0.03828406
-0.00184358
-0.02092683
-0.04781659
-0.04805271
-0.07208747
-0.04491620
0.06073098
0.04897449
0.02306251
-0.07197094
0.05673683
-0.01033915
0.07210505
0.00942135
0.02197389
0.07508500
-0.02175423
0.02456518
-0.01104754
0.02531367
-0.02462729
0.02507860
0.03021546
-0.08425781
-0.02537184
0.02511375
-0.07386737
0.02744411
-0.05152366
0.02063828
-0.04882387
-0.01683945
-0.06467932
-0.02366006
0.00250721
0.02446545
0.02969229
-0.07848569
-0.08082867
0.07319605
0.01177252
0.03158973
-0.05528673
-0.06189081
0.06712153
0.00086093
0.03364467
0.04262378
-0.05601458
0.04259509
-0.07474028
-0.03004194
-0.02672234
0.05340875
-0.01192589
0.00711536
0.05747925
-0.08215794
0.08296727
-0.05371431
-0.05317996
-0.07454288
0.01266951
0.03619565
0.04711187
-0.00027548
-0.05652800
-0.05383297
0.00024811
-0.05323923
0.00942358
-0.06955659
0.03750459
-0.03391218
0.05844535
0.00100533
0.06940910
-0.01522144
0.05483546
0.00577015
0.01296345
0.00276732
-0.02173945
-0.05026230
-0.04315538
0.01735287
0.00570108
0.05374735
-0.04808199
-0.06927581
-0.01122083
-0.00838685
0.01861802
0.00543895
-0.01750311
0.04796161
-0.07496925
0.01566658
0.07447848
0.05194121
0.00602054
0.00123052
-0.01447744
-0.07474361
-0.03175966
0.08355296
-0.05075801
-0.08275717
0.03236260
0.00468691
-0.05929282
0.05539766
-0.00189222
0.00184276
0.04229708
0.04826729
0.05284652
0.01161673
0.03805024
0.01478957
0.05337103
-0.06141608
-0.04862257
-0.07042117
-0.05713926
-0.00091361
-0.04971944
0.00326479
0.04503965
-0.01210613
0.03793565
0.07647263
0.04400019
0.01711004
0.00901422
0.05207476
0.00715003
-0.03068755
-0.06962414
0.04827403
0.07017182
0.01004704
-0.02254537
-0.06076026
0.07059214
0.03921103
0.05045822
0.00320706
0.05752362
-0.02873346
0.03793797
-0.06724117
0.01964051
-0.01001708
0.02826517
0.06855383
-0.06722169
-0.06120282
0.06418049
0.05678335
-0.04865319
0.08013324
-0.03722486
0.01000412
0.04918661
-0.00859129
-0.03786661
-0.04309848
0.03164745
0.03507691
-0.04784545
-0.07944309
0.04842418
-0.01272469
-0.03655045
-0.05269002
-0.07942948
-0.03402579
-0.06688045
0.04866156
-0.04914147
0.04769574
0.02930108
-0.07416187
-0.02217417
0.00297896
-0.01216273
0.02318407
0.00244746
0.07494301
0.01600291
0.04065422
-0.07210181
0.07040625
0.07145018
-0.02482735
-0.07589795
0.05601694
0.04060781
-0.02251734
-0.03555351
-0.02738309
-0.03062715
-0.05862399
-0.04164241
0.00730169
-0.00840857
0.07572782
-0.08121354
0.07148796
-0.00831593
0.06824139
0.04779454
-0.02101767
0.01688732
-0.05248087
-0.06089631
-0.01111814
0.02289059
0.04091803
0.03562634
0.01948651
0.02921780
-0.03643402
-0.04383237
0.07776762
-0.02376636
-0.05396964
-0.04903439
-0.06692173
-0.04535265
0.04543755
0.02237980
-0.00218108
0.06993693
-0.01591703
-0.02012157
-0.07664438
-0.07205056
-0.03700844
0.00321389
0.05450394
0.04179576
0.06510432
-0.07613346
-0.06823975
0.06223311
0.00256504
-0.02982589
-0.02965485
-0.00637270
0.04389698
-0.04658147
0.03368412
0.04041519
0.00768421
-0.01269348
-0.08389530
0.02650475
-0.08168311
0.01263493
-0.01343416
0.01248303
-0.07924389
0.05332632
-0.00722820
0.03368945
0.06082212
0.01352842
0.07572938
0.03861365
-0.04225455
0.00758034
0.06265152
0.02093818
0.03124692
-0.00237473
0.06897955
-0.06180699
0.04647967
0.00167846
0.03454898
0.02291576
-0.02901361
-0.02966191
-0.01311654
0.05592373
-0.08025613
-0.05204456
-0.04585218
0.04076907
-0.04768170
-0.06820875
0.05455911
-0.07945536
-0.00408066
0.00490544
-0.00734305
-0.00378495
0.03343198
-0.00853573
0.02394733
-0.05449185
0.06434575
-0.06585240
-0.07600158
0.07459390
0.02493179
-0.01044063
-0.05828664
0.02270349
0.07721512
0.01179408
-0.00618919
0.00199210
-0.01247435
0.02888600
0.05304521
0.01535984
-0.07820523
0.07530013
0.01091088
-0.03208350
0.00063393
-0.02416708
0.01308836
-0.05971840
0.04242807
-0.03624002
-0.06347125
-0.00149433
-0.04608493
0.05089553
-0.00531896
0.03771508
-0.05478452
-0.04488455
0.05544370
-0.07872865
-0.01611904
0.07300582
-0.04343659
-0.04354662
-0.04105528
-0.03670129
-0.04761745
-0.08422116
-0.04603457
-0.07524255
0.06088923
-0.05527410
-0.01753556
0.08088473
-0.06459500
0.03182423
0.04621781
0.07519358
0.04214169
-0.02486766
0.01858080
-0.01169778
-0.02150787
0.00886732
-0.02600552
0.01464544
0.01148318
0.02697415
-0.01031537
0.04578988
0.01897031
-0.03431218
0.00977358
-0.05782790
0.02025350
-0.07830822
0.00894131
0.06952365
-0.04071520
-0.06504419
0.07188738
-0.01754763
0.06372932
-0.05421278
0.03799694
-0.05236624
0.07414175
0.04907697
-0.03822313
-0.04031749
-0.05381795
0.01841501
0.01388461
-0.00003367
-0.03567266
-0.05847912
0.03279745
-0.06918822
0.07196774
-0.00683712
-0.06497414
0.06520668
0.00129050
0.00166692
0.02158845
-0.02460565
-0.05655917
0.02958573
-0.02780137
0.02424249
-0.02390263
0.06685221
0.04422935
0.04082535
-0.06110315
-0.01126553
0.05199195
-0.03345999
0.05094611
0.02842516
0.04490318
-0.08197332
-0.05022918
0.01215794
0.06387941
-0.01290686
0.02700480
-0.03663089
-0.06136134
0.06219728
-0.05016471
-0.03406409
-0.07317274
0.06480082
0.01131374
-0.06270726
-0.01740499
-0.01282583
-0.00656338
-0.03510766
0.02732441
-0.07397252
0.06777949
-0.04062633
0.03238053
0.04644337
-0.01905598
-0.03862153
0.07714867
0.04165418
-0.06658134
0.05713385
0.03274085
-0.03260128
0.07890172
-0.07315306
-0.03651601
0.02017707
0.06719686
-0.03225784
-0.05357967
0.01626328
-0.05693129
-0.05941704
-0.06307781
-0.02946801
0.05023620
0.02232604
0.00922629
-0.03010489
0.03242509
0.04949102
-0.00679111
-0.05714723
-0.05796256
0.01743974
0.01635128
-0.02567637
-0.05446758
0.06067446
-0.06977788
-0.07404454
-0.07970190
-0.04928491
-0.06261623
-0.01091940
0.01764570
0.07494243
0.04854469
-0.05392087
-0.00776666
-0.07432622
-0.04907916
-0.04185623
-0.01738522
-0.00844207
0.01632926
0.04363060
0.07403191
0.03397512
0.06399626
0.07764873
-0.08146225
-0.00192115
-0.07091207
-0.05426116
0.04476813
0.03241137
0.00989494
-0.00981224
-0.01497747
0.06257802
0.01440548
0.05929156
0.04121547
0.00610406
0.00419999
-0.08335414
-0.01350834
0.02041299
0.00482788
0.00620624
-0.03330965
-0.07134556
-0.00311726
-0.01241790
0.00388640
0.05712054
0.01810011
0.02793807
0.03811213
0.06859472
0.02507946
-0.07925812
-0.04365787
0.07589446
0.04866770
-0.07153577
0.02372174
-0.01448509
0.05816348
0.01720562
-0.05490240
-0.05253347
-0.06404788
-0.01763042
-0.04945004
0.06605291
-0.04497376
-0.02012797
-0.06288111
0.06826032
0.02282928
0.00771554
-0.04167465
0.03615993
0.03799177
-0.07090525
-0.02381945
-0.08105917
0.02206834
-0.00781681
-0.04135009
0.01095086
-0.00619390
0.00603730
-0.02826601
-0.07309110
0.06421567
-0.04556376
-0.04163656
0.00822829
0.06298576
-0.05605743
0.08009919
0.07337753
0.03270722
-0.05406106
-0.05608923
-0.06809136
-0.03357880
-0.06101980
0.01747886
-0.02696227
0.03753091
0.08362181
0.02981388
0.07670458
0.06369343
0.02555420
0.07544874
0.05675419
0.07298654
-0.05995411
-0.07811657
-0.01120985
-0.00822486
-0.02991372
0.07432750
-0.03929016
-0.00055518
0.05108814
0.03265622
0.00835503
0.07101889
0.01689621
0.05222270
-0.06344453
-0.04936203
0.05122782
-0.03300245
0.01509157
0.01143314
-0.01911726
-0.02815564
-0.06097030
0.06366529
-0.03912672
-0.05889282
-0.05236098
-0.04454731
0.02935643
-0.05185214
0.02848212
0.01213384
0.06749449
-0.06217352
-0.06542758
0.03269875
0.05081103
-0.07494222
-0.00418107
0.03972382
-0.02102177
-0.04194894
0.05802402
-0.00066932
-0.02290227
-0.01851980
-0.04790391
0.01767741
0.02604117
-0.06505887
0.01068315
0.01935016
0.07897511
0.05131996
0.01632902
0.01063411
-0.04879021
0.04359767
-0.04615505
-0.04058564
0.07711904
-0.05268668
-0.07008165
0.05245933
-0.04116097
-0.07852541
0.01357489
-0.07751195
-0.05095233
0.06513181
0.03065787
0.00156341
0.05101764
0.07322472
-0.07423906
0.00168043
-0.07897699
0.02416625
0.00150951
0.05763186
0.04657618
-0.07275200
-0.01003400
0.04007472
-0.02480302
0.05347079
0.06182448
0.08505056
-0.08050542
0.02675951
-0.02621921
-0.00408481
-0.02621393
0.00492114
-0.06097385
0.08329511
-0.07163583
-0.07040537
-0.06073527
0.03160407
-0.03262354
0.05793741
0.04685047
-0.07030135
-0.01123070
-0.05646833
-0.04232921
-0.05708677
0.06669497
0.04597382
0.08030388
0.03055345
-0.01297460
-0.02480721
0.01526510
-0.05227344
-0.06473611
-0.03756139
-0.01364837
0.05528324
-0.00259523
0.06535505
-0.06772366
-0.02237361
0.00562099
-0.06644670
0.04840725
0.05543938
0.06523922
0.07341608
0.00496688
-0.04470244
0.05287198
-0.00436654
-0.03124927
-0.05447156
-0.07447974
-0.00449377
0.02092124
-0.07620999
-0.04220017
0.08313543
0.07557017
0.07258102
0.07117361
0.04860224
0.03833712
0.02944666
-0.00341087
-0.02817042
-0.00241180
-0.02533533
-0.05564154
0.04657207
0.01216656
-0.05366549
0.01989760
0.00441410
0.03292277
0.00078793
0.00699706
0.02277103
0.04052247
-0.06739536
0.04669956
-0.01047802
-0.05095109
0.01966809
-0.03103882
-0.07529141
-0.03687413
0.03681162
-0.01959975
-0.05672409
0.02236455
0.01116509
-0.02818020
0.03107558
0.02245728
0.05292781
-0.05093740
-0.00807509
0.00165766
0.08075931
0.06163112
0.01480898
0.04288121
0.04986600
0.06200347
0.03931703
0.07400409
-0.07606082
-0.00696828
0.05958094
-0.01587311
0.05262277
-0.07151066
0.06479948
-0.00273533
-0.02233613
-0.02603157
-0.02873787
-0.01782100
0.07136796
-0.05911539
0.07663749
0.03098063
0.06104857
0.04169928
-0.01941756
-0.05291179
-0.02069793
-0.03923243
-0.03026568
0.06978509
-0.04344078
0.02684556
0.05350012
-0.02029986
0.05476645
-0.06890386
-0.03629042
-0.04555330
0.04216078
0.07720946
0.07979234
0.01322403
0.02858859
0.04681030
-0.02318969
-0.01076338
-0.00349158
0.07176375
0.00464335
0.05090923
0.03108125
-0.04935649
-0.03060624
-0.02567264
0.04529556
-0.03531906
0.01808814
0.02390151
-0.00619331
-0.05977430
-0.00257495
-0.06760158
0.05515444
0.03138560
0.03602171
0.00796752
0.00173524
-0.01809860
0.03695058
0.05822408
0.07570889
0.07239474
0.05114103
-0.01128023
-0.00784565
0.07527590
0.07743277
-0.02140793
-0.01100939
-0.02403183
0.06422987
-0.02637478
-0.02284590
0.06660181
-0.06410555
-0.07317977
-0.04279319
0.02952707
0.08373212
0.05192365
0.05321540
0.07706842
-0.03004255
0.04961034
0.01618498
0.08573075
0.00463788
0.07259986
0.00919332
0.04510706
0.06340202
-0.00942024
-0.05907286
0.00743258
-0.07190456
0.04247360
-0.04566196
-0.06767969
-0.01982540
-0.01651537
-0.06929481
0.00755850
0.05205580
-0.05702568
-0.03578375
-0.07170895
0.05621455
-0.07646657
-0.02751991
-0.02294053
0.03099790
0.03532379
-0.04379047
0.02765297
-0.02952393
0.07608756
0.02064564
0.07296330
-0.01745384
0.05849417
-0.07535113
0.02305103
-0.01006970
-0.07351863
0.04783734
0.05848510
-0.06654640
-0.05950225
-0.03359455
0.05620505
-0.02241671
0.06052231
0.02286794
-0.06125065
0.06093659
0.07031233
0.02594625
0.03487253
-0.05119389
-0.01752698
0.03251265
0.06338701
0.02891808
-0.06425883
0.08379135
0.03798037
-0.04938331
0.04118163
-0.05311222
0.04583595
-0.01783542
-0.04326983
0.02423907
-0.00737315
-0.05714102
-0.03897779
0.05162608
-0.02866947
0.03695676
-0.06657337
0.07263552
-0.04725703
0.01637273
0.02938795
0.00853845
-0.02450983
-0.02565517
0.05977479
-0.01170113
-0.01850656
-0.05221784
-0.03534669
-0.05539150
0.00107106
-0.03684968
0.07975358
0.04261336
-0.04708309
0.07115360
-0.01344557
-0.00842600
0.04720438
-0.05641047
-0.05767241
0.08369555
-0.00253669
-0.03194784
-0.02741452
-0.04462041
-0.04115717
-0.01894035
-0.04802805
0.02989626
-0.07887662
0.02677159
-0.01679514
0.06657207
0.03050375
0.06317255
0.08407404
-0.02298276
-0.00550866
-0.00036647
-0.03730584
0.05734574
-0.03054785
-0.01773964
-0.01890191
0.05596371
-0.04842380
-0.02371891
0.03371591
-0.06314989
0.04175462
0.08130433
0.07743475
0.05993808
0.04010187
0.03909317
-0.01348743
0.04221951
0.06577107
0.01281981
0.06789618
0.04273973
-0.02033453
0.02549416
-0.05590348
-0.06266583
-0.02064002
-0.02138881
0.00852640
0.07633528
-0.00771492
0.03359504
-0.03112091
0.05737973
0.00622151
-0.00433989
-0.02525298
0.04512908
-0.02870226
0.00770786
-0.01849619
-0.05898350
-0.06133938
0.05702175
-0.04801678
-0.03976684
0.00981003
0.07496599
-0.03442654
0.01154164
0.08233269
0.08516636
-0.00427877
0.03313040
0.07894506
0.07464222
-0.04211181
0.00057128
-0.06949291
-0.02965752
0.05577581
0.05685790
0.05903767
0.06126443
-0.03115536
0.02241496
0.00155188
0.02360260
-0.04563681
-0.00107482
-0.00543605
0.07449951
-0.04037180
-0.05333932
-0.04839348
-0.04477336
-0.06618857
-0.03295080
-0.04217380
0.02841645
-0.07814425
0.06833689
0.01116104
-0.04076931
-0.03597394
-0.03856061
-0.02678435
-0.00834975
-0.01775645
0.03205602
-0.05910025
0.03939959
-0.07730085
-0.04198667
-0.00129918
0.06914684
-0.06602773
0.00120528
0.03686199
-0.02518567
0.02549234
-0.01183467
0.01986402
0.01836974
-0.01767328
0.03229620
-0.02987288
0.01551099
-0.07696865
-0.00570719
-0.07899955
0.04320581
0.02083189
-0.02227235
-0.05142586
0.06246455
0.04755493
-0.02213676
-0.02228362
-0.05640277
-0.03311021
-0.00474688
-0.01009800
0.06621655
-0.06428187
0.07959820
-0.03670833
0.06305216
-0.08018545
0.02242677
-0.05156019
-0.07802711
-0.01063644
0.00309803
0.06399120
-0.01925215
-0.04234008
-0.00484017
0.04173178
-0.06119984
0.02579513
-0.05889909
-0.03304289
0.04835531
0.03276461
-0.00205103
0.00112459
0.08210677
0.00152458
-0.06161827
0.04917455
-0.00163043
0.07733747
-0.05550845
-0.05046960
-0.00651085
0.01531021
-0.04358465
0.00702361
0.00414947
0.01180704
0.07505959
-0.00234813
0.01859368
0.00479849
-0.01512796
0.07298563
-0.05699318
0.08467714
0.00725731
0.06957082
-0.06544620
-0.00496578
0.00915809
0.00334674
-0.01933193
-0.04232588
0.00953325
-0.03587990
0.01402753
-0.01641660
0.03055491
0.00469316
-0.02896529
0.02824165
-0.06360757
0.06211346
-0.06155318
-0.04403702
0.02229646
0.04822312
0.03064483
-0.03107133
0.05095565
0.06441639
0.06437734
0.01056129
-0.02706251
-0.01946278
0.07535413
-0.07790693
-0.01896244
0.00652402
-0.00371458
-0.02206470
0.06314715
0.04798187
0.00647546
-0.03447757
0.02300138
0.01652553
0.06528360
0.06049291
0.04313420
-0.07657077
0.01887778
0.00821906
0.03459162
-0.00822009
-0.07013161
-0.00067998
-0.01558056
0.00906942
0.00242437
0.04172947
0.08165790
-0.00860994
-0.04337978
0.01752129
0.01699713
0.07773605
-0.04433317
0.02494754
0.00922646
-0.02150421
0.08266687
0.07471494
0.06873760
0.02529223
-0.00635689
-0.05151289
-0.02455212
0.00154020
0.07096198
0.02380176
-0.00193517
0.05413458
0.04254065
-0.05514530
-0.04626653
-0.04283389
-0.08446793
0.05988658
-0.07418279
-0.01981866
-0.02293279
-0.07956062
-0.06579018
0.05392958
-0.00711036
-0.07187718
0.04209818
0.00961274
-0.01423902
-0.05330887
-0.06329297
0.06673262
-0.07616624
-0.03884282
-0.05307237
0.02388356
-0.06877253
0.02846779
-0.03352290
0.00908283
0.01500407
0.05848088
-0.05610758
-0.01477895
0.03783833
-0.00600504
-0.00357871
0.07634030
-0.03560721
-0.04179294
0.04365676
-0.00832575
-0.05951979
-0.02843102
-0.03668465
0.07007475
-0.01479613
0.01131515
0.03963030
-0.05098229
-0.02641321
0.01717916
-0.03934560
-0.00646383
0.02782570
-0.00756118
0.01668378
-0.05725014
0.02502559
0.07357340
0.00217816
0.06389463
-0.07109322
0.07334390
-0.02625327
0.05123913
0.04266417
-0.00979283
0.03231340
-0.04344897
-0.04232700
0.02715866
0.00488246
0.04587011
0.06259108
0.03990223
-0.04794504
0.06723972
0.04061318
-0.02081456
0.06131229
0.00789106
-0.04787874
-0.04521852
-0.01494650
0.02697418
0.07771777
0.06275220
0.00187658
-0.06383491
0.02532141
-0.06175143
-0.00700032
-0.00342485
-0.01537508
0.04402715
-0.06192040
-0.06254979
-0.00529312
-0.01548568
-0.02686688
0.07950335
0.02390568
0.04299000
0.06500017
0.02881686
-0.00080184
-0.01825476
0.05736236
-0.04482522
0.02366204
0.01546972
0.04566374
0.05211992
0.01008524
0.04297162
0.06087102
-0.07158545
-0.02471725
0.03789848
0.06011041
0.07145307
-0.00152270
-0.05117337
-0.02774415
0.07947497
-0.01588796
-0.06938908
-0.00865732
-0.03012544
0.06569484
-0.00366765
0.00765765
0.05351900
-0.01529843
0.00938991
0.05797626
0.05786803
0.03912027
-0.06983795
0.08493648
-0.02619738
0.02159952
-0.03184946
-0.01212905
-0.01472822
0.05388841
0.06438513
-0.04513379
-0.06625354
-0.08123754
0.02445504
-0.03643706
0.03027571
-0.01147168
0.05019328
0.07733280
-0.05686875
-0.04174102
-0.05563458
-0.05968944
-0.01372955
0.01711356
0.06704921
-0.04603830
-0.05523639
0.07224177
-0.02728662
-0.00650528
-0.03718325
-0.04709283
0.03708978
-0.07305098
-0.03341499
0.00865031
0.03014708
-0.01629591
0.03610431
-0.03697577
0.06548852
0.06666356
-0.00020429
-0.05763120
-0.00919139
-0.00283983
0.05778431
0.06623632
0.01945731
0.04573594
-0.02583644
-0.02327488
0.04870919
-0.07931655
0.01026471
-0.07301883
-0.02720481
-0.02454394
0.02002134
-0.01272239
0.06511218
-0.03215217
-0.07686466
-0.00398946
-0.07673373
0.07580320
-0.00202525
0.04072183
-0.04372954
0.04134123
-0.01690092
-0.07352477
0.02885570
0.05094572
-0.07374652
0.07604015
0.07207152
0.00810104
-0.03877980
0.05280337
0.04083605
-0.07495483
0.06932776
0.03868190
-0.02181968
-0.00738015
-0.00072709
0.00861148
-0.06371186
-0.03718343
0.05083168
0.02491404
0.07589821
0.03967201
-0.04730124
-0.04620473
-0.00024290
-0.05168181
0.00259331
-0.05224986
0.07820129
-0.05157938
-0.02595600
0.07425557
0.05186396
0.01059753
-0.03971260
-0.01111898
-0.01881938
-0.03286920
0.04046971
-0.02675052
0.03697817
-0.06678372
-0.05965980
-0.07814773
0.00940389
-0.00189102
0.03408768
0.06522468
-0.04584907
-0.04262432
-0.02389146
-0.04980918
0.04319021
-0.02411536
-0.02642396
0.00729831
0.03199930
0.01734121
-0.03317266
0.07909570
0.05496575
-0.08123600
-0.04323955
0.01587431
-0.04883395
0.00332553
0.02035291
-0.06628978
-0.05540570
-0.02447435
-0.02976972
-0.05537938
0.02442775
-0.05452618
0.00269506
-0.06002019
-0.02604703
0.05069683
0.03409220
0.06176926
0.04841749
0.03504147
-0.04294282
0.00723204
0.06791613
0.07634703
-0.00036891
-0.01981576
-0.05762655
-0.06096729
-0.03910902
-0.07492908
-0.07617651
-0.02184471
0.07428592
0.07970739
-0.06728153
-0.04029552
-0.00420856
0.01920243
0.04066800
-0.01803249
-0.07885364
-0.01947219
-0.05087582
-0.04641338
-0.00204190
0.04479446
0.01099723
0.05116297
-0.03434704
-0.04929852
-0.02668276
0.04708470
-0.07049418
-0.05757411
0.03604770
-0.02709124
0.01787082
0.07484154
0.02958694
0.03287941
0.05903391
0.02232958
-0.02298395
0.03726371
-0.06037755
-0.00205940
-0.01653230
-0.02562069
0.02576274
-0.03945313
0.00051210
-0.03157944
-0.07448082
-0.03160456
0.00435790
-0.02434267
0.01533950
0.05067307
-0.02788280
-0.07499749
-0.06713418
0.01527364
0.03615790
-0.02914611
0.02607263
-0.03590284
0.07644959
0.00683457
-0.04531908
0.00856920
-0.01969683
-0.02345051
-0.02435083
-0.02072891
0.04032288
0.00518714
-0.06316346
-0.08287299
-0.04337043
0.01600090
-0.07437498
0.00361728
0.00557142
0.00015785
0.05609148
-0.07939491
-0.05625193
0.08134079
0.07223140
0.07968796
-0.05276609
0.06320588
0.07128433
-0.01936838
-0.04479131
0.01471930
-0.00564539
0.03530708
-0.00908349
0.03710081
-0.00442256
-0.02012945
-0.01915126
-0.07684844
-0.01492746
-0.02317248
0.07976896
0.01910119
-0.07119319
-0.05414452
-0.07433717
-0.07476731
0.02707221
0.00237716
-0.00335181
0.00594737
0.03098585
-0.05090954
-0.03858614
-0.00385248
-0.04997735
-0.04185240
-0.06656644
0.03810547
-0.07569420
-0.07797020
0.03059517
0.00705325
0.05125760
-0.04310287
0.08119485
0.07721096
0.00378635
-0.00970348
0.05487313
-0.03618336
-0.00393051
0.03374339
-0.06442442
-0.00613540
0.05791192
-0.04836734
-0.07793262
-0.05757986
-0.02493579
0.03183113
-0.06957640
-0.01512288
0.03279012
0.07079548
-0.03881480
0.01508192
-0.04124196
0.01755239
0.03269920
0.06760994
-0.05702476
-0.03609839
0.06628058
0.04168779
-0.00407082
0.04085701
-0.05678303
0.01930360
-0.01428221
-0.03263420
-0.01518291
-0.00901061
-0.07741366
-0.03498426
0.03768498
-0.01669158
0.03507361
0.01439410
0.05165286
-0.04821145
0.03141348
0.03430441
0.03737780
-0.07290489
-0.03367107
-0.01187310
-0.05373479
-0.03120458
0.04140485
0.03562795
-0.00209887
-0.01122349
-0.05920097
-0.03376851
-0.05792576
0.08031178
-0.01842554
-0.03020025
0.04905776
-0.04701976
-0.02499216
0.00409260
0.04565590
-0.03563973
0.03936687
-0.01386057
-0.01915603
0.02725440
0.01587051
0.06738847
0.05523017
-0.04029842
-0.04836981
0.02076235
-0.02276862
0.06781808
-0.04540013
-0.00684296
0.07412954
0.03638386
0.04012211
-0.01388624
-0.06437255
0.08064772
0.07103963
-0.02271164
-0.05908594
0.04568660
0.00795258
-0.03178060
-0.04312314
0.06271543
0.08143054
0.02269497
-0.07924764
0.03416807
0.04351081
0.05409618
0.00963625
0.01699257
0.03575026
0.01580053
0.08298353
0.03805148
0.01603282
0.04471229
0.06020375
0.06277087
0.00141484
0.07479452
0.01676927
0.07540918
0.05286287
-0.00506089
-0.05059650
0.04596872
0.04490237
0.05748343
-0.00307700
0.04268450
0.05340932
0.00920160
-0.01226240
-0.04227868
0.01743939
0.06671650
0.06438222
0.01160285
-0.05845640
-0.02455238
-0.06443276
-0.07061891
0.04882582
0.08443468
0.05128839
-0.01664397
0.01606717
0.07046921
0.08271177
-0.01906230
-0.03301474
0.01677693
0.04443414
0.03809339
0.02876386
-0.07171558
0.04244700
-0.00343481
-0.07195487
0.07021739
0.02830294
-0.00018342
0.00373832
-0.04933482
-0.05414650
-0.06735551
0.03523566
-0.04390418
0.03740237
-0.02881421
-0.02329257
-0.04932913
-0.01671519
-0.00889680
0.01365277
0.07439926
-0.00935067
-0.03032006
-0.02461995
0.01493639
0.01735821
-0.07749264
0.00684147
0.06669237
-0.05245277
0.06086620
-0.01425602
-0.01570344
0.01283849
0.02650520
0.04839856
-0.00381187
-0.00165441
-0.04990747
-0.02958106
-0.01716874
0.08300354
0.08414281
-0.03193616
-0.02604046
-0.04957003
0.02099603
-0.04696760
0.06194479
-0.03259229
0.05322834
0.03448803
-0.04178480
0.08016235
0.04655012
0.03644440
-0.00078169
0.05925395
0.01365874
0.02625320
0.05472804
0.05067219
-0.07298744
-0.06997968
0.04899295
-0.03559409
-0.04145635
-0.03278356
0.06437267
-0.04444807
0.05287942
0.03726656
0.04342409
-0.02160290
0.03883499
0.03667943
-0.04779954
0.05763438
0.04144725
-0.00281619
-0.07551149
-0.01994614
0.03189839
0.00613714
-0.07865258
-0.08127370
-0.05253762
-0.03239570
0.05440759
-0.07493801
-0.01317978
0.00213211
0.07634273
0.01437406
-0.07564472
-0.06039296
-0.00770203
-0.05312735
0.07027666
0.05670951
0.03024770
0.07787065
-0.07655790
0.06498930
-0.04927640
0.05563372
0.01902154
0.03977196
-0.02621465
0.03066934
0.05129871
-0.05108260
0.08078434
0.04925075
0.01540939
0.05882726
0.00389119
0.06684814
-0.05285792
-0.07922820
0.05835349
0.06851888
0.02478318
-0.01108819
0.03146639
-0.00420889
-0.02272039
0.05761687
-0.01426747
0.06660956
0.01259941
-0.01905026
-0.03878954
-0.01876584
0.05262252
-0.02296069
-0.02860801
-0.08041178
0.06163736
0.02374894
0.08129583
-0.02125428
-0.07657422
0.06809345
-0.00754632
-0.06608009
0.00243623
-0.06208253
0.06489201
0.00102452
-0.06060483
0.04579207
-0.05068260
0.00062424
0.00570310
0.07847038
-0.02953788
-0.04319387
-0.02573184
0.04973139
-0.06983767
-0.07071680
-0.06105040
-0.03856103
0.05107263
0.01451461
-0.01325047
0.02086425
-0.06628995
-0.04319995
0.08037475
0.01009126
-0.05004045
-0.04080240
0.03688249
-0.07025658
0.06898972
-0.02989557
0.03751578
-0.06478977
0.06481631
0.06722879
-0.07250909
-0.06261589
-0.00139625
-0.01117019
-0.00195215
-0.00370425
-0.04961041
0.02093286
0.07095713
-0.04482008
0.00225255
-0.06316988
-0.03436163
0.03887872
0.04239465
0.01829817
-0.06562684
0.00792638
0.07488336
0.06177318
0.06048717
-0.01053753
-0.02257544
0.04883693
-0.06791562
0.02586814
0.01847599
0.01202074
-0.02603373
-0.05755334
0.02672658
0.07911199
0.04924104
0.02822781
0.01504031
-0.01523395
-0.02018122
-0.05232248
-0.07267360
0.00404166
-0.00964624
-0.04529781
-0.04863263
-0.01727511
-0.08232515
-0.05161075
-0.08216064
-0.07684942
0.00554370
-0.02521350
-0.04721463
0.00717127
0.03677382
-0.07880294
0.02613110
-0.04959577
0.07104816
0.06850617
0.02970229
0.03223784
0.03955048
0.00835914
0.00357265
-0.06491780
-0.02675021
0.06883676
-0.06052390
-0.03762659
-0.02665241
-0.04482245
-0.07537551
0.07913501
-0.00515960
0.05857968
-0.01084186
0.00222870
0.06907785
0.07239255
-0.01561982
0.05368241
0.00012227
-0.05983700
-0.04950663
0.05600019
-0.03933708
0.08270091
-0.07250775
-0.03568272
0.02687336
-0.04129566
0.03376780
0.05815620
-0.07558334
0.03416855
-0.04691004
0.08103498
-0.02031432
-0.05244772
0.00877259
0.01366897
-0.04202502
0.03390887
-0.06660446
0.06929962
0.01867882
-0.04257589
-0.04867216
0.02597635
-0.06410164
-0.00855668
0.00846525
0.04972782
0.06176297
0.00156498
-0.08337048
-0.07613669
-0.04655220
-0.00028600
0.01855025
-0.00233231
-0.07375312
0.02028710
0.02638026
0.01438975
-0.02346152
0.02077067
0.05146942
-0.03993251
0.02512392
-0.04836235
-0.03115048
-0.06332286
-0.02685093
-0.01059918
0.06067624
-0.05524578
-0.00176414
0.04379733
0.05527909
-0.01435109
0.02924334
0.05661667
-0.00303544
-0.00652119
-0.00273811
-0.04610942
-0.00674173
-0.04908470
-0.03892160
-0.03026569
0.02375542
-0.04419440
-0.02753172
-0.08242215
0.05929423
0.05026495
-0.00113391
0.01651854
0.03514855
-0.07685785
0.00493017
-0.06209624
0.07308163
-0.02284174
-0.02816500
-0.03121032
0.05810982
-0.07217738
-0.01774713
-0.00123597
0.02072380
-0.01046278
0.04643914
-0.07011458
-0.05646387
0.03005443
0.04685451
0.03319253
-0.06322245
-0.01782028
-0.02481591
-0.06633224
0.07330830
0.06665583
0.07567792
-0.02143668
0.01282713
0.06076993
-0.06708138
0.05086223
-0.06749511
-0.07125509
-0.02206524
-0.07589398
-0.03501533
0.05039329
0.00075184
-0.07715224
-0.00613668
0.07697836
0.00928644
0.04143780
-0.07175819
0.00305246
0.03638148
-0.04924113
-0.05774854
-0.06198687
-0.00023792
0.03688364
0.04772531
-0.04667259
-0.03112812
0.05525313
0.02731620
-0.01510828
-0.03327133
-0.01327409
0.05998291
-0.00706529
-0.05426533
0.00419826
0.07886420
0.03193387
-0.00399812
-0.07598436
-0.04528679
0.02372662
-0.03045377
0.06007382
0.08168737
-0.06375470
-0.05072619
0.04541229
0.00282587
-0.06877959
0.07043734
0.02284181
-0.05014320
-0.06957508
0.05815299
-0.04034644
0.01995734
-0.03602843
-0.06856541
-0.02419787
0.06496732
-0.00431726
0.05588654
-0.01138387
-0.07812050
0.01935056
0.07335815
0.07672869
-0.03696255
-0.07183076
0.06793509
-0.07884488
-0.07028291
-0.03160175
-0.01800656
0.01419644
0.03263490
0.01474873
-0.02641897
-0.03215858
-0.04013085
0.03673591
-0.07210491
-0.06453975
0.07588154
0.05909929
-0.06245596
-0.07721445
0.04423589
-0.08154240
0.06133029
-0.05853595
-0.05829464
-0.04663380
-0.01217751
0.06895784
0.04082405
-0.07681589
-0.00937438
0.06219511
-0.02565230
0.02111441
0.00816156
-0.06601652
-0.01492027
-0.05728946
-0.04760174
0.03704194
0.02251619
-0.07481331
-0.07009500
-0.07501573
-0.03571527
-0.00585621
0.05459668
-0.02031120
-0.00099294
-0.02243805
0.04027442
-0.01760187
0.00489305
-0.06565424
-0.07088346
-0.05661413
0.00517728
-0.07180698
0.06923206
-0.03054238
-0.05410269
-0.02006594
-0.07386056
0.02021277
-0.00872960
-0.05500861
0.00389301
0.03201774
-0.04309577
-0.06275844
0.05185064
-0.05501077
-0.00142863
-0.00680940
0.06353538
0.00008323
0.05018068
0.01813596
0.07422599
-0.04192701
-0.05581368
-0.05051561
0.03286932
-0.04433422
0.08368906
0.00203912
0.07478337
0.01328434
-0.02613454
-0.01427704
-0.01888522
0.05990832
-0.06977884
-0.04370191
0.00358346
0.07900357
-0.05264940
-0.07319617
0.04868979
-0.07219029
0.04056484
-0.02078350
0.07032160
-0.04554258
0.07446958
-0.00555795
-0.05070258
-0.02197537
-0.05557256
0.02137765
0.05929903
0.01595609
-0.01202603
0.03294206
-0.05289482
0.07667181
-0.01723691
-0.05973207
0.04910105
-0.04030464
-0.02983273
0.04667234
0.04034964
-0.01922401
-0.07592423
-0.03418026
-0.05722300
-0.05442423
-0.05609566
-0.00733215
-0.05372069
-0.05064959
0.00593063
-0.01959685
0.03968840
-0.04620036
0.03068374
0.02431432
0.00882827
-0.07124526
-0.05970756
-0.00852481
0.04717907
0.01530662
-0.00031996
0.05903259
0.00231491
-0.02648257
-0.00002561
-0.08172564
-0.01789255
0.06757977
0.06552470
0.04874738
-0.00391845
-0.04414511
-0.08172721
0.02621071
-0.04052861
0.02435672
-0.01146772
0.01084648
-0.07810572
0.02530565
0.07385501
0.01665611
-0.02309856
0.08119719
-0.05679769
0.08310357
-0.03402807
-0.07143071
0.04290011
0.01991163
0.05849775
0.01001101
-0.05524617
-0.02060261
-0.00796204
0.03123262
0.03403826
-0.03289941
0.05132419
-0.01130778
-0.01843922
0.06051496
0.07597598
0.05043279
-0.03783173
0.05809880
-0.06725489
0.01080140
0.01998708
0.01167343
0.07894850
-0.02100199
0.06714562
0.07688866
-0.04650014
0.06506374
0.01063522
0.07911196
-0.01867196
0.08322725
0.06139186
0.02184505
-0.03267963
-0.06641682
-0.04537419
-0.02335492
0.06567028
0.06529152
-0.06687479
0.06476075
0.02828165
0.04239015
-0.06539904
0.04023097
-0.03428398
0.06811150
-0.02322013
0.04708830
-0.06338654
-0.00262024
-0.04870897
-0.06798735
-0.00780183
-0.06663062
-0.01313549
0.00524419
-0.00222185
-0.03328465
0.02654759
0.03848615
0.02115422
0.05607745
-0.02121246
0.03738210
0.01697444
0.03450429
-0.07868966
-0.07125647
0.03133167
-0.06288931
-0.03460584
0.00905103
-0.03680826
0.02781822
-0.04453777
-0.07025688
0.00415988
0.05826920
0.01872118
-0.01162077
-0.06441068
0.01388314
-0.05470589
-0.05763209
-0.05599222
0.00423861
-0.01013786
0.07373054
0.06723238
-0.04951354
0.06425292
-0.07648182
-0.02959131
-0.05456624
0.05325096
0.08250874
0.08091734
0.00425194
0.07379899
0.08520018
0.06795885
-0.02729658
0.04241186
0.08615916
-0.01950658
0.08028159
-0.02071805
0.06446143
0.02636340
-0.00688338
0.06188537
0.08191367
0.00245137
-0.04697801
-0.04576096
0.04873870
-0.00012669
0.05848819
-0.05209327
0.00088795
0.03181891
-0.07039244
0.02625032
0.01985533
-0.05146743
-0.02866356
0.07376823
0.03876317
0.04295462
0.01966052
-0.02471244
-0.07328458
0.04200919
-0.05630574
0.04685012
-0.01217375
0.07191906
0.01611980
-0.07275202
0.07896429
-0.01926532
0.06753824
0.05345216
0.03509558
0.01898728
0.07900289
0.01514336
-0.04412720
0.04503209
-0.02801757
0.01892152
0.08100068
0.06909514
0.07626614
0.01738212
0.04250935
0.00570012
0.02187292
0.06186315
-0.08085764
-0.00327011
0.02257931
-0.06203957
-0.07974418
0.06919754
-0.02631876
-0.01929221
0.01896180
0.00874952
0.08157548
0.07631958
0.03932235
0.03161576
0.03331823
-0.06171928
-0.02746678
0.08010804
0.01169907
0.04879904
0.01849537
0.07875153
0.00649249
-0.02832784
0.05694960
0.01687493
-0.06367568
0.00172352
-0.04437419
-0.07487424
0.02381289
-0.07610606
0.00590040
0.05067929
0.08067121
-0.04343041
-0.04271688
0.04868913
0.01929291
-0.05716316
-0.04318070
-0.02540528
-0.06034935
-0.01471141
0.03179428
0.04004070
-0.01431507
0.02844760
-0.05701843
-0.03222838
-0.02137765
-0.00789418
-0.03812080
-0.01100645
0.06792930
-0.02147002
0.08414143
0.05423976
-0.05661220
0.03467538
-0.01726859
0.00321532
0.00160470
-0.06822418
0.05635239
0.01676462
0.04575396
0.02283197
0.07027041
0.02592405
-0.03143712
0.07992397
-0.04494137
-0.06862452
0.08040268
0.00642769
-0.03421265
0.05262037
-0.06198035
0.03322749
0.06903485
0.02474245
0.00298379
0.05014851
-0.02310231
-0.05191271
-0.06370872
0.01606341
-0.01821555
0.04412004
-0.07172986
-0.02259438
-0.07069381
0.01459436
0.00646453
0.03117463
0.07123614
0.05699142
0.02692700
-0.08170509
0.07943784
0.07771035
-0.06159186
-0.01655587
0.03419395
-0.04255460
0.03362008
0.03537382
-0.06274962
-0.00395904
0.00965168
0.08008695
0.05931647
0.00396457
0.01791863
-0.03426563
0.01552705
0.06342174
0.01233953
0.01509437
0.03657955
0.06480568
-0.03712448
0.06753030
0.00210586
0.04545065
0.03136467
0.02745410
-0.05894675
-0.05653419
-0.07842550
-0.05879749
0.06187107
-0.04143927
-0.03784977
0.08479661
-0.00711864
0.03064256
0.01790722
-0.02794622
0.02593109
0.00992603
-0.05235387
-0.02597082
0.00741757
0.08387523
0.04079699
0.05996646
-0.00075407
-0.03853089
-0.06471323
0.00719653
-0.03038579
-0.04612882
-0.00012743
-0.04055694
-0.07111189
0.06850713
-0.03285132
0.03909585
-0.02381551
0.05713859
0.06381722
-0.03506206
-0.02484965
-0.05881509
0.03758368
-0.03371799
0.05680560
-0.02378433
0.07273315
-0.07189874
-0.06412523
-0.06464689
0.01865521
-0.04610672
-0.04815809
-0.00235596
-0.00891539
-0.03916218
0.04938902
0.07215266
-0.03357918
-0.00065221
-0.05924387
0.06284181
-0.02684165
-0.06901820
-0.01724157
-0.07799273
-0.08006456
-0.06785122
0.02740363
-0.06591073
0.00463981
-0.08271036
0.02046415
0.07564954
0.06018197
0.04030491
-0.07952609
0.03939858
-0.02732770
-0.00700348
-0.00359765
0.06168657
-0.06134547
-0.03075449
-0.01971540
-0.05956883
0.02139470
0.07233571
0.06800751
0.03680036
-0.03546110
0.05328227
-0.02461612
-0.05072235
0.03550360
-0.05994924
0.01888031
0.05852870
0.00296447
0.06751948
-0.00703510
0.05698180
-0.03458703
-0.06252489
-0.02248856
-0.07688656
-0.01387967
0.01420618
-0.07769920
0.07308716
0.01036837
-0.00246367
0.04883970
-0.04636595
0.06141464
-0.05451936
-0.04262616
-0.00721537
-0.00933431
0.07205036
-0.08043494
-0.07261918
0.04987457
0.06789012
-0.02470698
-0.04762352
0.05934300
-0.05318912
0.05807332
0.01448916
0.00596616
-0.07032549
-0.05029403
-0.06422992
0.01105191
0.03628674
0.00386740
-0.06823799
0.05966134
-0.05087151
0.08456106
0.07392969
-0.02913405
-0.03773519
0.02478938
-0.03868811
0.08533711
-0.01172150
0.03764535
0.03243623
-0.02626096
-0.05445790
0.05464055
0.08629599
-0.06207334
-0.06094681
-0.00463413
0.05630200
0.06147585
-0.01953875
0.02231061
0.03587331
-0.01423188
0.05321274
-0.01848469
0.01796210
0.04550316
-0.02328574
0.06897034
-0.03802470
0.02167119
0.05942259
0.07027847
0.03078124
-0.04445570
-0.00796028
0.04455123
0.05268006
0.03498872
0.08264503
-0.06186070
0.02074140
-0.00670209
0.04955828
-0.07075928
0.06072506
0.08485147
-0.07499505
0.04449488
-0.05145911
-0.07966115
-0.07208613
-0.03724907
0.04453871
0.07453155
-0.01614689
-0.04569640
-0.01692012
0.03911925
0.03264223
-0.03150976
-0.07485875
-0.04441145
-0.00263608
0.05262453
0.06700314
0.03995756
0.06948954
-0.02431316
-0.02516912
-0.01293965
-0.04103602
-0.04303214
0.04227723
0.03215395
-0.04128466
0.00265130
0.02420405
-0.03073565
0.08495696
-0.06766520
0.05490186
-0.04140409
0.02812313
-0.08001589
-0.06525712
-0.02403079
0.02989193
-0.01417753
-0.06337696
-0.02434008
-0.04433830
0.05139565
-0.03850489
-0.07326018
0.07333739
0.07003036
0.05194188
0.03364457
-0.04870890
0.03390450
-0.05669134
-0.05897620
0.00146080
0.05829036
-0.06071508
-0.02063829
0.00274305
0.05633732
0.02120240
-0.04030094
-0.01920705
0.01179285
0.04661526
-0.05119719
0.02162957
0.07673312
-0.03522981
0.05805092
-0.03507771
-0.03990521
0.05274993
0.03140812
0.07800440
0.07520005
0.04135565
-0.03132648
-0.04754183
0.02731413
-0.07134166
-0.06060205
0.03484410
0.00373245
-0.08191310
-0.00124827
0.05752500
-0.05859821
-0.00888218
-0.06240209
0.07331837
0.07780271
0.00455775
0.04382164
-0.00712021
-0.06971199
0.01869487
0.04281416
-0.04419819
0.00515228
0.04242020
-0.00828150
0.00918054
-0.05807327
-0.01112468
0.03213871
0.05703471
-0.03507763
-0.06329970
-0.07022506
0.06655806
0.01940543
0.06488610
0.08594143
0.01159499
0.05781779
-0.06436217
0.00702613
-0.01510876
0.05126593
-0.03205134
0.01561889
-0.01185595
0.02927531
-0.00663580
-0.06711358
0.03689388
0.06567370
0.06476909
-0.02780090
-0.03893092
0.08184876
-0.05935358
-0.06869277
0.00425981
0.05992797
0.04585747
0.08444893
0.05929672
-0.06323332
-0.02115327
0.07489426
0.02614184
-0.00682631
-0.07687981
-0.05674436
0.00872787
0.07560515
-0.06176269
0.08330432
-0.00031841
0.05272444
0.03000749
0.02476053
0.06935252
-0.00018883
0.04159158
0.01359753
-0.04032551
0.05029118
0.04985081
-0.04049535
-0.04980289
-0.03111806
-0.00073807
0.00932288
0.06520779
-0.04754040
0.06356925
-0.00805284
0.03242909
0.04104637
-0.05507123
0.02349217
0.04613439
0.02119445
-0.01158811
-0.00581878
0.05494063
-0.04239573
0.05059180
-0.04215734
-0.03920009
0.04419002
0.06598452
0.01881994
0.03731702
0.01214882
0.01020014
-0.04242724
-0.07074525
-0.04419353
0.01820195
0.05059446
0.06386461
0.05369920
0.04222070
0.03047255
0.03081570
0.03707824
-0.04192747
0.03237459
-0.01964469
0.08415290
-0.00151215
0.08568949
-0.01824580
0.00080007
-0.00415331
-0.06307954
0.05865325
-0.06126622
0.04483968
0.01417557
-0.05446010
-0.06502812
-0.06293731
-0.07340450
0.06936239
0.05566826
0.02414837
-0.06080325
-0.06402947
0.05150426
0.06586916
-0.07024568
-0.02042738
0.08035327
-0.03485955
-0.00366036
-0.06633915
0.06991830
0.00149480
0.04925995
-0.03449718
-0.03572564
0.04047599
-0.06751567
0.05515511
-0.04908012
0.04379627
-0.02873491
-0.04020483
-0.02727718
-0.04652800
-0.05053712
0.03724243
0.00920154
-0.05033579
-0.05844240
0.01291451
-0.03068261
-0.00704026
0.03317578
-0.00131000
0.07567360
0.04681448
-0.03800989
0.01138769
-0.07115080
0.01122299
-0.04707548
-0.05324497
0.04361635
-0.02402467
-0.04802636
-0.03943857
0.00929102
-0.01974188
-0.04120312
-0.02608258
-0.02919970
-0.05860118
-0.00162938
0.08242542
-0.07559210
0.06916548
-0.05936854
0.05749231
-0.00540541
0.07828291
-0.05551019
-0.01678069
0.07284955
0.07415245
-0.04549990
0.04493308
0.02854948
0.01951321
-0.07150265
-0.03253188
0.07717207
-0.07816436
-0.02387859
0.04061994
-0.05553662
-0.00712745
0.03508186
-0.04334324
-0.01555604
0.07608473
0.05579209
-0.07517551
0.07150845
0.05253866
0.03941441
0.07012595
-0.01345181
0.06758650
-0.01119975
0.02755271
0.07538530
-0.05270050
0.06638562
0.01945886
-0.01362429
0.01830890
-0.03059170
0.08622783
-0.04395360
0.08032422
0.04972944
0.00300545
-0.07829455
0.04925751
0.05754342
-0.07152209
-0.05184338
-0.03393260
0.00096966
-0.06452121
0.06150386
-0.03130355
0.05004173
-0.06788445
0.08176241
-0.08174319
0.06250267
0.02136747
0.01504884
-0.07149719
-0.02960118
-0.00241098
0.07021068
-0.00711899
-0.04387062
0.05928849
0.01858214
0.01018804
0.02880074
-0.06310601
0.06166821
0.06938124
0.01297489
-0.02705175
-0.01737749
0.02074679
-0.01583562
0.06271090
-0.08019906
0.01743147
-0.04937495
0.04989222
0.05466124
0.07306197
0.01395513
0.07982721
-0.04607904
0.03278510
0.04230811
-0.00018990
-0.07785289
-0.07657091
0.00189320
0.05119039
-0.03253208
0.02521723
0.07571669
-0.05275264
0.00722359
0.00126040
0.08067025
0.01543889
-0.05770432
0.04337246
0.01309281
-0.01012906
-0.00910975
0.03852177
0.03364342
0.08012912
0.07580876
0.06768314
-0.08248466
0.05429063
-0.01854256
-0.01371883
-0.03223939
-0.05794264
-0.04151126
-0.00159518
-0.06000461
0.05503600
-0.03686133
-0.06312141
0.00421498
0.07732257
-0.06199077
-0.02363298
0.02913254
-0.05527053
-0.04996019
0.07115696
-0.04395453
0.05238378
0.02951540
-0.07803971
0.08588041
0.02208889
-0.00853976
0.05951526
0.03960282
0.05699811
0.08066162
0.06103498
0.06476741
0.02671408
-0.02003401
0.05356479
0.05009842
0.05037982
-0.02341966
-0.01272996
0.05230657
0.00364754
0.05429979
-0.03540614
-0.02625365
-0.01403786
-0.01599474
0.07259493
0.05638707
0.02160769
-0.07131708
0.05959979
-0.07178064
-0.05363739
-0.03024064
-0.01628137
0.04942662
0.04010573
-0.06849096
-0.06528111
-0.02776058
-0.00820462
0.02675951
-0.04685435
-0.05146869
-0.03558517
0.01229556
-0.07265230
0.06277371
-0.02590420
0.07460776
-0.00155463
-0.07463022
0.01067528
0.06870442
0.03132643
0.00398567
-0.02428628
0.02548331
0.05877055
0.07992722
0.04754249
0.00014869
-0.00354370
0.01667760
0.03319610
-0.06879281
0.03922125
-0.05672072
0.01154383
-0.07254462
0.00664834
0.01840159
-0.02890109
-0.06253772
0.03118579
0.03088190
-0.00162050
0.00798617
-0.04668663
-0.06425081
-0.01935832
0.01185366
-0.05676616
-0.03188731
-0.07644755
-0.06809510
-0.03303071
-0.06132302
0.05114735
0.01941486
-0.03702787
0.03069683
0.07758252
-0.05906532
-0.04417564
-0.01458673
0.07953876
0.08195470
-0.03470402
-0.02482492
0.03213082
0.04318740
0.05555982
0.05485222
0.02133076
0.00783983
-0.01857782
-0.00996937
0.03969434
-0.06035098
0.02771118
0.01682680
0.04442666
0.06877534
0.02788114
-0.02709324
0.00609490
-0.03177444
-0.00560804
-0.04144231
0.03069957
-0.06534012
0.02404234
-0.05907644
-0.01322475
-0.01436490
0.08453595
-0.05508516
-0.03683036
-0.04510924
-0.04906975
0.01720594
0.00896398
0.06452955
-0.03367146
0.04565096
-0.00144112
-0.02232906
0.05156131
0.00773904
0.03428651
0.00785597
-0.07903113
0.06252918
0.01296005
-0.06923862
0.06238305
0.02063416
0.00703732
-0.05048341
0.05377161
-0.07904524
-0.03457684
-0.05702455
-0.00309799
-0.02275822
0.06592925
-0.07898811
0.07014045
0.01801848
0.00079493
-0.01478712
0.02274604
-0.06904665
-0.04767065
-0.04013556
0.00041906
0.01301769
-0.05948207
0.01467963
0.03639411
0.08027480
0.07489715
-0.04067279
0.07471835
-0.02761596
0.05612130
0.01312398
-0.01728112
0.07554013
0.04515059
-0.00668263
-0.02995913
-0.07048064
0.07143135
-0.05835515
-0.04748128
0.06413731
0.07809035
-0.04127662
0.06895838
0.04693276
0.06124483
-0.07263758
0.06502082
-0.04495464
0.05095653
0.07560165
-0.07184035
0.07788693
0.06877866
0.02502242
0.07763609
0.05307582
-0.02155542
-0.03819676
-0.04862236
0.06501409
0.07624784
0.03104073
0.06745017
0.03612487
-0.04345177
0.05259568
-0.05907976
0.05565299
-0.07527517
-0.07807963
-0.05134122
-0.04103313
-0.03447158
0.02078337
0.05948869
0.04026909
0.07453083
-0.01040766
0.01827777
-0.02346800
-0.00269703
0.00498686
0.08231703
0.07300163
-0.03130453
-0.01040933
0.00581474
0.03787851
0.04728289
-0.07356505
0.01441705
0.01239101
0.06649908
0.03200337
0.00222582
0.01493421
0.03099341
-0.02982489
-0.00681838
-0.03317726
0.04196277
0.04270723
0.02431085
-0.07395130
-0.07708055
-0.00379990
0.02257789
0.06521346
-0.00784583
-0.02555749
-0.02650704
0.06566829
-0.06076378
0.01003187
-0.04081218
0.02851963
0.07382543
0.05599409
-0.03885599
-0.03193486
-0.05922652
-0.06868672
-0.04308614
0.05866798
-0.03259638
0.02241794
-0.04687164
-0.02749564
0.00622004
0.02265501
0.04637618
0.03930221
0.04368042
0.00230171
-0.05034528
-0.04534831
-0.04919889
0.07290544
-0.01181556
-0.02053195
0.03490780
-0.08172679
0.01428903
0.08223718
0.04968722
-0.00622687
-0.02542317
-0.03513796
0.00722794
-0.02274758
0.00796517
-0.03320476
0.04160745
-0.06617723
-0.01210732
-0.02713282
0.05689133
-0.04231899
0.03969433
-0.01000956
-0.02718263
-0.02997943
0.05110126
0.01895841
-0.05869804
0.01513269
-0.04663152
-0.01615093
-0.07638912
0.00439338
0.02465216
-0.05242990
0.05787274
0.07705458
-0.02012926
0.06929620
0.00781987
0.07636819
-0.03628258
0.02841510
0.04895473
-0.06642523
-0.06220914
-0.04633849
0.06372099
-0.05458207
-0.01951713
0.00107533
-0.06523544
-0.07622720
-0.00690374
-0.07511317
-0.01750454
0.01761407
0.06207383
0.02270110
-0.03467219
0.06156943
-0.06380351
-0.02788085
-0.03362650
-0.05394412
-0.02006680
0.03125802
-0.03330542
-0.06698900
0.02279961
0.04043764
0.05041534
-0.03558423
-0.00475973
-0.06521708
-0.01059861
0.03935216
-0.04582733
-0.02039275
0.01196715
0.00100319
0.05287388
0.03751198
0.00395844
0.04629507
-0.02183534
-0.01841127
-0.01714358
0.04961341
0.08545041
-0.00673040
-0.02623944
-0.04431433
0.02298580
-0.06405059
-0.06539163
-0.00476006
-0.02653878
0.06093131
-0.02229987
-0.01766818
-0.07577886
-0.00167791
-0.01270229
-0.06414669
0.04821898
-0.06535188
-0.06379128
-0.06377044
-0.07421986
-0.03217031
-0.05163073
0.08317934
0.06375267
-0.00349553
0.06876996
0.04233930
-0.02838322
-0.08101043
-0.07136765
-0.07754966
-0.00602945
0.05875020
0.00667435
-0.02306937
0.06461537
-0.02316564
0.06652021
-0.00140690
0.07256247
-0.06774017
-0.01685905
0.05294612
-0.02580603
-0.01553351
-0.04317269
0.07862657
0.01812912
0.05466486
0.04199820
0.01599542
-0.00222143
0.05257247
-0.07961800
0.03563622
0.07395662
-0.04336270
-0.02435127
-0.02640297
0.01108773
-0.02758323
0.01508309
-0.00888314
-0.06913301
0.05564492
0.04064757
0.02039678
-0.01177510
0.00673826
-0.04598385
-0.07136831
0.04018986
-0.06044604
0.03572197
-0.01645778
-0.00735861
0.01763119
0.01214639
-0.02829969
-0.05880999
-0.01029910
0.02944314
0.00584568
0.07000464
-0.06167273
-0.06948692
-0.04588575
-0.05902312
-0.06876609
-0.06419394
0.03622938
0.03120237
0.01250099
0.06876517
-0.07349429
-0.00375992
0.06351972
0.00331155
-0.05125877
0.01610679
-0.07687152
0.08064507
-0.02495744
0.07670410
0.06977396
0.03554535
-0.08002427
0.00873070
0.05243867
-0.07698416
0.01773329
0.06032938
0.06786756
-0.04653287
0.02971871
0.05130139
-0.02113897
-0.07133204
-0.04876095
0.04467993
-0.06129512
-0.01784849
0.01497923
0.04563833
-0.07315270
-0.07957641
0.02863703
0.07077450
-0.04350109
0.00843339
0.01504568
-0.05328957
-0.03349313
-0.04433296
0.05223482
0.00047483
-0.00813980
-0.07136216
0.03032813
-0.04258557
-0.02728624
-0.06487935
-0.03193017
0.05162214
-0.02208577
-0.03712939
0.06947348
0.02404601
0.06327596
0.00196180
-0.00069326
-0.04526777
-0.01437899
0.05134390
0.03029843
0.02150049
-0.05091032
-0.04012001
0.00334241
-0.02924625
-0.02484165
-0.05311479
0.06743491
0.05057897
-0.02344674
0.07163541
0.02863748
0.05283010
-0.07580525
0.00109831
-0.02530036
-0.01494548
0.00549582
-0.00680134
-0.02527650
0.06430314
0.04869501
-0.06328514
0.02858919
-0.02824821
-0.05728330
-0.03814172
0.06716221
0.03821200
-0.04493123
0.00052296
-0.05229437
0.07104962
-0.04263610
-0.06273921
0.00312188
-0.02336089
-0.02836393
-0.07797614
-0.05872639
0.02234296
0.05632543
-0.08078718
-0.07652812
0.03766038
-0.02972187
0.05931571
-0.05829197
-0.07025556
0.05111062
0.00371171
0.02511832
-0.02288715
-0.02706352
0.02836427
-0.04921814
0.06088370
0.06272071
-0.07980286
0.07438359
-0.04217156
0.06857981
0.03756257
0.02047801
-0.05392894
-0.05159615
-0.00038289
-0.02423110
-0.01122220
0.07487439
-0.02419330
-0.07749057
-0.07588741
0.02122370
0.00802991
-0.04928916
-0.08023699
0.00883183
-0.07688101
0.03694374
0.05068776
-0.04195331
0.01226004
0.07312804
-0.06822244
-0.04242639
-0.07192685
0.06931014
0.04816748
0.07810757
0.02002776
-0.06776323
0.00530269
-0.01431903
0.02905675
-0.05989190
0.03635181
-0.04157495
-0.04715497
0.04566219
0.02617065
0.02571308
0.07892961
-0.01995090
-0.03355922
-0.05381892
-0.01148050
0.04051761
-0.05882696
-0.02176291
0.01551370
0.00880573
-0.05108416
0.00549815
0.08029524
-0.02096144
0.05806638
0.01981472
-0.02106577
-0.00871060
0.07279924
0.00254039
-0.05856578
-0.07031639
-0.03203886
0.02499651
-0.00760829
0.07283751
0.03601138
0.02466525
0.00211850
0.00788679
-0.02862506
-0.02293490
0.06944937
-0.06990419
-0.04262846
0.02223965
-0.05096110
0.07934207
0.00899495
-0.06438949
-0.04694587
-0.02797284
0.03700427
0.01150262
-0.02920482
-0.04347075
-0.04575067
-0.02019256
0.08314441
-0.00582546
-0.03230130
0.02951884
0.02382092
0.06939015
0.00927140
-0.02304645
0.01196364
0.01176034
0.02434701
0.08606713
0.00070388
-0.06848143
-0.01856783
-0.06329347
0.00537861
0.04996492
0.00349559
-0.00867851
0.07306053
0.05848059
-0.04225751
0.05399254
0.07456557
-0.01734364
-0.03299826
0.04739986
-0.00090739
0.06262974
0.03547081
-0.06720827
0.01116889
-0.02154052
0.06772820
0.06698357
0.01240118
0.04479490
0.03730197
0.08252726
0.06241143
-0.01737251
-0.03767011
0.00555801
0.03027535
-0.00867234
-0.07678037
-0.03986752
0.04274827
-0.04416605
0.08329596
0.07246215
-0.00023863
-0.01053720
-0.07852165
-0.05807625
0.01782108
0.05491488
-0.02585787
-0.03870377
-0.05364817
-0.06363132
-0.04096228
0.03427686
-0.01594766
0.07843871
0.08483087
-0.07702622
-0.03079467
0.04568283
-0.07765972
-0.00611773
-0.00773860
0.07922640
-0.02560350
0.06107331
-0.05188081
-0.02667456
-0.07636254
-0.04229812
0.03007450
0.06090407
-0.04222114
0.07278378
0.08199775
-0.07352941
-0.04858364
-0.00634591
-0.03621574
-0.03920529
-0.06985311
-0.03377604
0.01550154
-0.01515763
0.05114306
0.03126001
0.07930252
-0.03789428
-0.05234334
0.06919406
0.04114105
-0.07410812
-0.00280823
-0.05520051
0.01530004
0.05699683
-0.00547905
-0.03641571
-0.07207665
-0.01113048
-0.04270307
0.03137389
0.00941247
-0.04753413
0.03991969
-0.02724637
0.05743416
-0.01100926
0.04117277
-0.05377476
0.08011743
0.02609520
0.05329550
-0.02761936
-0.01574731
-0.06374041
-0.05153903
0.06494502
-0.05884814
0.03061233
-0.07321612
0.04994972
-0.06462361
-0.02222089
-0.01793372
0.00984863
-0.05791781
0.02249098
0.03925971
0.03937437
0.04173243
0.06370059
-0.04245399
0.04951391
0.00227103
-0.01361909
0.01042120
-0.02329062
0.04672061
0.03643046
-0.01814079
-0.00794557
-0.03702619
0.02782337
0.02435809
-0.01218640
0.03114699
0.01135471
-0.05356538
0.02279140
0.01005196
-0.01421659
-0.06961873
0.07747339
0.02631085
-0.01598981
0.07857346
0.03716022
0.07651574
-0.01012262
-0.07532469
0.01772224
0.05001106
-0.02081562
0.04092451
-0.05454103
0.08010484
0.01987121
-0.00302005
-0.02035064
0.06187453
0.05089414
0.08244864
0.08182644
0.07581416
-0.05612597
0.06171688
-0.07974291
0.06872480
-0.02956187
0.04462533
-0.01663132
0.02271228
-0.04467069
-0.04529627
0.08611917
-0.01226300
-0.07920016
0.02629129
0.00609168
0.02703601
0.07891241
-0.06487425
-0.05506933
-0.06864630
-0.06491426
-0.06353789
-0.05334411
0.06819314
-0.04403772
-0.05993218
0.07064787
-0.04628704
0.00886727
-0.03419132
-0.02966288
-0.03139373
-0.01335251
0.08330792
-0.02149462
-0.01224658
0.04523419
0.06754746
0.00905826
-0.06003664
0.06921338
0.07903854
0.05702350
-0.06120390
0.06638329
-0.07358735
-0.04032341
0.03933639
0.04036662
-0.04308148
0.05387796
-0.04148709
0.01267070
0.01247477
0.07079957
0.00017980
0.02137974
0.00583643
-0.05815050
0.02967812
0.04283408
-0.02261456
-0.05072151
0.02525222
0.04587676
-0.02993143
-0.00514569
-0.02248375
0.06452129
0.01002085
-0.05536853
-0.06157543
0.03523609
-0.07239016
-0.05670048
0.03146848
-0.07247683
0.08416476
-0.01802311
-0.04595786
-0.03368576
-0.04001606
-0.04908285
0.00748815
0.03584176
0.03373184
-0.06788410
0.02842233
0.03652407
0.00265789
-0.06821309
0.08347505
-0.05137018
-0.01954741
0.03468603
-0.00584070
-0.02842511
0.00554633
-0.00962196
0.05756511
0.04483141
-0.04588096
-0.07082479
-0.00046943
0.00479887
-0.07604842
0.01599637
0.04037772
0.01976252
0.05772912
-0.06590305
-0.07581811
0.02631914
0.04503681
-0.05900604
-0.02301136
-0.06761894
0.07633348
0.00375808
0.01491416
-0.01161321
0.02705581
0.02264160
0.01252676
-0.03383388
0.00792222
-0.01303123
0.00502557
-0.04260834
0.03974702
0.00753790
-0.00634043
0.00988146
0.03242256
0.04278348
-0.06812792
0.01410177
-0.02181299
-0.06176836
0.00912481
0.02866862
0.05156432
-0.02698299
0.04796260
-0.02833180
0.08093723
0.05159706
-0.05722638
0.00320346
-0.00120368
0.06815638
0.04263049
0.02540906
0.03817692
-0.02067969
-0.04362061
-0.06895817
0.07229892
-0.03466594
-0.02381810
-0.01986633
0.04151824
-0.03674648
0.04161821
-0.00416461
-0.01061958
0.05558918
-0.00346801
0.07098539
0.04560936
-0.00377735
0.00521049
-0.07938947
-0.01871383
0.05427961
0.03325325
-0.03800434
-0.08304647
-0.08115142
0.05767255
-0.08006214
0.01683052
-0.01386170
-0.02464889
0.00952084
0.02173120
-0.03734813
0.07795613
-0.03405804
0.03234264
0.04824956
0.02359713
-0.04356025
0.04384587
0.06055113
-0.01959619
-0.01743457
0.00825063
-0.00823297
0.00672071
-0.06484412
0.00344227
0.03594362
0.02998120
-0.04600249
-0.07261734
0.06239059
0.07722227
-0.02997909
-0.04263624
-0.04458670
0.03916584
-0.05664058
-0.04246073
0.00891921
0.07730853
0.04115410
-0.01995328
0.06042203
0.08050648
0.02905660
0.08645226
0.06731614
0.08074192
-0.00117456
0.02362493
-0.06996898
0.05934665
0.05042223
-0.01876930
-0.06592272
0.02870222
0.05300769
-0.00990059
0.03535805
-0.07802553
0.08585639
0.06289796
-0.05100632
-0.02533715
-0.05814961
-0.04332004
-0.02085612
-0.05569319
0.05377633
0.04508989
-0.02528640
-0.05341510
-0.06629117
-0.08063275
0.04658342
0.04162740
0.07237173
-0.06915040
-0.05978887
0.04384372
0.01071221
0.00926720
0.07660991
0.02037753
-0.05976174
0.00416151
0.06035652
-0.01746334
-0.08061157
-0.01483709
0.05634335
0.01779037
0.04001453
-0.06411453
0.03697284
0.08638814
-0.03635299
0.06301664
-0.06499805
0.06042486
0.03791847
-0.01131009
0.01252151
0.04296986
0.00010123
0.01969221
-0.06698480
0.02330719
-0.04155597
0.06204507
0.08633924
0.07972961
0.08528602
-0.02491105
-0.01779692
0.01014732
-0.07524270
-0.01569796
0.01332601
0.04908560
0.08607492
-0.02900189
0.04822336
-0.03176962
-0.03878564
0.00605024
-0.02112305
0.00255731
0.06592656
-0.03304540
0.08545050
0.06224084
-0.07661617
0.06881824
0.07701108
0.03700536
0.02404158
0.06913679
0.01685708
0.05669284
0.05030013
-0.06313964
-0.00635443
0.01835483
-0.06870735
-0.05882507
-0.02169414
-0.03315241
-0.03811212
0.05630263
-0.05720151
0.07356130
0.00633541
0.08639323
0.00611701
-0.00989539
0.00772440
-0.04338823
-0.03900272
-0.01751418
-0.04564983
-0.04951550
0.06826050
-0.03746974
0.06481204
-0.02215117
0.05681103
0.02740187
-0.01893202
-0.03974521
0.05245103
0.06581724
-0.05367150
0.04881836
0.05947209
-0.02711600
-0.01324058
-0.00019418
-0.05728745
-0.07585567
-0.03073929
-0.05248721
-0.04355226
-0.04318614
-0.01081883
-0.07280237
0.06548604
-0.05879857
0.05729344
-0.01061244
0.04781717
-0.01192808
-0.06648602
-0.05575074
-0.02608171
-0.07032187
-0.05259052
-0.00596155
0.05830346
-0.07213629
-0.03587241
0.05968628
-0.05606974
-0.00463083
-0.01791117
0.02782890
-0.04179361
-0.04353046
-0.07639598
-0.07022107
-0.05582038
-0.02454475
0.04831721
0.02729047
-0.07712303
-0.01039106
0.08152556
0.03157534
0.02392945
0.06701878
0.07758347
0.05594906
0.00187580
-0.02064564
-0.06461532
-0.05208951
-0.04994595
-0.03766697
0.02985544
0.08145981
-0.04184818
-0.06893139
0.06406263
-0.03262844
0.02415884
-0.03918543
-0.07921859
-0.00173280
0.08654881
-0.00536672
-0.03652987
-0.06029347
-0.05448400
-0.07645746
0.02670212
-0.06105211
0.08238916
-0.03082869
0.04047131
-0.04109156
0.01074391
-0.01919455
0.06083912
-0.05930958
-0.01812125
-0.03102202
0.00364514
-0.03447852
0.03584627
0.02256274
0.05623352
0.08015641
-0.06315826
0.02255689
-0.07128498
-0.04101867
-0.01867233
0.06745283
0.01484532
-0.04984150
-0.01986001
-0.05322891
0.03472216
0.00866238
-0.02406770
0.03323707
-0.03867036
-0.06242122
0.02372711
0.05600408
0.05292953
0.07512628
-0.05002638
0.02342815
0.08393437
-0.07553561
0.04975158
0.03155579
0.00839359
0.04733345
0.00974155
-0.02294049
0.01092870
-0.03888406
-0.07508616
0.03976928
0.04685799
-0.04413743
-0.01207398
-0.02013987
-0.04989685
0.06411800
0.03521512
-0.02583887
0.06967945
-0.06003719
0.00286384
-0.04142226
-0.04344103
0.03882476
-0.05787651
-0.03795022
-0.04448017
-0.06707947
-0.06285814
-0.07891684
-0.06508184
0.05602137
-0.05815950
0.05251161
0.01265985
-0.02993218
-0.00211269
0.07118442
0.06293137
0.08215386
0.04360044
0.02149991
0.01519303
0.05655053
0.05200898
-0.04381122
-0.07804105
-0.06260876
0.04929921
0.01181123
0.05499775
-0.04008426
-0.07319319
-0.01527958
0.04470081
0.07625160
0.04609853
-0.03813461
-0.00551182
0.02714535
0.03953844
0.05336767
0.03984921
0.01937321
0.04190424
-0.03897680
0.06290580
-0.02859034
-0.06929457
0.02673771
-0.06970464
0.07490180
-0.02164650
-0.03669289
0.04644922
0.06633239
0.00804120
0.05984015
0.05164538
-0.04822227
-0.02401179
0.04502865
-0.00284303
-0.00464638
-0.02290464
-0.05399938
0.06677603
-0.00351730
-0.03377667
0.06266139
0.02867025
0.06338068
0.04225889
-0.06500514
-0.02993512
0.02602370
0.02652026
0.00761585
0.02283061
0.07588873
0.06424187
0.01402695
0.08502997
-0.07011107
0.05643837
-0.03503054
-0.01295557
0.03163856
0.07776692
0.07573793
-0.03984264
-0.01357640
-0.05646468
-0.02923175
-0.06804760
0.07926688
0.05083800
-0.02562410
0.03314409
0.08262367
-0.03758859
-0.06182074
-0.06991702
-0.05859989
0.05449716
0.01986455
-0.02906470
0.02492938
0.01654714
-0.03867484
0.03775148
-0.00164489
-0.02843109
-0.07734066
0.07957787
0.06126995
0.01818850
-0.03995680
-0.06351318
-0.07137859
-0.05860210
0.03198383
0.08062150
-0.08175811
-0.01876448
-0.06488643
0.01661023
0.04459123
0.00245216
-0.06690121
0.05444781
0.04380809
0.04420591
0.03511083
-0.04778462
-0.07445124
-0.01405481
-0.08127352
-0.03427190
0.02626790
0.06542529
0.03136062
-0.02288558
0.01619208
-0.05469630
0.00389066
0.03115694
0.05602928
-0.02237844
0.06177743
-0.00510109
0.05154883
0.03825678
0.04305592
-0.01339746
0.01026836
0.02997090
0.07305694
-0.05283497
-0.02510580
0.03484406
-0.06357505
0.03285211
-0.03961740
0.03368447
0.00298292
-0.07954342
0.06790297
0.06531299
-0.01102007
0.02176633
0.04530542
-0.04660626
-0.01649142
0.03250470
0.00101420
-0.06260994
-0.06360165
0.03387295
0.00897533
0.02045072
0.06164905
0.06537858
0.03402478
0.07485317
-0.04617612
-0.01133609
0.08129137
0.02734854
-0.02855228
0.03075343
-0.02925449
-0.07159524
0.02672210
-0.02875775
0.03865944
-0.01735872
-0.01592045
0.00883933
-0.03915355
0.07953487
-0.05140274
0.02444485
0.05063261
0.07589730
0.01821028
0.02201222
-0.05468876
0.03967763
-0.05887600
0.06365018
0.01755981
0.02127153
0.02522620
-0.05134425
-0.05189129
-0.06427516
0.05981551
-0.03502763
-0.07830934
0.02012613
0.07477177
0.00432621
0.01151812
0.06709827
0.02365467
-0.01724240
0.07451142
0.00843017
0.00723169
0.03457716
-0.05674491
-0.07688796
0.06464622
0.02363385
0.07646651
-0.00173431
0.07502033
0.01960909
0.06716816
0.02338781
-0.06903816
0.01581965
0.02096498
0.03941234
-0.07228124
-0.03992687
-0.03774007
-0.01372061
-0.01578051
0.05689293
-0.07619974
0.02678811
-0.00789292
0.02574410
0.02778273
0.07362440
0.01537422
-0.07187372
-0.04463593
0.06248260
0.07972731
-0.05520448
-0.06433780
0.00956538
0.03153566
0.01897126
0.06481430
-0.05154382
-0.01852136
0.04995247
0.05245679
-0.04086056
0.04075567
0.07908563
-0.06298178
-0.03246167
-0.07534591
-0.05368686
-0.03467157
-0.00836460
-0.01954204
-0.01096766
-0.00557249
0.05538240
0.00432055
-0.07044551
0.07343936
0.04893475
0.04049234
0.06412505
-0.04442028
-0.05931015
0.03996110
-0.07268833
-0.03477642
0.05362527
-0.05550426
0.05898774
-0.01584482
0.04360762
-0.00943952
-0.01070110
0.07492086
0.04082997
0.04691974
0.01121427
-0.01857170
-0.07935653
0.01399285
0.06289195
-0.01290313
0.04666859
0.01620853
0.08499659
0.00619441
0.07036089
0.04944559
-0.00827256
-0.00275118
-0.07312956
0.07995521
-0.02207958
0.02572049
0.04662375
0.06447265
-0.05403288
-0.08187915
0.01864679
-0.01107460
0.06634597
0.01640452
0.05566656
-0.03700023
-0.06001447
-0.04058329
0.00837563
-0.06707644
0.03827647
-0.02017001
-0.06411698
0.01719997
-0.07917656
0.06287995
-0.04118779
0.08017381
-0.03757311
-0.05580246
0.01041479
-0.05299052
-0.00272385
-0.08294398
0.07039540
-0.07856371
-0.03624831
-0.04055412
-0.05584999
0.03284590
0.05948828
-0.08120456
0.08119605
-0.05684568
0.06659228
0.07723444
0.00030882
0.07401466
-0.03004336
0.02883269
0.05473740
0.03895305
-0.03471957
0.07863970
0.06738134
-0.07961494
0.02599838
0.02449767
-0.04781183
-0.07765615
0.06508750
0.07409172
-0.01917829
-0.02336811
0.06871410
-0.06784571
-0.01195353
0.01841514
-0.05235833
0.06837494
-0.02705085
-0.07753149
-0.01621488
0.04344711
-0.05134490
0.06640962
0.04432280
-0.06784584
-0.01812831
0.00043015
0.02873909
0.04310820
-0.07144455
0.01029082
0.01562148
0.08009384
-0.04951673
-0.02095771
0.06089171
-0.05012577
-0.05845046
0.01729531
0.02910299
0.06764866
0.01474154
0.06695244
0.06641477
0.08202869
0.04348599
0.01999208
0.01386048
0.06524278
-0.00819501
0.02659757
-0.07974228
0.01246446
0.08265425
-0.06592191
0.05608136
-0.01169962
0.04288633
-0.07443734
0.04422894
0.04413860
-0.06321386
-0.06404097
-0.07796177
-0.02024207
-0.00855153
-0.04320500
-0.07975934
0.02555880
0.07190089
0.05161621
-0.04475548
-0.01352360
-0.00135593
0.00989188
-0.03103253
0.00123199
0.05711771
0.06472487
0.03729299
-0.04042138
-0.02964388
0.07926680
-0.04341199
0.05424691
0.05927768
0.06726738
-0.04652004
-0.02155788
-0.07043063
0.02558010
0.00329969
-0.06851654
-0.01357173
-0.00667368
0.02605130
0.00259118
-0.02722215
-0.03346501
0.06443949
0.04540974
-0.07443705
-0.02420291
-0.05572030
0.08010662
0.07147666
-0.07252654
0.07667149
0.01027852
-0.03661798
0.01812437
-0.07565794
-0.01130647
-0.07225852
-0.04728293
-0.06246417
-0.03958736
-0.04705290
0.02343770
0.04549134
-0.07077281
0.08126871
0.00640775
-0.02499994
-0.02320423
-0.06310117
0.03603025
0.04733058
0.05250730
0.07612643
0.04758057
0.03485167
-0.07039642
0.06266321
-0.02758400
0.06103029
-0.02180152
-0.05381675
0.05605339
0.03157921
-0.00102245
0.07011420
-0.06169511
-0.01274090
-0.06091316
0.01108102
-0.05516125
-0.07056737
-0.07929732
-0.00683574
-0.04478251
-0.07811639
0.00710982
0.02717873
0.05497666
0.02520609
-0.00856923
-0.07085820
-0.04240736
0.01595637
0.04371900
-0.02432671
-0.04263123
-0.02202730
0.00590993
-0.04102407
-0.01142259
-0.06137004
-0.03631222
0.04322038
0.00846241
-0.07990025
0.01514802
-0.02300650
0.03779206
-0.07510652
-0.02496985
-0.07411140
-0.05332347
0.07674087
-0.01111702
0.01222972
0.03294416
-0.02409005
-0.03572966
0.07254793
-0.07436730
-0.01595194
-0.07316108
-0.01230074
0.03710173
-0.05648512
0.06332807
0.04291770
0.04592220
-0.01352778
-0.03698501
0.00382132
0.05793789
0.00563058
-0.07333361
-0.07752725
0.07078202
0.04241336
-0.05164675
0.05815042
-0.00104454
0.05694494
0.00545747
-0.07056790
0.04178552
0.02658134
0.01897721
0.05287264
0.06692746
-0.03437364
-0.05021386
-0.03872082
0.02091455
0.07786256
-0.06827702
0.07990995
0.07118419
0.06184466
0.05462711
-0.02915072
-0.06089052
0.05125962
0.07588886
0.04947795
-0.01155880
-0.00016551
-0.04224798
-0.04770265
0.00349267
-0.00771089
0.05800907
-0.00623124
0.08622687
0.07175089
0.04556176
-0.00040321
0.06276273
0.03607722
-0.05039863
-0.03677592
-0.04632188
-0.05693441
0.01366896
-0.07557210
0.05931837
-0.00658745
-0.03706580
0.00519707
-0.00641428
0.02865122
0.05057014
-0.08080097
0.02621587
0.02265070
-0.02535001
0.03236727
-0.05498467
-0.01959843
0.04605370
0.04806657
0.01743728
-0.05274708
0.02962816
0.04622669
-0.03737900
0.05094897
0.00507472
-0.03177063
0.01661407
0.00955544
0.00635656
-0.06376789
-0.07387094
-0.00466999
-0.04140902
-0.03943328
0.02623326
-0.07180290
0.04494105
-0.02186791
0.03071537
0.05383734
-0.05910646
0.07418366
-0.00498458
0.04417931
-0.01575915
-0.00351367
-0.04595766
-0.00690690
0.08210023
-0.03805155
-0.04871309
0.03300350
0.06195052
-0.03538238
-0.04047428
-0.02821542
-0.03270855
-0.05167916
-0.04907073
0.00342226
0.03171434
0.02714565
-0.06508908
0.01949417
-0.05391282
0.07372279
0.08204477
-0.07433572
0.06701609
-0.06295958
-0.04075494
-0.05604029
-0.01666429
-0.07642081
-0.04554328
0.06395005
0.07025571
-0.02571021
-0.05400150
0.02475205
0.00800065
0.06742024
0.05347243
0.01226838
-0.07176220
-0.07457201
-0.03320604
-0.07986107
-0.00588979
0.07559439
-0.01280902
-0.03242567
0.04816049
-0.00664380
-0.07347373
0.03495609
0.08163916
0.07829230
-0.01262379
0.01834497
0.08091675
0.08141313
0.07642210
0.04323407
-0.01932135
0.06439947
-0.05038477
0.02272716
-0.03962687
-0.03910436
0.03071236
-0.08142987
-0.00453814
-0.02944659
-0.01116458
0.00984595
-0.06545158
-0.05315028
-0.03884518
-0.05667245
-0.03100810
-0.02860311
0.08056756
0.03482423
0.06671438
0.04213650
0.08114652
0.08248293
-0.02311603
0.04121648
0.03495060
-0.04821331
0.04786759
-0.03245575
0.04163622
0.02057393
0.00013732
0.08340436
-0.06622954
-0.06726193
-0.08080869
-0.06840904
-0.06335109
0.06611318
-0.04109424
-0.00673735
-0.02526428
0.04573267
-0.05270861
-0.01357386
-0.03556039
-0.01961127
-0.07959737
0.03881623
0.02081307
0.01125807
-0.01311403
-0.05944120
-0.00649413
0.07335956
-0.05109466
0.03468444
-0.05223837
-0.01178283
-0.06675217
0.02736257
0.00253710
-0.08134485
0.08273350
-0.00203225
0.02600804
-0.00297497
0.04615794
0.05064490
0.05932091
-0.08218538
0.07232662
-0.02674595
-0.01411950
0.02424879
-0.05884167
-0.03813687
0.04580098
0.04349402
-0.06907797
0.05692885
0.07203768
0.05186540
-0.06013386
-0.04400735
0.03394160
-0.08074218
0.02696497
-0.02107166
0.07841143
-0.05047790
0.02175527
0.01076095
-0.03114028
0.02802137
-0.00801048
-0.05845647
-0.01038628
0.08160517
0.01596374
0.01747324
-0.03703878
-0.04788675
0.01663994
0.05186848
0.06427873
-0.03518933
0.02235690
0.05005154
0.04542790
-0.02322733
-0.07552469
0.06364188
0.01653070
0.06371839
0.04207023
-0.03505147
-0.01752812
-0.04114420
0.03735281
0.06887960
-0.07311372
0.06741388
0.07265706
0.07517282
0.08051038
-0.00121861
0.07744721
0.00608101
0.04201156
-0.05374727
0.01633804
0.06775863
-0.01726182
-0.02355345
0.02557229
0.03825508
-0.05357458
-0.08200490
-0.07706979
0.03961068
-0.08330326
0.05550050
-0.07803824
-0.02107650
-0.05405986
-0.02707470
-0.01140169
0.00819738
-0.07023632
0.03443395
0.02036595
-0.05614286
-0.07052841
-0.02907934
0.08036590
0.04220259
0.03395779
0.00773053
-0.06052076
0.02125341
0.01369801
-0.03886040
-0.01230454
-0.07614778
-0.02656263
0.03287753
0.01372951
0.01974032
-0.07366587
0.00278728
-0.02180499
0.00204473
-0.05961297
0.05970217
0.08168843
0.04342436
-0.05220336
-0.01500733
0.00783484
-0.02102146
0.00730566
-0.00645708
-0.01163343
-0.07746238
0.01260530
0.02076634
0.06506922
-0.02461068
0.04246440
-0.03617811
0.05254289
0.07787449
-0.00166557
0.03173634
0.02198509
-0.00356163
0.00956718
-0.03155351
-0.02635130
0.08045954
-0.08045206
0.05527334
0.02036603
0.02556714
0.01831383
0.04967237
-0.03244584
-0.04216729
0.03991028
-0.04923638
-0.05450034
0.06708039
0.06219683
-0.02222268
0.01299141
-0.02072074
0.03380290
-0.05520727
0.04072221
0.02655663
0.05210933
-0.07450541
0.00772050
0.00019946
0.03022805
0.05133461
0.01678424
-0.01677086
-0.04207584
0.03149685
-0.02899139
-0.04885463
0.00728728
-0.01321099
0.02213006
0.01681683
-0.06287569
-0.00078101
-0.02524081
-0.05512234
-0.00116921
-0.02861907
-0.02552192
-0.05190537
0.02658635
-0.06420102
-0.02357669
-0.07153339
-0.01976788
0.06242729
0.02652142
-0.07266095
-0.02614877
-0.06078762
-0.02910281
-0.06090773
-0.02476020
-0.03657441
-0.01104339
0.07297615
-0.02424794
0.02770291
-0.03031898
0.07279737
-0.02502805
-0.02914508
0.01183352
-0.03505168
-0.04633980
-0.06261465
-0.05000348
0.01266802
0.03612625
-0.07400556
0.00903938
-0.04388274
-0.01388332
0.05231622
-0.05148845
-0.04946896
-0.08170789
0.07004270
-0.01496477
-0.02540676
-0.06203872
0.02053039
0.06553096
-0.05206874
-0.05955595
0.06580633
0.05677180
-0.05479868
-0.07607130
0.00969201
-0.00508253
-0.03201193
-0.06289627
-0.07901454
-0.02360934
0.07946178
0.00864116
0.00823712
0.00281148
0.01984478
0.07009093
-0.06826468
0.03278071
0.01564190
-0.03583801
-0.08136574
-0.00181420
0.04849929
0.07294089
-0.00090986
-0.07806716
0.02958249
-0.02470659
0.06220078
-0.02422186
0.03395024
-0.03899349
0.04978000
-0.00295949
0.07011605
-0.02431704
-0.06718260
-0.05550683
0.02239791
0.04725173
-0.04630625
-0.03401129
-0.00364782
0.05658833
0.00666089
-0.05952737
-0.01023893
0.08337285
0.04305944
0.01526006
0.03931257
-0.07504087
0.00982550
-0.06739056
-0.06436247
-0.07799090
0.00856479
0.01447869
0.03702299
0.06820490
-0.06112743
0.08069221
-0.02955245
0.05353205
-0.01069244
0.06228952
-0.02367631
0.05992562
-0.02954141
-0.05780955
0.03580314
-0.00244837
0.03682705
0.00774507
-0.01279460
-0.07062944
0.07143499
-0.02441676
0.01469684
0.00483236
0.08261937
-0.07613543
-0.04003511
0.08040271
-0.07142281
-0.05201695
0.02603794
0.04765292
0.07659667
0.04223456
-0.04018234
-0.05455529
-0.04957206
0.02919449
0.00512038
0.01336297
-0.05481229
0.06470479
0.05448851
-0.03353009
0.05320381
0.00895826
0.03807855
-0.02083888
-0.02360658
-0.03215225
0.02941911
-0.02559109
-0.02485211
-0.07078187
-0.07313083
0.03861534
-0.08051775
-0.03501686
-0.03699101
-0.06838004
0.00387166
-0.05539575
-0.00320502
-0.07090949
0.07108202
0.07615536
-0.05897645
-0.03414448
0.02118350
0.06073631
0.00535189
0.02591040
-0.03302132
0.05864774
0.03641006
-0.06133609
0.01885838
-0.01668982
0.01348629
0.05048048
0.06943280
-0.07116877
0.05732566
0.06553391
-0.00976049
-0.08165409
0.07240980
-0.07455432
0.01941550
0.03863653
-0.00948791
-0.00286861
-0.06655619
0.03430285
-0.03154087
-0.03018015
0.02567080
-0.01103913
0.04041399
0.06746776
0.02853480
0.07057028
-0.00346965
-0.03157643
0.08458245
0.00903528
0.04401112
-0.07067175
-0.02838284
-0.07694865
0.03876159
-0.06689271
0.01002142
-0.00956628
0.00703016
0.06442659
-0.01762935
0.08441466
0.06832963
-0.01894121
-0.03079662
0.02592796
-0.02744897
-0.01050394
-0.07584011
-0.05286885
-0.03215589
-0.07790578
0.04989929
0.04445184
0.00750527
-0.07692337
0.02171910
0.00834775
-0.06349329
0.06623287
-0.02981198
-0.07621238
-0.00680662
0.06947007
-0.02908466
-0.01429440
0.06515748
0.07674734
-0.02880826
-0.06366824
0.08166111
0.04362014
-0.01034622
0.04104125
0.02063010
-0.02688494
-0.05380921
0.07625131
-0.04998433
-0.06922098
0.05894473
-0.05856904
-0.06387634
-0.03728962
-0.00584037
0.01759330
0.06090691
0.08512516
0.08564006
-0.04112412
-0.02166003
-0.07834051
-0.04223702
0.05431988
-0.03007945
-0.06649879
0.07522574
-0.00185427
0.04767688
-0.02707736
0.00116709
0.08295607
0.06148429
0.04865250
0.01260846
-0.07731899
-0.02433342
-0.07694136
-0.04461443
0.05574379
0.03708198
-0.03748683
0.08117682
0.04123433
0.00382163
0.03727641
-0.03343394
-0.07032285
0.01726745
-0.08066416
0.07591738
-0.03515245
-0.01619557
-0.01641558
-0.07228161
0.02572302
-0.01829696
0.06356940
-0.06146544
0.01528092
0.05518949
0.01246018
-0.06787590
-0.07734291
-0.04905642
0.07397293
-0.02073564
0.01661047
0.04152755
-0.05861021
-0.03870002
-0.07915564
-0.01810349
-0.04621078
0.07588339
0.06193513
0.01937975
0.07984073
0.00736500
0.02543569
-0.03847992
0.08408882
-0.01427858
-0.00708018
0.03717261
-0.02213725
0.04780338
0.05052980
-0.04845974
-0.00634362
-0.02551138
-0.02581189
-0.06662033
-0.03743293
0.06586877
-0.06824438
0.02767086
0.04272131
0.07185795
0.02034261
-0.06019675
0.05222167
-0.03225828
-0.00489352
-0.07746984
0.07353638
0.01027993
0.02856562
-0.07768730
-0.06982483
0.06212944
0.01148376
0.07590079
0.03412861
-0.02726591
-0.05532681
-0.06612444
0.00642619
-0.05717237
-0.07163242
0.06352559
-0.00072321
-0.05551512
0.05974486
0.03451739
-0.08194962
-0.00198173
-0.03169198
0.05839326
0.06500890
-0.03221687
0.01471248
-0.03458692
0.08092470
0.06497461
0.06523779
-0.03331061
0.01142127
0.06761336
0.05309213
0.05956224
0.02876804
0.05409688
0.07822715
-0.02861602
0.02283241
-0.05085321
0.06886315
0.04607693
-0.03980202
-0.04236969
-0.00130005
-0.07760257
-0.00540105
-0.04344446
-0.01237402
-0.01557700
0.07516378
-0.06456802
-0.04123765
-0.07472398
-0.00072092
0.07033692
-0.04585403
0.08169242
-0.03140881
-0.04501709
0.03135997
-0.07554395
-0.05720590
-0.02217424
-0.04541985
-0.01724969
0.02571711
0.02773033
0.08167038
0.04353961
-0.04330699
-0.00660012
0.04277068
0.06971877
-0.03053887
0.03722854
0.06256272
-0.06542759
0.03351996
-0.07960325
-0.06892328
0.00690063
0.04463622
-0.06670446
-0.00238813
0.00187354
0.03370856
0.03489489
0.06087640
-0.01589598
0.05161910
-0.01271666
-0.07071489
-0.01157687
-0.06631833
0.07543572
0.07229730
-0.00571940
-0.07952726
-0.08341123
-0.05665992
-0.01786581
-0.04283298
-0.07777119
-0.03750325
-0.03209052
0.03585989
-0.05746897
0.06979958
-0.05033114
0.01665154
-0.07610837
0.06140163
-0.01659742
-0.00277294
-0.04316181
-0.04673260
-0.03289630
-0.06128960
-0.01613366
0.06179890
0.07492513
-0.06065030
0.03200739
-0.06980507
-0.06664523
0.02175648
0.02940701
-0.03515279
0.08286677
-0.01945614
-0.07705845
0.06005052
-0.00523705
-0.01527786
0.00815551
0.00219283
0.05990569
0.05011334
-0.05024084
-0.06805091
-0.02495016
0.05062630
-0.00107469
-0.07202648
-0.01110302
0.00156602
-0.06372221
0.00683290
0.06719744
-0.02984144
0.06463533
-0.04498320
0.05645157
-0.06961229
-0.03824914
0.08170427
-0.03106712
0.08233246
-0.05606076
0.05842821
0.08152574
0.07665353
-0.06980664
0.06013239
-0.08052963
-0.03796471
-0.01888846
-0.01119749
0.01597152
-0.04168652
-0.07601776
0.03121496
-0.02022737
-0.07133970
0.07958996
0.06107141
-0.00449038
-0.07753413
-0.04073211
0.03665972
0.02486897
-0.02373896
0.05510795
-0.01348781
-0.00283078
-0.07790389
-0.01494485
-0.00820623
0.04929176
-0.05674927
-0.04029874
0.05793554
0.04455155
0.06637496
-0.04413261
-0.02141107
-0.05487252
-0.06319067
-0.00631319
-0.07088485
-0.02045548
0.06118241
0.02750078
0.05394183
-0.05060129
-0.02841730
-0.03776205
-0.07498883
0.05233655
0.03042086
-0.02681898
0.04179920
0.05616700
0.06573561
-0.03806899
-0.02500983
-0.02519325
-0.04480953
-0.04658843
0.03514189
0.08085206
0.00850258
0.04826227
-0.03522140
-0.07298838
0.03416502
0.02596358
0.05168344
0.00509045
-0.07388179
-0.03636475
0.01763107
0.06943661
-0.01046204
-0.04643065
0.07211212
0.05023093
0.04694480
-0.01173238
-0.07296070
-0.00068483
-0.02073630
-0.03062797
0.07836475
-0.02772796
0.01365940
-0.05110096
-0.05943334
-0.07088003
-0.00068198
0.04327664
0.02329556
-0.00731201
0.01726216
0.07568143
-0.05104223
-0.01035313
0.04297503
-0.01817192
0.00597578
-0.05334791
-0.01921165
-0.05310811
-0.03528326
0.08139112
0.05101709
0.02804117
-0.02152951
-0.02084220
0.05885728
0.03741162
0.04399403
-0.04603777
0.01138655
-0.01258439
0.06447234
-0.07012290
0.07811143
-0.03480091
0.04229661
-0.07310067
-0.03222061
-0.00294527
-0.04666639
-0.01488981
-0.05540175
0.07333608
0.01874617
0.02797533
0.06831623
0.00215935
0.07074287
0.07763927
0.06436715
-0.01066996
0.03234189
-0.06628387
0.06743786
0.07932917
0.07030697
-0.03784012
0.00309738
0.03507254
0.06453050
0.06726997
-0.07855355
0.01614216
-0.02807396
0.02482186
0.07550468
-0.05626132
-0.01565713
-0.06031009
-0.05826955
-0.01335201
0.00843657
0.03977735
-0.01180328
0.00364225
0.00478145
0.03811974
-0.02662284
0.02317584
0.02536692
-0.00698117
0.07710556
0.03188808
-0.03330840
0.08091409
0.00611181
-0.06428938
0.01474758
-0.05807710
-0.04715815
0.04632439
0.00645778
-0.08193959
0.08070272
0.00192508
0.01570078
0.07283587
-0.01646369
0.05788656
0.01635368
-0.01074659
0.06383167
-0.03850699
-0.07042994
-0.03768445
0.03419786
-0.07527934
0.03329251
-0.00107654
-0.04897977
0.07050984
-0.02253710
-0.01286369
-0.02519538
0.02402860
-0.00230209
0.07441952
-0.04762242
-0.03436136
0.03030121
0.02651355
-0.06584860
-0.05683812
-0.07971705
-0.02240083
-0.05382111
-0.04193924
-0.06038958
-0.00334004
-0.02627585
0.01748094
-0.03801501
-0.06687251
-0.04239548
-0.05210476
-0.05870512
0.06753733
0.01729688
0.04079122
-0.04488249
0.06505423
-0.08203740
-0.02385665
0.04614633
0.01942648
-0.04114168
-0.06680664
0.00203341
-0.02858897
0.06594340
0.05355524
0.05305783
-0.00043868
-0.06658405
0.06762411
-0.01754764
-0.07780163
-0.03876080
-0.07070420
0.01374320
-0.06904702
-0.07947419
-0.03160861
0.04601024
-0.08319546
-0.05371763
-0.06164948
-0.03287036
-0.04966180
-0.04594532
0.06282107
0.00700632
-0.06359609
-0.01617154
-0.01120755
0.06466388
0.07914403
0.02520905
0.06598426
-0.04306340
-0.03687821
-0.07721449
-0.07239711
-0.01837885
-0.06369697
0.07600616
0.01397638
-0.00453655
0.05325257
0.05082955
-0.04670466
-0.03870580
0.05817036
0.08085919
-0.01154278
-0.01608140
-0.01772782
-0.06513289
0.01429480
-0.01095777
0.01250084
0.03721065
0.00557932
-0.05691921
-0.03741941
-0.04773543
0.07984424
0.01412062
-0.08093911
0.06479714
-0.04050019
0.07762600
0.05817080
-0.02816650
0.03211818
0.05362047
0.01895566
0.04390774
0.05850344
-0.02888521
-0.06081169
-0.08233271
-0.06907304
-0.06073485
-0.01233567
0.04560640
0.02662466
0.06217932
-0.03922901
-0.05646487
0.00392751
-0.01317808
0.07129028
-0.05577748
-0.06082430
0.03161522
-0.04928239
-0.05133130
0.04360793
-0.02447937
-0.04072133
-0.04811495
0.05822530
0.04213458
-0.05400041
0.04449907
0.02131367
0.02165778
-0.05811378
-0.05464804
-0.04111150
0.03659965
-0.01154350
-0.06741824
0.05630269
-0.04200551
-0.04008311
-0.00663217
-0.03587555
-0.00511749
-0.04839939
-0.04452601
0.06811604
0.05951378
-0.00146176
0.04676641
-0.04945975
0.00996039
-0.04126041
-0.07649017
0.07538633
0.03061603
-0.04594669
0.05688756
-0.04483044
-0.04696390
-0.07562666
0.06025689
-0.01467055
-0.06170940
0.04665152
0.03367030
0.04311784
-0.04967324
0.05875889
0.03395320
-0.04692644
0.04970451
-0.04240743
0.03544113
-0.04222234
-0.00332424
0.03510615
0.06881854
-0.03144035
0.02888945
0.01005968
-0.07100093
-0.01313371
-0.05897174
0.04500896
-0.06376591
-0.06843408
-0.03832890
-0.02682634
-0.03478906
0.05329556
-0.06271476
0.04488328
0.07562967
0.00713960
-0.02262486
0.03166418
-0.04002101
-0.06662560
-0.01383438
0.05602439
0.05602755
-0.05837439
0.04550683
-0.01100892
0.04031476
-0.01599630
-0.05740772
-0.04891336
0.01592890
0.00340095
-0.02499338
-0.05854637
0.00818952
0.03248741
0.02202121
0.01585796
-0.07208630
0.05461388
-0.01070763
0.05064390
0.06276913
0.03449425
-0.04215017
0.01576765
-0.04621641
-0.00028705
-0.03396577
0.03716586
0.08036876
0.02874855
0.01169504
-0.06216400
0.02759095
0.04061162
0.01637783
-0.01860793
-0.02021095
0.02664011
-0.03494709
-0.06390954
-0.00446667
0.01322206
-0.02874653
0.00731621
-0.01416115
0.05717250
0.04179807
-0.04838877
0.05736817
-0.00629818
0.08325576
0.06154722
-0.06291969
-0.04025105
-0.06943948
0.01606452
0.07221169
0.07971989
0.05873578
0.02815605
0.07202429
0.00965875
0.00445870
-0.04473497
0.03774034
0.03505826
0.06631922
-0.03642121
-0.00986008
0.03773059
-0.05700737
0.00475692
0.03164345
-0.04673627
0.03814792
0.05270921
-0.02946316
0.04024217
0.00075199
-0.00155359
-0.07776268
0.02503636
-0.07417683
-0.02351602
0.00810712
0.06208372
0.00734396
-0.00161223
-0.07698954
-0.01415780
-0.03533902
-0.02592057
-0.07127243
-0.02154998
0.04404515
-0.01360060
0.02163159
0.03665097
-0.06403823
-0.03112783
-0.00252539
-0.08060070
0.07117861
-0.04771834
0.04073824
-0.05532534
0.04325218
