-0.09382797
0.06695618
-0.09148518
-0.10750691
-0.03061265
0.04453003
-0.02450119
-0.03038286
-0.04629757
-0.08233420
-0.04069367
0.07846031
0.07047731
0.01492572
-0.02164511
-0.01145953
0.06055630
0.06960338
-0.01680604
-0.04959837
-0.07130914
0.11453026
-0.00868026
-0.00077381
-0.11283116
0.11825336
0.04028291
0.03566761
0.09799923
0.07133345
0.03170074
-0.00828245
0.00513356
0.08095047
0.04465827
0.03482823
-0.04920208
-0.05375297
0.05591999
0.03517675
0.01951713
0.03444538
0.06335022
-0.09360381
-0.01599846
-0.11238623
0.02710507
0.01095586
-0.05731425
0.08467607
0.05941099
0.03855626
0.08594231
-0.07596432
-0.10069356
0.02970955
-0.02304256
0.04887963
0.08788732
-0.08536405
-0.04083223
0.02752687
0.03539547
0.03137666
-0.03154831
-0.03775553
0.06226728
-0.05495204
-0.02022270
-0.01490877
0.10274918
-0.07709221
0.06781409
-0.05467648
0.01892597
-0.02516718
-0.06403688
-0.04778286
-0.00378348
0.07333609
-0.04266606
0.12013687
0.11086810
0.09224195
-0.10208920
0.08368792
-0.03751937
0.00678521
-0.00951701
0.00017943
-0.10185632
0.07918419
0.10671610
-0.02380937
-0.03440482
-0.04886497
0.05924616
0.00809662
-0.01541684
0.03923343
0.05915429
0.08967538
0.00320665
-0.01328303
-0.00040588
0.03547267
0.10136007
-0.03171777
0.07014530
0.06413390
-0.03923382
-0.01595876
-0.02121093
-0.00751560
0.06554044
0.02792863
-0.02899925
-0.02720324
0.07266446
-0.09948634
0.06954253
-0.04447590
0.01233317
-0.02791583
0.01731043
-0.09564421
-0.05094568
-0.00663786
-0.04740366
-0.01540402
0.10829951
0.01812608
-0.07679055
-0.00055306
-0.09111153
-0.01553941
-0.03202423
-0.01337947
0.03201612
0.11519237
0.02894584
0.10433502
0.02094543
0.09152097
0.01405267
0.03457113
0.04630047
-0.06866749
-0.01465502
0.05354375
0.04335096
-0.08390030
0.03100735
0.11985076
-0.02585013
-0.11004850
0.07319406
-0.04081964
-0.03722183
0.10994979
-0.00508962
0.09836452
0.08603511
0.02758490
-0.08710293
0.08663623
-0.09824809
0.01004309
0.05475510
-0.05674731
0.02886344
-0.01014170
-0.05920008
-0.05867733
-0.10585634
-0.10234848
0.07137004
0.04266964
-0.04904079
-0.05898105
0.00305452
-0.07568347
0.02355202
0.02818575
0.09791081
0.09208176
-0.06444875
-0.06315105
-0.06213997
-0.01200235
0.09700413
0.06082905
0.11732499
0.08433594
-0.08458123
-0.09017622
0.01742604
-0.10254111
-0.01209921
0.02962500
0.04940340
0.02717734
-0.07650032
-0.05700545
-0.00045908
-0.01704001
0.04070766
0.05661347
0.04691849
0.02326551
-0.06651229
0.06076438
0.06328269
0.03679624
-0.03193586
0.11050912
0.02452895
-0.04520287
-0.06032524
-0.05179963
-0.03499098
-0.01461459
0.03546409
-0.01023566
0.04168030
-0.03422191
0.07274571
-0.03629603
-0.00448861
0.08680209
0.07964468
0.00983355
0.01828004
0.00149245
-0.01572324
0.03822730
-0.11414876
0.03919251
-0.05383387
-0.02308441
0.07840717
0.03654569
-0.02627888
0.11082849
-0.09440391
-0.01356534
-0.01286278
0.09186374
0.11201373
0.06592829
0.06980560
0.10134763
0.04763477
-0.04264659
0.02206233
0.04162177
-0.09959698
0.04025941
0.06979822
-0.02987816
0.10370587
0.04562577
0.02307034
0.07474867
0.10200240
-0.07910933
-0.00602396
0.02617520
0.11583387
0.00178330
0.10059536
0.01997388
0.11097969
-0.07778279
-0.02387130
0.01228130
-0.11350829
0.11949442
-0.04625921
0.08881291
0.05143582
0.11885605
-0.09543330
-0.05035932
-0.10750246
0.03399099
0.01881334
-0.11417714
-0.07876990
-0.02878434
0.04485704
0.10853130
0.03556237
-0.02740534
-0.06432188
0.08134720
-0.09701294
-0.08252400
-0.08611066
-0.02857609
-0.06127622
0.08360977
-0.06851602
-0.08915431
-0.06691410
0.06663618
0.08697181
-0.06428088
-0.09862906
-0.01106410
-0.07321145
-0.00208355
-0.07789932
-0.09229876
0.11097251
-0.01831338
0.00865489
0.00200353
-0.10885664
-0.09274739
-0.07112342
-0.11318252
0.11064255
-0.05299232
-0.07979038
0.09828185
-0.01389713
-0.04637448
0.10992544
-0.01089765
0.00574341
-0.02128870
0.02453532
0.00352687
-0.02912415
0.01258158
-0.05063302
-0.10788720
-0.03499975
0.03410165
0.03613282
0.01363918
0.09074394
0.03612565
-0.06108738
-0.00853287
0.09617811
-0.11161396
-0.00071103
-0.02245837
0.08884260
-0.11216999
-0.06491249
-0.06128819
0.06642699
0.00920151
0.00564518
-0.09112628
-0.00825751
0.07754049
-0.01299520
0.02191825
-0.11144826
0.09775170
-0.01651104
0.04531157
-0.06730477
0.06175483
-0.11615840
-0.11310343
0.01968934
0.00330235
-0.09546450
0.00713977
0.05164449
-0.08651380
-0.11096425
0.03752065
-0.05878162
0.05972354
0.02121159
-0.06073087
-0.05172386
-0.01345191
0.01093521
0.09303750
0.01479037
-0.10485613
0.01525780
-0.01850300
-0.05863658
0.11206537
0.11366060
0.11457562
-0.07491130
0.05447360
0.05851417
-0.00272448
0.02939146
-0.05414173
-0.04877100
0.06031892
0.01881190
-0.03194168
-0.03421232
0.09659491
-0.00920842
-0.11261185
-0.11415213
-0.11219258
-0.08969028
0.11061522
-0.07440647
-0.06007324
-0.02726632
0.03044944
-0.00531609
-0.01869321
0.03822665
-0.07553505
-0.04469604
0.03169220
0.03957780
-0.02679079
0.10548056
-0.02706572
-0.09732042
0.09456585
0.10595121
-0.02507271
0.02781675
-0.06780735
-0.08610845
-0.10400026
0.05934075
-0.04079123
-0.10649569
-0.04300857
0.08874348
0.08392374
0.07702169
-0.08692548
0.02394936
0.07807278
0.04703470
-0.02769887
-0.03238087
0.11499166
-0.03972436
-0.02558176
-0.08871062
-0.00113915
-0.01804012
0.11757837
-0.03183913
0.07958984
0.04549764
-0.08051226
-0.02618290
0.03424375
0.04098855
-0.06610242
-0.06023803
0.03791698
0.05471626
0.05454623
-0.00989226
0.09568742
0.11763762
0.03699304
0.04338665
0.01475132
-0.01957218
0.02240150
-0.05490653
-0.00745884
-0.10315207
-0.01609427
-0.00739941
0.07145572
-0.02522570
-0.03070901
-0.05800178
-0.07355557
0.02912889
0.10042022
-0.05069014
0.07853443
0.00236226
0.06984404
0.08618928
0.00944555
-0.00822372
-0.03802232
0.00700372
-0.03400255
-0.07796971
-0.08210090
0.01084074
-0.01087760
0.03376088
-0.06785064
0.07857446
-0.06935106
0.06258937
0.00018933
-0.01143095
0.08251500
0.09292326
0.10344423
0.00775186
-0.03951265
-0.06697296
0.06654327
-0.10887883
-0.02772444
-0.02559186
-0.02763090
-0.08860325
-0.08224164
-0.09359133
-0.02324676
-0.04277631
-0.01801915
-0.01236452
-0.05389220
-0.02659184
-0.08011851
0.05033000
0.10232174
-0.01849802
0.08883183
0.10978750
0.00236751
0.02290663
0.06778356
-0.00896812
-0.04746375
0.09809048
-0.02519723
0.02476182
-0.07016217
0.00422230
0.04807444
0.09739954
0.00253689
-0.04378748
-0.09738143
0.03589442
-0.00857432
-0.03887577
0.09793749
0.05860926
-0.07835401
0.01131661
-0.04294007
0.01314260
0.00954790
0.06187452
-0.01915943
-0.01152592
-0.01098875
-0.09333521
-0.07027773
0.07452231
0.00109003
0.10843945
-0.02084898
-0.11182486
0.10018227
-0.11496940
0.09763899
-0.06074602
0.06273260
0.00853725
0.06271421
0.06383775
-0.08105906
-0.10413431
0.05988819
-0.02577093
0.02273124
0.07810476
-0.02630271
0.11750451
0.11007260
0.03997643
0.10872702
-0.09275118
-0.07223172
0.00330127
-0.03621553
0.07002539
-0.02275978
0.03035638
0.01323234
0.01823998
-0.00148449
-0.02706050
0.00457605
0.06160686
0.09322380
0.10812713
-0.08759735
-0.05684768
-0.05104128
0.01777583
-0.03259601
0.02619699
0.02769305
-0.06426264
-0.04355497
-0.02158618
0.03335482
-0.02221108
-0.10618106
0.09252459
-0.00288090
-0.11152029
0.10104041
-0.02619162
-0.00818597
-0.08311518
-0.09858292
0.07694815
0.10817534
0.01719136
0.04054279
-0.10035500
0.08211748
-0.00797232
0.03368140
0.06968855
0.10435393
0.09114253
-0.05753113
-0.00200176
0.08372684
0.03697274
0.01079760
-0.03348745
0.10996789
-0.08004860
-0.08245580
0.04522345
-0.00694567
-0.00630912
-0.04631083
0.07557023
-0.01131448
-0.07011244
0.01750212
-0.09604117
-0.00051838
-0.03626862
0.05083002
0.02010932
-0.03459830
-0.06143881
0.01205823
0.11668411
-0.03192880
0.11028291
0.09804045
0.08716422
0.01554252
-0.00541845
0.04664993
0.07159471
0.12013124
0.02522992
0.03036541
0.09088710
-0.05607818
0.03807181
0.01141627
0.11147974
0.09170104
-0.09823310
0.02036782
-0.03223959
-0.01390266
0.06150252
0.06377013
-0.05273996
0.03239805
-0.03239509
0.08524486
0.11286695
0.03642834
-0.02364388
-0.04621607
-0.01166650
0.04430466
0.09578534
-0.00634567
0.07955012
-0.10720122
-0.05830786
0.07066485
0.06836067
-0.02525591
-0.00436446
0.00655302
-0.03917124
-0.03212044
-0.09608322
0.03163062
0.11260046
-0.01972157
-0.04358468
-0.06829559
0.11177991
-0.05150080
0.10345586
-0.00753295
-0.00958679
0.04113070
-0.06117798
-0.04810655
0.06906676
0.02667000
-0.05813388
-0.00338812
-0.10393868
0.10689290
-0.00956877
-0.00632929
0.00173380
-0.01928033
-0.05689187
0.11414914
-0.05755992
-0.04909135
-0.04540959
-0.04283466
0.10398107
-0.09157888
0.03990496
-0.05702011
0.07123152
-0.06350143
0.11216959
0.05716663
-0.06306093
0.06536338
-0.03972791
-0.01145037
0.09420256
-0.08232239
-0.10840834
-0.04250952
0.11606830
-0.07031951
0.00503592
0.08524375
0.07494746
0.01320041
-0.09042922
-0.09730511
-0.00372986
0.04027866
-0.06228574
0.07149804
-0.02227452
0.02602708
0.10267138
-0.06372812
-0.04245573
-0.03851312
-0.03061499
-0.07786251
0.09463275
-0.05452272
0.07888716
0.01942637
0.02324331
0.03940672
-0.00139543
0.02455566
0.09114405
0.04766764
-0.08818234
0.04244938
-0.02112643
-0.02087857
0.06005159
0.06581606
-0.05601444
-0.07765192
-0.06789278
-0.06762953
0.00508173
0.06953111
0.04156042
-0.04992668
0.11644618
0.11509970
-0.04805695
-0.02688815
-0.02905426
-0.01069084
-0.03225370
0.10173074
-0.09740515
-0.00558364
0.10845600
-0.09437845
0.04818816
0.02164395
-0.04357919
0.01116124
0.06487165
0.05576508
-0.10941785
-0.08314890
0.06081088
0.00913522
-0.09985297
-0.06508709
-0.07456392
-0.11336567
-0.06494503
0.07367794
-0.05800259
-0.02541388
0.10847173
0.05310752
-0.05921337
0.07849344
0.07929172
-0.10010705
-0.10817092
0.05694522
-0.04876484
0.04932200
0.08613779
0.02682662
0.11156485
-0.07576665
-0.07767112
0.04505970
-0.01101179
-0.06460286
0.02864688
-0.08836824
-0.06551064
0.03132268
0.03391816
0.10792459
-0.10459749
-0.04362226
-0.07748894
0.03661803
0.03480458
-0.07535423
0.08159408
-0.10920911
-0.05414815
-0.10180500
-0.05694292
-0.00528801
0.05272590
-0.08227607
-0.03689499
0.10281949
0.08389398
0.07220252
0.10791551
0.10494713
-0.04381909
-0.07904877
0.06373849
0.02034767
-0.06134865
0.11359450
0.01667130
0.01621426
0.04559349
0.02590143
0.01526452
0.04893175
0.02354760
0.04343420
0.05501202
-0.06750151
-0.08302622
0.05854401
-0.03571949
-0.11679237
0.05684614
0.11485633
0.10805888
-0.05497573
-0.11103150
0.02911108
-0.05644032
0.00946942
-0.00232847
0.06507271
-0.03970526
0.07140774
0.10002873
-0.02223701
-0.04842651
-0.07620791
0.05775267
-0.10734756
0.05015170
-0.09700914
-0.04652144
0.10910889
-0.09359881
0.06315766
0.04023721
-0.07657430
0.02950244
-0.03360195
-0.10350132
-0.05886957
0.07329524
-0.02004537
-0.05480141
0.00057291
-0.07542916
-0.00237648
-0.07220765
0.04168397
0.00540855
0.03321349
-0.04514655
0.00339297
-0.10197071
0.01252167
0.09432410
-0.03427513
0.11052457
-0.09529758
0.08260920
0.06895181
0.00738327
-0.07819446
0.00156415
0.07005582
-0.04367733
-0.08200890
-0.00403650
0.11967138
-0.01786756
0.08100298
0.07137862
0.02964158
0.01088083
0.03893509
-0.11088542
0.11610016
-0.11225140
-0.04473776
0.11237281
0.03580717
-0.11400009
0.01137421
0.07408623
0.09197826
0.08909968
0.08988295
-0.06268885
0.03830429
0.01065561
0.04646660
-0.07233404
0.01723632
-0.08047866
-0.03161796
-0.00463908
-0.07977728
-0.08634142
-0.10465320
-0.10440579
-0.00714391
0.10418286
0.04587194
0.01339380
-0.04332290
-0.02385019
0.03555563
-0.07213841
-0.03778416
-0.07776975
-0.09638380
0.00311530
0.06098570
0.07077281
-0.02951254
-0.10223313
0.10405631
-0.06586158
0.10114207
0.05882691
-0.09988016
-0.07888269
0.06963918
-0.11183072
0.01142444
-0.10924589
-0.02878147
0.10203768
-0.04638559
0.03128574
0.01260883
-0.08239485
-0.01842707
-0.08403965
0.07466921
-0.03625859
0.04853624
0.00651476
0.09427671
0.10688818
-0.00782797
-0.06134286
-0.04911968
-0.02245899
0.00369160
-0.10289422
0.02424764
0.00348553
0.04341047
-0.10519007
-0.04013618
0.02694556
0.10147204
-0.06512241
0.02732972
-0.05726379
0.04222587
-0.09187929
-0.08224838
-0.02498775
-0.04143891
0.01277420
-0.08612864
-0.05019882
-0.10835639
-0.03119546
0.04014396
0.07641245
0.01202719
0.02683519
-0.05155813
0.02587190
0.09808102
-0.01131490
-0.00178026
0.07440969
0.00430416
0.00653128
-0.05229925
-0.11423240
0.03579766
0.06926653
0.03567488
-0.06287339
0.04332037
-0.06682163
-0.01523097
0.01900540
0.03461285
-0.11478543
0.03115122
0.07549360
-0.08469224
-0.11497167
0.05622122
0.06186847
0.04150553
-0.09128894
-0.10991474
-0.04960755
0.07312421
-0.04049275
-0.00552910
-0.07265888
-0.10044635
0.04252743
0.07795280
0.04135337
-0.04766652
-0.06506716
-0.00091808
-0.04084207
-0.06392095
0.03244949
-0.05475120
0.09268332
-0.07440498
-0.09751286
0.08119519
0.00415277
0.05564864
-0.08807770
-0.09541190
0.00860652
-0.04927006
-0.09298686
-0.05864855
-0.06029189
0.00267497
0.03896002
0.06710577
-0.02832051
-0.10409518
-0.05081721
-0.05691019
-0.05459430
0.06275066
-0.03642008
0.00604024
-0.02698899
-0.10576438
-0.04074278
-0.09454987
0.08537068
0.00032504
0.10449958
0.07361502
0.08568340
0.10284305
-0.07543685
-0.06989149
0.03226098
0.00220977
0.03253027
-0.05220446
-0.03740625
0.08592124
0.11457963
0.09503025
-0.09468433
0.05766334
0.04325147
0.08050965
-0.03253991
0.03746274
0.10272477
-0.05328408
0.05433992
-0.06276575
0.04695926
0.07602118
-0.01636529
0.04567966
0.00808325
0.11463050
0.03014029
0.04266276
-0.10141940
0.05648733
0.03668511
-0.02994004
0.02167674
0.11795269
-0.08125154
-0.00008419
-0.06296800
0.00008481
-0.03612021
-0.08275393
0.03593016
0.00501045
-0.09693934
-0.06199413
0.03324418
0.09150100
-0.03808905
0.03097679
-0.10154507
-0.03264102
-0.06464347
0.08241564
-0.10424436
0.08274577
-0.01260554
-0.05810414
0.11659446
-0.08391839
-0.07310473
0.06843960
-0.11459711
0.04188924
0.08380412
-0.09126142
-0.02083893
-0.06272841
0.09460190
-0.04313650
0.09990813
-0.04046122
-0.09231924
0.08412072
0.01642115
-0.05709096
-0.10562075
0.02997077
0.01982368
0.06546663
-0.00101171
0.07038956
0.11101240
-0.01118202
0.06606934
-0.00483901
0.05902060
-0.07986398
0.09996982
0.11157081
0.08131583
0.10730834
0.04548527
-0.06794238
0.02976612
-0.01986893
0.06905717
-0.04567852
-0.05865958
-0.11046254
-0.00419588
0.06570284
0.08273890
0.08034566
-0.10707535
-0.03640371
-0.01738016
0.04408235
0.07015780
-0.11226178
0.08285613
-0.09159053
0.03414008
0.01931253
-0.08718365
0.07081243
-0.07710440
0.05259810
0.06179979
0.03559726
0.08839025
-0.01623525
-0.01341522
-0.10718732
0.07387779
-0.11398795
-0.06098672
0.08201106
0.01501586
0.02394735
0.08089918
0.02567121
0.07747217
0.04251248
0.06179827
-0.05985877
-0.00678648
0.02583103
0.01932238
0.01455089
-0.00076025
-0.02406847
0.09147106
-0.06556825
0.06145370
-0.10400289
0.06443584
0.08022950
-0.11074743
-0.05872167
0.07622309
0.03840970
0.04166900
0.03090422
-0.05855079
-0.05756240
0.00502191
0.02075645
-0.07161779
0.03248762
-0.00945455
0.07800225
-0.05122658
0.11400660
-0.05796343
-0.07861742
0.11814813
-0.09423517
-0.07435680
-0.10767666
-0.10368945
0.10345357
0.05126409
0.04839795
-0.04528798
0.05096379
-0.03032701
-0.05278838
0.07093383
0.08344164
0.06681659
-0.02902084
-0.04990494
-0.03580482
0.00558680
0.07289769
-0.06322207
0.00056387
-0.07220329
0.02273631
0.01341921
-0.06980465
0.04290037
-0.07285418
0.06971294
0.05322121
-0.06473002
0.00103412
0.03421651
-0.03772014
0.03666651
0.02776521
0.08659759
-0.10671505
0.00401514
-0.08735114
-0.04221544
-0.05312614
-0.07251478
0.09611574
0.02829642
-0.05691739
0.02093744
-0.07964209
-0.05477313
-0.05782369
0.05982991
-0.01958009
0.01769411
0.00472684
-0.08748397
0.02683380
-0.09302193
0.04497653
-0.09868154
0.00145880
-0.01808708
-0.00651762
0.09317247
-0.00821180
0.00755161
0.10871256
-0.03621381
0.04706173
-0.10191245
0.02656493
-0.11578279
0.09631367
0.07939219
0.09707542
-0.11370692
0.08479664
-0.09657495
-0.05175042
-0.07227201
0.06381518
-0.05067188
-0.09884797
-0.00983290
-0.09164733
0.06610470
-0.00645494
-0.03698130
-0.02193527
-0.06939661
-0.09052105
-0.07371408
-0.00918595
-0.01105235
0.00408715
-0.10611813
-0.01703435
-0.03036052
0.01731000
0.03022034
0.03267030
-0.01613909
0.05897682
-0.04382563
-0.04648321
0.01697141
0.00839510
0.00253055
0.05374740
-0.01462108
0.05492711
0.09724006
0.09218254
-0.10241000
0.10833005
-0.09171263
-0.04502955
0.06742775
0.02887706
-0.01764917
0.10046058
-0.00989230
0.09469973
0.03971881
-0.02944629
-0.07363369
0.06553099
0.10996742
-0.08655003
-0.10066005
-0.08714069
0.09545381
-0.06145209
0.01936285
-0.02683568
-0.05022693
0.02211129
-0.03238570
0.03538890
-0.02948900
0.05625682
0.11394313
0.05359631
0.06584466
0.05621472
0.03699482
-0.03495307
-0.07178610
-0.08496995
0.03367785
-0.07956787
0.01989226
-0.08280270
-0.04397231
-0.05805316
-0.11605820
-0.03521105
0.01632126
-0.08797094
0.03545896
0.07380974
-0.02903470
-0.00156600
0.11542900
0.08806282
-0.01262576
-0.06194831
-0.05920896
-0.11150043
0.06169048
0.01436171
0.10787927
-0.08140942
-0.06322581
0.05331884
-0.03334167
0.08980422
-0.02814763
0.05530730
-0.06957863
-0.08260009
-0.08486696
0.04986491
-0.08570030
0.00647889
0.04817918
-0.08263087
0.06951514
-0.04564945
-0.01711524
-0.09842028
-0.06087229
0.03097907
0.05046395
-0.03826757
0.05888866
-0.05116943
-0.00325400
-0.09558007
0.03835424
-0.05244050
-0.04458975
-0.05494466
0.03702660
0.06348044
0.05750969
0.08443948
0.11665414
0.05708786
-0.02895463
0.10993241
0.05913570
0.00569599
-0.06790198
0.03071245
0.04427154
-0.06451327
0.06801048
0.10105632
-0.08382406
-0.04348946
0.03371338
-0.06408264
-0.06929997
0.02605771
0.05774615
-0.09097692
-0.07453419
0.11022072
-0.04645803
-0.04547285
-0.09471277
-0.00546491
0.08142053
0.00252618
0.00728871
-0.05131604
-0.09121571
-0.08293134
0.04745344
-0.02260989
0.03562879
0.05081725
0.00736361
0.09802539
-0.06233486
-0.04976213
-0.09873834
-0.08178686
0.03949840
-0.05503245
0.06224947
0.00569351
0.10786457
-0.05509709
-0.10852364
-0.09325840
0.02409519
0.07032963
0.03782847
0.01038058
0.04214195
-0.08775920
0.10166381
-0.00538880
-0.06846801
-0.04185031
-0.01752357
0.03231905
0.10872559
0.06870607
0.11457824
-0.06007865
-0.01319299
0.10606814
0.11157242
0.09458686
0.10078584
-0.00518878
0.09556670
-0.06709621
-0.00735812
0.05070965
-0.11369222
-0.06639094
0.10391037
-0.03031236
-0.05909174
0.03451114
-0.08260366
-0.11120299
-0.04039005
-0.10222177
-0.03437547
-0.10255662
-0.03328460
0.09638074
0.05496149
-0.10928100
0.05118726
-0.04887071
0.01875510
0.08451204
0.11164472
0.02731709
0.07574672
-0.06511621
0.05937857
0.06665705
0.05990609
0.02534863
-0.06953222
-0.05540138
-0.08622232
0.09355149
0.07907918
0.08099869
-0.06762251
-0.01556369
0.08422840
-0.03847345
0.04516355
0.00145319
-0.10284471
-0.04689732
0.10276218
-0.03602033
0.07358706
0.06518736
-0.06371019
0.08791628
-0.10511222
-0.03064037
0.09166081
-0.06655359
0.10263569
0.09391537
-0.07396941
0.05703624
-0.10422164
0.02682994
0.11916637
-0.06593069
-0.08903832
0.09463499
0.03245958
-0.06133061
-0.05703465
-0.07459453
0.09945574
0.09688744
0.04786876
-0.07165534
-0.07353175
0.07889233
-0.01863299
-0.06826516
-0.02837016
0.10106220
-0.03959056
-0.09800113
-0.07529781
-0.03789504
0.05388334
-0.03317626
-0.08075675
0.08359235
-0.09713932
0.08541819
-0.09797264
0.10312970
0.11085022
-0.06614828
-0.00327216
0.04865856
-0.05439641
0.03495242
-0.03449836
-0.01881537
-0.04492788
0.11071756
0.07910725
-0.01197016
-0.06900781
0.02544844
-0.07151772
-0.04710442
-0.07000685
0.04062113
0.10633492
-0.03479839
0.02615283
-0.00528326
-0.00880661
-0.05872682
-0.02561419
-0.03932319
-0.04626819
-0.10275633
0.06967741
-0.04132299
0.05476877
-0.03747176
0.06754474
-0.08954945
0.09852667
0.05115535
-0.06103270
0.05494560
0.07910424
0.01935657
-0.04503059
-0.08286538
0.00640472
-0.09851768
0.10601877
-0.06598025
-0.05821411
-0.06160089
-0.05432429
-0.06314747
0.07697815
0.02718465
-0.04019404
0.04456883
-0.07537737
0.02715255
0.02718635
0.10225575
-0.03862725
-0.01576985
0.00815126
0.07450925
-0.02741452
-0.02051245
-0.02919153
0.03345889
-0.05561852
0.08101256
-0.01280423
-0.04218151
-0.03245336
0.08947004
0.01481052
-0.01399075
-0.05102870
0.01227468
-0.09112833
-0.05700039
-0.00152404
-0.08150065
0.05586613
0.06752561
-0.06037398
-0.08450074
0.04186292
-0.01962814
-0.05774336
0.12014696
0.10196438
0.05248241
0.04778283
-0.06242559
-0.07257942
-0.03062025
0.09808828
0.06920379
-0.06088334
0.06525988
0.10966245
-0.08489720
0.10282732
0.09723243
-0.02075674
-0.02901726
-0.00925445
0.09738202
-0.05559770
-0.03361673
-0.10817414
0.08972935
0.00499705
0.08249353
-0.10709582
0.00743255
-0.11219442
-0.08516944
0.06451536
-0.09063900
-0.00908170
0.12047100
0.07108050
-0.02120596
0.03134468
-0.03173842
0.01918076
-0.09054074
0.11630002
-0.02690943
0.03279666
-0.04029171
0.09719446
-0.09419489
-0.07994760
-0.00696761
0.10485294
0.01419204
-0.03123454
0.09787729
0.07686536
0.05727939
-0.04482668
0.11778654
0.00293992
0.04378315
-0.06221773
0.10870739
-0.02914879
0.11587210
-0.06488833
-0.01148465
-0.08999807
0.11498126
0.07898503
0.06295567
-0.04146156
0.05989144
0.03508661
-0.00543125
-0.08725311
-0.06104478
0.09820119
-0.01519425
-0.08980704
0.02867664
0.10404724
-0.03021321
-0.09134337
-0.09105690
0.03782168
0.06396765
0.09006088
0.00721910
-0.08071401
-0.06925318
-0.01416017
0.06373294
0.11012686
0.07368013
0.12009260
-0.04962942
-0.03734649
0.00130860
0.09234717
-0.06487282
0.11141096
-0.00348740
0.06437066
0.05342297
-0.03312851
0.04709678
-0.02102027
0.11256863
0.09893564
-0.03157591
-0.04899826
0.00882792
-0.02046406
-0.08693616
-0.01334660
-0.10796067
-0.00392188
0.08296063
-0.03652308
0.09929015
0.09629764
0.07597650
-0.02686828
0.09617287
-0.07238891
-0.04387344
0.00506892
-0.05896506
-0.03195801
-0.00235181
-0.09883057
-0.10948095
-0.03184041
0.02963840
0.08971629
-0.09620123
0.01860663
0.11711701
-0.00857808
-0.09696970
0.04489005
-0.03380908
-0.02863024
-0.10784044
-0.06294349
0.00964096
-0.06043274
-0.03532270
-0.05132287
-0.06531606
-0.08256716
-0.00408156
0.01597516
-0.08428556
-0.02864608
0.01375000
0.10799480
0.01311659
-0.07185203
-0.09655877
0.08504486
0.02274993
0.10465106
-0.07239726
-0.00273929
-0.06264619
0.08234202
0.01122052
-0.05497335
0.05009487
0.10110947
0.04718389
-0.10184533
-0.05279931
0.10895242
-0.03506249
0.06914522
0.04471811
0.08550911
-0.08006401
-0.07704415
0.02079472
0.05676406
-0.09033687
-0.01174404
0.02981320
0.04726116
0.02058988
0.04981065
0.09944503
0.01883861
-0.07416918
0.01749469
-0.02903639
-0.08280179
0.00729308
0.10113703
0.08347836
-0.03152582
0.00481382
0.04099362
0.00693744
-0.05806988
-0.00190009
0.04434637
-0.00601701
-0.04143866
-0.06486323
0.09462009
0.01633105
-0.09502085
-0.00440287
0.00839481
-0.00438063
0.09717911
0.02554703
0.03982719
-0.02934825
-0.10287336
0.01647389
-0.02135134
-0.00475560
-0.01154749
-0.10341190
0.10445268
-0.08143201
-0.01948263
-0.00161859
-0.00539635
0.11465371
0.02460951
-0.04746823
-0.04027567
-0.04753812
0.00692412
0.07011446
0.02617849
-0.05113912
0.00291514
0.06694576
0.01661370
-0.07620388
0.03894623
0.06615479
-0.01291274
0.02403630
-0.04215287
-0.01320009
0.07322682
0.00436323
0.04166894
-0.08286250
-0.11290464
-0.09893541
-0.08472253
0.01851558
-0.09596272
0.07880738
-0.08219959
0.11708573
0.08373658
-0.05652041
-0.05253584
0.02465530
0.01913177
0.02570006
-0.00705444
-0.07459284
0.00245357
-0.06649029
-0.02305112
0.05300114
0.05792063
-0.11286700
0.02747833
0.09480781
-0.07356922
0.06285804
-0.06798717
-0.05793301
-0.09084500
-0.10355695
0.11214765
-0.09904565
0.00203146
-0.08746426
-0.08351487
0.11761590
-0.05668050
0.06253096
0.04401800
-0.00728634
0.03467033
-0.01495829
0.02606693
0.07441080
-0.05192804
-0.09929071
0.09657700
0.00721516
0.04506954
0.11323104
-0.08794200
-0.08537389
-0.07436321
-0.05997660
0.08623195
-0.07901276
-0.09380006
-0.09982882
-0.02799932
-0.11185764
-0.09609826
0.06183604
0.00901568
0.01971087
-0.07161125
-0.11129539
0.09014123
-0.02736759
0.10389378
0.01566898
0.03344391
-0.08225945
0.07376817
0.11178622
-0.02243118
0.09645718
0.11429803
-0.07832932
0.07372708
0.01511349
0.10406718
-0.07763480
0.02141125
-0.01549258
0.08428568
-0.06352049
0.11091609
-0.08818800
0.02983557
-0.04506285
-0.09635179
-0.05164069
-0.01486630
0.11377987
0.05520532
0.09882688
0.10450053
0.07993773
-0.00460810
-0.08676227
0.07424904
0.10152782
-0.08852784
-0.04363605
-0.09792846
-0.11547237
-0.09823607
0.05221473
0.09328831
-0.09188384
-0.04324575
0.08435756
0.02946539
-0.10127261
-0.02731820
-0.06251622
0.08818650
0.09519770
0.09362305
-0.01807668
-0.05309803
-0.03475141
0.02327138
0.02912063
-0.08124453
0.00658574
-0.05579363
0.05528896
0.02858713
-0.02472655
0.02924055
-0.10611737
0.02603165
0.00226041
-0.09372058
0.08837096
-0.05895386
0.04114805
0.10492815
0.04425067
0.02760358
-0.05802984
0.10674819
-0.09931166
-0.07480300
0.08036753
-0.04568144
0.02802550
-0.10960323
-0.07266469
-0.04570401
0.11637095
0.08067784
0.04081325
-0.06127002
-0.00927114
0.03564714
0.09285180
-0.07314439
-0.10676895
-0.10442957
0.06314718
0.07970493
0.04707564
0.08829459
0.04069046
-0.05164778
-0.02298548
0.00770261
0.07916238
-0.03149466
-0.10761373
0.02293755
-0.04906789
0.11936972
0.08265036
0.05489236
0.01938117
-0.08143280
-0.11350033
-0.11125522
0.09503433
0.00970451
-0.06672507
0.09650183
0.07612132
-0.03096411
-0.02147443
0.08214816
0.11462926
0.08468024
0.05130825
-0.00744552
0.02262423
0.07103711
-0.07080697
0.11330398
-0.11144375
-0.06002028
0.00725087
0.05322685
-0.00689494
-0.05968846
0.11552677
-0.01999371
0.06251381
-0.10081068
-0.06572903
0.05974281
-0.00734174
0.08703548
-0.10381549
-0.08866277
-0.06819802
-0.00355976
-0.02679683
-0.06768531
-0.03427420
-0.02938746
-0.10498668
-0.04423917
-0.02355927
-0.01031950
-0.07253622
0.04219258
-0.06016999
-0.02544279
-0.03200197
-0.03673000
0.01796495
0.05730855
0.07157817
-0.07363600
0.08536766
-0.10216457
-0.06547356
0.01440741
0.05128770
0.02189610
-0.06932129
0.10459514
0.10489668
-0.11250275
-0.00040172
0.05593083
0.09187108
0.01533973
-0.05040276
0.09805965
0.02210429
-0.02057852
0.10591137
0.08518882
-0.02421733
0.04023305
-0.01971465
0.01267759
-0.05535419
-0.10996711
0.10208162
-0.07797389
-0.07774243
-0.02942545
-0.10342790
-0.05668503
-0.08139349
0.03544608
0.07571115
-0.08790630
-0.07949540
-0.02039107
-0.03457024
0.07064785
-0.08921114
-0.01805271
-0.05057506
-0.01670344
-0.08501709
-0.07789303
0.11536435
-0.09238511
0.08153611
0.04030278
-0.11754018
0.02198970
-0.01875387
0.01179973
-0.05172361
0.00735845
-0.01892534
-0.05751776
0.09146338
0.10699910
-0.06640869
-0.04593365
0.03106566
0.02330296
-0.05757878
-0.06571349
-0.06135707
-0.09910642
0.02355863
-0.04488137
0.07044295
-0.11305758
0.11776175
-0.05751429
-0.10704678
0.06227776
0.06001788
-0.03936714
0.08288387
-0.09901738
-0.07941116
0.11298578
-0.06455975
0.08442247
-0.09116445
-0.07106238
-0.05027521
0.08308838
0.07890951
0.09234674
0.07479142
0.10901739
0.02550057
0.06664394
-0.05547949
0.08224160
0.08609297
-0.06127482
-0.06141066
0.04977960
-0.03553590
0.01610534
-0.10498760
0.04805315
0.01133955
0.09675027
-0.03228315
-0.08217336
-0.03436979
-0.11392356
0.11180668
-0.00543070
0.10057946
-0.03786090
0.08598034
-0.05948712
0.11269377
-0.10027918
0.00285366
-0.10568501
0.10364223
0.09909540
-0.11407725
-0.11112187
-0.05448455
-0.05625612
-0.11723161
-0.10331123
-0.04882520
-0.10552976
0.00134787
-0.11758383
-0.06886572
0.06280450
-0.10435762
-0.09610856
0.07591293
-0.02241491
-0.05055864
0.06816567
-0.04332169
-0.08814509
0.00711276
0.04507131
0.01571941
-0.07696722
-0.11153343
-0.05531733
-0.05192020
0.07975321
0.00254395
-0.11717148
-0.06119667
0.00663308
0.05427994
0.01367065
-0.00565862
0.09736902
0.07746551
0.01581387
0.02219628
-0.10746203
-0.01844208
0.00028538
-0.08588429
-0.10323454
-0.07774454
0.04153555
0.03496403
-0.09450530
0.07311454
-0.09404608
0.09538344
-0.02580260
-0.01080355
0.05633221
-0.00056869
-0.10585003
0.10643521
-0.07420941
0.03351783
-0.07619447
-0.06869527
0.02991798
-0.08491483
-0.11725117
-0.01845207
-0.04410132
0.02076877
-0.04522365
-0.02330796
-0.01458771
-0.10935064
0.05119558
-0.10331250
-0.00792724
-0.10519633
-0.10012865
0.07140949
0.09872066
0.08475184
-0.03284147
-0.01077388
-0.10647673
0.08424091
0.04244833
-0.07048395
0.05914446
-0.05934478
-0.08559759
-0.00724439
0.06538586
-0.08021294
0.11101232
0.08054022
0.03098520
-0.11258753
0.06871796
-0.09018745
0.02831845
0.08528933
-0.01001443
0.12069496
0.08511745
0.10089902
-0.01304365
0.06575378
0.08058628
-0.10557041
-0.04005344
0.10407793
0.05816793
-0.02208726
-0.11437526
0.04030539
0.02844948
-0.10563295
-0.04630144
0.03839695
-0.06767698
0.08641542
0.07497142
0.01132959
-0.09880324
-0.04116472
-0.04936029
-0.05777887
-0.01779865
0.10724305
0.06429084
0.03462758
-0.00615293
-0.05721273
-0.02664082
0.07175247
0.12009589
-0.05284665
0.00116865
0.10867501
-0.07653215
-0.01889319
0.11080643
0.08895873
0.06127328
0.11318497
0.04262646
0.09598614
-0.00466772
0.07596484
0.00724379
-0.03847800
0.08720148
0.08815534
-0.05464267
0.04905358
0.01024626
-0.03360229
-0.05571149
-0.05482068
-0.03079868
0.06233773
0.05499455
0.09431025
-0.04083807
-0.05409518
-0.00202487
0.09771051
0.05413138
0.06162487
0.04048394
-0.10018771
-0.06383679
0.07551636
0.10808176
0.00355798
-0.02320838
0.03591074
-0.09215634
0.05023373
0.05928920
-0.01262082
-0.05238132
-0.03679046
-0.06348576
0.06441917
-0.00187913
-0.08482064
0.08944967
-0.07472546
-0.03867961
-0.03991087
-0.08025349
-0.03319075
-0.04797652
-0.01108451
-0.03591826
-0.04090305
0.11986939
0.12094301
-0.09598795
0.10538327
0.11026058
-0.06750350
0.11307809
0.10213237
-0.03705086
0.05683732
0.10069250
-0.03465208
-0.00586358
-0.04793440
-0.06043328
-0.11281210
0.11912018
0.01982027
0.03885139
0.11412647
-0.02159749
0.07353376
0.06404611
-0.01184143
0.08284359
0.06598158
0.03823013
0.09686492
0.02741783
0.06018288
0.11942209
0.10275104
0.05342309
-0.02803519
0.03898313
0.06765382
0.11773140
-0.10083803
0.02070774
0.06533024
-0.00851338
0.01736722
0.09121586
-0.04558783
0.05630682
-0.05201970
0.00107237
-0.00318245
-0.04749018
0.09864204
0.10609800
0.10721679
0.08968245
0.02139725
-0.00374048
0.08996507
-0.10812479
0.01935609
0.05053664
-0.07972579
-0.00305452
0.01488996
-0.06264661
-0.09083241
-0.08527628
0.02983292
-0.11392689
-0.07989436
-0.11060949
0.01467998
0.05547444
-0.00021718
-0.02553551
-0.03834420
-0.03915368
0.01781211
-0.01772571
-0.05924422
0.09174450
0.11011348
0.07097746
0.09503216
-0.01543755
0.05311286
0.07960069
-0.08927959
0.04105927
0.08245324
0.02277844
-0.00669248
-0.00162032
-0.07015086
-0.08818579
0.00893168
0.11037331
0.01431422
0.05476633
0.00930877
-0.01553727
-0.09759133
-0.03086782
-0.06541191
0.05485841
0.06021045
0.01454254
0.08118147
0.10843984
-0.06458542
0.09841229
0.01676818
-0.01523792
0.01087529
-0.00829866
0.07481700
-0.09370036
-0.01964577
-0.03346135
-0.00720294
-0.07426766
0.09715891
0.07555109
0.08289937
0.03978820
0.05476849
-0.02326073
0.03246623
0.11541316
0.00218390
0.05669779
-0.07095627
-0.10573074
-0.07282958
0.07313374
-0.06607687
0.09450552
-0.06370091
-0.02614521
0.08813926
0.09235852
-0.01685900
0.01408875
-0.11339701
0.08017883
-0.08014129
-0.10700087
-0.08268087
-0.07071090
-0.03847396
-0.07746824
0.09009417
0.01903228
-0.08825637
0.07189588
-0.06196710
-0.10908579
-0.07837138
-0.07877368
-0.07841603
0.11249364
-0.02314714
-0.04454287
0.11866942
0.09272002
-0.02387091
0.06773315
-0.04556591
0.04143634
0.00595952
0.07999281
-0.01503506
-0.01007050
-0.06097655
0.07896439
-0.03958532
0.04945685
-0.07795265
0.08039049
0.01396106
-0.05164422
-0.03196220
0.05303116
0.09346503
0.03906508
0.04327315
-0.09574928
0.02162344
0.08588786
-0.03900192
0.02812768
-0.05054045
0.06959529
0.01148716
0.11067113
0.05653854
0.06499042
0.02904282
0.07814700
-0.05911512
0.05227915
-0.01710882
0.09398139
0.06847305
-0.05479091
0.02896567
0.07212076
-0.07695173
0.09293297
-0.10218601
-0.06144982
0.05603776
-0.01182936
-0.10283504
-0.03019898
-0.06397209
0.03109293
0.08066827
-0.07538637
-0.09945796
0.08669280
-0.09257721
0.01291488
0.05933558
0.07167055
-0.06461094
0.02174515
0.03961484
0.01324183
0.11763576
-0.01885615
0.00235478
0.01276666
0.09672566
-0.05299357
-0.05387459
-0.04538173
0.02187606
-0.08933571
0.07171524
-0.09846107
0.11799756
0.00677595
0.09570260
-0.09317015
0.00528488
-0.04736787
0.05545945
0.08753737
-0.10664409
-0.06016905
0.04564093
0.05302548
-0.00459896
0.09922428
-0.04601547
0.08848230
-0.07009213
-0.06716722
0.11908163
-0.00582037
-0.11134041
-0.05943920
0.00939992
0.06175430
0.11896005
-0.05235186
-0.02008614
-0.10586356
0.07547691
-0.05638881
-0.05561452
0.11801944
-0.03768021
0.10770120
0.00359251
0.02868603
-0.06621717
-0.04248505
-0.05250588
-0.09364589
0.09375652
-0.00218974
0.02938035
-0.00775163
0.02058453
-0.06877504
0.03375706
0.04053959
0.09069501
-0.09808344
0.07375097
0.05219420
0.00564044
0.09297045
0.10294046
0.07832051
0.00904405
-0.06629065
-0.02753838
0.03551335
-0.06705454
0.07435551
-0.05511273
0.05384374
-0.10463596
0.06093365
-0.04522627
0.06534353
-0.01940440
0.06506345
0.03702433
0.03975510
0.07806251
-0.06568032
0.00908228
0.08481406
-0.03281395
0.09044781
0.09266686
0.08091255
-0.06251635
0.05622599
0.06754375
-0.01623212
0.07245294
-0.04337780
-0.10760736
-0.09113508
-0.02102983
0.09799777
-0.09914535
0.02848480
0.09297069
0.03907241
0.05048201
-0.09938615
-0.11208924
0.01632740
-0.00594638
-0.04781615
0.03485443
0.07243071
-0.09226069
-0.07178836
0.05070823
-0.10082138
0.00194472
0.10815461
0.06575480
-0.08456131
0.06899577
0.02367928
-0.05457388
-0.06590655
-0.09950470
0.10690179
-0.01693656
0.04142147
-0.02764492
0.02977527
0.07376451
-0.01565665
-0.00413563
0.08366345
-0.01111796
0.05777307
0.07406893
-0.02387613
-0.03314278
-0.08765542
0.04914869
-0.01005660
-0.07114381
0.09800657
-0.03419261
-0.03443879
-0.05102017
0.06581771
0.07401273
0.00508526
0.10309642
0.02567957
-0.04544709
0.08210474
-0.00639469
0.00900983
0.02635893
-0.05352479
0.07818856
0.00420722
0.04689999
0.02276585
0.07274842
0.05585801
0.02699247
-0.08433744
0.01877360
0.03591906
0.08276884
-0.01925025
0.01056668
0.03348085
0.10339218
-0.03548408
-0.03284289
0.10610412
-0.00555368
0.06265183
0.03393061
0.08133133
0.05973952
0.04825677
-0.02026864
-0.04911561
0.01332947
-0.00778446
-0.07043176
-0.09480441
-0.06759800
0.07208159
0.07856000
-0.00478962
-0.00041232
0.03079413
-0.04904881
0.02389290
0.05445539
-0.07206938
0.09923683
-0.09826834
0.01409107
-0.03518429
-0.05987319
0.02472961
-0.03683552
0.06162668
0.07948135
-0.05042756
0.01917705
0.09939569
-0.05798679
0.08411410
-0.04101425
-0.05693906
0.07889902
-0.09015796
0.07318079
-0.11032424
0.08652834
0.01419462
0.07442494
0.02848575
0.09410978
-0.08305202
-0.09621056
-0.06828260
-0.07382130
-0.09877118
0.04021428
0.07075913
0.09501869
0.07016050
-0.10950504
-0.02990163
0.03909850
-0.04422902
0.06183316
0.04860628
-0.04171788
0.02890195
-0.02366686
0.05898453
-0.06049571
0.02827206
-0.00951668
0.02780435
-0.01805423
-0.04390556
0.02431396
0.11014203
0.10893819
0.08190040
0.05817879
-0.11366168
-0.05549992
0.01686465
0.09748369
-0.03552354
-0.05554843
0.07765563
0.09837197
0.01315300
0.06807072
0.06361191
0.07982260
-0.01939804
0.06002361
0.11837848
-0.08045249
0.07453091
0.06043748
-0.05043184
0.08383556
0.07368901
0.09881252
-0.11239188
0.07365029
0.10243431
0.06617126
0.11613072
0.07090819
-0.09651617
0.03645867
-0.06362421
-0.09628660
-0.10760261
-0.02350383
-0.04309898
0.07824254
0.01995116
-0.02186567
-0.07919241
0.01921528
-0.02275667
0.11102007
0.05411806
-0.10742799
-0.08553476
-0.08411559
0.03673043
-0.05294315
0.06964656
-0.09651408
0.05588886
-0.06083842
0.02728545
-0.08003802
0.04476813
-0.04036245
-0.11353889
-0.08879574
-0.03449199
0.01412881
0.01961285
0.06118346
0.01886356
-0.05346473
-0.01686500
-0.03832431
-0.09241608
-0.00349674
0.04694737
0.06385832
-0.00217646
0.06967387
-0.04815039
-0.08839146
-0.06130507
0.06906070
0.10717736
0.09243408
0.04437974
0.07159688
-0.09611225
-0.02988415
0.10309554
0.07987654
-0.02735376
0.09460663
-0.05488796
-0.05771603
0.07216703
0.05867314
0.03835719
0.04258661
-0.05472241
0.01366192
0.09706281
0.06234364
0.09794812
0.04353231
-0.10987590
-0.05246564
0.09228265
-0.07201428
-0.05237997
0.01693996
-0.10107435
0.01998443
-0.01653023
-0.07089272
0.08834975
-0.03039744
0.02551502
0.00143146
-0.06393819
0.05868546
-0.06314017
-0.03868448
0.04017336
-0.06929152
-0.00932668
-0.11185607
-0.10999221
-0.10910909
-0.01768214
-0.01968147
-0.08556061
0.08747332
-0.09507815
-0.09715263
0.08319745
0.01282287
0.08897836
-0.03970055
0.03592658
0.07145347
-0.05492033
0.03106361
0.07329807
-0.07013575
0.02928885
0.09420273
0.07176349
0.05124534
-0.07165391
0.11216176
-0.05743187
0.09233163
-0.03361866
-0.06005401
-0.09278443
0.01341957
0.04290549
-0.11364270
-0.08969322
-0.09227769
0.02634083
-0.10458530
-0.06428166
0.01558155
0.10719740
-0.08605547
-0.06602214
-0.03575812
-0.10386759
-0.03880258
-0.06075981
-0.05883142
0.05481262
0.10839731
0.07665080
-0.06502890
0.04106918
-0.01814863
-0.08581418
0.08542763
-0.08526112
0.05379079
-0.07186462
0.01844236
-0.08139884
0.10761262
-0.02351728
0.11439606
0.07444891
-0.08368753
0.04794527
0.04490600
0.04620847
-0.00223211
0.07770123
-0.09185605
0.09315551
0.01483073
-0.11064515
0.04872547
-0.10235548
-0.00904737
0.10112233
0.02899484
0.07663197
-0.05032700
0.10592204
0.10262688
-0.02463131
-0.07203285
0.01884633
-0.08041912
-0.00512784
0.11417922
-0.05485998
-0.04841083
-0.04563520
0.03207083
-0.04232380
-0.03119252
-0.08921791
0.07444928
0.01379760
-0.07042130
-0.08050952
0.00147620
0.05921580
0.09044025
0.11553205
-0.01396048
-0.02118850
-0.07238905
-0.10270650
-0.05597085
-0.11118413
0.10074874
0.00847241
-0.10638718
-0.08894072
0.07224080
-0.08892745
0.08258986
-0.05130706
-0.10007285
0.01726149
0.03296892
-0.08530650
-0.10661034
0.01259867
-0.05389025
-0.08661114
-0.07038815
0.00428571
0.07115961
-0.08405136
-0.03761708
-0.08301610
0.01550802
0.01907227
0.03541578
-0.08819455
0.03843274
-0.10765651
0.07928533
-0.03992622
0.09432882
-0.02703878
-0.02736396
-0.04859183
0.04293784
-0.02698340
0.07289793
0.04588543
0.01879292
0.06213209
0.11493067
-0.04205335
-0.02393741
-0.00207491
-0.03608222
-0.08563855
0.08597536
0.08992932
-0.03022689
-0.00791899
-0.01257603
-0.09487673
-0.01908770
-0.11291377
-0.08951202
-0.11171845
0.00550851
0.00740263
-0.08234068
0.09773866
-0.09833070
0.05332709
0.00286795
-0.05445880
-0.02781813
-0.02057680
0.00048056
0.07547282
0.06776247
0.06900050
0.09308807
0.02463464
0.07162284
-0.09065751
0.08858442
-0.00916937
-0.10934409
-0.04763375
-0.06203624
0.01428742
0.06236650
-0.00671377
-0.02323898
-0.00926369
0.03505029
0.02273998
0.05994843
-0.09130617
0.01605059
0.06376352
-0.05510867
-0.10727361
-0.09524167
-0.06148553
-0.08289222
-0.04087573
-0.10246601
0.06788246
-0.03734487
-0.04769782
-0.07821358
0.02830791
0.05742205
0.10002506
0.00456979
-0.03107509
0.02921277
-0.01194899
0.07889455
-0.08835180
-0.01388742
-0.11202409
0.11381770
0.06350790
-0.09161130
-0.05454167
0.01946783
-0.00209686
0.08771069
0.02641543
-0.06242955
0.00264919
0.01080614
0.09400635
-0.00911924
-0.05084854
0.03638469
-0.03239322
-0.04100856
0.01803458
0.08717461
0.08667490
0.08707479
0.02185932
0.11493192
0.05705274
-0.06805816
0.04587183
0.12078281
0.06859369
0.07892191
0.03261520
0.05143917
0.00736199
0.09725775
-0.00226290
0.00107111
-0.04226472
0.11243542
0.07328554
-0.07451399
-0.05710710
0.11989748
0.04211979
0.00764247
0.10596965
-0.02879521
-0.09731845
-0.04109970
0.01814182
0.01938622
-0.08296512
0.05486435
-0.09123016
-0.08551018
0.03585648
0.09788950
-0.07417820
-0.02167574
-0.00433834
0.10319689
-0.08628073
0.08895519
-0.11069504
-0.05269687
-0.02657983
0.02862427
0.02168971
0.06481915
0.12054833
-0.01621668
-0.03952653
0.07652485
0.06715584
-0.10142838
0.08380943
-0.08078938
-0.03156289
0.07610509
0.02076135
0.11695694
0.05023642
-0.09170111
0.04452072
0.00581138
-0.06716069
0.02239116
0.06740144
-0.10639052
-0.07886557
-0.09561718
-0.02244930
-0.07537391
-0.04643874
-0.06265426
-0.11503682
-0.10910628
0.02865306
0.11608602
-0.03085026
-0.00339895
-0.10537446
-0.06287639
-0.09198556
-0.09140317
-0.06502341
0.00873510
0.09708999
0.08935230
-0.02972512
0.00892963
-0.05648027
-0.05560363
-0.03378354
0.00317579
0.03334555
-0.07608729
0.11722736
-0.07307602
-0.04514908
0.10645148
-0.04407259
-0.04390418
-0.07492722
-0.03862883
-0.10646005
-0.04353870
-0.00473721
0.04934020
0.08662731
-0.09838254
-0.07921083
-0.05842768
-0.06079524
0.07365194
-0.03106371
-0.04304801
-0.11531710
-0.05634852
-0.05991766
-0.09265687
0.03946626
0.00576825
0.03372795
0.02903825
0.06895840
0.02237418
0.07415100
-0.00786492
-0.01497735
0.10605040
0.07039908
-0.04904046
-0.04378609
0.10366549
0.01363438
0.02150405
0.02166599
0.02331460
0.07832740
-0.03131051
0.05716794
-0.04556715
0.01122956
-0.01603411
-0.09271637
-0.09862126
-0.00279220
0.04641902
-0.10314376
0.02740394
-0.04478890
0.10352102
-0.03940697
0.04346344
0.03322146
0.09776334
-0.01643026
-0.08793862
-0.06887992
0.11222698
-0.10436596
0.11382779
-0.06220739
-0.08249125
-0.05092856
-0.08996350
-0.05662293
0.09869333
0.04221990
-0.02874122
0.00306935
-0.10598829
0.11562436
-0.01372995
0.05053796
0.10902563
0.05534247
0.09715981
-0.05005101
0.02951402
-0.02618921
0.08059970
0.02396257
0.04282788
-0.03977109
-0.01730477
-0.02320928
-0.01274216
-0.06612645
-0.06572077
-0.06567481
-0.07246600
0.09195410
-0.09159605
0.03955606
-0.06023487
0.07510816
0.00611924
0.02765267
-0.05832809
-0.07825375
-0.06108453
0.03502501
0.07950318
0.11089180
-0.06026089
0.08753724
-0.09578896
0.01374526
0.10062223
0.08873519
-0.10566171
-0.03427222
-0.04322313
0.00396972
0.07954113
-0.03693388
0.08311445
0.09222691
-0.07427981
-0.06607544
0.06547733
0.04868900
-0.10276756
0.05926736
0.03869694
0.09190600
0.10010165
0.06467358
0.01871130
0.01220593
-0.06726058
0.01049585
-0.09009011
0.10521467
0.01423389
0.06006337
-0.01267571
-0.00260251
-0.02923947
0.07515310
0.01452215
0.08961835
-0.11372466
-0.01472785
-0.08101852
-0.02963040
0.03112274
0.10149626
0.01586632
-0.07102922
0.05830424
-0.07841927
0.08528704
-0.03795585
-0.00542326
0.07191753
-0.06580729
0.09648004
-0.01829975
0.11113150
0.02563102
-0.05645759
0.02762394
-0.10368113
-0.02937591
0.01709084
-0.05846674
-0.07969861
-0.04975815
0.07390986
-0.07999054
-0.10726393
0.10706481
-0.09941548
0.00476048
0.02289054
-0.06587431
-0.02731957
0.03554794
-0.10392038
0.10697941
0.10411781
0.04288161
-0.05132569
-0.06497246
0.05790661
0.02964976
0.08954033
0.08561581
0.09578707
0.11157197
0.03017450
0.09297942
0.11193609
0.00987251
0.03810588
0.06693701
0.09163787
-0.01752096
0.11592533
-0.05384645
0.00641630
0.10894372
-0.04536010
-0.06435451
-0.09861601
0.08208074
-0.03255937
-0.01181265
0.01876049
0.01732022
0.02224722
-0.00476696
0.08757657
-0.07581349
-0.03881282
0.02024981
-0.08473191
-0.08059787
0.08888489
-0.06814272
0.08881132
0.00874748
-0.06157514
0.09967825
-0.11317272
-0.00093174
0.00632545
-0.02257791
-0.07598113
-0.06584655
0.07296335
-0.01473925
-0.11311221
0.06522115
0.02262320
-0.09875448
0.11251618
0.07297365
-0.01683309
0.05606331
-0.06418089
-0.07527433
0.05555065
0.07239338
-0.08419359
0.03710682
0.05075311
-0.04344019
-0.06565821
-0.03803652
0.02450673
-0.11253855
0.04120163
0.05167492
-0.01279859
0.08365100
0.04868165
0.11676851
-0.01882792
-0.07615824
-0.07148072
-0.04880696
-0.05468079
-0.10645466
-0.08480317
-0.07533600
0.00057839
-0.04733357
-0.06852618
-0.08475073
0.06038502
0.00276866
-0.09721674
-0.07057387
-0.08210513
-0.10186414
-0.02132246
-0.03356631
0.03069014
0.09786568
0.01051084
0.09060881
0.06325398
0.05222264
0.02272646
0.04281098
0.02293795
0.09941597
-0.02189870
0.04409057
0.02630764
0.00138501
0.11000144
-0.03570648
-0.00805253
-0.02079273
-0.08397207
-0.07492115
0.04380386
-0.00217628
-0.02539594
0.03126942
-0.01622357
-0.00471758
-0.03394846
0.03532437
0.10490123
0.03331821
0.09914280
0.06848068
0.01999284
0.00240900
0.02830731
-0.10659884
-0.09425894
0.05978294
-0.11672997
-0.04876059
0.00198494
0.06536145
0.04798552
-0.09003800
-0.03372707
-0.01296556
-0.10032049
-0.07570892
0.11709998
-0.00770378
-0.04598136
-0.10481415
0.08708379
0.03242761
0.02123330
-0.04191570
0.08829716
0.04515639
0.10867988
-0.04728637
0.04045375
0.08863608
-0.02110921
-0.11456549
0.02931944
0.10695872
-0.01614827
0.11014608
-0.10830953
-0.10805459
0.05753524
-0.06033031
-0.03559278
0.02411971
-0.06175755
0.00374843
-0.05303448
0.05834163
0.02769813
-0.07952391
-0.09112907
0.00817228
-0.08706313
-0.08297920
-0.00671872
-0.08914049
0.00977741
0.09510536
-0.09746320
-0.10022435
-0.09220725
0.11093303
-0.05555612
0.08291123
-0.08153631
0.09511777
-0.07242638
-0.06392039
0.00436597
0.02125337
-0.09163933
-0.08384972
-0.04882604
-0.07528987
0.06908821
-0.04654163
0.10540260
-0.08176884
0.04789453
-0.09464160
-0.07976314
0.05786700
0.00217224
-0.05116640
-0.00241444
0.09925230
0.05920626
-0.00862468
-0.01801788
0.06004854
-0.06138681
-0.03216755
0.10549350
-0.11313863
0.04240382
0.10241143
-0.04427637
0.07774056
0.08254149
0.09912109
0.10299876
0.08306444
0.01468428
0.09005909
0.01169127
0.08379712
0.00877023
0.07520834
-0.05041137
0.05465433
0.09208834
-0.08080051
0.11706413
-0.05600711
0.09623406
0.09966490
-0.03697501
0.08068695
0.07797869
0.05611521
-0.10953827
-0.03715770
0.11317271
0.06829871
0.11238188
-0.01893626
0.02102523
-0.01605242
-0.01998728
0.05470063
-0.00882867
-0.07410870
-0.07266937
-0.08364359
-0.08852580
-0.03766005
0.10696421
0.11576685
0.01929433
0.09296513
-0.09151240
-0.07283005
0.00097014
-0.02183144
0.02191862
0.05736249
0.10844136
0.00589573
-0.04009379
-0.07874993
0.05064838
-0.06821436
-0.02924726
0.03858905
0.10010412
-0.09814298
0.06157634
-0.11278515
-0.06196822
0.01550307
-0.04101900
0.01588243
0.01110712
0.06088773
-0.00837026
-0.06326251
-0.00645896
0.05269260
0.04272186
0.02050376
0.05650778
-0.04301517
-0.01499245
0.11630883
-0.00271084
-0.06716923
-0.05739656
-0.00048559
-0.02013042
0.11895086
0.10083415
0.09328377
-0.08669910
0.10521942
-0.01580264
0.02569375
0.01091099
-0.08087688
0.07395133
0.12063624
0.09174664
-0.02498821
-0.02478652
-0.04786870
-0.10945441
0.05099064
0.08452137
-0.09735549
0.09796634
-0.04127217
0.05587611
-0.10611366
-0.07111233
-0.10734192
-0.10583718
-0.07235059
-0.01306441
0.02697529
0.01892131
-0.04245177
0.09230227
-0.07439420
-0.06768652
0.11374038
0.07772860
-0.07641835
-0.00322202
0.08364382
0.04212530
-0.10635116
0.09465069
-0.08293761
-0.11320445
-0.00207948
0.00495988
-0.04007616
-0.11437663
-0.05682126
0.05977342
0.07045959
-0.02302195
0.08508869
0.10204598
0.11249484
0.11559711
0.10541055
-0.08405828
-0.03339908
-0.00903579
-0.10297679
0.05868929
0.12066332
0.10080685
-0.03121881
-0.02898497
0.06297483
0.11410983
-0.01274093
-0.05375031
0.08926215
0.00112532
-0.10903735
-0.06126131
0.05137536
0.01870327
-0.11062264
0.03165055
0.08239524
-0.02852265
0.05583687
0.10915176
-0.01886477
-0.01393599
-0.10747685
-0.05256770
0.07991711
-0.02094921
0.03707514
0.08091345
-0.03234608
0.06073229
-0.04070349
0.06217371
-0.09419914
0.10545827
0.03167321
-0.02327858
-0.06778120
-0.02323729
0.05260920
0.07895089
0.02461552
-0.09574992
0.01024919
0.09738807
0.03299901
-0.03927674
0.02004784
-0.04472708
0.09837511
-0.06737942
-0.10233073
-0.07091673
-0.04094743
0.05484906
0.10898465
0.03742162
-0.03942920
0.04378514
-0.07649228
0.08693689
0.02537332
0.04675931
0.09867214
-0.09069456
0.10256247
0.01176980
0.11288023
-0.05943206
-0.06381383
0.10813683
-0.02418842
0.10913806
0.09824809
-0.01498728
-0.10145611
-0.06624263
0.01124051
-0.07459676
0.05524471
0.04611574
-0.01041363
-0.01146741
-0.04469620
0.03836256
0.11788031
-0.03047313
-0.01706037
0.03215323
0.04204055
-0.08800745
0.03318057
-0.01865245
-0.02626436
0.03407120
0.10134716
0.11476431
-0.02429827
-0.04357671
-0.00674712
-0.05068336
0.01434943
0.08905294
-0.08446959
0.03527865
-0.02088146
-0.07576162
0.04701314
0.02182478
-0.03034828
0.10450764
0.05745186
-0.08600549
0.03791167
0.04931338
0.10456601
-0.00076165
-0.06375585
0.05997213
0.02950393
-0.10201044
0.10716355
0.04593365
0.00383488
-0.02922232
0.03375749
-0.08272380
0.11593623
0.02443839
-0.04317188
0.08149707
-0.06369930
-0.04870069
0.05096351
-0.10423404
0.06550488
-0.11745728
-0.08320678
0.08807567
0.10294142
0.04580077
0.01265740
-0.00568859
0.08593207
-0.02058529
-0.03292053
0.03584990
-0.11228798
0.02477407
0.00947807
-0.10069146
-0.03516545
0.00525740
0.10502465
0.05006132
0.06527332
0.00136081
-0.05060926
0.07839122
0.07059334
-0.06426284
-0.03428103
0.00140894
0.03391901
-0.05525326
0.05741113
0.08191258
0.09065346
-0.09394202
0.00688270
0.01386002
0.01443471
0.04187145
-0.04587284
-0.07481180
-0.01097649
-0.07564838
0.04070619
-0.02040390
0.09336806
-0.11008195
0.03346526
-0.04824501
0.01031228
-0.02897785
-0.04016082
0.01423378
0.05391941
0.02014536
0.01861115
0.07225831
-0.06159886
0.10037051
-0.05899042
-0.05945664
0.03802474
0.05937799
-0.00543719
-0.09588713
-0.09174390
0.03671232
0.06133116
0.03974723
-0.09994947
0.02265828
0.00716453
-0.06375572
0.07589541
-0.09051267
-0.03054420
0.08683076
-0.06710529
-0.09445066
0.05333176
-0.03363154
0.11033149
0.10866477
0.06035099
-0.02388484
-0.09320538
0.08260217
0.01976710
0.05452574
0.09948441
0.09321982
0.00261595
-0.06101413
-0.04719751
0.06874500
0.07487932
-0.09909103
0.05465206
-0.07851280
0.06095224
-0.01994313
-0.09598659
-0.11911367
-0.02874219
0.09205724
0.06471046
0.06695741
-0.06222532
-0.07001163
0.02651509
-0.03437908
0.00618807
0.05940903
-0.05064394
-0.02275997
-0.00911340
-0.04049219
-0.07298248
-0.06156173
-0.06105125
0.07877228
-0.11029763
0.10335203
0.01998744
-0.07076631
-0.11268418
-0.00859601
0.11499876
0.06029652
0.08408817
-0.01745078
-0.02254989
-0.03410944
0.00467348
0.04978142
0.01601097
-0.04360883
0.00226893
-0.02519099
-0.06838168
0.01443950
0.10280882
-0.10359719
-0.11412200
0.03209668
0.04554585
0.01101069
0.11563537
0.06672881
0.10418921
-0.03065187
0.08573719
0.10945256
-0.01290538
-0.09534216
0.02424861
-0.04373619
0.08990669
0.06693611
0.08751410
0.11673348
-0.07019220
-0.00311439
-0.10787848
-0.02604657
-0.05089887
0.08883907
0.10217223
0.03419786
-0.03621792
-0.09727804
-0.09337556
-0.07797925
0.07597704
0.05618074
0.06125588
-0.06165640
-0.06525847
-0.02178365
-0.07019421
-0.02968058
0.02019611
0.01643628
0.02147970
-0.00449513
0.03811471
0.09546015
-0.03983451
-0.06526162
-0.11344850
0.10201239
0.01598228
-0.05940195
0.03481610
-0.09401360
0.04719292
0.03503242
-0.09052066
0.02864109
0.10313063
-0.02710594
-0.08565034
-0.01286304
0.02064217
-0.08254764
-0.04695593
-0.02236751
0.09103084
-0.07585143
0.10500614
-0.03873667
-0.05694759
0.06000123
-0.02454357
-0.06030078
0.01507639
0.01995221
-0.07188302
0.12016241
0.09958434
-0.06730526
-0.00649718
0.03796951
-0.03873485
-0.02284122
0.10651051
-0.00337497
0.08942568
-0.04654751
0.03021106
-0.10274028
0.03334845
0.01725593
-0.07059201
0.10573177
0.05693554
0.05615869
-0.01885116
0.02449672
-0.07969040
0.10890024
-0.07650399
0.11263844
-0.06654194
0.06684148
-0.02901456
-0.01836577
0.05330206
-0.05037747
0.07256286
0.10824826
0.11552606
0.04093894
0.08983858
0.02076688
0.06216194
-0.10270330
-0.03961298
-0.01453064
0.03512010
0.01923929
-0.11118452
0.04937239
0.09289648
-0.01148091
0.06343123
0.05025692
0.06381194
0.08429979
-0.07368932
0.05818170
-0.11665323
-0.02173781
-0.01670648
-0.09981146
-0.06413058
0.05970277
-0.01230019
0.03562690
0.10980830
0.07021832
0.06192027
-0.05859648
0.03124287
0.02534154
-0.04894016
-0.02778490
-0.01565605
-0.06310717
-0.02746806
0.11704352
0.10879097
-0.11106629
0.11108533
-0.00658496
0.03491127
-0.00338734
0.01481407
-0.06205137
-0.09260237
0.09381200
-0.06531576
-0.08087692
0.03484663
0.00962165
0.02166075
-0.10600924
0.05304707
-0.01726182
-0.02659057
-0.08210588
0.09706069
-0.04849753
-0.09912639
0.02305237
-0.09853578
0.05636065
-0.08299765
0.09975801
-0.06326003
0.10977939
0.07363507
0.06926940
0.05060016
0.07354648
0.02217108
0.06668305
0.01260526
0.07650427
-0.04146929
-0.02264353
-0.09600382
-0.09761151
0.02813494
0.08690930
-0.04778999
0.01203936
0.10337485
0.00320541
0.05073772
-0.04673516
0.02742889
-0.01745836
-0.06933375
0.02629540
0.11699726
0.00586169
-0.10850921
0.08543138
-0.10024780
0.08085429
-0.08603659
-0.00042043
0.06561109
0.10252905
-0.02788950
-0.10796974
0.07127449
0.02016456
-0.03685335
0.09830649
-0.11372375
-0.06018071
-0.01934725
-0.05544968
0.09027138
0.03429442
0.00224900
-0.07263377
0.05770081
-0.04078521
-0.03047084
-0.07854961
0.05907738
0.03295717
-0.00345318
-0.05372352
-0.11449449
0.06574650
0.07445722
-0.06395401
-0.06816164
-0.08289065
0.03750655
0.01062949
0.04805601
0.09969547
-0.02675194
-0.06918174
0.10841678
0.07635868
-0.01427597
-0.07736091
-0.11092661
0.05370047
0.09982491
0.05878196
0.02772511
0.02475815
0.10674981
-0.04991784
0.09581628
-0.06530333
0.04219731
0.03845405
0.03799780
-0.10104223
0.03922374
0.11342124
0.07166764
0.08743456
0.00140313
0.07782006
-0.10889848
-0.07212777
-0.11299001
0.10064844
0.05780707
-0.03210368
0.11095296
-0.04361724
0.00479009
-0.07625744
-0.03976474
0.08343477
-0.05063521
0.05175401
0.06929220
0.00117672
0.03912407
0.09412267
0.06395349
-0.00288609
0.04705953
