0.00000000
0.00000000
-0.00110416
0.00000000
-0.00110177
-0.00027007
0.00000000
0.00000000
0.00111390
0.00000000
0.00000000
-0.00108990
0.00000201
-0.00078220
-0.00110006
-0.00000259
0.00111614
-0.00032903
-0.00000201
-0.00110819
-0.00118092
0.00000000
-0.00000313
0.00000000
0.00017863
-0.00000471
0.00111256
0.00111289
0.00000000
0.00000000
-0.00000265
0.00000000
0.00000000
-0.00050152
-0.00130893
0.00112093
-0.00100943
0.00000000
-0.00110127
-0.00115585
0.00112630
-0.00147615
-0.00119651
0.00000000
-0.00118195
-0.00110760
0.00111575
0.00000000
-0.00106995
0.00111494
-0.00121937
0.00111867
0.00054932
-0.00111352
0.00000000
0.00111476
0.00000000
-0.00131125
0.00111300
0.00112562
0.00000000
0.00000000
-0.00110451
0.00112424
0.00121524
-0.00115041
0.00000457
-0.00067998
0.00000000
0.00111584
0.00111741
-0.00110395
-0.00069730
0.00000000
0.00000000
0.00000000
0.00111629
0.00000000
0.00111920
0.00111588
0.00111325
-0.00111702
0.00114872
-0.00110469
0.00111810
0.00111288
0.00000000
0.00111752
-0.00002022
0.00000000
-0.00132190
0.00123645
0.00000000
0.00110313
-0.00081107
-0.00000213
0.00000000
0.00000000
0.00000000
0.00000000
