0.00123941
-0.00065004
0.00128760
0.00000000
0.00124282
0.00132060
0.00000000
-0.00061802
0.00000000
-0.00076681
0.00000000
-0.00000969
0.00091645
0.00099943
-0.00093829
0.00059160
0.00128192
-0.00008806
0.00000000
-0.00003397
-0.00028048
0.00120639
0.00129319
0.00017006
-0.00006780
0.00000000
0.00000000
-0.00000422
-0.00000804
-0.00002101
-0.00048443
0.00069834
0.00000000
0.00128677
0.00070352
0.00000000
-0.00000113
-0.00105415
0.00000000
-0.00000408
0.00000000
0.00140608
-0.00001043
0.00132816
0.00060243
-0.00064652
0.00129957
0.00097888
-0.00091845
0.00124973
0.00000000
0.00005133
-0.00000005
-0.00004433
0.00123476
0.00141232
-0.00000720
-0.00002994
0.00033567
-0.00125115
0.00141606
-0.00052528
0.00131463
0.00131121
-0.00022510
-0.00004467
-0.00075378
0.00000000
-0.00065921
-0.00007953
0.00064282
0.00016185
0.00119416
-0.00116542
0.00114638
0.00000000
-0.00126701
-0.00130853
-0.00117390
0.00135782
-0.00066969
0.00017908
0.00116845
0.00000000
0.00000536
-0.00033246
-0.00002165
0.00045008
-0.00079058
0.00015852
-0.00040004
-0.00001162
-0.00116674
0.00094739
0.00118619
-0.00111511
0.00000712
-0.00000226
0.00000000
0.00071870
