-0.15299819
0.07712626
0.15157001
-0.08556962
0.15848188
0.09717341
-0.09510590
0.14611512
0.08654335
0.01816648
-0.00839455
-0.08250468
-0.13373895
0.06283867
0.09687596
0.06877495
0.09581303
-0.15044351
-0.00649901
-0.13957721
0.12898946
0.12727566
0.08428294
0.14447244
-0.14441146
0.05597587
-0.00127135
0.12136650
0.00848445
-0.10709580
0.07826227
0.00511612
-0.00445221
-0.12821086
-0.05903192
0.09781876
-0.03403352
-0.07052947
0.07502511
-0.06462803
0.02771382
0.08226717
-0.15833682
-0.14283912
0.00341696
0.02001463
-0.11232211
-0.13735101
-0.08692057
-0.03341055
0.08536372
-0.09124275
-0.12638566
-0.05117335
-0.03388024
0.07052121
-0.15152566
0.01847248
0.14071740
0.14817439
0.12616752
-0.17195451
0.12469375
0.10837702
0.05318549
-0.02581354
0.08575990
0.15620157
0.03278977
-0.02977015
-0.09514638
-0.04996949
-0.09543243
-0.17187332
-0.14950387
-0.11899045
-0.03874048
-0.03158796
-0.12467498
0.08566216
-0.14741214
-0.05538247
-0.09910112
-0.04311065
0.13789079
0.14599209
-0.10080487
-0.00203952
0.07006235
-0.09348793
-0.03510503
0.16875389
0.11790841
0.03960779
-0.12909773
-0.11788626
-0.16542850
0.00143319
0.05377339
-0.05104198
-0.08285634
0.12181209
0.03310246
-0.06618114
0.04922637
-0.14570105
0.04076119
-0.13658527
-0.12618496
0.13476875
-0.08301336
0.00428455
0.00769896
-0.13469598
0.12844865
-0.07849450
-0.04158522
-0.13776082
0.08850828
0.10175675
-0.04390804
0.07040850
-0.04679199
0.13764817
0.13923764
0.04969135
0.13351426
0.00472619
0.15180627
0.11177579
-0.01392076
-0.16226885
0.12290996
0.01894368
-0.00664695
0.12727502
-0.00636566
-0.17107175
-0.14690748
0.10952564
-0.15905470
0.10236139
0.05560383
-0.07960441
-0.13918582
0.11848209
-0.03320988
-0.03759677
0.09815080
0.15853533
0.07486166
-0.04177468
0.10268229
-0.16168891
0.17356740
-0.15980883
-0.03649011
-0.00961279
0.02149186
0.11179952
0.10759698
-0.05256412
0.02214764
0.15625808
-0.13600355
0.15698984
-0.16773498
0.14088023
0.01853143
-0.09311711
-0.09618217
-0.11158162
-0.13374758
0.03590069
0.17180108
0.10373446
0.16230406
0.14528236
0.03775267
0.08905522
-0.09542191
-0.17194578
0.15013789
0.14112189
-0.04687245
0.16489971
-0.11049657
0.11293649
0.03040588
0.11842021
-0.13247581
-0.11175553
0.00290284
-0.14411320
-0.04056450
-0.03762659
0.10954197
-0.11212016
0.11457750
-0.12790257
0.00357468
0.13027477
-0.04524235
0.08293411
0.15813646
-0.09785464
0.04991633
0.00066486
-0.10620414
-0.13285750
-0.15829772
-0.13258028
0.10405490
0.16590938
-0.02559008
0.16197184
-0.14510506
0.01019730
-0.08676545
0.06878914
-0.04106720
-0.08543566
-0.17237847
-0.13788137
-0.16679192
0.09174138
0.09189528
-0.03679073
0.08131149
0.10195085
-0.01025338
0.07611589
-0.06706639
0.11215389
0.05536582
0.11207741
0.04944511
-0.00749072
0.08468115
-0.11209595
0.17036545
-0.10813957
-0.06198979
-0.07060032
0.04860181
-0.07306738
-0.13467532
-0.14874607
-0.16755430
0.01822932
0.14837858
-0.02563724
0.03179859
0.08903354
-0.16790231
-0.01774819
0.05807129
-0.06537423
-0.05676399
-0.09951967
0.12303001
0.07751679
-0.08605732
0.12771469
-0.11783951
0.01343551
0.09523955
0.16301084
0.09626904
-0.09880456
0.15551177
-0.07529213
-0.00641216
0.09616950
-0.10297943
0.07504857
-0.13501571
-0.17107382
0.13037884
0.06548779
0.07908386
-0.06148999
-0.17169945
-0.04584977
-0.10241699
-0.12256514
0.06046166
0.16604787
-0.00208876
-0.02176808
0.13497621
-0.15637629
-0.16227338
-0.04763617
0.01983930
0.14544484
0.04978566
0.08073893
0.05278982
0.03388445
0.10563147
-0.11653049
0.14655387
-0.06464995
0.16847870
-0.05176677
-0.02375171
-0.09748621
-0.11375296
-0.04481874
0.07167074
-0.05316953
0.16332471
0.07704279
0.16779077
0.01438257
-0.10586808
-0.03837928
-0.16250831
0.16852334
0.02257730
0.00421418
-0.13193434
0.13679031
0.03947344
0.00287783
-0.05737847
-0.06364854
-0.08077061
0.10699934
0.16727221
0.01757723
-0.10652889
-0.05047951
-0.11256742
-0.16295302
-0.13889879
-0.12378876
-0.16169170
-0.13024284
-0.10312107
0.03288142
0.03626777
0.09465435
0.06648260
-0.02758609
-0.09449828
-0.01103126
0.04477407
0.10154855
-0.09920306
-0.15992087
0.04555823
0.13403979
0.11840227
-0.13460273
-0.06303015
-0.01860610
0.07207394
0.10119468
-0.10508194
-0.12768707
0.09280166
-0.01358306
-0.15854186
-0.06327982
0.06382565
-0.09858508
-0.11019430
-0.14138658
-0.09196263
0.12892634
0.06468765
-0.07833163
-0.02999984
-0.00295188
-0.05974126
0.08482555
0.08668780
-0.04728742
-0.13241196
-0.03205676
0.05488783
-0.13723092
-0.01987994
0.13613650
0.05985239
0.11149320
0.10433486
-0.16639854
0.08060899
0.04270744
0.10603940
0.01759449
-0.04402612
0.09391409
-0.10548276
-0.14758386
-0.08956275
-0.07099716
-0.03054206
0.06229795
0.08142190
-0.04634692
0.10615781
0.02843693
0.00734755
-0.11588358
-0.15334013
-0.10701565
-0.14293070
0.15470256
0.10451578
0.13371621
-0.11450535
0.05943759
0.12677701
-0.10503352
-0.03535804
0.10609747
-0.05681424
-0.11336881
-0.08612190
0.05190016
0.11901103
-0.12483299
-0.10839824
-0.15199217
0.05345437
0.15508799
0.05436454
0.09604345
-0.00918172
-0.13875829
0.09527246
-0.08635072
0.14081950
0.06934634
-0.05884536
0.08875182
-0.12081112
-0.09707265
0.07908183
0.00594047
0.04731571
-0.01106985
0.06241169
-0.13722678
0.09719588
0.12396062
-0.00430669
-0.04301834
0.10789157
-0.03970715
-0.16895545
-0.09641524
-0.14638348
-0.03975631
-0.01084644
0.04582378
0.09983447
0.09090961
0.13820449
0.15773237
0.00742549
0.15584008
-0.17078151
0.00211407
0.05606545
0.00107685
0.12034138
0.14849094
0.01142172
-0.01377757
-0.07580844
0.16202816
-0.02091013
0.12034866
0.09084766
-0.09122017
0.06409826
-0.08321975
0.15008797
-0.09125338
-0.07748762
0.01687649
0.13452682
-0.09998050
-0.01930547
-0.03980377
0.01886971
0.08819962
-0.07651599
-0.10707862
-0.03069349
0.05714116
0.15923202
0.07955052
0.08701277
-0.01517133
-0.07284974
0.17265432
0.07000483
-0.11500397
-0.02108984
0.16089046
-0.09431778
0.11999971
-0.08525739
-0.06877746
-0.16278805
0.06774793
0.11731561
-0.13713877
0.14276439
0.00987439
0.00159343
0.02543935
-0.04074575
-0.00163913
0.00314983
0.16263892
0.03812951
0.10070124
-0.09726322
0.17186496
-0.04469478
0.01654209
0.07957748
-0.14785424
-0.15867306
0.12690154
-0.11526677
-0.00397139
-0.07169108
-0.16590688
0.01024703
0.02365915
0.00201938
-0.04490389
-0.16467957
0.12427771
-0.07464546
-0.13842028
-0.09808679
-0.04773410
-0.05672788
-0.04367409
0.01307215
0.11853031
0.15609783
-0.13128227
-0.14323410
0.09138130
-0.01548162
-0.15219933
0.07244924
0.05244953
0.04043296
-0.07598060
0.07104789
0.14502209
-0.16964017
0.13141379
0.10511301
0.12485218
0.14565991
-0.07736498
-0.07903302
-0.01008678
0.15649392
0.04975368
-0.14276837
0.13213566
0.09795378
0.11144915
0.07326007
-0.11636786
0.02695033
-0.07738048
0.12453034
-0.01717638
-0.09905124
0.16540688
-0.05403221
0.06931791
-0.07038455
0.17290819
-0.12130962
0.10706835
-0.04984418
-0.12159243
0.13014218
0.00710447
-0.08882292
0.13941804
-0.10653748
-0.17295581
0.00481106
0.08905794
0.08517360
-0.05616762
0.06077759
-0.11721545
-0.13667235
0.12122301
-0.09334862
0.00916644
-0.11978819
0.03483623
-0.07571276
0.17284252
-0.09730546
-0.10105234
-0.01458333
-0.15792423
0.01811455
0.11815564
-0.16769575
-0.01122549
0.06852082
0.16294335
-0.09254421
0.01440110
-0.01054856
-0.16613694
0.07313003
-0.04378643
-0.15784180
0.05730636
-0.05318923
-0.04336993
0.14381528
-0.16370244
0.06301932
0.03290674
-0.06709690
-0.04342666
0.07287726
-0.13692893
-0.17116526
-0.16388580
-0.15869503
-0.14602312
0.14613643
0.16025963
0.17130785
-0.14016551
0.12362850
-0.10427289
-0.09039655
0.13672243
0.09692544
-0.00374922
0.05578921
0.10425948
0.16680022
-0.13747685
-0.07476289
0.03316432
0.06103708
-0.07358437
-0.02270957
0.12110566
-0.11805893
0.12061297
0.05187620
0.10275540
0.05748574
-0.07925941
0.08489405
0.09673461
0.05232984
-0.00310141
-0.08174980
-0.12842233
0.02309515
0.03986457
0.03975917
-0.07804357
0.08933561
-0.01287601
0.15837358
-0.14643465
-0.13350764
0.02948122
-0.16194667
-0.10505895
-0.15679236
0.08644199
0.17162491
-0.07118436
0.09973581
0.02305220
0.09239540
-0.11187676
0.11209509
0.07933907
-0.13053526
0.06523580
0.03266471
0.12258645
-0.02022200
0.17133191
-0.15365471
-0.11307754
0.10566351
0.10783741
-0.06057563
0.14702821
0.06610273
-0.06201131
0.00958037
0.06569169
-0.09524737
0.09289023
-0.00217623
-0.01228064
-0.17177126
0.05481041
-0.06135690
0.03078036
-0.10041238
-0.09511822
-0.13888755
-0.10378361
-0.03829339
-0.02729356
0.16973338
0.10078762
0.08794807
-0.11650301
-0.15201840
-0.11712237
0.04722857
-0.00767250
0.06268901
-0.12766211
-0.10367844
-0.10326016
-0.13307491
-0.04247640
0.17257497
0.11510369
0.01739635
0.02318280
-0.09579395
0.07675984
-0.07336568
-0.05146401
0.01432064
0.15252531
0.06857437
-0.16827793
-0.13106483
0.02462834
0.01048177
0.00633837
0.16034725
0.15410900
0.03307118
0.10012456
-0.09253878
-0.12815656
-0.05322489
-0.09939218
-0.08912466
-0.16267598
-0.14549443
0.10083407
-0.09971689
-0.06161675
0.16514754
-0.08354925
0.06696535
-0.08164834
0.08029914
0.11360767
-0.11866346
-0.11294378
0.07554488
-0.10451104
0.04342587
-0.12478468
-0.08543108
0.15807521
0.05501749
-0.06360737
0.15996121
0.10816079
-0.03504242
0.09622101
0.08571792
-0.07212242
-0.17275329
0.12318593
-0.07287349
0.13291922
-0.03984903
0.06292258
-0.01160109
0.01545315
0.10765541
-0.06859270
-0.15512607
0.16700803
0.07240401
-0.04782484
0.14942926
0.12181330
-0.10688246
-0.12120151
0.07044447
-0.05664553
0.03049476
0.02647907
-0.04247814
0.11461163
0.13397399
0.16488880
0.00971447
0.06974855
-0.04902164
0.05628382
0.05567790
0.14986789
0.09665868
-0.01192527
-0.10125421
0.10030742
-0.10095709
0.07814427
-0.13859981
0.11757395
0.13719006
0.02179913
0.00471219
-0.06323980
-0.09083052
0.07034215
-0.16245413
0.10269080
0.13975047
0.09713123
0.14798421
0.07451126
0.13771459
0.11016751
-0.09385592
-0.15627936
-0.02414744
0.08833887
-0.10786361
0.08637439
0.10715541
0.15340805
-0.09141796
-0.08839340
-0.00389714
0.06833147
0.14365034
0.06750993
0.07079581
0.13014498
0.01896352
0.13965560
-0.11200990
-0.04039751
0.10483542
-0.11649781
0.04821859
0.16141894
0.10718624
0.08272043
-0.11191041
0.01241176
-0.11330292
-0.05082179
-0.00835419
0.11966495
-0.16679566
0.09164639
0.11060082
0.01285122
0.10825761
-0.06443723
0.15420699
0.01682807
0.01271437
-0.13660081
0.16328667
-0.03961277
0.05919007
0.03634660
0.06104011
0.02653396
-0.17117916
-0.02282743
0.12559980
0.06880908
0.06881630
-0.01619338
0.13854536
0.13791493
0.08182082
-0.12704438
0.10039344
0.01089691
-0.13510248
-0.02940901
-0.14783369
0.04511845
-0.15702198
0.02743958
0.14288525
-0.02584682
-0.13827117
-0.07976303
-0.14779554
-0.08905058
-0.07123771
-0.06914873
0.10595172
-0.10802284
0.08343018
0.14696047
-0.13963397
0.04500124
0.17064279
0.05716220
0.07603364
0.08037869
0.16914484
0.08361437
0.09459757
0.06387202
0.12678841
0.06914105
-0.06180483
0.15343145
0.11249986
0.03732996
-0.05013683
0.08614831
0.10197461
-0.03805658
0.12416611
-0.00324093
0.14272659
0.01742226
-0.16664875
-0.02488394
0.17267963
-0.06593885
0.00351890
0.03427614
-0.14463046
0.11480736
-0.13533705
0.10184316
-0.16649738
0.05002799
0.12938009
0.04350389
-0.13138731
-0.00872212
-0.02230039
0.05887274
0.07013086
0.04696854
-0.07327472
-0.08443924
0.09232044
-0.01407458
0.08756041
0.09604150
-0.07133075
0.01195791
0.15936026
0.04029150
0.02708698
0.09311332
-0.00166076
-0.12381895
0.13962340
0.00930248
0.05609371
-0.04304282
-0.03065475
0.07840158
0.07722689
0.11444795
0.09700121
0.15294878
0.01539619
0.13445166
-0.02896503
0.14715064
-0.08033639
0.01919251
0.02221056
-0.01905830
0.13677259
0.13168964
0.04133144
-0.06332468
-0.08720301
-0.00232266
0.05078088
-0.12769301
-0.13487114
-0.08497180
0.14604463
-0.05830686
0.14886248
0.14271545
-0.03001674
-0.05782487
-0.02359828
0.04633361
0.13244262
-0.07983778
0.01097592
-0.00252267
-0.10936090
-0.11337812
0.04787663
-0.15610225
-0.03126048
-0.01250325
0.12540169
-0.12441783
-0.11116697
-0.15508817
-0.10486512
-0.05783086
0.15439011
0.05188148
0.15744063
0.14314066
0.11047295
-0.09343760
-0.10329467
0.14478858
0.08237204
-0.13450125
-0.09654330
0.04412828
0.01794044
-0.15482923
-0.02715905
0.05483257
-0.07782145
-0.15945847
0.09904361
-0.15217166
0.10076781
0.12867200
0.14642927
0.05469207
0.11114576
0.01276260
0.03431016
0.04465093
-0.10999161
0.05311608
-0.15126377
0.05758473
-0.04451049
0.04374062
-0.11867495
0.05275048
0.08281910
-0.04789248
-0.07181302
-0.15707269
0.03023761
-0.08977946
-0.01866560
-0.10561573
-0.04198755
0.15372871
0.10264598
-0.02982640
0.04532275
-0.13969347
0.13123067
-0.16106510
-0.07817112
0.02581449
0.13415171
-0.05705914
-0.15802486
-0.14762941
0.12869704
-0.14846927
-0.15382637
-0.04551635
-0.09110241
-0.09907145
0.07739267
0.01161302
-0.06999807
-0.14417002
-0.08228214
-0.13256204
-0.15020843
0.04641382
-0.03530121
0.13599403
0.10032910
-0.09361312
0.01379573
0.00499158
0.09844027
0.05316555
0.10879658
-0.17077434
-0.12513015
0.04107914
-0.13742135
0.05726106
-0.16033807
0.02038016
0.11925345
0.07941043
-0.02399956
0.09941432
-0.13608970
-0.08798658
0.15463883
0.00180496
-0.04220170
0.00688796
-0.12240449
-0.04659089
-0.14264102
0.01013191
0.12825671
0.01011795
-0.02591693
-0.08387775
-0.15510118
0.15499637
0.06036606
0.02255182
-0.01436609
-0.14662530
0.07041917
-0.03761297
0.15364939
-0.15648875
-0.04518517
0.01157544
0.06663217
-0.13693419
0.11130730
-0.16063939
0.16951473
0.13633214
0.14747745
-0.00269143
0.17222399
0.07357389
0.04252350
-0.11347602
-0.12936726
0.15232018
0.04098422
-0.09832507
-0.04129163
0.10352964
-0.15758644
0.13673395
-0.00020316
-0.10726989
-0.13081016
-0.14763276
-0.14372921
0.06292926
0.10041688
0.15724544
0.05705415
-0.10643738
0.17269877
0.08973975
0.01821772
0.06764849
0.11745596
0.10524211
0.06394474
-0.00160533
0.16821377
0.13475348
-0.02917540
-0.03170268
-0.07268648
0.03827471
0.16623500
-0.11415518
-0.09350904
0.11914241
-0.16353214
-0.13642380
0.03237227
-0.02558708
-0.16942132
0.13498063
-0.04703899
0.11449162
0.07159814
-0.09698628
0.08035580
0.05383862
-0.16229406
0.02878989
0.11808329
0.02908019
0.03208826
0.10312220
-0.14734715
-0.04087206
-0.06811474
-0.12017573
0.05908180
0.02057919
-0.14789489
-0.10487501
0.00704212
-0.09601629
-0.15915957
0.10933188
-0.09072906
-0.11980813
0.00800196
0.16068986
0.05319259
0.00608289
0.11193436
-0.11090548
-0.00774951
-0.08417115
-0.12086768
0.12973353
0.01465229
-0.07094115
-0.06045080
-0.06475017
0.09762876
-0.02423700
0.09736869
-0.09926199
-0.05194716
-0.14464115
-0.10071093
0.08958674
0.09287528
0.14103894
0.11340655
0.00432398
-0.07498323
-0.02050709
-0.00442408
-0.05650314
0.05335548
0.12863521
0.14871609
0.13371578
-0.10478177
-0.04708886
-0.14247559
-0.14426753
0.11546068
0.13321967
0.14764871
-0.15808257
0.03741614
-0.01521130
-0.14118655
0.16921662
-0.10481039
0.14487444
-0.01148983
-0.12972620
-0.07242158
0.09956528
0.03941789
-0.06323875
-0.05555777
-0.04328426
0.02042945
0.06685881
-0.13849482
0.06517270
-0.10188706
0.14274241
0.14197823
-0.02140808
0.03483805
0.15174080
-0.06163560
0.02276951
-0.07812331
0.01239434
-0.07081030
0.10704168
-0.03209129
-0.00494143
-0.00099827
0.09843027
0.03278360
-0.11521639
-0.04802824
0.06416974
0.00813049
-0.00973457
0.16279462
0.02989658
-0.05023488
-0.05754746
0.06986204
-0.15117459
0.07890621
0.07949489
0.08139876
-0.08260565
-0.02430651
-0.00423381
-0.10382363
-0.15962403
0.01468961
0.02824333
0.03104532
0.11742952
-0.01030326
-0.00295179
-0.00954831
-0.14053763
0.01069230
0.15286049
0.01511557
0.12868704
0.05940641
0.14294246
-0.14900406
0.05547034
-0.05947925
-0.08828211
0.06848662
0.16448286
-0.04480590
-0.16640382
0.16645342
-0.05273939
-0.15029670
-0.12762693
-0.06747621
0.11059347
-0.02958760
-0.05013560
-0.14911383
-0.01243750
0.14006583
0.07686451
-0.14171258
0.07672157
0.13991688
0.16538176
-0.05403668
-0.08336472
0.06488597
0.17155045
0.07054292
0.13665034
0.07698744
0.12301770
0.10627510
0.06462782
0.04978174
-0.09564906
-0.12574098
0.12653038
0.13984919
-0.09992548
-0.13040707
0.13261494
-0.00439502
-0.08184598
-0.02221023
-0.09935074
0.13668619
0.17056271
0.06037074
-0.16391100
-0.10195203
0.00935756
-0.13476856
-0.02332598
-0.01220767
0.03416401
0.07786909
0.06130461
0.06199447
-0.01718512
0.14299010
-0.16634688
0.14243868
-0.06256537
-0.10049883
0.08319359
0.02305530
0.12392898
0.14270394
-0.09818178
0.11786471
0.15765114
-0.09612146
0.03020055
-0.14483264
-0.11441813
-0.11041682
0.08615843
-0.08729761
-0.09320931
0.14966276
0.14250025
0.06167260
-0.15588637
0.03160014
0.06276373
-0.09683543
0.06462727
-0.10922287
-0.02022592
0.01838312
0.15825588
-0.11897529
-0.04558486
0.08606532
-0.15005891
0.10582587
0.05844133
-0.06676614
0.10369673
-0.12951271
-0.02677835
0.10939834
0.07122399
0.08105130
0.15190020
-0.00599802
-0.09503214
0.02507633
-0.02713021
-0.06404156
-0.13804275
0.00418620
0.15269372
-0.17198421
0.15188904
0.12917796
-0.05867288
-0.15793367
-0.14985667
-0.07417145
-0.07171288
-0.06655687
-0.12061661
-0.15342624
-0.10572533
0.02923959
-0.08625441
0.08354275
-0.01974082
-0.13130884
0.14529094
-0.06090875
-0.10410765
0.16514805
0.03430825
-0.07550438
-0.09390875
-0.09840162
-0.12901992
-0.09787264
-0.05150119
0.12117008
0.00208994
-0.14450321
0.07900368
0.03862236
0.01560217
0.00584571
0.11907168
0.07051679
0.09667360
-0.13261497
0.03788936
-0.12794992
-0.16593251
0.14918467
-0.00168774
0.04206279
-0.02307090
-0.02434891
0.07890368
0.03626889
0.14513308
0.02710930
-0.06446739
0.06983194
0.16524273
0.01431006
-0.11325697
0.05227979
0.09709662
0.03852819
-0.13147105
-0.03505914
0.16003713
0.01927797
-0.10398538
-0.11371997
-0.07775741
-0.11388627
0.16447958
0.14473647
-0.15055695
-0.13789275
0.14838597
0.04807608
-0.03330091
0.06829786
-0.09929308
-0.02542788
-0.10321085
0.15492925
-0.12850130
0.12944955
-0.00898647
0.13138491
0.05906814
-0.01031172
-0.10010359
-0.05461833
0.07297872
0.07503651
-0.11783480
0.12854692
-0.09633985
0.07602793
0.11233786
0.15539110
0.01552662
0.13857102
-0.03837523
-0.08022712
-0.08800414
0.13100767
-0.12084313
-0.15033680
0.12454793
-0.13182428
-0.11823016
-0.04189405
0.15802059
0.11291972
0.00774536
-0.12583750
0.11952472
0.05198666
-0.05655178
0.02162813
-0.12462932
0.00262266
-0.09536338
-0.03077702
-0.01288666
0.05260894
0.02683762
-0.11302254
-0.02900252
0.00406292
-0.06766897
0.14502808
-0.03138906
0.12572989
-0.16133961
-0.16158825
0.03773136
-0.11957061
-0.13722208
0.08915272
0.12358704
0.02569857
-0.07703780
0.03110227
-0.05324964
0.01531594
0.14966777
0.10031408
0.03655440
0.02485271
-0.10064798
-0.08553687
0.15606612
0.03790794
-0.07457639
0.12653428
-0.03787948
-0.11238250
-0.01079026
0.00289534
-0.06992307
0.09993154
-0.12166874
0.16553909
-0.16433758
-0.04020652
0.02491549
-0.14254504
-0.08864141
0.16294947
-0.04511464
-0.13639267
0.04490303
-0.05648748
0.11416587
-0.10038415
-0.14905591
0.07144777
0.09968176
0.06184745
0.16332832
0.06068507
0.09427470
-0.01442957
-0.12012194
-0.05502146
0.17250955
-0.08891083
0.06408049
0.04023448
-0.06887657
0.14713997
0.04442140
-0.14233100
0.01387130
0.01189128
0.17066383
-0.08639986
0.06834964
-0.02893484
-0.16981770
-0.00107393
-0.05356014
0.07236186
-0.16116172
-0.11017737
0.04513574
-0.11385670
-0.01078655
0.02901028
-0.10458970
0.06488365
0.01640798
-0.04096057
0.08163702
-0.06559153
0.01154938
0.04491442
0.06509672
0.15436739
0.08770755
-0.12818146
0.03434317
0.07064900
-0.13667470
-0.07359782
-0.06805603
0.02706008
0.05503364
-0.01175776
0.08237249
0.04127726
0.14579412
-0.15781936
-0.01768278
-0.11348013
-0.16461867
-0.12467991
-0.01574020
0.02072434
-0.05505107
-0.09746506
-0.12643166
0.05412337
-0.08124299
-0.14040715
-0.06346527
-0.14994988
0.15164171
0.15493274
-0.11366455
-0.04482835
-0.00196234
0.02620199
-0.08528519
-0.14116079
-0.05503052
-0.08772226
-0.15221779
0.04189243
0.15722270
-0.06880046
-0.08168551
0.16248271
-0.06627685
0.06629339
-0.09260150
0.03215323
0.10334456
-0.00086559
0.04241093
-0.06996498
0.12188160
0.08982140
-0.08603113
-0.02052062
-0.02384834
-0.09113449
0.09420367
0.06826647
0.10428701
0.15385553
-0.09963976
0.06387997
0.10155578
0.14864710
-0.04071620
-0.00297120
-0.13751511
0.15638357
0.16951580
-0.06055969
-0.06519099
-0.03479314
0.00269036
-0.06215618
-0.08967392
-0.08252554
-0.05680716
0.15629822
-0.06121684
-0.16360357
0.13560817
0.16516186
-0.09902148
0.13224363
0.01530096
-0.11401246
-0.06304623
0.03240103
-0.10480055
0.01377177
-0.03770845
-0.08262351
-0.06111161
-0.02483840
-0.13084187
-0.04400836
0.07371242
0.10968730
0.08868915
0.09800061
-0.13779129
0.10811314
0.15325516
-0.10121528
0.14878449
-0.00253884
0.12504639
0.13544506
-0.03887969
-0.03659592
-0.10123925
0.13684340
0.02686078
-0.17328827
-0.12018313
-0.00315521
-0.02772967
-0.02582589
-0.08735341
0.13590237
-0.14664032
0.15202591
-0.13983548
-0.15989262
-0.13750932
0.02935993
-0.15757228
0.14264709
-0.14439940
0.03204016
-0.09905756
0.02155590
0.10590592
-0.11148664
-0.07663569
-0.05546980
-0.15643850
0.06776482
-0.05828594
-0.11633059
-0.15455419
-0.16599348
-0.08390760
0.13537285
-0.06205451
-0.01002422
0.06440006
0.13929126
0.14085181
0.02477057
-0.11199296
-0.11919177
-0.07879686
0.09322113
-0.03470409
-0.14781402
0.12647158
-0.09671729
0.06809892
-0.12959538
0.09129059
0.06426623
0.03187729
-0.04766317
-0.10554229
0.13290113
-0.16267464
-0.08724664
-0.13117826
0.03330657
0.08707924
-0.02199820
0.09369359
-0.03376442
-0.07292411
0.05536558
0.13613877
0.13942762
0.08346816
0.10481040
-0.09384549
0.16563617
0.00893392
-0.16152191
0.04982558
0.15824775
-0.12766401
0.16806991
0.14468785
-0.03304118
-0.09774668
0.09369673
0.16123372
-0.09161063
-0.01046146
0.14874899
0.03145295
0.11227336
0.05095401
-0.00584173
0.04811881
0.16009261
-0.03169567
-0.05367237
0.15628149
0.07064548
-0.13286433
-0.09986652
-0.06876334
-0.04216893
0.11651313
0.07580018
-0.05612829
-0.16350794
-0.07825287
0.17035091
0.16048871
0.00980429
-0.16499637
-0.00854107
-0.10269226
-0.15102656
0.10940796
0.01153819
-0.14875199
-0.15979494
0.12634480
-0.02009346
0.07397944
0.09274571
0.05198448
-0.14374773
0.06931642
0.11965650
-0.00967304
-0.13703403
-0.11378014
-0.01870448
-0.00761920
0.08834197
0.16307752
-0.16986373
-0.06020618
-0.17068098
0.00838160
0.11390060
-0.07091285
0.14751203
0.12035368
-0.15194264
-0.11986855
0.01160002
0.00403672
0.11957575
-0.06786284
0.02425686
-0.07005411
0.15215045
-0.05719648
-0.13537785
-0.03211512
-0.03936071
-0.17465235
0.14966121
-0.08608910
-0.16940042
0.15653142
0.03853381
-0.05758879
-0.05559970
-0.08964098
0.06378587
0.16802688
-0.14537680
0.10156401
0.05002691
0.02167556
-0.00022729
0.01464864
0.10972746
0.03583490
-0.06277681
-0.03012574
-0.16151085
-0.15518442
-0.05190311
0.03144637
-0.10741919
-0.00480952
0.01516422
0.15079911
0.06204300
-0.01355024
0.01762671
0.10021167
0.04509685
-0.00475284
0.11313269
0.07029792
-0.05155421
0.03564347
-0.06029663
0.07308945
0.12569603
-0.15924217
-0.14440961
-0.10200779
0.08525331
0.08645189
-0.14402516
-0.02507711
0.06411771
0.04971692
-0.11037880
0.00270110
0.05617924
-0.04874593
0.06479949
0.07961961
-0.02816392
-0.02725456
0.00405906
-0.06318265
-0.01204526
-0.14951921
-0.15361136
-0.02108841
-0.14595787
0.06843182
0.04379634
0.16088907
0.02879216
0.04758415
0.01312947
-0.04512365
0.08307663
0.11618670
0.02758302
0.04450921
0.14409865
0.04312798
-0.10788959
0.09355418
-0.05757268
-0.06767663
0.12656158
-0.16037233
0.16064383
0.08676676
0.00058376
0.01366867
0.12519330
-0.08567169
-0.04370878
0.14547545
0.04485743
-0.13532043
0.07887834
-0.03828640
-0.00420629
0.09952009
0.16848882
0.02057431
0.05833457
-0.10518076
0.00316033
-0.08969679
0.01581927
0.15543255
-0.01538175
-0.14826855
-0.16871987
0.15116197
-0.03218232
-0.04302507
0.03066148
-0.09018376
-0.11047643
0.07498754
-0.14734463
0.14076547
0.09522285
-0.03136804
-0.02903462
0.03292785
-0.05458568
0.13242728
0.14374663
-0.09738185
-0.03436486
0.16353178
0.05155021
-0.12637401
-0.07304917
-0.06377939
0.10897215
0.05641353
0.17119122
-0.04690912
0.00861825
-0.12143728
0.05240097
-0.08101838
0.16447301
-0.11727870
0.04001231
0.16630507
-0.13399109
0.11641049
0.07711241
0.11780225
0.10288743
-0.14845657
0.11746623
-0.10926666
-0.05417965
0.15809686
-0.00698693
0.01957920
-0.02694689
-0.13720161
0.14662507
0.06842872
0.10593522
-0.11509131
-0.03909617
-0.12372100
0.11500195
-0.13166878
-0.07887826
0.14639990
0.08186111
-0.08077468
-0.09401175
-0.03330678
-0.05788042
0.14108704
0.00999262
0.07284059
-0.03257687
0.02530315
-0.11108972
0.01270970
0.04699464
0.03663243
0.07167912
0.10470442
0.04990403
-0.14071627
0.01012722
-0.00026284
-0.00218476
-0.10615774
-0.11510221
0.01632592
0.11378532
0.09528088
-0.05736269
-0.10294747
-0.14914738
0.09546864
-0.07829619
-0.16011107
-0.09054360
-0.16020913
0.12292770
-0.15879688
-0.09987765
-0.02526898
0.02208611
-0.01555881
-0.15806869
0.12317035
0.11748443
0.12039833
0.02000593
-0.06966823
0.00154835
0.01937130
-0.15395164
0.00202022
-0.10775018
-0.01030534
0.02674975
-0.02433836
0.02248980
0.15565749
-0.00745566
-0.13956401
-0.14862984
0.15168852
-0.11237898
-0.03111416
-0.00010706
0.10206219
0.02616143
-0.10471842
0.10276463
-0.01584585
-0.10205335
-0.06397143
0.11517456
-0.06195101
-0.09369347
-0.09281491
-0.12133738
0.15890983
0.01432561
0.14300150
0.13890362
0.17217197
0.05803968
0.00050982
-0.04741561
0.14607960
-0.14143752
0.11867706
0.06933635
-0.07335700
-0.13808726
0.15594779
-0.07632483
0.12612876
0.07897538
-0.16316107
0.08880730
0.11085424
0.04556784
0.00954726
-0.11368173
0.03097741
0.10038427
-0.15111700
-0.04938919
0.11030807
-0.05512461
-0.02816745
0.16270483
0.07685540
-0.07583512
-0.04266537
-0.14555898
-0.04347462
0.16660690
-0.10465743
-0.13469183
0.15053695
0.10783585
0.05732354
-0.14196452
0.14737111
0.11528265
-0.09357350
-0.08307897
0.12237778
-0.11994687
-0.15710910
0.09430602
-0.13802990
-0.05416329
0.12413010
0.07268742
0.09422781
-0.17254567
0.00210624
0.04511665
-0.10018317
-0.11596347
-0.12206569
0.11855712
-0.02799747
-0.14959210
0.15784444
-0.07429489
0.04902887
-0.05847040
0.03214812
-0.10014996
-0.05834517
0.03380544
0.04395486
-0.07533698
-0.01458450
0.00888326
-0.13687289
-0.11630444
0.02311831
0.08184911
0.10579994
0.07191692
-0.07001965
0.16570783
-0.04407862
-0.03041797
-0.04307474
0.02399152
-0.13814263
0.15923826
-0.02339916
0.14978974
-0.14887962
0.15212213
-0.14112221
-0.04872081
0.01381511
-0.10685457
-0.08389476
0.01843915
0.06242418
0.01056387
-0.15583378
0.01727575
-0.13120778
0.15393041
-0.07451869
-0.01680833
0.07049000
0.05525120
0.16345711
-0.06322559
-0.04954091
-0.12807968
-0.05054131
-0.16319469
0.12836842
0.16485906
0.12741287
0.03586054
0.16486323
-0.16475955
-0.09324630
-0.15925041
-0.08730052
0.16753763
-0.14988610
-0.15348954
-0.02193077
-0.07652460
0.08523388
0.00738272
0.06887935
-0.03418146
-0.01469123
-0.14245713
0.17245054
-0.12520885
-0.14900194
-0.13130523
0.12383882
0.08798309
-0.14037779
0.15820810
0.02329064
0.14539881
-0.11657772
-0.06566884
0.11201926
0.12876603
-0.10385989
0.02213288
-0.11929157
0.01047100
0.07640901
-0.02853832
0.06552001
-0.15307952
-0.07363081
0.16853814
0.09389745
0.03607954
0.05577338
-0.09853945
0.08877735
-0.05175643
0.03494778
-0.03117923
-0.14259595
0.02607017
0.14028943
0.10140365
-0.04465260
0.09430861
0.14375339
-0.07094784
-0.06554807
-0.16412266
0.06560682
-0.15329927
0.09534388
0.04461313
-0.15565217
0.13626978
-0.14125325
-0.15411456
-0.15845665
0.10282205
0.14256202
0.00597314
-0.09265118
0.04817685
-0.09349634
-0.06478396
-0.05729507
0.11475194
-0.02562805
0.01485863
-0.07300094
0.04496402
-0.08492310
-0.15633443
-0.13288458
0.11389074
0.13727748
0.16293432
-0.12434389
-0.14085253
0.13686407
-0.03757679
-0.13568228
-0.00946659
-0.15672368
0.06412728
0.00486131
-0.13431315
-0.08598530
0.10787228
0.16661373
0.06406298
0.04310907
0.15554205
-0.16215888
-0.07457826
0.06352693
0.09985933
0.06970239
0.00309579
-0.06808250
0.17279026
0.10753927
-0.14512332
-0.04603076
0.16809618
0.10331210
0.11535290
0.07768700
-0.07842544
-0.05147456
-0.10151254
-0.16842176
0.15100917
0.09613276
0.01756950
0.12238356
-0.12686765
-0.04657000
0.02208386
0.00079325
0.12933013
-0.01997566
-0.14521492
0.10288814
0.05788459
-0.05168735
-0.00624137
0.12407163
0.01395413
-0.12703817
0.06546158
0.02706812
0.16520721
0.02930939
0.14505687
0.07978237
0.12143430
0.10410473
0.03487831
-0.09940144
0.11038792
-0.03147458
0.09366962
0.10508648
0.07937425
-0.13098314
0.01302020
0.15394330
0.02297480
-0.02917860
-0.12245360
0.13767311
0.04467963
0.03590582
0.01733164
-0.15371270
0.02003528
-0.08417083
0.15251005
-0.11438227
0.01974052
-0.06142616
0.09967646
0.09242448
0.04004447
-0.03571202
-0.07568253
0.16572356
-0.11690334
0.06542276
0.04837622
-0.02651395
-0.10713927
-0.02343518
0.16914025
0.14387253
-0.08031822
-0.07678135
0.05701301
0.03488074
-0.02902140
-0.12837233
-0.10992403
-0.00272979
-0.01020837
-0.14466733
-0.03292896
0.14451030
0.07449345
0.08258474
0.12462136
-0.14401519
-0.00037041
0.04101577
0.03848846
-0.07221734
-0.12302835
-0.02355110
0.06791484
-0.11540435
0.04911449
0.07923876
-0.12198066
-0.06688624
-0.15723979
0.06852373
-0.12400502
-0.04235279
0.05145920
-0.04214004
0.03677133
-0.14904149
-0.14460996
-0.06352586
-0.04162906
0.05605095
0.10071897
0.00775131
-0.04393545
-0.09387344
-0.11128768
-0.10119607
0.02210453
-0.14922799
-0.00665873
0.01783322
0.01703531
0.09779416
0.03259522
-0.06202630
-0.12245785
0.01647499
0.05164288
-0.05857671
0.03180667
0.14219540
0.16728608
0.09011028
-0.11189699
0.14159222
-0.07026219
0.05892361
0.09677055
0.07349037
0.01337223
0.01455447
0.11261503
0.15418085
0.04621204
-0.02222325
0.05139621
-0.03005674
0.13503310
0.12141882
-0.11467569
-0.00652763
0.07624615
-0.16872911
0.09445824
0.04044511
0.03347266
0.01405741
-0.00492712
0.07365857
0.09076619
-0.16718209
0.00829669
0.05584437
0.12285807
0.08462515
0.06028090
0.12075460
-0.16795057
-0.16522516
-0.05156158
0.10933744
0.05117678
0.00604705
0.15737966
0.12502775
0.03843329
-0.03246419
0.04522480
-0.14328291
-0.16573267
-0.10359182
-0.12361078
-0.00555875
-0.08286700
-0.12257300
-0.15443881
0.05545823
-0.17160857
-0.04192171
0.01635014
-0.04274061
0.08111042
-0.02096414
0.16751608
-0.12531924
-0.05807475
-0.11730011
-0.12997545
-0.11631985
0.00808767
-0.12463098
-0.00926341
-0.09023660
-0.15029162
-0.09997553
-0.01474710
-0.12171440
0.12864427
-0.14064059
-0.06044931
-0.09522215
-0.08398811
0.00806740
0.06742114
-0.03498931
-0.06812933
-0.09393206
-0.11634133
0.15699515
-0.12570390
0.09055859
0.14025608
0.15197837
-0.03989379
0.13611509
-0.10707805
0.06606326
0.13921311
-0.01514806
-0.15685950
0.02028574
-0.07488390
-0.03019206
-0.00000177
-0.03082311
0.05637449
0.08442115
0.04246942
0.14510141
-0.08052308
-0.15916878
0.14036857
-0.00990834
-0.14609279
0.08952558
0.00677350
0.14062569
0.04262598
0.05038339
0.00207547
0.12183121
-0.14152519
0.15342936
-0.16705401
0.11533111
-0.13652635
0.05271452
0.08713665
-0.15351374
-0.03728104
0.08462194
0.16090520
-0.12599437
0.09920590
0.15620385
-0.01482158
-0.09560446
0.13311741
-0.01336702
-0.02193739
-0.08716527
-0.15202178
-0.16057709
-0.01001826
-0.09084001
-0.17317161
0.04301224
-0.08275522
0.05395996
0.00267801
-0.10819627
0.16271815
0.00439327
0.05909005
-0.08623379
0.13287833
-0.15210694
0.11348116
0.10977859
-0.02077584
-0.08436494
0.15484497
0.08942807
-0.04443891
-0.12495598
-0.14354520
-0.14958000
-0.05283125
-0.16701154
0.11889049
-0.05462312
-0.03212804
-0.02257117
0.04172216
-0.16681698
0.10547560
-0.02078532
0.06360997
-0.01598173
0.02421024
0.13613676
-0.12775841
-0.06022777
0.15383090
0.11412145
-0.12093286
-0.15040806
0.16992928
0.15406147
0.13421482
-0.06431212
0.13447064
-0.06919888
-0.11642919
-0.10944168
0.08032311
0.11957401
0.11862154
-0.09288122
0.17006196
0.06829824
0.10260063
0.01983519
-0.03888044
-0.09483361
-0.04618275
0.01617557
-0.01036956
-0.00404965
-0.08775266
0.15053920
-0.10754227
-0.11666437
-0.08680873
-0.15679428
-0.14507289
-0.05604777
-0.04271719
-0.12327889
-0.10202354
-0.08283133
-0.12230916
-0.09540068
0.00134659
-0.14095215
-0.13927341
0.07433730
-0.07396486
-0.12069128
0.01393552
-0.07429294
0.12859643
-0.08266235
-0.15542080
-0.08197256
-0.12315176
-0.02744618
-0.02460691
0.00196492
0.11014684
0.00728119
0.10285520
-0.05616250
0.10652059
0.07295751
0.14262278
0.10760573
-0.01581878
-0.04176922
-0.09962735
-0.06772127
0.04108953
0.10345583
-0.05409142
0.00190196
0.09799135
-0.02094580
-0.06177290
-0.05716746
-0.14442143
0.11716710
-0.06341184
0.04925724
-0.07220323
-0.14833860
0.17537963
-0.14390492
0.05694155
0.02605779
0.12364572
-0.14527814
-0.12719983
0.03868004
0.09785964
-0.00193262
0.03481547
0.06955321
-0.14198475
-0.01107723
-0.15308654
-0.11071479
-0.13789327
0.07572509
0.13692580
-0.12744081
0.04892094
-0.02211087
-0.11098392
0.10533541
-0.05995613
-0.10278686
-0.07349611
-0.15020816
-0.04706244
0.16743343
0.17145042
0.11831463
0.13882039
0.08563595
0.15681328
0.04791734
-0.00314720
0.01745080
0.10179937
0.06780303
-0.07816297
-0.14418717
-0.11405778
0.06809039
-0.12241759
-0.05020277
-0.09752074
0.13324544
0.12073097
0.07199875
-0.04757114
0.17374244
0.16725762
0.04567846
0.15594167
-0.15195769
0.13429804
-0.02912721
0.02856200
0.15337721
0.06658116
-0.05106982
0.15809959
0.07293685
-0.09487161
0.14265770
0.01027670
0.07411841
0.11256326
-0.04526906
-0.01693738
0.09950337
0.08201188
-0.11018173
0.14410743
0.10213718
-0.07685664
-0.02041495
-0.15917827
-0.07609547
-0.15261413
-0.00614151
0.00518518
-0.03799582
-0.02100949
-0.10851663
0.05977756
0.13419122
-0.08969891
0.16832700
-0.11816468
0.07688880
0.02295127
0.05067684
-0.05741820
-0.10678079
0.12815872
-0.07488888
0.03964032
0.08841986
-0.02292975
0.03616430
-0.06938376
-0.12508354
-0.14755510
0.03366746
0.10980031
-0.12370759
-0.10210832
-0.12249861
0.11752976
-0.16785091
-0.00402682
0.06879617
-0.14702550
-0.09569707
0.14528385
0.05279095
-0.05011081
0.16633160
-0.10225136
0.07565439
-0.05524220
0.15151435
-0.02055018
0.12629147
0.14547431
-0.00293385
-0.10530985
0.05619552
0.03279643
0.00524435
-0.11135763
-0.04265293
-0.08816588
-0.17099346
0.12526734
-0.03359402
0.05076891
-0.10166864
-0.15407328
0.04430846
-0.07862586
-0.03205338
0.01931977
-0.05666203
-0.02344014
0.13842602
-0.16159707
0.03546239
0.01142211
0.10002117
0.11584765
-0.10105785
0.15900353
-0.02076882
0.08639146
-0.02902937
0.09882181
0.02474086
0.09789671
-0.16405903
0.04904805
-0.08977175
0.02737429
0.02769037
-0.16772404
0.08342484
0.12276551
0.06214654
0.01343430
-0.12955436
0.12006728
0.12476602
0.07532447
-0.14536294
-0.14380811
0.09761608
-0.14048882
-0.16148522
-0.12803416
-0.15678243
0.01464127
-0.17110446
0.15017004
0.01966964
0.08978960
-0.00321541
-0.10243836
-0.05412881
-0.15859376
-0.14619105
-0.08155327
0.16700697
-0.11496812
-0.11311096
-0.13061215
0.14373457
0.03568171
-0.17183550
-0.12464267
0.00371595
0.01209643
-0.14899787
0.17390943
0.12883405
-0.05422293
-0.06783979
0.08842296
0.14634843
-0.03862344
0.01606098
0.16114689
-0.15731275
0.12995920
0.10635060
0.04508551
-0.08433731
0.12509733
0.10671924
-0.14787190
-0.07964816
0.08868879
-0.10338925
0.13132435
-0.11484747
-0.17159274
0.08351357
-0.08835280
-0.05225988
-0.05805861
-0.13387740
-0.07782002
0.13679862
0.03998730
0.12765883
0.12340881
0.12105481
-0.16402195
0.16878039
-0.01605080
0.14361039
-0.03533239
0.03042409
0.15873083
0.01158032
-0.03486856
-0.03192611
0.12104060
-0.12915562
0.09644656
-0.11329504
-0.07688791
0.00841206
0.00094566
0.06619102
-0.10582197
0.00698826
0.03602682
-0.00420916
-0.07093246
-0.08917661
0.09552772
-0.13482055
0.06888558
-0.09808952
0.11902703
-0.06857204
0.16836469
0.04690061
0.15949304
-0.05771837
-0.06820310
0.07664188
-0.16372655
-0.14013505
0.06522409
-0.08698064
-0.12532350
0.01053876
-0.13924013
-0.09936743
0.14668669
-0.10230079
0.09802772
0.07540938
-0.07144625
-0.06204558
0.04886089
-0.10121080
0.03039684
0.08580101
0.08705811
-0.06044519
0.04083842
0.08353539
-0.16495138
0.10522995
-0.09035459
0.03767729
0.16512425
-0.15873799
0.07444964
-0.05668271
-0.11144990
0.10562903
0.13375592
0.01450053
0.08111361
0.12085488
0.05889675
0.13362934
0.02503425
0.14487332
-0.14858176
0.12728378
-0.11490251
0.04469012
-0.04385394
-0.12324835
-0.09997804
0.16832957
-0.03546264
-0.09322457
0.09949163
-0.09371652
0.06871887
0.07275242
0.06861100
0.06904831
-0.05010545
0.14009918
0.14710614
-0.07397647
0.03778527
0.10857175
-0.00086400
0.00840109
0.04606260
-0.10838883
-0.11846568
-0.15374704
0.15954050
0.01158347
0.12703550
-0.16548009
-0.05349276
0.06888425
0.08306198
0.06077487
-0.05764408
-0.09609649
0.14686899
0.04460980
0.14742649
-0.06746981
0.03161258
0.12056034
-0.08282987
0.05740390
-0.06386311
-0.08106048
-0.13807198
-0.06390367
-0.00765163
-0.05849891
-0.09815508
-0.07699321
-0.15987521
0.07651773
-0.08214770
-0.02710029
0.02875234
-0.07829941
0.14346008
-0.14465362
0.05614187
0.12523350
-0.06153514
-0.15235293
0.15679900
-0.04174285
-0.08365099
-0.08729953
-0.05153371
-0.15994784
0.16827327
-0.03023158
0.16002405
-0.02791272
-0.15632389
-0.04117955
0.05159592
-0.00435277
0.01901042
0.07104814
0.08668283
0.00372327
0.14421931
0.17275870
0.01782648
-0.07731618
0.13375135
0.07566650
0.11311280
0.11365978
0.15284595
-0.09014715
0.00972893
-0.17277357
0.03636947
-0.10514070
0.05678930
0.08125037
0.03529605
0.09038290
0.05266255
-0.12538530
-0.12275158
-0.09568845
-0.12809801
0.15948147
0.09374446
-0.02406831
0.07579862
-0.11740559
-0.15047139
0.05233553
-0.05403417
0.04782960
0.08816163
-0.11046052
-0.04771628
-0.03961414
0.04021202
0.01470650
0.13257021
0.14210762
-0.06415074
-0.10635257
-0.06867526
-0.03728425
-0.08384040
-0.15130734
0.06549592
0.14381668
0.04849770
0.14514744
-0.00375851
-0.10624448
-0.00022222
-0.02530810
-0.14657098
-0.12201297
-0.07612909
0.08837265
0.08758742
-0.01847067
-0.01881013
0.11554068
-0.07406500
-0.13625260
-0.01560825
-0.10493439
0.12884240
0.08037589
0.13043682
-0.15704973
-0.01411342
0.10524624
0.03100887
-0.04945741
-0.00993483
0.03845158
0.13824575
0.08028477
0.06897109
-0.11182833
0.16858555
-0.10320009
-0.06910568
-0.00644379
0.12982188
0.16017991
-0.14874506
0.04048137
-0.06922296
-0.10427143
0.11904013
0.01108186
-0.02824218
-0.16881089
-0.15332194
0.15746850
0.14962587
-0.16920517
-0.11999995
0.10366130
-0.06166178
-0.06280470
0.13313706
0.02133890
-0.01545678
-0.11480456
0.12132547
0.09626998
0.09934995
-0.02937758
-0.03096751
-0.13206163
-0.07348090
0.00762406
-0.09797841
0.03521450
0.03656997
-0.12944233
-0.11382818
0.01965278
0.12814800
-0.13602664
-0.09931245
-0.13281076
0.07797737
0.10480496
0.16100213
0.16118017
0.06426024
0.09463186
-0.17159104
0.14741170
0.07914262
0.07698216
-0.08763591
0.11644248
-0.13791767
0.09747628
-0.05846328
0.00679553
0.09271374
0.06745382
0.12389094
-0.08816974
-0.05076603
-0.06252425
-0.10352062
0.11360709
-0.13085522
-0.09844305
0.05917291
-0.13586465
-0.12134796
-0.14927365
-0.05799837
0.05211759
-0.00791286
-0.08478819
0.04188275
-0.00910285
0.09161256
0.14856075
0.14888477
-0.01739858
0.02850786
0.13791278
-0.14384644
0.16464296
-0.05426132
0.04163603
-0.07269192
0.16796473
-0.07675157
-0.09785803
0.16926363
-0.07991831
-0.01315057
-0.15997145
0.14007665
0.02275380
0.03145150
-0.15499187
-0.09783883
0.03740855
0.05824524
-0.05117988
0.13741419
0.08086827
-0.13231269
-0.00958179
0.07699254
0.03572734
0.14596918
0.15637952
0.15782206
0.07068142
0.14127451
-0.07614603
-0.11509222
-0.08572192
0.12991318
0.06914622
-0.04847771
0.16360566
-0.10702217
0.11463659
-0.06414448
-0.13763221
-0.11541993
0.01543326
0.00146220
0.07095619
-0.03349111
0.04584391
-0.11734184
0.02563258
0.07669447
-0.00521099
-0.00054626
-0.10056295
0.07518658
0.04047312
0.05028993
0.06916519
-0.13900328
-0.09812319
-0.01734309
-0.04962976
-0.05634476
-0.03972387
-0.03474645
-0.11336619
0.02551728
-0.10083235
-0.15167077
-0.03442355
-0.14720015
-0.05184569
-0.12574095
-0.05443179
-0.05775983
0.00703736
0.07857913
0.07685417
-0.13977902
0.09593241
0.02368997
-0.15591860
-0.06864505
0.01455484
0.10009885
0.04270128
-0.04285039
0.11986920
-0.05034022
0.09789662
0.12558809
0.11691052
-0.11573206
0.14213842
-0.11450489
-0.11465888
0.16987748
-0.14798932
-0.12164953
-0.04194236
0.02609360
0.08499877
-0.09239434
-0.09503217
-0.13599814
-0.17040201
-0.11786389
0.09973606
0.11213481
-0.13269404
-0.06899265
0.11083788
0.10614127
-0.17142279
0.12692481
0.08436134
-0.12251351
0.00798071
0.08881840
-0.05770190
0.16889277
0.12932038
-0.14526331
0.00637552
-0.11325804
0.06094845
-0.00374255
0.02925801
-0.06949195
-0.10992675
0.14706886
-0.14494075
-0.09521249
0.16166013
0.07854146
-0.03033900
0.12335619
-0.02203633
0.01727329
0.03175271
0.00766173
-0.10078087
0.07141173
0.03507259
-0.00689429
-0.16411218
-0.11798264
-0.03195770
0.04863530
-0.06355736
-0.14108071
-0.01655912
0.03213564
0.09027961
-0.08179919
-0.02028017
-0.06507513
0.05091605
-0.14670092
0.14167899
-0.14512236
0.05587231
-0.09504066
0.10705689
0.16519520
0.06536263
0.12336808
0.13856843
-0.05611975
-0.16614746
-0.14508240
0.00168692
0.05805819
0.02222650
0.04627280
-0.14712663
0.05283801
-0.00486062
0.00225733
-0.16470617
0.07410410
0.05423260
-0.13152379
0.06928180
0.12441817
-0.13311538
0.03136250
-0.10729966
-0.03012381
-0.04504773
-0.14858299
-0.07619402
-0.06661412
0.11399582
-0.01515216
-0.08156946
-0.00158459
-0.09472173
0.07732585
0.13923544
-0.00122225
-0.14168313
0.11727661
-0.09648835
0.05420373
0.10562530
0.02300607
-0.10976417
-0.09152341
-0.12972662
0.09478226
-0.14948943
0.08620697
-0.11103313
0.08284521
0.10517395
-0.13324496
0.13314688
0.05869748
0.03788321
-0.13321544
-0.06915923
-0.05110963
0.08449474
0.06608400
0.11911992
0.05187570
-0.01035357
0.06527182
0.01301901
-0.11168568
0.07678978
0.13030833
-0.09649687
-0.13345455
-0.16541195
0.16634899
-0.12072377
-0.05242116
-0.14324568
-0.10329379
0.07169637
0.10724536
-0.10422441
-0.13992742
-0.00287517
0.11425497
0.08112977
-0.02219915
-0.02785186
-0.12504034
-0.15229686
0.12023002
-0.04142989
-0.05608610
-0.07542573
0.16463464
-0.14611362
0.13151315
0.09540313
0.15328088
0.02364232
0.08030322
-0.14920127
0.11582339
0.08091547
0.12430862
-0.04181757
0.08764945
0.02284701
0.06302850
-0.05394836
-0.06035747
-0.01705853
0.10319817
0.07843593
-0.05957984
-0.02654950
-0.14179368
-0.04750040
-0.12677433
0.05043697
-0.12014030
-0.11189041
-0.06163808
-0.10244392
0.07232769
0.08196130
-0.00163043
0.00721351
0.02333629
-0.09297416
0.09594518
0.07005093
-0.06070443
-0.15966134
-0.13340975
0.12406042
0.05775629
-0.12664086
0.07769053
0.07219791
-0.01911242
-0.08074050
0.04060739
0.06035590
-0.15581317
-0.07014008
0.11740190
0.04911950
0.06765473
-0.09068090
0.06028146
0.07549901
-0.13859978
0.01099333
-0.05653327
0.00025620
-0.12085632
-0.05854294
-0.03063422
-0.03308716
-0.06538869
0.04579809
0.00590494
0.02052575
-0.05905506
-0.03009549
0.02548717
0.11556867
0.07349883
-0.02734010
0.06088543
0.06832445
0.04518330
0.16826525
0.10158777
0.06941420
0.04941715
0.01859346
0.11499423
-0.01123253
-0.09699454
0.08303210
-0.11747825
0.00046924
0.17112681
-0.16482989
0.03740495
-0.06041999
-0.08978265
-0.05900637
0.12729633
-0.15804756
-0.04948644
-0.17132325
0.09166420
-0.16800199
-0.02873348
0.09622124
-0.15199828
-0.12007660
-0.05046184
0.06879510
-0.17207552
-0.11647156
0.13964796
0.16549814
0.17121938
-0.15966406
0.14889190
-0.02366936
0.14338028
0.09907809
0.08163518
-0.11380260
-0.03641759
0.17147502
-0.04913217
0.01846437
0.11541367
-0.02910493
-0.07102735
-0.13959904
-0.01141530
-0.17114027
-0.11649410
-0.12288443
0.08749622
-0.09717616
-0.04809172
0.13193214
-0.00517781
-0.01257500
0.07582653
-0.15296195
-0.02128609
0.05368349
-0.02513942
-0.15814728
0.15637353
-0.03407297
-0.03525500
-0.01820792
0.05900939
0.07722062
-0.11664657
0.12333715
-0.12480111
-0.06846543
0.11452618
-0.05385016
-0.00359426
-0.00710171
0.02539410
-0.14821605
-0.06060149
0.03438050
0.10497659
-0.06587172
-0.01816803
0.16456813
0.14497054
0.06263413
0.17489620
-0.13867611
0.02186022
0.15668398
0.06944321
0.15972874
0.16881374
0.06154010
-0.06307350
0.07977214
0.06507567
0.15991771
0.07659446
-0.07305239
-0.13633421
-0.00918287
-0.08070631
0.01086112
-0.01997161
-0.09769753
-0.09826043
0.17355655
0.08741669
-0.06673192
0.04577332
-0.05311213
0.16099834
0.05839272
0.17205296
0.14024201
-0.09887635
-0.16342929
0.12325948
0.08246247
0.00687998
0.01708177
-0.16212158
0.14485325
0.16914374
-0.13199541
0.10848761
0.10392807
0.09742006
-0.14239821
-0.09528258
-0.13745360
0.16668580
-0.09173305
0.03618539
-0.00923354
0.00299515
-0.16246153
0.09563372
0.10128228
-0.05861421
-0.06638300
-0.13096294
-0.14852951
0.05013350
-0.16977498
-0.08663300
-0.01516206
0.09330952
-0.06646987
0.05185795
0.00179297
-0.13322933
-0.01362790
-0.02675955
-0.01382565
0.00076704
0.03119118
0.12953612
0.05868668
-0.13502721
-0.12721209
-0.03410698
-0.03201389
0.16200040
-0.09612014
0.16731076
0.16202065
-0.09721094
-0.15514413
-0.02569488
0.05186200
-0.01875832
-0.16200575
-0.09781165
-0.05425622
-0.03167809
-0.02088593
0.02952736
0.13827306
-0.00935111
0.10477044
0.15014072
0.01229844
-0.11056146
0.14966765
-0.09303718
-0.07293361
-0.16481204
0.00680423
-0.02670654
0.08274945
-0.01108399
0.07306728
0.01162207
-0.13001341
0.14273155
0.02955862
0.06747992
0.05237465
0.03761791
-0.12235114
0.10441618
-0.12192424
-0.12623134
0.05354910
-0.06780320
0.02770958
0.05589492
0.15377867
-0.13644943
0.02664034
0.05457121
0.11221524
-0.12180975
-0.12721118
-0.06760123
-0.03650878
-0.06102199
-0.04668980
-0.10338201
0.12740004
-0.00995415
0.15098074
-0.13077514
-0.02578830
0.17146090
-0.13404703
-0.08608790
-0.12282956
-0.03472720
0.09399262
-0.03233299
0.02827666
-0.06175380
-0.13826111
-0.02980304
-0.09229595
0.07864123
-0.01606349
0.15654303
0.13853219
0.15981425
-0.13419774
-0.14253351
0.04999187
-0.15285003
-0.02328425
0.13422334
-0.10365167
0.06001405
0.09720526
0.05542335
0.12035540
-0.00635730
-0.13955036
-0.09315730
-0.02880035
0.12006818
-0.02323584
-0.16839114
-0.03876002
-0.16927812
0.15757717
0.04756844
0.08924264
-0.13679793
0.00378955
0.14014253
-0.09754749
0.04386212
0.03970223
0.15798625
-0.00932434
-0.09867927
-0.02770991
0.03743057
0.16331147
-0.04652655
-0.11957359
-0.06987581
0.16421083
0.15064719
-0.01364617
-0.02946089
-0.12279507
-0.04380413
-0.17050608
-0.04918141
0.05747007
-0.15368646
-0.01239230
0.01792869
-0.05175445
-0.14561468
-0.14723958
-0.06555845
-0.14083517
0.01554494
0.03335449
-0.05878399
-0.14137490
0.13076000
-0.15944365
0.03522176
0.11746100
-0.12516235
-0.02370390
-0.08362676
0.04538327
0.01579075
0.02629834
0.10176131
0.07019377
0.05042718
-0.04732815
-0.05605401
0.12759504
-0.10799693
0.14545885
-0.12623721
-0.03189819
0.02596876
0.12183796
0.02214175
0.06976132
0.04468329
-0.16816042
0.03520418
0.14694104
0.09588739
0.16076729
-0.09474484
-0.07016040
0.09120403
-0.14197251
0.02525225
0.12363274
-0.16025554
-0.10828725
0.16682279
-0.16669983
0.04888453
-0.15654242
0.13136302
0.14076217
0.00006034
-0.13065521
0.05883377
0.12442145
-0.04903897
0.06644925
-0.09255998
-0.01988737
0.02476245
-0.09251735
0.15444984
0.02672566
-0.09093296
-0.08153398
-0.07884077
0.06161883
0.13000089
0.13047615
0.09277804
0.02873764
0.14334965
0.09093433
-0.09429427
0.15485385
-0.12665114
-0.02529275
0.11223593
0.03878131
0.13330457
0.11534134
-0.04864639
-0.07570296
0.13302194
-0.01647254
-0.02795124
0.15768471
-0.06212208
-0.13665637
0.16169125
-0.08832025
0.11869225
0.01086143
-0.02740369
0.16284290
0.08304812
-0.07088991
-0.00123452
-0.11858466
0.04265499
-0.06620243
0.16920042
-0.10643049
-0.09950917
0.09905887
0.08185396
0.13910916
-0.01447858
0.04760473
-0.07875746
-0.02351547
-0.11157387
0.00102498
0.17332768
0.06627370
0.16454774
-0.10614893
0.10998055
-0.05793736
-0.00656128
-0.12869141
-0.07594148
-0.06699749
-0.06381719
-0.07269277
0.12052586
-0.09942176
0.12304034
0.15313752
-0.04267119
-0.04013563
0.04473372
0.04069972
-0.16130297
-0.13095400
0.09042826
-0.11975814
0.13429566
-0.15151255
0.05322297
0.09038501
0.11931589
0.06867697
0.17085069
-0.01616522
-0.10982702
-0.05263638
-0.07936395
-0.09239484
-0.11162809
-0.07262070
0.14922503
-0.10351249
-0.12309454
-0.09359363
0.03350409
0.04066721
0.07266435
-0.01342817
0.12842187
-0.00166259
-0.16870251
0.01343696
0.09924366
-0.04585828
-0.11603030
0.07876575
0.04591642
-0.16117994
0.04724036
-0.11312103
0.15913425
0.06699097
-0.12679669
0.14011234
-0.05864033
0.17081279
0.04154871
-0.05896916
-0.07801826
-0.13778070
-0.08187958
0.05250773
-0.08338879
-0.07034260
-0.15659584
-0.14055604
-0.16458903
-0.01995762
0.17177477
-0.13009411
0.09363109
-0.16635506
-0.17080685
-0.05242977
0.14276369
0.11958648
0.12640107
0.04250525
0.11135268
-0.16035886
-0.01398206
0.13935369
-0.06983091
0.01440137
-0.07787183
0.03098541
-0.11267006
-0.15230371
0.06561449
-0.02640565
0.00035803
-0.00307904
-0.16763899
-0.07601151
0.12336563
-0.04072064
-0.13423131
-0.11631477
-0.07512785
0.09983195
0.05270967
0.03706295
0.08505768
0.02098819
0.05116621
0.08538979
-0.08597965
-0.03906441
0.05215362
0.16406398
0.08928841
0.06276718
0.10561676
0.08328168
-0.00298734
0.11018264
0.09635904
-0.01767628
0.11755576
0.00555148
0.14918336
0.04229303
-0.01262741
0.03479488
0.09062812
-0.15695234
-0.16146430
0.05498313
0.16478328
-0.07465409
-0.15308081
0.09722858
0.00214471
0.02703422
-0.15160146
-0.12942781
-0.00564715
-0.14317062
-0.16048409
-0.13399945
0.01554809
0.13135920
0.15606309
0.01904453
-0.14741635
0.11289942
-0.17162889
-0.01081495
0.01990397
0.01460241
0.02097929
-0.03399174
-0.11644023
-0.07495412
-0.11011893
0.13713886
-0.16410360
-0.08199257
0.07291128
-0.02977908
-0.04955385
-0.06868899
-0.07404581
-0.13634522
-0.03999860
-0.05361560
-0.14876673
-0.01858807
-0.06985820
0.13276696
-0.08703201
0.15364636
-0.07363828
-0.13120015
0.16985829
0.06262603
-0.06269442
-0.10284429
0.03042792
0.16626778
0.05953272
-0.09437171
-0.11168429
0.14640029
0.10069580
-0.10574614
0.04060502
0.14844719
0.16201505
-0.05257500
0.04881594
0.10797990
-0.08759958
0.09001404
0.16956626
-0.00992070
-0.03043076
-0.11419912
0.07929298
-0.14802711
0.11227924
0.15781797
-0.15036114
0.05199265
-0.10609374
0.01632251
-0.16094367
0.16182855
0.07233444
-0.16672899
-0.02968013
-0.04203528
0.17171834
0.04296770
-0.00036563
0.12840378
-0.13321359
0.09879101
0.13229802
0.04818870
0.13686335
0.06496356
-0.07802658
0.05805216
-0.00741978
-0.00316764
0.06485829
-0.02446604
-0.14403774
0.10295250
-0.10650007
-0.16072255
-0.07065277
0.03871860
-0.05215592
-0.04687010
0.09884134
0.11624420
0.17100401
-0.06812895
0.10505801
0.00403020
-0.02098300
-0.07471243
-0.13498336
0.07796293
-0.14445512
-0.13379188
0.01219102
0.12542914
-0.04894397
-0.05546048
-0.04755720
-0.15474153
0.06664617
0.12559396
-0.10019561
-0.14353724
-0.11876801
-0.16616163
0.17110249
0.10113927
0.08751173
-0.10951675
-0.04932719
-0.16404641
-0.03797686
-0.10674565
0.10296819
-0.10176499
0.03235000
0.07824302
-0.11082385
0.03463681
0.12249088
-0.01057503
0.09712872
-0.03345923
-0.05436457
0.11334023
0.12240663
0.00873552
-0.15581599
-0.07238518
0.12230027
-0.11505979
0.13062108
0.09789461
-0.09191217
0.12804070
-0.08971529
0.12049174
-0.02307668
0.02899909
0.14771476
0.12250546
0.02107741
-0.03587002
0.07404591
-0.03648923
-0.05984702
0.14505872
0.01268262
0.07175754
0.16971314
0.16427892
-0.16430566
-0.12110907
-0.12101582
0.10273588
-0.01357083
-0.03442939
0.08767387
-0.16048807
-0.03246658
0.05490278
-0.12042187
0.04961950
0.15612552
0.08863717
-0.07232105
-0.05875971
0.12005731
-0.01722275
0.01334834
0.08317623
-0.11121826
-0.07591329
0.06295609
0.16971743
-0.15813154
0.05584088
0.06623578
0.09894550
0.04210474
0.12137175
-0.10171584
-0.00554988
-0.12058491
-0.13259140
0.17164648
0.17066067
-0.05389021
-0.04194741
-0.01487985
0.10779113
0.10716248
-0.16268733
0.01061594
-0.11014165
-0.10244747
-0.00779420
0.12032804
0.06112407
0.04554415
0.13370219
-0.15573275
0.03286603
0.16410330
0.02992539
0.12200803
-0.15545763
-0.14182353
-0.11243160
0.17146027
0.12194452
0.06989214
0.15288526
0.04200959
-0.02098653
-0.00010489
-0.02075358
-0.16733024
0.10693216
-0.15321235
-0.07209714
0.14304128
-0.02377533
-0.04057908
0.08084238
0.12147692
0.09350289
-0.08491606
0.12631491
0.12227947
-0.15334888
-0.09507392
0.01440033
-0.06939879
0.08179519
-0.02135300
0.08580652
0.08319753
0.15649237
0.16864924
0.03682047
0.09358400
-0.10070071
-0.12704660
-0.14980936
0.06436393
0.16916065
-0.15643814
-0.05069951
0.07996955
0.02253671
0.13445178
0.03653291
0.07357259
0.06681652
0.07563764
-0.11476436
0.10537229
0.00648318
0.15815100
-0.13016896
0.02577562
0.11872988
-0.07550930
-0.07307994
0.10609090
-0.08241529
-0.16996787
0.12565863
-0.11808384
0.10036743
-0.01557680
-0.04394482
-0.13697986
0.16877942
0.08945675
0.00880889
0.00995677
0.08187647
-0.15697739
-0.02077372
0.08982908
-0.08320695
-0.13087167
0.09964806
0.07309060
0.15132758
0.07077059
-0.10185179
-0.05679709
-0.14446251
-0.14723130
0.15952405
-0.07897162
-0.13390893
-0.05372897
0.14334555
0.04304684
0.17288372
-0.07409646
0.02038438
0.02737648
-0.16506921
0.00891657
-0.00439820
-0.00714970
0.10612492
0.08928358
-0.06936903
0.16312735
0.04623530
0.08485164
0.04861811
-0.01446529
-0.01283178
-0.06324141
-0.05768922
-0.11153144
-0.11587468
0.06720077
-0.00185974
-0.02557720
0.13451216
0.09791678
0.02070827
0.15677276
0.05725790
0.14988570
0.10376022
-0.04361855
-0.03784842
-0.10871989
-0.13536716
0.07785559
0.01765736
-0.07681804
0.15986441
0.07746606
-0.00277903
-0.08041353
-0.11632323
-0.15353546
0.08474956
-0.15681927
0.12529989
0.03700739
0.15223987
-0.14657642
0.02486298
-0.09696224
-0.08458266
-0.13757567
-0.06334745
-0.01063618
0.10397270
-0.00806642
-0.02688736
0.11588152
0.04804837
-0.06659509
0.10103590
-0.08000322
0.09897837
0.16250302
-0.15261403
0.07506689
0.01359199
0.08436494
0.10748581
0.12123779
0.08760283
0.13174225
-0.00315888
0.10872381
0.06993244
-0.08465298
0.12341670
0.15928538
0.15633442
0.05068817
0.09358983
0.14576671
-0.12783702
0.04321331
-0.11685161
0.04914465
-0.03132870
0.16321543
-0.17010844
0.16544440
-0.08194022
-0.14244922
0.06218669
0.08829963
-0.00128253
-0.08725842
-0.02508244
0.01907818
-0.06563324
0.08559356
0.08525684
0.10127264
-0.04823476
-0.15010425
-0.16081472
-0.16344464
-0.05212096
-0.06146463
0.04551485
-0.07855807
0.11076975
-0.09478484
0.10706576
-0.00247954
0.14331774
-0.04493731
-0.08614004
-0.08579405
0.14119998
-0.11518115
-0.00860089
-0.00797784
0.02592767
0.03446051
-0.07242751
-0.06533508
0.11546453
0.16373883
-0.09707825
0.10842726
-0.04479519
-0.15052535
0.07550419
0.05819702
0.05926577
0.16390350
0.15349001
-0.04847989
-0.01166990
-0.13712317
-0.04130629
0.03381553
-0.00071961
-0.10621785
0.04815665
0.04975421
0.16987428
-0.06351342
0.14068745
-0.11013614
-0.16138598
-0.04124959
0.05861113
-0.15768722
-0.03006873
-0.14985758
-0.15124989
-0.01594026
0.16135912
-0.09741047
0.02229176
-0.00405221
0.06692512
0.06319156
0.12317599
-0.13287196
-0.07604176
0.06582108
-0.13221000
0.02309076
0.00385732
-0.03010006
-0.17099485
-0.06188745
0.14685552
0.08286604
-0.11588799
0.11426428
0.04540964
0.15675414
-0.04859694
-0.08451741
-0.11083413
0.05811042
0.07329136
-0.05860107
-0.14981808
-0.05217201
-0.04169545
-0.07051866
-0.02906567
0.01394034
0.05518250
-0.12524746
-0.14383921
-0.01427044
-0.01928232
-0.09742520
0.01264165
-0.17099458
0.04945981
-0.09095985
-0.08602628
-0.09059945
-0.02274144
-0.03807235
-0.06366827
0.07726685
0.14214179
-0.04199258
0.12647349
-0.01611074
0.04619136
0.05297540
-0.16097364
-0.03171088
0.09613001
0.04365687
-0.16440657
-0.00236630
0.03350735
0.15405178
0.08334926
-0.14364119
-0.16842006
-0.12406118
0.08839282
-0.08460417
-0.14648969
0.00652714
0.07394263
0.12161514
0.09946012
0.05862576
0.10966972
0.14766571
0.16835746
-0.06827308
-0.12821887
-0.07981595
0.09739384
0.11239496
-0.07929112
0.15687707
-0.02914342
-0.02488492
-0.04274143
0.08284768
-0.00207315
-0.00530373
-0.03695500
0.04396790
0.07055315
0.06719044
-0.04725723
-0.16534828
-0.12404025
-0.10523634
0.15067583
-0.08295253
0.06206816
-0.08410999
-0.15704858
0.12605760
0.04331337
0.08431914
-0.06854794
-0.13463192
-0.04180799
-0.05496889
0.05241902
0.14034814
-0.05420493
-0.01092224
-0.16205154
0.03885926
-0.09038007
-0.04862469
-0.09265371
-0.03566498
-0.17105046
-0.10148545
-0.07880636
-0.13673356
-0.00224894
-0.05738404
-0.00048344
-0.11208332
0.11954385
-0.08972669
0.09066460
-0.13831937
-0.09652134
0.06290948
-0.13660417
0.05863178
0.06617032
0.03636280
-0.13990492
-0.12986714
-0.12627718
0.06761000
0.14163744
-0.00957948
0.05667041
0.08104616
-0.10498234
-0.02096133
-0.03744783
-0.07879719
0.12555602
0.10772172
0.06221844
-0.07010449
0.06977834
0.10556579
0.13353685
-0.06479283
0.13650578
0.08821160
0.01308532
-0.02701238
0.11574882
0.04269390
-0.13469125
0.09019279
-0.12174245
0.08551747
-0.02921614
0.09438807
0.16998252
-0.01733333
-0.11834674
-0.14318265
-0.10015479
0.03161308
0.01085418
0.01056544
-0.11070421
-0.12104815
-0.15776142
0.07209669
0.16756642
-0.04906225
-0.12362374
0.00490490
0.12249187
0.10025126
0.00370716
0.06947903
0.02749850
0.10521841
-0.15443459
0.04392739
-0.05302887
0.08565766
-0.01942965
0.08129063
0.10817084
-0.08257571
0.14988562
-0.10212012
-0.14388920
0.12580958
0.07953975
0.00897628
0.15172112
0.11349037
0.04992759
0.06536263
-0.11403584
-0.03952651
-0.04384534
-0.07522833
0.16321233
0.07487091
-0.12309760
-0.15400639
0.07502082
0.10871923
0.03510845
0.16967207
0.04335664
-0.06214461
-0.01479061
-0.15297979
0.13211015
0.07153170
0.08888438
0.12289524
0.05183862
0.07577500
-0.04412462
-0.00693935
0.07876924
0.00224023
-0.13127935
0.16832605
-0.15821104
0.14405975
-0.04905994
-0.12390055
-0.12393853
-0.06578066
-0.15252715
0.03915109
0.11633784
-0.14469910
-0.04674707
-0.08859595
0.13266346
0.17279774
-0.07214423
0.08818716
0.12412867
0.09911046
0.01933333
0.00383787
-0.16862968
-0.12563163
-0.08057985
-0.13846011
0.03030116
0.08173209
-0.15328391
0.12495089
-0.12054094
0.10604908
0.00683112
0.10507930
0.06892262
0.06851302
-0.15969113
-0.04207748
0.11089744
-0.05436926
0.14361534
0.15258668
0.02049791
0.04942904
-0.01146540
0.10249278
-0.03440295
-0.00402559
0.03522126
0.05887065
-0.09640180
0.12855545
0.00868418
0.10985657
-0.15374219
-0.15382817
0.12100552
-0.01934797
-0.10807807
0.11904928
0.11879476
0.17164321
-0.16249983
-0.13315165
-0.15972218
0.06464373
-0.08178221
0.06246361
0.17137478
0.09922767
0.11612105
-0.12094179
-0.02939375
0.14892949
-0.09823900
-0.02830567
0.15773842
-0.05099942
0.14975469
-0.12364949
0.16369882
0.13554661
-0.12040098
0.17141341
0.14515319
0.08444121
-0.14893177
-0.16935118
-0.00651495
-0.13831590
-0.06094705
0.04165021
-0.13926913
0.11224648
-0.01908074
-0.05423547
-0.12415268
0.02694790
-0.06865587
0.03533269
0.03217294
-0.08710409
0.03577814
0.05781801
-0.08132318
0.02927635
0.11835799
0.03658544
0.00440163
0.06658047
-0.15205626
0.06376415
0.03763698
-0.02642217
-0.14686407
0.02913624
0.07158371
0.13322490
-0.06136890
-0.03257589
0.06451304
-0.14536229
0.08584419
0.14466839
0.09684572
0.16017592
0.15714931
0.05482233
-0.09832226
0.06803174
-0.02220952
0.08880465
0.17331916
0.09563125
0.15448697
-0.10210684
-0.00560409
0.01035963
-0.03215713
0.05711941
0.12837708
0.04527699
0.04614425
0.13930590
-0.06057642
-0.15015444
-0.12275370
-0.08668768
0.08741154
0.12046152
-0.10774140
0.14939114
0.09629188
0.11422323
-0.15661283
-0.01966217
0.12360910
-0.14154892
0.00807322
-0.11979146
0.16532986
-0.05745087
-0.11308009
-0.16827486
0.04335079
0.02928333
-0.04175733
0.02534613
0.04774683
-0.12267821
-0.02916804
-0.09352532
-0.15880474
-0.16303693
-0.02842743
-0.00873804
-0.04694624
0.11401394
-0.01937935
0.14459027
-0.14328064
0.13300388
0.04879512
-0.08394348
0.16436203
-0.14265245
0.09015125
0.15007034
-0.10229553
0.13871594
0.03083780
0.13504443
-0.02684671
0.16335627
-0.03648028
0.07637420
0.06477798
-0.02512828
-0.04428037
0.06685351
-0.04080388
-0.03306979
0.08504620
-0.04652778
0.08736207
0.02885922
0.13146235
0.04001946
0.14236015
-0.13931483
0.09825993
0.06653423
0.11781047
0.16722313
-0.10703176
-0.16061683
0.15083563
0.05432072
0.11220236
-0.04641458
-0.11364117
0.10653301
0.08834571
-0.13135044
-0.14836523
0.16445708
0.09473622
0.17048174
0.12795985
0.16768295
0.16062686
0.12216642
-0.11101815
-0.03008056
-0.03239440
-0.07224035
-0.10743866
-0.06236946
0.11310405
-0.02771930
0.12400009
0.15737736
0.05604224
-0.14325497
0.16255841
-0.14643213
-0.14783530
0.14661688
0.10708579
-0.09828262
-0.12106830
-0.13375828
-0.05231607
-0.12943821
-0.15327790
0.11931461
0.04965846
-0.09498672
-0.06705189
0.14370960
0.13578127
-0.08031132
-0.16651027
-0.12716812
0.07922360
-0.05487475
-0.04792878
-0.07748295
-0.03288906
0.01902463
0.04551049
-0.01896995
0.02516094
0.07731581
0.01604775
-0.01497000
0.08392045
0.05187282
-0.05262075
0.08255237
-0.10427012
-0.07304689
-0.03702002
0.02976049
-0.15789190
-0.01177830
0.02556336
0.04759325
0.11609209
0.00039239
0.08074782
0.12460862
0.15014093
0.07638157
0.15106940
-0.08648200
0.10030410
0.13524479
-0.07664884
-0.13770188
-0.01995154
-0.09597377
0.16072068
0.11117953
0.09972020
0.17261893
0.05187164
-0.00813617
-0.15147176
0.04846728
-0.12273566
-0.01471424
0.13691933
-0.00795737
0.14207466
0.09221128
-0.01022196
0.11458677
0.01340304
0.12212179
-0.14165378
-0.01028983
-0.02751836
-0.13688551
-0.08507202
0.16589496
-0.01874726
-0.14418939
0.02449304
0.11653343
0.03479905
-0.16098922
-0.00668211
0.15098661
0.06387050
0.17080593
0.07591645
0.01479293
0.14649114
0.09552240
0.03840539
-0.09270908
-0.14722534
0.09822246
0.13151973
0.16047728
0.06858843
-0.00605491
-0.08409657
-0.00024318
-0.11568355
-0.15252382
-0.10953216
-0.05363536
-0.01292498
0.09803496
-0.14392337
0.11109096
0.10172056
0.12716359
-0.09760719
-0.14888744
0.08494563
0.16603564
0.07088794
0.02537088
0.02892224
0.16830903
0.14178796
0.01089902
-0.15041165
0.03584058
-0.01725816
0.16448982
-0.09867170
0.10474104
0.10008707
0.04013241
0.09192561
0.16530217
0.03405005
0.00338935
-0.04271672
-0.16086884
-0.02233583
0.16354665
0.11823747
0.01707307
-0.15768814
-0.09032303
0.04285065
0.03365187
0.08505480
0.11986685
0.05672278
0.08094855
0.07157667
-0.16853078
-0.13435318
0.00737979
-0.00293720
-0.09551325
0.01075049
-0.03051269
-0.05837536
0.11061433
0.02289928
0.01005283
0.01885568
-0.11198609
-0.16109863
0.05765237
0.05005350
0.10464782
-0.12590440
0.01884354
-0.02840538
-0.12887907
-0.07701091
0.05494655
0.08267008
0.02014451
-0.06518973
-0.06993991
-0.07227206
-0.01347569
-0.17067826
0.15568322
-0.08917820
-0.12177425
0.04586628
0.14264165
0.13108331
-0.13180663
0.15256006
0.09609678
0.00462167
-0.08614300
-0.02422612
0.03320228
-0.15453096
0.16614515
0.03906696
-0.08284067
0.10872200
0.02083093
-0.14411560
-0.03268736
-0.00503532
-0.01769577
0.02276700
0.01036946
0.07324892
0.00240844
-0.15447845
0.09329420
0.09136064
-0.09636211
0.03868413
0.04818597
-0.00973350
0.08015686
-0.11024561
0.13945293
-0.00244012
-0.16263397
-0.14261912
0.08672715
0.04914595
0.14908627
0.16258484
0.07989009
-0.05861045
0.15634887
-0.00238062
-0.14033960
-0.02589390
0.08850610
0.05298649
-0.16944033
-0.11143947
-0.09679820
0.02852975
-0.16305205
0.14995164
-0.02723627
0.11877885
-0.10706381
-0.08420176
0.01825294
-0.11381066
-0.04395628
0.01390313
0.00723386
-0.00389786
-0.16324803
-0.15987259
0.15731682
0.07576130
-0.00729654
-0.00869714
0.07392611
-0.12266222
0.13651831
0.13058040
-0.09263488
0.02474615
-0.02511006
0.11527954
0.12837267
-0.11895578
-0.08453783
-0.04208434
0.00149949
-0.14384134
-0.17033057
0.08749342
0.01454867
-0.14735885
-0.14790747
-0.02880904
-0.07041478
-0.06612977
-0.07555716
0.17105201
0.14643398
-0.10982155
-0.16035686
-0.12074378
0.04698357
0.01837662
0.14188054
0.12656820
0.00395978
-0.02523178
0.09397762
-0.15566048
-0.05328321
0.07096590
0.13819465
0.00174461
-0.01398267
-0.01169795
-0.11396517
0.10080883
-0.12050045
-0.14250115
0.03345334
-0.00255428
0.16151430
0.04712826
-0.11416596
-0.09276846
-0.10634153
0.03982933
-0.06035760
0.14515594
-0.14444467
-0.15918441
-0.06997180
-0.04242272
0.07719975
-0.10476460
-0.07622560
-0.01855523
0.04593377
0.04561135
0.02362262
0.11367105
-0.08717799
-0.13389540
0.01573259
-0.17268683
0.13806623
-0.08587565
-0.14185451
-0.12925808
0.15388687
0.14865462
0.06387612
-0.01471334
0.12500188
0.02664125
-0.15812953
-0.02575996
-0.16812445
-0.16845384
-0.17383465
0.00377852
-0.15991656
0.08838791
-0.04991911
0.09630188
0.16708989
-0.02004372
0.01001881
-0.01622557
-0.01010362
0.15938404
-0.05961191
0.10075632
0.08341474
-0.04622254
-0.14243352
0.12070210
0.00813179
0.07212867
-0.13089356
0.15228057
-0.02520719
0.04509313
-0.11227219
0.01413581
-0.00159683
0.03763014
-0.00123469
-0.07894176
-0.12073332
-0.05542029
-0.08410786
0.09181365
0.05134109
-0.00584638
-0.06524289
0.14988598
-0.11008561
0.02825836
0.06712569
-0.00909207
-0.08956470
-0.12503460
-0.12772274
0.13310976
0.14727938
0.04081621
0.15028825
-0.07028306
-0.02977709
0.00845596
-0.12829533
-0.09369551
0.04543162
0.10307804
0.13090219
-0.15255082
0.06042635
0.03289860
0.08191493
-0.11995420
-0.09344801
0.11830469
-0.14487125
0.16048405
0.00875087
-0.13616599
0.05844384
0.06670611
0.03948765
-0.13484211
0.09273255
-0.16267598
-0.01879548
-0.12995775
0.13009098
0.13203484
-0.00739900
0.10714086
0.02604698
0.14716582
-0.15244472
-0.05622377
-0.08679931
-0.11813471
0.00064610
0.13289759
0.15324581
-0.17317341
0.04223535
0.04929888
-0.05721490
0.04341841
0.10140909
0.04503309
-0.11400328
0.12018698
0.07497244
0.15139458
-0.02155563
0.14414430
-0.03433662
0.16104627
-0.05989204
-0.13570486
-0.07504373
0.03495201
0.02202914
-0.10586294
-0.06257600
0.11111465
0.14440238
0.05934807
-0.14054702
0.15317947
-0.00103697
0.02130675
-0.16368553
-0.04816741
-0.01257845
0.07251725
-0.13478395
0.04407383
0.13767116
0.06493548
-0.01319441
0.03273125
0.08760321
0.07130238
0.03093439
0.07289156
-0.01471270
0.07009027
0.16000314
0.04480793
0.03246124
0.12279756
-0.09425361
0.03377870
-0.15294993
0.13754989
-0.07187258
-0.13813181
0.16073853
0.15736106
0.12905084
-0.06756300
0.15404135
0.15006512
0.15102071
0.10948017
0.00593606
-0.02294166
-0.07417594
-0.01393420
0.10427724
-0.02383053
0.05762269
0.06705499
-0.17014481
-0.06326474
0.00853571
-0.14848122
0.06886612
0.14207585
0.00143328
-0.16287039
-0.07935084
0.03004520
0.15748826
-0.16672461
-0.15326783
-0.12349524
0.09465459
0.13324293
-0.09945522
0.13475683
0.08722741
0.03263282
0.10811651
0.04965755
-0.15571032
-0.12721045
-0.08534134
0.05864631
0.09057211
-0.08846873
0.00131921
-0.11922392
-0.07997642
-0.02600731
0.06627763
-0.16106796
0.16270773
0.03568057
-0.11300313
-0.13028406
-0.08724453
-0.05642657
0.03485974
0.08993495
-0.12731208
-0.11179713
-0.11617636
0.14266203
0.10378560
-0.00270703
0.13333538
0.01126520
-0.08505629
-0.12315938
0.15454882
-0.13592103
-0.10973457
0.14800194
0.01996695
0.07313534
-0.09514375
-0.12963773
-0.14357220
0.08818314
-0.14900848
-0.13808635
0.10301147
0.11947021
0.13291159
-0.00836378
0.11760038
-0.03200902
0.11366913
-0.00633379
-0.15506005
-0.05925572
0.07260059
-0.10022528
-0.08490174
0.00782199
0.03174557
0.10557967
-0.16474582
-0.06510850
-0.04225616
0.04056013
0.04886141
0.10841357
0.04027172
-0.06833471
-0.16457634
0.06706958
-0.02105400
0.11233562
-0.08762472
0.12947069
-0.10691569
0.09016554
0.13991958
0.08482507
0.03443554
-0.09638833
0.00791065
0.09815714
0.15146951
0.03039359
-0.09197489
-0.16792724
0.14152367
-0.10754550
-0.04935809
-0.00789615
-0.13976035
-0.00507189
-0.11160569
-0.07809225
0.07001290
0.01460607
0.14299564
-0.16021663
-0.10582899
-0.04224324
-0.00363492
-0.07181669
0.02578363
-0.07314316
0.15875250
-0.07960732
-0.05045196
0.01561588
0.16501480
-0.05120845
0.09115756
0.10857786
-0.15119828
0.06831177
-0.08892603
-0.06842447
-0.04275163
0.05924196
0.15734860
-0.13703394
0.00179151
-0.04346839
0.12451753
-0.05412283
0.01773447
0.12722005
-0.00052301
0.13272667
0.06822890
-0.13811962
-0.06897409
0.08335590
-0.00587165
0.03811376
0.04735794
0.02119192
-0.01883459
0.08100613
0.04369947
-0.05682052
-0.11660351
-0.12816094
-0.04275572
0.02163629
0.09861279
0.07109486
0.10154793
-0.10754556
0.04562508
0.12814301
0.15716797
0.12521018
-0.16856794
-0.07790384
-0.15677689
0.05440000
0.04987185
0.05539852
0.17086115
0.12926149
-0.16494875
0.05904445
-0.10572351
0.10581699
0.15213537
-0.03528106
-0.13216968
-0.00000277
0.10846254
0.00852975
0.13542977
-0.01155315
0.11654687
-0.13215828
0.04461297
-0.15284438
-0.00495122
-0.10421751
0.16334814
0.14053011
0.01477088
-0.17150441
0.05146486
0.03755444
-0.08729097
-0.01937968
0.05225414
-0.06527843
-0.09137743
-0.03620839
0.12512663
-0.12770760
0.10311028
0.13589317
0.15793189
0.00000802
-0.03373438
-0.03374293
0.13185704
0.12302604
-0.08486355
0.13908017
0.10646623
0.06949762
0.15695405
-0.02873534
0.10684943
0.12892875
-0.12497249
0.04570217
0.11864278
-0.06081242
-0.02053678
0.15998954
-0.11636217
-0.09716097
-0.07992595
0.13795871
-0.02118647
-0.00777248
-0.08418106
-0.15559247
-0.02570707
0.10238817
0.13519874
-0.15393136
-0.06162903
-0.12606195
-0.03238362
-0.04206279
-0.10896964
0.02101175
-0.16000317
0.14168727
0.16638380
-0.15475045
-0.08900977
-0.14188522
-0.00927353
0.08956817
-0.15592518
-0.10442997
0.03070273
0.04667480
-0.03621702
0.13756645
-0.07714315
0.15504345
0.03784892
0.16437975
-0.05096122
0.03518942
0.16347900
0.09907335
-0.09009385
0.05402112
0.01741455
0.14948931
-0.00962837
0.00048234
-0.03184417
-0.02527863
-0.15851262
-0.09260716
0.12958387
-0.03555323
-0.09457695
-0.05154964
-0.10993554
0.06838296
-0.01075475
0.02056751
-0.06367179
0.14007553
-0.15707950
0.02397776
-0.10988227
-0.07886768
0.11911362
-0.10949249
-0.13641489
-0.00669347
0.09673971
0.01485008
-0.02532901
0.05450799
-0.17238478
-0.07699865
-0.11435200
0.14613444
0.08537742
-0.14312640
0.05398853
-0.08778974
-0.02443779
-0.05418258
-0.09411445
-0.08040804
-0.07985678
0.03882767
0.05183920
0.10327375
-0.06792264
0.06656530
-0.10030325
0.10869190
-0.16907839
0.02554363
-0.11011440
0.00119369
-0.12433299
0.10545757
-0.05735588
-0.01695222
0.02550593
0.16819182
-0.11175233
0.10931301
-0.11936033
-0.02926314
0.09631875
0.09292769
-0.03674473
0.14405337
-0.03463639
0.17002577
-0.15142283
0.09648642
-0.08702173
0.09020618
-0.02761278
-0.12703007
0.06008728
0.09226748
-0.12952530
0.16228631
0.12085837
0.17226321
0.11249834
-0.12500474
0.06282656
-0.11450602
0.06938711
-0.16970146
-0.08829974
0.04822429
-0.06271006
-0.16452642
-0.00851583
0.09707811
0.05907162
0.14174432
0.10958748
-0.07534275
0.10304890
-0.10527492
0.02600745
0.00462785
-0.07048646
0.14067213
0.07027289
0.14293298
-0.07197867
0.15290061
0.03080559
-0.03920637
0.04882026
-0.09595126
0.13875593
0.06691039
-0.13442361
-0.08099403
-0.04597696
0.14149877
0.15965365
0.01928464
0.13066237
-0.05869393
-0.13166456
-0.05955679
-0.09938347
0.01871709
0.08890945
-0.14508103
-0.09123018
0.16552262
0.10848571
-0.14527269
0.13680834
0.04173276
-0.12210763
0.06864655
0.08763674
0.09051558
-0.04443840
0.00788513
0.07451290
-0.16079570
-0.08889295
0.15471263
0.16488105
-0.01998846
-0.03512785
-0.02365487
-0.11298437
-0.04327610
-0.04110412
0.06958425
-0.04491064
-0.02791288
-0.13074231
-0.06604844
-0.02919511
-0.08490674
0.02258689
-0.02824345
0.12724155
-0.03688300
-0.13377787
-0.07818804
0.15094554
0.11493739
0.13562924
-0.12119917
-0.02854679
0.15376358
0.15955813
-0.09080446
-0.11334011
-0.05047977
-0.06983384
0.15431422
-0.14839697
-0.01257133
0.14512129
-0.09992354
-0.08235007
-0.07420407
-0.12528777
-0.01344564
0.02336071
0.11774296
-0.01105037
0.11861915
-0.09820210
-0.01592062
-0.15935716
0.11271348
0.09314551
-0.07995114
-0.05631676
-0.05221331
-0.10617147
-0.11011976
0.01973768
0.02844095
-0.13424614
0.09519929
0.13268897
-0.15754044
0.09146431
0.10095316
-0.14705783
-0.11291583
0.08783326
-0.00920168
0.01420079
-0.11412966
-0.13010781
0.03611486
0.08209059
-0.02919686
0.04149848
-0.03794411
0.06167726
0.02136247
0.08977088
-0.05763751
-0.02914986
-0.14009784
0.11237848
0.06376900
0.05591306
-0.12036633
0.08084115
0.09681121
0.01427042
-0.15378766
-0.08792589
0.05354077
-0.00892000
-0.08449037
-0.12411635
0.00661944
0.03759599
-0.15360691
-0.12924874
0.16961205
-0.04822235
-0.08612025
0.15030009
0.04174663
0.09810647
0.05879672
-0.00673643
0.08780655
0.05327561
0.13542333
0.07170096
0.01459274
-0.02829958
0.14900053
0.11102590
-0.16449040
0.10434383
0.00598323
0.14988846
-0.16328347
0.15609255
0.06483169
0.09334564
-0.15687716
-0.07551941
-0.04828244
-0.05343539
0.01410306
0.00900878
0.14928699
-0.00515246
-0.08124159
-0.11595111
-0.03454889
-0.06746224
0.01677866
0.13931224
-0.05488634
-0.08632859
-0.03060226
0.03846116
-0.02622962
-0.10072087
0.14417407
-0.15779321
0.13013226
-0.10784815
0.02757560
0.11545640
0.15670863
0.16639847
-0.17235298
-0.14346011
0.14438325
-0.11518574
0.03572305
0.06626254
-0.05108313
-0.04072587
-0.00848587
0.09362894
-0.11842429
0.01967846
0.12602663
0.00649525
-0.14451066
0.06030828
-0.13792232
-0.15902650
-0.02267063
-0.13336647
0.03542602
0.10809591
-0.03079244
0.16079646
0.16388886
-0.04744067
-0.11160813
0.16519667
-0.09498949
-0.04521105
-0.09333017
-0.00225025
0.01839928
0.16891876
0.12986162
0.00870071
0.07999355
-0.14468101
-0.04873573
0.01966675
-0.10717798
0.16378462
-0.05743327
-0.11449364
0.14126198
0.02017725
-0.01391121
-0.06089798
-0.11492272
0.05538113
0.11414458
0.10096764
-0.10507996
0.03794014
0.10273922
-0.08037793
-0.16923235
0.14809811
-0.04165791
0.01892542
-0.00710208
-0.02001922
-0.02591017
0.05757334
0.04800627
0.06373456
-0.02815693
-0.03618755
-0.10802327
-0.14013605
-0.04848891
0.06076884
0.13387361
-0.14470071
0.02287300
0.01754724
-0.11667605
-0.01988015
0.00801902
-0.01548244
0.17312431
0.05848582
-0.02290379
-0.14442183
-0.11566742
0.15260679
-0.04287262
0.06637090
-0.03732190
0.07576223
0.09815440
-0.02299027
-0.05604868
-0.15899462
-0.12468766
-0.05091035
-0.15221678
0.09883830
-0.16864772
-0.15803240
0.07522848
0.08447632
-0.05192375
-0.16708851
0.05028044
0.04423678
-0.15387136
0.08320128
0.15499859
0.09434345
0.00624003
0.07060985
0.08931423
-0.05252367
-0.04368034
0.05299959
0.13256446
0.02427664
0.15030946
-0.16640852
0.02009664
-0.03549042
0.04157919
-0.09859833
0.02846074
0.10594428
0.17138639
-0.16114250
0.10526258
-0.03444681
0.03239986
-0.09904189
0.10654464
-0.03008334
0.13470392
-0.03468516
0.07748476
-0.04636212
-0.11038352
-0.10407551
-0.04457485
0.15406400
-0.06357765
-0.12983555
-0.15100203
0.10199565
0.01373892
0.12653373
-0.04110235
-0.12878577
-0.03859142
0.10392623
-0.02736867
0.07600951
0.02274079
-0.00797319
0.04702151
-0.07534271
-0.07857073
-0.09591073
-0.02902103
-0.09664146
-0.07037179
-0.09149925
0.03221793
-0.15842506
0.17594273
-0.14352213
-0.08860177
0.01070596
-0.14957330
-0.06353989
-0.03188691
0.01447465
0.16977772
0.11673546
-0.02331249
0.15924625
0.01378573
-0.09376784
-0.11702636
-0.03776707
0.15899983
-0.02761900
-0.04394912
0.15905146
0.15352127
0.06228413
0.15313159
0.08491735
-0.12028190
0.15008032
0.04273620
0.16114755
0.09959197
0.06532350
-0.08811221
-0.14340810
0.00773087
0.09170274
-0.01772383
0.01026873
-0.07717076
0.12134704
0.01711249
0.17024693
-0.12815247
0.05504054
-0.02943864
0.08535892
-0.00290443
0.10698450
-0.15433948
-0.17175636
0.10512504
-0.10636982
-0.16231245
-0.11599629
0.01474048
-0.09384760
0.08577454
-0.03115314
-0.06963033
-0.02240874
0.05881679
0.08436298
-0.08994164
0.10394475
0.02370711
0.03467047
-0.01570147
0.00388247
-0.12864843
0.04586567
-0.08039272
-0.16609204
0.16919070
0.09559396
0.00621194
-0.09733758
-0.04276645
-0.02811645
0.08660144
0.07974178
0.05024533
-0.12053613
-0.06226057
0.01128006
-0.15968990
-0.01116209
0.12584546
0.01254085
0.02185360
0.12032333
0.15507776
-0.11108388
-0.11094728
-0.03097503
0.08537930
-0.11241950
-0.02785641
0.02372977
0.11960223
0.15636122
-0.07357477
-0.16692704
0.02874009
-0.14333487
0.13803706
-0.09772729
0.16026619
-0.06776833
-0.06880967
0.11296985
0.08908677
0.01115444
0.14390823
-0.06198711
0.05470785
0.02125540
-0.01673757
0.13424489
-0.14626306
-0.13233201
0.11046350
-0.16202401
-0.17006630
0.01021795
-0.12839212
0.17264020
-0.13828295
-0.14734641
0.02268359
0.10519901
-0.04072110
0.06050837
0.10171124
-0.13171411
-0.14423506
0.04124935
-0.12938803
-0.03297806
0.14136201
0.00468916
0.09574354
-0.11181273
-0.01353396
0.03658319
0.17156270
0.08328891
0.05280165
0.09188768
-0.04484073
0.16986978
0.14609239
-0.02548914
-0.11407825
-0.01120761
-0.10859725
0.15116130
0.00550322
0.07066651
0.14331222
-0.02276384
0.03455028
0.14904180
0.06514004
0.06369936
-0.03132851
-0.10416383
0.16126364
0.07947245
0.03404844
0.04288849
0.13490494
-0.02898897
-0.06905500
0.02006529
-0.02867864
-0.00022064
0.06720788
0.13732556
-0.13647336
-0.14556096
-0.10728488
-0.06763639
-0.06518641
0.05349898
0.16203478
0.12258849
-0.02548696
0.01659422
0.08600318
0.04264604
-0.10303502
0.15748593
0.10316589
-0.03082456
0.14440651
0.07791662
0.16677329
0.14497706
0.06485837
-0.13282721
0.08091357
-0.09562989
0.08359370
0.13752586
0.16048861
-0.05339038
-0.04581338
0.00146773
-0.14205459
-0.15155545
-0.06287593
0.05545664
-0.12079052
-0.00065388
-0.12710167
-0.06537010
0.00082709
0.15792662
-0.08014136
0.09321958
-0.04372300
-0.04597103
-0.01868121
-0.10890461
-0.04609547
0.03786813
0.04281207
-0.04474956
0.07304489
-0.03049622
-0.09946779
0.15568914
-0.16303629
-0.17187868
0.08525075
-0.15934497
0.09157869
-0.16993110
-0.15874118
-0.16334346
-0.00809175
0.09447636
-0.03451306
-0.15960604
-0.10548913
-0.01291870
0.05112271
0.06175193
0.09963147
-0.03688167
-0.02862125
0.17244944
0.05479462
-0.15203211
0.02311240
0.11954544
-0.00471793
-0.17148827
0.10955030
0.09028490
0.01223095
-0.10888013
-0.03475720
-0.10423605
-0.06247927
-0.01153502
0.16048843
0.17116003
-0.13356148
0.12967438
-0.07060122
-0.12627961
-0.05587906
-0.01139742
-0.11691491
-0.07103857
-0.09724651
-0.12511326
0.00761330
0.01332583
0.06850453
0.08594818
0.03881601
0.07325940
-0.01679277
-0.01710517
0.12348225
0.06606324
0.05145105
-0.11827236
0.00142027
0.08338814
0.11484669
-0.03006232
-0.00996338
0.14646111
0.02085168
0.03096489
0.00018908
-0.11411101
-0.08966021
-0.03292391
0.13449250
0.11731827
-0.12019873
-0.00171959
-0.15855044
-0.04153936
-0.01165755
-0.05041128
-0.15143961
-0.05092311
-0.07367530
-0.04655071
-0.06723166
-0.00879590
-0.05769223
0.13652308
-0.09571590
0.04578027
0.17019235
-0.03265201
0.02531865
0.03466645
0.11918759
0.06662888
0.06160282
-0.08256248
0.14692450
-0.05278344
-0.00246478
-0.00628788
-0.12431010
0.07222798
0.10489075
0.15370770
0.13760298
-0.06578843
0.02689236
0.02028975
-0.14480145
0.06780127
-0.03408064
-0.06741004
-0.00087814
0.05776499
-0.11299918
0.09014750
0.06704462
-0.08591113
-0.15323173
-0.15173508
0.10702693
-0.02503638
-0.02102293
0.03120396
-0.16422671
-0.10972968
-0.15313552
-0.14658955
0.11882802
0.11620317
0.07156584
0.00209270
0.00631492
0.06285526
0.11872934
-0.03542645
-0.01412894
-0.12975538
-0.09113245
0.02425741
0.16780914
0.05523410
0.06510140
0.14112161
0.15207218
0.03178847
0.00244947
0.03503811
-0.08809769
-0.00034963
-0.02513419
0.14968234
0.05960038
0.13336441
0.12788032
0.12037769
0.07943349
0.04165907
-0.07444797
0.04255426
-0.03961890
0.14574762
0.07458589
-0.16955552
0.12561643
0.11950549
-0.11448812
0.07722119
0.16325553
0.06462894
-0.03689077
0.08031706
-0.11383944
-0.06852666
-0.00977328
-0.02521980
-0.12915248
0.11213166
-0.09922578
0.03340537
-0.10691180
0.10905231
-0.04008956
0.06600765
0.14419384
0.00574586
-0.08090437
-0.00486108
-0.12861225
-0.09807398
-0.05876388
0.01525573
0.11409464
-0.12374330
0.05083993
-0.03795918
0.03924263
-0.00425164
0.04622083
0.14075930
-0.07111932
0.14823876
0.07492721
0.08992340
0.04544345
0.08511901
0.02755838
0.14432241
0.11399427
0.07700027
0.08238769
-0.07805031
0.12464434
-0.08599088
0.12224226
-0.09532952
0.13203868
-0.00792523
0.04910317
0.05329683
0.14941052
0.12218370
0.14970315
-0.06476184
-0.07272781
-0.15203813
-0.15753892
-0.14476703
0.12953009
-0.08545827
0.14484034
0.00065253
-0.16839623
0.01597017
-0.15840364
-0.14430319
-0.04615185
0.11697146
-0.12518387
-0.00220773
0.16866368
-0.04101713
-0.08247103
-0.12605846
-0.07892164
-0.14069849
-0.13116187
0.01606598
-0.13969237
0.06067006
0.03877516
0.01465650
-0.14275943
-0.06289913
-0.11837626
-0.16708410
-0.10670063
0.04887399
-0.04511707
0.13703343
0.16733995
-0.10397982
-0.12767741
-0.06108926
-0.06946866
0.15123729
-0.08970438
-0.08937883
-0.10813647
-0.12436132
-0.16255803
-0.14735691
0.14207506
-0.06652658
-0.15306729
-0.12349188
-0.08377817
-0.07844266
0.02464062
0.06501219
0.14237371
-0.13496150
-0.14056738
-0.16801585
0.12242740
0.15496044
-0.00745007
-0.12752025
0.15072465
-0.12241949
-0.12967867
0.03342754
-0.01459355
-0.16780129
-0.08205562
0.16775887
-0.01799802
-0.12466322
-0.13841993
0.15933676
0.07427492
0.02390037
-0.15532769
0.12392648
-0.12029877
-0.03638691
-0.10556374
-0.07304347
0.16632706
-0.03870654
0.12627989
-0.10862702
0.04726215
0.14828143
-0.09659394
-0.00383414
-0.14179756
-0.14813367
-0.02694589
-0.08240371
-0.17286423
0.05814788
-0.13961580
-0.13922301
-0.14271353
0.14349747
-0.06528218
0.11497441
-0.04244696
-0.11161304
0.13505927
0.11112097
-0.17223364
-0.13844624
0.11306399
0.11438668
-0.11779421
-0.13055620
0.00749366
-0.00746310
0.10504022
-0.09164189
0.01937625
-0.13507637
0.17283359
-0.14546710
0.12130517
0.14598280
0.13636404
-0.04202570
0.03904401
-0.12350340
0.14357975
-0.12346385
-0.00984654
-0.05338670
0.03386363
-0.16394758
-0.04547027
0.03601199
-0.14668560
-0.02224781
-0.07656605
-0.08658239
-0.06069613
-0.00435248
0.08034196
-0.15003783
0.07807556
-0.14104557
-0.05206884
-0.10909886
-0.15844432
-0.02645761
0.15343574
-0.15347657
0.04195422
0.08842790
0.12614837
-0.01603596
-0.10204698
0.06000687
-0.07878852
0.15496671
0.04128924
0.01995331
-0.02728158
-0.00360797
-0.09737583
-0.06596801
-0.02026170
-0.14035669
-0.10020195
-0.15683298
0.04636893
-0.12736766
-0.16916144
-0.05430238
0.15133974
0.04380780
-0.03440815
0.11532751
0.16513333
-0.13134399
0.16935238
0.11636204
0.11631739
0.06434084
0.16774634
0.13149454
-0.14745969
0.11275680
0.08031957
0.10846028
0.07841013
0.06423262
0.00065777
0.15296096
-0.13857117
-0.03429446
0.12009478
-0.06889638
-0.13136101
0.11577220
-0.14291403
-0.07993855
-0.05091771
-0.08129894
0.06583434
0.09317160
-0.16728681
0.01360421
-0.14464942
-0.16614953
-0.13427423
-0.01443138
-0.01807533
-0.03790745
-0.16081643
-0.10279869
-0.07829722
0.16147722
0.06964016
0.05138041
0.15217952
-0.07945465
-0.15460956
-0.11424071
-0.04343649
0.00369513
0.10638943
-0.16209951
-0.13777681
-0.08192082
0.14464295
-0.07145137
0.09541772
0.14381346
0.13874513
-0.12811767
0.11498614
-0.11402769
-0.00746863
0.15609674
-0.01572775
0.09593099
0.01816507
0.03345175
0.10207981
-0.16555378
0.11196711
0.08433670
0.07039279
0.15964599
0.01522443
0.00108823
-0.01895533
-0.06431661
0.01077351
-0.11766601
-0.09714840
0.17077306
-0.01411597
0.12702222
-0.09044299
0.13508601
-0.06712604
-0.05993116
0.00176664
-0.02011384
0.06885935
-0.12534557
0.16875780
-0.03843419
0.08952252
0.10361930
-0.14839473
0.03634897
0.03127747
-0.06884025
-0.15210597
0.12668400
0.13819607
-0.14021897
-0.00544235
-0.07137382
0.14764178
-0.15070154
-0.02186982
0.02852558
-0.05090109
0.06062697
-0.01783867
0.11343506
0.00275379
-0.14945528
0.07003839
0.13102460
0.02791251
-0.03042045
0.02841975
0.05463910
0.06955513
-0.07002701
0.00187572
-0.10678727
0.09015740
0.07314902
-0.15323603
0.10313912
-0.12960401
-0.01214760
0.04030682
0.13583592
-0.01524785
-0.11006799
0.04289650
-0.04380297
0.13253295
-0.06572615
0.17528583
0.08441027
-0.05421186
0.14407480
0.12481032
0.14365792
0.07414258
0.11630580
-0.05536647
-0.04740660
-0.06997371
0.13005239
0.04472796
0.05757420
-0.13837047
-0.00387401
0.02393918
-0.10110867
-0.10476532
-0.16188823
0.14798155
-0.12023237
0.14379507
-0.07016619
0.07981881
0.09043447
0.00357430
0.13004081
-0.14910375
-0.10570352
-0.08227824
0.09447607
-0.01226895
0.07108619
-0.10664538
-0.06117706
0.04193079
0.05242679
-0.02396798
-0.14566760
-0.11642350
0.12120580
-0.04918465
0.04078255
-0.12771587
-0.14034864
0.04503217
-0.08681053
-0.17151289
-0.05360791
-0.11548010
-0.13902196
0.14464025
-0.15107408
0.07558627
0.14960009
0.10896941
-0.17394973
0.12282311
0.12969492
0.11954395
0.10856124
0.12753250
0.02103887
0.06764381
-0.12956233
-0.16761462
0.06310774
-0.12605919
0.11846280
-0.01605827
-0.10056712
-0.08124278
0.16747093
0.05713940
0.07793626
-0.02168145
-0.12275542
-0.06224219
-0.17243683
0.12484042
0.05005461
0.13434941
0.14125431
-0.02759961
-0.14275524
-0.14590795
-0.04509246
-0.16874734
0.14963701
0.15137005
0.06751992
0.13343498
-0.03120303
-0.06177126
-0.05842101
-0.17011119
0.09706252
-0.04806407
-0.03532554
0.10553028
-0.14805087
-0.04961383
-0.01759911
0.09731054
-0.07088249
0.06452793
-0.01515621
0.00719825
0.15691450
0.00947116
-0.12991355
0.06945738
-0.13892885
0.11080277
0.03011826
0.11356368
-0.01919220
0.05034406
-0.10088630
0.06941593
0.07634775
-0.16641238
-0.16767919
-0.15736851
0.04436377
0.16434172
0.08299811
-0.10747535
0.03894055
-0.02172250
-0.09099908
0.15464894
-0.09497566
0.16476470
0.14403160
0.11016785
-0.00639876
0.11387158
0.06220562
0.14937887
-0.05858740
0.16607842
0.00909790
-0.01911850
0.17049058
0.11005449
0.16361150
0.05732359
0.09986729
-0.12210028
0.13632807
0.05076515
-0.08421890
-0.09421521
0.07452957
0.08657291
0.08630737
-0.01845253
-0.06366389
0.07748868
-0.16313082
-0.02318436
-0.12051862
0.16650417
0.12687856
0.02223288
0.08666369
-0.11817519
-0.08804397
0.06354915
-0.02953320
0.16654299
0.13968778
0.06047128
0.04857150
-0.07438008
0.08244914
-0.15401715
-0.10400163
-0.01289498
-0.03587475
0.01181024
-0.02502034
-0.05414968
0.02423270
-0.16255897
-0.14585817
0.05847842
0.01589615
0.09756298
0.09485048
-0.16798630
-0.13206050
0.14676616
-0.02607609
-0.01302916
-0.06499961
-0.11757307
0.16188625
-0.08048455
-0.07878204
0.06920041
-0.01601855
-0.16643246
-0.12819980
-0.08523773
0.04596098
0.00082234
0.13101131
-0.13419266
0.11023951
0.05268178
-0.06199419
-0.02974427
0.10340095
0.07778852
-0.09865891
-0.02571088
0.08426416
0.17079189
-0.02705763
0.13424653
0.03805705
-0.09868950
0.07616544
-0.01126832
0.01347248
-0.00704504
-0.04396464
0.08243041
0.05477027
-0.12683558
0.12159101
0.07093515
-0.05790684
0.16354689
0.12285826
0.03421531
0.02042696
0.00436801
0.01564590
0.14016330
0.03771389
0.08167958
-0.14627865
-0.09210303
-0.00445953
-0.00601566
0.12197074
-0.03108232
-0.13281170
-0.00805307
-0.04082381
0.08500650
0.00018598
-0.12331039
-0.07514309
-0.04531213
-0.12847383
0.12730220
0.09037974
-0.11883307
-0.09711661
0.12177726
-0.00237572
-0.10161823
0.15091328
0.10783582
-0.13312827
-0.03169629
0.11654770
0.08326056
-0.13610785
-0.12411953
-0.09124012
0.08646269
0.04074839
-0.06558159
-0.15071674
0.00115243
0.03065363
0.14629360
-0.08959733
-0.07886099
0.03839208
-0.02087058
-0.11483804
-0.01623397
0.01590059
0.02366279
-0.10772070
-0.11715611
0.02394256
-0.04928259
0.07647993
-0.08722243
-0.11155047
0.09413293
0.04881680
0.13060595
0.02051874
0.08978805
-0.10788932
0.03880476
-0.00969276
0.06429499
-0.10406571
0.10527389
-0.05373107
0.13044682
-0.00437572
-0.02156714
0.08395068
-0.10276735
0.09765040
0.04746119
-0.10400806
0.14185373
0.02170171
-0.02982287
0.16637994
0.14415935
0.10492608
-0.03998316
0.07802874
0.13274999
0.08100345
0.11972725
-0.16718161
-0.02931680
-0.09780848
-0.11224156
0.09486558
-0.16028839
-0.17332722
-0.13521025
-0.14844076
-0.13115880
0.07509127
-0.00102379
0.05122929
-0.14955068
-0.11741456
0.12397007
0.00801263
-0.05277285
-0.01387001
0.13518895
0.10554018
0.10733151
0.10566004
0.10146227
0.16525181
-0.10697429
0.04088192
-0.07487206
-0.10360412
-0.03860527
0.11016721
-0.01048700
-0.11992683
-0.06114587
0.02827101
-0.03137560
-0.12907943
-0.06001187
-0.01962100
-0.07463007
-0.01249182
0.00644203
-0.10819757
0.05881634
0.12423649
-0.08836217
0.00372864
0.09817284
0.04956123
0.11236358
0.03536041
0.00821524
0.01369968
0.07145534
0.15998740
0.01709621
0.08691290
0.13077152
-0.09486655
-0.06017354
0.16589350
-0.12570812
0.05490988
-0.09691026
-0.13129373
-0.11560597
0.04814773
0.07507406
-0.12219659
0.11595131
0.13900340
-0.04364555
0.16346501
0.08446741
-0.14912382
-0.09340987
-0.15930189
0.12460554
0.04258591
-0.03170333
0.12373943
-0.06994974
-0.13211869
0.12007122
0.09333719
0.16966434
0.14271057
0.01546832
0.00871645
0.06746625
0.10620724
-0.03982932
-0.03825467
-0.11394979
0.06174666
-0.02810105
-0.14288345
-0.01813960
0.07161982
0.15150416
0.15149643
0.09442908
-0.13268846
0.00601946
-0.04664740
-0.05108386
0.02728354
0.06753220
0.14044152
-0.03543958
-0.16512521
-0.00632986
-0.06098297
-0.06095853
0.02276040
0.04398004
0.07475749
0.08449555
0.15396269
-0.12047270
-0.11211699
0.09336877
0.11003261
-0.04166166
0.09056447
-0.05749458
-0.15259504
-0.13752866
-0.10594679
0.01706332
0.02719986
-0.16693570
-0.11440872
-0.09057700
-0.03676922
0.03753151
0.03928789
-0.15013106
0.13151048
-0.15998121
0.09931935
-0.13663936
-0.00873569
-0.10194333
0.02176709
-0.11053005
-0.00651975
-0.07313465
-0.04298197
-0.08320899
0.16167095
0.05876165
-0.04473534
0.11473565
-0.03579943
0.09499092
0.00104490
-0.00631294
0.07339764
-0.11854652
-0.00339541
-0.06656484
-0.00715000
-0.14381748
-0.09004954
0.08149434
0.07800643
0.16728222
-0.17400339
0.10759006
-0.06124714
0.15877350
0.08533178
0.03549935
-0.07570733
0.09014242
0.00867768
-0.08409755
-0.00766759
-0.16788207
-0.09883736
0.11977341
-0.15049452
0.16195810
0.17290616
-0.11752141
0.00754598
0.14414208
-0.09610075
0.08177781
-0.02932008
0.14120080
-0.07061955
0.04706223
-0.03160020
-0.12358705
-0.08051494
0.14961140
0.13714103
-0.11148339
-0.01896242
-0.05686308
0.04347992
-0.02462753
-0.15567578
0.00293882
0.10699422
-0.16489188
0.05426210
0.08077455
-0.11688257
-0.08097044
0.13355951
-0.03306532
0.14901611
0.11195158
0.07558172
0.15288559
0.10048658
0.05051261
0.15838024
-0.05717451
0.03028240
0.08683713
-0.08746187
-0.02562710
-0.04148683
-0.14588378
0.16999516
0.08810721
-0.06958857
0.02890437
0.04843767
0.05671529
-0.12177637
-0.15541416
-0.07049481
0.16648413
0.00064225
0.00917509
0.13778585
0.09335369
-0.16795745
-0.09346676
-0.13670118
-0.02467599
0.11275968
-0.04332336
0.09982336
0.01762000
-0.08166180
0.07496768
-0.05574246
-0.05555206
-0.06978892
0.07494216
-0.00823747
0.00526875
0.07267245
0.14289871
-0.15558210
-0.06311000
0.11497576
0.15695515
0.05904184
0.11453232
0.06220048
-0.06035440
0.00990366
-0.03700941
0.15465027
0.16751488
0.05380311
-0.12946549
0.08373605
-0.11372329
-0.02900372
0.07594789
0.11868846
0.10894578
-0.11437930
0.11716695
-0.04552258
0.09254438
-0.08927181
0.04345796
-0.05580748
0.09247695
-0.04774418
0.01986834
0.05760214
-0.16716579
0.16750732
-0.10837629
0.10204832
-0.05042902
-0.04978736
-0.14256568
0.03874487
0.12468731
-0.06475000
0.07380021
-0.13089071
0.16443875
0.08179833
-0.02844214
-0.01349576
0.14184651
-0.00569739
-0.08215736
-0.06023912
0.00585743
-0.01689920
-0.14270547
0.02164494
-0.00010223
-0.05231079
0.12349502
0.11092168
-0.15216520
0.01304696
-0.13422838
0.07286628
0.04227054
0.04631198
-0.05028984
-0.07596153
-0.16277885
-0.17302409
0.00449938
-0.00004899
-0.08912271
-0.01482757
0.16673757
-0.00711318
0.01181058
0.01757793
0.14095768
-0.07974562
0.11342326
-0.11791699
0.06123698
-0.06541667
-0.15868518
-0.12135535
0.04569785
-0.00009850
0.13438082
0.13597468
-0.04969585
-0.15224707
0.04937895
0.04154328
-0.10661082
0.10352810
-0.11397544
-0.07155325
-0.15087484
-0.02423062
0.07604894
0.03223487
-0.00857370
-0.03848084
-0.15117052
0.17117736
0.14032993
-0.15326729
0.12815951
0.16709961
-0.01469281
0.07377036
0.02513311
-0.12889221
0.05559005
0.03201343
0.07770509
-0.09308372
0.08248183
0.02858284
-0.12260197
0.12656684
-0.17064254
0.07977316
0.11163598
0.04201266
-0.15023153
0.10861513
0.09954578
0.05700210
-0.13020945
-0.00128813
-0.05241926
0.07853836
0.07508530
0.12312749
-0.16857922
0.14450103
0.13660657
0.00422371
0.08785453
-0.12781137
-0.09657604
0.04411194
0.00715582
-0.09778886
-0.16633573
-0.11173418
-0.04655266
-0.13198867
-0.10110185
-0.02446631
-0.16261663
0.15907265
-0.07061886
0.07321356
-0.00547993
-0.03983882
-0.09251353
-0.00121852
0.13185041
-0.14866024
0.03539896
-0.04331093
0.03635842
-0.02204750
-0.03660652
-0.12370382
-0.00980441
-0.00218540
-0.01018201
-0.13415755
-0.04410781
-0.15538605
0.00469750
-0.04947154
0.09091616
0.16878635
0.06722955
0.04215578
-0.04683536
0.12142041
0.15894374
0.05369021
-0.08561999
-0.00569405
0.07317673
0.14293963
-0.03857122
-0.14067523
-0.14942485
-0.07176038
-0.14096814
-0.12590319
-0.06636044
-0.09867253
0.07982782
-0.04594281
0.11931098
-0.15509018
0.14980283
-0.08194269
0.08506892
-0.12932041
-0.16027048
-0.05400464
-0.11655431
-0.16022284
0.11039743
-0.12921721
0.00239274
-0.00911106
0.11499104
0.08631381
0.14209056
-0.13745005
-0.16967101
-0.15863217
-0.06615219
0.01517950
0.12381309
-0.11814409
0.01325135
-0.14434889
0.08053335
0.06598353
0.10406737
0.02260499
0.10394065
-0.04323417
0.14590427
-0.05546179
-0.14658163
-0.06250354
0.11202229
0.11923396
-0.01072893
-0.05756919
-0.09337490
-0.01985125
0.00975805
0.03199330
0.07699257
0.13889442
0.12825908
-0.01338700
-0.11800337
-0.16880783
-0.09320959
-0.03750208
0.09137543
-0.14530009
-0.13022684
0.01649713
0.11390084
0.12427051
0.00614905
0.05855367
0.04138317
0.15063883
0.06901111
-0.05598345
0.10889384
-0.13518099
-0.05851774
-0.04352214
0.12495540
0.05553913
0.12915461
-0.04677863
0.05090703
0.00585588
-0.08854619
0.16871758
-0.00848860
-0.10346868
-0.01057514
0.05151486
0.04738111
0.03015906
-0.00164067
-0.04419801
-0.07046119
0.10196856
0.12448630
0.11074573
0.02891852
0.05541901
0.04027193
-0.12592183
-0.16040923
0.11381856
-0.09624940
0.09647792
0.09194462
-0.06619937
0.04982482
-0.12936284
0.10162368
-0.02259294
0.08376289
0.14472893
-0.10431764
0.02688532
-0.02852239
0.12373829
-0.03983929
-0.01208488
0.01256382
0.15003796
-0.09523299
0.04080534
-0.10557988
-0.07300632
0.10520232
0.01188436
0.05235887
0.03027372
0.03771383
-0.17083381
-0.11846354
-0.12197433
0.13921872
0.07249650
0.05795062
0.16348381
0.05108589
-0.11582114
-0.10906430
-0.14599581
0.02687610
-0.02468786
0.09216786
0.08997641
0.07296990
0.15758708
-0.11983255
0.15466072
0.16466261
0.07356218
0.09393768
-0.05122214
0.14942469
0.09164614
-0.05604259
-0.17016661
0.12577763
0.07004713
0.01128242
-0.12547377
0.01903519
-0.02520648
0.07637458
0.07602971
0.11895478
-0.00346966
0.01417184
0.10599847
-0.11294392
0.13879824
-0.11679425
0.01868727
-0.04325168
0.00860492
0.14432870
0.09165823
-0.04150128
0.13203534
-0.07870536
-0.06821641
-0.07559028
0.11461627
0.16017172
0.10844568
-0.01098765
0.00295846
-0.03981872
0.04585129
-0.07968891
-0.15376617
0.00965513
0.03105958
0.15421510
0.12411851
-0.09572855
0.02948031
0.15705520
-0.00761832
-0.02813841
-0.07014611
0.06586009
-0.03120275
-0.09593303
0.13272487
0.09638427
0.03764667
-0.13257740
0.08037516
-0.10310376
-0.16551863
-0.09302823
0.14630264
0.07689535
-0.12661055
0.11158881
-0.13609467
-0.03201997
0.15646559
-0.09023666
0.15645546
-0.06285950
0.07396865
-0.15877005
-0.17116456
0.00600231
0.06020259
0.07383171
-0.05192071
-0.03709743
-0.01886782
0.04764450
0.14127834
-0.14210610
0.04697411
0.09660146
0.06885283
0.07365891
0.03834572
-0.04764937
-0.03084148
-0.04210264
0.16725327
0.16078472
-0.07178529
-0.16113512
-0.09789755
0.08702919
0.01809410
-0.13637726
-0.15297627
0.00780638
0.08492753
-0.01083802
0.03737286
0.05030837
0.15590708
-0.08377195
-0.06273439
0.13608266
0.02261811
0.07866127
-0.04849184
0.05641183
-0.12571660
-0.07052661
-0.14498165
-0.10809089
-0.14368421
0.16451421
0.05135621
-0.05521690
0.16046241
-0.11765140
0.03591499
-0.13398908
-0.12051703
-0.14911234
-0.03064765
0.11570744
-0.08680603
0.16655152
-0.09945859
0.00125872
-0.05972447
0.10666201
0.03972699
-0.04328309
-0.15326247
-0.07261798
0.14775433
-0.05171987
0.12464600
-0.05126821
0.07105140
0.00133799
-0.10717793
-0.04692547
-0.06485841
0.07015783
-0.15614805
-0.00746709
-0.08514062
-0.10546123
-0.15036221
-0.01343552
0.05354654
-0.09753241
-0.09371925
-0.05866795
-0.09419559
-0.07426759
0.00259568
0.06449711
-0.12795107
-0.12397645
-0.05078910
-0.16782796
-0.15731750
-0.09497465
0.12660335
0.05713248
-0.11473224
-0.00678406
0.12025851
-0.02467424
-0.09472769
-0.09491196
-0.11899211
-0.14049616
-0.05744086
-0.01996940
-0.04753605
-0.03806116
0.15903661
-0.15401235
-0.10752095
0.06615189
0.08028708
0.12880641
-0.07166561
-0.06121807
-0.07964547
0.13226016
-0.07734459
0.00483217
0.06756005
-0.02936028
-0.00331612
-0.03451745
-0.04794352
-0.12658225
-0.02348969
-0.02534710
0.08700920
0.02262075
0.06748829
-0.00793080
-0.07015783
0.07995024
-0.01371139
0.03983259
0.01130678
-0.12428308
0.11445399
-0.06278183
0.12076078
0.01049104
0.10253750
0.03847807
0.08499727
-0.08254700
-0.01386376
-0.09916908
0.10796347
-0.11745941
0.10093741
-0.09224336
-0.17282419
0.16535001
0.06499162
0.06684330
-0.09169879
-0.13825271
-0.05095512
0.12207113
-0.11707444
0.11884472
-0.03727199
0.05835140
-0.13270494
-0.07662752
0.00986881
-0.14239915
0.04197235
-0.13615291
-0.12266520
0.03864988
-0.04739963
0.14324200
0.00932102
-0.12092698
-0.01785590
0.07203887
0.00900261
0.16340137
-0.05035159
0.05300523
-0.00338638
0.04757420
0.07028615
0.00617837
-0.07765379
0.14143090
-0.00043598
-0.12945518
-0.07591127
-0.02686830
0.15013774
-0.09360097
-0.03792208
-0.17136313
0.03409097
-0.16062760
0.05598427
-0.00318106
-0.05682572
0.04183445
-0.04800233
0.10326221
-0.12474115
0.11270043
-0.09926692
-0.06858915
0.14440268
-0.02654161
0.07966040
-0.02079412
0.13697782
-0.13949578
-0.01854341
0.09942637
-0.05200512
0.07124557
-0.04052797
-0.04239599
-0.07850946
0.09803333
0.06149693
0.11971848
0.13300252
0.05064034
-0.09180366
0.02828773
0.14144081
-0.05756991
-0.06369659
-0.07898438
-0.12638064
0.09733045
0.03013361
0.03132064
0.09957712
-0.10818392
-0.12944025
0.13199830
0.00582165
-0.10755198
0.05235215
-0.15929161
0.05279797
-0.03863536
0.16692416
0.10977378
0.04681912
-0.15441191
-0.14105080
0.14792781
0.06255621
0.02215427
0.11608158
-0.13959524
-0.16303498
0.03462631
0.06935382
0.05465950
0.06610894
-0.08655383
0.08301279
0.15740606
-0.04047418
0.06781124
0.17256610
0.12430209
0.01106458
0.03613493
-0.03260352
0.02691732
-0.11066986
0.02672959
-0.16457774
0.13697289
-0.10860114
-0.07244427
0.05210188
0.13930430
0.10094166
0.06682039
-0.06492250
0.10822233
0.12778126
0.02614205
0.05145229
-0.09381958
-0.05083707
-0.10753802
-0.00304045
0.11727653
-0.04928562
-0.14098875
-0.00952423
0.16241403
0.11266422
-0.15211041
-0.00851480
-0.15892091
-0.16808441
-0.01090477
-0.05544771
-0.01455989
0.01202475
0.12263483
-0.16602507
0.14392734
0.10447396
0.15599053
0.14844190
-0.01698116
0.05145693
-0.09231848
0.10718429
-0.02715855
-0.16671751
-0.03312346
0.11222976
0.17250240
0.07719282
0.14796121
0.14265876
0.08205384
0.03475286
0.09685511
-0.05021230
0.01676220
-0.12451507
-0.15182373
0.02936498
0.09700131
0.15222067
0.05685249
-0.04240026
-0.16967954
0.16161767
0.02563957
0.05362406
0.04608960
-0.09264915
-0.14202064
0.14262152
-0.11635853
-0.04662855
0.05029817
0.05872514
-0.05969360
0.10973439
0.00266612
-0.07816980
0.17044941
0.05541107
-0.09867601
0.11005299
-0.06793768
0.09727563
-0.00419806
-0.14302430
0.00549456
-0.14437060
-0.04487861
-0.12484604
-0.12199531
0.14028502
0.02838111
-0.11888473
0.11833566
-0.16201726
-0.02309939
-0.10014814
0.16620281
-0.01856162
0.01836698
-0.02598144
0.09623724
0.17260978
0.10784121
0.03748170
0.13054883
-0.16263628
0.12474529
-0.05724537
0.06613810
0.00226869
-0.10913742
0.10303663
-0.07996441
-0.00286707
0.14818090
0.14694706
-0.15935591
0.10863145
-0.10533799
-0.02599278
-0.13558969
0.02541429
-0.05823803
-0.09759142
-0.14999521
-0.15150340
-0.01623398
-0.17069481
-0.00135142
0.10797101
-0.11119735
-0.14412706
-0.03560174
-0.02471937
0.02448228
0.13430591
-0.02023024
-0.14232065
-0.12742731
0.12284052
0.09820580
0.16428237
0.02009848
-0.00629340
0.04801810
0.15326598
0.04090562
-0.06021520
0.03947974
0.14409102
0.15699919
-0.09481085
0.06985246
0.09253816
-0.12785806
0.16161752
-0.01667744
-0.03339105
0.10795939
-0.04881280
0.03493970
-0.02359198
-0.03521520
0.01425960
0.00113566
0.00502914
0.10987249
-0.00662696
0.09531649
-0.06838868
-0.10807701
-0.04651824
0.03339031
0.00447073
0.09174418
0.14655226
0.15433326
-0.02546237
0.11901063
0.09916791
0.04917828
-0.02563408
0.07943428
0.01095649
0.03706869
0.06113888
