-0.07756506
0.13421240
-0.13057481
-0.15837589
0.09030870
0.15177715
0.17040148
-0.11732233
0.03208288
0.17241096
0.16949952
-0.00700907
-0.11486447
0.02428684
0.05251184
-0.10303027
-0.00211719
-0.08849135
-0.04172919
-0.08924308
0.16136779
0.05462213
-0.06563902
-0.03987966
-0.09753743
-0.06077294
-0.00354740
0.14889811
0.16491109
-0.00893779
0.05993767
-0.04823003
-0.07319420
-0.12157393
0.00981320
0.05425853
0.04519167
-0.03450723
-0.03158059
0.12712903
0.16846056
0.03836164
0.16252296
0.14121434
0.07483704
0.07838374
0.12311716
0.06773311
0.08959419
-0.02419280
-0.00630138
-0.02287214
0.00503702
0.02646727
0.09583393
0.16120031
0.14110079
0.09303040
0.10206880
0.14223224
0.14628282
-0.07880780
0.11629078
-0.10703924
-0.13123478
-0.16739097
-0.16983852
0.02423479
-0.01687421
0.12223942
-0.06587899
0.09133001
0.08233294
0.07940701
0.09067780
0.07089509
0.11378759
-0.13474783
0.11074328
0.02639399
0.10419365
-0.16895379
0.06285527
-0.04011276
-0.05157572
-0.02232956
-0.15864918
-0.10298335
0.14493389
-0.05358058
-0.00823405
-0.04043615
0.00179246
0.10398969
0.04060077
0.11143543
0.02435437
-0.10612325
-0.10356438
-0.00163612
0.03764604
0.11205119
-0.01942062
0.13303933
0.16582881
-0.13876373
0.05272102
-0.13078481
-0.11396273
-0.03386272
0.03341629
-0.07934687
-0.05560182
-0.08303268
-0.15926653
-0.02238925
0.03905208
0.05211249
0.13810131
-0.13137844
0.05584359
0.16303539
0.04063517
-0.16933307
0.08063956
-0.10870903
0.03644722
0.15309565
0.02381021
-0.14158790
0.04685952
0.08589879
-0.05252941
0.04038041
0.07237403
-0.10809764
-0.00601436
-0.17054322
-0.07313631
0.03087367
-0.12609133
0.14496180
-0.07427139
-0.08958745
0.07083668
0.10027300
-0.08997182
-0.16687277
-0.05325444
-0.09362818
0.03311079
-0.16382353
0.03150117
-0.12559466
-0.09443275
-0.17220901
0.16851014
0.01988183
0.10144388
0.02758843
0.10166049
0.07882404
-0.12398817
-0.02347718
-0.07060301
0.13701394
-0.07338965
-0.10435432
0.04903054
-0.09714261
0.08246525
0.01888732
0.04634283
-0.14875755
0.17261305
0.05722427
0.17140347
0.10169727
0.10553199
0.06758356
0.11130767
0.04126178
0.03986421
-0.00849530
-0.08631406
0.16789448
-0.08357080
0.13433053
-0.16581054
-0.09736340
0.04801026
-0.10671253
0.05441041
-0.07447799
-0.15678015
0.13840055
-0.06858143
0.00053610
-0.14768825
0.00311202
-0.00731336
0.00943188
-0.05534427
0.11215082
0.12547207
-0.01186231
-0.01460718
-0.11171174
-0.00003282
-0.15761597
0.04220872
-0.06154450
0.08625396
-0.06157206
-0.05634008
-0.14958037
0.17163181
0.03842178
-0.02750042
0.00474311
-0.00790171
-0.13941027
-0.10500411
0.15629196
0.13011266
0.11748511
0.01132877
0.10833997
0.14413571
0.16443527
-0.02861517
-0.02045745
-0.15964127
0.10825028
0.02155271
0.07930541
-0.06291296
-0.09422041
0.01673720
0.13805439
-0.13484727
-0.02780122
-0.00969626
-0.13447511
0.03694033
-0.03517439
-0.09839220
-0.03709285
0.00298648
-0.15126111
-0.11947764
-0.11032112
0.17347047
0.11916979
-0.11999843
0.17230269
-0.02348125
-0.08915160
0.02573467
0.03469570
-0.13796218
-0.05847238
0.08204780
-0.00662950
0.13587463
-0.11666728
-0.02562825
-0.03938063
0.00361842
0.14782766
0.15461151
0.05664724
-0.09881575
-0.10398093
0.10312673
0.00498720
-0.06538057
-0.01472512
-0.04728110
-0.15817000
0.12204064
0.01155928
0.04262170
-0.00266071
-0.15987481
0.03169120
-0.17177762
0.00171920
-0.11386856
0.12911656
-0.01526869
-0.14362963
0.08936378
-0.07490401
0.02714903
-0.16045016
-0.07673928
0.11292785
0.11139700
-0.06795040
0.16970584
0.10007083
0.00484396
-0.00758302
-0.12233484
-0.16393401
0.07664075
0.04008070
-0.09041542
-0.04853880
-0.10192289
0.15851241
-0.08718988
0.15607363
0.09585889
-0.12092689
0.04294712
-0.01533475
0.10722446
-0.12930946
-0.09627209
-0.14061904
-0.05458298
0.11586976
-0.06738177
0.02692924
0.01729905
0.08429337
-0.06811231
-0.10432004
-0.12190034
-0.13975947
0.02798744
0.10702857
0.00145594
0.14718154
0.12525645
-0.06602640
-0.12531006
-0.16870421
-0.10102665
-0.09528115
0.04848853
0.14885682
-0.13151729
0.10786067
0.13002320
-0.04964729
0.09703375
0.06036207
0.14595439
0.15625331
0.06494728
-0.12963137
-0.17317617
0.01577130
-0.03416584
0.15348509
-0.08892071
-0.07740648
0.12872329
-0.03640302
0.03915638
-0.10155797
-0.15013431
-0.15922169
0.07601855
-0.09002884
-0.15368944
0.10794627
0.00957216
0.10985938
0.12312984
0.01429689
-0.00557384
-0.11843606
-0.01513490
-0.04229222
-0.09291902
-0.01196921
0.13423254
0.01920942
0.01668586
-0.07679486
-0.04565974
-0.16268370
0.10870400
-0.04465457
0.12574141
0.10208857
-0.01135033
-0.10025964
0.12990361
0.13949738
0.09470747
0.00997039
0.00736313
0.16726148
0.12111980
-0.10088535
0.00792143
0.13328931
-0.00001889
0.11583549
-0.07236968
-0.11689132
-0.15081055
0.13428298
-0.12966934
0.11534995
0.03124906
-0.09515763
-0.10895373
0.05661243
0.04561299
0.02682474
-0.06424871
-0.07991459
0.14074793
0.14673150
0.00314354
0.07685035
0.03568416
0.04427233
-0.15364236
-0.05928753
0.02245314
-0.12352287
-0.08174794
0.01562808
0.02404201
-0.04670103
-0.13948259
0.03207407
0.02704883
-0.04670672
-0.01579130
0.01970777
0.08096067
0.09036653
0.06217014
-0.11815501
0.05350265
0.03431210
0.08131514
0.04484878
-0.04346692
0.01221152
0.01658544
-0.04276408
0.06141700
0.11244807
-0.13159521
0.01547393
-0.15034086
0.13604881
-0.03592081
-0.01869463
-0.03605961
0.02337797
-0.03910658
0.13124248
-0.16047195
-0.02380888
-0.12130551
0.04451996
0.04111044
-0.05194018
-0.17222762
-0.11627875
-0.05317964
-0.07497311
0.17105594
0.15264589
0.11106345
0.00769199
0.00986783
-0.13517077
0.01154972
-0.01250845
0.04351601
0.08822107
-0.08244536
-0.07322103
0.02646471
0.03285899
-0.11398859
0.07810444
-0.02805282
0.17162076
0.13473363
-0.07867867
0.13786596
0.13367867
-0.02965971
0.11845230
0.14652660
0.11894059
0.06646435
-0.02980526
-0.03275907
-0.08025066
0.09540418
-0.15209727
-0.07548006
0.08925626
0.09864190
0.15924904
-0.02511247
-0.04542814
-0.02543750
0.07532239
-0.07486749
0.13827431
-0.02149470
0.10441107
-0.16632965
-0.05362155
-0.07743163
-0.04065865
0.04579233
0.05109572
0.07143278
0.16233021
0.07731032
0.08121392
0.15059301
0.12437785
0.05052771
0.02245499
-0.07854558
0.15027428
0.02635495
0.15642074
-0.11145988
0.05457956
0.13096988
-0.03684682
-0.04594909
0.12069875
-0.16933918
0.16230112
-0.01972800
0.02941795
0.07286343
0.10531113
0.07167326
-0.02138613
-0.11217321
0.07930049
0.06334795
0.14351803
-0.05912711
-0.11979926
-0.12895314
-0.14986670
-0.07418640
-0.07430410
0.05775277
0.02716455
-0.10907789
0.07404050
-0.17117380
0.16233480
-0.00888667
-0.08506272
-0.10477099
-0.16878495
0.13539323
0.05652696
-0.13210551
0.14032018
0.10267198
-0.03853336
0.00851171
-0.01641336
-0.16568260
-0.00057401
0.01662941
-0.12265813
-0.06400463
0.05493164
-0.11630125
-0.03424810
0.09393588
0.13838899
-0.14535804
-0.01947379
-0.08568120
0.16157445
0.10383004
0.08941808
-0.00702846
-0.00052239
0.13736588
0.11285806
-0.04498352
-0.11101124
-0.08651070
-0.07908419
-0.09583803
0.00320369
0.13723949
0.14749649
-0.12823595
-0.09631122
-0.15014400
-0.03240654
-0.04455116
-0.00345249
0.11819571
-0.13261373
-0.14855678
0.02098968
-0.11618072
0.01083114
0.06701343
-0.08293495
0.16581304
0.06680282
0.11836796
-0.10840882
-0.05420327
0.10765687
0.08003172
0.13249066
-0.07780860
0.12800266
-0.06636767
0.01212104
0.05754738
0.08756253
0.08237645
-0.09205402
0.02619351
-0.06426682
0.11044041
-0.04534130
-0.14839940
0.05031413
0.13746852
0.15291877
0.09679333
-0.07283361
-0.02459176
0.11610738
0.07108075
-0.03447641
0.06975316
0.01717922
-0.17173009
-0.13375832
-0.12554190
-0.08578327
0.04643591
-0.13598615
-0.11687844
-0.14854391
0.10565072
0.16892102
-0.12657347
-0.04164161
0.01733324
0.15004981
0.01214766
0.09720344
-0.09390805
0.04560925
-0.07754082
-0.16375561
0.12999497
0.16251510
-0.08896323
0.09532356
-0.14049383
0.14008018
-0.11348049
-0.05979329
0.08201728
-0.03385666
0.07091075
0.12603025
0.11115116
0.08870264
-0.13851227
0.03079892
0.04886623
0.01043558
0.06456402
-0.14779282
-0.08571537
-0.14526966
0.07820010
0.15575823
0.11438186
0.08443246
-0.04756592
-0.15427807
0.09792471
-0.06747212
0.14444575
0.11515766
-0.05907051
-0.12923524
0.02458143
-0.05874768
-0.05445831
-0.09004099
-0.04019181
-0.11064392
0.04740739
0.04819816
-0.04299535
0.06543385
0.01308749
-0.08040329
-0.04527393
-0.07087908
-0.03600584
-0.09470167
0.11932688
0.10462877
0.00763662
0.01502253
-0.16966401
-0.17205618
0.14694336
-0.05812953
-0.05209061
0.05741030
-0.11492687
0.01673847
0.01046613
-0.05429483
0.16997953
0.08327441
0.15800560
0.15938267
0.16074149
0.11687766
-0.00713239
0.10745463
-0.14975201
-0.16954020
-0.04672868
0.16559757
0.01132793
-0.09991392
-0.13580032
0.05983808
0.14353098
-0.16709243
0.08049223
-0.15806985
-0.17265482
0.13884588
-0.08546275
-0.05221219
0.07134153
0.17185017
-0.06173355
0.11851007
-0.11178855
0.02425025
-0.03192344
0.10581275
0.11474133
-0.05196216
-0.17246015
-0.03953078
0.15018892
-0.16734315
0.17027453
0.14445710
-0.00605017
-0.14999861
0.14239357
0.13551527
0.13265501
-0.14774136
0.05651224
0.01900318
-0.05843282
-0.00696976
-0.04647012
0.09268125
0.03257106
0.07248498
0.15088680
-0.04042600
-0.03601377
0.11695316
0.00253503
-0.00286751
-0.14187391
-0.06475067
-0.14795287
-0.15635961
0.05631450
0.09922490
-0.11794245
-0.04396579
0.10616616
0.08568326
-0.04175610
0.00968004
0.16884029
-0.03541341
-0.15049919
-0.14445627
-0.03023750
0.04341432
0.16245329
0.02343777
0.11431883
0.12214086
0.11279882
-0.00711450
0.11490730
0.03959357
0.14635716
0.02181041
0.14688995
0.15537444
-0.16747212
-0.05901294
-0.10017890
-0.05198878
-0.09857496
-0.04563540
0.11261469
0.10542196
-0.16823441
0.00507816
0.04487393
-0.09266783
0.02129099
-0.05316535
-0.03602564
0.14559379
-0.05371692
0.01226232
-0.08184358
-0.16005355
-0.02465358
-0.17595091
0.08079995
-0.00681067
0.08342130
0.01057826
0.08959399
0.03537779
-0.02720401
-0.13319419
-0.00532660
-0.11281987
-0.00410202
-0.03464339
0.09754244
0.16910625
-0.12836920
-0.04763505
0.02697307
0.16358770
0.09316987
-0.13264577
0.11491811
0.17070556
0.11275738
-0.14126626
-0.16572964
0.03753336
0.13862449
-0.09137194
0.03322087
-0.13767281
-0.07830612
0.01674616
-0.09975985
0.14144583
-0.04367274
-0.02199970
0.10195947
0.07873558
0.13526908
0.05611319
-0.04545321
0.05389215
0.07038905
0.06298959
0.14646454
0.07991301
-0.07496164
-0.10889900
0.13266531
0.07337037
0.10895234
0.10749874
-0.16373727
0.16583362
0.04511467
-0.15201485
0.09443310
-0.04625756
-0.13599925
-0.06736323
0.03507425
-0.08772354
0.06175601
-0.14236912
0.01682313
0.08224580
-0.10189721
0.09229255
0.01313424
-0.05195994
0.17427869
-0.14028297
-0.16767959
0.00680740
0.00572186
-0.10752749
0.00198902
-0.13007630
-0.09332454
0.14940256
-0.03515524
0.06231904
-0.01922545
0.01228829
0.05903177
-0.15302232
-0.11650831
0.12234252
-0.10330714
0.15079983
0.07545153
-0.14683737
0.06677346
-0.09432702
0.00512385
-0.07006102
0.08543011
-0.06496979
-0.10409727
0.04952867
-0.00493857
0.10870346
-0.08101944
0.09414983
-0.01368978
0.08685348
-0.15659492
-0.10764545
-0.02204575
0.14436682
-0.00678506
0.14932747
0.12627696
-0.10220546
0.04746714
-0.08058842
0.08348528
-0.03084807
0.14039853
-0.15212871
0.02446076
0.07007864
0.11684674
0.12583110
0.09420466
0.06431418
-0.04208501
-0.11856073
-0.16918156
0.03869160
0.04871028
0.01971306
-0.07434644
0.17375661
0.08558982
-0.00137289
-0.11813446
-0.06077571
-0.12724684
-0.15166493
-0.04471675
0.11546253
-0.08105025
-0.02475059
0.10149334
0.16904733
-0.11186172
-0.11455136
0.10663974
-0.07134172
-0.02715448
0.02963728
-0.04463990
0.04835804
-0.01974738
0.09243330
0.04772647
-0.03346527
-0.06750487
0.10482505
-0.06552145
-0.02240336
-0.12595223
0.09350172
-0.14131291
0.04092254
0.04814694
0.10040244
0.16732423
-0.01840682
0.09746174
-0.00102298
-0.08334973
0.11972338
-0.11176424
-0.13782983
0.03870248
0.10998696
-0.17288028
0.00341090
0.11591773
0.16171385
0.03892809
-0.08617530
-0.02817632
-0.09474135
0.13408509
0.14107084
-0.15553367
-0.12824659
0.16908060
-0.02878477
-0.10611378
0.16337219
0.13501103
0.13900715
0.11878114
-0.11198846
0.04998627
0.14924683
0.14537287
-0.02133799
0.06174264
-0.07203908
0.14266171
-0.13990311
0.15985218
0.02900032
-0.01219484
-0.11035173
-0.06625225
0.11336704
-0.05090594
0.13667925
-0.15450808
-0.00383209
0.03080623
0.10626503
-0.09524793
0.10261275
0.14258358
0.15052703
0.17244479
0.14607100
0.14036050
-0.10662933
-0.09236293
0.15923950
0.17278630
0.15050074
0.04085312
0.04674253
0.01950488
-0.10689929
0.08552083
0.07901058
-0.02115182
0.00578391
0.08430598
0.00499291
-0.02249834
0.12769979
0.00245312
0.05447203
0.02791264
0.15331736
-0.13855752
-0.08603591
-0.04644220
-0.15121275
0.05749042
-0.00717303
0.11422539
0.06510676
0.02561949
0.13256943
0.05628635
0.12427029
0.10064304
0.06405988
0.03783225
-0.03175935
-0.15609147
0.03010568
-0.13684955
0.00108889
-0.14920242
0.01459984
-0.09821998
-0.15946907
-0.01089600
0.06882285
0.07560597
0.14867078
0.04064345
-0.13333879
-0.01256568
-0.14823289
0.02649144
-0.10041229
-0.05781550
0.12450179
-0.16402864
-0.04322322
-0.17150080
0.05634306
-0.16904049
-0.05215785
-0.02471347
0.02674912
0.04545698
0.16084272
0.03049885
-0.12374989
0.11967818
0.15933236
0.02530307
-0.08515377
0.05080555
0.15647423
-0.16764237
-0.16575186
-0.00937308
0.15614752
-0.10052613
-0.01595527
-0.15946515
0.05209430
-0.05910689
-0.11757684
0.10810646
-0.13497795
0.07369192
0.04449910
-0.04121602
0.06089349
-0.04052050
-0.09089488
0.10462774
0.03387956
-0.12136961
0.03834828
0.08622614
0.11436246
0.14151174
-0.17404930
-0.16102670
0.01329337
-0.00844510
-0.11247781
0.14008738
0.07760024
0.08200044
0.12288550
0.02455140
-0.13910258
0.00973549
-0.08460310
0.17619486
0.02086827
0.17011690
0.16153681
-0.01455972
-0.14526381
0.14241786
0.01222975
0.04676066
-0.09446085
0.04866203
-0.03801158
-0.12589185
0.12716702
-0.10963318
0.09378850
0.11054936
0.09465817
0.09419154
0.11410141
0.06618898
-0.02097912
-0.02111673
-0.07639425
0.03593996
0.01386598
0.03623945
-0.06479135
0.13366598
-0.13047017
0.06514049
-0.00906855
-0.09368654
-0.13812554
-0.09295872
0.11684123
0.07294456
-0.07265823
0.07955338
-0.06497668
0.12672903
0.08953395
-0.04500917
0.08939776
0.13159403
-0.06704041
-0.17175251
0.16516134
0.08071345
0.08656135
-0.15612566
-0.10136414
-0.04805528
-0.13206777
-0.16672586
-0.15100364
-0.00519056
-0.03239819
-0.04845707
0.08812633
0.13541961
-0.11573015
0.02536893
-0.03787684
0.12805536
0.00311076
0.09797131
0.04699763
0.13728473
0.16833130
-0.12253796
-0.13257627
-0.07474996
-0.01730967
0.00763420
-0.13249561
-0.14912082
-0.04072915
0.16537382
0.01533627
-0.00805954
-0.07822832
-0.14167063
-0.05489699
-0.15936181
-0.15472397
-0.14793658
0.00965949
0.00559124
-0.11824214
-0.14987360
0.09634745
0.16053368
0.03097805
0.07898735
0.12744053
-0.02014683
-0.14183488
-0.16185747
-0.00664496
-0.09489536
-0.11316169
-0.08729597
0.10958864
-0.08940678
-0.07530043
0.09917559
0.10124850
0.03962190
-0.11249562
0.11738250
0.02336465
0.05454206
-0.10362116
-0.02592978
-0.08428562
-0.07610742
0.01968291
-0.09319349
-0.11408763
0.04469441
0.11605844
-0.11752537
-0.06373022
0.13819294
0.17050511
-0.03914057
0.16324471
-0.15108684
-0.11689749
0.03505703
0.00572802
-0.15214363
0.00304268
-0.13822129
-0.00762656
-0.00161476
0.10885456
0.11933771
0.15843436
-0.12999611
0.05191948
-0.08545247
-0.11330137
-0.17262566
-0.07354653
-0.04295505
-0.14171810
0.10219973
0.04730828
0.07672343
-0.01053840
-0.04205056
0.16869166
0.06801998
0.06091485
0.05229761
0.13219190
0.17090820
-0.07783038
0.09405751
0.15846130
0.04612891
-0.11588785
-0.11473292
0.07456952
0.07781646
0.09339952
0.12574375
0.15289143
0.06495236
-0.15064129
-0.08888790
-0.07599415
0.00727182
-0.14867727
-0.16943370
-0.13546196
-0.02788126
0.04884835
-0.14034049
-0.01615544
0.04630397
0.04024769
-0.10785463
-0.03176827
0.17173892
0.12771422
0.14965102
0.10725111
-0.17024614
0.17083064
0.07781477
0.03601116
-0.05278724
-0.00734644
0.11844366
0.08420867
-0.03815986
0.16280068
-0.09460613
0.09810569
-0.12658672
0.02318489
0.04847908
-0.04125711
-0.05326067
-0.11108364
0.12078813
-0.09091413
-0.10425901
-0.07090154
-0.00496939
0.14645758
-0.14743362
0.17237607
0.14786384
0.08366513
-0.10160527
0.02407216
-0.04601235
0.06847755
-0.09656293
0.16543511
-0.10345446
-0.03880408
-0.09809759
0.07167812
0.08817101
-0.01320767
0.16299047
0.01129586
0.00520190
0.02079290
0.09465057
0.02554673
-0.01382913
-0.07822901
-0.08742118
-0.09873147
-0.04152328
0.15653771
-0.14961877
0.11702085
0.05459301
-0.00773445
0.08654555
0.11295944
-0.09406551
-0.04492304
-0.12694496
-0.03616029
0.12532222
0.16422480
-0.11552472
0.02184332
-0.08690801
-0.03083124
-0.05547209
-0.05050598
-0.15231837
0.05874491
0.16751774
-0.00306341
-0.07863826
0.13128099
0.13252085
0.05262218
-0.09173468
0.16867585
-0.13320236
-0.06205067
0.13404599
0.07789267
0.15722729
0.01168057
-0.00999148
-0.00460348
-0.16076751
0.08335307
-0.09048679
0.01831402
0.03477276
0.05508221
0.00257979
-0.07228540
-0.09974004
0.04263539
-0.14440916
0.04802421
-0.07448807
0.09411660
-0.16905989
-0.06548825
0.04480370
-0.11737353
-0.05712274
0.12225499
-0.14523464
-0.11894708
0.06305004
0.10745040
0.04212861
-0.12723124
0.14594607
0.10636535
0.01126688
0.01850064
-0.16997339
0.14742234
-0.00167783
-0.00750014
-0.01378177
0.00340571
-0.00892061
0.07951891
-0.11843317
0.16695043
0.08046401
-0.15088600
0.13542593
0.17221907
-0.06347283
-0.11414225
-0.12540695
-0.15559965
-0.10023189
-0.00391447
-0.12960397
0.02205830
0.02687475
-0.17036483
0.13748556
-0.02513543
0.13892913
0.07920744
-0.07116280
0.08055475
0.02603929
-0.09182069
0.06453536
-0.11944986
-0.01538324
-0.15655054
-0.13752577
0.11582410
0.07718500
-0.07821261
0.04817717
0.13217250
-0.16639459
0.01937816
-0.16834590
0.06739816
-0.15752836
0.07022119
-0.10820569
-0.04064804
-0.04173360
0.02228308
0.03177330
0.02845986
0.15836535
0.06792124
-0.11865596
0.16593781
-0.17191032
0.00268203
-0.07289696
0.06478464
-0.14626129
-0.00552248
0.09497896
-0.12550776
-0.11889402
-0.06170461
-0.06948254
-0.09715258
-0.01677828
-0.03462175
0.13076383
0.15118480
-0.05789087
-0.04655009
-0.09097166
0.01900466
-0.00146091
0.07384894
0.17051023
-0.02882776
-0.10499378
0.16656202
-0.14600374
-0.02646521
0.14726508
0.15282291
-0.02368486
0.00962806
-0.11551815
-0.03504352
-0.10120827
-0.04458876
0.06011243
0.05009244
-0.06505807
-0.03593588
0.08680881
-0.15140215
-0.09240370
-0.06605554
0.09441783
-0.04556080
-0.17261477
-0.01764128
0.11221662
0.14888272
0.11757293
0.14258766
0.07368778
-0.10014488
-0.07181966
-0.12917668
0.10663614
-0.17166795
-0.02414827
0.01383612
-0.06300487
0.15493910
0.02636509
0.13587242
-0.15617943
-0.04358894
0.13188109
-0.07241145
0.05679805
-0.08238655
-0.07847480
0.13439116
-0.06281600
0.11456847
0.07038555
0.08611627
-0.00437551
-0.16200007
0.06582877
-0.03295043
-0.16548473
0.15097696
0.06077653
0.17299941
0.12878671
0.01035009
-0.01604277
-0.10079962
0.02665861
-0.07057055
0.15343879
0.14465114
0.13056639
-0.10584103
-0.00652778
0.15524137
-0.09100889
0.05326310
-0.01320974
0.14789177
-0.11239921
0.00369707
-0.10652616
0.12264524
-0.07357808
0.02236427
-0.05102874
-0.14564566
0.06441806
-0.08935698
-0.14250115
-0.03937805
0.01817082
-0.11633738
-0.01305804
-0.11229861
0.14096336
-0.04669068
0.02697471
-0.17279847
-0.02155807
0.01415441
-0.07634308
-0.13274249
-0.00289765
0.07749680
-0.11955777
0.15164933
-0.10576577
-0.01811516
0.00186163
-0.16506240
-0.00849090
0.08827228
0.09563158
-0.02845601
-0.04106848
-0.03173187
0.09521401
0.12498966
0.00406414
0.11570236
-0.14563464
0.08551842
0.03661902
-0.01434525
0.12406769
0.06126055
0.07756346
-0.09129612
-0.12218225
0.12375757
-0.02025741
0.03246307
0.11694729
0.02895829
-0.11952014
0.02822766
-0.05874410
0.13846958
-0.07153611
0.14445323
0.02761751
-0.07109681
-0.00656888
0.00665367
-0.09166633
-0.14677298
0.08508521
-0.11798908
-0.08383018
0.07604523
0.05856228
-0.06905691
0.02997729
0.03884047
0.17312083
0.14238644
-0.14157258
-0.05446843
-0.08627329
0.15575311
-0.01876216
0.00888617
0.05546600
-0.05924378
0.04226199
0.14839941
0.02953032
0.08713785
-0.15271133
0.09927037
0.11535722
0.17162776
0.16373089
-0.15725373
0.01581676
0.03437103
0.16926014
0.15087238
0.03227988
0.03018852
0.10808569
0.03026612
0.00854202
-0.15484118
-0.07079040
0.14591751
0.11530662
0.09568560
-0.04200199
-0.10446391
0.17240402
-0.09585483
-0.00235780
0.10277122
0.14240387
-0.08202103
0.02486923
0.13155472
-0.07851506
0.10542354
-0.06632312
-0.07608280
0.00192089
0.07194680
0.04734363
0.07133307
-0.09374171
-0.01997606
-0.05642397
-0.01219645
0.04226001
0.16176131
-0.13703385
0.03442955
0.07031113
0.06256297
-0.05602770
-0.12700942
-0.03262453
-0.02054277
-0.03969041
0.15603882
-0.01541050
0.03453176
-0.08213356
0.13918975
-0.10777266
0.07349582
0.12954921
0.02046971
-0.14705548
-0.02581580
-0.02981108
-0.01526378
-0.03443079
0.06328845
-0.04256667
-0.15895031
-0.04634605
-0.00105472
-0.16103336
0.01326583
0.00252104
0.03582425
-0.16858195
-0.14929828
-0.10537274
0.14578608
0.13574404
-0.14912194
0.01303470
0.13685477
0.17134777
-0.15899417
-0.04194289
-0.08798444
-0.07608780
-0.12570895
-0.12199229
0.03641684
0.04629898
-0.15785412
-0.15566745
0.07099259
0.04975593
-0.12282092
0.07095182
0.16940880
0.03592944
-0.16855621
0.02696522
-0.09273589
-0.01427253
0.01700285
0.05375914
-0.02068396
0.12725392
-0.05390532
0.07965046
0.07929516
0.07386409
0.07716888
-0.08885276
0.08513734
0.15641394
-0.15677623
0.09857774
-0.10751919
-0.14665000
0.09332311
0.02770969
0.04533514
0.00031087
0.07694453
-0.11765690
0.11920291
-0.08739533
0.07416171
0.17140120
0.11656192
0.05307458
0.06437749
-0.13763033
0.07682279
-0.00986053
-0.12801495
-0.17193951
0.03589161
0.01685546
-0.10479911
0.03368148
0.00671330
-0.00045615
0.08607513
0.11371785
0.15075749
-0.04963774
0.14330503
0.08358291
-0.08304181
-0.08808822
0.12762302
-0.03292768
-0.15930066
-0.04620659
-0.04649447
0.16861102
0.15406325
-0.06799611
-0.14720014
0.08376478
-0.08869092
0.01395644
-0.12209088
-0.17278069
-0.11327027
-0.11888419
-0.15402171
0.07963005
-0.02689447
-0.14267325
-0.14363518
0.03985657
-0.12879340
-0.08712462
-0.07668027
-0.11638968
0.15919979
-0.12678935
-0.06050964
-0.15834561
-0.11564215
-0.00368529
-0.11156517
0.02951949
0.08526496
-0.16521625
-0.14331107
-0.04870623
-0.02113040
0.10176307
-0.06307965
0.05920133
-0.05776630
-0.00685600
-0.11000153
-0.00861896
0.09581298
-0.04573592
-0.09271738
0.05922127
-0.15197986
0.00365702
0.06704561
0.10250106
-0.16803528
-0.05404007
0.15792553
0.05173219
-0.04122780
0.13309844
0.10440679
-0.06582984
-0.05734723
0.07822803
-0.08411741
0.04941458
0.01284513
-0.13208821
0.12594351
0.01960568
0.07083549
0.10794494
0.11497951
-0.13630852
0.06413086
-0.10353114
0.15644240
0.04601055
0.11031685
-0.12916848
-0.00846484
-0.09043466
-0.13366936
0.07671077
-0.10078946
0.02342143
-0.10308681
0.07969601
0.00106086
0.05220237
0.14980569
-0.01594234
0.11274490
0.11494759
-0.12546209
-0.00853121
-0.08566811
-0.15065722
-0.08744117
-0.13610351
0.07125645
-0.07490272
-0.09660246
-0.09752738
0.05966082
0.00562912
-0.12745838
-0.01290834
-0.05781628
-0.03159417
-0.03799024
-0.01028447
-0.09613924
0.05088788
0.13032767
-0.02637333
0.13077661
0.11001739
-0.10731680
0.17288321
-0.04927872
0.15156543
-0.16923954
0.13436234
0.08705884
0.07689282
-0.08727606
0.00067538
-0.12379970
0.10272250
-0.02627212
-0.13031590
-0.02196436
0.03103235
0.14893004
-0.03157076
-0.03606765
0.09620366
-0.07210169
0.00402571
-0.02991275
0.11237073
-0.09675437
-0.03665334
0.14149049
0.13268170
0.05766246
0.09100220
-0.13458277
-0.16435103
-0.01205415
0.02505539
-0.09517194
0.05379181
-0.16185634
-0.04715973
-0.04329821
-0.07888015
-0.11356102
0.13334164
0.11703631
-0.17172654
0.12291190
-0.01702915
0.01905151
0.06741042
-0.01117009
0.06465000
-0.14474344
0.11909476
-0.05199566
0.15292281
-0.06608438
0.08171755
-0.01714362
0.16666114
-0.10797039
-0.06781982
-0.07429559
-0.13737413
0.12993568
0.08569327
0.07617420
0.05972160
-0.07797492
-0.13078955
-0.02946366
-0.12510830
-0.15239790
-0.08176988
-0.17152031
-0.02220874
0.08744860
0.03080164
0.11254793
-0.01836725
0.08480936
-0.07978538
-0.10857639
0.10378432
-0.00443338
0.05880073
0.04230432
0.01103055
-0.11576401
0.02640596
-0.07562377
-0.16018331
-0.05534377
-0.13710289
-0.00835218
-0.05633786
-0.04033862
-0.14978540
-0.08737864
0.03823059
-0.16229837
0.16139182
0.12891197
0.07914498
0.13018590
0.00732534
0.07945166
-0.01082562
0.10958256
0.00020584
0.02170389
-0.07036512
-0.10541107
-0.16066849
-0.15967727
-0.14287905
0.08660991
0.14798693
0.16669269
-0.15545718
-0.00160329
0.02053591
-0.16718984
-0.15733996
-0.07940173
0.13914341
0.12346505
-0.10004527
-0.03254740
-0.01443960
-0.09110317
0.10491880
-0.14120317
0.10404964
-0.07525446
-0.01758366
-0.11619250
0.06855563
-0.12917656
0.08639317
-0.01904919
-0.15487400
-0.14396857
-0.17102888
-0.08878272
-0.07464425
-0.00053340
-0.11613174
-0.00897294
-0.03141164
-0.06777441
-0.02307202
0.13597301
-0.01812450
-0.14814645
-0.01589166
-0.01138092
-0.11684404
-0.15463297
-0.06273645
0.14716259
-0.10109141
0.13687694
0.05919630
0.14312550
0.10085049
-0.10122673
0.03998343
-0.16225836
0.06406797
-0.14174126
-0.00625258
0.15286425
0.09178275
0.12637100
0.04813999
0.05647942
-0.00832079
0.09259296
0.16814104
0.11062732
0.15588892
0.00594936
0.01011132
-0.07345106
0.01499685
0.04449274
-0.12518288
0.12984398
-0.06016628
-0.13807672
-0.11096801
-0.13952404
0.11472818
0.16368163
-0.06713378
0.02799603
0.10324997
0.04571874
0.03142053
-0.14028764
-0.04606479
0.12815276
-0.16604468
0.05230021
0.09511152
0.09999177
-0.07783319
0.04651020
-0.06098673
0.13858992
0.06132238
0.11801127
0.05710749
0.16884154
0.08746383
0.12995183
-0.00762564
-0.10341423
-0.17249984
-0.13994357
0.10955417
-0.13659196
0.04501763
-0.03601789
-0.15951155
-0.05656239
0.14801461
0.16857475
0.02109084
-0.14334692
0.06586297
-0.14591098
0.13396510
-0.08231089
-0.14103501
0.03441472
0.05664973
0.09583119
-0.12965067
-0.08121689
0.16771090
-0.15711039
0.04525751
-0.08247177
0.03064488
-0.04365525
0.16159734
0.04108541
0.02218062
-0.00538768
0.12456912
0.10749850
-0.06928188
-0.00952175
0.15525377
-0.13461614
-0.10212582
-0.07452102
0.03895082
-0.01561338
-0.00353281
-0.02283441
-0.14095810
0.00041147
-0.02386455
-0.14188561
0.00270608
0.00539710
0.03539260
0.16610146
0.14799529
-0.02862136
0.00245273
0.09153745
-0.06499465
-0.08977716
-0.00279854
-0.15594216
-0.07224023
0.09642553
-0.03426152
-0.02331504
-0.11346241
0.05604760
-0.15838832
0.08118427
-0.06586515
-0.11920337
0.03431438
0.04446959
-0.13022108
0.09286907
-0.00794050
-0.08574711
-0.09881742
0.14110191
0.16426063
-0.10938115
-0.11989284
-0.17048620
0.07256627
0.06732280
-0.14837989
0.16739193
0.15756196
0.06534769
0.01475600
0.07185914
-0.16530281
0.09540354
0.05478749
0.00157773
0.06126669
-0.14246699
-0.04093794
0.11482442
-0.13760100
0.00887190
-0.08653168
0.08702028
-0.06876773
0.16840658
-0.09436465
0.11577564
-0.05062198
0.05786156
0.13623656
0.03310822
0.01972179
0.03393758
-0.05378148
0.00521063
-0.09084906
-0.12110638
-0.15574174
-0.15956247
-0.05167988
-0.11581530
-0.08622334
-0.08151042
-0.02318285
0.05593954
0.03653425
0.14959206
0.15493354
0.15473261
-0.01792592
0.04002063
-0.02827390
0.13492645
-0.02987704
-0.11571701
0.02661302
-0.15707083
-0.06616652
-0.00344617
-0.03327379
-0.00483697
0.10717380
0.01740552
-0.14872222
0.04965716
0.15667516
-0.01597472
-0.07448641
-0.06416544
0.03543975
-0.14600278
-0.14060245
-0.03842074
-0.13845111
0.01103534
0.03235067
0.16059302
0.05717478
0.13012695
-0.13363227
0.09985118
-0.00651096
0.12287241
0.14712313
0.15215835
-0.01735137
0.09218878
0.09847528
0.10064055
-0.05570911
-0.00866751
-0.11329401
0.13910201
0.09037217
0.00385442
-0.07894794
-0.08821801
0.14532499
-0.03550476
-0.06246572
0.17214742
0.07803222
0.03419925
-0.17116822
-0.02186362
0.11103601
-0.00319251
0.08906113
-0.09557219
-0.04700255
0.01492386
-0.11274792
-0.06725856
-0.10536723
0.16641113
0.09152992
-0.09656706
-0.12036099
-0.07162057
0.00006263
-0.09468452
0.13107511
0.03238234
-0.02000852
-0.09341164
-0.11522084
-0.02472368
0.08680185
-0.10825968
-0.11393907
0.01888794
-0.10463369
0.14577742
0.03472701
-0.13329914
-0.07539685
-0.13048656
-0.15657382
0.10672364
0.00836659
0.14330500
0.00091331
0.02158837
0.07574852
0.00269919
0.01192146
-0.11785616
0.01313402
0.03906230
-0.01202242
-0.00513102
0.13613744
-0.12648349
-0.11406136
0.02389780
0.10454629
0.04827514
0.04461878
0.03984765
0.11265171
-0.12617517
-0.03882870
-0.04909912
0.16621847
-0.09739722
-0.10452780
-0.05625858
0.17115191
0.09868547
0.05351584
0.06058398
-0.00939165
0.08552919
0.05931579
-0.13132994
-0.09191201
0.02922858
0.10385892
-0.10976609
-0.13726924
0.10487171
-0.09927745
-0.00983828
-0.05461543
-0.03519249
0.11194071
-0.05381702
-0.02555735
-0.05664100
0.12577617
-0.09737574
-0.06252911
0.03453766
0.04085283
-0.14462715
-0.02930662
0.16919455
-0.17270222
0.11018440
-0.01051576
0.16101825
0.14754415
-0.14797124
-0.00313675
0.11245215
0.15352076
0.05621906
-0.02012973
0.07575203
0.00211754
-0.06199111
-0.14702006
-0.04114628
0.12182489
-0.01286738
-0.14682551
-0.12222669
-0.09130864
0.09446377
0.10242778
0.13452062
-0.06945000
0.02171002
0.00418723
-0.16261820
0.13176739
0.13733074
-0.04228784
0.06505084
-0.07826762
-0.08187001
0.04328442
0.14772159
-0.13428102
0.16368753
-0.16339062
-0.12687418
0.13747621
-0.12496951
0.00060683
-0.06657729
0.11645871
-0.02014905
0.11390695
0.13594866
0.04758999
-0.08451262
-0.00133891
0.05268183
0.04403637
0.15681535
0.09522510
-0.12936458
-0.13703443
0.04437858
0.16211069
-0.16206451
-0.07377188
0.00942859
0.01017487
0.02718362
0.16608289
0.05144198
-0.08408332
0.05109592
-0.03552309
-0.06122500
-0.06032022
-0.13338092
0.10863560
-0.14187020
0.01328379
-0.09076218
-0.13896553
-0.16541298
0.13260940
0.08136362
0.00601482
0.16414186
-0.04915814
-0.03656398
0.07181646
-0.05591340
-0.09823225
-0.07601368
-0.07163526
-0.14546251
-0.13166712
0.12393844
0.17280236
0.02300867
-0.07430641
-0.07506785
0.07370865
-0.05486107
0.07992688
0.03328624
0.09738246
0.12765472
0.03592695
0.16693926
-0.14920823
0.08402184
-0.05429263
0.01482338
0.03851655
-0.06611101
-0.09159636
0.05865721
0.07605726
0.04407717
0.05137165
0.16959582
0.02454601
-0.14397779
0.00554451
0.15772742
-0.02175189
0.01856034
-0.12076517
0.06032686
-0.03522481
0.03817025
-0.13605429
-0.15044245
-0.02266750
-0.05273525
0.03899685
0.12996113
-0.17559983
-0.06030250
0.04085057
0.06849718
-0.08804597
-0.07085788
0.12502418
0.16236806
0.12690239
-0.16878013
0.11130389
-0.12196814
-0.16233128
-0.12078319
0.06377210
-0.01822288
-0.12951395
0.00112542
0.12277108
0.03834570
-0.02721493
0.12050126
-0.09558938
0.07316647
-0.00323141
0.05116935
0.04845619
0.07504575
0.13853610
-0.00880590
-0.12446047
0.07213438
-0.06267608
0.10776057
-0.04408443
0.07583184
0.00835859
-0.10203496
0.00864558
0.02640620
0.07157350
-0.05464423
0.08512756
0.09061997
0.00662816
-0.08049549
-0.10568910
0.09218235
-0.16351411
0.00996742
-0.11353551
0.04202023
0.15075368
0.06678765
0.14063540
-0.05473275
-0.07136907
-0.10151869
0.02205338
0.14134678
-0.07471779
-0.02684918
-0.13917837
0.07054527
-0.06601485
0.11780176
0.07412045
-0.03298001
-0.02876570
-0.01617198
0.11805090
0.06728332
0.03878410
0.07908222
0.17066237
-0.10701937
-0.05483611
-0.16456121
0.07349180
-0.12883537
0.05934769
-0.08593255
-0.11373004
0.16833058
0.05570142
-0.08671069
0.05382013
-0.01246528
0.13236836
0.04514526
-0.08971389
0.11432377
0.07129928
0.10385150
-0.14377785
-0.13100912
-0.15830317
0.14979574
0.06248253
0.02234466
0.00284732
0.16295367
-0.12579806
-0.06277771
-0.10951240
0.08726044
0.01838963
0.03297901
0.00547249
0.15570883
0.09320033
0.00036101
-0.07532735
0.11678121
0.06159286
0.04774404
0.04900372
-0.10247292
0.01108462
0.10642995
0.07365039
-0.13300177
0.12735799
-0.04397074
0.14399770
-0.15435810
-0.06299647
0.13599028
-0.06515214
0.15508035
-0.04507233
-0.13617939
0.07607199
0.14781301
0.07083022
-0.03851749
0.03295498
-0.07073098
0.12272540
0.01041976
0.11746769
-0.14748722
-0.04721744
0.15119736
0.09360937
-0.17010163
0.09482611
-0.04682792
0.11526301
-0.04694473
0.16601953
0.13295794
0.14211978
-0.01596399
-0.08765976
0.05116010
-0.05177684
0.08796555
-0.03945806
-0.13516276
-0.02489059
-0.11915787
-0.00962825
-0.04729977
-0.03712250
0.05370422
0.08430660
-0.03783348
0.16534333
0.03696805
0.15832156
0.12004745
-0.08915669
0.02132738
-0.08376794
-0.09989020
-0.15396746
-0.06098785
0.03374415
0.12208163
0.07612070
-0.00564084
0.13313095
-0.03751132
0.03968337
-0.12255763
0.14565843
-0.10901020
0.01475997
-0.08381423
0.17273904
-0.11406829
-0.15760037
0.02789222
-0.08127736
-0.15537372
0.11874917
-0.11384337
0.03485367
0.13141687
0.14001882
-0.13412344
-0.14361681
0.05844953
0.16092151
-0.15251397
-0.08980265
-0.17129616
0.06413717
0.06842868
-0.12836410
0.06153187
0.00804708
-0.06966690
-0.08584780
0.06502660
-0.10040431
0.12859146
-0.07648998
-0.00664542
0.08037624
-0.07173136
-0.08374433
0.07874662
-0.12441525
0.12773532
0.06576879
-0.02236174
-0.01791253
0.03231475
-0.14293408
-0.08001985
-0.02081123
-0.14364432
0.08367230
-0.07796820
-0.12654404
0.13270020
-0.03400829
-0.04207774
0.13309003
0.01730455
0.06805177
-0.06164436
-0.13192436
-0.14932171
-0.05688730
-0.06702273
0.17268790
0.04450458
0.02448176
0.12296697
-0.14083795
0.16726565
-0.04102092
-0.04477945
0.16476363
0.15233976
0.12205580
-0.02229352
-0.15556604
-0.08794072
0.14465597
0.12337476
0.16948628
0.15273070
0.05276445
0.01426737
0.13780490
-0.07800983
0.11777890
-0.06335427
0.02276544
-0.12457795
0.13132310
0.08689813
-0.10828945
-0.10023073
0.03553492
-0.16043334
0.12074426
-0.07345910
0.07130787
-0.12548760
0.13499933
-0.12363167
0.15004699
-0.14261009
-0.11883695
-0.11801545
0.15474631
0.15027137
0.07369904
-0.05412679
0.09440222
0.12344134
0.10049656
-0.08286364
-0.14007774
0.03514966
-0.03000311
0.14293441
0.13537137
-0.08798218
0.11927505
0.03221286
0.16038559
0.10000804
0.04408320
-0.13003695
-0.08781490
0.11894920
0.15335055
-0.08958781
0.04742052
0.04320134
0.08698542
-0.06152018
0.05290602
-0.08572798
-0.10418963
-0.01117576
-0.01120887
-0.05973858
0.04008721
-0.11382820
0.13947214
-0.00254131
0.12311450
0.07607641
-0.09765974
0.03754051
-0.11181584
0.07822002
-0.15374452
-0.02713909
0.09789965
-0.16452162
-0.02784753
0.07176645
0.00990854
-0.01348564
0.14371675
0.00325732
-0.01487096
0.13325633
0.13375992
-0.17195751
0.08441603
-0.07995195
0.12547132
0.04023879
-0.13485071
-0.07249230
0.16720828
0.01211839
-0.11956131
0.16322595
0.02476041
-0.13630572
-0.11970341
-0.09754509
-0.02580696
0.02631213
-0.09806269
-0.03147620
0.06646860
-0.12748036
-0.08536033
-0.00671110
0.02409841
0.09596649
0.06956902
0.11320171
-0.04199052
-0.00587545
-0.17273340
-0.01659284
0.13164265
-0.14789686
0.10976599
-0.06848517
0.09931617
-0.03642780
0.00074478
0.03873929
-0.06146899
0.16892979
0.01174891
0.15996809
0.16900195
0.11785245
0.06584024
0.07941514
-0.07596263
-0.15767074
-0.02014625
0.02937940
-0.04800509
0.03004926
-0.09684839
0.11399069
-0.08156827
0.03825162
0.13026340
-0.17109551
-0.07371670
-0.12551486
-0.10770670
-0.16320923
0.02010943
0.16089490
0.04310763
-0.04260240
0.16030499
-0.06227166
-0.00882949
-0.02027167
-0.15954389
0.11624939
-0.06018998
-0.01063849
0.04083417
-0.12177867
-0.06676377
-0.17081264
-0.08831966
0.14880365
0.01746376
0.07492874
0.12461001
-0.14684574
-0.13016658
-0.04351263
-0.04187388
-0.04468813
0.05144309
0.01588561
0.17259416
-0.08075108
0.05077641
-0.08033746
0.06571446
-0.03553436
-0.10626990
0.12476693
0.06204465
-0.04048245
-0.01809457
-0.00224317
-0.17180718
0.15279195
-0.06522790
-0.13824050
0.00824583
-0.06309836
-0.06830302
-0.05658915
-0.11028924
-0.04184658
-0.00561191
0.06334378
-0.16934128
-0.06367832
0.00148225
0.16832992
-0.13904031
0.13931108
0.08876673
0.08182150
0.11631340
0.09020552
-0.06081091
-0.04618022
0.13943833
-0.16494651
0.11835954
0.05048225
-0.06412716
-0.14403403
-0.16827989
0.07647523
0.10051560
-0.10473252
0.06408110
0.04397376
-0.15010151
0.08024764
-0.03533994
0.09501154
0.16509919
0.09171735
0.01970471
0.01425506
0.00458868
-0.11435299
0.00128487
-0.02294216
-0.04161846
0.12414005
-0.13289893
-0.01878750
0.13664636
-0.13701166
-0.08142843
0.09331217
0.03737815
0.04796317
-0.04444623
-0.13145728
0.13563040
-0.04838030
0.08649290
-0.17139626
0.01313957
-0.03694350
-0.09796730
-0.16938516
-0.06177014
0.17102563
-0.13538878
-0.07680758
-0.02099866
0.04428943
-0.16086236
-0.05961002
-0.08897487
0.03726291
0.05840445
-0.12257861
0.03307112
0.14664412
0.07703921
0.07877241
-0.01083734
-0.08234799
-0.01935619
-0.11729334
0.05308165
0.01434046
0.04104963
-0.07696880
-0.12283072
0.06025665
0.02413772
0.08548573
0.04948817
0.16713741
-0.15453529
-0.11012309
0.00224183
-0.16096646
-0.01888584
0.01731640
0.02407916
-0.11469619
-0.07743506
0.14007211
-0.14792371
0.00897990
-0.04986767
-0.15618728
-0.04169497
-0.07715838
0.11047491
-0.13047922
0.01013551
0.10256261
0.07110398
-0.04137195
0.16271657
0.14673483
-0.09216976
0.02767298
0.07842079
0.02921692
0.15346864
0.09145717
0.01203959
-0.10488046
0.16856200
-0.07425428
0.09387664
0.09871885
0.12602422
0.13819847
0.09491957
-0.12591484
0.14921413
0.00805862
0.08840930
-0.03602814
-0.06899525
-0.09188210
0.13292925
0.17247489
-0.12079728
0.14921185
-0.04079554
-0.08251458
0.08567570
-0.08685374
0.12495637
0.10216930
0.09160063
-0.15609576
-0.14955115
-0.09892568
0.04666554
-0.13976327
0.06757537
0.11443323
-0.03485815
0.09227659
-0.11704680
0.01230815
0.11293978
0.07482766
-0.13417189
-0.05583657
-0.06414173
-0.04357714
0.13528681
0.03923409
0.16104639
0.13662499
0.07418427
0.16816016
-0.12633006
0.14731549
0.13468596
0.04052499
0.04992160
0.01568845
0.10073166
-0.03894568
-0.14915372
-0.12210445
0.15928355
-0.04775922
-0.08173168
-0.00414951
-0.14807047
0.13900580
0.12481204
-0.03186988
-0.04143562
0.14881669
-0.14909489
0.17232575
0.07405563
-0.10663087
-0.03440982
-0.05924196
-0.09238020
0.05013869
0.06730512
0.15219089
-0.00690977
0.05286222
-0.07395598
-0.16229489
-0.16440348
-0.02868521
0.15651971
-0.07445899
0.11839247
-0.01012842
-0.03168299
0.00659329
-0.12117766
0.08116266
-0.12843104
0.16296875
0.01589230
-0.02667149
-0.02437386
-0.11177587
-0.04939954
0.16033511
0.12085493
-0.12501140
-0.14734398
0.03841348
0.15968385
0.05299550
-0.13404714
0.08601987
0.06315964
-0.03251776
0.15690067
0.07417709
-0.10670208
-0.08459563
-0.14372906
0.08894464
-0.13064906
0.09091651
0.14914723
0.13672678
0.04868635
-0.01684010
-0.07205786
-0.08084340
-0.01515579
-0.07197959
-0.14141011
-0.08235102
0.05135236
0.15263306
0.12728766
-0.01668982
-0.15766144
-0.00416580
-0.10025391
0.07270367
0.06711463
0.08154385
-0.14257944
-0.03661351
-0.14763011
0.04374709
0.03883312
-0.12004358
-0.15322146
0.01119487
-0.17401321
0.13133664
-0.09839514
-0.13121164
-0.11892606
0.12583058
-0.13874559
0.01666615
0.11625316
0.02440953
0.04190400
0.16846734
-0.02393319
0.06023467
0.10026183
-0.00103725
-0.00179549
0.12472557
-0.02398836
-0.06846402
-0.02164150
-0.08650286
-0.06486539
-0.05865026
0.01721825
-0.11557034
0.14948723
-0.17137359
0.05144653
0.05385425
0.08824530
-0.01474481
0.14585671
-0.13087907
0.15546989
-0.10324761
-0.10115335
0.12693882
0.15550274
-0.01012722
0.06609727
0.12996545
0.14461577
-0.06041004
-0.07034148
0.09789535
-0.07936595
-0.07686932
0.06715749
-0.01636298
0.09791940
-0.12509170
-0.07399558
-0.01247540
0.00167654
0.09848633
0.12286288
0.10041305
-0.08413027
-0.06258048
-0.02913120
0.15666941
-0.06379328
-0.12357724
0.15585411
0.16423070
-0.07880425
0.09179348
0.04415666
-0.00670029
0.16703832
0.02748108
0.06472102
0.08947131
0.14173397
0.15614310
-0.14185558
0.06177473
-0.16695879
0.08248669
0.01233818
0.11982840
0.08767051
-0.00865781
0.06107266
-0.05669293
-0.17017207
-0.06203509
0.15443128
0.05857377
0.15039131
0.16325378
0.15493119
0.09237596
0.03115202
-0.16145054
0.08779192
-0.15890534
0.05518346
0.16438586
0.11381623
-0.16015473
-0.05741687
0.00260147
0.14303777
-0.08233269
-0.04746656
0.06643225
-0.10800053
0.11687237
-0.09026754
0.00317292
0.05402240
0.02348654
0.00649984
-0.06912818
-0.14726588
-0.01726875
0.08877289
0.07470515
-0.00439449
0.02448057
-0.03230590
-0.03614277
-0.11870836
0.10122433
0.00843647
-0.16853239
0.16280115
0.05271755
0.03728938
0.02408458
0.08134374
-0.05975080
-0.11528452
-0.00046982
0.09338537
0.15723896
0.11068046
0.13583022
-0.17179322
0.05116940
-0.03443742
0.05692756
-0.06275640
-0.00392169
-0.06522568
-0.05563424
0.06369285
-0.06603855
-0.10431042
0.11730361
0.09302860
-0.08726256
0.02435398
0.01768145
0.12163875
-0.12417746
0.11103800
-0.01825772
-0.08252016
-0.07080630
-0.11961066
-0.04052784
0.11002754
-0.00966818
-0.13600631
-0.06424163
0.12720856
-0.06637911
-0.02990140
-0.15023902
0.08674151
0.14112860
0.11707100
0.17016354
-0.05530043
0.05303988
0.15633655
0.06816559
-0.07674081
0.13153073
-0.07528640
-0.03281961
-0.17216906
0.16208050
0.06284884
0.14334249
0.16749138
0.08114834
-0.08067480
0.04755376
-0.13178663
0.08594819
-0.02535817
0.15544182
0.17157276
-0.03489244
0.08693245
0.03772649
-0.16371794
-0.13612412
0.03680250
-0.13245322
0.11370933
0.10187953
0.14910427
0.12384161
-0.04479251
0.02667625
-0.05442206
-0.05928131
0.12203977
0.11058211
0.13957924
0.00339501
0.06816005
-0.10765547
-0.06718363
-0.02468495
-0.15357538
-0.01078241
-0.07774733
0.09870864
-0.15810540
-0.09815650
-0.16569155
-0.06699342
-0.06059236
-0.09856831
-0.10287723
0.08699554
-0.07591990
0.05123897
-0.04923747
-0.00809087
-0.11916001
-0.00138149
-0.06909597
-0.07973926
0.00278219
-0.11316827
0.05565035
0.09965833
0.13694194
0.06073478
0.11832412
-0.05109820
-0.15524918
0.06436981
0.04550408
0.04548384
-0.17152987
-0.12354515
-0.00854059
0.04809133
-0.15070066
0.05450974
0.13907172
-0.13886610
0.12699923
-0.10746918
-0.12847759
-0.14284183
0.02124506
-0.07904208
0.00683624
0.07312891
0.05673881
-0.01242514
0.14514285
-0.13911885
0.06238248
0.00988610
-0.11811087
-0.15592435
-0.16331014
-0.13385846
-0.09288187
0.16620520
0.09189670
-0.13345942
-0.02588284
0.04351859
0.03308241
-0.05215961
0.12197719
0.02601101
0.02163592
0.16588289
0.03597649
0.13701269
0.01971947
-0.02949855
-0.02670930
0.14318515
0.13907567
0.12511149
0.10786599
-0.10738423
-0.10302527
0.03789233
-0.01373719
-0.13378145
-0.12501015
-0.03988068
-0.07776733
0.03392095
-0.09176496
0.03020507
0.00374201
-0.04636002
0.03254747
0.03491147
0.16757925
0.01352926
-0.01177083
0.04060557
0.05019694
-0.13744423
-0.07527014
-0.13476671
-0.07497528
0.14448641
0.00373772
-0.07716942
0.01713137
0.03704333
-0.16472717
0.04248053
-0.08384777
0.12792113
0.06210743
0.11037356
0.05491045
-0.01170003
0.07488380
-0.04855862
0.17271993
-0.14238544
-0.00675632
-0.15616035
0.05255798
0.10335235
0.08925676
-0.14187317
-0.08550016
-0.00868833
-0.03447857
-0.16987485
0.12678796
0.02036631
0.01810718
0.13325575
0.01856927
0.01246860
-0.05631928
-0.02408071
0.11826506
0.01022063
0.12821087
-0.12076330
-0.04799278
0.04371588
0.12595609
0.05311994
0.01087689
-0.13860725
-0.04850312
0.14222136
-0.08003510
-0.06046686
0.10331067
0.03637984
-0.02784555
-0.10830396
0.06946295
-0.15486322
-0.10521320
-0.14467379
0.08202900
0.13469365
-0.11814503
-0.14910392
0.00716015
-0.16046911
-0.00327538
0.14770314
-0.05465502
0.06270278
-0.02550705
-0.09665290
0.00070855
0.08155365
0.11515766
-0.05696422
0.17145751
-0.04019802
-0.02154331
0.15716305
-0.10402142
0.02512186
-0.05903561
-0.10054212
-0.01200888
0.05814520
0.05851570
0.11168056
-0.15298405
0.05442079
-0.07742290
0.15810183
0.14881420
-0.00283174
-0.09529800
-0.09660599
0.08750016
-0.05742242
0.04050152
0.10341799
0.11000034
0.03595164
-0.03338442
-0.04625359
-0.12598521
0.15249561
0.03864758
0.12411308
0.09880143
0.01149533
0.04369196
0.00711378
-0.03040826
0.12523639
-0.11652954
0.10373065
0.11596230
0.10317886
-0.04289848
0.11240867
0.02350218
0.06144209
0.06927364
0.00054837
0.07382321
-0.14481236
0.00553114
-0.15842986
0.04692192
0.14851932
0.13116680
-0.04670273
-0.08498903
-0.02882374
-0.10422476
-0.14425658
0.07693495
0.16596042
0.02089935
0.14512801
-0.02164000
-0.05347714
0.12082683
-0.09388965
-0.05815927
0.00464447
0.09661454
-0.01673034
-0.15129142
0.04066245
0.07656282
-0.16001487
0.13605340
-0.05841760
0.13571832
0.15576300
-0.11291485
-0.16988564
0.07038011
-0.12387408
-0.02196703
-0.02471863
0.00124842
-0.07757472
-0.04893125
-0.15625092
0.06180382
-0.02521387
-0.05977874
-0.11803622
0.02546045
0.11723141
-0.09443027
-0.06038296
-0.05081664
-0.07017776
-0.15584360
-0.00343645
-0.15650344
-0.14530374
-0.09079675
-0.10713752
-0.17006119
-0.03185559
0.03048090
0.09561715
0.16453433
-0.06330188
0.15718520
-0.09691990
-0.15570061
-0.01913001
0.07944572
0.04099686
-0.04917626
-0.05783800
0.02374224
0.04262817
0.05850598
0.09514366
0.02711986
-0.15096571
0.14296319
0.05670242
-0.08655971
0.01748945
-0.01606665
-0.13468374
0.07869909
0.14088266
0.08612326
0.10764228
-0.04002356
-0.02894479
0.06093693
-0.16683862
0.17251506
-0.16185960
-0.01079819
0.00478509
0.03784815
-0.14826994
0.06674934
0.14282890
-0.16632317
-0.08638305
-0.03946322
-0.15636188
0.14873707
-0.16141108
-0.11632210
-0.12537035
-0.12052906
-0.02355805
0.14337839
-0.10441110
0.14059491
-0.03553715
0.15354887
-0.03064929
0.10483166
0.01149575
-0.16950160
-0.12858316
-0.16079345
0.04418979
0.14042377
-0.08501122
0.10160463
-0.13867059
-0.11875440
0.01776831
-0.14549968
-0.04960926
0.05317486
0.10243863
-0.01733764
-0.13661535
0.12629090
0.10059372
0.00179639
0.10222962
-0.02069080
0.08137941
0.16006255
-0.16523620
0.10956710
-0.00458054
0.02579881
0.02216533
0.01526695
0.16211848
-0.13134596
0.14170270
0.16951469
-0.03866240
-0.09800901
0.16207185
-0.14913619
0.13098165
-0.03807095
-0.11479162
-0.01971599
-0.07426096
0.08975337
-0.15821920
-0.06075911
0.13544723
-0.02813628
-0.04593380
-0.11397257
0.10657129
0.03850730
-0.14320862
0.10759379
0.13377875
0.14694197
-0.14955646
-0.06109126
0.07512254
0.05128507
-0.16066116
-0.14147712
0.17062017
-0.13478313
-0.12801023
-0.09130014
-0.14017044
0.00788430
-0.03945465
0.12901798
-0.12186077
-0.01743571
0.01730062
0.03276135
-0.13547905
0.15951768
0.08366749
0.12509793
0.14787021
-0.06826866
-0.11366996
0.11245069
0.01475106
-0.15158975
0.02127329
0.09670824
0.03038892
-0.06320367
-0.14263907
-0.04305275
-0.06852201
-0.07540655
0.04470961
0.04927604
0.10344350
0.14999485
0.02293843
-0.15830490
-0.10509846
-0.08263431
-0.16800505
0.07889795
-0.04160477
0.08919308
0.14995986
-0.17085351
0.08503306
0.00023659
-0.04208517
0.11865637
0.03151749
0.15916404
-0.05196317
-0.12349775
0.09046739
0.00606798
-0.00010423
0.15164906
-0.08053081
0.13492343
-0.13917786
-0.14398406
-0.01485714
0.15033594
-0.13042979
0.08157298
-0.12929557
-0.10029284
-0.03009421
-0.06409916
-0.07623870
-0.02947201
0.17318213
-0.02090092
-0.00873069
0.04802401
0.04737398
-0.00777802
0.14881304
-0.14283122
0.12384921
-0.11526933
0.03360265
-0.00767688
0.05329911
-0.04219638
-0.01373635
0.13472378
-0.16364616
0.10643473
0.08201805
-0.12271136
0.03542270
0.16739288
-0.09418993
0.08493280
0.13770232
-0.12689677
-0.04200034
-0.09586004
0.08371574
-0.06078971
-0.13384673
0.02596831
0.04255985
0.14597401
-0.05003910
0.08698475
0.04299618
0.11877406
0.12106350
-0.13094829
-0.09956022
-0.00163975
-0.12589230
-0.14680503
0.14428404
-0.05506288
0.11507288
-0.04003398
0.08276162
0.10167533
0.09876010
0.05637281
-0.12236415
0.10023925
0.09445009
-0.10344355
0.12257084
-0.12500519
0.05524197
0.15133029
0.16564709
0.06110384
-0.13926575
0.06401314
0.06560582
-0.13091666
0.13654354
-0.15749551
-0.00468913
-0.14946333
-0.15241492
-0.13002089
0.09181958
0.15364605
0.11945564
-0.14265840
0.12575904
-0.10523610
0.05714081
-0.03624453
-0.04204762
-0.08784734
0.05851173
-0.00154886
-0.15828884
0.07308373
0.16120157
-0.00594157
-0.03635783
-0.09641278
-0.03904133
0.02681845
-0.12161011
-0.10018944
0.17305851
0.03628545
-0.16298300
0.00037381
-0.12281489
0.02452925
-0.08542124
0.15138096
0.01942751
-0.13591731
0.14290509
-0.11313597
0.01071179
0.05440368
0.06526570
-0.08537722
0.12581536
0.06699714
0.01480263
0.07922962
0.11108571
0.14525476
0.15949684
0.09271756
0.04677445
0.12338448
-0.09315205
0.16164118
0.16540241
0.15656948
-0.01090811
0.08745810
0.08171764
-0.14626625
0.02970859
0.05329788
-0.13001713
-0.14865221
-0.04883815
-0.09866362
0.06551996
0.14907399
-0.07934064
-0.07002454
-0.01793133
0.06879348
-0.10208745
0.07885018
-0.03203009
-0.16005297
0.06333309
0.05953966
0.11407855
0.10388169
0.08718455
0.00205803
-0.02216861
0.01375443
-0.11123069
0.08160502
0.05902652
0.13006577
-0.10183043
-0.06218062
-0.06886893
-0.11939890
0.01193245
-0.09752374
0.14541301
-0.08390005
-0.16674179
-0.08515795
-0.04051669
0.12287340
-0.14122500
0.00851464
0.10234225
-0.03031629
0.07677491
-0.07003800
-0.09071010
0.09622985
-0.14166446
0.14973238
0.16866079
-0.04951762
0.12089649
0.14490202
-0.01580338
0.12887552
-0.08627651
-0.00675699
-0.15368590
-0.14947903
0.07333729
0.14255384
0.03143841
-0.12774237
0.05498458
-0.12990311
0.03835508
0.09952119
0.06581981
-0.02725981
0.01452774
-0.05244578
0.15815130
-0.02673273
0.13907245
0.03387731
0.07282522
-0.03937595
0.01724851
-0.04369502
-0.14845453
-0.04167061
0.15202346
0.15696445
0.09512252
0.05882896
0.03127801
0.16468960
0.03334390
0.12355316
-0.06920776
-0.08968032
0.11305532
0.09811336
0.00929855
-0.02795997
-0.12025991
0.07514478
0.13459089
-0.07958436
-0.08605174
0.02669738
-0.00907886
-0.07193007
-0.12137942
0.04581203
-0.12714301
-0.01152068
0.13864779
-0.16008402
0.09487671
-0.04095937
-0.14789379
0.13018057
0.10290390
0.00352249
-0.00341706
-0.17113787
-0.06163866
-0.04354155
-0.09759308
-0.10323875
0.10164862
-0.11345667
-0.06584669
0.13124934
-0.09155368
-0.13239169
-0.14957598
0.11974144
0.00284815
0.13203226
0.12127168
0.13067153
0.10328591
-0.05439146
0.06275594
-0.05702274
-0.12477316
-0.05220718
-0.14327185
0.13402101
0.08049536
-0.12133435
-0.02740421
-0.04087964
-0.16359662
-0.14785646
-0.14703925
-0.12428876
-0.08292700
0.07086802
0.11884696
-0.04906654
-0.02838486
0.15043722
-0.01950884
-0.02849108
0.02901739
0.02171054
-0.09644119
0.13566427
-0.00555713
0.04371314
-0.15222009
0.09358571
-0.04657705
0.08350036
0.02814018
-0.15561384
0.05847698
-0.00436458
0.10999657
-0.02883090
-0.05350549
-0.02430231
0.14757502
0.11149073
-0.12820698
-0.08007953
0.06122598
0.08014051
-0.05385048
-0.10243064
0.08517447
-0.11814910
0.16491756
0.02520645
0.11567894
0.16471340
0.14208171
-0.09588915
-0.02479948
-0.15972556
-0.14195763
0.02949298
0.12679577
0.10166907
0.01028895
-0.03359634
0.00477611
0.12263314
0.07880672
-0.06954758
0.14390312
-0.04928987
-0.08137670
-0.02736847
-0.15362039
-0.07559998
-0.05434499
-0.04206199
0.05567553
-0.10284811
-0.17061342
0.02052695
-0.11400896
-0.06813210
-0.02461749
0.01342874
0.03508903
0.13221215
-0.10016607
-0.07766301
0.14761412
0.16751924
0.01370117
-0.00626169
0.03754821
0.06910105
0.00105422
-0.03914014
-0.16763277
0.12132919
0.16300973
-0.01604059
-0.03511317
-0.15072404
-0.09758151
0.09169567
-0.00477709
0.14324132
0.04899812
-0.00436557
-0.03905045
0.14181080
-0.11457230
-0.07129048
0.02194396
-0.08193497
0.10286500
-0.06132995
0.12001909
0.09079137
-0.03704529
0.01161337
0.12527491
-0.07019173
0.01750627
-0.09318677
-0.12807603
0.12442476
-0.12652472
-0.03179436
-0.12820376
0.01431051
-0.15396208
-0.12165843
-0.07558970
0.12444467
-0.03194614
0.14825979
0.10054699
0.04341000
0.16037315
0.03619838
0.00949991
0.15912330
0.15072775
0.02757578
-0.05896115
0.10146448
0.11247543
0.09635910
-0.11858224
-0.05778700
-0.13692322
0.13169239
0.03689682
-0.02705282
-0.09466033
0.14636597
0.05419455
0.01913179
0.04599369
0.14583778
0.12381150
0.04285580
0.05155905
0.07110094
-0.17591999
0.09731016
0.16718557
-0.00339423
0.15818828
0.00168853
-0.09749583
0.09464290
0.02326549
-0.11679387
0.12818170
0.01164744
-0.07445325
-0.14387649
-0.02173553
-0.02801746
-0.03483003
0.06071004
0.01504941
0.10265984
-0.15523720
0.03635724
0.02735724
-0.11569071
0.16166919
0.15052928
0.09244996
-0.09424601
-0.09218517
0.03887253
0.07951085
-0.07562384
0.10748853
-0.06044164
-0.07028487
0.10026892
0.01006044
0.02530355
-0.07551128
-0.05143470
-0.15559779
0.08932344
-0.08614749
-0.03886106
0.14601803
-0.02715662
0.02838396
0.16954762
-0.08864368
-0.00723267
0.05310603
0.02687077
0.09924869
0.01150963
-0.08891851
0.03149009
0.13477580
-0.07895859
-0.11529286
-0.15227067
0.06992841
-0.14239565
0.08714385
0.03784136
-0.03371738
0.03119780
0.09455458
-0.14057623
0.09663269
-0.01062424
0.15235725
-0.08186428
0.15161771
-0.16635634
-0.16800766
-0.17174189
-0.09421007
-0.10568857
-0.16469903
-0.05535400
-0.09279715
-0.12569705
0.11329215
-0.04000147
0.00475420
-0.14597301
-0.01192365
-0.06358708
0.06096887
-0.03281325
0.01867823
0.15241304
0.06840084
0.03261319
-0.01686190
-0.13227621
-0.13520630
0.01180613
-0.12873331
-0.13552733
-0.04014386
0.04311065
-0.14462693
0.14988950
-0.15729952
0.07885310
0.04462606
-0.00506599
-0.15226352
0.11734441
0.01223668
-0.06625731
0.13784692
-0.01583514
-0.14632311
-0.04470406
-0.05047319
-0.01848708
0.14346167
-0.09971826
-0.15361847
0.10152179
-0.05683684
-0.04354240
0.10386238
0.15741399
0.15744546
0.01408958
0.08067760
-0.07838903
-0.15506633
-0.00359608
0.03874326
0.08676457
-0.01235820
-0.05172787
-0.15701357
0.00615638
-0.06101085
0.04871352
0.08368540
0.13100776
0.09570858
-0.08114053
-0.14344792
0.17062324
0.03591627
-0.03811908
-0.13487390
-0.13305894
-0.03505047
0.03629531
0.08865833
0.14058435
-0.08087823
-0.14876041
-0.03061436
0.11918688
0.03657137
0.11904162
-0.01069915
-0.14719032
-0.03002219
0.07685208
0.00633289
-0.10776787
0.11692679
-0.00193819
-0.01864661
-0.08083346
0.12500948
-0.16127796
0.15581551
0.13764456
-0.16157405
-0.03840798
0.16346291
0.05833611
0.08719513
0.06539471
0.09796968
0.14001670
0.02614117
-0.09094197
0.16364962
-0.04137956
-0.02761798
0.10755417
-0.03458081
0.04110642
-0.07949302
0.09070680
0.00829710
0.11055514
-0.05966978
0.12095168
-0.10558612
0.11221704
0.09997928
0.10417613
-0.02189726
-0.09568577
0.01109609
0.06895040
0.06274566
-0.03323455
0.13223851
-0.04626049
0.00045329
0.10868397
-0.03731312
-0.09934524
0.06358156
-0.05168430
-0.10548403
-0.04970980
-0.05887530
0.13730678
-0.15029043
0.02963274
-0.02749698
0.05348331
-0.17353824
-0.02798666
-0.05070928
-0.03038480
-0.04205118
0.03040095
0.16682562
-0.04445462
0.05009689
0.06428567
-0.03359922
-0.02742093
0.07918457
0.12963133
-0.03194887
-0.04935325
-0.10708418
0.11506774
-0.01627383
0.02161045
0.05640339
0.14114434
-0.06022666
-0.15907395
0.14099395
0.09468634
-0.06572119
0.10837322
-0.05710176
0.11135212
0.03890550
0.11352826
-0.15063290
-0.07099222
0.10956927
0.16644612
0.15588968
-0.00727050
0.09057993
0.13030887
0.01671360
-0.10719539
0.08936846
0.05696995
-0.04324490
-0.11248676
0.09441575
0.06266518
0.12137446
-0.03001116
0.16456315
0.08806717
0.09725884
-0.10385704
0.04172647
0.00020610
-0.17191596
-0.03504637
-0.08136880
0.11786409
-0.15272720
-0.00352117
0.03176806
0.07026620
0.04013058
0.01970385
0.08502804
-0.09585534
-0.00376345
-0.15723722
-0.16645998
0.14397730
0.02297713
0.13687758
-0.09456229
0.15077779
0.04360972
-0.10507329
0.11350171
0.13231541
0.16901739
-0.06820367
-0.09696008
0.14783469
-0.05508798
-0.04947387
0.14342254
0.14768073
0.13185024
0.11582011
-0.06881370
-0.16504236
-0.08513342
-0.09504379
0.14930505
0.15380967
-0.11386363
0.14750990
-0.17023152
0.00890438
0.09112215
0.05984020
0.08239815
-0.10534275
-0.01145300
-0.14784472
0.00243007
-0.01401637
-0.15512250
0.13207044
0.16505350
-0.06869690
0.06633960
0.12958744
0.08976449
0.16658597
0.08814529
0.16099027
-0.00845072
0.13009389
-0.07603899
-0.15462254
0.16846153
-0.14827192
-0.11965662
-0.09865768
0.00170764
0.07838148
0.08378174
0.08848216
-0.08984922
0.12905686
-0.10025985
0.06381556
0.00820859
-0.09552781
-0.08465192
-0.11561527
-0.11330045
-0.06058202
-0.11879478
0.17404667
0.13207161
-0.04552026
0.08490980
-0.09052565
0.10092583
-0.16386949
0.13923980
-0.05156401
0.12133991
-0.16602778
-0.14122692
0.11530024
0.08705968
-0.12164776
-0.00419681
0.12168337
0.10914164
-0.04598631
-0.08301939
-0.13494466
0.02913022
-0.06362529
-0.00343533
0.14555646
-0.07965972
0.14645819
-0.12215214
-0.14782408
-0.08041122
0.05762164
0.15566245
0.11803192
0.05794709
-0.02140643
-0.02383113
0.01322329
-0.06284251
-0.08306234
0.05957704
0.05688792
-0.15393856
0.03367471
0.01087160
0.13248169
0.15773366
0.07439408
-0.03411482
-0.12405536
0.03747120
-0.09872094
0.12144127
0.09780306
-0.13078257
0.09207544
-0.11139472
0.15711579
0.11276183
-0.17338130
-0.02646611
-0.02167137
-0.14669695
-0.13271289
-0.02790283
-0.02511974
-0.16380398
-0.06924818
0.05740255
-0.01211653
0.12550960
0.14712332
-0.07374430
0.13970929
-0.01031794
0.05221005
-0.14401619
-0.09389000
0.16828832
-0.02882042
-0.05961565
0.05600006
0.14158913
-0.12277599
-0.07684479
0.08410037
-0.14274342
-0.01526402
-0.10728244
0.10521995
-0.16777883
0.13413191
-0.04366627
0.14985992
-0.03839171
-0.04960525
0.04479475
-0.12912938
0.14680916
0.00585899
0.02399611
-0.04700674
0.02378882
-0.02593797
0.02433735
0.12757011
0.07792292
-0.16062003
0.16543144
0.13676283
-0.07031726
0.16835314
0.14872715
-0.10333622
0.11184659
-0.11993793
-0.08284252
-0.08635462
0.03463355
0.15469617
0.11533149
0.13395077
0.07594714
-0.00858365
0.06914430
0.04967221
0.14075436
-0.08978474
-0.01111455
-0.14250259
-0.07651377
0.06498208
-0.04405697
-0.04336751
0.09782360
-0.11521602
-0.04573939
-0.02195462
-0.16183680
0.01387671
-0.16158821
0.14541754
0.06593312
0.03518277
0.01386090
-0.16283554
0.05886290
-0.14698887
-0.08574193
0.12243001
-0.06058799
-0.03847872
0.12879649
0.16805691
-0.02594279
-0.01207256
0.17254406
0.06012167
0.12278408
0.14339373
0.16294843
0.08492008
0.08789846
0.08702161
-0.02719779
0.14944264
-0.02282681
-0.11714725
-0.02488415
-0.15327445
0.01774171
0.13804817
0.06609096
0.00156812
-0.06182967
-0.04867453
-0.03605163
0.04304465
-0.01343609
-0.17225841
0.06134702
-0.07050146
-0.03786708
-0.13745205
0.00654386
-0.01322931
-0.02663919
-0.04558779
0.03529774
0.02751526
-0.07449858
-0.11711033
0.08856779
0.09282421
0.04308966
-0.15032609
0.01012160
0.02579464
0.01881266
-0.07185526
-0.07922354
0.04154488
0.03252766
0.09737249
0.03232810
0.15383883
0.05742288
0.05110678
-0.05731036
-0.14319347
-0.00417806
-0.15790971
0.17117843
-0.14875852
-0.14387068
-0.00459459
0.09520501
0.06291455
0.13864850
-0.12112910
0.01428311
-0.09256449
0.03298806
-0.09758656
-0.10419461
-0.00414373
-0.11345843
0.07081051
-0.13519907
-0.01811320
-0.07755453
-0.06949230
-0.07843986
0.09582938
0.14154980
-0.04354061
0.05812469
-0.11901117
-0.11469241
-0.13373902
0.14246267
0.10398915
-0.14685209
-0.08034390
-0.01882818
-0.07171936
0.09096718
-0.06501546
-0.11547606
-0.04752573
0.01726077
0.03606674
-0.03533883
0.00821674
0.11619827
-0.15500520
0.00415117
-0.15971135
0.02118036
0.10200731
0.11475755
0.08321962
-0.00691234
-0.02054743
-0.06374741
0.10174558
0.06562617
0.12717134
0.00544872
-0.02932576
0.03188031
-0.13460821
-0.11531398
-0.04815883
-0.01113161
-0.14826356
-0.10116190
0.10509676
0.05550528
0.09615510
-0.05619428
0.12825562
0.00954534
-0.04685803
-0.08516584
-0.13479716
0.10792598
-0.01440182
0.03495572
-0.12106964
-0.10471806
0.05941257
-0.15951209
0.06011841
-0.13198923
-0.06952774
-0.06609683
0.13466045
-0.05498623
0.11294073
-0.09901401
-0.05265058
-0.13289040
0.12804256
-0.07090638
-0.15582933
-0.05892727
-0.17129199
-0.04024440
0.15040824
-0.15918140
-0.13536152
0.10073002
0.13543479
0.01820020
-0.06745204
-0.02095109
-0.02938952
0.13387455
-0.15303020
0.06458358
-0.00990817
-0.05654773
-0.12111014
0.12118217
0.09787221
0.04525413
0.08982457
-0.10079772
-0.16713740
-0.05923490
0.02225443
0.06815803
0.03807459
-0.06184396
0.16012132
-0.12325831
-0.07244544
0.03506299
-0.09230989
-0.04416770
-0.13235754
0.06068890
0.06591734
0.11922741
-0.01799988
-0.02186561
-0.01183206
0.15080625
0.05670217
-0.02279234
0.01148175
-0.06377891
0.08298820
-0.16313097
0.01959719
0.00343296
-0.02362137
0.04180618
0.15544979
0.01243570
-0.12348065
-0.04862110
-0.03593907
-0.10650233
-0.16378999
0.04465964
-0.15289772
0.02014768
0.14564766
0.09366987
-0.06158013
0.02934888
0.08602143
-0.15243126
-0.01527992
0.14711872
-0.15222503
0.06847951
0.08190654
-0.15230815
0.03350310
-0.03123794
-0.11587906
0.05182160
0.13205819
-0.10680363
-0.09834602
0.09675805
0.06249895
-0.13767390
0.07428119
-0.12884396
0.08500432
0.07275436
0.09108394
0.06152333
0.06951290
0.14675328
0.02084537
0.11424477
-0.13932031
0.09875935
0.14011730
0.00176997
0.06521165
-0.03530296
-0.02808659
0.14095172
0.00228454
0.13939515
0.11896515
0.10237297
0.12650302
-0.11398015
0.03517063
0.05162905
0.12863488
0.07015592
0.00578052
-0.03067073
0.00889560
0.05675200
0.02154075
-0.10277418
0.13971044
-0.17296010
-0.03794045
0.15151426
0.03112489
-0.14577883
0.10042895
-0.08223180
-0.12816620
-0.14846894
0.01060285
-0.01269700
-0.12225230
0.06621097
-0.11899611
0.06966514
0.08491501
-0.04452638
-0.17044625
-0.17070600
-0.16398218
0.13407516
0.03955637
-0.01159572
0.10068695
0.16832316
0.15412974
0.12713817
0.12501028
-0.01862027
0.11677149
0.03090252
-0.03325069
-0.01741824
0.13745128
-0.01014056
0.09340194
0.05091146
0.04808081
-0.13406840
0.06233172
0.09558069
-0.15452348
0.16155060
0.14247639
-0.11545417
0.04002323
0.17174898
0.06644830
-0.17297952
-0.12156527
0.03621438
-0.03296679
0.12556082
0.01332527
0.13860664
0.05811822
-0.01825097
0.11239687
0.11202446
-0.01213999
-0.16467901
0.14974773
0.15313569
0.09945466
-0.10904682
0.09692679
-0.07177546
-0.07371783
-0.09942706
-0.14677168
0.09864284
0.13500881
-0.11519830
-0.10704758
-0.14270647
-0.12620960
0.00242916
-0.17553982
-0.13091086
0.14800622
0.17483976
-0.05684451
-0.02760445
-0.08507763
-0.14470585
0.05168529
-0.13061193
0.08058286
-0.16010700
0.07570900
0.05440587
0.03642524
0.00964460
-0.09773118
-0.00222363
0.00187068
0.15254855
-0.11887780
-0.15596056
-0.09407526
0.01998921
0.02472317
-0.04500449
0.07768473
0.15599337
-0.02419222
-0.13685650
-0.04686353
-0.07540552
-0.14730458
-0.09723613
-0.01618300
-0.00164120
-0.15617231
0.14178514
0.01226474
-0.15653515
-0.05870132
-0.02770676
0.15856101
-0.04848529
0.03769845
-0.01809623
0.02890874
0.08983240
0.03465763
-0.01606065
-0.01246449
0.06105264
-0.10394673
-0.07329281
0.02135468
0.07771426
-0.14194807
-0.03868215
-0.12682298
-0.01018482
-0.09331662
-0.06335118
-0.11169630
-0.02330703
0.14525294
0.01662846
-0.06097289
-0.06962343
0.16275385
0.15203252
-0.16088966
0.15375528
-0.00226773
0.11943066
0.12300077
0.05556746
-0.04384075
0.17227703
0.05659617
-0.03434993
-0.04096574
-0.10437047
-0.12583977
0.15092143
-0.07139500
-0.08761150
0.06650907
-0.15101472
0.17084005
-0.07004783
-0.07557148
-0.09489658
-0.13370930
-0.16010232
0.03683385
0.15301985
0.06487431
0.14395154
0.11021546
0.15193856
0.15857697
-0.13667041
0.03227641
-0.15345439
-0.12620594
0.06619018
0.01878953
-0.08385504
0.06463034
0.00144249
-0.03818440
-0.05760320
-0.10592189
-0.02669275
-0.10301168
0.17024544
0.15920985
-0.14894962
0.08153826
0.07825089
0.15813762
-0.17042577
0.06715328
-0.05914933
-0.07003618
0.16851285
0.09686530
-0.02212697
0.03825003
-0.00632694
0.03656472
-0.12493169
-0.10828348
-0.06205773
-0.00854433
0.02942944
-0.14863729
-0.03998898
-0.16755803
0.00613251
0.11866811
-0.03777513
0.00813480
-0.15127425
-0.07324078
0.10829604
0.16988030
0.16831204
-0.10948989
0.11903518
-0.17260076
-0.03254719
-0.04764090
-0.11520887
0.02766328
-0.02496991
-0.14746778
-0.01120540
0.16945112
0.00932890
-0.06287446
0.15550858
0.14074734
-0.14933230
0.08310941
-0.01507869
-0.01696210
0.07689801
0.14038485
0.02855265
-0.02530606
0.07385501
0.00833327
0.04127392
-0.04315715
-0.05588713
0.01764354
0.02184732
0.06148194
-0.03852010
0.14141744
0.11350781
-0.05780311
-0.05833127
-0.07139996
-0.01295929
-0.03168957
0.11829445
-0.00458498
-0.10207403
-0.08937027
-0.05603410
0.15682733
0.15592754
-0.00190800
-0.12935983
-0.10036152
-0.04982172
0.04519086
0.09861913
0.08447793
0.09261498
-0.02844949
0.03507623
-0.12878883
0.01510665
0.05923346
0.05505826
0.14178723
0.09719959
-0.16750059
-0.11302480
0.02980551
0.13066852
0.12043253
0.09224778
-0.02778906
-0.10805512
0.06640038
-0.00032409
-0.04557912
0.05924799
0.00698113
-0.03430389
0.13263839
0.06354204
0.09952623
-0.00153524
-0.13625106
0.03895094
0.03694084
0.07037459
-0.04113628
0.11821076
-0.09392630
0.04383063
0.01426017
-0.03099291
0.11586952
-0.05276488
0.08111897
-0.04370320
0.01545626
-0.07483932
0.16839394
0.10018250
0.02531576
0.01422590
-0.14651002
0.01414187
0.08427447
-0.04114950
-0.01093037
0.11838755
-0.09373242
0.14012131
0.04364741
0.08957931
0.17034847
-0.15158851
0.05070440
-0.05239276
-0.08189260
0.17037648
0.07306407
0.04536323
-0.06662250
-0.12792258
0.01952289
0.01100466
0.01310073
0.11009490
-0.08592170
0.01538679
-0.04121189
0.14882395
0.03500834
0.14671770
0.10382703
0.05360548
0.15166727
-0.08174287
0.13135815
0.14224693
0.06889771
-0.13536936
0.06086850
-0.02191682
0.10674477
-0.06307603
-0.02520803
0.11176077
-0.05288900
-0.11232662
-0.14603195
0.07135747
-0.14202645
-0.05788665
0.09844872
-0.14515223
0.05236861
0.15134636
-0.16730261
0.02850863
-0.04348561
0.07483152
-0.16737068
-0.13497008
-0.00615326
-0.13352838
0.06553677
0.04670075
-0.06243624
0.11523518
-0.10959709
0.02797943
-0.02581316
0.12038186
-0.05894323
-0.13853486
0.15936947
0.10118344
-0.10742665
-0.05730612
0.08351329
0.00445580
-0.00171979
-0.08482713
0.05046546
0.08409968
-0.00886475
-0.08226637
-0.17290705
0.04093249
0.05537243
-0.09808755
0.03906107
-0.15329136
-0.06603603
-0.01794058
0.06452161
0.16635266
-0.16578597
-0.10059892
-0.10534284
-0.13876536
0.08739263
-0.06367972
-0.06899141
0.14933062
0.02941415
0.06941940
-0.10551170
0.01484442
-0.13677984
-0.07866252
-0.01188822
0.01373412
0.00980847
-0.10538282
-0.07485927
-0.10839296
0.09471908
0.10608315
-0.00532217
0.00730589
-0.16821793
0.03377753
-0.10277329
-0.05858891
-0.11486889
0.08492786
0.06002811
-0.11810219
0.10013482
0.09853238
-0.11312214
-0.02710524
-0.12623030
-0.17294161
-0.12535207
0.13499570
0.03159268
-0.06058723
0.05124810
0.01145825
-0.04685630
-0.07220547
-0.12119628
0.02636738
-0.15014565
-0.08757124
0.01974565
0.11652315
0.17218372
-0.12852797
0.08706474
-0.16757587
-0.03347501
-0.17112243
-0.01659840
-0.01133874
-0.14943714
-0.11312623
0.04361263
0.12532231
0.00651222
0.01423664
-0.12733975
0.05103444
-0.02493741
-0.02109984
-0.08737980
-0.04643294
0.00840978
0.04500978
0.04472691
0.11624762
-0.07583557
0.13609076
0.11920121
0.14362565
-0.01574074
0.14871323
0.15309706
-0.07454584
-0.10664873
-0.02510606
-0.09895971
-0.04442388
-0.05268769
0.04985546
-0.13476245
-0.09744425
-0.14483008
0.12392542
0.14402205
-0.14178026
-0.07152496
0.17106560
0.10335848
0.05538295
0.12812033
-0.07814745
-0.02099632
-0.08915046
-0.05800690
-0.14021352
-0.14689204
-0.07058483
-0.15603940
-0.05278676
0.05462077
-0.08507784
-0.17357340
-0.07944441
0.16418137
-0.11943595
-0.12019116
-0.13546996
0.00027218
0.13516301
-0.00529377
0.00205101
0.15827899
0.11456299
-0.09047909
0.15763137
0.16299635
-0.15188196
0.09927469
-0.14174300
-0.15356019
0.06253716
-0.07658954
0.11621881
0.05081002
-0.05549541
-0.13012677
0.15275052
-0.10847489
-0.06230434
-0.12603134
-0.13420749
-0.13766856
0.14485265
-0.11694498
0.11023571
-0.09501635
-0.17261820
0.05703142
0.14554302
-0.09115891
0.12166493
0.06928352
-0.06896920
0.04909087
-0.07719283
0.04690612
-0.09617446
-0.15009893
-0.01398547
0.16888426
0.16323936
0.10617552
-0.05111691
-0.16443750
0.04295177
0.08844498
-0.07784203
-0.02755432
-0.15897588
0.06057155
0.16139585
0.08087278
0.11240079
-0.10839108
-0.14583994
-0.11815700
0.09215813
0.16309455
0.14018247
-0.05689225
-0.04053505
0.00148059
-0.14278311
-0.03016560
-0.16389063
-0.15274441
0.00175075
-0.00018434
0.04543851
0.01061224
0.15087333
-0.06752006
0.15647790
0.16873619
-0.00893333
0.17190424
0.09765486
0.01571062
0.00333600
-0.13504785
-0.06301529
0.02879269
0.10712297
-0.16667685
-0.00470434
0.15539300
-0.16831324
0.03947657
0.03975235
0.12131980
0.12556329
-0.13263445
-0.12763995
0.08690333
-0.09847198
0.02464987
0.00903083
-0.01999871
-0.08153589
-0.04180898
0.08941483
-0.05903166
0.10099222
-0.03165016
0.00765349
-0.09776326
-0.03557177
-0.09478529
-0.07586002
-0.00706660
0.03861310
-0.06794992
-0.06284729
0.11179276
0.06703615
0.03941214
0.02893584
-0.16632161
0.14633438
0.16126256
-0.01082189
-0.15074724
-0.05170845
-0.12149799
0.00810782
-0.12644248
-0.15941001
-0.02715538
0.02086743
-0.03269962
0.05740863
-0.10601827
-0.14246716
-0.09866821
0.15836024
-0.13002054
0.13319635
-0.02188477
-0.16598810
0.08013024
0.10853234
-0.09914900
0.13269952
0.14193714
0.13963445
-0.16437854
0.14492050
-0.00645347
0.06501125
0.12733507
0.04555327
0.00135023
-0.00568263
-0.12618044
-0.11603044
-0.15731569
0.00309455
-0.13989049
-0.15510270
0.13876152
-0.12492978
-0.03282774
0.16815707
-0.12081768
0.15665740
-0.13588865
0.06467320
-0.10411405
0.01314005
0.08953471
0.15291177
-0.06481063
-0.12637444
-0.17170067
0.01502801
-0.00805303
0.15535486
0.05606816
0.01202734
0.16201583
-0.15815826
0.00292465
-0.13778938
0.15194841
0.09909085
-0.00462301
-0.09013965
-0.12752946
0.16160610
0.07543753
-0.09535797
0.09165530
-0.08728284
0.14090742
-0.07302046
0.16873795
-0.08417231
0.02487139
0.09888190
-0.16668001
-0.05936610
0.15374418
0.00452410
0.16660425
0.07908164
0.17032877
-0.09816213
-0.03574987
-0.09898890
0.08461509
-0.11568241
0.02183531
-0.10085632
0.01490162
0.02250219
0.15204458
-0.10739540
-0.03497882
-0.14385584
0.16525096
0.00111869
-0.15839806
-0.02212358
-0.04672305
0.05764500
-0.04981126
0.00533952
0.10363881
-0.03428133
-0.03361389
0.12859653
-0.03781731
0.05730228
0.08428282
-0.01886744
0.14709847
-0.13608840
-0.09411057
0.00893114
0.02389141
0.00826602
-0.06240948
0.01877513
0.06946260
0.14883874
-0.13464785
-0.10192056
0.08093318
-0.07134258
-0.05623347
0.06141335
0.10644478
-0.03444955
-0.06018758
0.04294272
0.12553298
0.03027477
0.07170604
0.17099899
-0.14437026
0.08167963
0.08216561
-0.08305746
-0.04321340
-0.15596461
0.16202971
0.09270009
0.16851133
-0.02379993
-0.10957718
-0.02445345
0.12768839
-0.14220829
0.16444668
-0.09519926
-0.02462171
-0.00664732
0.08156428
-0.05034538
0.11589888
-0.15374510
-0.10826982
-0.09247986
-0.10086042
-0.15295725
-0.02217075
0.17076969
-0.04048195
0.08387184
0.08152738
0.05049813
0.04988103
0.00248833
-0.01347628
0.11980858
-0.09930547
0.00069149
0.15234219
-0.07547172
0.10414940
-0.11134708
0.03783837
0.01958024
-0.12020868
-0.03409927
0.17465714
0.03750223
0.03425974
0.07772174
-0.01032594
0.14174902
-0.03292387
-0.16345273
0.04261233
-0.06736778
0.02558902
0.05223934
0.05667707
-0.02543832
-0.05606260
-0.02408615
-0.14445955
0.10928249
0.14930044
-0.01871004
-0.14438398
-0.12570874
0.01139713
-0.11784900
0.15046220
0.05228954
0.00402088
-0.13571170
-0.04764521
-0.11660403
0.04689825
-0.05495427
-0.02897851
0.03158325
-0.03285823
-0.00433993
-0.05315382
-0.12041732
-0.11349425
0.03713991
0.15527576
-0.07902902
0.01297036
-0.13171783
-0.15763327
-0.07812771
0.05258484
-0.07011175
-0.03689582
-0.05177601
0.13255049
-0.17367688
0.13120610
0.02141337
-0.06883065
-0.09730245
0.14777236
0.09509468
0.05217150
0.15417868
0.05300310
-0.01944435
-0.15862985
-0.02422027
-0.16146047
0.13874738
-0.01234282
-0.09521064
-0.06681173
0.06623676
0.05873473
-0.11826937
-0.13946706
-0.04004873
-0.10596515
-0.14294447
0.07569182
-0.13963014
-0.13169958
-0.00803801
-0.17242505
-0.15668356
0.11553684
0.02089344
-0.06380625
-0.15571065
0.05383613
0.09429082
-0.07052348
0.10606295
0.05806914
0.04336391
-0.11929841
-0.06614732
-0.14550208
0.06399183
0.07972851
0.10010958
0.03771432
0.16402631
0.16983624
0.04578692
0.02253650
0.08560193
0.05810353
0.10795730
-0.01416995
0.14947769
0.12486139
-0.14604491
-0.01825975
-0.03568173
-0.10042553
0.02174430
-0.04370731
-0.12617505
0.12130088
0.15454835
0.08930990
-0.02765839
0.09568772
0.10066831
-0.03852773
-0.05417290
0.12896700
-0.11039983
0.04326457
0.13764709
-0.00116221
-0.10859977
-0.07150545
0.08837798
0.01244582
-0.02473956
-0.09495910
0.14984164
-0.15824169
-0.02849139
-0.03615859
-0.15272881
0.15213567
-0.12760749
-0.10570644
0.12226075
-0.13352218
-0.02379209
0.00106322
0.15450807
0.13544664
0.03732531
-0.08085150
0.05261579
-0.05503029
0.05957115
-0.05991683
-0.11499269
-0.08171763
0.02827808
-0.14258093
0.00654997
0.16460913
-0.12444684
-0.09915348
0.12471798
0.04657803
-0.04637356
-0.05658374
0.11951335
0.00011893
-0.10546477
-0.03254186
0.00353911
0.06454168
-0.11249907
0.07658657
-0.16928805
-0.04399341
-0.10241472
-0.07647777
-0.08017127
0.09871182
0.11278003
0.06724569
0.12444291
0.00062262
-0.09113350
0.10703649
-0.08968804
-0.06977260
-0.08327573
-0.14787325
0.17206699
-0.07842469
0.01009583
0.14601377
-0.06268057
-0.12465127
0.03371817
-0.15530930
-0.13750468
0.09023940
-0.09709585
-0.08472308
-0.04175436
-0.01118592
0.12291613
-0.14051630
-0.01683126
-0.02609687
0.17143175
-0.03597068
-0.13871050
-0.13289098
-0.06865568
-0.12834261
-0.03154318
-0.06754207
-0.04350005
-0.17556989
-0.04372679
-0.09869959
-0.02360535
-0.03444266
-0.12644257
-0.05447618
0.12673642
0.05836803
0.02991362
0.10627442
-0.07650544
-0.11657956
0.04349363
-0.14792269
-0.08748044
0.05855716
-0.09248038
0.16040614
-0.09895343
0.10818252
-0.14488190
-0.14186710
-0.05306967
0.12643771
0.00732396
0.02753067
0.09924778
-0.11583894
0.11727104
-0.01209334
-0.00344106
-0.10384832
-0.13875686
-0.00975391
-0.06940787
0.10697944
-0.14471702
-0.09685224
0.02196121
0.02097797
-0.10914259
0.14781149
0.03748086
-0.06788974
-0.12902841
-0.12227745
0.06324229
0.02959795
-0.16978922
0.15332004
-0.16094474
0.14520290
0.15310793
-0.16893457
-0.04214656
-0.11741409
0.16059299
-0.11795427
0.13897529
0.06913020
0.04590465
-0.01475832
-0.14931817
-0.08078122
-0.08470494
-0.12693489
-0.12921517
0.15577851
-0.10187218
0.08199439
-0.14029366
0.15680757
0.05768190
-0.13086155
0.08746859
-0.12128007
0.04845735
-0.11677466
0.01459951
0.14077516
-0.14561248
-0.14679667
-0.13763788
-0.08083912
0.03857648
-0.03663489
0.14641201
0.00105715
0.09638932
0.12823537
-0.01819384
0.07222152
0.08499010
-0.06292588
0.15506166
-0.11005850
0.12336639
-0.07777732
-0.16272555
-0.05206922
-0.13445194
0.08696292
0.13527068
0.09621221
0.17122234
0.14038146
-0.15574883
-0.08978090
-0.06271961
0.14433569
0.03603769
-0.00987252
-0.09660336
0.00015110
0.06465300
0.02857806
0.13340303
0.09658960
0.02994677
-0.02766778
0.15095462
0.02904613
0.11762156
0.13920298
-0.05696378
-0.10470211
-0.11070405
-0.15584323
-0.00788764
-0.08470047
-0.06627331
-0.11806855
0.14748861
-0.06868863
0.02426166
0.17080432
-0.08247820
-0.06267249
0.05503723
-0.07452911
-0.08173758
0.05101950
0.09817988
-0.08822320
-0.07731673
-0.06383416
0.04280454
0.09499363
-0.03342734
0.15873125
0.00796044
-0.07321960
-0.09292808
-0.03120294
0.06740215
-0.16871192
-0.06623235
-0.17114770
0.09756882
-0.10024782
0.09028383
0.07935360
-0.06730218
0.11529571
-0.13589692
0.02452809
0.10669792
0.08911726
-0.09708147
-0.09965702
0.11298123
-0.10611928
-0.13251404
0.01718441
0.13351232
-0.07884306
0.08894215
0.00179470
0.04637427
0.13472782
-0.08018363
-0.01939235
0.08503175
-0.13846610
-0.06745345
0.08386078
0.01426567
0.12247723
-0.04986351
-0.00001697
0.14730236
0.11916290
0.13493989
-0.02285807
-0.13728365
-0.15566255
0.08143818
-0.10599849
-0.16350158
0.12778056
-0.06534309
0.06551450
0.11763126
0.01963864
-0.05869949
0.12641813
-0.07808898
0.00529850
0.10850996
-0.04534396
0.16199559
0.12311249
-0.01982492
-0.15370974
0.07008862
-0.09010433
0.02341119
-0.02197509
0.05674314
0.17089391
-0.13109720
-0.16515270
0.00819385
-0.01683828
0.07888448
0.06768702
-0.15335174
-0.02255020
-0.14429173
0.11908448
0.15947893
0.11406273
-0.11714604
-0.00358923
0.04924091
-0.11880644
-0.14085796
-0.14372638
-0.08345199
0.13298076
-0.11097656
0.06874649
0.06643267
0.11987609
-0.11589586
-0.13654467
0.09082271
0.11894294
-0.14241527
0.01768871
-0.10318784
-0.17020315
-0.04431933
-0.08307894
-0.16846482
0.03783266
0.02216129
0.08936056
-0.16452944
0.10406310
0.11570000
-0.11136638
0.02003475
0.15087348
0.14031473
-0.08800609
0.17309317
-0.05085815
-0.07059231
-0.12450890
-0.14021182
0.12097311
-0.00034262
0.03248091
0.14202952
-0.13618165
-0.00198832
-0.11355314
0.00926197
-0.01668546
-0.04987561
0.10940424
-0.04644777
0.08393836
-0.05695552
0.07911173
0.09285840
-0.00300011
-0.11055320
-0.09792542
-0.08957605
0.07015301
0.10127452
-0.13165824
0.07961071
0.09056565
-0.09290990
-0.09210163
0.09082568
-0.05242712
0.10146120
-0.07528482
-0.10520583
-0.02756032
0.07346836
0.13980824
0.04165854
-0.05755868
-0.15223540
-0.12809449
-0.13500610
-0.12117237
-0.05808193
-0.01321082
-0.14132494
-0.00450772
-0.09645189
0.03304690
-0.11727323
-0.03945589
-0.01946290
0.06862541
-0.05146742
-0.11020632
-0.13721593
-0.13347875
0.09717673
0.02635334
-0.16227652
-0.06117834
0.07168452
0.12804997
0.07117721
-0.15472683
-0.14748520
-0.05544572
0.12933877
0.03329575
-0.07530497
-0.02790546
-0.08284289
0.11414552
0.02167074
-0.16065164
0.16143686
-0.07939019
-0.05974353
0.01869009
0.09024569
0.04465105
0.07703298
-0.03461543
0.09401929
0.03017324
0.13086814
0.09272796
0.00323342
0.02229166
0.03036989
-0.06266844
0.00516009
0.15640751
-0.14836343
0.07498233
-0.01412737
0.04383728
-0.09710943
0.01409695
0.16323060
-0.05613939
0.05836406
0.12213844
0.16153008
0.01884611
0.05392548
-0.03480537
-0.08581723
-0.13715895
-0.02391344
-0.09279904
-0.08896641
0.08895711
0.11739925
-0.06158489
0.15654236
-0.01824951
0.07161292
0.05775805
-0.14091086
0.01459786
0.02271336
0.14536026
-0.00466014
-0.09675933
-0.10842327
0.14624378
0.00267750
0.12491447
-0.01521361
0.13977152
-0.07609648
-0.12708639
-0.09066447
-0.00119893
0.02151266
-0.08739177
-0.08508068
-0.14138947
0.14527267
-0.08562861
-0.07317919
0.06542787
0.13813198
-0.07780300
-0.04746093
0.09153818
-0.10798751
-0.08835871
-0.16027819
-0.00611117
0.16262190
-0.12099344
-0.08275315
0.09087791
-0.13830976
0.12430766
0.00648914
-0.08542445
-0.07126661
0.08433744
0.09308116
0.09237549
0.07737055
0.04367697
0.15960784
0.05234270
-0.02551514
0.08350579
0.08872885
-0.03244503
-0.03341125
0.05856933
-0.12636472
-0.09347190
0.00601616
-0.13290109
0.13567199
0.02514161
0.05950807
-0.06925555
0.08357082
0.10144910
-0.10487404
-0.01889570
-0.02432826
-0.04915174
-0.13363050
-0.06059372
-0.04218382
0.07375444
0.15978977
-0.00108202
-0.01857483
-0.16530934
0.16735175
-0.02302416
-0.08700946
-0.03464052
-0.06241336
-0.03136535
-0.15762679
0.12926671
0.04334112
0.15153986
-0.06574564
0.05106775
0.14847577
0.05945730
-0.15804324
0.09841550
0.10188130
-0.02640957
-0.10971554
0.09082635
-0.17326254
-0.00813690
-0.15578783
-0.08548573
0.03842491
-0.02284565
0.04816842
-0.07022508
0.03286985
0.12541905
0.13666388
-0.04181764
-0.14273922
-0.03749242
0.06823945
-0.12671112
0.02663211
0.14783084
-0.08132359
-0.09848697
-0.12969640
-0.12291913
-0.00931354
-0.14094652
-0.15901329
-0.14654958
0.16408461
0.08980279
-0.14256933
-0.02532309
-0.07611620
-0.00396028
-0.06488627
-0.01865296
0.04722853
-0.11792655
0.01649679
-0.09611239
0.07355130
-0.08112201
-0.14001346
-0.03462392
0.00045177
0.14367528
0.04354345
-0.11944037
0.15435573
0.10288386
0.08594559
-0.09201416
0.02978894
-0.04402130
0.06189309
0.01430142
0.10260522
0.14942724
0.08832562
0.00466944
-0.04336326
0.00989239
-0.08586627
0.07612022
-0.14094223
0.04069255
0.04044389
0.05335743
-0.06420525
-0.09715093
-0.07820486
-0.02376932
-0.16540642
-0.14178117
0.01377716
-0.15357217
-0.00841061
-0.14469424
0.10554015
0.07675959
0.08203217
0.09936121
-0.12358984
-0.03094682
0.00807369
-0.08932072
-0.01344059
-0.03529613
-0.15740331
0.03316079
-0.03671752
-0.04226092
0.00930189
0.12993225
-0.12156108
-0.07606042
0.05102494
0.01673096
-0.02529462
0.17198089
0.14409131
0.11248186
-0.15292540
0.12412164
0.04265372
-0.02209927
-0.03911854
0.07420862
-0.15760161
0.03105003
-0.14144412
-0.09954598
-0.03981970
0.00240594
-0.08540654
-0.00053135
-0.04753111
-0.16724724
0.10645828
-0.00559378
-0.13423267
-0.14540260
-0.00066473
0.10523841
-0.16794989
-0.12313902
-0.02098203
-0.03212118
0.06149763
-0.11555943
-0.15135404
-0.03526726
-0.02792658
0.06276527
-0.04939720
-0.10906842
0.02555378
0.04478133
-0.15248498
0.08308873
-0.06792851
0.15767330
0.00473632
0.01677874
0.06183721
0.03588513
-0.14930353
-0.03754066
-0.05281761
-0.08778165
-0.00387776
-0.10805145
0.09801713
0.11933142
-0.06029417
0.16076899
-0.09703464
0.03527838
0.09625900
0.10427818
0.04559052
0.07803673
-0.10452577
0.15691605
0.13842529
0.09912905
0.02225941
0.08274400
0.08475655
-0.14365982
-0.10791790
0.13421273
-0.14528267
0.09149900
0.01140630
-0.02210636
0.11290294
-0.07635032
-0.12149146
0.09024858
0.11990282
-0.09761711
-0.06690249
-0.14689188
0.09157297
-0.04474805
-0.09290482
0.12259378
-0.02749539
0.06904291
0.03194337
0.12678428
0.12203610
0.12925637
0.04731516
-0.02272121
-0.10174949
-0.13881834
0.12073136
-0.15260179
-0.01329985
-0.12082245
-0.12483617
-0.16857161
0.08132681
0.12770161
-0.14910056
-0.03492481
-0.04775826
-0.17268898
0.09355907
-0.09304791
0.01566480
0.00542350
0.17140052
0.09356853
-0.15349245
0.14296705
-0.07912700
-0.01178251
0.17128339
0.05117034
0.11603190
0.01078098
-0.10727146
-0.00162926
-0.10874137
-0.08316558
-0.17183366
0.12192056
-0.13455184
-0.14832704
0.05587622
-0.05363513
0.11247189
-0.08469581
0.11248217
-0.01829691
0.05371799
0.07695898
0.11559710
0.10212940
0.11760196
0.03497803
-0.09921722
0.06353102
-0.12605104
0.02866530
-0.07505947
0.05126242
-0.00236422
-0.12759243
-0.11097248
-0.00799466
0.04049605
0.09614071
0.13087800
0.10165510
0.10577500
-0.02548440
-0.06593090
-0.01184391
0.06643281
0.00146812
-0.14082195
-0.14036278
0.11647906
-0.03795272
0.07624467
-0.06533607
0.02945604
-0.00640898
-0.13671806
0.05770984
0.08814433
-0.07151306
-0.02028702
0.15366028
0.17032503
0.09184575
-0.07496040
0.07258815
0.05592041
-0.06757218
0.03130548
0.06153772
-0.03439192
0.09049057
0.01183041
-0.04644768
0.16275311
0.05951707
0.03399475
0.00744662
0.13432959
-0.16700563
0.14081928
0.14155473
-0.16367911
-0.06481761
0.05486456
-0.05022753
-0.17010187
-0.12012323
-0.12161489
-0.05260378
-0.09989269
-0.09030253
-0.11732035
0.08732816
-0.03153642
-0.14051171
-0.10288016
0.06154383
-0.07933746
0.15630141
0.12448870
0.16357893
0.16018690
0.08753440
-0.16730517
0.00628357
-0.06014679
-0.12594998
-0.03861997
0.06175537
0.10562336
0.04670415
0.10235405
0.00298525
0.16360179
0.01596437
0.08231222
-0.03999361
-0.11792922
0.05539912
0.06345515
0.02142863
0.04464963
0.01830521
0.16237663
0.06996712
0.04301065
0.00132632
-0.10596343
-0.16620006
-0.11134958
0.01709565
0.10489491
0.06360051
-0.12105092
-0.03057489
0.00341345
0.06832654
0.14890455
-0.15767884
-0.12670702
-0.10843553
-0.04474141
-0.11356387
-0.10247179
0.04170285
0.02749031
0.08072685
-0.14922921
-0.02652879
0.14429085
0.08408164
-0.03579993
-0.04953917
0.07757124
-0.02383790
0.05084187
0.12723418
-0.01864113
-0.08370604
0.13846974
-0.00331489
0.00831446
-0.09924675
-0.02748050
0.12787861
-0.10649341
-0.15515152
0.04178639
-0.10740940
-0.03442505
0.05267628
-0.13252486
-0.13432951
-0.14679317
0.03445258
-0.10944566
0.17243105
-0.00751793
-0.12771606
0.08236435
0.08657051
-0.10252111
-0.11390909
-0.10431265
0.15651208
-0.02522177
-0.06449708
0.05193442
-0.06546103
0.15271345
-0.14376909
0.16305858
-0.12505469
0.16170944
-0.17145605
0.07136527
-0.10476338
-0.10699404
-0.09919802
-0.02121494
-0.05135112
0.09490602
-0.06608038
0.04600471
-0.05060192
0.09090123
-0.15545903
0.08009857
-0.00039095
-0.08073349
-0.04443778
0.16236225
-0.08386501
-0.16927224
0.01085600
0.07897791
-0.14171626
-0.15273218
0.14005381
-0.17208596
0.16260540
-0.06961337
0.09798238
-0.03248243
0.02347971
0.13055789
-0.10065504
0.13076416
0.12618856
0.05028729
-0.10893694
0.13960066
-0.11186953
-0.03038049
0.05026956
-0.04472617
-0.17211577
0.04415459
-0.10027252
0.14904374
-0.16971327
0.13532162
0.12967716
0.06940238
-0.04472797
0.14246118
0.10648948
-0.14819796
0.01076915
-0.00060486
-0.09304769
-0.06467991
0.00599678
-0.05875729
-0.10466135
0.06443976
-0.15091379
-0.04411937
0.12036708
0.03484383
0.11968412
-0.04860726
-0.12744641
0.14584213
0.02281214
0.14142346
0.06603223
0.12630340
0.02561507
-0.03862709
0.07527259
-0.07514520
-0.05406663
-0.04683429
-0.13773154
0.00351831
0.10601526
-0.12689152
0.02987158
0.12326926
0.04802740
-0.04126751
-0.00645135
0.06683980
-0.00520548
0.07955801
0.12583205
0.14064616
0.00716795
0.08067897
0.00014611
-0.12239315
-0.13442123
0.13381180
-0.15324755
0.08481532
-0.16224864
0.00425272
-0.01087447
-0.02147166
-0.16789198
-0.04555343
-0.03494740
-0.08630179
0.14559186
0.01780121
0.01750331
0.16947293
-0.17208131
-0.16785456
-0.04229201
0.16373989
-0.03919242
0.07579724
-0.02181317
-0.04227793
-0.16911428
0.05975126
-0.06315383
0.12525415
0.02459602
0.08803871
0.13172469
0.01452310
0.07009163
0.17091900
0.15096703
-0.05530458
-0.01154865
-0.00555913
-0.13621208
-0.07403266
0.01856951
-0.03021561
0.11330363
-0.11315406
0.03851303
-0.06315040
-0.05850670
-0.12445721
0.15183672
0.09845820
-0.09816267
-0.09945703
-0.07091949
-0.10488901
-0.13826048
-0.08330470
0.02852866
-0.15928389
0.02524610
-0.04236953
-0.13255563
-0.09151891
-0.13150822
-0.12065560
0.04206018
-0.08579811
0.10034487
-0.06275313
-0.08530810
-0.05296602
0.14863828
-0.13896045
-0.17318587
0.01512206
0.15101889
-0.10435618
0.04305764
0.12726855
-0.10705049
-0.13811868
-0.12965719
0.05353920
-0.12634495
-0.17177704
0.09876719
-0.13091244
-0.11448323
-0.09009006
0.00309866
-0.12568890
-0.10431461
0.07319225
-0.14538346
-0.04007954
0.09390086
-0.09623463
-0.16104509
0.05510323
-0.01147172
-0.15881011
0.04857262
0.05797030
-0.02644697
0.16849741
-0.08052742
0.02816361
-0.12473471
-0.05419853
0.17167833
-0.02594154
-0.12907407
0.12857077
0.12862509
-0.04674925
0.05631054
0.17051959
0.00099985
0.05294421
0.04013687
0.13269950
-0.17190666
-0.10768970
0.09215987
0.11458601
-0.02137032
-0.12297765
0.12793031
-0.03486105
-0.06202242
-0.15838611
-0.00915913
0.04803826
-0.00989015
-0.08331485
0.02408867
0.06323364
0.15158507
0.08490947
-0.09489559
0.04541259
-0.08658859
-0.06083854
0.13409901
0.01777664
-0.03224556
0.09638105
-0.13435283
0.12687495
0.02211174
0.05459443
0.04141715
-0.06358676
0.13051032
0.01605477
0.07989469
0.03962724
-0.05000594
0.10693530
-0.14392380
-0.05486971
-0.15301315
0.00504303
-0.16312829
-0.03767516
0.13650753
-0.09657222
-0.04382089
-0.07352033
-0.14078034
0.09842636
-0.11164621
0.05630384
0.03705557
0.12614974
0.08655053
-0.04326117
0.15473130
0.12932262
0.14626448
0.14309777
-0.12375506
-0.12864566
0.15366872
-0.01498467
-0.15051261
0.13629873
0.08244708
-0.14372519
-0.07479338
0.07690556
-0.15190244
0.09350166
0.15209725
0.05733127
0.08395818
0.10126010
-0.03784187
0.12457663
-0.01268537
-0.05025374
0.15892142
-0.10614213
-0.16590485
-0.01470357
0.03148581
-0.17251627
0.05939277
0.07870261
-0.15006289
-0.05172162
0.14231314
0.10987768
0.14146349
-0.09679995
0.00322937
-0.14519124
0.07159176
-0.09482018
0.08761529
0.11331917
0.06279668
0.01149954
0.12972644
0.16236234
-0.04628323
0.00759771
-0.04753498
-0.14834169
0.03275536
-0.01934760
-0.10278460
0.04850505
0.16128108
0.06524778
-0.08121668
-0.00077176
0.16070282
0.13484913
0.06428934
0.08841343
0.14171351
-0.13633864
0.08936003
0.01225049
0.16243134
0.13903949
-0.10307416
-0.12170847
0.01911291
0.07501735
-0.11361822
0.10660213
0.11505854
0.12087867
0.17006895
0.03875216
0.12571253
0.13509817
0.10592091
0.14114064
-0.11847711
-0.06010671
-0.05161658
-0.14844652
-0.07904779
0.00056908
0.09257975
-0.09358189
-0.16244592
-0.10782254
0.09836337
-0.08800270
0.02281025
0.14465240
-0.14074428
-0.14162114
0.05205328
0.06284167
0.10452268
0.04960671
-0.03543188
0.01344323
-0.00324671
0.04881725
0.00332758
0.09420927
-0.00364146
0.11672902
0.10432042
0.12695113
0.10458261
0.02193269
-0.10865556
0.16888513
-0.00975446
0.12499574
0.10412237
0.05806679
0.06599281
0.01887286
0.10080742
-0.03488656
-0.13961786
-0.12106116
-0.14003228
-0.08353955
0.16209817
-0.10266567
-0.13467382
0.07570096
-0.12990907
-0.12521286
0.15488337
0.00593930
0.07849468
0.12953988
-0.07897588
0.10617694
-0.02001113
-0.02520172
0.14423588
0.11151469
-0.02460702
0.09789826
0.09113985
0.06353268
-0.02651757
0.06498004
0.15632358
0.09752662
-0.13042037
0.15748508
0.17256442
-0.09828383
0.06553982
-0.14812210
0.09972318
0.11819518
-0.15941891
-0.11041097
-0.06966908
-0.09401499
0.05777469
-0.09012040
0.03548542
0.12120470
0.08329800
-0.03546850
0.09767997
-0.14879058
0.06287728
0.16304132
0.01375269
-0.12383987
0.13241838
0.15277623
0.17125168
0.06698933
-0.06292935
0.15542783
-0.13012461
0.03268614
-0.11376485
-0.16563375
-0.08580785
-0.06150552
0.02407092
-0.09843841
-0.00210124
0.15831368
0.07816249
0.03761379
0.02487481
-0.16801983
0.08896020
-0.05215333
-0.14713603
0.07482615
0.14743358
-0.07919744
-0.17072584
0.08017045
0.05292163
-0.04321004
-0.09784060
-0.12815997
-0.15109152
-0.09821372
0.10569446
-0.04888774
0.16452949
-0.12720563
-0.02268017
0.03075709
0.12027401
-0.16803743
0.12469902
0.12055066
-0.05543742
-0.07303543
0.06958331
0.04002743
0.02442263
0.08173305
-0.07110924
-0.02175987
0.00255069
-0.04115372
-0.06617730
0.10677054
-0.03723002
-0.10757614
-0.13728650
0.14613141
0.06078377
0.07765756
-0.08602587
0.02593890
-0.07205611
0.11074712
0.03472961
0.15961909
-0.04585631
0.06887688
0.07864130
-0.02759239
0.10515106
-0.15071775
-0.17306310
0.16735691
-0.09269087
-0.03045345
-0.14476445
-0.08109234
-0.08260392
-0.01241782
0.00674921
0.14783850
0.15010695
-0.16784532
-0.01346221
-0.05268507
0.09558323
0.13206404
-0.14384888
0.07545734
-0.15885794
-0.09706070
-0.16380246
0.16283041
-0.11124238
-0.14687032
0.02231008
0.10359208
-0.04564033
0.13254797
0.07051606
0.14572635
-0.03139094
-0.04986963
-0.04864150
0.08364188
0.09802641
0.12932906
-0.02275453
-0.00094240
0.11078912
0.02466169
0.13166247
0.14795473
0.01183330
-0.15244721
-0.13597095
0.03129590
0.04441735
0.14691854
0.16125992
0.11817953
-0.14663813
0.13107851
-0.02356450
0.01169202
0.06161821
0.04575396
0.12021622
-0.08055264
-0.01793079
-0.04247922
-0.04544263
-0.07655229
-0.07818180
-0.12481315
-0.12205774
-0.02100580
0.15732011
0.07468203
0.10032141
0.17045897
-0.05784808
-0.05516128
-0.11567705
-0.12511040
0.15429205
-0.10542634
0.10780185
0.07586192
0.11503053
-0.14696442
0.02530551
0.05496641
-0.12027305
0.16709593
0.13784723
0.13543983
-0.05614962
-0.02365270
-0.16565488
0.06452346
0.13609932
-0.13458596
0.10375191
-0.04455830
0.09682301
-0.00149878
-0.08381646
0.17359462
0.11956405
-0.10303101
0.13216376
0.02948600
-0.09973647
-0.02014126
0.04384448
0.10253300
0.00675175
0.02903944
-0.02984473
-0.01222144
-0.05242682
-0.07030646
0.10095572
-0.02572590
0.14523432
0.05171359
0.05676408
-0.16418694
0.09857599
-0.05561759
-0.01176296
-0.11861727
-0.03016886
-0.13898948
-0.03564330
-0.08873873
0.12347716
0.12977511
-0.15236275
0.15197535
-0.06583799
-0.03739200
0.03177863
0.17048679
0.08147930
-0.04669352
-0.16732192
0.15055898
0.01504165
0.04433518
-0.16115716
-0.11965321
-0.08928182
-0.14196563
0.14536816
-0.02776767
0.03833951
0.05216753
-0.07255701
-0.05774096
0.15605977
-0.07174106
-0.10076881
0.04788765
-0.01009716
-0.05571220
-0.08052329
-0.12673150
-0.13251689
-0.06927581
-0.13407005
0.09462881
0.01109600
-0.04725760
0.12516582
-0.10034318
-0.00974289
0.09309882
-0.00025363
-0.13147241
-0.06070547
-0.07587261
-0.08232513
0.01854296
0.09224042
0.02709270
0.13976097
-0.12655042
0.12448141
0.00584985
0.04858376
0.11096460
0.08295164
-0.16453852
0.04133615
0.02750829
0.08511367
0.15381843
-0.03956908
-0.01966333
0.17079398
-0.04175881
0.11344671
0.09026134
0.09149200
0.03114575
0.00271538
-0.16309057
-0.04620507
0.12175050
0.01320153
-0.10727229
0.12645471
0.17028031
0.17124376
-0.12383464
0.05114049
-0.07561728
-0.03739604
-0.10424963
0.12152734
0.11446849
0.12193266
-0.02646166
-0.15263696
-0.03314795
0.05326091
0.16200200
-0.06573404
-0.14233634
-0.16842300
0.05551237
0.13335332
0.15097499
0.04387346
0.07480431
-0.01071358
0.10717577
-0.00096279
0.05540943
0.08285919
-0.04200402
0.16912666
-0.05141361
-0.08500247
0.11955222
-0.02139552
-0.17104764
0.10959914
0.06367758
0.11565679
0.00057781
0.13404560
0.02701189
-0.04901526
-0.04738095
-0.15047911
0.08494702
0.11153068
0.04418309
-0.11979880
0.00880756
-0.04262158
0.04113922
0.15329185
-0.04757392
-0.13251102
0.11913472
-0.12345266
0.03255903
-0.10281932
-0.03872572
0.11579311
0.13498624
-0.05633424
0.14533146
-0.10008669
-0.11233336
-0.01518452
-0.03828955
0.17212217
0.04951383
0.02966315
0.12292362
0.01758449
0.05257508
0.13763526
0.06568101
-0.01286311
-0.15456896
0.02898177
-0.15129243
-0.04043560
-0.10030263
0.15768838
-0.02161782
-0.14973487
0.11045435
-0.16095240
-0.11000075
-0.06038276
-0.05984964
0.00401464
0.06398903
0.07627779
0.13989180
-0.17402831
0.17089020
-0.05202943
-0.11213823
0.14405972
-0.07158481
-0.03033599
-0.00850197
0.11788789
0.15042058
-0.05795276
0.04113339
-0.03351406
-0.06807286
-0.09191599
0.05151480
0.08674604
0.07023947
0.04495960
-0.00589387
-0.12874670
0.11332472
-0.10267434
-0.03535163
0.14497364
0.12415057
0.12449656
-0.13703021
0.13534930
0.16037039
0.05296708
0.08450219
-0.08430319
0.02746349
0.09859541
0.05572008
0.17114279
-0.10993492
-0.09041626
-0.09353796
0.01720233
-0.11884491
0.07245080
-0.11793546
0.04868591
-0.05599898
0.03642853
-0.02012679
-0.16002811
-0.10595104
0.15511006
-0.16436288
-0.06885962
-0.14106482
0.11082863
-0.13157627
0.02667789
-0.04182199
0.06913089
-0.04499805
-0.15173371
0.15810788
-0.03662769
-0.07243825
0.01098797
0.15333605
-0.05978682
0.09852404
-0.12064915
0.04963946
-0.01088410
-0.07049286
-0.09067750
-0.10129405
-0.15014295
0.09936772
-0.03990043
0.07228435
0.05411069
0.08165780
0.10439522
-0.14298353
-0.14822456
-0.06118140
-0.14352408
-0.15217973
-0.07273977
0.02155478
0.08352623
0.13090803
0.06407924
0.09993342
0.07309348
0.13113350
0.02813197
0.01582257
-0.00648092
0.00189702
-0.10907049
0.16488568
0.12747562
0.17433038
-0.08120732
-0.16222057
-0.02933288
0.10079431
-0.09353817
-0.17021567
0.04875495
0.08865927
0.14184958
-0.03954910
0.06825518
0.15486328
-0.15924813
0.14718027
0.05083089
0.04973927
0.16438794
0.05493646
-0.03888728
0.00048570
-0.10252389
-0.10528231
-0.17185612
0.11185339
-0.10054332
-0.11444388
0.10498171
0.11464518
-0.09901264
-0.03989933
0.12324220
0.01663489
0.05411728
0.14424494
-0.04327483
0.10587788
0.00198233
0.11447790
-0.05267511
-0.05438139
0.00105980
-0.06714670
0.12521213
0.16719636
-0.11144389
-0.10931843
-0.14075981
0.02319561
0.05215970
-0.02657478
-0.11185741
-0.09802288
-0.14541383
0.16686541
-0.01003811
-0.02352890
0.16668972
-0.01800278
0.13124314
0.00659011
0.07837588
0.15886514
0.15091178
-0.12025933
0.00242919
0.10284296
-0.14330603
-0.05392631
0.14597327
0.00715680
-0.10607135
-0.16791469
0.03720659
-0.10637612
-0.00161309
-0.09164076
-0.08919894
0.00413358
0.13049728
0.02550852
-0.00731324
0.07588153
0.15475237
0.06018800
-0.11854424
0.10838962
-0.16198865
0.15993103
0.07552875
0.04910062
0.13977206
-0.10543345
0.11020131
-0.10496999
-0.03330212
-0.07497762
-0.14912683
-0.07542104
0.07678713
-0.05819350
-0.07714563
-0.11889128
0.07157525
0.09789867
0.05303462
-0.17524084
-0.14557016
-0.16068889
0.02245758
-0.00575607
0.02532844
-0.05070060
-0.10819335
0.01752338
-0.00081570
-0.08028536
0.06910352
0.16612257
-0.05775267
0.03224536
-0.16613390
-0.06208386
-0.07479778
0.02313429
0.03114738
-0.00138596
0.02492656
-0.13447705
0.09525098
-0.08335641
0.14070509
0.12967473
-0.16758792
0.02244618
-0.13892795
0.12696187
0.02184143
0.02846642
-0.06979890
0.15240446
0.01024194
0.02022710
0.15574723
0.10188373
-0.07338366
0.12410513
0.00680472
0.11407101
0.07792038
-0.08566257
0.02885857
0.13249630
0.14989732
0.05898510
-0.13373238
0.14465427
-0.08748516
-0.01355927
0.11977208
-0.02893584
-0.16151161
-0.16382016
0.08169152
0.07575873
-0.12758383
0.01322543
-0.07772087
-0.06541968
-0.03293902
-0.01729593
-0.07860442
-0.00743939
-0.07775059
-0.01009294
-0.09959386
-0.13889435
0.15381050
-0.02210715
0.16598243
-0.14997283
0.04729296
-0.02869104
-0.00653129
-0.09541713
-0.09740861
-0.09742418
-0.09868680
0.09336106
0.08084270
0.04602255
-0.00274415
0.04563788
0.12327462
-0.13026835
-0.10069335
-0.05763813
0.04504686
-0.03162104
-0.09502125
0.10974737
0.15288877
0.05389680
-0.05107144
-0.05940977
0.11629692
-0.02598395
-0.16628410
0.01410763
-0.10506654
0.08202052
-0.13115728
-0.16474286
-0.09946238
0.03993056
-0.08484187
-0.14617535
-0.11637835
0.06684016
0.17058022
0.11966684
-0.07983904
-0.05062268
-0.08531722
-0.05641546
0.03473086
-0.05674995
0.16903633
-0.14434431
-0.14540765
0.15304591
-0.10273318
-0.15251616
0.02957186
0.12384965
0.10939300
0.00493288
-0.08809318
-0.01742373
-0.07896549
0.12958735
0.13499641
-0.14753576
-0.09015016
0.13501614
-0.09497116
-0.07353786
0.05408512
0.07311986
0.16453668
0.15954739
-0.06042603
0.02722381
0.02815143
-0.04275529
-0.16026834
-0.13196097
-0.11710460
-0.05622005
0.05438741
0.01199178
-0.08841982
-0.15045704
0.00265902
-0.11593828
0.02514297
-0.14675659
0.01403227
0.05949494
0.08048394
-0.13460565
-0.06109389
-0.16105781
0.04602009
0.00833023
-0.09195617
-0.03722014
-0.15510365
0.15064061
-0.02183425
-0.04948437
0.14057025
0.16457430
-0.04384122
0.09346219
-0.02398824
0.05747749
0.11778259
0.11594061
0.02017349
0.09459797
0.04805408
0.07263435
0.05160851
-0.00052137
0.08396332
-0.05659402
0.09270734
-0.06430279
-0.02291377
0.09809047
0.00592819
0.05391952
-0.16637896
-0.07849196
0.04629630
-0.13862357
-0.17296267
-0.03249740
0.08958167
-0.09655049
-0.07965442
0.10254054
0.09858733
0.16281842
-0.15823643
0.08841234
-0.04346691
-0.02047544
0.10166252
-0.03410102
0.00263529
0.10747719
-0.15273950
-0.13761373
-0.11962438
0.10409304
0.03777938
0.14108829
0.12215762
0.03043303
-0.07682550
0.03811646
0.07983065
-0.05844254
-0.15307258
-0.09862126
0.07706295
-0.12258058
-0.10524651
-0.16553043
0.15631458
0.02870251
0.10986078
-0.03263246
-0.01322725
-0.11923558
-0.16365232
-0.08525895
0.13854861
0.03472105
0.16253540
0.14709422
0.07752085
0.15062311
-0.01038590
-0.07546094
-0.06206705
-0.13838887
-0.11527160
0.07988334
0.12514833
-0.16362180
-0.13882488
-0.16352533
-0.01437168
0.06605387
-0.12083317
-0.11496325
0.15945101
-0.09973684
0.04998735
-0.10833907
0.02369699
-0.05442177
0.05641727
0.07002805
0.15483588
-0.02474385
-0.04139252
-0.11653297
-0.10659467
-0.12378591
-0.04226059
0.11431673
-0.10069795
0.07847187
-0.14305951
0.03818412
0.08899131
-0.14781949
0.07713446
0.02932355
-0.07801134
-0.10012733
-0.03001727
0.06697872
0.09094763
0.14050847
-0.14175655
0.03910406
-0.09127469
0.10893875
-0.01438171
0.04520246
0.07409552
-0.00320154
-0.16956085
0.03286012
0.04493825
0.16434380
-0.10877143
0.16274253
0.06538980
0.14458710
-0.04378223
-0.08735201
0.08673134
-0.17151429
-0.05480763
0.00869183
-0.03854302
0.06769565
0.03165933
0.11243623
-0.12414959
0.01176280
-0.00232150
-0.11076991
-0.07417084
0.08787233
-0.10809361
-0.14594823
0.02516961
-0.11187559
0.15118167
0.02089274
-0.16146635
0.02567188
0.03745314
0.16821042
-0.03652859
-0.08937097
-0.10148752
-0.02145514
-0.16436446
-0.00986764
0.09620824
-0.07886466
-0.13501720
0.06990722
0.05449596
0.00813857
0.11570769
0.15376949
-0.06440891
0.00928405
-0.15795255
0.10042298
-0.15616399
0.05306696
-0.12819159
0.11201832
-0.15067135
0.08709177
-0.00595999
-0.14193849
0.07303207
-0.10006490
-0.11779710
-0.06410151
0.11206497
0.14393815
0.02138592
-0.14957020
0.13961118
-0.07322310
0.15418565
-0.13714561
0.14288539
0.00617191
0.05131173
0.00525682
-0.01102810
-0.06604589
-0.11549789
-0.12791024
-0.08231176
-0.06400066
0.00587363
0.02040812
0.00127379
-0.04437639
-0.13200653
-0.14658713
0.02642222
0.06073660
0.15783888
-0.09977182
-0.10542459
-0.01263016
0.03504691
0.16423914
0.14783034
0.07262603
-0.06838140
-0.05877917
-0.11747821
0.16257326
0.09570637
-0.12073737
0.04465077
0.00816045
0.08230780
0.11312556
-0.13805774
0.12558381
-0.01798654
0.02623251
0.05436121
-0.15651202
0.11282351
0.05039279
-0.12573257
0.11972743
0.07471534
0.17209110
0.13382825
0.03267933
0.16150312
0.13952874
-0.00478983
-0.16012429
0.14045300
-0.14366679
0.12732178
-0.12384625
-0.14508793
0.04486817
0.04463672
-0.03843283
0.03597428
-0.04078920
0.15395598
-0.08490725
-0.14421511
