0.00108516
0.00000510
0.00121970
0.00109715
-0.00112466
0.00000000
-0.00105848
0.00110203
-0.00117175
0.00115781
-0.00108535
0.00109212
-0.00096895
-0.00000225
-0.00016149
-0.00000201
-0.00000485
0.00000000
0.00000000
-0.00009944
0.00000000
0.00073759
0.00000000
-0.00099247
0.00118613
0.00000000
-0.00141091
0.00113794
0.00139747
0.00033921
0.00115772
0.00000342
0.00120892
0.00100952
0.00000000
0.00000231
0.00120495
0.00119402
-0.00107760
0.00003002
0.00000000
0.00000000
0.00000000
0.00102625
0.00125373
-0.00000404
0.00000000
0.00128176
0.00017115
-0.00110889
-0.00000367
0.00101373
-0.00111961
-0.00127375
0.00000000
0.00000000
0.00000000
0.00000000
0.00124361
-0.00063746
0.00021570
-0.00076687
-0.00000201
0.00041776
-0.00003983
0.00000201
0.00000000
0.00000397
0.00026433
0.00000000
0.00007310
0.00095511
0.00000201
0.00000000
-0.00000416
0.00123752
-0.00096972
0.00126109
-0.00020041
0.00000000
0.00100280
0.00105273
-0.00109634
-0.00026323
-0.00003353
0.00000000
0.00116942
-0.00003251
0.00000201
0.00000000
0.00000000
0.00082008
-0.00004493
-0.00099703
0.00000000
-0.00000473
-0.00000766
0.00011683
-0.00000201
-0.00134796
