0.03584522
-0.01056993
-0.01023000
0.16861603
0.13386060
0.16894774
-0.14621191
0.03689323
0.11082309
0.15159802
-0.15458374
-0.04569181
0.04987325
0.09488794
0.13521260
0.13350856
-0.08136694
-0.13631645
-0.10611333
-0.12527007
0.06819587
0.15389651
-0.01632527
-0.08733637
0.12320484
0.16389300
-0.05188042
0.14753886
0.15899582
0.14802042
0.04478319
0.05034676
-0.13640349
-0.01050926
0.09226181
-0.11792225
0.03147782
0.02540518
-0.05015935
0.06566426
0.03016242
-0.11538084
-0.04697601
-0.09301046
0.14966655
-0.04565898
-0.01453524
-0.07091474
-0.03066413
0.10505826
-0.02296072
0.03259502
-0.12102497
-0.12760693
-0.15945135
0.05191986
0.15885907
0.02827281
-0.03774291
0.01060490
0.06229237
-0.07842550
-0.07380272
-0.15751790
0.01901099
-0.10910510
0.13341953
-0.14276755
0.10402720
-0.06391435
0.10130122
0.12421491
-0.01640919
-0.15835686
0.12833202
-0.05614882
0.08099008
0.01724485
-0.10264076
0.01389643
-0.11694351
0.10607536
0.10288249
0.17068821
0.00753218
0.00904603
-0.02187340
0.01320571
-0.04698384
0.01639898
0.01203114
0.05227114
0.14402390
-0.02993894
0.10950213
-0.07263246
-0.08632978
0.11789604
-0.01535713
-0.04014561
-0.04070216
-0.08446191
0.00186429
-0.16419408
-0.16748160
-0.09255496
-0.09257004
0.02296659
-0.05856567
-0.03721567
0.13853675
-0.01019152
-0.17295937
0.09859648
-0.12045282
0.00881171
-0.02937699
-0.08786906
-0.12245050
0.11971092
0.12988031
0.15219668
-0.07011464
-0.08671919
-0.11262036
0.07502481
-0.02237692
0.09620617
-0.07157731
-0.00728847
-0.07130155
0.04587873
-0.04741222
-0.05114846
0.10784462
0.01865592
-0.01615955
-0.16302682
-0.06911336
0.11837630
0.03121969
0.08579163
0.01783941
0.00748083
0.06254165
0.05108310
0.14162573
0.16737418
0.06151152
-0.11620072
-0.01913112
-0.09366810
-0.15786350
-0.02104227
0.03896679
-0.16411971
-0.08633497
0.02227753
-0.02153996
0.00969899
-0.09629001
-0.00921521
-0.00801732
-0.00352006
0.05008314
0.04040733
0.14404882
-0.09499534
0.10170299
0.00182496
0.08895582
0.13393353
-0.01681560
-0.10759381
0.03235214
-0.15836735
0.15042217
-0.08802139
-0.12485463
-0.01125798
0.13891608
0.02671266
-0.13711029
0.08914444
-0.12731349
-0.06239697
-0.14637703
0.13047892
0.06190760
0.15798926
-0.11541606
0.06237416
0.02234952
0.14075132
0.14102748
0.10400786
0.07519491
-0.09343598
-0.00763048
0.05525807
-0.14434339
0.08763895
-0.12318979
-0.07916637
0.10878673
-0.12097000
-0.08159649
-0.08700110
-0.10538084
0.15213388
-0.04182373
-0.15784939
0.08844402
-0.11118980
-0.07755068
-0.09341106
0.16647620
-0.00715667
-0.09623000
-0.12410326
0.09454194
0.14083666
-0.09726409
0.12414807
-0.06037678
-0.02892660
0.03102105
-0.12757027
0.02363388
0.11316055
-0.09621139
0.04526132
0.13298014
-0.07855807
-0.11402214
-0.01940688
0.12017819
0.10460404
-0.09558282
-0.17217578
0.13658959
-0.16684707
0.10239239
-0.05779181
0.04927213
-0.15209019
-0.13113302
-0.03781185
0.16141593
0.13061713
0.02794594
0.12341739
0.09027050
-0.11228777
-0.02052154
0.07707548
-0.14724532
-0.08082123
0.09579822
0.05749288
-0.13196376
0.02802422
-0.16964935
0.03354439
0.10239463
0.10365400
0.02075321
0.13910979
0.16167185
0.14879981
-0.16084747
0.02523604
0.15461808
0.07379259
-0.02263823
0.03789890
0.16250840
0.05758858
0.16125762
-0.07484211
0.01820524
0.02832555
-0.17474265
0.05128692
0.12430570
-0.16999185
-0.16123731
0.03848714
0.03282939
-0.03832350
-0.12450844
-0.11000958
0.10277586
0.09798343
-0.05447613
0.08688965
-0.09883019
0.14688630
0.09783075
-0.07117283
-0.04444230
-0.08810763
0.10709876
-0.04344717
-0.11929587
-0.09280352
0.01149376
-0.01536007
-0.01842180
0.09280825
0.04010621
-0.16948098
0.15667084
0.07528350
0.05634679
-0.06311022
-0.08767226
0.14551136
-0.13664874
0.05372953
-0.14127596
0.08037487
0.13660586
0.07989952
0.09024903
0.07256590
0.11835343
-0.00007024
-0.10203236
-0.12979405
-0.10354861
-0.14257239
-0.02327812
0.01026474
0.01345761
0.08781353
-0.15020400
-0.06366861
-0.02951859
-0.15928401
0.05745268
0.09489572
0.10996038
0.15154722
-0.01721440
0.13069701
0.06565231
0.11128554
-0.03471391
-0.07430335
-0.07159074
-0.10215852
0.14451608
-0.01573223
-0.13725896
-0.14237355
0.00224857
-0.12925605
-0.03026372
-0.14229108
-0.03696558
-0.03546189
0.06276309
0.04769571
-0.02706733
0.06415458
0.17037514
-0.17114493
0.06264061
0.08572042
0.07687360
0.06405918
0.14870203
0.04834190
-0.12625958
0.16181108
-0.09633464
0.07687569
-0.05516033
0.06035380
-0.14381665
0.09098983
0.10124940
0.07905224
-0.08741019
-0.04765892
0.10152841
-0.06522965
0.02705470
0.16192836
0.13111711
-0.13186695
-0.13587937
0.10622248
0.02069762
-0.13119896
0.04358542
-0.04545882
-0.15363927
-0.05023038
-0.10419127
0.12239843
-0.05516902
-0.12698171
0.02889409
0.04428416
-0.10522953
0.01414389
-0.00695586
0.08814942
-0.04432036
0.06754410
0.01694793
0.07800224
-0.11990079
-0.03271447
0.02975719
0.14885856
-0.11974818
0.08866011
-0.03850928
-0.11830112
0.05314810
0.05198532
0.15193042
0.15530066
0.08032349
0.00309665
0.00277534
-0.10479434
-0.02639910
-0.17005624
-0.13714845
0.04174492
-0.14256598
-0.10888911
-0.07506918
0.02055121
0.11376402
0.08412053
0.09534316
-0.14391458
0.07642956
0.13346082
0.14745390
-0.15216857
0.00989589
0.10043246
0.14962195
0.08797684
-0.03718895
0.09568398
0.07031679
0.04804577
-0.09174603
-0.01821728
0.00316742
0.16843158
0.15447587
0.10522573
0.11246334
0.11207673
-0.13964118
-0.04850650
-0.01853388
0.06981037
-0.06522588
-0.14859948
0.02790768
0.06845171
0.13851035
-0.12385662
-0.09953385
-0.12211812
-0.16352779
0.00594399
0.00702818
-0.06625218
-0.15065707
-0.03425757
0.16849852
0.01287236
-0.02272028
-0.10758469
0.04368259
-0.01950769
0.12850448
-0.09601438
0.11954409
-0.15583889
-0.02239524
0.09599679
-0.12820324
-0.07719054
0.03943189
-0.08353287
0.09843749
-0.00652509
-0.06960174
0.03357807
-0.07167629
0.02776770
0.09803574
-0.16505268
-0.00975716
0.10232379
-0.11022197
0.13663648
-0.11878538
-0.14251614
-0.13465756
0.07897791
0.14176509
-0.09344538
0.05134155
0.12294629
-0.10039829
-0.13989826
-0.12677684
-0.12826870
0.14197257
-0.06952066
0.14841646
0.04533540
-0.00294880
0.00896540
0.13705334
0.08209074
0.14726755
-0.00328855
-0.02814282
0.00826617
0.04504402
0.14709297
-0.01956728
-0.06396200
0.12077847
-0.02126823
-0.02929291
0.14127286
-0.05913633
-0.02961580
0.00273005
-0.08991060
0.06868894
-0.07830083
-0.08203565
0.15243517
0.03589059
-0.00189644
0.08060133
0.08276196
-0.08720482
-0.11545012
-0.00738406
-0.00440565
-0.11912332
-0.06644572
0.15212920
-0.15334871
0.06549198
-0.12813480
0.16777301
0.05748819
0.06652665
-0.04880507
-0.01471839
0.05679186
-0.12940495
-0.01284243
0.03182057
0.02590156
0.08319849
-0.06305901
-0.04464047
-0.03715753
-0.13616985
-0.05711434
0.11657616
-0.16518535
0.09945161
0.03287433
0.03241111
-0.14237718
-0.01338119
-0.08851307
-0.13319516
0.07297431
-0.06865383
0.04585573
0.11544957
0.08181048
0.00579186
0.03636052
0.10957891
-0.06545329
-0.06207342
0.05013950
-0.07199459
-0.11486458
-0.12036835
-0.07767152
-0.10490850
0.03975640
-0.10547102
-0.12798972
0.01347144
-0.11802026
-0.11419590
0.00620140
0.12729868
-0.05710336
0.10222328
-0.02348761
-0.07565974
-0.04272950
-0.08453237
-0.04671429
-0.11831523
0.02835971
0.10182133
-0.16372748
-0.02576101
-0.07352304
-0.14504328
-0.12137310
-0.07324541
0.10786736
0.17010355
-0.08485191
0.07300226
0.15300968
0.14141282
0.04526664
0.06886575
0.03636907
-0.12510443
0.03964944
-0.05675747
-0.17290631
0.03557202
0.10114789
-0.15411252
-0.11587889
0.12877351
-0.03180400
0.08864790
-0.02399613
-0.12257236
-0.01179250
-0.14642321
0.10276964
-0.16776265
0.16690800
-0.11195096
0.10268581
0.00893903
0.03919639
0.07585461
-0.13959053
-0.07326730
0.00244084
0.01807946
0.01991549
0.01876938
0.07906535
-0.02745837
-0.07390039
-0.14535291
-0.01528521
-0.13738334
-0.02492870
0.05969563
0.15178302
-0.00992285
0.11585906
-0.05928152
0.12555030
0.04729865
0.07746115
0.06509189
0.10890168
0.12731448
0.02348456
0.13094994
0.11728418
0.12114239
0.04234570
0.14759398
0.15853497
0.03905657
-0.08433601
0.00479372
-0.02693507
0.03745022
-0.10437286
-0.00706472
0.05318142
-0.05365128
0.12624317
0.13703698
0.07539847
0.16395420
0.11410737
-0.09736399
-0.03169801
-0.13262668
-0.04626032
0.07173586
-0.09800781
0.04543322
-0.12289302
0.09625760
0.13540244
0.03649893
0.07712927
0.12365313
0.10109615
-0.04098539
0.03601062
-0.05654457
-0.02342778
0.15047447
-0.03919341
0.07338189
0.06024897
0.13517551
-0.11858596
-0.07010163
0.10867842
0.06633787
-0.17080627
-0.16311873
-0.10428043
-0.07102285
-0.00011790
-0.04601242
0.16156930
-0.04266219
-0.06157473
-0.14720646
0.09249306
0.15579370
0.10685188
-0.01587919
-0.05146965
-0.04941827
0.02879394
-0.00982771
0.03490907
-0.16296867
-0.13400863
-0.14748164
-0.10846522
0.11505988
0.04501348
-0.06555708
0.14075053
0.06708103
0.15094146
0.16732503
0.07526857
-0.11891290
0.10203043
-0.07911348
-0.11586374
-0.01297458
0.08448026
-0.03829803
-0.00264143
-0.13350856
-0.03444688
-0.10458489
0.08333063
0.03756027
-0.06530142
0.06498540
0.07133270
-0.14022653
-0.06539571
-0.07887201
0.14670624
-0.11779545
-0.03048804
0.13434620
-0.03546746
0.14462221
-0.05391878
0.05299419
-0.14773162
-0.00434071
0.03547819
-0.00969493
-0.08296973
0.14676873
-0.10404167
0.13334434
0.15045416
-0.08839162
0.04038446
0.01249154
-0.05546670
0.06553099
0.06720659
-0.01275286
-0.16391723
0.14555568
0.01650928
-0.14553201
0.15175393
-0.01380986
0.01394200
-0.10673838
0.08772811
0.07715863
0.04212341
0.13196415
-0.10194498
-0.13793992
0.09338173
-0.06543795
-0.02395941
-0.06599428
0.09596196
-0.08538610
0.04500206
-0.00371170
0.10103649
0.15349057
-0.03109190
-0.12623270
0.04673481
-0.14394422
0.14982590
0.08788991
-0.01202358
-0.02264722
-0.09965334
0.00424491
0.01689664
0.02393153
0.11171356
-0.11331284
-0.15201609
-0.15308976
0.11054659
-0.01160806
0.14016506
-0.11308266
0.16827330
0.02626750
0.13389149
0.13637176
-0.01095329
0.13565570
0.16819790
-0.16694649
-0.02281193
0.08002117
0.10201815
-0.15386327
-0.02480197
-0.05554698
0.15427464
-0.10631032
-0.05646440
0.16004565
-0.05352644
0.10462281
-0.03270794
-0.12364769
-0.13258702
-0.03829971
-0.04291743
0.09213337
-0.00303859
0.02794698
-0.11960843
0.06444708
-0.16288075
-0.09087086
0.05429713
-0.00137794
-0.03334038
-0.07836933
-0.13466755
0.02459222
0.08910292
-0.11234508
0.07535829
0.07346584
-0.00156571
-0.15351345
-0.16247036
0.06893958
0.14502636
0.11367154
0.13766038
0.09920561
0.11206862
-0.02114877
0.16904882
-0.00865584
-0.16246921
0.11303142
0.13469267
0.03654933
-0.01741233
-0.12823258
-0.03317920
0.11945370
-0.08846194
-0.10710648
-0.03571552
-0.08607442
-0.15297744
-0.01220734
-0.06425752
-0.00055769
0.16056930
-0.07172734
0.09046393
0.07769416
-0.13544320
0.03318561
-0.04147349
0.16522147
0.14135320
0.05638983
-0.02470177
0.04709397
0.00662938
0.07397261
-0.07723815
-0.10780119
0.03426918
-0.12889810
-0.03770364
0.04587327
0.04161967
-0.08895569
-0.01557573
-0.11932711
0.00578155
-0.03877986
-0.11154126
0.11638807
0.04818569
-0.15053993
-0.16868967
-0.06942274
-0.14840019
-0.10402961
0.03297402
-0.00714743
-0.07108357
0.11008848
-0.16971757
-0.15251015
0.05390169
0.12133547
0.16773836
-0.15711296
-0.07465708
-0.07806323
0.01367596
0.02265080
-0.13797460
0.12417311
0.15105893
0.01283499
0.14985704
-0.03524548
0.05552009
0.02446264
-0.16866876
0.15536693
-0.15906204
-0.06332546
0.10321303
0.11105748
0.00510766
0.16839574
-0.01293655
0.14324149
-0.15897368
0.03936982
0.07310526
0.02023586
-0.07188524
-0.00018616
-0.10837206
0.12532809
0.03660734
0.07765126
-0.04003150
-0.07284185
-0.14706750
-0.05975636
-0.05690568
-0.02819595
0.07472984
0.04443024
0.14791697
-0.09085575
-0.07661122
-0.00640780
0.01642418
0.13097304
0.12875882
0.11939344
0.12990689
0.14887008
0.14817691
0.05468044
-0.01495390
0.13562113
0.01326331
0.12063867
0.06806107
0.01577461
0.07947907
0.08220604
-0.00970633
0.00962639
0.11553040
-0.11940811
-0.10355376
0.01815192
0.00360478
0.10352850
0.02098054
0.15807205
-0.05867568
-0.14237788
-0.04617934
0.13061732
-0.00070128
0.10635984
-0.03446865
0.09641781
0.09828866
-0.11527577
0.14489594
-0.11398785
0.11758080
-0.08131240
-0.07408531
-0.07015222
0.06703022
-0.15675104
-0.12751141
-0.17103542
0.15524039
-0.09588428
-0.07423220
0.02174994
-0.03323756
0.14338133
0.15006354
-0.14860302
-0.12978801
-0.09751970
0.09732524
0.01355188
-0.05294649
0.16432625
-0.08390633
0.08053589
0.05106924
-0.16455694
-0.02133964
-0.04021271
-0.03313102
-0.06629941
0.15319088
0.04714595
0.05959767
-0.03504303
0.06458120
0.02885543
0.01016422
-0.04558031
-0.03946774
0.16083387
0.03859204
-0.08057479
0.01926231
-0.02002232
0.16627610
0.02011631
-0.08280407
0.17294699
-0.06389450
-0.07058141
-0.12910123
0.05018467
-0.08785036
0.15573120
0.16153324
-0.01333718
-0.08381788
-0.12126030
-0.05312286
0.01816684
-0.05373021
0.11689744
-0.16754095
-0.04226550
-0.03981360
0.12899879
0.07630705
-0.08340657
-0.02519113
-0.10865609
0.02481806
0.15904599
0.03262552
-0.14254686
0.03700197
-0.12903497
-0.04678616
-0.16244864
0.00136829
0.00315386
-0.12829982
-0.04261736
0.02514227
0.02718646
-0.14693911
-0.17226999
0.06128091
-0.09935358
0.01665762
0.05146676
0.06431317
0.12066252
-0.15075377
0.10030800
0.02631155
-0.03783675
0.05255571
0.15390919
0.12310439
0.16318661
0.01002146
0.15229680
0.02197113
-0.07773778
-0.07456539
-0.13805252
-0.10601164
-0.15340988
0.01741940
0.07297793
0.11361417
0.15099138
-0.16068809
-0.13950364
0.02356550
-0.04384846
0.09129155
-0.15478712
-0.10764642
0.02736800
-0.11827080
-0.04750859
-0.16435510
0.09268384
0.02390061
-0.05123228
-0.15284117
0.09468663
-0.17268711
-0.12099601
-0.15529306
-0.15355660
-0.02878101
0.07453591
0.11308428
0.13659938
-0.17288935
-0.05283197
0.04207839
0.03432419
-0.06345925
-0.12163750
-0.13451311
-0.06852874
-0.01392607
-0.09617276
0.01867535
-0.14119262
-0.13235207
0.09549002
0.06559084
0.13101003
0.04992260
0.11125756
-0.06198819
-0.09868368
-0.08428556
-0.11050944
0.02141897
-0.06740303
-0.12069374
-0.13694677
-0.12661880
-0.06200961
0.08339258
-0.14134501
0.02656373
0.11536840
0.15470937
-0.11862626
-0.12417090
0.09889846
0.16130908
0.01980762
-0.13560024
-0.17023565
0.12291341
-0.13526572
-0.03657845
0.17111617
0.05152385
-0.00703448
-0.10577483
-0.12641436
-0.07922616
0.02675091
-0.12176215
0.00884752
0.01713477
-0.04928321
-0.11651485
0.00268940
0.16995081
-0.08863930
0.13889927
0.15561645
0.01396414
-0.07938568
-0.04583038
-0.14632721
0.12707694
-0.12579304
-0.15755858
0.04210000
0.10482486
-0.16416161
-0.04655940
0.05780125
0.16557953
0.03131308
0.03632113
0.06574535
0.16377954
-0.14753884
-0.09096312
-0.12934801
0.14900988
-0.15664653
0.11102977
-0.11513752
-0.11219669
0.01800158
0.07445543
0.09738728
-0.13408476
0.12583420
-0.02927905
0.02818096
0.01395464
-0.01078824
-0.00646127
-0.06409996
-0.16766687
-0.15813419
0.03100732
0.12670907
-0.05658545
0.10036236
0.03855255
0.11158838
-0.09055016
0.09524221
0.11507025
0.03440285
-0.02502363
-0.08800846
-0.13680129
-0.05159234
0.09956151
0.05093160
0.14502396
0.14459275
0.12486291
-0.10727139
0.13809979
0.04041369
-0.15274745
-0.06525717
-0.04645304
-0.15600833
0.16642852
0.13629106
0.01262996
-0.12744173
-0.11888741
-0.08332786
0.14949080
0.08323509
-0.00798668
0.07525675
-0.14693093
-0.02751684
0.00518223
0.07277010
0.09547035
-0.06752247
-0.16043793
-0.13920046
-0.01000333
0.16204181
-0.06680606
-0.16456410
-0.12156866
-0.12743658
0.03974443
0.14864320
-0.01493401
-0.13191938
0.17329794
0.02477122
0.08663891
-0.01675629
-0.05150937
-0.06516556
0.15786552
-0.08611550
-0.00578238
-0.14713506
0.10932310
0.04355974
0.07595330
-0.13447712
-0.11102618
-0.06281501
0.15236747
-0.00537612
-0.11258050
0.13265799
-0.14125299
0.03025137
-0.00606172
-0.05895840
-0.08019574
-0.06481121
0.08460902
0.08515611
0.10976233
0.09930542
-0.12892635
-0.17289273
0.11033074
0.14160691
-0.14077368
0.12257432
0.16124430
-0.05221177
0.14799698
-0.11907042
0.09113415
0.13590978
-0.13989499
-0.17027296
0.15233606
-0.11395566
0.17036369
0.07600094
-0.07069861
-0.10969090
-0.16770416
-0.16610815
0.04894572
0.10764955
-0.00622155
-0.05128085
0.09408323
-0.11883578
0.13884225
0.03608915
0.04841831
-0.09545584
-0.09892964
-0.14234601
-0.14412554
0.06685182
-0.05054680
-0.14241862
0.06644285
0.05854829
-0.02904415
-0.13106030
0.05379876
-0.05306047
0.16139367
-0.02409366
-0.03316150
-0.08561996
-0.15702257
-0.05953615
-0.02041082
0.08655030
-0.01327199
0.14751144
-0.10727569
0.07379323
-0.00092986
0.14206369
-0.16363202
0.13881485
-0.12523365
0.17376402
0.11792777
-0.10960056
-0.12049881
0.06250085
0.10128531
0.01836245
-0.17237970
0.02720791
-0.01240491
0.03774210
-0.14468230
0.12113022
-0.13946302
0.05671440
-0.07695618
0.13366747
0.15501536
-0.15147591
0.05537168
0.00994453
0.05667019
0.12310757
0.08176190
0.09926100
-0.13509445
-0.10777947
-0.07918084
0.07903956
0.12908459
0.10035205
-0.05987596
0.00623780
0.12533681
0.14949021
-0.00917585
-0.11089501
-0.06689876
-0.03126527
-0.11417079
0.13518408
0.09528904
-0.15377100
-0.05829389
-0.10545498
-0.01243653
0.17150016
-0.06391358
0.13698313
0.09735736
0.00496605
-0.04766316
0.14129679
0.09116965
-0.11073046
0.09484795
-0.08918589
-0.10981227
0.02658578
-0.15582450
0.11382481
0.13646609
-0.03831919
0.01772092
0.02087870
-0.16800603
-0.16594636
0.11725128
-0.04383118
-0.13241191
-0.11731043
-0.12833437
-0.03475403
-0.03150122
-0.14152361
-0.17222479
-0.06508813
-0.08251855
-0.16708992
-0.08991789
0.12348095
0.09369231
-0.07661419
-0.12138823
-0.08787419
-0.03166557
0.09499094
0.10029690
0.08151975
0.09483972
0.03965361
0.14520174
0.10660009
-0.16104005
0.02625757
0.15567061
-0.00241967
-0.00648615
0.15861446
-0.05795871
0.17484444
-0.11536081
0.08591191
0.03015728
0.06181234
-0.02844641
0.00263067
0.07141840
0.00785747
0.16283320
-0.14996345
-0.03574610
0.05792926
-0.08121294
0.02230702
0.00824669
0.12155265
0.00743410
-0.00234185
0.15414041
-0.15078415
0.10746097
-0.08480584
0.14932492
0.07144536
0.05573949
0.07646281
0.09731245
0.08703123
-0.07356925
0.14006299
0.13901706
-0.15964763
-0.12608127
-0.03353863
0.15826610
-0.13755664
-0.11320616
-0.03066665
-0.15042849
-0.15134364
0.14307913
-0.09941265
-0.09252116
-0.00172513
0.01534854
-0.12137577
-0.10799987
0.05684718
0.09974140
-0.06210538
-0.14284070
-0.15813863
-0.10388786
-0.02570473
-0.10956597
-0.04094648
0.16229521
0.13234448
0.01789673
-0.09702112
-0.09926950
0.07786644
-0.03631115
0.05806347
-0.00753023
0.01576856
-0.16012421
-0.16064870
-0.12337795
0.14117903
-0.16716743
0.11957849
-0.05630527
-0.08611693
-0.07309575
-0.16831145
0.02232598
-0.09981879
-0.00419858
-0.06554358
0.05767768
0.09632275
-0.06856066
-0.01657511
-0.00437426
-0.15272996
-0.12136208
-0.03558607
-0.12958810
-0.04589108
0.11308530
-0.14011854
-0.01666009
-0.00863378
0.00770936
0.15056613
-0.11829234
-0.16634803
-0.04206124
0.13766682
0.11235014
0.10437302
0.08305541
-0.13667908
-0.03194680
0.09777310
-0.07264468
-0.05365627
-0.00943476
-0.15806589
-0.05688839
0.06128922
-0.04507997
-0.02987410
0.14807573
-0.11971926
0.11241804
-0.06628034
-0.08699320
0.07693849
-0.16182715
0.08884390
0.12510802
0.12206419
-0.14468993
-0.16196214
0.10340525
-0.08984376
0.02984011
0.05240573
0.08314169
-0.13531256
-0.00125863
0.07986244
0.07587216
-0.02089034
0.08283629
0.02087864
-0.06685095
0.00144195
-0.06544840
0.04625971
-0.07620604
-0.08106571
-0.06177399
-0.12119523
-0.07525592
-0.04503302
0.11397223
0.01005882
0.11195942
0.11657382
-0.00267411
0.02911127
-0.03768683
0.15692593
-0.07703116
-0.11300088
0.13107204
0.14693148
0.14194220
-0.10908236
0.16941677
0.08443905
-0.06101152
-0.01811477
-0.10993924
0.12735802
0.11873074
-0.01041353
-0.10342585
-0.06041910
0.09407733
-0.09159595
0.02351288
-0.17098296
-0.15299265
-0.04887991
0.17006081
0.01535490
-0.08590642
0.09932008
-0.03017672
-0.16247234
0.13673636
0.03618352
0.12153950
-0.13161393
-0.06843194
-0.16064990
0.00904264
-0.14032200
-0.14734553
-0.13029380
-0.01027715
0.10669529
0.05762465
0.07534904
-0.05239531
0.08408715
-0.06454638
-0.08562816
-0.05242244
0.05160299
-0.06549009
0.09668569
-0.09205484
-0.10408582
-0.06234292
0.06928585
0.16182062
-0.09533674
0.00090104
0.08266655
-0.05436434
-0.11191893
0.00654534
0.02124535
0.06626631
-0.14737016
-0.06739916
-0.03012696
-0.13011862
0.09249379
-0.00244461
-0.02000956
0.11818222
0.15401772
-0.13301574
-0.12569553
0.03080756
-0.13450943
-0.00394475
0.15200759
-0.16346063
0.07900732
-0.07171749
-0.09567609
-0.15078944
0.11013363
0.06463973
-0.09565610
0.08679173
0.10848095
0.03762453
-0.06726144
0.14572635
-0.11612286
-0.06149528
0.10694064
-0.05780873
-0.15086722
0.08294065
-0.04018522
0.12890911
0.15836459
0.10105389
0.11232745
0.09938991
-0.01076601
0.04612215
-0.08487975
-0.01915445
-0.06511543
0.15351555
-0.06037209
0.02863090
-0.12598571
-0.04611216
0.07749142
0.05173568
-0.02323900
0.04774833
0.13351081
0.08423158
0.15355715
-0.06108402
0.07870865
0.01894505
-0.15674749
0.13038391
-0.10666983
0.06736375
0.12726843
0.13260171
0.13829705
-0.05961135
-0.02356187
-0.17196208
-0.07073242
-0.04799816
0.03117977
0.17320499
0.14545363
-0.05097026
-0.04721358
0.04322822
-0.06138754
-0.10930980
-0.12145627
-0.01826681
-0.11957143
-0.07393496
-0.16055405
-0.00446436
0.05841750
-0.16120681
0.06130999
0.09152138
0.06311493
0.00429174
-0.11646116
-0.08466537
0.00272702
-0.10986332
-0.10460737
0.08890170
-0.06304199
0.01345129
0.06084351
-0.09046303
-0.06237008
-0.14646393
-0.04442954
0.08645400
-0.17264594
-0.07916071
-0.13311419
0.16413587
-0.08550945
0.08684811
-0.01938473
0.06017867
0.01675987
-0.14474051
0.14305773
0.17249274
-0.12426927
0.07309888
0.00505649
0.11714739
0.01489671
0.00390108
0.03467947
-0.07438041
0.15086916
0.10424674
0.02056362
-0.09386019
-0.13804238
0.12324166
-0.04804511
-0.05455994
0.03105646
-0.03915671
-0.04364601
0.00606632
0.07465734
0.00365712
-0.11513437
0.16828552
0.14041665
-0.03100468
-0.08885173
-0.03036234
0.00441223
0.01980577
-0.10164630
0.00067934
0.10327354
-0.03080006
-0.09663998
-0.16548359
-0.00256969
0.08710378
-0.16815908
-0.15400793
-0.10805787
-0.12538981
0.16180579
-0.15991093
0.09167401
-0.00961657
0.05845389
0.15555866
-0.10229992
0.08872940
-0.14648978
-0.07206147
-0.01772042
-0.00119045
0.01203577
0.00171854
-0.10590430
0.13361381
0.14039148
-0.11830034
0.05472004
-0.13568202
-0.15210505
-0.01136521
0.05141783
0.13554725
0.14194483
0.08262991
-0.17301418
-0.06100336
-0.04539737
-0.06530810
0.02228922
-0.04879475
0.05352273
0.06220826
0.16528031
-0.04842931
0.16859192
-0.12664261
-0.02690528
-0.00126974
-0.10754159
0.07014694
0.13959923
-0.04923723
0.03804936
0.11424555
0.13050762
-0.01273110
-0.07840022
-0.11577086
0.04079501
-0.00366356
-0.00224648
-0.08990094
-0.09059304
-0.12866643
0.17182800
-0.06216703
0.05799871
0.13040552
0.01232939
0.10073236
0.07906301
0.04634860
0.10767543
-0.02074321
0.16018215
-0.00384420
-0.03675627
0.07497609
0.07068133
-0.00909961
0.10710322
0.02991547
-0.03194551
-0.10149702
0.16894622
0.13373502
0.04474558
-0.15949714
-0.08280697
-0.05761001
0.13716306
-0.00043553
-0.13545029
0.10542314
-0.14581873
-0.01551575
-0.08675937
-0.14438441
-0.13068257
0.15195449
-0.10492047
0.11803713
-0.00005928
0.01687927
-0.04817175
-0.08390854
0.08173709
0.04293019
0.04260000
0.05543515
0.01807232
0.14494489
0.03147294
-0.11621747
-0.00076726
0.04932607
0.11774263
-0.08164747
0.08092692
0.00306493
-0.02637006
-0.06530026
-0.07215802
-0.02065446
0.00049248
-0.10777209
-0.07667700
0.07171994
0.02143146
0.03781922
-0.05460131
0.16610546
-0.04579535
0.03581646
0.11933035
0.13796303
0.01552550
-0.11597995
0.01538323
-0.03956391
0.03075944
-0.00484419
0.08915496
0.00220498
-0.11614659
0.00964428
0.03422952
-0.17068754
-0.15211295
0.16861057
0.05620264
0.01379784
-0.10857356
-0.12246349
0.10440028
-0.05625409
0.00904049
0.03938702
-0.02758870
0.16606651
0.13827881
-0.07497965
0.02941722
-0.06570678
-0.12501675
0.01107288
0.13179660
-0.15621957
0.01959324
-0.12992655
-0.12949459
0.13683341
0.04875100
0.14948329
0.14036471
-0.07200716
-0.14036427
-0.01617253
0.04522732
-0.07226322
0.17016236
-0.12289991
0.09732302
0.12063398
-0.01308158
-0.07162948
0.07343791
0.15699357
-0.16333097
0.15265048
0.01964351
0.04248412
-0.03210220
-0.00988936
-0.16679914
-0.10261653
-0.16297586
0.04159613
-0.10950433
0.13917655
-0.12900628
-0.11957961
-0.02869281
0.07050373
0.14829019
-0.00808713
-0.10817713
-0.04901848
-0.05903780
0.08255190
0.16703320
0.16980942
0.15133154
-0.10298026
0.02618966
-0.09004286
0.16301033
-0.17309383
0.09794705
0.11353526
0.06390639
-0.06068815
0.10257933
-0.07097646
0.02439692
-0.05769410
-0.02409538
-0.01586163
0.03554335
-0.16933100
-0.16310072
-0.09228633
-0.13484347
-0.14103322
0.15965910
-0.08036302
-0.14904563
0.16733347
-0.01588133
0.00922371
-0.08204467
-0.14661498
-0.02832305
0.12731193
-0.01526915
0.12803891
0.00893449
0.04091809
-0.06283849
0.05907547
0.04506984
0.03188306
0.08983307
0.03846247
0.08347309
-0.13320291
-0.01786853
-0.09352607
-0.10403032
0.08034705
-0.14404555
0.08114324
-0.02566946
0.06159277
0.17458066
0.16961159
0.13205741
-0.02588096
0.05301399
0.00101056
-0.06108641
-0.01312422
0.04175472
0.11098148
0.06664448
0.00620859
0.16522652
-0.00447293
-0.00981049
-0.07899105
0.12383519
-0.14735551
0.01242674
0.09463344
0.07753026
0.02020291
0.16348033
0.13629892
-0.07800888
-0.06352209
-0.02224210
-0.04022020
0.17445549
-0.07557521
-0.04233399
-0.04655188
0.09816530
0.09922002
-0.16719209
-0.06670568
-0.03939244
0.17097118
0.07843024
0.16330372
0.15361261
0.06097291
-0.07326380
0.06451389
0.15945765
0.06167996
-0.04160044
0.05261526
0.15232390
-0.15813784
0.06941964
0.10016057
-0.13656676
-0.16527431
0.15488574
-0.04285127
-0.08591753
-0.09432520
0.12013966
0.03893210
-0.07499034
0.11717350
-0.02804170
-0.12883785
0.05738732
0.09933630
0.17312273
0.17264003
-0.11253419
0.07359837
-0.14837578
-0.01125641
0.01461750
0.02130035
-0.04175883
-0.02955252
-0.00360498
-0.13664635
-0.04870798
0.11555098
0.06576010
-0.11845747
0.00103639
0.05258773
-0.02592902
0.08072719
-0.08814488
-0.15046442
-0.04346510
-0.04073161
-0.06789068
0.10499352
0.08725724
0.01095523
0.11920559
-0.03555270
-0.00797039
0.11662287
0.07410011
-0.02274856
-0.13024719
0.12407824
0.10912751
0.13254690
-0.03932503
0.06700791
0.09306616
-0.11266854
0.03204219
0.14564343
0.02878552
0.12138633
0.11263872
0.05212742
-0.16724987
0.03196444
0.11849815
0.04540128
-0.07896695
-0.02154325
0.08839021
0.10098354
0.14663306
-0.12793365
0.14710754
-0.04649864
0.00957725
-0.07841047
-0.13447739
0.13073251
-0.02874654
-0.05408897
-0.02581788
0.07329192
0.14242493
-0.15013675
0.01109454
0.16711581
0.03679448
-0.13980296
-0.16924696
-0.04559499
0.06247031
-0.09462320
0.02486635
-0.14091223
-0.11616248
0.05417142
0.10322517
0.04372726
0.04012269
0.16894162
0.11450294
0.07269956
-0.00992467
-0.02427016
-0.13582736
0.04331302
-0.04089516
0.06452741
-0.05992801
0.16080537
-0.15884948
-0.00018451
-0.09305270
0.15101917
0.01323722
0.04147335
0.04818226
0.07278706
-0.12119743
-0.06057724
-0.12060720
0.13332738
0.05409614
-0.14742172
-0.13319415
-0.14417611
-0.03315105
0.05063515
-0.06806838
0.02326973
0.07896736
-0.13790229
0.16320735
-0.11428400
0.01115986
-0.02517995
-0.08586954
0.11330649
-0.07885930
-0.12060073
0.05710276
0.11782068
-0.00524876
-0.17306790
0.16901098
0.09169773
0.01406201
0.08950195
0.14544597
-0.01823959
0.08669956
0.08878705
0.03638595
0.03732479
-0.05459348
-0.16879357
0.16162229
-0.13650274
0.05932610
0.11091080
0.06020601
-0.12893511
-0.13691430
0.00674777
0.11702533
0.06333140
-0.04377277
-0.04387686
0.07518588
-0.06094825
0.11800297
0.01252255
-0.07290134
-0.06352808
0.16470589
-0.06799099
-0.10047546
0.12972027
0.06701463
0.11457276
-0.00218782
0.07399531
0.13495392
0.17122620
-0.07452573
-0.00256716
0.02201176
-0.15033403
-0.02881531
-0.01916588
0.05566731
0.09324896
-0.14550571
-0.04729652
0.01537965
-0.17289002
-0.04796872
0.07836548
-0.04627630
-0.11636333
0.11451820
0.09598631
-0.13735625
0.04165545
-0.06420705
-0.10006275
0.10470805
0.05424090
0.09112509
-0.04694549
0.09082341
-0.03442885
-0.08764799
-0.05215065
-0.00237814
-0.08416890
0.12804443
0.14687353
-0.05176274
0.13379014
0.16013184
0.05806419
0.11589940
-0.04280010
-0.07669532
-0.09931261
0.15077814
0.04749013
0.12614724
0.11605877
0.01002136
0.10231763
0.13251725
-0.13807818
-0.08244374
0.05568467
0.01175860
-0.06931859
-0.04124518
-0.15081574
0.02304820
-0.03903410
0.15916359
-0.05689595
-0.16834462
-0.16142792
-0.01220021
0.04135180
-0.10862398
-0.15095074
0.04786722
0.13849658
0.01585946
-0.04989316
0.02614005
-0.08053133
-0.14257702
-0.11623756
0.11429621
-0.14889930
0.01051221
0.14500400
-0.15180275
0.03711658
-0.01774707
-0.09861626
0.05579349
0.00250944
-0.05523574
-0.09240147
-0.11965245
0.03272454
0.11804485
-0.07350644
-0.11226532
0.10613859
0.07959989
0.13092309
0.11667666
-0.10411440
-0.15402782
0.09628951
0.12044772
-0.05490389
-0.14573963
-0.05982295
-0.07511515
-0.08990197
-0.14964475
0.07420363
0.00561558
0.08919787
-0.03338176
-0.03596768
0.04216701
0.08079907
-0.16513878
-0.11253740
-0.04190743
0.14445540
-0.07478547
-0.08232075
-0.08349734
0.11542866
-0.13571510
-0.08180019
0.07375136
-0.15867421
-0.09577716
0.13984334
-0.12400750
-0.05327342
-0.00198056
-0.12113360
-0.17164131
-0.13061880
-0.02057040
0.12458822
0.07137522
-0.16966648
0.11122674
0.06736970
-0.10172765
0.05406497
0.14151770
0.08304086
0.05138801
0.03984749
0.06763776
0.13947335
0.10370487
-0.11916479
0.03998831
-0.00424826
0.01821086
-0.11953381
0.04703276
0.16248792
0.07312874
-0.02149318
0.03328559
0.15440011
0.01772621
0.00916170
0.10017601
0.06669630
0.07469711
-0.15309004
-0.15516576
0.10677665
-0.13901384
-0.01710790
0.04129209
0.12571403
0.00878455
-0.14167437
-0.07401247
-0.07698177
0.02237913
0.08032829
0.12539089
-0.05863979
-0.00459059
0.07316042
0.01684126
-0.11004303
-0.07541345
0.15093550
0.15739951
-0.06082431
-0.13882801
-0.14902465
-0.17153278
-0.06394356
-0.04338336
-0.01764069
0.02522326
0.17035413
-0.16998631
-0.16628939
0.00038759
0.04839034
-0.05150392
-0.15629259
-0.00303917
0.05188549
-0.07256568
0.05248328
-0.06098297
-0.01098910
0.00469404
-0.03786498
-0.02200313
-0.11687878
-0.01110733
0.05975138
0.16607296
-0.13806546
-0.06023672
0.10359064
-0.06340271
0.17088875
-0.17013460
-0.00611393
-0.17089275
0.02967064
0.09065893
0.04773931
0.07516506
0.11653236
0.01689829
-0.15843412
0.14595518
-0.06404564
-0.02923419
0.16941300
0.10052943
-0.03219436
0.03561245
0.11324292
0.15320802
0.06243864
0.12995893
-0.09565555
-0.11918842
0.07944369
-0.02464633
0.10968652
-0.07337644
0.06055549
0.15141100
0.00830676
-0.13368934
0.04765664
0.00416335
0.08786288
-0.10580878
-0.00939274
0.02174020
-0.16965178
-0.02672121
-0.10696860
-0.12784651
0.17101485
0.16091707
-0.10877664
0.02494580
-0.07840616
0.12128311
-0.12363373
0.01273939
-0.06813812
0.03936979
0.04403216
-0.10386939
-0.06734554
-0.16106966
0.08242097
-0.01431990
-0.04637925
-0.10582798
-0.08726508
-0.07749548
-0.15010783
-0.07904042
-0.06265378
-0.11541741
-0.08392941
0.12564972
0.03759037
-0.13882954
0.06837606
0.00734515
-0.08284677
-0.08100855
0.11173508
0.00617468
0.12511918
0.13445893
-0.10752927
-0.14305244
-0.06765922
-0.11271088
0.07601322
-0.06852366
0.11661547
0.11118251
0.03439003
0.16932568
-0.15972158
-0.16826591
0.04489332
-0.02414371
0.14200076
0.00870982
-0.12746395
-0.14661023
0.00261779
0.02802527
0.12177008
-0.05412539
0.11560485
0.06193528
0.08099109
-0.13305868
0.04088983
0.13958740
0.15502796
0.05571158
0.07304859
-0.05675115
-0.15334511
0.09315306
0.14270265
0.04014421
-0.12231380
0.04488182
0.06795232
0.17061120
-0.11983436
-0.10237970
0.05819140
0.04923594
-0.10991453
-0.10663109
-0.07244296
-0.16929507
0.01361979
-0.12670454
0.16742757
0.10608396
-0.12449842
-0.16958068
-0.06287789
-0.02158505
0.03058685
-0.06123545
0.03160097
-0.03992657
-0.04078209
-0.06916943
-0.14720832
0.13820449
-0.12476399
0.15208757
-0.12774748
-0.07284443
-0.08234429
0.04993643
0.09864552
0.07377465
0.14865899
0.02788230
-0.15562956
0.16075103
0.02631374
-0.01719561
0.02676234
0.00917809
0.16617408
0.08327159
0.05096155
0.09969909
0.07462223
-0.00722495
0.15591082
0.10538200
0.10514656
0.01428844
0.08808328
0.11381343
-0.10222703
-0.10974641
0.14445624
-0.12460387
0.13328043
0.02418015
0.06183881
-0.12777908
0.10482407
-0.13439171
-0.10563510
-0.08039728
-0.04318953
0.08355945
0.01523152
-0.10064942
0.04944159
0.16162112
-0.06658785
-0.02873097
0.01470204
0.08458364
-0.01178286
-0.08106643
0.01712793
0.04212341
-0.09410885
-0.03967521
-0.14781871
-0.02731061
0.16153675
0.15510178
0.06707431
0.01615576
-0.16269396
-0.04760514
0.15694605
-0.07412955
-0.00720313
0.05117562
0.15548684
0.05641440
-0.16745113
0.13438380
0.10853539
-0.06728988
-0.06916045
0.01455610
-0.09925397
-0.02868207
-0.15257548
-0.10880888
0.01504375
-0.17197134
0.11949879
0.09051743
0.15865760
-0.05760605
-0.05364961
-0.07979720
-0.01325002
0.12240067
0.03681182
-0.02598981
0.10135180
0.05207492
-0.13580711
0.12607267
-0.08310169
0.11507860
-0.01248960
-0.06816972
0.03331324
-0.00366808
-0.00421361
-0.03443566
0.13273594
0.06128889
-0.00182707
0.09481884
-0.07168593
-0.06494980
-0.01808423
-0.15804315
-0.03623578
-0.04242940
-0.01632981
-0.09106918
-0.02050408
-0.09594652
-0.03856941
-0.13291968
-0.01764821
0.02108908
-0.03501664
0.10086288
0.15381245
0.02476873
-0.17121868
-0.07002776
0.05671750
-0.03624501
0.09700975
-0.03746710
0.09385654
0.11230237
0.14372648
0.13417482
-0.05052026
0.13444705
-0.07745402
-0.04246370
0.12603705
-0.08824472
0.03227210
-0.15988478
-0.16944908
-0.06945945
0.16814739
-0.10091809
0.06437059
0.04400168
-0.00146783
-0.06938449
-0.11030107
-0.11161639
-0.16019858
0.11910802
0.02294045
-0.11110309
0.05110852
-0.16427028
0.11468321
-0.05644222
0.12139244
-0.02379745
-0.05781301
-0.15304488
0.08106144
-0.15619211
-0.14111201
0.09804249
0.11225133
0.00284233
-0.13329281
-0.14432906
0.14514807
-0.06393079
0.11414719
-0.15269399
0.05919944
-0.06689095
0.10980864
0.12402762
0.05464574
-0.17117682
0.15565507
-0.15541126
-0.06442054
0.15183893
-0.03027272
0.12662996
0.04320255
-0.00035363
-0.00802385
-0.05656615
0.00043485
-0.04628639
-0.06391234
-0.07860859
0.05663614
-0.11779264
0.01135391
-0.16050556
-0.04694015
-0.16068533
0.11834475
-0.15321830
-0.05066463
0.01105192
0.14857334
0.06843823
-0.06977105
-0.12830882
0.03251689
0.07523821
0.12797403
0.03679139
0.15127280
0.06528434
-0.10193429
0.13230559
-0.07244246
0.05038165
0.08027920
0.04196807
0.16167729
0.00985790
-0.08134844
0.07132398
0.08423182
0.00746622
0.09138700
0.04094734
-0.13489094
-0.07275783
-0.10391671
0.03709157
-0.16330007
0.03601263
0.06973840
0.01254143
-0.07235413
-0.06932590
-0.04336876
-0.12856932
-0.01776361
0.05999471
-0.06067982
0.14111745
0.06802435
-0.15195405
-0.16375877
0.05403418
-0.04298903
0.11602673
0.07186678
0.05859900
0.16519502
-0.15106067
-0.12463792
0.15446226
0.08651534
-0.16480178
-0.04141424
0.10723013
-0.00654230
0.13475212
-0.12823319
0.02210851
-0.00627171
-0.05703600
0.16042241
0.14721274
0.17121744
-0.05913125
0.14122126
0.06119654
0.11786579
-0.06653314
-0.05556732
0.11588269
-0.12624010
0.11924225
0.07995718
-0.00498834
0.16358693
-0.01128742
-0.16305894
-0.03527473
-0.00764385
-0.04543579
-0.07883136
0.02457142
-0.15122493
-0.08587086
-0.10449022
-0.03181250
-0.03860285
0.09751834
-0.03501764
-0.17224884
-0.15620944
-0.08748036
-0.06496945
0.14670068
-0.09065856
0.01640204
0.06314424
0.00576940
-0.16401580
0.16990189
0.00960799
-0.10640918
0.02888569
-0.15746023
-0.07043164
0.04941870
-0.09301808
-0.12419814
-0.03526827
-0.07034317
0.02589248
0.14326702
0.00230982
-0.12253090
0.08450026
-0.14767452
-0.04937346
-0.02437253
0.02578628
-0.04210483
0.13984978
0.12205651
-0.00249007
0.05326071
-0.15045501
-0.14070484
0.16007929
-0.01336662
-0.13091873
0.03455695
0.04386689
0.13334373
0.08890945
0.04486700
-0.16897635
0.14739949
0.03966004
-0.04269812
-0.06292620
-0.02855619
-0.07465722
0.05900203
0.08328451
-0.11733670
-0.12214967
-0.11725798
-0.05663274
-0.16019469
0.12149402
-0.15559125
-0.12659964
-0.00437477
-0.11530790
-0.09140757
0.06059301
0.06700069
0.02964570
-0.04407886
0.10726325
-0.14450857
0.14509515
0.15190040
0.16588923
0.16647197
-0.13181277
0.07681284
-0.08854681
0.15802014
-0.13089535
-0.10841903
0.04385034
-0.06121569
-0.15366328
0.12675428
-0.14106303
-0.02854794
0.00963714
0.10861287
-0.05589475
0.08996774
0.08252482
0.04712738
-0.14147475
0.16714217
0.15538038
0.02222750
0.11471354
0.11422669
-0.15979913
-0.05902433
-0.03206035
-0.01691909
-0.12329097
-0.01904267
-0.06258533
-0.08317257
0.06507238
0.08010568
0.10628515
-0.07111242
0.09804057
-0.08024672
-0.01476610
0.09145741
0.15700850
-0.07614880
0.13934633
-0.14528021
-0.11463708
0.08237440
-0.16985887
-0.08860365
0.11427277
-0.08488852
0.17288660
-0.05263602
0.03151515
-0.00384980
0.14752319
-0.09048871
-0.15550017
-0.15613575
-0.16613956
0.08926779
0.08563245
0.13227423
-0.06178080
-0.15469070
0.16495770
-0.10150193
0.10566285
0.10674344
-0.11394423
-0.03296261
0.01905964
-0.14256698
-0.06222691
-0.00618289
0.04163149
0.04600343
0.05953516
0.01211555
-0.08882695
0.04777537
0.09125027
-0.07052194
0.00426197
0.10411310
0.06060582
0.01681401
-0.10621157
0.10479143
0.14828283
0.04174200
-0.09214668
0.03574832
-0.04436925
0.15090263
-0.10712907
0.15888035
-0.09110381
0.06004503
0.05375043
0.15473413
-0.10675032
-0.15674707
-0.10834229
-0.07405174
0.01693776
-0.11873806
0.07703191
-0.01984029
0.14902934
-0.10322890
0.07794350
0.09673351
0.09086037
-0.16746144
0.01402223
-0.11311533
-0.05203076
-0.00944746
-0.11815872
0.01208000
-0.10393162
-0.08541328
-0.10335464
-0.04744504
0.14983276
-0.10103347
-0.13205604
-0.05784845
0.11338243
-0.06050304
0.05158660
-0.08132558
0.13300058
0.15100998
0.00558944
-0.13539658
0.00258616
0.07828531
-0.06797716
-0.00978443
-0.14108220
0.00197974
0.10271648
-0.04330982
-0.16413794
-0.07023085
-0.14424187
-0.08167035
0.13819703
-0.05094342
-0.10712449
0.08452848
0.01745176
-0.01874791
-0.01894699
-0.01252796
-0.02004871
-0.10105973
0.10994557
-0.15316252
0.11626807
0.15088776
0.14721176
-0.06696352
-0.06560321
0.03911889
-0.12776545
0.16635761
0.14385143
-0.14301524
0.16219419
0.03471967
-0.08492190
-0.14289746
0.09251747
0.02581736
0.01066846
0.13358355
-0.00691445
0.16509810
0.07564152
-0.13721564
-0.10455301
-0.04523501
-0.01844203
0.11037108
0.01888043
0.08699217
0.07223701
0.16332257
-0.11965588
0.15027265
-0.07599547
0.04684224
-0.12746474
-0.12933712
-0.06716932
0.17442650
-0.12611331
-0.04101014
0.06454932
0.03461869
-0.13296522
-0.09276467
-0.10058011
-0.00744137
0.12477962
0.04534487
-0.04727718
-0.11785458
0.00655529
-0.08134744
0.09315574
0.08483770
0.06283522
0.16262384
-0.10561635
-0.17173460
0.10982697
-0.00333446
0.13048293
0.05931006
-0.10908527
0.08826715
-0.03720216
0.11160120
-0.04306697
0.06837229
0.12480030
-0.09923290
-0.00217834
0.07355479
-0.05222810
0.07467654
0.11205697
0.13690947
-0.10616916
0.12151599
-0.08048464
-0.11644972
0.10626666
0.13756080
0.02859512
0.11140940
0.15018447
0.12301876
0.01381382
-0.01505049
0.03896314
-0.10907196
-0.12631343
0.03917819
-0.04217483
-0.11290679
-0.05416565
-0.02834668
0.16354397
-0.03823031
0.15990031
0.13910487
0.13024695
0.04776085
0.07719205
-0.15043765
0.16410996
0.13172533
-0.04045731
-0.02307801
-0.12542851
-0.06355745
-0.13028583
-0.05861824
0.04752163
-0.13446400
0.03311111
-0.08065661
0.10783128
-0.06208650
0.16047150
0.10609549
0.02277717
-0.08681674
-0.14903510
-0.11459770
-0.01298766
-0.10149320
-0.03373377
-0.00013912
0.13874197
0.00956775
0.02643291
-0.17013696
-0.11333746
0.01746535
-0.01685587
-0.12774374
-0.16156648
0.13058789
-0.06559960
0.13350433
0.06827143
0.16079457
-0.03588460
0.00777256
-0.06404033
0.02073869
-0.09779040
-0.01401050
-0.01654154
0.15151414
0.04257365
-0.06513516
0.12696850
0.17114651
0.05402051
0.08615930
-0.16525622
0.04172973
0.07085372
0.07643829
-0.04751397
0.00677688
0.05404058
-0.14355388
-0.07433887
-0.13419588
0.08781076
-0.13275245
0.00586461
-0.10389439
-0.14122915
0.06483034
-0.04840687
0.00700348
-0.07850399
-0.08996740
-0.01964352
-0.12744567
0.08855229
-0.09120807
-0.07587368
-0.16887558
0.09229618
0.05932791
-0.03439260
-0.12726639
-0.03708520
-0.12604979
0.03281568
0.00367331
-0.00594345
-0.13104562
0.09682678
0.02501605
0.08211967
-0.05638219
-0.00555071
0.08541667
0.14536460
0.08616512
-0.15771469
-0.01390985
0.12628907
-0.04134807
-0.05580460
-0.14400518
-0.05774706
0.16610165
0.11675605
0.04286595
-0.09746241
0.06006312
-0.12653676
-0.04635645
0.12632251
0.01364909
-0.04206617
0.12751836
-0.03626157
-0.05013424
-0.07887177
-0.02495100
-0.07569843
0.05017644
0.03574951
0.13157031
0.16066179
-0.02858077
-0.15937160
0.06323567
-0.13744372
-0.16702114
-0.02455930
0.15196744
-0.15355805
-0.13981828
-0.04312560
0.05539969
0.01344894
-0.01732892
0.11432189
0.03353274
0.11070007
-0.06707048
0.10359338
-0.11211317
-0.04549652
0.02886587
0.05944002
0.13429445
0.13187698
-0.14915311
0.14705932
0.09423256
-0.05339694
0.05923495
0.11274746
0.04881361
-0.02116351
-0.09022533
0.01115862
0.12616464
0.08111143
0.11965144
0.09668592
-0.07774354
-0.06342158
0.16818905
0.01505820
0.13279486
-0.15755568
-0.02353163
0.13862902
0.01972198
0.05288371
-0.00367256
-0.02745870
-0.02475154
0.04150732
0.11374247
0.08309871
-0.01872404
0.16901636
0.00073422
-0.00504063
-0.16605856
-0.00526676
-0.00313076
-0.04819071
-0.01770371
0.16510153
0.17243505
-0.11464044
-0.16660601
-0.14553326
0.12559742
-0.03480075
0.06117851
0.11289135
0.15563446
0.15902096
-0.05007007
-0.09971751
0.04676458
-0.14862743
0.11483231
0.13248837
-0.04207757
0.01614250
0.03630918
0.00428228
0.07166396
-0.16571675
0.10698442
-0.13041165
-0.05450382
0.01775617
-0.09891315
-0.17223993
-0.01369521
-0.04868850
0.11480030
-0.10586194
0.15399131
-0.16488242
-0.06336039
0.03547738
0.13221854
0.00521381
-0.02493960
0.16304971
-0.05833838
0.02447416
0.06369542
0.02349888
-0.09152176
-0.11865944
0.13714218
0.04898470
-0.07957488
-0.13296078
0.00374007
-0.15920748
0.14849034
-0.03279531
0.12411426
-0.15405451
-0.15401301
0.07526504
0.04448318
0.06187098
-0.14061090
0.15886386
0.03696257
-0.15585817
0.13434644
0.05100062
-0.01382951
0.12111014
-0.05934559
-0.11348957
-0.09097613
0.11905687
0.08533615
-0.13843417
-0.03168060
0.02356607
-0.06063234
0.17244859
-0.02276684
0.09718096
0.00098068
0.14190941
-0.04290124
0.14831781
0.09539279
0.15900323
-0.03886135
0.08023677
-0.08654922
0.10485655
0.08021314
0.06747279
0.11845502
-0.12043909
-0.00777117
0.00884582
0.12053625
-0.08970489
-0.14722358
0.12273705
0.01923317
-0.09755700
0.01628892
-0.01439096
0.10380563
0.04152152
-0.03768155
-0.10753526
0.04215311
-0.11482585
0.04676992
0.11198473
-0.16389091
-0.07527255
-0.16698940
-0.04505166
0.09930748
-0.09068320
-0.12415172
-0.04487945
0.01171642
-0.08413377
-0.04647345
-0.08772048
0.00608176
-0.08308905
0.00452386
-0.04742939
0.09211442
-0.15530373
-0.12734705
-0.12938873
-0.03234604
0.08233377
0.04788454
0.08625132
-0.01209675
-0.06509148
-0.12073732
-0.02042271
-0.12357626
-0.12394442
-0.13760149
-0.08344465
0.08943291
-0.04882095
0.07595629
0.13719745
0.15993364
0.01563911
-0.06180171
-0.03335394
-0.10572652
0.07989009
0.11460880
0.12463463
0.03620020
-0.06242681
0.04610130
-0.09556810
-0.06762050
0.12784675
0.06623142
0.10748199
0.03077041
-0.02621241
0.05381012
0.06073400
-0.08288543
0.11940642
-0.07920226
-0.07297257
0.08873004
0.00121173
0.00538647
-0.14110814
-0.16143258
-0.05694392
-0.12621084
0.14670247
0.14632741
0.16162059
0.03858534
0.11399421
0.02254291
0.06671709
-0.00811054
0.06031306
-0.10995331
-0.15134883
0.16236928
-0.05501904
-0.06556340
-0.05206521
0.13827023
-0.16591218
0.00223598
-0.08238000
-0.14986460
0.05240093
-0.13226651
0.07621549
0.09506357
-0.01303780
0.12303841
0.08143741
-0.06428850
0.05138304
0.01375844
0.01175420
-0.15804218
0.07539722
-0.09143905
-0.11092208
-0.12820169
-0.11665858
-0.13309242
0.12617494
0.12164407
0.16500042
0.12401184
0.02302201
-0.10315498
-0.11267880
0.16914967
0.13971367
-0.07506905
0.16432476
0.04611588
0.08457288
0.01682296
-0.14692368
0.03291240
-0.10518031
0.00019670
0.11981153
0.10031602
0.06342670
-0.05971587
0.07682177
-0.01041232
-0.03813544
0.05961312
-0.07403526
-0.06229513
0.14948845
0.05048682
-0.06513426
0.15617323
0.03549089
-0.00559229
0.12803873
0.00259471
0.03337355
-0.17268884
-0.05952165
-0.13300645
0.01973945
-0.10521846
0.11887810
-0.15567431
-0.03145464
-0.15454732
-0.16330902
-0.02844296
-0.08624798
0.08041027
-0.12467818
0.11428592
-0.15313151
-0.16376394
-0.10268776
-0.07011861
-0.02859361
-0.16787076
-0.02064613
-0.12472063
0.05936605
0.07190087
0.12273791
0.09727755
0.01681826
0.01709242
0.10651633
-0.01983108
0.10053426
-0.16762266
0.04051086
0.00361793
-0.06585804
0.11076149
0.06502521
-0.06410593
0.13225496
0.14972317
0.02590331
-0.00042439
-0.16401874
-0.11584838
-0.14454134
-0.07048573
0.10251465
0.06940548
0.07129970
0.11738816
0.14047074
0.05844545
0.11461806
-0.06081498
-0.10894211
0.04022568
-0.15400900
-0.15472192
-0.10052257
-0.05427843
-0.16899399
-0.12715052
0.14985114
0.12772429
-0.15455970
-0.03217867
-0.12401369
0.11114527
0.01745817
-0.02762164
0.05463734
-0.03880466
0.16906863
0.03370139
-0.02291159
-0.14693511
-0.07053271
-0.05318221
-0.07509068
0.13574536
-0.00543748
-0.13245705
0.11242012
0.10738561
0.14717105
0.07438272
0.06808735
-0.00735427
-0.14244375
0.09718215
0.10952422
-0.16373296
-0.08252231
-0.14650026
0.00126059
0.06501004
0.04754648
0.07733747
0.17297320
0.08265100
-0.12168926
0.11181069
0.00440064
-0.03655230
-0.13379405
0.09449652
-0.02786667
-0.01118941
-0.12975466
-0.09122658
0.01045605
0.06547256
-0.08751742
-0.14915614
-0.15390909
-0.05788545
0.06208449
0.04464485
-0.14482658
-0.02976879
0.07605056
-0.12456737
-0.06323249
-0.12330139
0.15068039
0.03988682
-0.00809041
0.11248419
0.05976439
0.12277433
-0.05359144
0.12993796
0.01049003
-0.06136958
0.02172376
-0.12811464
-0.10955074
0.04450995
0.16680473
0.10813013
0.01554859
0.10288354
0.14356300
0.03527795
0.00534733
-0.10664137
0.00590914
-0.12542684
0.02802205
-0.05022727
-0.08832051
0.03740950
-0.10071539
-0.07446226
0.03586334
0.01188540
-0.06627937
-0.15565471
0.05760746
0.13515066
0.12061086
0.00687192
-0.13643368
0.04605682
0.06193743
0.00273123
-0.00562842
-0.13401487
0.09603906
0.00719431
-0.10758720
-0.02538666
0.05232532
-0.00707991
0.13510698
0.10908407
0.01296045
0.02521078
0.10099775
-0.13364500
0.01443829
0.03538702
0.09426802
-0.09208639
0.14980778
-0.04007751
0.16249189
-0.07008107
0.15469834
-0.01644717
0.16843340
-0.07899053
0.05853482
-0.11816677
0.16938847
0.09086347
0.10788238
0.04290211
0.09444663
-0.06689274
-0.03961946
0.01141901
-0.04996869
-0.05943786
0.13132697
0.00872929
0.15943682
-0.15850218
-0.12680402
0.07154436
0.06339099
-0.05674760
0.16089952
-0.02967051
-0.10284510
-0.10041028
-0.13980278
0.02461836
0.02944925
-0.11676149
0.09641299
0.14889371
-0.05440392
0.09288353
0.04899924
-0.16114205
-0.01655327
-0.15921465
-0.10657192
0.09091359
-0.16598852
-0.07668593
-0.17094234
-0.10425393
0.11885235
0.00493255
-0.05890772
0.08381724
-0.07865711
-0.04057325
0.14447206
-0.05739350
0.07163101
-0.15383105
0.01366070
0.03942332
-0.03360748
-0.03714393
0.15694302
-0.03661828
-0.10097277
0.13756070
0.05299291
0.01633866
-0.07495326
0.08003786
0.08781835
0.16534010
-0.10222848
-0.07626207
0.00049376
-0.04760763
0.11460242
0.10357681
0.10962710
-0.09255398
0.16181816
0.00382023
-0.00647506
-0.06257878
0.04961146
-0.10823379
0.02324075
0.09576771
0.13694963
-0.00557280
0.00192824
-0.11362689
-0.02021831
-0.13140959
-0.15141685
-0.08940239
0.15935838
0.13158926
0.02028326
-0.06300598
0.01428203
0.03328836
-0.06941838
-0.15878719
-0.09110077
-0.10831649
-0.08151962
-0.10816334
-0.00571338
-0.06850016
-0.12784262
0.07293928
-0.03476989
-0.10840803
-0.14250016
0.09610227
-0.15525562
0.01603939
0.09673615
0.16393822
0.05037509
0.17051935
0.03439224
-0.08044159
0.13779645
-0.07578049
0.13155790
0.14639248
0.15503605
-0.04181068
0.08329693
-0.04609979
0.15970784
-0.05514923
0.11282125
0.01321445
0.09159386
-0.06840485
0.04873861
0.11120722
-0.10695330
-0.14828075
-0.00438899
0.14773408
-0.13716586
0.15347248
0.17310357
0.13499023
0.16444919
-0.13510434
-0.02398274
-0.12306464
0.00710940
0.08025160
0.14755160
0.06420650
0.02482139
-0.09006213
-0.04509782
0.02878484
0.12597263
-0.15534945
-0.01721197
0.14452240
-0.07361909
-0.03019147
0.00416940
0.13909277
-0.10541795
-0.07816797
0.06870365
0.07230740
-0.01188184
0.13444827
0.10583960
0.03405913
0.12773612
0.05825116
-0.12214314
-0.08842444
-0.00780571
0.10433254
-0.11901684
0.10596263
0.01096489
-0.17266862
0.15774330
0.10191104
0.06038937
0.08607537
0.00752023
0.17296222
-0.17092137
0.10528046
-0.10640967
0.02305137
-0.14076562
0.12370902
0.16215095
0.12592411
0.01343984
-0.01776500
0.00039159
-0.03107736
-0.16700433
0.02588991
-0.04017239
0.16060553
-0.10569818
-0.02329672
0.16242909
0.01524271
0.15739314
0.04396303
0.05684434
-0.11829986
-0.13137843
-0.14417484
-0.16815545
0.14624456
0.16490877
-0.01354191
0.04584372
0.09862956
0.16671328
0.00478407
0.17045408
0.11662363
0.05789336
-0.09425613
0.07040966
0.16024467
0.07487045
0.14508882
0.09074822
0.16435017
-0.13189924
-0.16151069
-0.03811467
-0.07393237
-0.09426457
-0.08502398
-0.14760092
-0.17094739
0.08962843
-0.10677762
0.03140157
0.00076162
-0.14917080
0.13760823
-0.03743028
-0.01135408
0.12762797
0.04317119
0.07811060
-0.15374121
-0.17205018
0.06433810
0.04786694
-0.11419799
0.10815770
0.06328635
-0.02269627
0.13304797
-0.13088189
-0.12701619
-0.17311238
0.03570066
-0.08788054
-0.03055899
-0.06741700
-0.16725916
-0.08745517
0.09747066
-0.11759885
-0.06754459
0.08100504
0.00898942
0.12382652
-0.09889833
0.05675140
-0.10883637
0.01647295
0.09985361
0.11708536
0.02066698
-0.14579840
0.09493309
0.12980235
0.13715902
0.11567570
0.11624676
-0.09674339
0.04344673
-0.06804889
0.12206113
-0.03714638
-0.03869227
0.05244271
-0.01878095
-0.11189666
-0.01145577
0.01928203
-0.02954103
0.17590418
-0.05240723
-0.11575999
-0.03803476
0.12854108
-0.08382531
-0.08385371
-0.08319580
-0.15912594
-0.10316127
-0.01502325
0.03234724
-0.01872093
-0.02745804
0.12336668
-0.01611722
-0.11363175
-0.04399485
0.00571849
-0.12586705
0.09555366
-0.07277980
-0.06292708
-0.13094573
0.08556327
-0.06054953
0.04905196
-0.04371702
-0.12674987
-0.04631078
0.11477173
-0.02301710
0.09717346
0.07009813
0.08047815
0.04513038
0.13299161
0.07564070
-0.01888460
0.03829677
-0.14389911
0.03271108
0.05581125
0.01396987
0.04290851
-0.02901879
0.14230381
0.12859468
0.16952401
-0.11808177
-0.05362894
0.05451336
0.14263429
-0.08072443
-0.13953421
0.10509776
-0.14243831
-0.15223762
-0.16811159
0.15455222
-0.06869070
-0.04427155
-0.04150874
0.05638131
-0.05792567
0.08331410
0.01233756
-0.09085603
0.00566067
0.10624518
0.06913941
0.11620806
-0.12008792
0.08247171
0.05921822
0.07254210
-0.10472458
0.17235291
-0.06722955
0.16892406
-0.08373836
0.14422747
0.05625520
-0.08826166
-0.00323899
-0.04109886
0.03133097
0.06087127
-0.00668356
0.15849531
0.12754604
0.15851195
0.09268206
0.13182354
-0.10128368
0.13851464
0.08735684
-0.10609045
-0.06672239
-0.14283183
-0.05101448
0.02151134
-0.01659245
-0.06769110
0.14129080
0.01898271
-0.15993313
-0.01750736
-0.15420108
-0.00018921
-0.00829810
-0.09302500
0.04411697
0.09206867
-0.03053769
0.00229399
0.00310545
0.12866920
0.03627117
0.06562901
0.08906895
-0.04478237
0.02106156
0.01368028
-0.05549411
0.05897622
-0.01415130
-0.09526012
0.16956171
-0.02623883
-0.16785868
-0.14236027
-0.11376475
-0.11259550
-0.08889788
-0.16463946
0.10302151
0.01530994
-0.12647370
0.06148427
-0.03746932
-0.13642760
-0.07837800
-0.14208932
0.09728286
-0.02756371
0.11069166
0.10488123
0.03597288
0.07090284
-0.03357813
-0.17127366
0.11126901
-0.16601869
-0.14243495
-0.01767851
-0.10678121
0.02338303
-0.13581680
0.01204165
-0.09517268
0.00056535
0.02938279
-0.10058399
-0.00146844
-0.11706312
0.05982129
-0.06161146
-0.14927347
-0.02554322
0.10667962
0.11180575
0.13682535
0.16926131
0.08313492
-0.08075116
0.17232400
0.08390737
0.08313605
-0.11589333
0.15484306
-0.10587917
-0.15579684
-0.12379553
0.01882775
-0.07336301
-0.01709383
-0.09209105
-0.08972653
0.04688451
0.13597208
-0.13861603
-0.16215065
0.05495323
-0.16451132
0.01815490
0.17281201
-0.09468611
0.08533642
-0.08140519
0.00014558
-0.17019011
0.00119002
0.05590218
-0.04124403
-0.13853310
-0.08988953
0.06330223
0.09475304
-0.15004252
-0.16517520
-0.02145899
0.11680461
-0.09789020
0.03683360
-0.16371851
-0.07556245
0.11981042
0.14947976
-0.00200317
0.10886706
-0.06197707
0.15784208
-0.05661629
0.05688546
0.14646468
0.10679345
0.09422673
0.08943576
0.09777570
-0.14690995
-0.12077950
0.16062568
-0.14654338
0.04625252
-0.16771244
-0.10131840
-0.14820856
-0.14121947
-0.12261787
0.10493390
0.15885676
-0.16563000
0.14042847
0.12323458
0.09508381
0.11593208
-0.01466091
0.10058934
-0.04297262
0.06351966
-0.08830561
0.05912670
-0.05766906
0.13846046
0.17077838
0.03552438
-0.08798285
-0.01031813
-0.11269914
-0.01859754
0.15981592
0.05394795
-0.15387440
0.15863736
-0.14149483
-0.08240182
-0.14723617
0.16559762
-0.03126790
-0.15038122
0.14587483
0.04767347
0.04855270
0.02542953
-0.16263163
0.00077425
0.08091421
-0.17177126
0.12470157
0.15906186
-0.00544107
0.00739009
-0.09312509
-0.14910606
-0.01709209
0.16742493
0.07940432
-0.10318979
0.02088049
-0.16340955
-0.15470311
0.02069688
0.05185080
-0.00989428
0.15074654
0.13127555
0.14591284
0.04262866
-0.07397673
-0.06039263
0.16823415
-0.00236099
0.05368936
0.04387645
-0.05594097
0.08443820
-0.07418987
-0.11626622
-0.06729056
0.14768936
0.14060721
0.11164688
0.06148516
-0.15785825
0.09536172
0.16498975
-0.06549311
-0.14415191
0.05240075
-0.15182343
0.13340031
0.13520092
-0.03625755
0.02728353
-0.15097436
0.17445171
0.01230549
-0.16988610
0.10684228
0.01771784
-0.05067022
-0.04895882
-0.11173238
0.15774816
0.13015191
-0.11133607
-0.11586855
0.03490230
0.03672696
0.15203519
-0.14370066
0.10405686
-0.11735539
0.07428876
-0.05166155
0.02799977
0.04332922
-0.16814516
-0.13711748
-0.08897899
0.01064086
-0.14745782
-0.08902089
0.08177119
0.05530192
0.06642619
-0.16723353
0.14156482
0.00242648
-0.15087253
-0.02492288
-0.00104415
0.14910626
-0.05007788
-0.14735900
0.02932301
0.07737400
-0.04984250
0.02611987
0.10715807
-0.10098869
0.10172538
-0.03413997
0.11393660
0.05738336
0.05863510
0.04286401
0.14422202
-0.06178411
-0.02735807
-0.05552525
-0.04888811
-0.06974204
0.07367329
-0.06809753
-0.06216191
0.08456308
0.05915037
-0.16746861
0.01913863
-0.06391245
-0.15328084
-0.16800740
0.09863877
-0.04661639
-0.06396772
-0.15686588
-0.14022253
0.02069570
-0.07303879
0.11609555
-0.16577177
-0.11139316
0.16134550
0.10803128
0.10590287
0.02938722
0.06277486
0.06586029
-0.09160981
-0.04602628
-0.14891243
-0.16089131
0.06376088
-0.16759691
-0.14764351
-0.05363977
0.11358361
-0.09520288
0.13187151
-0.12353021
-0.05044326
0.15307973
0.02337892
-0.03879352
0.07904079
-0.09839175
-0.13363005
-0.14396334
0.01262220
0.12082082
-0.15485272
0.00815838
0.09768039
-0.08500811
-0.06108729
0.02666357
0.11033040
-0.15029827
-0.08822624
0.07815349
-0.04295244
-0.08923575
-0.06681617
-0.14051513
-0.05449908
-0.03678410
-0.02864481
-0.08723065
0.07092152
-0.15942098
0.11112843
-0.13753930
-0.12480262
-0.12859002
-0.16125566
0.11004291
-0.06253766
-0.03992950
0.11905554
-0.10146277
-0.01053569
-0.08998655
-0.10656486
-0.08210496
-0.02713555
0.05894400
0.11693033
-0.02375099
-0.15337212
-0.06500614
-0.16873375
0.16007376
0.00517260
-0.15650110
-0.04090101
-0.04816338
-0.15606418
-0.04677942
0.03345726
0.12159318
0.12461574
-0.12609708
0.11439544
-0.17298378
0.08773958
-0.04395336
0.12181389
0.08154596
-0.11778029
0.03280721
-0.11254966
0.08046606
0.06699125
0.14444637
0.14732102
0.04063058
0.01183472
0.05077747
-0.16462091
0.11630451
0.16180536
0.06174733
0.12488093
-0.06739759
-0.08409561
0.08880317
0.15855266
0.01997358
0.08714363
-0.00339595
0.04018882
0.13633192
-0.14691241
-0.00572761
-0.12153199
0.01202633
0.02979724
0.11597116
-0.15951125
0.11240904
-0.04321303
-0.04547326
-0.15398766
-0.10337215
0.00607499
0.04281995
0.03433156
-0.01219578
-0.06584407
0.13624598
0.15675995
0.17439690
-0.11636303
-0.14016668
-0.07757192
-0.16427432
0.02636850
-0.10014494
0.08191700
-0.13265152
-0.11379095
0.07361999
0.00667738
0.11800200
-0.08330279
0.15134276
-0.02383511
0.11958630
0.15962276
0.08283384
-0.16458517
0.00848311
-0.06665243
0.17186545
0.01096011
0.09851491
0.06065315
-0.10766849
-0.15532574
0.15972784
0.12773475
-0.15986504
-0.11667763
0.00800940
-0.08556625
-0.09070198
-0.07742916
0.04218419
0.05258851
-0.09769522
-0.16011710
0.04938644
-0.13223678
0.04037827
-0.14361840
0.02956401
0.13181463
0.05072844
0.10539427
0.13384089
0.16714658
-0.06179372
0.02704137
-0.16289951
0.15912420
-0.16389051
-0.05894030
-0.11847448
-0.17090505
0.06413362
0.08896938
0.09213191
-0.07848734
-0.17220096
-0.08507850
0.15140042
0.17143285
0.16931573
0.17611285
0.01550131
-0.03070151
-0.12636320
0.16163602
0.07819722
-0.02056937
0.03602785
-0.02966106
0.11677016
0.01989937
-0.07792406
-0.03954359
-0.06915515
-0.09694387
0.06527698
0.02965041
-0.12453289
0.01336201
-0.09588014
-0.09151753
-0.14993636
0.05564848
0.03979726
-0.01230076
-0.13768417
-0.07607031
-0.17134932
0.03845701
-0.10910493
0.11981609
0.17035930
0.14250734
-0.12355776
0.04400345
0.06390987
-0.02389063
-0.04509471
-0.01972367
-0.11649121
-0.09132951
0.12178090
0.11508488
-0.02534025
-0.03663051
0.05229972
0.10259322
0.10981558
-0.01146104
-0.02788128
0.15753469
0.05611297
-0.15242225
-0.03857097
0.03425896
0.10182400
0.00895841
0.00891083
-0.11235780
0.11531498
-0.16542307
-0.15075102
0.15774110
0.15541480
-0.13122796
-0.04729448
-0.03717476
0.08845735
0.00953143
0.00968383
0.08902390
-0.08298412
0.05128553
-0.05683766
-0.07831309
-0.07111110
0.16661578
-0.15866232
0.10459399
0.14546677
0.01409888
0.05328380
-0.16815983
0.06265035
0.07337520
0.14977181
-0.06419339
0.09829542
0.09463015
-0.12313819
-0.07218114
0.11600199
-0.13940302
-0.05672307
0.09415868
-0.06984631
0.12330502
0.01918253
-0.03179924
-0.03094171
-0.05878544
-0.12873721
0.17031366
0.03666466
0.15484568
-0.03210595
0.01641051
-0.05552889
-0.07000054
-0.00702965
-0.01041146
0.13393655
-0.13493444
-0.07645079
0.16516683
0.01402608
0.13901547
0.08683574
0.13995361
0.16318667
0.17006615
0.06368558
-0.10778613
0.01569317
-0.07574679
0.04793501
-0.10254873
-0.07371027
0.10588744
0.04484588
-0.03097878
0.03894705
-0.05762273
-0.00494789
-0.15916459
0.12062904
0.07819915
-0.07455162
0.12186339
-0.09878903
-0.04668443
-0.02111714
-0.08352976
0.02719861
0.14764044
0.06122912
-0.00355820
-0.10612708
0.15943557
0.14636913
-0.03278446
-0.10850685
0.15447667
-0.06371152
-0.16161604
-0.08494854
0.12179673
0.12423778
0.14984202
-0.04630938
0.04230176
-0.00732459
-0.15274371
-0.00376618
-0.15642671
0.05801053
-0.04839050
0.10910234
0.14556533
-0.00810061
0.00615403
0.07181464
0.15271312
0.13349885
0.00869910
-0.13686129
0.04997713
0.12971833
-0.13969320
-0.16293910
-0.11769706
-0.07089471
-0.07631077
0.07533041
0.04104366
-0.03775832
0.09719026
0.11045280
-0.11933564
0.10884524
0.11267135
0.06757329
-0.09671108
-0.00436971
-0.08216701
0.10695642
-0.12993614
-0.17188415
0.05260193
0.05271212
0.05647873
0.01230477
-0.04712203
-0.10191666
-0.10130671
-0.09203026
-0.03451005
0.02630681
-0.01593748
-0.12284165
-0.09062561
-0.00409866
-0.11870456
-0.16204014
-0.00623141
-0.11329779
0.14825822
0.00049623
0.12428515
-0.08785651
-0.14461075
0.12512642
-0.11859255
-0.08622216
0.03835282
0.06399435
0.14806874
0.08978382
-0.11707505
-0.04219575
0.11534739
0.13626130
-0.04881077
-0.05182399
0.08697104
-0.17274773
-0.17085934
-0.12734486
-0.02885720
0.15955703
0.07672141
-0.04066676
0.00902675
-0.12934598
0.05676251
-0.04211313
0.16161044
0.09879397
-0.12451911
-0.00482748
-0.15902649
0.08023900
0.12372582
-0.01809186
-0.06851009
-0.10833426
0.05266519
-0.08302339
0.03994825
-0.00482496
0.03201514
0.03405673
-0.09600426
0.14736208
-0.04033995
0.09851867
0.03011830
0.02977467
0.06691175
-0.06921624
0.11867107
-0.01448338
-0.13039789
0.10136248
-0.09813431
0.16446853
0.00953901
-0.00176349
-0.01323639
0.03296584
0.07130460
-0.11946967
-0.11387082
-0.14311108
-0.05302016
0.05009976
0.16610968
-0.11031827
-0.08705258
-0.17308328
-0.11262399
-0.04693547
0.12840071
0.04258166
0.10338631
0.02855307
0.07754088
-0.11519331
-0.00586847
0.10686215
0.17112339
-0.05338905
0.08079141
-0.12067504
-0.07164411
-0.11363758
0.05024646
-0.02519803
0.07349367
-0.07962331
0.05901475
-0.06575250
0.14835948
0.04374197
0.10109039
-0.00716470
0.17078188
0.04625528
0.15229708
0.03615271
-0.03927831
-0.05420462
0.07003384
-0.08172186
-0.02354578
0.12908757
-0.14319254
-0.09060550
-0.05197432
0.17304674
-0.16809858
-0.00902384
0.10474913
0.04425415
0.06362179
0.10069034
0.08302904
0.14330137
0.07260945
0.13890491
-0.13950472
-0.00307258
0.09738224
0.00660109
0.08837271
0.09100427
0.04258501
-0.07719729
-0.09378821
-0.10690562
0.04438563
-0.06788946
-0.11609156
0.06615304
0.16431531
0.12391453
-0.04228827
-0.09293687
-0.01771586
0.04049537
0.11455888
-0.03389962
-0.06539673
-0.10457890
0.07916980
-0.15544765
0.11856493
-0.07078892
-0.09498242
0.16396651
-0.08660340
-0.00718068
0.09773873
0.10810062
-0.09489945
-0.06776633
-0.14681372
-0.05293288
0.01451844
0.03800293
-0.00466994
0.11513603
-0.02890724
-0.03236710
0.00763322
-0.01564226
0.03158205
-0.05019114
0.01796557
-0.12890404
-0.00006847
-0.06494969
0.02372590
-0.06987794
0.07705475
-0.10087056
0.01411086
-0.14244144
0.02991667
-0.12022990
0.15894188
-0.10774726
0.00401909
0.00165279
0.15905523
-0.10390132
0.13830076
0.12030157
-0.00565117
0.04882907
0.01710062
-0.10096665
-0.04819681
-0.09212459
0.07939485
-0.09836408
0.13105386
-0.10093849
0.11356769
0.15331145
0.12162068
0.15265225
0.01052942
-0.02065896
-0.01008271
-0.05659262
-0.09390300
0.03422850
0.16134873
-0.07780532
0.11671622
-0.07774031
-0.13937226
0.05190487
0.10068280
0.04477230
-0.13588181
0.14398795
0.01370873
-0.13185720
-0.03694044
0.03026197
0.08090271
-0.12116590
-0.05219104
-0.13715681
0.04497923
-0.11134077
-0.03992431
0.08085854
0.08199576
-0.11622754
0.01357463
-0.06610180
-0.08319660
0.08569752
-0.14107172
-0.15597312
0.07568637
-0.00540387
0.12663624
0.11340435
-0.08076840
-0.01944567
-0.00189445
-0.06542473
-0.16152653
-0.16521008
0.09270362
0.06192160
-0.17303036
0.04989502
0.15175104
0.10299889
-0.02693682
-0.00609841
-0.15911260
0.16371378
0.14617935
0.14912857
-0.05262717
-0.08811074
-0.12243828
0.07238084
0.01249769
-0.07073560
0.17453174
0.02552442
-0.16056921
-0.16101445
-0.04071201
0.10818993
0.10828927
-0.14142847
-0.14711127
0.09238964
0.07424447
0.13253932
-0.01103309
0.16069946
0.14755349
-0.08068577
0.10310656
-0.12724188
0.02218933
0.05055470
-0.00496336
0.00973661
-0.01632257
0.06672563
-0.15331009
-0.04383123
-0.08533675
-0.09372730
0.04491116
0.08524486
0.15137434
-0.04623142
-0.12409921
0.04909372
-0.15428305
0.05439877
-0.05949005
0.01690963
0.10987148
0.12760633
-0.15181941
0.15200987
0.10546303
0.12253845
0.10872664
0.03555101
-0.04117054
-0.01680740
0.04796882
-0.09724923
-0.03708129
0.11680588
0.07575583
-0.06635798
-0.13528818
-0.00617597
-0.03096269
-0.11654836
-0.04575235
-0.10726336
-0.09695800
0.02198869
-0.01353500
0.10625847
-0.00044963
0.15481983
0.08328930
0.10110315
0.06153066
0.07005310
-0.14883229
0.07629230
0.05064328
-0.08768497
-0.10551290
0.02132639
0.08072738
0.09149382
-0.05719232
0.13534716
-0.04787735
0.03904007
0.04974151
-0.06668562
-0.08793188
0.15351377
-0.15944903
-0.09533034
-0.10010131
-0.00149982
-0.13719808
-0.14909525
0.03063327
0.05773459
-0.00676023
0.16409869
0.11301377
-0.15064995
0.13492592
0.07521421
0.03522360
-0.14988896
0.02394421
-0.01099159
-0.13797213
-0.03406243
0.17143990
-0.12596163
0.09998017
-0.13058056
-0.05141630
0.11559990
0.15265369
0.13040516
0.02310896
0.07176021
-0.00158933
0.11853145
0.01203349
0.13468914
0.02228459
-0.00086853
0.04153434
0.03986263
0.01424208
-0.05430848
0.02963924
0.16110659
-0.07125555
-0.11105898
0.16675882
-0.09116746
0.14202507
-0.12873447
0.10438080
-0.08415554
-0.02807956
0.11911229
0.02232015
0.05503100
0.13223267
0.11544947
0.06310324
0.12307093
0.07269101
-0.01627604
-0.16251504
0.11629140
-0.10871576
-0.02118583
0.17129853
0.10472067
0.08055526
0.01404597
-0.13416789
-0.02091929
-0.16337764
-0.04867102
-0.07051807
0.16736931
0.11458924
0.12128833
-0.12266682
0.09693742
0.13825251
0.11027092
0.00417525
0.16438915
0.12013117
0.00832465
-0.14340848
-0.11352281
0.07553135
-0.11668084
-0.02582002
0.16428684
0.11017589
-0.06802271
0.15964296
-0.13010192
0.09062456
-0.09192791
-0.10553669
0.09295607
0.05497769
0.03851697
0.00810089
0.08363547
-0.15512316
-0.01282302
-0.11181284
-0.04751214
-0.09674851
-0.15251559
-0.06764063
-0.14054139
-0.06211916
0.06854844
0.02515279
0.02725326
-0.15842400
0.07398538
0.02096604
-0.16681458
-0.09702101
0.10926801
-0.11394838
0.01314020
-0.04978024
-0.02409746
0.16074140
-0.14180478
0.00531593
-0.00087141
0.10926890
0.15181741
0.14981361
0.08014228
0.00656996
0.07338338
0.06456660
0.09558612
0.01410376
0.08341467
0.04969399
-0.10731503
-0.00013195
0.06524658
-0.03392280
-0.11638488
0.05039986
-0.05651882
-0.03177930
0.03225230
0.08832888
-0.13107949
0.00407499
-0.06103553
-0.02198876
0.06815402
0.11250923
0.17253506
0.07938582
-0.05422718
-0.07752722
-0.12285880
-0.06312653
-0.09134196
0.09518474
-0.08032297
-0.08915417
-0.14739111
-0.06942794
-0.08666951
0.11565151
-0.05445110
-0.00828656
-0.05529703
-0.12485880
-0.10869765
0.02863063
0.03273553
0.03788102
-0.02804741
-0.04353450
-0.03674891
0.01725727
0.13502216
-0.03416598
0.13081360
0.06350080
-0.12728347
-0.07399046
0.02569132
0.01667851
-0.02545544
0.05517500
-0.14746957
0.11521766
-0.03932507
-0.13560665
-0.14988665
-0.14020066
-0.10341704
-0.14300250
-0.00116426
-0.11000456
-0.12825549
-0.16588461
0.15914275
0.07241223
0.04224623
-0.14949745
0.05916726
0.08103544
0.01261653
-0.13007747
0.12552005
0.01696318
-0.04369485
-0.06636170
0.09369355
-0.12127998
0.08218727
0.12766019
-0.08411966
-0.02194025
0.00077507
-0.11868749
-0.06693625
0.04535266
0.08971360
0.00140642
0.13495351
0.07334859
-0.12529995
0.08958446
0.13553548
0.09750692
-0.03535528
0.12288968
-0.14504862
-0.05572737
0.02519477
0.07093322
0.16742581
-0.07121214
-0.00398104
0.03448804
0.07798641
-0.14746958
0.06368381
0.15637173
0.02259462
0.11006687
-0.01289743
0.12725180
0.01649961
0.09413303
-0.06633439
-0.10041931
-0.12925085
0.02121146
-0.17275235
-0.13202597
-0.02972765
0.07399955
0.03465333
-0.07814687
-0.09177054
-0.06960813
0.03891204
-0.06838483
0.16878076
0.06992552
-0.04001596
0.08267674
-0.02450199
-0.10515842
0.06275152
0.11892971
-0.13901912
-0.09817778
-0.11582850
-0.08811774
-0.06670211
0.02708086
-0.13374577
0.09934572
-0.01670747
0.09665228
0.11514092
0.07351650
-0.12804288
-0.08179709
-0.13155158
0.10317399
0.16028705
0.10629556
0.10974109
0.11160780
0.11311497
-0.16844332
-0.14962585
-0.12484198
0.16303033
0.14314340
-0.16818593
0.11430656
0.15578911
-0.13277972
0.08181536
-0.16111988
-0.03021318
-0.06511202
0.00750109
0.07130009
-0.03939891
0.16091314
0.08384499
-0.13045904
-0.01085959
-0.12817803
0.10117162
0.10895982
0.07502843
0.02778128
0.10103017
0.10555257
-0.13152269
0.06986460
-0.01693965
0.13894102
0.13130838
-0.07339450
0.15382347
-0.04350123
0.02835806
0.01872488
0.07399529
0.07984012
-0.17280497
0.08972424
0.09417116
-0.10591748
-0.00930115
0.05852637
-0.01112682
0.11430296
0.09442053
0.13899797
0.12265608
-0.14488921
-0.11592267
-0.04968634
-0.13184950
-0.12711930
-0.14128953
0.03580883
-0.12733020
-0.00641371
0.09458399
0.13786149
-0.10268095
-0.15290391
-0.06581436
0.11578368
-0.09776002
0.10019338
0.11361984
0.06460785
0.05115238
-0.07587881
-0.06031638
-0.12488522
-0.08951566
0.14915277
-0.02958159
-0.06676783
0.06842681
-0.04985055
-0.09633535
0.13392633
0.14177848
0.10123153
0.02180672
0.16551775
0.01180505
0.08433030
-0.06383488
-0.05628923
0.11611446
0.04752685
0.10763571
-0.15017708
-0.03119527
0.08761359
0.16502531
0.03597184
0.11107862
-0.04084871
0.09383356
0.15540637
-0.04006900
-0.09995397
-0.06956665
0.07948728
-0.05160097
0.08963883
0.15899974
-0.10772945
0.05138624
0.09540817
0.12322119
-0.01539177
-0.04430927
0.04939793
-0.02440326
-0.12965599
0.00987309
-0.05739645
0.00083643
0.00429016
0.08474564
-0.11894395
0.00884087
-0.03694814
0.00764364
0.06063250
0.13319609
0.08070677
0.11612193
-0.00211387
0.16179572
-0.16943760
-0.10096753
-0.01171185
-0.02947614
0.05707800
-0.01324204
-0.15849727
-0.01201694
0.09283245
0.10202079
0.04556842
0.09516200
0.16825372
0.15381539
-0.01623905
-0.15180933
-0.01834712
0.02304761
-0.04869793
0.10999192
0.07960013
0.03999546
-0.04101266
-0.10629220
-0.09733069
-0.16842803
0.00564440
-0.02391411
-0.15365043
0.10550493
0.06541501
0.01607824
0.00014059
0.12305281
-0.13394488
-0.12248607
-0.06983577
-0.09121856
-0.12449078
0.12478384
0.08579239
-0.05467266
0.04859622
0.02338930
0.03316352
-0.05310489
-0.12804547
0.10537241
0.09243926
-0.06665340
-0.16364419
0.08684003
0.03731971
-0.11525172
-0.12880510
-0.09284557
-0.02392059
-0.03335353
-0.14710648
0.12642430
-0.12417103
-0.10227194
-0.07379363
-0.02779548
-0.12423763
0.12376416
-0.02451924
-0.10668895
0.12422914
-0.07707374
0.10932005
-0.15008503
-0.04835952
-0.06886038
-0.11077285
-0.10243878
0.03634946
0.02201677
0.14941341
0.11311825
0.11470720
0.16805340
0.10778639
-0.13908371
-0.14694721
-0.01268509
-0.14344919
-0.01294646
0.09333366
-0.04959179
-0.16406420
0.09853842
0.05825911
-0.16973883
-0.02657336
-0.13564785
0.07973469
0.16823004
-0.13515021
-0.16622932
-0.04569307
-0.09522652
0.01054768
0.09845611
0.12831487
0.03025703
0.03865086
-0.06839956
-0.04011938
-0.02484350
0.16165923
0.03769023
0.11962213
0.06991671
0.02136574
0.03446988
0.10742991
0.02157317
0.16080570
0.13925298
0.06504239
0.04190022
0.11279396
0.11336896
-0.15428364
-0.10586928
0.09873612
0.15574001
0.06021842
-0.11078705
-0.04252601
0.07053151
0.16365331
0.04108379
-0.08458754
0.15745711
0.13124588
0.06908631
-0.13162693
0.16107024
0.03782944
0.05099545
-0.12697111
0.02404461
-0.13805677
-0.11855833
-0.09208989
0.02609703
-0.07779186
0.15849613
0.16870275
0.02516969
-0.03073625
-0.15391864
0.14969373
0.14166582
-0.02252915
-0.04801825
-0.08637282
-0.14923976
0.07431854
0.15570812
0.14657810
-0.07900918
-0.04601046
0.10717568
-0.02931579
0.03261176
0.07684617
0.13726336
-0.14075133
0.14553036
0.05495661
-0.01867320
-0.04655949
-0.01998916
0.14791174
0.16198388
-0.01728518
-0.00293887
0.01525515
0.02556111
-0.12863313
-0.05872606
-0.12393074
0.01157607
-0.06673348
0.07801625
-0.15484940
-0.16423991
0.10359722
-0.13696276
-0.06099178
0.12581173
-0.15939727
-0.01150008
0.06483945
-0.07342143
-0.00740004
0.13930468
0.13143817
-0.15436818
-0.02578182
0.05229714
-0.00386020
-0.08340004
-0.01900008
-0.12270392
0.10418672
0.10727032
0.10316043
0.00920591
-0.01925551
-0.00811474
0.00411893
-0.11426746
-0.04310761
-0.01393033
-0.04971872
-0.11934091
0.09339526
-0.12237825
0.05405846
0.17062224
-0.15981451
0.12388146
0.09808200
-0.13650179
-0.11578602
-0.02783337
0.09281140
-0.11534522
0.16725764
-0.11781091
-0.16046454
-0.08863202
0.01390706
0.11128227
0.06726423
0.05836120
0.03915615
0.02449692
-0.02647327
0.11201563
-0.04067001
0.02338531
0.16463393
0.10905800
-0.01441392
-0.16794476
-0.01048277
0.10870927
-0.01980207
0.17058310
0.09010570
0.05451836
0.13520637
-0.09669159
-0.10377908
0.10271489
0.06172414
0.05047414
-0.00856182
-0.16520345
0.07529813
0.06994899
-0.09684618
0.17432113
-0.01259867
0.00894934
-0.08758835
-0.11665951
0.08829735
-0.06298222
0.04232745
-0.03649217
0.04630071
-0.00470316
-0.05448292
0.02313898
0.14966436
0.17474467
-0.04460765
-0.06847596
0.11649618
-0.05284359
-0.04624284
-0.03965858
0.12732047
-0.06886686
0.10967743
-0.15572718
-0.07461022
-0.17253481
0.00377208
0.02967904
0.10494307
-0.08308095
0.16271265
-0.11949190
0.05820094
-0.08424227
0.01398237
-0.14170541
0.07062016
0.00394342
-0.09804258
-0.08861060
0.10436981
-0.13447504
-0.11065451
-0.10480446
-0.09900022
0.10742706
-0.08936483
-0.03657068
-0.01200034
-0.10781189
-0.12050303
0.16653639
-0.04234338
-0.07365485
0.11601922
0.06508435
0.17070739
0.17056209
0.06158033
0.14133625
0.04379578
0.01690894
0.13971625
-0.09460744
0.05985998
-0.16053224
-0.01836305
0.09720966
0.07679520
-0.10890540
0.08348015
0.00676992
-0.08482284
-0.00472093
0.01977128
0.00082766
0.15951613
-0.08427930
-0.14301588
0.00816092
0.12200046
0.10048638
0.14054953
0.06887089
0.12596501
-0.13539781
-0.09456658
0.10859515
0.08431195
0.10355473
-0.06530341
0.10430375
0.15234059
0.15176150
0.12103976
0.14246835
0.00688452
0.15461449
0.05871759
0.11635306
-0.02897180
0.06625900
0.06188366
-0.01350659
-0.09982266
0.09262252
0.10950476
0.15401624
0.00675774
-0.10855322
0.14382210
0.17289145
-0.14269160
0.10025000
0.08383275
0.13491315
-0.11147948
0.07433197
0.16161150
-0.05722790
-0.04963915
0.10387664
0.17301789
0.08127836
-0.08296442
0.11870137
-0.14470215
-0.13948436
0.02789846
-0.06467259
0.10299464
-0.10004370
0.16745964
-0.15970206
0.11103462
0.12218913
0.06452543
-0.03205688
0.11290840
0.10463342
-0.07421941
-0.10528729
0.16841178
-0.08404937
0.00282817
0.05646026
0.14314903
0.15988006
0.05016354
0.05286819
0.10225311
0.15906946
0.08830160
-0.02751880
-0.02243767
0.09026694
-0.02033520
-0.05162066
0.16268519
-0.14533070
-0.09995290
0.15073746
-0.14589430
0.08134833
0.00943252
0.11797181
-0.04401355
-0.16957486
-0.12965089
0.16496645
-0.04611996
0.12228974
-0.09012363
0.14158787
0.11867427
0.13910438
-0.12231978
0.02785852
-0.05077245
0.03204506
-0.02711660
0.05635017
0.05759362
0.03949491
0.08535084
0.09871509
-0.04409622
0.10397913
-0.11797578
-0.08828843
-0.11284385
-0.12045568
0.12089288
0.06000862
0.14668444
-0.05567198
0.12416356
0.08941174
-0.07244071
0.14246130
-0.15964632
-0.05532086
-0.10456420
0.06816388
-0.11028910
-0.12345121
-0.12004156
-0.03957878
-0.07341178
0.15563072
-0.11170526
-0.06364035
-0.13961183
0.01726534
-0.04213493
0.10626394
-0.04733103
-0.01515402
0.01685775
0.09382528
-0.06904575
0.01306054
-0.10070799
-0.12434543
0.11919492
0.05620658
-0.09188815
0.15727419
0.03123207
0.06175012
-0.02673681
-0.14732876
-0.13427283
0.10377626
-0.05693579
-0.15275900
0.06774268
-0.12535335
0.06568069
0.01012483
0.01994400
0.16675413
-0.05338437
0.08335619
-0.11329976
0.09051114
0.04552393
0.16551207
0.02275492
0.04930202
-0.06957036
-0.05773732
-0.04449872
0.08277390
-0.01857023
-0.00098722
-0.10695183
-0.11108777
0.15040623
0.11639772
0.03461331
0.04254664
-0.03251561
0.13931575
0.05319793
0.06125881
-0.09277974
0.15951358
-0.10670619
0.14941072
-0.01177932
0.13251919
0.16093098
-0.05110401
0.10842309
-0.08763617
-0.08769374
0.14385737
0.14825599
-0.12729216
-0.08860854
-0.03155042
0.13612759
0.10163717
-0.04052455
0.05534011
-0.06085794
0.07096893
0.13818400
0.02624981
-0.14512122
-0.02607685
-0.16938038
-0.08489813
0.01412973
0.12603875
-0.01213704
-0.10989632
0.00352119
-0.14397900
0.01519991
-0.03311021
0.14454076
0.12253720
0.02247026
-0.06275785
-0.16945717
-0.09777436
0.14388154
0.10127357
-0.13799983
-0.03248674
-0.08688035
0.04604205
0.02606344
-0.05720115
0.00888545
0.06441680
0.08524040
0.11744601
0.15329430
0.05029166
-0.00532007
0.11972109
0.04648693
-0.11829537
0.07115801
0.06755820
0.10655203
-0.10798308
0.14175846
0.12366967
0.11879506
-0.08534283
-0.00295202
-0.00477376
-0.04744277
-0.08505325
-0.14150259
0.13937959
0.02593578
0.07571833
-0.16510479
0.08168633
-0.09528602
0.02885389
-0.02765039
-0.05861614
0.10156440
0.00955815
-0.15782051
0.06504401
-0.04740911
0.15463369
0.06245411
-0.02006822
0.04618181
0.14254558
-0.06153417
-0.03931422
0.11209315
-0.10053838
0.16536056
0.16015814
0.00556667
0.16513675
-0.09861712
-0.05536750
0.16922423
0.07706714
0.16197258
-0.10981486
0.12567562
-0.04237643
0.14551030
-0.03724726
0.13753276
0.05218736
-0.04873373
0.06190817
0.14203924
-0.02628804
0.08704440
0.06705479
0.06750377
0.11307018
0.05564001
0.00484852
-0.03450593
0.07433517
-0.00834352
0.00990487
-0.11424223
0.03036297
0.04638410
0.03293783
-0.10526671
0.16605338
-0.03606005
-0.10779132
-0.05797336
0.03925524
0.08519377
-0.07973699
-0.11467107
0.03486291
-0.11154620
-0.11084133
-0.14246325
0.00467234
-0.04007499
-0.07366244
-0.16271588
0.08282085
-0.15998256
0.07289176
-0.08007020
0.04191317
0.05536044
0.03115802
-0.10827531
-0.03509778
0.03863412
-0.15212655
0.07853843
-0.14833918
-0.07238547
0.12399974
0.16880819
0.01241593
0.11640441
0.13670905
-0.06619760
0.04563377
-0.05687634
0.11687321
0.15421873
-0.11879063
-0.13839136
-0.11840030
-0.13124944
-0.07855927
-0.00204852
-0.12783483
-0.14683822
0.05706851
-0.07915965
0.14531599
0.11596536
0.13608924
0.07437368
-0.09615096
0.09997762
-0.10115637
-0.08813006
0.09373051
-0.13947110
-0.08770814
0.01712315
-0.02891891
-0.11063426
0.07926643
-0.00788140
-0.03196406
0.00440477
-0.05744613
-0.10073882
-0.10683917
-0.08135229
0.10219188
-0.15765178
-0.16475718
-0.11963087
-0.04863344
-0.02607951
-0.09934530
0.09652201
-0.08580424
-0.06131292
-0.06932734
-0.03169047
-0.06469470
-0.00874026
-0.07875605
-0.16008395
-0.01318080
0.15142205
-0.16850428
-0.05020624
-0.06088267
0.00113732
0.10699664
-0.03584759
-0.15931867
-0.01743059
-0.09937543
-0.11145063
0.10746175
-0.14727767
0.05224043
0.16194819
0.03221838
0.05696734
0.09053110
-0.08833967
-0.06159073
0.10151222
-0.12120008
0.05942230
0.11874199
-0.11259604
-0.08149005
-0.04373124
0.15657830
-0.12697221
0.15459922
-0.10679206
-0.12865174
0.14106807
-0.16990232
0.05062875
-0.06674672
0.03553185
0.10229239
0.15660092
-0.13349271
-0.08758181
0.12902021
-0.13745205
-0.13255134
0.02436031
-0.01608378
-0.11629440
-0.04171500
0.10917935
-0.11486489
-0.06679698
0.04963258
-0.00294510
-0.01652767
-0.15180899
-0.00659275
0.13440070
0.07841703
-0.03878112
0.09969291
0.15038007
-0.15461129
0.14295626
0.00280330
0.01324444
-0.15362689
0.06093012
0.13150313
0.16512883
0.06115088
-0.10296713
-0.07493591
-0.07928464
-0.15098448
0.02157374
0.00047898
-0.08621630
0.13514051
-0.08350101
-0.03754544
0.03712188
0.12465718
-0.07882221
-0.08801653
-0.02586614
-0.12592153
0.09859890
0.16120243
-0.05102680
-0.12336370
-0.15224399
0.07754415
-0.10815262
0.06233576
0.03223285
0.02576122
0.00669731
0.13195792
0.05414988
-0.12927198
-0.16009647
-0.15184049
0.11706576
0.04459096
-0.11723796
0.02608509
-0.09305361
0.08239689
-0.03180057
0.01881340
0.08037138
-0.06031333
-0.13047381
-0.07830499
-0.05360238
-0.13075739
0.09922603
0.04629754
0.12453830
-0.02733840
-0.05127337
0.15551659
-0.04192427
0.01564422
0.01927797
0.07517009
0.08404920
0.01646413
-0.01788716
-0.08126652
0.07108541
0.01764569
0.11760288
-0.02444124
0.14582971
0.11117002
0.13805345
0.04591318
-0.02853562
0.16111153
0.13864382
-0.01005728
0.03206945
0.10984048
-0.13796422
0.15066800
0.05631575
0.16883697
0.16833998
0.06664764
0.10536901
-0.15140049
0.15837818
-0.07725968
-0.12544623
0.12185051
-0.04391381
-0.10885321
-0.10067496
0.05981155
0.15200736
-0.11660662
0.11662807
-0.07306918
-0.05617611
-0.17107449
0.07049969
0.00790651
0.00665912
-0.14018737
-0.09409180
0.16456994
-0.08190700
0.04460770
0.00944036
0.06589431
-0.03847992
-0.03485899
0.13712083
0.08728544
-0.14094257
0.08117577
-0.08385573
0.13357073
-0.14538790
0.16343181
0.15355068
-0.08233825
-0.16770333
0.02683816
-0.11014350
0.09839283
-0.12962280
-0.09750142
-0.05799725
0.08485466
0.13698553
0.07985516
0.16280243
0.16642052
-0.13398333
-0.00614981
0.15821466
0.16932049
-0.10402020
-0.07430336
0.04234822
-0.15869676
0.05379274
0.12882790
0.12716275
-0.04204819
-0.00668930
-0.04171082
0.08209775
-0.17275785
0.10426065
-0.00080141
-0.09109846
-0.16805513
0.05076197
-0.06295308
0.15321581
0.05052431
-0.06712478
0.00637344
-0.15095596
0.12385336
0.11578894
-0.13511176
-0.03432524
-0.12193832
0.16053160
-0.14055213
-0.05205595
-0.13917473
-0.16115725
0.09496474
0.02825083
-0.02043651
-0.06327924
-0.12919992
0.03877802
-0.11165129
-0.00016742
-0.08461928
-0.05943235
-0.07661664
-0.11345495
-0.04066332
-0.05292793
0.11856930
-0.04926398
-0.01947466
-0.13011782
-0.13767678
0.07901323
-0.14199537
-0.15218391
0.03285591
0.08731189
0.09829973
-0.13192905
0.14571321
-0.03209280
-0.05707785
-0.08401217
0.09640762
0.16693404
-0.04182148
0.10567130
0.04767188
0.05988458
-0.13652185
-0.14739142
-0.08222871
0.04812189
-0.16347277
0.02629779
-0.07535791
0.01618446
0.06911235
0.00370890
-0.09847762
-0.01130398
0.05447904
0.10967150
0.06867995
-0.15190740
0.12114290
0.15411356
0.03881842
0.15811636
0.04241725
0.00508891
0.07842918
0.10745118
-0.16009626
0.05737507
0.15855211
-0.03856297
-0.14299209
0.05097608
0.10748605
-0.15567484
-0.14442988
0.15705490
0.06464573
-0.11464307
0.03199951
-0.08136097
0.10443500
-0.03162507
0.13473217
0.04056002
0.07186124
-0.03059000
-0.02491812
-0.01738343
0.09266165
-0.15704767
0.02775023
-0.05004773
0.15236127
-0.03345741
0.01455396
0.07717180
0.05670754
-0.14239986
-0.03564954
-0.16189083
0.08587813
0.01244730
0.00134003
-0.10412051
0.16321835
0.02818182
-0.13971575
-0.02749255
-0.03678998
0.14804105
-0.13894744
-0.02565499
0.11220244
0.12804201
0.07512140
0.11119433
-0.08339334
-0.03000636
0.10840530
-0.16915759
-0.08457393
-0.08084872
0.14522317
0.04105034
-0.11235080
-0.02275082
0.07931297
0.12399906
-0.08949036
-0.12520999
-0.16091131
0.05661486
-0.13759960
0.06927059
0.12001438
-0.04879455
0.12434599
-0.15214603
-0.11695612
0.13458422
0.04198432
0.01182663
-0.08343118
-0.12338580
0.00487991
-0.16612983
0.15646243
0.14933716
-0.06714860
0.04069707
-0.13542736
0.11789577
0.09493953
0.11275026
0.15694898
0.14074381
0.08236567
0.03054048
-0.04716231
0.00963889
-0.02692529
0.16710986
-0.06683739
0.03720886
0.14708279
0.08806587
-0.11950543
0.13490972
-0.05736579
-0.06633373
0.12470469
0.00325146
0.09978803
0.05193113
-0.03478874
0.06834319
0.13215154
-0.04345648
0.07194845
-0.14532192
0.03639950
0.16732466
0.17007317
-0.09780382
0.06604585
0.07232131
-0.15335165
0.04924898
-0.05029123
0.16898631
-0.10760208
-0.14167219
0.12851933
0.01053959
0.06665348
-0.15959723
0.09073780
0.06429479
-0.09907021
0.01812967
0.04964072
-0.03010722
-0.06020542
0.12574255
0.16304494
-0.11595223
-0.15707801
0.15174296
-0.05354977
0.03865128
0.03519264
0.06092148
0.16677977
-0.14629000
0.16312906
0.03028413
-0.05922983
0.05630596
0.00523885
0.07946816
0.08203354
0.06802274
-0.02128695
0.11486640
-0.16869517
0.02998830
-0.08248056
0.06196627
-0.16217452
0.14743061
0.02626027
0.06392531
0.12830311
-0.14762773
0.05467544
0.07236118
-0.04963413
0.13286939
-0.04775688
-0.03376041
0.15484056
-0.11677054
-0.17342235
0.17221460
0.15657875
0.10549182
0.11139941
0.15432601
-0.16130427
-0.02998804
-0.12795037
0.12572798
0.16711549
0.04288654
-0.05650387
-0.14856750
-0.12195370
0.08227456
0.02183600
-0.13807251
0.14822488
-0.06410114
0.03563588
-0.08568169
0.14656629
-0.12269686
0.12121978
-0.14363876
-0.10205265
0.00612564
-0.07345132
0.02903793
-0.09096649
-0.04060411
-0.15247601
0.08664441
-0.01484327
-0.11963478
0.03266022
0.15136434
-0.09545210
0.01320429
-0.05245794
0.17389902
0.14716876
0.15432383
-0.04554365
-0.01461332
0.00500266
0.08276386
0.17233670
0.15187632
0.09622260
-0.11503506
0.03270091
0.05415186
-0.06029770
-0.07633943
-0.02978677
-0.10282171
0.04666375
0.10440955
-0.13094325
-0.06908424
0.11280978
0.15526909
-0.15212247
-0.00566249
0.14807972
0.16198017
0.04927148
-0.02018904
-0.12527806
0.08437530
-0.06370661
-0.06183546
-0.04318611
0.13759848
0.11351770
0.16687229
0.05673776
0.00766518
0.13295284
0.02070871
0.12937738
-0.01016039
0.09110327
0.11768433
-0.14584504
-0.04069970
0.03264634
-0.07642789
-0.02517376
0.17008618
-0.02969224
-0.14311822
0.04044748
0.01553842
-0.13310806
-0.14806397
-0.00278024
0.06929281
0.06191966
-0.13080475
0.02067198
-0.12241620
0.06206369
0.00505195
-0.09378407
-0.06470414
0.00228396
-0.05023454
0.12825054
0.03859745
-0.09127963
-0.13367778
0.15283069
-0.16754042
0.03099880
-0.09602878
-0.10366186
0.06547593
-0.04671005
-0.16929980
-0.14637265
-0.11192745
0.09226795
0.12978123
0.06113017
0.10937003
-0.11224228
-0.00764785
0.05555227
-0.09536838
0.01203104
-0.01224703
0.08725106
0.09167262
0.17114793
0.04978501
-0.09346955
0.15744372
0.14163333
-0.00043483
0.09635728
-0.06475554
0.05576061
0.06382940
0.01903735
-0.03211293
0.12936431
-0.02982341
-0.09515480
0.02283056
-0.16861016
-0.16271378
-0.12055995
0.02091747
-0.03005362
0.16696954
-0.03433214
-0.15766442
0.11700299
-0.00071718
-0.07522675
-0.15950073
-0.03423504
-0.05026489
0.05106339
0.00281572
0.12337914
0.09459442
-0.15323335
-0.01980768
0.07425190
-0.16025686
-0.16406557
0.14417316
0.02898807
0.04482354
-0.04387720
0.07441245
0.00858398
0.04548537
-0.06820143
-0.11509293
-0.14891410
-0.04313476
-0.13580920
0.01245472
0.13806911
0.16220897
0.10644543
0.14828596
0.15058734
0.05127589
-0.05873737
-0.12047517
0.04683597
0.13607936
0.12867481
-0.07015964
0.14606987
0.13826728
0.01719715
-0.03595902
0.13225749
0.05695742
0.10036480
-0.08186970
-0.14139141
0.04173233
-0.10092729
0.13531739
-0.10177013
-0.10316405
0.06079075
-0.01398553
-0.10192880
0.02485166
-0.02730903
0.08613043
-0.02509234
-0.04632331
0.15545021
0.04451848
-0.03939123
-0.16761589
-0.06560293
0.07298937
-0.06134778
0.00755505
-0.11222908
0.15082690
-0.02313351
0.00107095
-0.11799242
-0.04012321
-0.08065531
0.05652103
0.06293903
0.08458927
-0.13009243
-0.11981866
0.10303478
-0.13850933
-0.16155045
-0.01858383
-0.13423511
-0.02514578
0.01231729
-0.09886587
0.01228356
-0.01828213
0.13158607
0.13677964
-0.13007388
0.14756197
0.03852630
0.02081539
0.14964634
0.15432765
0.04098068
-0.17198484
0.08410492
-0.14829665
0.11056998
-0.06069632
-0.16758549
-0.16378161
0.13273251
0.00007126
0.05290428
0.05700808
-0.06036817
-0.06754288
0.12769806
-0.11667633
-0.04671803
-0.06151600
-0.03713817
0.10074762
0.01236700
0.14794756
-0.07948471
0.16457635
0.09082463
-0.03915913
-0.15526408
-0.16182631
0.09045576
-0.15892257
-0.01975355
0.17236355
-0.05296301
0.03262252
0.05511304
-0.11142466
-0.08543145
0.11984594
0.09415719
-0.12653254
-0.08661020
-0.10562299
-0.14207350
-0.13615163
0.10099359
0.05629621
0.09204920
-0.05098460
0.17527354
-0.03730993
-0.15062909
-0.15844858
-0.08079322
0.11635085
-0.02552026
0.06627405
0.05580019
0.11181142
0.06849247
-0.10205411
-0.05544512
0.06116395
0.02502227
-0.12721267
-0.15991017
0.08293238
0.15401705
-0.08165912
-0.04892445
0.02720709
0.03204216
-0.16745193
0.13780347
-0.10372105
-0.11822847
0.11723620
-0.03036461
0.03503247
0.06924330
0.05097101
-0.11460230
0.01563517
-0.06775406
0.01697350
0.12420100
-0.02012790
-0.03241338
-0.07317965
-0.07512534
0.08737427
0.15084499
-0.10334816
-0.08292924
-0.05252962
-0.14327043
-0.00979681
-0.00062005
0.13209960
0.14987502
-0.00044301
0.09674466
0.02283123
0.06270961
-0.04569677
-0.05536991
0.01032361
0.04975334
0.16646874
-0.08344142
-0.05020324
0.05629289
0.06936501
0.15386179
0.13340640
-0.12540799
0.09664601
0.15494147
0.09664354
0.02982339
-0.13715790
-0.02834502
0.10549688
-0.07230846
-0.03286020
0.11494577
0.05463019
0.13960201
-0.13518444
-0.01885024
0.11763814
-0.07941550
-0.00100385
-0.14676575
0.12204367
0.17152956
0.10605320
0.04878017
0.03921753
-0.01712611
-0.12937193
0.11598715
-0.03756680
-0.16889608
0.01506557
0.12409541
0.10701543
-0.01418775
0.09127057
-0.02911629
0.12133560
-0.10291129
0.15863556
-0.06551889
0.03650241
0.04247978
-0.04028337
0.04976481
0.10141185
-0.04925399
-0.13964278
-0.12194765
0.01700623
-0.03057034
0.05620010
0.08240396
0.17273927
0.00099228
-0.08037434
0.11794960
-0.05072422
-0.10798983
0.09462395
-0.16172473
0.12287799
-0.17287372
-0.01248485
-0.15806782
-0.09889549
0.16492075
-0.05186802
-0.08766668
0.00209644
-0.12120495
-0.02457310
-0.06973465
-0.14504053
0.05600020
0.06325723
-0.10114217
-0.04139808
0.07957323
0.13820636
-0.01918613
-0.06942721
0.02638043
0.06548685
-0.04084428
0.02598009
0.02989557
0.09580272
-0.01474664
-0.13668558
0.13219926
-0.01202048
0.11791279
0.10297927
-0.09327979
0.07368764
-0.10395418
0.07698077
-0.02700858
-0.14931665
-0.10924067
0.04411382
0.08398929
-0.16205570
0.00891337
0.02919624
-0.01456283
0.09783848
-0.05290524
-0.11191307
-0.06122393
-0.16908565
-0.12758057
-0.00028382
0.14874789
0.11582707
-0.12087791
-0.12907736
0.03859530
-0.14299427
0.11928295
-0.15789053
-0.10388751
0.13595539
0.08582506
-0.06027304
0.14949664
-0.12609431
-0.09229880
-0.02299306
-0.01597017
-0.12138178
-0.04120503
0.16595013
0.06315701
-0.12728409
-0.09773730
0.07980388
-0.08138362
0.13861257
-0.01062409
0.10182861
-0.08917908
-0.01656863
0.01353674
-0.10325126
-0.07600821
-0.08263096
0.00161787
0.12109042
0.17060688
-0.04630795
0.12117156
-0.15696354
0.16873488
0.15726237
-0.13184279
0.10748295
0.07276718
0.09532872
-0.02679498
-0.07350610
-0.15252870
0.07929879
0.06903508
0.07874468
-0.05158421
0.06840557
-0.12150688
0.05816590
0.08505616
-0.05767612
0.11280102
-0.15024303
0.16216898
-0.00990042
-0.08318855
0.13101333
-0.15186706
-0.10443212
-0.04846396
-0.08679715
-0.04389192
0.13730736
0.13478604
-0.10357407
0.13603681
-0.14530474
-0.14633913
0.07976621
-0.04728211
0.13691315
-0.01205171
0.16207492
0.16153672
0.05659457
-0.14317290
-0.06193611
-0.07569078
0.10467278
-0.05334069
-0.05719540
0.07036328
-0.08176866
0.04491144
-0.08022518
-0.03873844
0.02511992
-0.01779242
0.13793118
0.00907911
-0.15549459
0.05615114
-0.08998058
-0.13307425
-0.03954145
-0.09028095
-0.00955994
-0.02133522
-0.06101939
-0.11831768
0.05257415
0.09195054
-0.05024423
-0.13153568
0.17126034
0.11108595
-0.14727603
0.13989583
-0.14022891
-0.13440025
-0.03866152
0.14377050
0.06199617
0.04865823
0.14728329
0.02237765
0.10403743
0.08222769
-0.15304446
0.10556657
-0.16370887
0.01159336
0.10245997
-0.03213424
0.13460773
-0.05753133
-0.12250749
-0.13952295
-0.16896389
-0.06555010
-0.10718307
0.15628961
-0.09050965
-0.00600411
-0.09426055
-0.09186900
0.14847678
0.15175046
-0.09388125
-0.06511617
-0.08108957
0.10402728
-0.11051136
0.00637351
0.00587932
0.04192698
0.14629444
-0.09754717
0.16270232
0.13627334
0.16719581
0.13208312
0.11497309
-0.15306553
-0.15864302
0.04769251
0.12612621
-0.10457297
0.03378229
-0.04314055
-0.00405494
-0.09976286
0.09120604
0.01881047
0.05104978
0.14802650
-0.14299715
0.03042836
0.03414473
-0.00370246
-0.08772635
-0.10832139
0.02888408
0.07025447
-0.11464936
0.07267985
0.10396834
-0.10981910
0.12212396
0.03529637
-0.14721827
0.16323397
-0.17015079
0.08018260
0.01938084
0.03683956
0.16497074
-0.07644245
-0.16935037
0.06298091
0.09038631
-0.01914878
-0.00000615
0.03196789
-0.07930427
-0.07343365
-0.15393174
-0.13941896
-0.02685333
-0.07966929
0.13206616
0.04973315
-0.16047572
0.15927222
-0.08716118
-0.16948813
0.03355253
0.06187830
-0.07904806
0.16357100
0.06744841
0.08133242
0.04550707
0.06700397
0.15613289
0.13874686
0.14282821
0.12778294
0.15841848
0.08497246
0.08452490
0.00136625
-0.11190130
-0.05761743
0.09494673
-0.14103314
0.12425598
-0.02090339
0.09811335
0.02786677
0.03839478
0.14489543
-0.02869536
0.02316807
-0.13419275
0.03466115
0.11552924
0.10982466
-0.07852542
0.06166652
-0.11585849
-0.04632799
-0.14995338
0.09614854
-0.07084624
0.07937333
-0.01762335
-0.16909960
-0.10515346
0.02084180
0.12762754
0.00656969
0.08015253
-0.08153401
0.07580073
0.16021110
0.06754158
0.05082424
0.06643015
0.14452966
-0.04312071
0.04633588
-0.08035721
0.04196578
-0.09380800
-0.06440809
0.13122948
0.15496713
0.01627679
-0.11624658
-0.07960125
-0.08341213
0.05680374
-0.03997332
-0.01827008
-0.10598052
-0.13162702
0.07682802
0.13936749
0.10409269
-0.10704748
0.11713089
-0.01802840
0.15239593
-0.14751124
0.09362815
-0.05578303
-0.02571203
0.13611124
-0.11895597
0.16470970
0.16919741
0.01783606
-0.14594464
0.02506137
0.17359619
-0.10170667
0.02728923
-0.16738768
0.06077236
-0.12976456
-0.12956303
0.07812552
-0.08694487
0.02428555
0.10939631
0.03812017
0.15039308
0.12482727
-0.05782408
-0.12855066
-0.12793477
0.08468768
-0.10564535
0.04520410
0.00364217
0.14024818
0.10634903
-0.02458686
-0.07448531
0.13801871
-0.12304272
0.13301355
-0.07484397
-0.04117572
-0.15749979
-0.00485695
0.15265776
0.04578126
-0.09947709
0.05802432
0.09434626
0.05885857
-0.15675950
-0.15117066
-0.01736008
0.16949093
0.14636326
0.15263402
0.13554764
0.12156621
-0.11530269
0.01715353
0.11338687
-0.17041697
0.10040102
-0.01335941
-0.16788486
0.06867017
-0.02321901
0.08350119
0.07161128
-0.07697739
-0.09111223
0.04175456
0.06830577
0.07202391
0.15563741
-0.05521914
-0.12273183
-0.09607615
-0.04531417
-0.06141028
0.05567405
0.14713979
0.01884875
0.16782434
-0.13888471
-0.03357948
0.16868129
-0.01611798
-0.08463638
0.06218773
0.14012295
0.07458030
0.00201343
-0.14111452
-0.10209102
0.08190979
0.12269770
0.16953363
0.10896079
0.15133856
0.10175902
-0.12481810
-0.05840267
-0.00550127
-0.12007804
-0.06983157
-0.12859313
-0.16906153
0.07855894
-0.05218587
-0.14035916
0.05945219
-0.02198879
0.06006573
0.01123386
0.17403777
0.13021384
0.08321745
-0.08240265
-0.00540804
0.04912904
0.08428834
0.11256841
0.14109813
-0.17381909
0.07495974
0.04192886
0.09481506
-0.07767248
-0.16126347
-0.14932582
-0.09250309
-0.14374794
-0.10229573
-0.00819906
-0.14216228
0.07516846
-0.08316822
-0.16608889
0.10490967
-0.10952742
0.04725236
0.13693307
-0.15704329
-0.04014153
-0.12500809
0.16260515
-0.12362698
-0.14518179
-0.15148076
0.00535643
0.11823253
-0.01140569
0.10801055
0.07610471
-0.16399020
0.01294072
0.08933708
-0.07456322
-0.15126553
0.04285930
-0.15301117
-0.13881010
0.06238794
0.10265977
-0.05695025
-0.01943693
0.13797456
-0.15330510
-0.09607367
-0.08881328
0.03678275
0.03016954
-0.02711578
-0.06907992
0.17013118
-0.05283087
-0.14161117
-0.13075146
0.15302528
0.02960028
-0.07998455
0.01099500
-0.02001945
0.09321630
-0.10927152
-0.14258906
0.09235835
0.15998508
-0.12895297
0.09767497
-0.06272610
0.01091337
0.08916566
0.15720958
0.10210337
-0.04905937
0.01192525
0.03885433
-0.06058015
-0.12018358
0.13173407
-0.01809359
0.03573870
-0.12216726
0.07495788
0.08172981
-0.15638417
0.06630103
0.10550392
-0.06548755
0.16722299
-0.02818488
0.09796287
0.06738584
-0.03889649
0.16377014
-0.08384386
0.09475657
-0.14102268
-0.04263761
0.05501274
-0.01160011
0.03109207
0.15053752
-0.10891179
-0.12045936
0.03908625
-0.03990842
0.12563851
0.00080679
-0.08900493
0.02157095
-0.07263002
-0.04834159
-0.11499339
0.10452178
0.07393367
0.06342578
-0.01864509
0.00533310
-0.13878374
0.01923696
0.11711621
0.05589937
0.13912192
-0.14098552
0.04113500
-0.04431665
0.05485657
0.03534507
-0.15952411
0.00086978
-0.14178135
-0.01183048
0.07721573
0.02400134
-0.10250016
0.01064604
-0.14326386
-0.00628285
0.03314415
-0.03837284
-0.13571832
0.10928925
0.08549129
0.05706019
0.14905153
-0.02532109
-0.06303421
-0.09323329
0.04430057
0.06790584
-0.15489273
0.00183164
0.00914617
-0.13904345
0.16687325
0.13626951
-0.05423105
-0.10450736
-0.01185715
-0.17078695
-0.00394087
-0.16823949
0.07079688
0.09835193
-0.15735549
-0.01779580
0.06188935
-0.10078041
-0.02112953
-0.13599822
0.05802761
0.13349395
-0.07899719
0.06118857
0.09478922
0.10713239
-0.01381701
-0.03738012
0.02401448
0.01637733
-0.08968678
0.05560049
0.10916236
0.02711412
-0.02440556
-0.14496112
-0.11494365
-0.10441044
-0.16744567
0.10121093
-0.11419261
-0.15779601
0.03840673
0.08823003
0.15053540
-0.12097379
0.16693324
0.10892269
-0.02147397
0.04956704
0.12443792
0.02220609
-0.05192794
-0.07720563
0.03723203
0.11110134
0.07399672
-0.06966797
0.10505134
-0.08525971
0.03963964
-0.03729064
-0.14949559
-0.11159694
-0.12088150
0.08279131
-0.01272222
0.01851003
-0.05545065
-0.10136417
-0.08327845
-0.04823580
0.08659012
0.05296277
0.03818490
-0.15071082
-0.09759057
0.17034379
0.15528707
-0.03032602
0.05266947
0.16663176
-0.09515464
0.09584443
0.00149460
0.03027327
0.17352708
0.09347253
0.05388884
0.02780037
-0.07081675
0.17493893
-0.09378239
0.10738485
-0.05730957
-0.00414780
-0.14926454
0.05881736
0.10519410
0.07460679
-0.13552716
0.10782892
0.15115187
-0.11579522
-0.06776197
-0.05492474
-0.03900540
0.05557932
0.06216170
-0.07174077
-0.02487691
0.13831785
0.02806763
-0.14877878
-0.02237144
-0.04051462
0.14366531
-0.10675011
-0.04306613
-0.01726091
0.13680133
-0.14077592
-0.15245563
-0.07043010
0.14504123
0.11596903
-0.00999880
-0.11699270
-0.00539838
0.03752013
-0.15879318
0.01266408
0.13392809
-0.08328041
-0.12160258
-0.10284010
-0.09233833
-0.10001373
-0.06985126
0.00847086
0.06494720
-0.05978207
0.06410238
-0.05246672
-0.10948811
-0.14788514
-0.04745603
-0.11511381
-0.03252786
-0.02165253
0.03930454
0.04471150
0.09103948
-0.11134380
0.09682560
0.16341764
-0.13303341
-0.16320612
0.07621288
0.13208681
0.07254846
-0.08990876
0.01956807
-0.08647647
-0.10254719
0.01274328
0.06146786
-0.08966137
-0.05687463
-0.00684862
0.07291818
-0.12177004
0.02601790
0.04301199
-0.08480842
-0.12744080
0.12104529
0.01076151
0.07812184
-0.02346651
0.13541922
0.02760145
-0.09896284
-0.08987651
-0.10020299
-0.00370386
-0.13547558
-0.10447185
0.00183685
0.11137035
0.06940416
-0.01080392
0.11303911
0.08934662
-0.06239635
0.01612087
0.12600839
-0.06133832
-0.10019443
-0.12109865
-0.14419767
0.12131697
-0.03364614
-0.00634705
0.08846072
0.16432963
0.12495776
-0.11338882
-0.07836904
-0.03942402
0.08729754
0.07740489
0.16156393
0.06071052
-0.11572428
-0.15194118
0.16685291
0.16363770
0.10723726
-0.01766340
0.03179768
-0.00514358
-0.01523610
-0.08024132
-0.13280667
0.04345712
-0.12929772
-0.08114593
0.03397718
0.12899792
-0.00788162
0.15459734
0.04457848
-0.01591217
0.15945837
-0.08687756
-0.11079544
-0.11757708
-0.14040673
-0.05642872
-0.05355075
-0.15166301
-0.11586843
-0.09657870
0.06673873
-0.04579159
-0.08065867
-0.06855554
0.00598974
0.14505953
-0.10792036
0.08590877
0.08446085
-0.08333562
-0.01196799
-0.11910934
0.07228037
0.15523905
0.04592286
0.11611716
0.14294131
0.11223178
-0.10571422
-0.16953006
0.03993612
0.16410796
0.01477506
-0.01283309
-0.16820116
0.02539968
-0.09427243
-0.05816900
0.01008324
-0.14383133
0.16379051
0.12282050
-0.01674533
-0.16522118
-0.17148866
0.07649256
0.14895475
0.15614738
-0.01227206
0.09681691
-0.07251304
-0.13053009
-0.01740669
-0.07472487
-0.11449915
-0.00482891
0.02846260
0.12612318
-0.06760360
0.00639937
-0.14183930
-0.09799765
0.01596706
-0.12839249
0.15698189
0.15820009
-0.15941006
-0.02416477
-0.00715545
-0.09464402
0.14741820
0.01999403
-0.12016767
-0.14139022
-0.00060595
-0.16171391
-0.09109814
0.13594311
-0.13487159
0.11446760
0.09745598
0.00542223
0.08840014
-0.01320268
0.14624885
-0.16918974
0.06416886
0.05709516
0.10796531
-0.03445407
0.10722414
-0.07275386
-0.00781483
0.07888857
-0.05033932
0.12583505
0.12568438
-0.16902512
0.12553303
0.04071660
0.15285724
0.15594986
0.16448511
-0.16707301
-0.06036019
0.15833592
-0.05793434
-0.08740842
-0.11895210
-0.14897582
-0.13898706
0.09123064
-0.01110231
0.08007487
-0.15352206
0.08519143
-0.05870070
-0.01633747
-0.16285643
-0.09699471
-0.08039830
0.16155761
-0.03627807
0.16240148
0.01066833
0.00301215
0.09175871
-0.17230205
-0.04792230
0.04432639
0.06837942
0.00332784
0.03503133
0.14900504
-0.11213300
0.11987414
-0.16048016
0.04819240
-0.13960886
0.04732728
-0.00631084
0.04515195
0.02803773
-0.10416409
-0.15953928
0.02989557
-0.04966294
-0.17318769
0.08142680
0.01980580
-0.02923980
0.04239556
0.00173085
0.00653648
0.06778719
0.16150951
-0.09668621
0.02526190
-0.13799372
0.07280625
0.10508388
-0.14123018
-0.01883455
-0.00756100
-0.16274688
-0.15461802
0.02153101
0.13131264
0.07499877
-0.13089336
-0.13543171
0.01460813
0.14898564
-0.16954322
-0.12751222
0.00894907
-0.08387826
0.11594054
0.07741693
-0.00025590
0.13154712
-0.12885134
-0.06049798
0.04203260
0.02124012
-0.01854806
0.15386818
0.00799359
0.07739531
0.14939633
0.10589905
-0.16391873
-0.06366360
-0.15373780
-0.13162589
-0.14807683
-0.07137919
-0.11808740
0.02089010
0.14806072
-0.12673181
0.04207022
0.06397031
0.09228957
0.01394556
0.02809549
0.03468090
0.04103941
0.16259441
-0.12273666
0.14272903
-0.15876316
-0.13667731
-0.12720229
0.11537310
-0.09563407
0.10775268
0.00866261
-0.06656308
-0.06429052
0.12974149
-0.07813828
-0.12660496
0.00955510
-0.05272215
0.02484080
0.09447334
0.14221929
-0.15410529
-0.06866901
-0.01627110
-0.06057819
-0.15110670
0.12864359
0.07282767
0.03846642
-0.06947055
-0.10490250
-0.15960853
-0.11298732
0.10512742
-0.16988170
-0.10589559
0.03450662
-0.05441548
-0.14902817
-0.03063804
0.15558957
-0.08509051
0.16455083
-0.12318927
0.03845540
0.08291087
0.05698152
0.00620256
0.04518431
-0.14165723
-0.03593891
0.02845947
-0.15841453
-0.16333181
0.14913975
0.03706140
0.17052279
