0.01841516
0.17780380
-0.06088894
0.11288255
0.19171962
-0.13358568
-0.09045845
0.03297123
-0.12771638
0.28863508
-0.25167465
-0.09726646
0.04038154
0.23085470
0.15692985
-0.10643748
0.02408541
0.01706529
-0.04653092
0.03113082
0.04119635
-0.02137383
0.01672496
0.01765101
-0.01706482
-0.16125421
-0.15875363
-0.09320613
-0.04532940
0.02298817
-0.07800514
-0.13310131
-0.10707258
-0.17516127
0.06421587
0.00731535
-0.11229408
0.14450213
0.08096021
-0.00230582
0.15948221
0.00976843
-0.02726938
-0.04886912
-0.02774127
-0.25674936
-0.21174161
-0.29017794
-0.14003079
-0.13865331
-0.17267446
-0.08609467
-0.00367675
-0.09042465
-0.09330566
-0.18397096
-0.14345379
-0.07185819
-0.09321982
-0.00382195
0.05546625
-0.01129656
0.06647658
-0.16893680
0.22105597
0.02607447
-0.06575906
0.20316851
0.11100879
0.06132083
-0.01486771
0.00567032
0.23944938
0.02606759
-0.10492916
-0.10310685
-0.28222528
-0.05888532
-0.15042213
-0.28551596
-0.06228542
-0.13826643
-0.14373566
0.03694196
-0.32981375
-0.58572412
-0.08904046
0.01067481
-0.11872694
-0.24690449
-0.02398238
-0.03902252
-0.00005836
-0.01393809
-0.00026274
0.00738199
0.00837510
-0.05461261
-0.04815748
-0.08249506
0.16622055
-0.04099073
-0.07834256
0.05760647
-0.02713751
-0.03363530
-0.04554327
0.00844415
-0.28530470
-0.09943347
-0.01008393
-0.17293948
-0.20476359
0.06226005
-0.01297195
0.05891618
0.13685054
0.20934844
0.04179625
-0.19841594
0.07845575
-0.10542931
-0.16106802
-0.01333684
0.02640513
-0.01797434
0.04584362
0.07586110
0.01367729
0.06172701
-0.00860697
0.00503168
0.00057533
-0.01892377
-0.02629100
0.03508529
0.03345151
-0.02635355
-0.02935139
-0.02962030
0.01399412
0.00004220
-0.01865856
0.02142681
-0.07189006
-0.23666613
-0.09483971
-0.11222841
-0.29553616
-0.08247882
0.14632578
0.09341338
-0.07191869
-0.21333568
0.00674615
0.19714174
-0.10484600
0.02852493
0.02443716
-0.10690590
-0.23047906
-0.22876085
-0.32865155
-0.23909789
-0.04738566
-0.05219206
-0.16228737
-0.04598092
0.25516847
-0.01429280
-0.07032035
-0.02582281
-0.31023341
-0.03850292
-0.14620578
0.11133896
0.05152876
-0.13943943
-0.03396469
0.12584484
-0.09036541
-0.00468120
0.07672530
-0.02686276
-0.02642700
-0.04848947
-0.05501048
0.01835608
-0.00128257
0.04681055
0.06273690
0.01407199
-0.11374233
-0.23337151
-0.10241365
-0.23454167
-0.43498841
-0.22318968
0.01857373
-0.10736476
-0.19811152
-0.10089685
-0.04996748
-0.15851571
-0.01273250
0.11341018
0.03158616
0.05585668
-0.06697369
-0.18366629
0.10762554
0.12642644
-0.17709424
-0.06676673
-0.29413012
-0.24772826
-0.02780525
-0.01571193
0.01826841
0.04085916
-0.01031668
-0.03238448
-0.02099546
0.02886314
0.03572077
-0.01892924
0.00129223
-0.02282710
0.05317893
0.04708282
-0.01323178
-0.01385760
-0.01453593
-0.02184584
0.06889848
0.29682761
0.17664923
0.07272247
-0.10928500
-0.14918809
0.08022475
-0.11881581
-0.00154564
-0.01905433
0.00942863
-0.03030441
0.15990190
0.09967475
0.12286785
0.07892253
0.01384577
0.08092679
0.02801145
-0.02419447
0.00484543
-0.00716354
0.00677330
-0.03993511
-0.02795774
0.02865040
0.01557522
-0.01419416
-0.21485291
0.00678347
0.10345112
0.09718591
-0.16003315
-0.00106521
-0.02593966
-0.22156049
0.13909014
-0.04083575
-0.14054371
0.09819867
-0.25926021
-0.14847197
0.09452560
-0.20644441
-0.15404186
0.06754234
-0.17713615
0.01999582
0.02576496
0.06461137
0.08147188
-0.06218135
0.02404927
-0.10598144
0.00853430
-0.26605511
-0.09528453
0.12892784
-0.01707043
-0.11190315
0.03432622
0.10484050
-0.07828635
-0.03054940
-0.01485183
0.03025350
0.01954145
0.02058156
0.03056961
-0.08432195
-0.06099707
-0.05326519
0.06662664
-0.21641876
0.09522773
-0.02897458
0.17825606
0.07082557
-0.01328865
0.00154591
0.05331106
-0.14011556
-0.24859248
-0.16448081
0.06500707
-0.01590849
-0.03137965
0.15487766
0.11972538
0.14436287
0.00181002
-0.05079537
0.08269767
-0.02713630
-0.14325316
-0.00899308
-0.21696511
-0.29900375
-0.05666446
-0.16627373
-0.12321890
0.00960102
-0.23577030
-0.12045150
-0.02640601
-0.00687759
-0.01170109
0.09879299
-0.20889103
0.01226166
0.20774940
0.23951088
0.22224182
0.04969046
0.24311668
0.14595273
0.07478678
0.35080764
0.19906418
-0.19343048
0.19881590
-0.01129650
-0.14816977
-0.22434881
-0.16702768
-0.06738130
-0.00425824
0.00546605
0.03016223
-0.01269876
0.01438095
-0.01630632
0.01605956
0.00431114
0.01549822
-0.02969145
0.03698589
0.04200084
0.05525212
0.00968561
0.00959468
-0.01454053
-0.01487602
0.03620830
-0.18122585
-0.32499969
-0.11251208
0.11406852
0.37181747
0.16980346
0.02726120
0.12346862
-0.01397185
-0.04627845
-0.06831908
-0.02149134
0.02079623
-0.15168922
-0.17952080
-0.14823560
-0.19988842
-0.15633182
0.07717460
0.02290046
-0.00357222
-0.12583014
-0.05028009
-0.01219360
-0.01181153
-0.06398823
-0.05650479
-0.08966850
0.01326653
0.05126931
-0.03871985
-0.08666816
0.19761536
0.00381728
0.02328440
0.07677452
-0.00127896
-0.03399528
0.03778950
0.02547100
-0.02210044
0.03059839
-0.02886933
0.02447057
0.01119835
-0.04874121
0.01141029
-0.04247827
-0.10436685
0.03763528
-0.04452624
-0.15792410
-0.10302722
-0.02768764
-0.06240052
0.51113206
0.04512696
0.09650560
0.05395354
0.08664586
0.10599262
-0.21741876
0.12364721
-0.25514549
-0.06083218
-0.18577862
-0.12307266
-0.07741699
-0.16374904
-0.25431067
-0.15661049
-0.16611961
0.05923478
-0.11834523
-0.05499928
0.07625251
0.14319436
-0.05723890
-0.06713013
0.21591526
0.03218858
-0.04378800
-0.17330109
-0.19801448
0.06830253
-0.19402502
-0.04691316
-0.05070710
-0.01594836
0.03644918
0.04261248
-0.03643845
0.16666910
-0.02794166
-0.02835665
0.05127580
-0.11422803
-0.17974611
-0.16132165
0.01816448
-0.09867926
-0.07912964
0.00804042
-0.06330801
0.05745146
0.05235237
-0.01643614
-0.05423802
0.01127237
0.00187131
-0.00337270
0.00591191
-0.03091640
-0.00942695
-0.04005532
-0.02134934
-0.02206466
0.04535213
-0.01061977
0.03315286
0.02109601
0.01003505
-0.01079714
-0.01403308
0.03512644
0.02149930
0.02292915
0.07864103
0.02762364
-0.03160612
-0.07815442
-0.03628793
-0.00624357
0.02411357
0.01901751
-0.00145880
0.03053581
0.03536044
0.02182907
0.01555829
-0.00105228
-0.00151032
0.02247670
0.02915076
-0.06066697
0.07684844
0.03401862
-0.14932135
-0.06823407
0.01669450
0.00100814
-0.07950164
0.01102513
-0.30665767
-0.35272849
-0.03739729
-0.23899947
-0.19356105
-0.00880332
-0.21028051
-0.10073434
-0.05469457
-0.03135963
-0.00106059
-0.03718383
0.02722471
-0.04458750
0.03835190
0.02168193
0.03518961
0.01094596
-0.20126741
-0.04146765
0.06196506
-0.01346775
-0.19625810
-0.09956484
0.05817962
-0.30284405
-0.10079870
0.09975529
0.21841536
0.16172642
0.08309121
-0.01360904
-0.06895213
-0.04142249
-0.27348101
-0.02714564
-0.12921019
-0.10092810
-0.09946615
-0.51058787
-0.60679829
-0.41270986
-0.33453995
-0.45156080
-0.43367770
0.05542539
-0.03556760
0.07820331
0.04344140
-0.00246675
0.21106765
0.02381378
-0.16020207
-0.03130445
0.11735739
0.16456456
-0.01506150
-0.02942459
0.28292489
-0.06488790
0.03096536
-0.00669319
-0.00328818
0.08258137
0.13166435
-0.00999810
0.09845220
0.17344810
0.14795162
-0.02246703
0.03604352
0.08485445
-0.09281071
-0.13475636
0.12667572
-0.24692219
-0.48025170
-0.04029433
-0.13167921
-0.20964800
-0.15891720
-0.00760435
0.04864512
0.03069391
-0.02207863
0.04278176
-0.06891972
0.08612733
0.03165444
0.00599867
-0.07200705
-0.18241535
-0.10438547
-0.03718685
-0.19816889
-0.03191320
-0.22909944
0.00806923
0.00898884
-0.11844826
-0.36673430
-0.06070904
0.05127322
-0.10663499
0.11919855
0.12876704
0.18541925
0.11629190
0.11524841
0.03295758
0.01916981
0.04730090
0.33080068
0.22468971
-0.00539495
0.10107770
-0.00098771
-0.18034962
-0.00595577
-0.10244180
-0.07975601
0.24592468
0.06394743
-0.00996126
0.05211513
0.04739743
-0.13512631
-0.35916609
-0.07794443
0.08347560
0.15015700
0.12023495
-0.01675936
0.19547747
0.09523401
0.01944343
0.01499466
-0.00219090
-0.02200619
0.10158658
0.08332109
-0.07423168
0.12418569
0.01725587
0.08161315
0.14230280
0.04130620
0.04847106
0.05607218
-0.00854073
-0.05412107
-0.01418850
-0.00972735
0.07401666
-0.22864324
-0.29937282
-0.00666449
0.04414086
0.07846680
0.04865725
0.17215843
0.12840611
-0.01826765
-0.00388179
-0.04735146
-0.04017164
-0.19552104
-0.08294906
-0.17305487
-0.07403403
0.02383292
-0.30502787
-0.07944085
0.03417504
0.07395867
-0.00431341
-0.00469336
0.13024893
-0.05515306
-0.04713482
0.00937057
0.09116274
0.02405520
0.20268895
0.02600784
0.14295858
0.14933246
-0.24131626
-0.00694822
0.08728429
0.11568791
0.07036534
-0.13559678
-0.36912483
-0.05820389
-0.14591625
-0.23536865
-0.18663672
-0.02281117
-0.00035835
-0.01109436
-0.01024336
0.03666514
0.03936370
0.04398306
-0.03562451
-0.00956910
0.02777031
0.09606718
0.03198507
0.01916196
-0.03368849
0.11345943
0.08451783
0.02866949
-0.03615708
0.01346388
-0.03502712
0.01477649
0.03315220
-0.04013040
-0.03925119
0.03719926
0.02971033
0.02643575
0.19451800
0.07571641
-0.09129486
0.06387095
-0.06357725
-0.02974512
0.14260648
0.01377659
0.05179839
0.01388420
-0.00987796
0.00820752
0.00007526
-0.00276883
-0.04089575
0.04133062
-0.04958048
-0.01654639
-0.12142017
-0.07050127
0.10025866
0.00833809
0.08750518
0.16110449
-0.08559372
-0.13249882
-0.00429174
0.00664806
-0.21755949
-0.54960269
0.00306120
-0.17822778
-0.17755276
0.08488671
0.00903373
-0.03443469
0.05100453
-0.03406959
-0.02344557
-0.12503129
0.19463788
0.02113868
-0.03323777
-0.06308026
-0.01717729
0.02371863
-0.14331436
-0.06244240
-0.07782685
0.00456110
-0.12897636
-0.07277222
0.03971532
-0.24057573
-0.00081979
-0.01085469
-0.00118078
-0.04068076
-0.02847450
0.03970897
0.03479728
0.02023426
0.06076572
0.02721383
-0.00908256
-0.00371003
0.04182246
0.01883586
0.05836162
0.16571842
0.13047376
0.02384167
-0.32677749
-0.24951389
-0.31289494
-0.05562070
-0.38366285
-0.12991709
-0.11294477
-0.25086650
-0.13102096
-0.03255517
-0.00749318
-0.02393692
-0.01970000
-0.03041531
-0.02306339
0.04378136
0.02794733
-0.02538985
0.03683106
0.08003569
-0.04580161
-0.00935720
0.33676556
0.08207944
-0.07546763
0.01633390
0.01287106
0.01839781
0.01123328
0.01054987
-0.03338423
0.02838524
0.02679935
0.02666775
-0.00086838
0.01979614
-0.01330600
0.00848979
-0.00744517
0.01561129
0.00668488
-0.03869538
0.00370597
-0.01342311
0.01397391
-0.12120045
-0.25459045
0.09166010
0.15038542
0.11600469
0.16483516
0.10857016
-0.01047944
0.19288023
-0.04055398
-0.00618401
0.02784225
0.00661936
0.03247130
0.03071946
0.01253470
0.05160768
0.00135249
-0.02063083
0.00892987
-0.06684139
0.08310275
-0.11534932
0.01508921
-0.04397773
-0.05302664
0.12611547
-0.00458701
-0.09552366
-0.04473525
0.01346422
-0.08510659
0.00226854
-0.03258134
-0.10334034
-0.03820689
0.22117418
0.19710000
-0.01075773
0.21719636
0.01454272
-0.05423592
-0.11508236
-0.22952428
0.02400221
-0.02531264
0.00601217
0.02997554
0.00102760
-0.02208596
-0.02041783
0.00684338
-0.01057071
-0.01338229
-0.09401149
0.00979378
0.03833122
0.02314061
0.37846687
0.07940580
0.10424720
0.13499226
0.00855410
0.12848893
0.10940297
0.09600910
0.02202347
-0.04279757
-0.20790216
-0.02700508
-0.07769209
-0.17913684
-0.01673976
-0.09504604
0.07760828
0.06559955
0.15114658
-0.02683047
0.16028130
0.08232923
-0.04555436
0.07625391
0.08821178
0.04724264
0.13603646
0.19861135
0.03001603
0.01893468
-0.04201829
0.00627367
-0.03533643
-0.11718772
-0.05651877
-0.04531525
0.07742156
0.01688018
-0.00227248
-0.08781914
-0.11365180
0.05508788
-0.04257189
-0.12498023
0.07971641
0.08847221
-0.04660342
0.02431959
-0.15363665
-0.04736637
-0.01097759
0.03148208
0.06017207
0.01400131
0.03932723
-0.02531562
0.01474653
0.02855048
-0.07062410
0.15298006
0.21062200
0.09405820
0.13464263
-0.03329207
-0.04165607
0.07251266
-0.20862442
-0.10371815
0.24685900
-0.11209062
-0.07127702
0.15047236
-0.15315294
0.05895575
-0.02050686
-0.17889154
0.10261653
0.11794405
0.17558606
0.03643014
-0.04815480
-0.08724975
-0.07481222
0.06451885
-0.11992905
-0.04531158
0.16745432
-0.11304366
-0.08751413
0.12369416
0.07929934
0.06144715
0.17250489
0.05690303
0.10858280
0.05945594
0.27299845
0.04272531
0.09318795
0.03308706
-0.01136094
-0.12972389
-0.21838325
-0.07658741
-0.08412717
-0.01488286
-0.02060995
-0.00927394
0.17747603
0.09548030
0.06020268
-0.04672823
-0.00811573
-0.37652767
-0.29595637
-0.08404393
-0.02468176
-0.02183103
0.12237602
0.18191147
0.16013010
0.03505269
-0.02598180
0.03681173
0.02970939
0.01148813
-0.01484902
-0.02330203
-0.02835233
-0.04225857
0.00050935
-0.30828938
-0.66068029
-0.32726973
-0.01842034
0.19300456
0.15284669
0.17516643
0.33746284
0.26836035
0.03975715
0.44551548
0.16902621
-0.03221043
0.48759392
0.12804179
0.10738917
-0.17387541
-0.08764526
0.02753549
0.31947392
0.03271579
0.12010612
0.04561926
0.02089654
-0.07696637
-0.06102048
0.03284848
-0.13158451
-0.15294665
-0.08651964
0.06313022
-0.02797478
-0.09246317
-0.00018447
-0.00107549
0.07783020
-0.11092228
-0.17086092
-0.02799384
-0.06755771
-0.08272319
0.14646308
0.06716036
0.01901359
0.16737363
-0.24166341
-0.21782456
-0.02466631
0.03163124
-0.11564472
-0.02902713
0.05135436
-0.00887452
0.07769793
-0.01089397
0.00620490
-0.02342585
-0.02438958
-0.08026921
-0.02594271
-0.00032023
-0.02355714
-0.05272335
0.10857932
-0.36125290
-0.04010497
-0.05545243
-0.20550360
-0.02523035
-0.06289626
0.12059568
-0.06781377
-0.20194110
-0.26891437
-0.08080997
0.13777266
-0.16290608
-0.23725334
0.00242094
-0.21394141
-0.32645115
0.00680745
0.02106013
-0.08037570
0.01791804
0.14075902
0.01816132
0.08464832
0.01132784
0.14405555
-0.02773447
-0.04322448
0.02591039
0.03534365
0.01763471
-0.03518022
-0.02981109
-0.03133654
0.01655291
-0.05371925
-0.05393778
0.02537332
0.00069050
-0.02300547
-0.02311259
0.00902348
-0.01096936
0.03188118
-0.03399278
0.03339281
-0.04398608
-0.02081686
0.01946600
0.01747205
-0.01817467
-0.03016178
0.02147351
0.02738897
0.02447726
0.02850529
0.01173283
-0.01419713
0.02069252
0.02484957
0.02630974
-0.03534352
0.02840982
-0.02393145
-0.06494173
-0.01185916
0.01931820
0.02147536
-0.03716573
-0.03029491
-0.05203468
-0.01072060
-0.01573033
-0.03483807
-0.00913073
0.02811795
-0.00773369
0.02352440
0.01606282
-0.02490093
-0.04047519
0.02972227
-0.01667463
0.01797172
0.01241802
-0.00550847
-0.00294354
0.02179606
0.00935289
-0.01390558
-0.01632653
0.04505504
-0.02110113
-0.03402388
-0.04059540
-0.05514432
-0.04895445
-0.00629535
-0.03877929
-0.06033366
-0.07990538
-0.02367260
-0.00552317
-0.04695151
-0.03655938
-0.04071201
0.00450737
-0.01311241
0.01797530
-0.02448707
0.00460477
0.03193684
0.00378491
0.02090582
0.01895915
0.00251557
0.03799325
-0.02013597
-0.01725025
-0.03003023
-0.03386040
-0.02000657
0.02132745
0.00729893
-0.03724509
-0.04899317
0.02619731
-0.02660557
0.00724281
0.02348800
0.03867298
-0.00287989
-0.06697824
0.02555076
-0.05086268
-0.02406744
-0.02141698
-0.04177963
-0.00171232
-0.04926742
0.04012739
-0.00431570
0.00345924
0.01191617
-0.02195786
0.02581765
-0.03126213
-0.01176633
0.03398699
-0.02373868
-0.00339335
-0.00078511
-0.02656500
-0.00520638
0.00506383
-0.01610371
0.02546340
-0.00202053
-0.02222545
-0.01547892
-0.03242411
0.01203048
-0.02850647
-0.03651299
-0.01619986
-0.01893965
-0.01161308
0.00124317
0.00912663
0.03505357
0.01426436
-0.02889475
-0.04928031
-0.03290880
0.00883804
-0.01390272
-0.03041826
0.04471098
-0.02920930
0.00612748
-0.01482510
-0.00968675
-0.02015622
-0.04716324
0.02322142
-0.02575958
-0.01880964
0.01061356
-0.02834781
-0.03107599
-0.10962653
-0.01635743
0.04103477
-0.04423557
0.00442549
0.02185386
0.02345714
-0.01726757
0.02599551
-0.04741311
-0.02720015
-0.04731772
-0.01068649
-0.02271636
0.00848281
-0.02731008
-0.02720641
-0.00810654
0.02831290
-0.03905385
-0.00467666
-0.02570448
-0.01982032
-0.03524756
-0.00351402
0.02066077
0.01835894
-0.02321069
-0.01221138
-0.03416071
-0.04211214
-0.03669965
-0.02942887
-0.03375053
-0.05212996
0.00322326
0.03299366
0.01923070
-0.02517078
-0.00990099
0.02781576
-0.00028183
0.01501200
0.01418832
0.01304531
0.02347459
0.01008926
0.01054139
0.02513347
-0.01846506
-0.00698778
0.03577010
0.03086301
-0.03001953
0.02438430
-0.03960315
0.03470690
-0.00138864
0.02220308
0.01544431
0.03548630
-0.01000707
-0.01784464
-0.00630004
-0.01119260
-0.01721997
0.03040710
-0.00965870
0.04452736
0.03717457
-0.03259332
0.00884608
0.02024194
0.00282248
-0.05924506
-0.04050940
-0.00020385
-0.04710400
-0.04847709
0.01142950
0.00462541
0.00949913
-0.02753310
0.02833846
0.02559068
-0.03422718
-0.00950011
0.02961592
0.03751141
-0.01462046
0.02602199
0.03958735
0.00230969
-0.02095272
0.03941579
0.03228214
-0.00025899
-0.04573496
-0.00406647
-0.08067752
-0.01639056
-0.00238489
-0.01949773
-0.04667905
-0.05438680
-0.00939380
0.01078771
0.02836086
0.00999943
0.04342325
-0.02531989
-0.02408859
-0.03510641
0.03439569
-0.02605210
-0.00546866
-0.02385176
-0.03833639
-0.01613629
-0.03835922
-0.03157307
0.03409674
-0.02487168
-0.02509796
-0.01876665
-0.04867493
-0.06169119
0.02377828
-0.05247385
-0.04634491
-0.02371525
-0.01444783
0.00086743
0.02688235
-0.01408507
0.02638032
-0.02144305
-0.02012404
0.00137532
-0.02474940
-0.01803990
0.04193504
0.00111022
-0.02419107
-0.08795951
0.01757790
-0.00148084
-0.04179519
-0.01458977
-0.00329800
0.03093588
-0.00734902
-0.02458837
0.03806581
0.02780184
-0.02071557
-0.01305888
-0.01439171
-0.02217897
-0.00182459
0.00643102
-0.03815883
-0.03798793
0.00391515
0.00000640
-0.02227758
-0.03594420
-0.00089578
0.03001346
-0.00893356
-0.01036879
-0.04886444
-0.03253027
-0.03978021
0.01830870
0.01452376
0.02456057
0.00111826
-0.00983454
-0.01067488
-0.06216739
0.01071746
-0.01843094
0.00673653
0.02849851
-0.03681192
0.00399999
-0.00247304
-0.03241250
-0.03040255
0.01155609
-0.00824211
0.00121688
-0.04315487
0.02861799
-0.01357560
-0.00376729
-0.00619815
-0.00116774
-0.02952197
0.02684143
-0.02530245
0.01796512
0.00615326
-0.01808520
-0.02114573
-0.00251421
0.02872280
-0.03510078
0.02660142
-0.04065991
0.01534280
0.01041123
0.03528154
-0.05635408
0.01090424
-0.04264718
0.00110773
-0.04012874
-0.05752802
-0.04801976
-0.01129479
0.03268865
0.01939715
-0.01401728
-0.01535775
-0.00676700
-0.01023704
-0.03407671
-0.03539337
-0.04109381
-0.04592335
0.01983500
-0.03418558
0.02537706
0.02586685
0.03583713
-0.00714716
-0.01691546
-0.02399885
-0.00858631
0.01689784
-0.06139750
-0.02530076
-0.04252438
-0.02670690
0.00337873
-0.01942485
-0.01525327
-0.03208613
-0.03687544
0.02687060
0.00549947
0.01336570
-0.03032806
-0.03073029
0.02490233
-0.04241665
0.01103647
-0.03040013
-0.01996414
0.01006672
-0.03692573
-0.01790099
-0.03548798
-0.01102155
0.04275502
-0.01080915
0.03660050
0.00319936
-0.03312941
0.02664297
-0.01836937
-0.00444767
-0.01544731
-0.02199190
-0.00479249
-0.03036949
0.01837977
0.02647849
-0.02571399
0.00656238
-0.00793285
-0.01378482
0.02193453
-0.01086967
0.02359023
-0.00551887
0.03294045
-0.00701658
-0.01627468
-0.00054253
0.01067013
0.03104286
0.00799108
-0.02222513
-0.00867076
0.02438222
0.02965601
-0.03462693
0.00673091
-0.03413807
-0.00706609
-0.04466809
-0.04954156
-0.04442590
0.01287848
0.00091357
-0.02564531
-0.03916458
-0.03926404
-0.01453047
-0.00568111
0.01114915
-0.03632177
-0.02443274
-0.00840322
-0.04966976
-0.08713134
-0.03035553
0.00155291
-0.02066799
-0.02403278
0.00086412
-0.02612448
0.02138013
0.01611500
-0.02862420
0.02711658
-0.03717041
-0.01873636
0.00078356
0.04354480
-0.01563362
0.03442719
0.00291840
-0.04273029
0.01939517
-0.02627579
0.02347129
0.00164655
0.01871165
0.02053626
0.00841899
0.02966494
0.01206291
0.02930597
0.01941679
-0.00033136
-0.00220931
-0.03624993
-0.04444687
-0.01766775
-0.02710181
0.03003462
-0.00694379
-0.01421660
0.01099313
-0.01029483
-0.06070736
-0.00124386
-0.02162009
0.02041629
0.02201178
0.01726395
-0.01106253
0.01996711
0.03628538
0.02463448
0.01959525
-0.00262316
0.02058018
-0.01509306
-0.02640519
0.03523691
0.02450110
0.04021455
0.00058009
-0.02040770
-0.02441110
0.03149492
-0.00148033
0.04019359
0.02064033
-0.02110346
-0.00039301
-0.02826373
-0.01965513
0.01064782
0.00127384
-0.02549294
-0.04440882
-0.00787625
-0.01265525
-0.02715779
-0.02038443
0.00427519
0.03206505
0.01457572
-0.02697040
0.00993837
0.00993073
0.03225313
-0.00363926
0.01310190
-0.02113939
-0.04024025
-0.01822350
0.00784133
0.02900738
0.00308478
-0.02967636
0.02800091
-0.02608316
-0.01474637
-0.07485313
-0.06979982
-0.05013790
-0.05530208
0.02778410
-0.07138617
-0.08846590
-0.04311650
-0.05910787
0.00067548
-0.01675609
-0.01625495
-0.03612835
-0.03141607
-0.00211126
0.00282542
-0.00047228
-0.05490730
-0.03015145
-0.03260963
0.01722503
0.01575442
-0.04181509
0.02804401
0.02172698
0.01627024
0.03133445
-0.01968975
0.00980849
0.00635292
-0.02464414
-0.00896409
-0.04031808
0.00148928
-0.01681245
0.00695182
-0.00027579
-0.03522332
-0.00405636
0.01635957
0.02849942
-0.00459616
-0.02403948
-0.02621812
0.00150585
0.01995926
-0.01409414
-0.04202494
0.02729771
-0.03785362
0.02767252
-0.01420298
-0.03715116
-0.05141012
0.00759747
0.00709609
0.01478788
0.03215898
0.02326985
0.00352038
0.03900775
0.01230336
-0.02004378
0.02033146
0.00761636
0.02036832
-0.03749477
-0.04007224
-0.01189518
0.00558281
-0.01881323
0.01069893
0.02482965
-0.03281735
-0.01357477
-0.04497440
-0.04178318
-0.02510040
-0.02400210
0.01092830
0.01470769
-0.00631427
-0.01320946
-0.06697498
-0.02035470
0.00525778
0.00695979
-0.02576680
-0.01122348
-0.01387053
-0.04552695
0.02607351
0.00666934
0.00940823
-0.02943112
-0.02240839
-0.03670611
-0.02044697
-0.01735691
-0.04272256
-0.01978695
0.01052556
0.00078232
0.01334415
-0.04604845
-0.02282984
-0.03892358
-0.01469329
-0.05304949
-0.03879004
0.03931153
-0.01326555
-0.00894148
-0.05727096
-0.02973315
0.04624589
0.03394860
0.02335171
-0.03705722
0.01194967
-0.01849238
0.00906223
-0.03612817
0.01409127
0.02578675
-0.02488918
0.00194130
-0.02161948
0.03410737
0.01615736
-0.02936926
0.03353995
-0.10533425
-0.02581697
-0.06923087
0.00271576
-0.03812139
-0.03692568
0.06919584
0.03030982
-0.02892389
-0.01623089
-0.04744122
-0.02233176
-0.01590453
-0.04528776
-0.03708979
-0.02791554
-0.02570543
-0.00620243
-0.00064931
-0.02515505
-0.01765317
-0.03250431
-0.02901795
-0.04525047
-0.01344920
0.03412320
0.01532938
0.00922615
-0.01432963
0.01296305
-0.01514347
0.00428595
0.02833612
-0.03449396
0.00189505
-0.04042252
-0.00287147
-0.02747673
-0.01532011
-0.00763614
0.02291288
-0.01783650
0.00152070
-0.00108361
-0.03451938
-0.01925909
-0.03654142
-0.00427764
-0.00552399
-0.02328314
-0.05390402
-0.03290887
-0.02811226
-0.06405316
-0.04397644
0.01802774
-0.03798521
-0.01104430
-0.01349704
0.01250424
-0.01308837
0.01379615
-0.03321739
0.03277308
-0.02458563
-0.04614422
-0.00536993
-0.02663408
-0.02750208
-0.00765064
-0.02805883
0.03561257
0.00818925
-0.03378101
-0.05176257
0.01060655
-0.03816881
0.00488907
-0.00958706
0.02984515
0.02820762
0.01289632
-0.02178890
-0.01242990
0.01388761
-0.00113228
-0.04288214
0.02867897
0.00166984
0.00300475
-0.00303194
-0.01211794
0.00649662
-0.04850952
-0.04313302
-0.00647752
-0.02842421
0.03428242
-0.01557301
0.02890715
-0.01157041
0.04318832
-0.03500855
-0.01375308
0.00181775
0.03595535
0.01729931
-0.00606662
0.03842204
-0.04943642
0.05104104
-0.00802872
0.01295270
-0.04130559
0.02766936
-0.03315043
-0.03866171
-0.03639255
-0.00896061
-0.03902813
-0.04254553
-0.01588310
0.03278247
0.01238338
-0.01800632
0.02568151
0.02567490
-0.00804464
0.01855773
-0.00765140
0.01528176
-0.03837774
-0.04124413
0.03152293
-0.02365694
0.03242738
0.00684265
-0.03328938
-0.02664729
0.02214175
0.01269658
-0.04232086
0.02101734
-0.03027708
-0.03404641
-0.01765485
-0.03001358
0.03921770
-0.02481690
0.00373894
-0.02990850
-0.01366265
-0.03381582
0.00891029
0.00356443
0.00440522
-0.00877008
-0.00837699
-0.01181335
-0.03251839
-0.01545599
-0.04065458
0.01560715
-0.02759581
0.00287741
-0.01229050
0.00680893
-0.02957934
-0.00254503
0.00326287
-0.00601337
0.03095574
0.02718563
-0.00349125
-0.03086477
-0.01868491
-0.03277811
0.00659098
-0.01957821
0.02428335
-0.05521353
-0.01274178
0.00437681
-0.05463028
0.01742489
-0.03604496
0.01782290
-0.07466307
-0.05146587
-0.01657212
-0.01070249
-0.01682769
0.03342784
-0.01658246
-0.02321592
-0.01373939
-0.03984595
-0.01390965
0.04436211
0.05701588
0.02979301
-0.02504580
0.03563901
-0.01288634
0.01196464
0.00810893
-0.00051319
0.03220123
-0.03638809
-0.01104312
0.00922335
-0.02272843
-0.01406882
0.01027604
0.02989029
-0.02590723
0.04092881
-0.00402896
-0.04821281
-0.03264895
-0.04625508
0.01961968
0.01078362
0.02239406
-0.02251549
-0.02363760
0.02472224
0.01257182
0.00417226
-0.02758511
-0.02091681
0.02428154
0.01613581
-0.00905076
-0.01865360
-0.00495289
-0.05601246
-0.02033429
-0.04493400
-0.04180955
-0.04607299
0.03262491
-0.01171866
-0.05587098
-0.04030470
-0.01544280
-0.01754792
-0.08397782
-0.03478238
-0.00755423
-0.03854381
-0.03252682
0.00322128
0.00768874
-0.02348484
-0.02705059
-0.03302406
-0.00766188
0.02223743
-0.00451704
-0.05459639
0.02016388
-0.03749054
-0.01103988
0.00097330
-0.04242320
0.00447597
-0.04597159
-0.04508242
0.00327918
-0.00410318
-0.03300647
0.00446688
0.01874102
0.01261425
-0.02839834
-0.03411642
-0.03255535
0.00347964
0.03419281
-0.05456435
-0.03377706
0.00113945
0.02163211
-0.01669072
0.02718432
0.02592666
-0.02857587
-0.04980030
0.01475022
-0.05438969
0.01067116
0.03062637
-0.02856544
-0.01827667
0.00156368
-0.04246449
0.00836478
0.01814797
-0.02677407
-0.00209969
0.00420163
0.02369039
-0.00463043
-0.02670508
0.02017095
0.01619426
-0.01382095
0.02485538
-0.04074254
-0.04358447
0.02390329
-0.02724200
-0.00123569
-0.03533686
0.00172761
0.00173719
0.01307787
0.03384956
0.01251466
0.01855151
0.03458030
0.01803271
-0.02583569
-0.06360707
-0.03126003
-0.05146429
-0.01290497
-0.03315921
-0.04663035
-0.04089210
-0.03301049
-0.03204455
0.01023679
-0.04751741
-0.01742277
-0.03557007
0.01773754
-0.01556075
0.01815206
-0.00009469
0.02851420
-0.02416501
0.03136514
-0.01349055
-0.02548728
0.01003246
-0.03015547
-0.02971570
-0.03744214
0.02899743
-0.00573959
-0.04129072
-0.05439326
-0.02629819
0.00301825
-0.04698686
-0.02227486
0.04173517
0.02980724
-0.00040873
0.01448996
-0.05061197
0.03302488
0.01726356
0.00485595
-0.03070482
0.01731223
0.03356183
-0.03341255
-0.00689729
-0.00546968
0.01346299
0.02904356
-0.01633597
0.03133877
-0.00451254
0.01098203
-0.00105513
-0.02854434
0.00535585
-0.03610856
0.02196107
-0.03470095
-0.04809863
0.00661185
-0.02588081
-0.00045007
-0.02202513
-0.00003786
-0.01463711
0.00311723
-0.08073908
-0.02925615
-0.01912988
-0.02722073
0.00912162
-0.03706779
-0.03493166
0.00586275
-0.01757212
0.01630826
-0.04029002
0.01925215
-0.01267636
0.03471091
-0.03637142
0.00469258
-0.02422349
0.00841810
-0.03367607
0.01246052
-0.02850071
-0.02413048
-0.03880877
-0.01619025
-0.04876535
-0.03285353
0.01323428
0.03141390
0.00421191
-0.01636927
0.02644370
0.00997733
0.01442664
-0.01024300
-0.04313664
-0.00674557
0.01880321
-0.03987763
-0.04271975
-0.03281010
-0.04824020
-0.04204933
0.00218095
0.00307286
-0.04644661
0.02394721
-0.02370684
-0.04012769
-0.07592556
0.03031158
-0.00777331
0.05314692
0.19524899
-0.13381678
-0.09482089
0.01060413
0.18303739
0.15433665
-0.10719539
-0.09155407
0.11143915
-0.00758777
-0.14689584
0.05280833
0.13852569
-0.02656062
0.05357036
0.04402892
-0.10041492
-0.13365833
0.12913087
0.03979135
0.01735062
0.00891913
-0.12552081
-0.03429875
-0.26615572
-0.12473463
-0.10619786
-0.13320547
-0.19463457
-0.14118923
-0.11153509
-0.15768836
-0.14242683
0.01207167
-0.18487111
-0.12249085
0.03384871
-0.22502376
-0.20939529
0.01780188
-0.03821168
-0.05943112
-0.18259813
-0.01665090
0.02011687
-0.10698371
-0.18337318
-0.26028720
0.00794352
-0.13352682
-0.15023822
0.05431885
0.00397693
-0.06536666
0.26202229
-0.01620413
-0.21141171
0.12699407
0.02064855
-0.17293110
-0.00698975
0.02372894
0.02815606
-0.01007644
-0.02942653
-0.01666894
0.03349462
-0.15251549
-0.17066804
0.00399281
-0.04017432
0.10579840
-0.06244027
0.05299167
0.04929787
-0.06850458
0.08000447
-0.03013100
-0.11446148
-0.02286370
-0.12544543
0.06023256
0.33778682
0.04093134
-0.08617442
0.12268734
0.00607206
-0.06914076
0.02355105
-0.05270192
-0.10360777
-0.12331644
-0.12181032
0.04178646
-0.05369417
-0.04824384
0.03157909
-0.05272002
-0.09104063
0.08649478
-0.09455799
-0.09582907
-0.01232689
-0.05857502
-0.11900797
0.01732059
-0.10589298
-0.10893807
0.14255241
-0.15193799
-0.10957529
0.04002812
-0.06514408
-0.06758450
0.04515740
-0.16318646
-0.20143944
-0.12645034
-0.17473903
-0.05948250
-0.13504831
-0.10304541
0.15494475
-0.04247877
-0.02893868
-0.04781232
0.08270326
0.04858046
0.02617726
0.09930726
0.01202346
0.02008637
0.00738162
-0.02678786
-0.05655613
0.05415021
-0.03754857
-0.10111564
-0.06905080
-0.15686174
-0.01170696
0.08512025
-0.06128463
0.08933111
-0.24381770
-0.03240905
0.06719366
-0.00883837
-0.06734470
0.12564777
0.04432997
-0.05508347
0.01973095
-0.00774069
-0.05769034
0.09021320
-0.03981100
0.10113733
0.03069605
0.02477783
-0.05902682
0.08804128
-0.23699796
-0.15756521
-0.06809958
0.00630381
0.03684903
0.05909551
0.00340103
0.03944343
0.10939912
-0.10836440
-0.15428190
0.08316638
0.00290763
0.05356242
0.07046611
0.03236908
-0.01289603
-0.07157545
0.02598403
-0.00059978
-0.11108841
0.04832928
-0.09989993
-0.15855125
-0.02833245
0.19254369
0.04887453
-0.07628323
-0.06305148
0.08488443
0.09806577
0.17437737
0.02110066
-0.13494915
-0.09747388
0.08926827
-0.16497341
-0.15045603
0.00529244
0.04783797
0.03947670
0.05327642
0.10733907
-0.10149725
0.03479286
0.11215981
-0.32377988
0.00796110
0.12153061
-0.02835132
-0.04875414
-0.02117487
-0.02227572
0.03044857
-0.04181406
0.03029300
0.01622099
-0.06883867
0.00832953
0.01449758
0.02825359
-0.00051230
0.03315718
-0.06071966
0.02026637
0.06703614
-0.03052652
-0.02437366
0.04958184
0.02269929
0.08157507
-0.04445779
-0.00947241
-0.03978312
-0.10955358
0.14537139
0.14170237
-0.02472070
0.09073611
0.03222794
0.03171095
0.03178498
-0.10273753
-0.00989736
-0.03709171
-0.08726023
0.03087629
-0.01416293
-0.02175139
-0.08250917
0.07452121
0.08621392
0.05074631
0.05151108
0.00357852
-0.00364478
-0.07292587
-0.05975059
0.10868667
0.04480916
0.04197981
0.00528130
0.08777280
0.09873484
0.01443130
-0.00249636
0.10611982
0.02319540
-0.17267308
-0.12472293
-0.05919193
-0.17427653
-0.11180624
0.05058578
-0.05659614
0.05303370
0.10873398
-0.04986785
-0.07255580
0.08396112
0.06002946
0.06180233
0.05958330
0.01813196
0.16834641
-0.07340194
0.14473535
0.41925719
0.00237353
0.08829114
0.12372144
-0.08368678
0.03748809
-0.04357268
-0.04956374
-0.03431886
-0.04960711
-0.01029171
-0.02405509
-0.01552266
0.01523774
0.02496061
-0.08051648
0.07660125
-0.02092326
-0.05048001
0.00349685
0.10575084
-0.04751851
0.01602052
-0.07588693
-0.10629387
0.05045994
-0.42963511
-0.23348296
0.11361960
0.01056886
-0.02219700
-0.10595050
-0.05161929
-0.31743670
0.09611792
-0.18517917
-0.49496168
0.04322196
-0.09479561
-0.30670449
0.04829747
-0.03015034
-0.09745799
-0.10594444
-0.26424477
-0.20292759
-0.06487010
-0.04281441
-0.01476311
0.00927101
0.20491485
0.03866123
0.07251503
0.05024944
-0.05967124
-0.06236110
0.12104886
0.20126516
-0.07791818
0.02805480
-0.12893963
0.02114744
-0.11694812
-0.16406949
-0.06588642
-0.00515794
0.03550370
0.04997257
0.02738531
0.00301402
0.00811190
0.02607859
0.02016240
-0.00443647
0.08140124
0.09148461
0.05586534
-0.08758906
-0.08998746
0.00248536
0.02012415
0.04057191
0.03595041
0.08027519
0.00429272
0.02530894
-0.02806205
-0.03636976
0.09431146
-0.05256274
-0.01726926
-0.05926244
0.04384260
0.04305630
-0.05863997
-0.21491048
-0.14609434
-0.13636428
-0.04685177
0.03636614
0.03407033
0.01078650
-0.05652282
-0.06844583
-0.02842251
-0.07867303
-0.12911826
-0.01815170
-0.01362734
-0.08580687
-0.06802052
0.09299442
-0.04182588
0.00923846
0.16770355
0.00055643
-0.16687669
0.09768960
-0.04736642
0.11438313
0.08214331
0.03784797
0.03288668
-0.05508588
-0.00416518
0.01440740
-0.04757839
-0.01709528
0.01594058
-0.05151374
-0.05084884
0.08683069
0.12309286
-0.01597597
-0.20112202
-0.21926072
-0.15278926
-0.25795984
-0.06320591
-0.04893408
-0.02524192
0.08845111
0.03263130
-0.11705637
0.10323370
-0.08624613
-0.05659099
-0.11700088
0.02384303
-0.05494836
-0.06838243
0.19969198
-0.00158456
0.04887059
0.01755051
-0.04360943
0.08609259
0.02080200
0.09972453
0.07888974
0.00312341
-0.09241261
0.03676623
0.10985770
-0.13988334
0.08188336
0.16025184
0.14528772
-0.01660975
-0.05582459
0.18343119
-0.09850082
-0.11246099
0.19957839
-0.02693494
-0.09969961
-0.03894819
-0.01051214
-0.03495635
0.00711824
0.06918816
-0.05571046
-0.00170900
0.01831726
-0.03326956
0.03708344
0.09340520
0.09828775
0.01743028
0.00978244
0.01795885
-0.03849757
0.07834485
-0.02068566
-0.01711788
-0.05837881
0.03030265
-0.00261303
-0.00363618
0.05000226
-0.03643810
0.06611764
-0.02683704
-0.04660936
0.00322087
0.05438596
-0.05757339
-0.01388518
-0.02452205
0.02740865
-0.01493354
-0.01516200
-0.01094178
-0.06212458
-0.00619251
-0.01126199
-0.06799048
-0.09089845
0.00095069
-0.04822434
-0.03718972
-0.05451134
-0.07233016
-0.04437310
-0.06688666
-0.05796334
-0.02825159
-0.02925358
-0.01128513
0.01179860
-0.06244602
0.02417098
-0.22555357
-0.08156835
-0.14492422
-0.01576815
-0.03405863
0.00835934
-0.10449528
0.16550431
0.07470194
0.01664327
0.05090291
-0.16303316
-0.08768699
0.00492735
-0.01719889
-0.10237306
-0.06547088
-0.01779189
0.00936195
-0.08156610
-0.02599443
0.01705765
0.03108474
0.00222288
0.03013059
0.02548028
0.02333474
0.05833228
0.06667385
0.03653447
0.11499497
0.21753290
0.04586155
0.08166071
-0.14858492
0.08314011
0.29586563
-0.10865816
0.14672831
0.21791583
-0.06603034
-0.04252969
0.13195243
-0.07647616
-0.10061245
-0.03172098
0.03796313
0.06216041
-0.03121318
0.00728530
0.16453670
0.04903347
-0.04168905
-0.00589459
0.03564724
-0.00479058
0.09159224
0.06878183
0.03582667
0.02860716
0.00791440
-0.18499358
0.05104527
-0.05696290
-0.15228520
0.12422863
-0.09493972
-0.07671979
0.05009395
0.02881464
-0.13829894
-0.06801131
-0.17150405
-0.01942268
0.15451346
0.02206382
-0.01362366
0.00627194
0.12811591
0.12798661
-0.14287198
0.00845792
-0.05470674
-0.16084124
0.08478554
0.01289494
0.00406805
0.01215398
-0.03644900
-0.01647800
0.00530673
-0.02236455
-0.04601276
0.04904565
0.03392665
-0.02606020
0.04056128
-0.06131867
-0.07873624
0.04266077
0.06002268
-0.04769346
0.12358098
0.03229833
0.04061474
0.00799680
-0.00832543
-0.03167284
0.05695771
-0.11993487
-0.01048075
0.10089008
0.03702845
-0.08520951
0.06901400
0.02011327
-0.19766389
0.09333444
0.02469649
-0.14148913
-0.05481236
0.12373721
0.03447106
-0.09247361
0.01479551
-0.00907910
0.13159652
-0.05167337
-0.06490928
0.09350280
0.10788836
0.19256383
0.01750288
-0.05105920
-0.14759426
-0.16033353
0.07554517
0.05202822
0.25037128
0.00757007
0.02230133
-0.11830153
0.00510541
-0.01104436
-0.02816805
0.05877897
-0.03303495
-0.02605594
-0.02057089
0.00679259
-0.02430085
0.06423222
0.06358082
0.02905921
0.08135317
-0.09771516
-0.05857114
0.07239395
0.07215859
0.01058088
0.07611164
0.03797393
-0.11710122
0.17334154
0.08798268
-0.02735678
0.09576647
0.05592508
-0.04015651
0.07319455
0.05156055
0.03069729
0.01053272
-0.10091060
0.01499670
0.05041771
-0.01636569
-0.08003340
0.01775886
-0.10415726
0.03642895
-0.12063879
-0.28783327
-0.07721841
0.08246884
0.11525652
0.05137872
0.01814882
-0.00394568
0.10427153
-0.03016345
0.05882163
0.06961962
0.11661673
0.00241185
0.08815225
-0.05967403
0.11714155
-0.12227743
-0.03275936
0.24583302
0.09444638
-0.18778095
0.09267189
-0.02984145
-0.05036132
-0.04180083
-0.03611204
-0.05914005
-0.05018507
0.01893063
0.06841017
0.01277298
0.00846323
-0.06123191
0.06750820
-0.22268113
0.22820441
0.23078883
-0.15536474
0.15031789
0.05307658
-0.13579170
0.03282324
0.04871605
0.06436677
-0.00185222
0.01554737
-0.03600998
-0.05147228
0.05593615
0.02351604
0.01910894
0.01112455
0.00744582
0.21068811
0.10704596
-0.08111192
0.15144320
-0.03145076
-0.10908129
0.03009586
0.02287343
-0.08251014
-0.01994494
0.03838138
0.00119413
-0.00423824
0.04909811
-0.08280314
-0.04961203
-0.08525894
0.10872344
0.11642638
-0.15133196
0.01508582
0.10522349
-0.06463809
0.01912385
-0.06088789
-0.11585728
0.07191623
-0.08859314
-0.31299809
-0.04391191
0.12864169
-0.11212581
0.04947636
-0.04430282
0.14832477
-0.01065864
0.12275270
0.20788270
0.07411422
-0.14926973
-0.10035141
-0.19376199
0.10752834
0.10519741
0.12661897
-0.07012661
0.10077826
0.02320947
-0.20873280
0.03389677
0.10033330
-0.02449270
-0.00728634
0.00585013
-0.01697732
0.07116050
0.08886129
0.04187594
0.07221681
0.02263642
0.17043781
0.16283444
-0.21480337
-0.10033959
-0.25841230
-0.16746446
0.16796690
0.10441305
-0.00375519
-0.14327790
-0.26484948
0.05135358
0.07087590
-0.03220746
0.12735121
0.06506838
0.12314367
0.19844289
-0.09209227
-0.06254761
-0.02740671
0.02369418
-0.03260720
0.01504716
0.05565281
-0.00540773
0.00642060
-0.01230392
0.06333919
-0.09052991
0.03660994
0.21055980
0.10492425
-0.12571293
0.00286354
0.05294735
-0.00845216
-0.04328136
-0.01528726
0.02823686
-0.00939222
0.00381688
0.05309188
0.00823422
0.02000025
-0.03851796
-0.01486708
-0.02386771
-0.01039249
0.03174490
-0.01018786
-0.00506538
0.03288938
0.07170463
0.22896522
-0.00178885
0.17981185
-0.01655634
-0.39261064
0.10934754
0.00982196
0.22431697
-0.00989587
-0.01603329
-0.01904044
-0.01193470
0.01433956
0.00545897
-0.02727629
-0.02599242
-0.00031721
0.03559216
0.00491084
0.02028475
0.05890934
-0.00393344
-0.10666221
-0.01474667
-0.03886846
0.00148165
0.08724704
-0.02880470
-0.03629131
-0.00552531
-0.01979739
-0.02594514
-0.02185519
0.01482256
-0.03693353
-0.02898948
0.16073212
0.06536345
0.04013057
0.01063205
-0.07237709
-0.01240057
0.14361089
0.21573462
-0.10353149
0.03217721
-0.03785469
0.01346467
-0.00893571
-0.03932093
-0.01525060
-0.05081644
-0.09120245
-0.09427667
0.16392988
0.11771848
0.09363317
0.20449296
0.00303771
-0.11986674
0.00704016
0.07910052
-0.01954327
0.01053688
-0.09786178
0.15852007
-0.22869134
-0.22536801
0.04634456
0.19638759
-0.00185862
-0.03036253
-0.18422559
-0.14235547
-0.07859518
-0.07611409
-0.05772812
0.00928198
0.06116403
-0.05517701
0.07758121
-0.02768369
0.07812759
0.15852152
-0.19319879
0.01765773
0.10806745
-0.07559313
0.07539978
0.07215720
0.06100212
0.06323519
0.02179778
0.05662356
0.10991997
0.04940419
-0.03081536
-0.01812824
-0.01244317
-0.26639706
-0.01658631
0.00765323
-0.09654860
0.10710049
-0.02094628
-0.02276053
-0.02465003
0.16735245
-0.05585099
0.04479008
0.03634018
-0.02328802
0.04598849
-0.01295513
-0.03362602
-0.06645301
0.04553637
-0.02280627
0.16111962
-0.05072249
-0.01778611
-0.15369220
-0.10873027
0.01376238
0.12039926
-0.09893131
-0.11077047
-0.02722090
0.02265107
-0.12573649
-0.07677070
0.00508398
0.02147198
-0.04335607
-0.08620755
-0.16819055
0.00028498
0.17260785
-0.21981478
-0.07969794
-0.08061291
-0.10506187
-0.04192713
0.07204121
-0.01035867
-0.09885710
-0.15289298
0.17764314
-0.00118396
-0.09293344
0.17668508
0.00905156
-0.08755372
-0.00796669
0.05450600
0.05897311
0.05392076
-0.10618632
-0.00087239
0.07182972
0.00148418
-0.08663361
0.05244479
-0.04565679
0.00680803
-0.08070387
-0.02951693
-0.08284356
-0.03867969
0.00266616
-0.01192565
-0.20718433
-0.16335908
0.10898235
-0.21551770
-0.23444195
0.10372660
0.04519746
-0.03725760
-0.03389953
0.02921248
-0.00816218
0.03028047
0.06610125
-0.07031882
-0.04496796
0.02316398
-0.06415109
-0.03643442
-0.06209161
0.02730674
0.01205691
-0.20072414
0.00523333
0.00081500
-0.05464957
0.11602113
-0.12775840
-0.04756692
-0.07922134
0.11570282
0.19195311
0.14066577
0.12081036
0.09989008
0.06890547
0.12789792
0.04016363
-0.14315397
-0.00617406
0.16250306
-0.29015443
-0.13953795
0.14852491
-0.04291089
-0.04081825
-0.01982241
-0.10057136
0.01259287
0.01823201
-0.14473644
-0.11501192
0.03712454
-0.00424183
0.01973221
-0.00351461
0.16744904
0.09761018
0.03819559
0.06266462
-0.08145060
-0.02810393
0.10296867
-0.08113156
-0.03274848
-0.08693101
0.00875144
0.08507677
-0.22384965
0.09557563
0.08800028
-0.11029008
-0.09833837
0.01607442
-0.01086109
0.02639664
-0.06794669
-0.03963411
-0.01338918
0.03048120
-0.00209551
0.03571432
0.03094741
-0.01593613
0.10370524
-0.08753679
-0.10679249
-0.03668876
0.15137500
0.08903027
0.03366369
-0.17050740
-0.09865956
0.02254836
0.12940812
0.11103131
-0.02627840
-0.01556476
0.02014433
0.07594372
-0.00354359
-0.01396083
-0.11236658
0.26653045
0.20019650
-0.04880367
0.22420959
0.03899978
-0.04232994
-0.01513652
-0.04909603
-0.01711037
-0.01199852
-0.00422389
-0.05237951
-0.05650491
0.07913938
0.01245570
-0.04667342
-0.12247238
-0.06169073
-0.03036004
0.00299467
-0.07158787
-0.06711723
0.03362772
-0.04307538
-0.08084845
0.03021747
-0.08384936
-0.02003016
-0.05832905
-0.03393033
-0.06090353
-0.03961106
-0.05868475
-0.00597958
-0.03523987
-0.02738547
0.03277234
-0.06124229
0.00059715
-0.06125565
0.01090083
-0.00169732
0.04221307
-0.03304425
-0.02477483
-0.04244131
-0.15461712
0.00001193
-0.03562332
-0.15556298
-0.14449732
-0.06707544
-0.06936868
-0.00647895
0.03708458
-0.04496939
-0.03523490
-0.01226946
0.03041366
-0.04794782
-0.01307508
-0.04787340
-0.04128467
0.00998922
-0.10705140
-0.05571105
-0.01064812
-0.08164551
-0.11449733
0.04202440
-0.08833650
-0.05397075
-0.07988335
-0.04155242
-0.02677539
-0.00768538
-0.00907274
-0.18014388
-0.03949192
0.03475501
0.06040389
-0.00990276
-0.00023741
0.03450940
0.01041667
0.11966403
-0.06221238
0.02341607
-0.02548593
0.03045254
-0.03351640
-0.09064957
0.07897735
0.02938824
0.00001365
-0.08889526
-0.03260165
-0.02300919
0.03678101
0.00882001
0.02374791
0.04415680
0.04220036
0.03256363
0.02437444
0.05788856
-0.09877147
-0.10619002
0.00569122
-0.06644481
-0.04856628
0.03697307
-0.03910390
-0.04837319
-0.03715856
-0.03754834
-0.07348817
-0.07569243
-0.06530454
-0.10560415
-0.00418701
-0.01457500
-0.03988861
-0.00242587
-0.01489373
-0.03353222
-0.00299906
0.04325628
-0.04392054
-0.06791710
-0.04985438
0.01235384
-0.01805633
0.02642809
-0.04366841
0.03445956
-0.00215520
-0.04489535
0.02206160
-0.01504275
-0.00286893
0.00748193
-0.01251688
-0.00097304
0.04092463
0.03638749
-0.02634367
-0.01148638
-0.03975238
0.04065284
-0.02415329
0.03495281
-0.01940309
-0.02196293
0.02021408
-0.12835215
0.01417083
0.02341924
0.02022719
-0.04586696
-0.02069971
0.02566580
-0.06973897
-0.00102312
0.00228840
-0.05059130
-0.05183119
-0.09777931
-0.00102800
-0.02364501
-0.04192633
-0.01448483
-0.06321646
-0.04708348
0.04713043
-0.07313433
-0.08919450
0.00124017
0.02428832
-0.04961919
-0.07877232
-0.01608833
0.01154021
-0.01068274
-0.03327683
-0.05794770
-0.10686927
0.01123301
-0.06731118
-0.14627202
-0.04394184
-0.04718405
-0.08323152
0.00762686
-0.12427530
-0.01423219
-0.05092912
-0.04273585
-0.06370856
-0.04373251
0.01907194
-0.05353010
-0.01936698
-0.03538658
-0.04154278
-0.09796388
-0.07020438
-0.13208836
-0.11357371
0.02007314
0.06180268
0.04278984
-0.04408129
0.05142422
-0.02033736
0.00399711
-0.06761631
-0.05756039
-0.06430247
0.05052903
-0.06394623
0.01179331
-0.01409240
0.02400659
0.02111931
0.02209386
0.02917762
0.03684620
0.00159187
0.04239673
0.02116687
-0.01086359
0.03254868
-0.04961995
-0.02591570
0.04321255
0.00290602
0.04145415
0.00403035
-0.01294025
-0.09983774
-0.01423102
-0.03451941
-0.06330640
-0.06469563
-0.09025604
0.05964760
0.03408734
-0.09567301
0.00490693
-0.02322945
-0.02489102
0.02901302
0.00759545
0.02971642
0.01484461
-0.06090436
-0.03637100
0.02801958
0.02917127
-0.00368333
0.00282338
0.02827977
0.02235956
0.04045323
0.03854429
0.00667948
-0.00192560
-0.11124818
0.02239454
-0.00682119
-0.02024185
0.01019464
0.06279581
-0.03038673
-0.03179965
-0.02114424
0.01911722
-0.04754710
0.06131481
0.04419639
-0.09799656
0.06976636
-0.00706514
-0.02681075
0.01319029
-0.05430006
0.02259019
-0.06289626
-0.08099657
-0.01245869
0.02107203
0.00973855
-0.06543247
0.01898206
-0.07826201
-0.03153250
0.02885028
-0.09903530
-0.07029562
0.03464125
0.01205891
-0.04257837
-0.02585179
0.01038563
-0.03676748
0.00244345
0.00675538
-0.04341740
0.03938160
0.00941370
-0.01802207
0.07422590
-0.07639346
-0.11229307
-0.02122820
-0.01878072
-0.06266461
-0.05315507
0.00271981
-0.07653487
-0.04844271
-0.06507830
-0.12609793
-0.07876549
-0.11079682
-0.05773811
-0.08485716
-0.02157415
0.04735555
-0.01980698
-0.00914612
0.06757238
-0.05837919
-0.07413466
0.02887745
-0.00158417
-0.03404170
-0.08555725
-0.02820629
0.01465914
-0.02109641
-0.03005383
-0.04660707
-0.02409797
-0.03633687
-0.03275901
-0.10302802
-0.06357381
-0.02939860
-0.01713449
-0.06338631
0.02310923
-0.00807679
-0.02310301
0.05641480
-0.02865209
-0.07318566
-0.00797939
-0.01828615
-0.06979507
-0.03299762
-0.04000142
-0.02311315
-0.01157575
-0.01854170
0.00632034
-0.03203704
-0.01914786
-0.02740260
0.00251225
0.01665495
0.00885137
0.01174219
0.01672684
0.01139509
-0.03359810
-0.00664291
0.01519633
0.03619697
0.03993306
0.03376094
-0.01052206
-0.00889071
0.02650053
-0.01714253
0.01840960
0.07433618
-0.08455925
-0.03369093
0.00336473
-0.02029877
-0.09384308
0.01899771
-0.04382564
-0.01201317
-0.02502431
-0.07032498
0.00709366
-0.02752757
-0.02933311
-0.08500996
0.01471130
-0.06197384
-0.03141171
-0.00593994
-0.01944344
0.03289842
-0.03694375
-0.01770244
-0.01949819
-0.03032028
-0.07060771
0.07476153
-0.03801086
-0.00027999
0.00465643
-0.01043075
0.02880946
0.00636992
-0.03763575
-0.00922711
0.02851607
-0.00360945
0.00942170
-0.03810607
-0.00265660
-0.02365398
-0.04191641
0.00120947
-0.00259301
0.01720451
-0.04511708
0.05882499
-0.00633954
0.03218661
0.03920764
0.03205019
0.00411916
0.02956262
-0.00629148
0.00000714
-0.04336785
-0.04521541
-0.09771770
0.05526776
-0.06502084
-0.01450963
-0.00606562
-0.03147260
0.03047305
0.00013878
0.00953768
-0.00610652
-0.00203779
-0.01463368
-0.06349838
-0.01474721
0.00300915
-0.03827073
0.00679520
-0.00270273
0.01804152
0.08648065
-0.04597024
-0.09885086
-0.11484005
0.03120565
-0.00413280
-0.04468868
-0.00280574
-0.02027938
-0.05014605
-0.04212162
0.14417340
-0.01346927
-0.01066343
0.03427580
-0.00608752
-0.07135735
0.09366379
0.06065320
-0.12227165
-0.08209530
-0.03577225
0.00901202
-0.08753331
0.03901394
0.03368873
-0.09664660
-0.02923402
-0.07862630
0.02724056
0.02508149
0.00743293
-0.02063281
-0.03163617
-0.02147746
0.00506153
-0.00606925
0.03543408
0.00943660
-0.03892629
-0.02103115
0.00743745
-0.00903741
-0.00452551
0.03138474
-0.01579569
-0.02306666
0.03009398
-0.03316988
0.02729646
0.03442164
0.02730681
0.03388686
0.04546805
-0.02114839
0.04611264
0.02148219
0.02564807
-0.04391049
-0.00261588
-0.01547041
-0.00932996
0.02091361
0.00320309
-0.03173235
0.07159394
0.02879128
-0.03368506
-0.00591153
0.02778729
-0.00482109
0.03995899
0.01627822
-0.00239206
-0.08133359
-0.08816369
0.03998514
-0.08551698
-0.05558170
-0.04623391
-0.09478126
-0.05520807
-0.05179645
-0.03200648
0.00360883
0.00165556
-0.00126178
0.02731600
-0.00370198
-0.01258950
0.00468012
0.02532700
-0.07274797
-0.03625173
0.08078045
-0.06858384
-0.07449262
-0.00781849
0.04537119
-0.07903195
-0.02926646
-0.00860060
-0.06953790
0.08162526
-0.02036101
0.00626677
0.03502332
0.00407301
-0.07249458
-0.01571462
-0.05949796
-0.03103922
-0.00167268
-0.03508223
-0.03821874
-0.03214926
-0.03026669
-0.09166191
-0.04062175
0.11262115
0.00339904
-0.04814823
0.07758369
0.03913553
-0.03575825
-0.01687489
0.03185452
-0.06094351
-0.02396177
-0.03962985
-0.01647612
-0.02035302
-0.07062028
-0.12734121
-0.03389681
0.09011499
-0.05194044
0.10996410
0.13320850
0.06664114
-0.04132463
-0.02482204
-0.00214248
-0.04309674
0.00280242
0.02784769
-0.10857947
-0.07179082
-0.04659182
-0.04257844
-0.03675773
0.01125006
-0.06569378
0.02519771
-0.05192845
0.04527371
-0.00315690
-0.03598583
-0.01820954
-0.03283224
-0.03901175
0.00190029
-0.00343617
0.03041786
0.00382526
0.02037516
-0.00956010
0.00054537
-0.00573156
-0.01922560
0.01542967
0.01434306
-0.05794718
-0.01112747
0.00845202
-0.05788646
-0.01966270
-0.01225949
-0.02581755
-0.03303909
0.01277048
-0.05161456
-0.02475961
-0.04810176
-0.01053794
-0.02089710
0.01235767
-0.01566841
-0.03771868
-0.05597011
-0.02270294
-0.03643997
0.01703932
0.01683687
-0.06102178
-0.03784800
0.02874292
-0.10254346
-0.02140869
-0.05968956
-0.01299137
-0.09289642
-0.08396211
-0.00589873
-0.00655610
-0.01261712
-0.02065807
-0.03347737
-0.05601563
0.00380711
-0.00588419
0.01654041
-0.00133260
-0.04144286
-0.02666748
0.00097789
0.00786592
0.00936854
-0.04546504
0.01681581
-0.09242047
-0.04081078
0.01356139
-0.09211116
-0.01494878
-0.03512191
-0.11002883
0.02266561
-0.00891007
0.02665037
-0.11016616
-0.00549333
-0.07842268
-0.01762599
-0.02481362
-0.08154602
-0.13822918
-0.12438052
-0.02596600
-0.13234244
-0.06808206
-0.08075756
-0.02982080
-0.05470642
-0.04314455
0.02762877
-0.08690764
0.03349873
-0.02254859
-0.00925178
-0.04461714
0.04259346
-0.09719654
-0.05858483
-0.01776768
0.03742851
-0.06264787
-0.02280585
0.03406617
-0.00880546
-0.03318729
0.00840558
-0.01450256
-0.02542153
-0.06378513
0.01128659
0.03631653
-0.00847020
-0.02183343
0.07195445
-0.03491239
-0.02495544
-0.00914173
0.02861590
-0.00492715
0.02846669
-0.03980029
-0.02549536
-0.01439061
0.00062873
-0.00317844
0.05383136
0.08424365
0.01823234
-0.05841134
-0.05731287
-0.06762455
0.01034024
0.03497706
-0.02425124
-0.02934915
-0.04178352
0.00461727
0.03853625
0.01823996
-0.01040939
-0.01664620
0.02720839
0.01704695
0.00377325
-0.11316539
-0.09459440
0.01601272
0.00360394
-0.01925676
-0.00727610
-0.01639743
-0.03981983
0.02395553
0.02281799
-0.01931855
-0.00686609
0.02333145
0.04371802
0.00217531
-0.01397652
0.02488098
-0.06948002
0.01564329
0.01521152
-0.05617088
-0.04789574
-0.02289495
-0.02280600
-0.00694533
0.04010900
-0.03433064
-0.05459967
-0.06772143
-0.04340217
-0.03057704
0.05045619
-0.05809260
-0.01638397
0.00947502
-0.02892071
-0.07357056
-0.03262478
0.01074956
0.00518300
0.00223635
-0.02839653
-0.07398199
-0.04540977
0.01020633
-0.09137768
-0.00482029
-0.01236407
-0.06875147
-0.05650377
-0.11850053
-0.08474503
-0.11594390
0.03192783
0.01513716
0.02986948
-0.00589528
-0.03065617
0.01854998
-0.00542152
-0.00547184
-0.00273609
-0.05657527
-0.06930755
0.00365456
-0.05757608
0.02364494
-0.03294102
-0.01179553
-0.06981406
-0.05571281
-0.06731042
-0.00479980
-0.01359246
-0.03933922
-0.01552047
0.02509096
-0.04123204
-0.04263505
-0.05198118
0.03343475
0.02772951
-0.01174865
-0.03692860
-0.01215098
-0.04389971
0.03625926
-0.00705888
-0.01718266
0.05094360
0.02579172
0.01631390
-0.02459895
0.03623402
-0.02531088
-0.09358863
0.04638304
-0.02841882
0.00766981
0.03858110
-0.00775049
-0.00632388
-0.01780575
-0.00835809
-0.00902378
0.00376478
0.00977363
0.04988118
0.00426759
0.01564796
0.02824507
0.00181916
0.02150430
-0.00736204
-0.01900028
-0.00989892
-0.10650056
0.04167786
-0.06666864
-0.04386103
-0.06228509
-0.07357213
-0.06647820
-0.08348770
-0.01442824
-0.02269661
0.04222416
-0.00045496
-0.02978007
0.00941319
0.03457260
0.02947477
-0.03292333
0.01474778
0.20235042
0.01554628
-0.01821582
0.15822896
0.00268315
-0.08574497
0.18775812
0.03032173
-0.08003718
-0.02680452
-0.00141857
-0.00938545
0.00808317
-0.03230732
-0.02216444
-0.02371673
-0.03931967
-0.01497402
-0.08323190
-0.01566368
0.05534605
-0.06810295
-0.05579152
-0.02231362
-0.00732764
-0.04471326
-0.05721334
0.01115585
0.00506184
-0.00776826
-0.02811833
-0.01631574
0.02035989
0.00066963
-0.02710851
-0.02457572
-0.05669683
0.00993775
0.02373980
-0.04578819
-0.04348622
0.01569597
-0.06471887
-0.04065146
-0.06562161
-0.03178098
-0.06771091
-0.04828346
-0.05132304
0.04787488
-0.04144400
0.02518392
0.06493740
-0.02118659
-0.03597078
0.02457702
-0.04726600
-0.06586207
-0.05526665
-0.01804865
-0.04963651
-0.05372008
0.00751272
0.05332088
-0.07462706
-0.02482242
-0.01049758
-0.03652179
-0.06632593
-0.05341915
-0.02526586
-0.09650276
0.04198531
-0.04774245
-0.05369448
0.04136705
-0.03533604
-0.04876468
-0.02937351
-0.00405109
-0.04731288
0.02870783
-0.00921485
-0.00888162
-0.00671502
0.03589922
-0.00332932
0.04272345
0.03014205
-0.01208038
-0.01353530
-0.00214451
0.04540319
0.01871011
-0.00297799
0.00167643
0.01095159
0.03113544
-0.01796243
-0.05737431
-0.07321351
0.03673435
-0.01110270
0.01084268
-0.01950094
0.01234025
-0.03737649
-0.02666024
0.02397992
-0.03670222
0.06089980
-0.02038955
-0.06237607
-0.02767176
-0.07811454
-0.06049049
-0.09892333
-0.14340472
-0.09409517
-0.07447013
-0.19516185
-0.09819148
-0.03962166
-0.03366020
0.08887433
-0.01027774
-0.07646326
-0.03122886
-0.02770518
0.00004117
-0.06577614
-0.03985075
-0.02104573
-0.06501600
-0.06994709
-0.04962903
-0.02883865
0.06390074
0.03421460
-0.05944656
-0.04109136
0.04260644
-0.09694175
-0.01250922
-0.01516885
-0.09259857
-0.07541830
0.01258486
-0.05215146
-0.10016003
-0.05442524
-0.03150279
-0.10597347
-0.08176279
0.10011640
0.00432819
-0.06806719
0.02148881
-0.04341628
-0.04735490
0.05052891
-0.07229509
0.02427533
-0.01572466
-0.05110918
-0.01089273
-0.02895603
-0.04215828
-0.02912468
-0.04168198
-0.02344473
0.03464692
0.01274514
-0.09129270
-0.03772867
0.02889343
-0.06751778
-0.08447108
-0.02552025
-0.03216189
-0.01684650
-0.06944822
-0.01522087
-0.07954585
0.01923746
0.00389180
-0.05536973
-0.02645480
0.02742703
-0.10617248
-0.07014468
-0.06453572
-0.02351677
-0.03557436
0.01472906
-0.06233395
-0.06374700
-0.07865553
0.00151399
-0.04403379
0.00235461
-0.04656827
-0.09496886
-0.01075422
0.04370884
-0.06100240
-0.05688252
0.00383204
-0.00582615
0.00046453
0.03439867
0.02831167
-0.08036333
-0.00909376
0.02802138
-0.13805100
-0.11805516
-0.02214832
0.01059353
-0.06073487
0.02525764
0.00644047
-0.01172085
-0.05080803
-0.03759872
0.00731496
0.01696547
-0.00222529
0.01095640
-0.02234458
-0.00879126
0.02106673
0.01985720
-0.01672067
-0.03205248
0.01960946
-0.02370889
-0.06218950
-0.01065014
-0.08587275
-0.06772590
0.04224143
-0.07028106
-0.02438444
-0.11181217
-0.10324786
-0.07810987
-0.11200879
-0.10446690
0.02267493
-0.05531351
-0.00880578
0.02865823
-0.00995544
-0.07406761
-0.07388791
-0.06741397
-0.06988347
-0.05730902
0.02581568
-0.07869080
-0.00495064
-0.05951408
-0.07407178
0.02975062
0.01901646
0.13470852
-0.05376614
0.11445315
-0.10950964
-0.01182372
-0.02783086
-0.04629573
-0.07111994
-0.03553439
-0.01913632
-0.04944550
-0.04338119
-0.02289526
0.01137001
-0.03233670
0.00182792
-0.00258096
-0.01219972
0.03429352
-0.01468773
-0.05484562
-0.01443005
-0.00189591
0.02115759
-0.03990547
-0.02541771
-0.04368373
-0.03407205
-0.01405420
0.00870400
-0.03374607
-0.02192417
-0.02432811
0.02756596
-0.03312830
-0.00105956
-0.10550689
-0.08636414
-0.17255285
-0.08917979
-0.04373377
0.01105730
0.00417900
-0.06558589
0.08998195
-0.01865773
-0.05179287
-0.03069666
-0.01243673
-0.00698357
0.00534444
-0.06714299
-0.05328248
-0.10428496
-0.06283525
-0.10751065
-0.19221137
-0.01867316
-0.06653233
-0.05585794
-0.04631499
-0.14048563
-0.11627679
-0.03631378
-0.15234770
-0.03847325
-0.09615917
-0.06190701
-0.08351962
0.00722196
0.02952325
-0.07932722
-0.07002086
-0.12021895
-0.07964616
-0.08146989
-0.04648084
-0.07949437
0.04037305
-0.09241994
0.06856968
-0.10796893
0.09960406
0.03682815
0.01873243
-0.00190945
-0.03524704
0.01285054
-0.02963930
-0.01179154
0.02658005
-0.01041293
-0.00808760
-0.00462688
-0.03463009
-0.09178904
-0.10145351
0.06259359
-0.05464304
-0.03602261
0.00776442
-0.05562644
-0.04671243
0.00696429
-0.00483969
-0.11516476
-0.09181357
-0.00716955
-0.14483395
-0.06704269
-0.06710215
-0.08135639
0.01892106
-0.03925379
0.00619738
0.03049209
0.01345518
0.01043592
0.01935781
-0.02327706
0.00739665
0.03101031
0.04181407
-0.01335313
-0.04529704
-0.04313289
-0.01087561
-0.01114458
0.04239023
-0.02523853
0.03051615
0.00924679
-0.00411048
0.02253010
0.03350338
0.02314609
0.00224789
-0.04256209
-0.04448503
-0.08214933
-0.05586976
-0.02507846
0.04211785
-0.16354078
0.07347534
-0.06914075
-0.16103989
0.01082911
0.01646792
-0.02354238
0.02710337
-0.03566010
0.00403010
-0.00517261
-0.03264491
0.05461274
-0.02640172
-0.03233006
-0.07728276
-0.01630781
-0.00440495
-0.02185913
-0.04717289
0.01001157
-0.07085159
-0.02417595
-0.00180173
-0.01001410
-0.02990832
-0.01405760
-0.01867598
0.00755147
0.01921448
0.02055752
-0.01408715
-0.01623490
-0.02005959
-0.09413392
-0.04927645
-0.12516259
0.02824270
0.02372615
-0.13135332
-0.00185663
-0.03264738
-0.04895468
-0.01788738
-0.02746395
-0.04941830
0.00810368
-0.02519502
0.00172177
0.01595361
-0.09763457
-0.14875564
-0.06108952
0.02496133
-0.14498740
-0.04342629
-0.07048954
-0.03135404
-0.10689095
-0.00479694
0.00788432
-0.02228918
-0.04540765
0.05125587
-0.02715915
-0.01546437
-0.02851423
-0.02586384
-0.02330654
-0.03292234
0.02067926
-0.02835246
0.01262242
-0.04178945
0.02677795
0.02190471
0.00183286
-0.00952417
-0.03075132
-0.03257661
-0.03072304
-0.02507209
-0.04941749
0.02600171
-0.03360288
-0.00041354
-0.03840528
-0.07981372
-0.00640903
-0.10342275
-0.00078051
-0.01836272
-0.05388283
-0.06887093
-0.08465844
-0.02526228
-0.03770189
0.00976427
0.02563168
-0.01717212
0.00872169
-0.05497270
-0.00840853
0.00810663
-0.01394560
0.00526708
-0.01447551
0.01726325
0.03127060
0.00300044
0.02974157
0.02002215
0.02818868
-0.00902350
-0.04699495
-0.01993862
-0.11140905
0.03330946
-0.08838475
0.00933111
-0.07755806
-0.01776209
0.02281679
-0.04805982
0.00486454
-0.04284593
-0.06126523
-0.09788620
-0.03845078
-0.01069897
-0.01935770
-0.03758365
-0.04788291
-0.09180310
-0.11316022
-0.16257252
-0.14391801
-0.12489641
-0.09097309
-0.05885476
-0.04193401
0.00656208
-0.04935243
-0.06364579
-0.00309958
-0.07182402
-0.04892491
0.06015690
-0.05966164
0.01415096
0.01769252
0.03221997
0.01086518
0.02589261
0.01837800
0.01113481
-0.02031277
-0.01978919
-0.03938072
-0.02016845
-0.01484995
-0.08405602
-0.25885844
-0.01518453
-0.09255807
-0.05029176
-0.10464712
-0.09193686
0.00050979
0.00668295
0.02897210
-0.03433691
-0.07021229
0.02350986
0.00521656
-0.03005785
0.02016667
0.00626436
-0.02395092
-0.07175700
-0.08218607
-0.08055446
-0.07868316
0.00799863
-0.01043091
0.00339687
-0.03347288
0.00048683
-0.13422894
-0.04949360
-0.03648900
-0.10399437
0.00840690
-0.02199228
-0.02585481
-0.01738911
0.00068007
-0.05556874
-0.05896981
-0.00245553
-0.02126365
-0.03170776
-0.04824680
-0.02034664
-0.01450205
-0.02067758
-0.05379596
-0.04986900
0.01578481
-0.08184543
-0.04668232
-0.03022602
0.01006640
-0.00321243
0.03146033
-0.04430019
-0.00078316
0.00554555
0.01032470
0.00428189
0.02263134
-0.01984106
0.02902045
-0.00047075
0.00032523
-0.00931362
0.03221102
-0.00510364
0.00314470
0.03669328
-0.03479762
-0.04357974
0.00974387
-0.18024740
-0.09837793
-0.00472229
-0.12214003
-0.14653467
0.00169978
-0.03885952
0.00027904
-0.04336158
-0.00067788
0.02840557
0.02221100
0.02419066
-0.04566865
-0.02819909
0.04197250
-0.02877726
0.01120049
0.03087514
0.09498906
-0.09289189
0.03782668
0.04118146
0.01583975
-0.03088928
-0.03312241
-0.03638065
0.03079657
-0.05064040
0.03326008
0.00335371
-0.04503984
-0.00580810
-0.01179080
-0.02791551
-0.03358409
-0.02034420
-0.02944062
0.02361015
-0.03375269
0.00048630
0.02793720
0.00984216
0.02252172
-0.03056497
0.04408185
-0.02061416
0.02882010
-0.02658621
0.02757805
0.03038459
-0.01549571
0.02782156
0.01254683
-0.03026173
0.03197752
0.02131701
-0.03958752
-0.01320309
-0.03416542
0.02763093
0.00576305
-0.03963769
0.02964502
-0.04727329
-0.03053595
0.03573642
-0.03604604
-0.03853848
0.01603564
-0.01020052
-0.04430978
-0.04417156
-0.01887462
-0.01249485
-0.03581439
-0.01185673
-0.02919400
-0.00076981
0.02515580
-0.02336956
0.01868846
0.00188825
-0.00752294
0.00929384
0.04674120
0.03296321
-0.11067565
-0.07983079
-0.12207973
-0.09321755
0.01620596
-0.16563453
-0.12544106
-0.15855077
-0.13435569
-0.13148671
-0.02527236
-0.04075883
-0.14373140
-0.02274401
-0.05815518
0.00144295
0.00796256
-0.11630030
0.02900542
-0.04655235
-0.04610498
-0.03243087
-0.01096668
0.00483175
-0.00103486
-0.02046708
0.00589572
0.03463496
-0.01591921
0.00816942
-0.01576418
-0.04279771
-0.00067267
0.01237625
0.02469510
-0.03750231
-0.04036533
-0.04394513
0.01009207
0.02274894
-0.00761477
-0.01374539
-0.00779188
0.00783579
0.03319824
0.03522184
-0.04445553
0.00563494
-0.00790942
0.00893605
-0.01584671
0.00491836
0.00784084
0.00864002
0.04702051
-0.04534752
0.02671521
-0.02664768
0.03166302
-0.02764059
-0.01818451
-0.00801303
0.01119607
0.01195392
-0.04761783
-0.07255667
0.02457992
-0.05101594
-0.10151684
-0.07768340
-0.13065094
-0.03366363
-0.03627593
-0.03382033
-0.02681801
0.00569897
-0.00789608
-0.03338545
-0.01323866
-0.02342202
-0.04643751
0.02432910
-0.02476666
-0.03731919
-0.01964861
-0.03812906
-0.00600496
0.05972955
-0.03862628
-0.02222457
0.00615299
-0.01602968
-0.03452689
0.01568259
-0.06007507
0.02071322
-0.03012036
-0.06788278
0.01245829
0.00599626
-0.02129532
-0.04353023
0.02534221
-0.06168998
-0.03610138
0.08171093
0.03783336
-0.03126125
-0.10649556
-0.09467578
-0.15492018
-0.03204318
-0.05369646
-0.10841025
-0.09399489
-0.00690874
-0.16289943
-0.06452513
-0.01628729
-0.07626048
-0.02711706
-0.04920588
0.02421011
-0.02783059
-0.08650953
-0.04633243
-0.05070008
0.00073460
-0.01753430
-0.07304826
-0.01971689
-0.02807815
-0.01388614
-0.02713683
-0.01237574
-0.01903936
-0.02322232
0.00750200
-0.02401160
-0.01499199
-0.05204300
0.00989361
-0.03987388
0.02790543
0.02023099
-0.03969504
-0.01139912
0.00650006
-0.02658871
0.01513288
0.00418590
-0.03976588
-0.01919056
0.01117288
-0.03424777
0.02970911
0.02330641
0.02745043
0.02200858
-0.02417614
-0.02935742
0.00624905
0.02035552
-0.02829941
-0.01130556
0.02794469
-0.03845220
-0.02284028
-0.02399499
0.01464901
-0.00209798
-0.04895779
-0.00389880
-0.02688603
-0.02033599
0.01243603
-0.03670540
-0.02985419
-0.00490248
-0.04207214
-0.01319828
0.01143436
0.03301855
-0.05075521
-0.05269423
0.00073917
-0.10725962
-0.04461623
-0.04625623
-0.05994428
-0.04816175
0.00552468
-0.02658283
-0.06314044
-0.05507216
-0.10330462
-0.00505258
-0.05223922
-0.00422241
0.01783099
0.00832808
-0.02696698
0.00603731
-0.02927829
0.00031613
0.03603728
-0.01252883
-0.02805501
0.01016798
-0.02231981
-0.01569681
-0.03207829
-0.02176522
-0.14705361
-0.01755545
-0.04503398
0.00506890
-0.06719062
0.01588891
-0.09513187
-0.03354333
-0.08640438
0.03541182
-0.11992896
0.02291447
-0.07937170
-0.05354835
-0.00587914
-0.00665166
-0.10494039
-0.02778139
-0.09327731
-0.10837840
-0.05404635
0.00971084
0.00951318
-0.02996560
0.01492793
-0.06145433
-0.04103417
-0.00532797
-0.01831826
-0.01768094
0.01549027
-0.00227918
-0.02174209
0.04616628
-0.04453779
-0.03128785
-0.09657737
-0.10595784
-0.15200505
-0.01446408
-0.03515397
-0.03385082
-0.07629361
-0.03721493
-0.03780697
0.02829806
0.08072346
-0.01964994
0.02173122
0.01842038
-0.03819476
-0.02210011
0.03511001
0.03132771
0.00624145
-0.01363161
0.01953961
-0.03894437
-0.04006186
0.01239859
-0.05584143
-0.00363882
-0.07540208
-0.02768744
0.00452977
-0.03343644
0.03403655
-0.03296356
0.02703981
-0.00444392
0.01489286
0.00644389
-0.00268923
0.00206158
0.03297801
0.00339967
-0.02778353
-0.04673936
-0.10467428
-0.06481463
-0.05619646
-0.00329655
-0.05774572
-0.01385737
-0.02105031
-0.00066938
-0.02957938
-0.01302347
-0.03389378
-0.02136095
-0.02071242
-0.02531877
-0.00728692
0.03309722
-0.00945944
0.01877890
-0.00412792
0.01574349
-0.09814933
0.01458294
0.02204755
-0.03433394
0.02788285
0.00299459
0.00867212
0.04019553
0.01460695
-0.00467185
-0.01968671
0.01555713
-0.01722174
-0.01232282
-0.02783407
-0.00113577
-0.03001618
0.00208561
-0.04471307
0.03518975
0.00286901
0.02761679
-0.02814911
-0.02693834
-0.00402003
-0.07772714
-0.06710372
-0.13441220
0.01267201
0.00756861
-0.03437560
-0.03991642
-0.04128552
-0.00251640
0.00978348
0.01344998
0.02310908
-0.01638488
0.02532583
-0.02752759
-0.04632227
-0.04363680
0.00520562
0.02699736
-0.10712258
-0.05430612
-0.08052942
-0.02114936
0.02278566
-0.04023482
0.00944996
0.00164580
0.00909624
-0.03007850
0.00393036
0.00054089
0.01138663
-0.01018490
0.01800755
-0.04538264
-0.04282042
0.03412477
0.03334653
0.02453208
-0.04785675
0.00415211
-0.00144470
-0.03805970
-0.02743923
-0.03533422
-0.04785166
-0.00371642
-0.05298621
0.04947093
0.00386533
-0.00816919
0.04149880
0.03785307
-0.03302732
-0.01816062
0.01870320
0.00777791
0.02376982
-0.03820171
0.03285783
-0.01764364
0.01589969
0.01338040
-0.00819903
0.01364812
-0.00871765
-0.01632377
-0.01686753
0.00241795
0.00431942
-0.03443718
0.00184997
0.01277233
-0.08669861
0.06619964
0.00070410
-0.09104913
0.02941568
0.00097794
0.01820122
0.02455954
0.02626960
-0.01021669
0.00982743
-0.02090951
0.01843944
-0.03011662
-0.05243274
-0.16250113
-0.03593580
-0.07602332
-0.15907137
-0.03820249
-0.12109382
-0.11436769
-0.04302557
0.02413460
0.00047636
0.04628355
0.02528744
-0.03689449
-0.00482197
0.00034965
-0.01039744
0.00100710
-0.03826480
-0.00348631
-0.01835361
-0.01723507
-0.01128174
0.01297695
0.00513553
0.05683320
-0.01947774
0.00535079
-0.01874872
-0.00715338
0.01801192
0.00295446
-0.03960017
0.02653840
0.01685795
0.02099794
0.01432200
-0.02795302
-0.03640060
0.04339983
0.04792206
-0.01638781
-0.01683025
-0.06003153
0.01978008
-0.02586588
-0.07286357
-0.05371218
-0.16586657
-0.02724956
-0.14899135
0.04057615
-0.10693207
-0.09639710
-0.02830296
0.02553523
-0.02834686
0.01972868
-0.03425330
-0.02912625
-0.04483271
-0.05436677
0.03293963
-0.08552199
-0.07909558
-0.05339140
-0.10602830
-0.16152413
-0.08053429
-0.08281728
-0.06578895
-0.03938492
-0.13027444
-0.06865346
-0.04479614
-0.03588003
-0.02877574
-0.05817006
0.04619078
-0.03384920
-0.14538543
-0.01709358
0.00224447
0.02455826
0.02034906
0.00204885
0.03295411
0.01373025
-0.03218604
0.01322015
0.03137663
-0.04363707
-0.03291076
-0.00119498
-0.00232883
-0.03276343
-0.00835626
-0.01489503
-0.04396671
0.01112111
0.01916610
-0.01910833
-0.05258956
-0.02926765
-0.03140847
-0.04777972
0.00729766
-0.03522424
-0.08208428
-0.06175733
-0.01913053
-0.00645591
0.04556486
-0.05423142
0.00724132
-0.01980943
-0.06044041
0.01409117
-0.01557114
-0.07161327
-0.03611783
-0.12988363
-0.04741457
-0.02645066
-0.15663220
-0.04865663
-0.02830036
-0.03829555
-0.00747953
-0.09788503
-0.00233245
-0.01496680
-0.05470978
-0.01823004
-0.12680785
0.02414631
-0.04362157
-0.01189762
-0.09462433
-0.00775200
0.01678776
-0.05389933
-0.03917477
-0.03568862
-0.01737098
-0.08253770
-0.08729067
-0.10926136
-0.04150571
0.02446931
-0.07023387
-0.13076167
-0.04615805
-0.04554417
-0.01886381
-0.01944774
0.03203797
-0.05463258
-0.03815992
0.01363975
-0.05138251
-0.03146033
0.03190965
-0.01833831
0.02612952
0.00122148
-0.01141015
-0.04768512
-0.02247714
0.00474142
-0.01950165
-0.02390618
-0.00102152
-0.01318678
-0.04281208
0.05981907
0.02251973
0.01158253
-0.01272092
-0.02987588
-0.02997381
-0.00727165
0.00459639
-0.03475629
-0.00233330
-0.03417636
-0.03278000
-0.00473662
-0.00828110
-0.04196073
-0.00392061
0.00550272
-0.05926758
-0.15075359
-0.09259617
-0.00540761
-0.10271483
-0.03185070
-0.01196993
-0.04663216
-0.03127325
0.01046130
0.02670646
0.00545052
-0.09515497
-0.03532349
0.01787668
-0.03422535
-0.03128235
0.02482579
-0.01651185
-0.03726692
-0.05824431
-0.07832649
-0.09402569
-0.12184635
-0.00748854
0.02153007
-0.01833489
-0.05062531
0.00831295
0.02445572
-0.02525321
-0.02220427
-0.01518660
-0.00234349
-0.00973100
0.01721282
0.01256208
-0.03374983
-0.01142652
-0.03363622
0.01996228
0.00273254
0.00426257
0.00829603
-0.00665013
-0.01102021
-0.10253783
0.01804706
-0.04404198
-0.11221775
-0.06228140
-0.03557323
-0.05153827
0.00723071
0.03159310
-0.02556649
-0.00959991
0.11877242
-0.08202936
-0.06808628
-0.01106282
-0.03236825
0.05654277
-0.04743354
0.04594057
-0.08577288
0.05724604
-0.12864149
-0.04784784
-0.29338825
-0.36149454
0.02401804
-0.16271980
-0.08111928
-0.01314615
0.01389909
-0.17204732
-0.05791893
-0.13155377
-0.28043565
-0.07764085
-0.04481388
-0.10516730
0.26638439
0.11474988
-0.07220454
0.15910077
-0.39442736
-0.07177522
-0.15568966
-0.36902940
-0.28933293
-0.13442869
-0.21130127
-0.24984847
-0.00566811
0.00574593
-0.09577007
-0.01270060
0.01333628
-0.02369443
0.04976609
0.01987866
-0.00056687
0.00941123
-0.03378098
0.08735055
-0.02118963
-0.12358774
0.07195237
-0.16669706
-0.07882355
-0.10460432
-0.15186301
-0.20797919
-0.07817309
-0.04230862
-0.02496004
-0.37169200
-0.06515352
-0.28312588
-0.30518538
0.15098563
-0.02851463
0.11414082
0.01427715
0.10352162
-0.16832733
-0.07820163
-0.01211078
-0.03978662
0.24661984
-0.18044221
0.02241713
-0.15683733
-0.10752637
-0.01196199
-0.11480187
0.01841300
0.02986988
-0.13986970
-0.00125404
0.20456208
-0.09576879
0.07999002
-0.07484704
-0.01134592
0.10979532
-0.13546565
-0.13267119
0.19133069
-0.06081367
0.12352537
0.00134543
-0.17706454
-0.17305258
0.02914919
-0.09936480
0.03829531
0.02918872
-0.00563605
-0.01218056
0.02533503
0.05056304
0.04506603
0.02128934
0.01608679
-0.00108271
0.01646783
0.03984259
-0.03938600
-0.00170667
0.08045053
-0.08246018
0.03437850
0.14998184
0.05474801
-0.03997852
0.19660559
0.10086611
0.00383614
-0.07438806
0.05909014
-0.17565675
0.06847629
0.19147737
-0.00505895
-0.09297923
0.06882974
-0.03076492
-0.08064181
-0.10435959
0.17013766
-0.24695750
-0.07506172
-0.03616661
0.04107023
-0.03995996
-0.02302679
-0.03835396
-0.00515429
-0.04384658
-0.01055363
0.00415061
0.03573803
-0.02710238
-0.02537739
-0.00115966
0.03809536
0.01889755
-0.01424218
0.00442833
0.02673801
0.06178246
-0.16116627
0.04296763
-0.15984432
-0.13730581
0.02591153
0.10604040
0.11645416
0.11801203
-0.03475449
-0.25528306
0.00863687
-0.14828612
-0.07987855
-0.12876622
0.13454585
-0.20547882
-0.06943723
-0.05382775
-0.21841091
0.02043258
-0.23500626
-0.03613743
-0.05460517
0.02377408
0.21132919
0.07474128
-0.14212775
-0.17468815
0.03535592
-0.22547655
0.11850582
0.10427883
0.03201409
0.12322497
0.05698846
-0.04406660
-0.15426971
-0.03130999
-0.05667722
-0.09910023
-0.15737259
-0.11885030
-0.12856494
-0.18172854
0.15901406
0.10704556
0.00813025
0.12341415
-0.07592818
-0.20518345
-0.01235675
0.04648739
-0.16535117
0.12005855
-0.27531582
-0.02422113
-0.03941054
-0.14998338
-0.17012416
-0.00916386
0.03629314
-0.06150811
-0.03131003
0.24951611
-0.03586956
0.05215643
0.25363457
-0.17745203
0.08614349
-0.20348921
-0.00618345
0.02713664
-0.01173477
0.01555082
0.04968214
0.01071114
-0.01751419
-0.02807749
0.03220936
0.01681608
0.03573882
0.00274652
-0.01610146
0.01669010
-0.03508649
-0.05655846
-0.02236248
0.03134263
-0.04406207
-0.08930459
-0.04075306
-0.12234321
-0.12244016
-0.04475494
-0.20849709
0.07413182
-0.21061800
-0.01287401
-0.00128572
-0.05401988
-0.09226207
0.02229298
0.03059255
-0.06473859
0.03035192
-0.15641059
-0.16509859
-0.03266640
0.02650549
0.02969187
-0.00239002
-0.01488540
-0.04041837
0.03239953
0.00123173
0.03304457
0.01799616
-0.16920100
0.06776901
0.00622785
-0.00163438
-0.07082338
0.03076538
-0.19930254
0.10653555
-0.01989922
-0.18721645
-0.15806821
0.16649477
0.01703483
0.03445093
0.05438720
0.16942452
0.33208749
0.03260688
-0.19118212
-0.15256625
-0.04031002
-0.12955967
-0.01223521
0.07911401
0.00223953
0.00537376
0.08726174
-0.11809888
-0.07230636
0.18851534
-0.03234296
0.02744479
-0.02368061
-0.29388011
0.16007346
0.02380569
-0.00643420
0.05330562
0.00647166
0.00432188
0.00979536
0.00038460
0.01056590
0.01633509
0.05066690
-0.06496228
0.06465499
-0.16287358
-0.05885614
0.11608014
0.03745662
-0.05618975
0.00608427
0.04790952
-0.08963557
-0.00125385
0.10002140
-0.13455749
0.10955434
0.16689236
0.08227266
0.16945547
0.05694008
-0.15528934
0.16433208
-0.17822281
-0.13966097
0.12768584
-0.02008615
-0.01307692
0.16307862
-0.44532216
-0.52820826
-0.04162792
-0.26747879
-0.20807452
-0.02755682
-0.10272808
-0.13392060
-0.01309943
0.07327797
0.01428666
0.02819802
-0.16886285
0.15142368
0.10845526
-0.01923026
-0.06944170
-0.09188370
-0.13831240
-0.01436954
-0.18625022
0.07052708
-0.18076974
-0.34316155
0.17755328
-0.28660843
-0.03185219
0.04634514
-0.00211600
-0.01537671
-0.02692480
-0.01417775
-0.03504349
0.04996464
0.04225732
-0.02197053
0.03121465
-0.01228954
-0.02308810
0.05059556
-0.02909276
0.02897213
-0.03197617
0.00945033
0.01770515
-0.06769093
-0.06701737
-0.08303770
0.09052794
0.14463159
-0.03302776
0.02631509
-0.06087525
0.12739272
0.12960549
0.06305920
0.07115484
-0.14539492
-0.21618024
-0.09944492
-0.00501317
-0.09122590
0.04545870
-0.00730544
-0.02260153
0.02740000
-0.00401990
-0.02635502
0.03188304
0.05501211
0.03790499
-0.09339899
0.06896998
-0.24498774
-0.07302387
-0.03121714
0.00763233
-0.05025827
-0.03943737
0.05158745
0.07788446
-0.00853377
-0.02181456
0.02774099
0.04025679
0.04060531
-0.02175480
-0.00584632
0.01132652
0.03722066
0.07432859
-0.05808213
-0.06701478
0.04780466
-0.09824134
-0.08131201
-0.02067135
-0.17861053
-0.08950773
-0.15151793
0.12141893
-0.04168961
-0.07325452
-0.05009525
-0.23720509
0.15415291
-0.00197455
-0.20399432
0.13569924
0.14945067
0.13609354
-0.04407886
0.01769766
0.22334668
-0.07188219
0.08473448
0.16534109
-0.11172482
-0.07722097
-0.18818195
0.10227193
-0.09808911
0.09928034
0.00292055
0.09647880
-0.01025360
0.02120310
-0.03647540
0.04677089
-0.28824803
-0.30962133
0.05193040
0.00282229
0.09845626
0.04378046
0.05070755
0.21901059
0.19007204
0.01770248
0.15013286
0.10274529
0.06496527
-0.13159621
0.12193782
0.10755224
-0.05300731
0.06451026
-0.08439291
0.05628666
0.06823479
-0.00659242
0.12868531
0.01558090
0.03589923
0.02231406
0.04399564
-0.00192008
-0.01877792
-0.01562088
-0.02501641
-0.01831360
-0.04897255
-0.03264799
0.00178977
0.02813367
-0.00454897
0.02504420
-0.00301120
-0.03334196
-0.05119664
-0.03409547
-0.02510563
-0.03747321
-0.00363459
0.03568297
-0.00107058
0.02586007
-0.12749012
-0.04661509
-0.03985708
0.03446664
0.03979690
0.03196559
-0.01123326
0.00605017
0.03621654
0.01721103
0.01946612
0.02385693
-0.01944801
-0.01316342
-0.00593296
-0.20497212
-0.12970050
0.00004209
-0.10142388
0.04047158
-0.10827108
0.03560131
0.10907355
-0.02550222
-0.08351176
-0.20981953
-0.01344813
-0.12827316
0.10448321
0.06953048
-0.02009822
-0.04089621
-0.00797942
-0.02105522
0.00982805
0.01983192
-0.04246075
0.00458059
-0.05237091
-0.06854185
-0.02231856
0.14193317
0.07251827
-0.08338844
0.06487744
0.21556047
-0.01573488
0.04436738
0.07301909
-0.12963353
-0.05664351
-0.07883625
0.08566871
-0.15796953
0.11591180
0.11673363
0.09418593
0.10414962
0.17560932
0.08838314
-0.16076848
-0.33386421
-0.29253602
-0.16134281
0.00657884
0.02684380
0.06657147
0.05006440
0.21147615
-0.00730259
0.16002938
0.11931697
0.00937949
0.19810544
0.03793391
-0.11362907
-0.18347962
-0.10474643
0.08654241
-0.01452599
-0.08998329
0.13269833
-0.05341554
-0.03020166
0.05090009
-0.04950713
-0.14590876
-0.05932591
-0.18891847
-0.00038128
0.06359400
-0.08028283
-0.26510906
0.05398151
0.08615833
0.00627592
0.05023753
-0.27923197
0.01567671
-0.00261200
-0.13353272
-0.03063962
-0.03298686
0.00289305
-0.04312377
-0.02325677
0.00399037
0.01444066
-0.03370453
-0.05071203
-0.08832719
0.01774093
0.11460014
-0.06834845
-0.05148211
0.15772647
-0.01753687
0.07204314
-0.05530642
-0.34119600
0.01117065
-0.10317881
0.13028266
-0.20289560
-0.12490734
0.05518716
0.06169022
-0.07862961
0.27125195
-0.03234735
0.18304686
-0.17718571
-0.02396587
0.14867163
-0.19517142
0.04335469
-0.01276745
-0.13187951
-0.16448772
-0.02123542
-0.11191267
-0.12995398
0.00249534
0.11486474
0.20636056
-0.15875092
-0.05915368
-0.01388334
0.00962783
-0.10317418
0.03197268
-0.14437954
-0.04903659
-0.02759738
-0.05654445
0.03082233
0.04447825
0.00546347
-0.00349746
0.01612313
0.03965279
0.04391811
0.01591844
-0.10482653
-0.04858821
0.06194157
0.03281172
-0.07267325
-0.14421269
-0.04044948
-0.07329448
0.00868887
0.01452037
0.01911272
0.03917052
-0.11343370
-0.11715713
0.25072306
-0.25585315
0.17646776
0.02173059
-0.08918157
0.12681520
0.09790629
0.16931945
0.10566855
0.01161602
-0.05772301
-0.11407095
-0.10831609
-0.01336805
-0.01734040
-0.02148172
-0.05467919
-0.13592243
-0.23878011
0.19155335
-0.17594521
0.00063550
0.13953553
0.06970077
-0.07243345
-0.05872474
0.17591886
-0.05553335
0.11934112
0.02761103
0.15254390
0.01577440
-0.01812099
0.31752759
0.02417169
0.04844308
0.09501741
0.04494552
-0.01867458
-0.07140139
0.00631423
-0.01016034
0.03273014
-0.01428051
0.01468982
-0.00361752
0.00170767
0.00453696
-0.00345613
-0.00106695
0.03335276
0.24241172
-0.00097757
0.13574304
0.05327972
-0.14157203
0.02465002
0.03221597
0.05843545
0.02482524
-0.02599099
-0.03906190
0.03611951
0.00820824
-0.04403644
0.00058239
-0.00712212
-0.02144862
0.02454455
0.13429293
-0.05579724
0.04876425
-0.05236920
-0.00738429
-0.36739284
-0.12437354
-0.20425047
0.05884565
0.00094132
-0.03495524
-0.01846989
-0.03389899
0.00151082
-0.06739265
0.04553426
0.01565839
0.04887380
-0.00952827
-0.04276717
-0.06796066
-0.05492422
0.01626164
-0.22590014
0.03589758
-0.05691859
-0.04290353
-0.02907180
-0.14189030
-0.10478742
0.03876271
-0.19380805
-0.25272176
0.01587929
-0.18576260
-0.14585495
0.24120072
0.08407575
0.23657364
-0.01939455
-0.02954379
-0.05143175
0.04823191
0.05778269
0.12633802
0.27861774
-0.01070559
-0.02842849
-0.00829290
-0.05635244
-0.05890905
0.05369455
0.04604559
0.07483497
0.04825124
0.03198585
0.00177739
0.01606159
-0.01743142
0.02714425
0.02203199
-0.03568922
0.08247773
0.03340312
0.01672173
0.01375663
0.02299788
-0.07021714
-0.11308061
0.06389309
0.09542991
-0.11910003
-0.11907329
0.00870118
0.01417132
-0.15293613
-0.14197659
0.02705217
-0.12620983
-0.03760585
0.07508957
0.00446129
-0.01511535
0.03687273
0.00078494
0.00891101
0.03295653
-0.00426562
0.03811521
0.00943599
0.07949572
-0.16078918
-0.02343193
0.11492504
-0.08966194
0.11045156
-0.07578218
-0.02010435
0.11109280
0.04076633
0.01948060
-0.01671050
-0.02631369
-0.03128960
-0.01485001
0.00348643
0.00116816
0.06193279
0.04966874
0.01327410
-0.01601112
-0.02473077
0.02396291
-0.02898201
-0.01386342
-0.00045253
-0.02033789
-0.12208774
-0.32158628
-0.33076319
-0.27770373
-0.09933724
0.09507947
0.06265539
-0.03698647
-0.11681201
-0.05336603
-0.01414590
0.00894681
0.01792929
-0.02432969
-0.04190452
0.00419036
0.03978113
0.03962235
0.03628477
0.03706349
0.01074540
0.03525237
-0.07948760
0.08162795
-0.17716116
-0.07076344
-0.00491556
-0.01886762
-0.00441051
-0.00935447
0.02798443
-0.04798013
-0.01897799
-0.02306859
0.00259483
0.00712219
0.07970954
0.15690699
-0.18576238
0.16859250
0.15883557
-0.17548940
0.09485057
-0.14484999
0.15340076
0.01837098
-0.03512254
0.00757790
-0.03302645
-0.00460412
-0.00671563
-0.03676128
-0.02750064
-0.03135021
0.04427072
0.04276137
-0.03464789
0.03344654
0.05691516
0.17423074
0.09790262
-0.12651211
-0.09056093
0.03922902
-0.10275993
-0.20839508
-0.07195558
-0.16960524
-0.42153245
-0.05481379
-0.02090558
-0.21122548
-0.04201009
-0.10122968
-0.04130883
-0.23092782
-0.20381215
0.14405711
-0.00368822
-0.09128155
0.06494201
0.02445477
0.08644722
0.07034713
0.10394099
0.14380161
0.07758288
0.10806499
-0.00945918
-0.11071496
0.08066307
0.00820090
-0.03638364
-0.05768792
-0.06250530
-0.00466235
-0.01761258
0.03010856
0.04039163
0.13597836
-0.04337548
0.02325394
-0.06240280
-0.02134982
0.05314651
-0.04486925
0.05897371
0.05626505
0.00948681
-0.02371619
0.01179116
0.00794844
0.01502534
-0.03529277
0.02182643
0.07184343
-0.00295466
-0.01723628
0.23545045
-0.16566010
0.01078542
0.11583587
-0.19454959
0.01709153
-0.00692743
-0.01934010
-0.02971333
-0.03921752
0.06370040
0.02512519
-0.03419112
0.09210940
0.15675893
-0.04969985
0.14969166
-0.00345658
-0.12655017
-0.07936335
-0.10109264
-0.16705652
-0.09625977
0.00763403
-0.10356975
-0.20317787
-0.13345055
-0.28252149
-0.22945836
-0.18140869
-0.25727057
-0.05494370
-0.14742468
-0.07837637
0.21160313
0.07565862
0.20640571
0.04026579
0.07618870
0.03613782
-0.18827200
0.05126894
-0.06549752
-0.07270586
-0.03912986
0.06002824
-0.00168272
0.03045155
0.02713686
-0.09519008
-0.02256054
-0.19239797
-0.06790857
-0.08292405
0.00049688
-0.31509396
-0.11904263
0.00269890
-0.01846872
-0.06517659
0.02075159
0.14479122
0.00410474
-0.00787328
0.02053006
0.01590466
-0.05395497
0.03765456
0.02474013
-0.00812687
0.03102102
-0.01596783
-0.03943902
-0.12495387
0.03984972
-0.22593693
0.21083866
-0.02402543
-0.14427336
0.21492538
-0.14400940
0.06430690
0.08581372
0.02235699
0.10990999
0.11830794
0.26404247
0.01971608
-0.08543941
0.02839161
0.14200062
-0.08609213
-0.04504686
0.02953948
-0.10904895
0.12010897
0.11395882
-0.01470158
0.01554489
-0.06776185
-0.11198956
-0.04600786
-0.01784812
0.13329163
-0.06932388
-0.00448936
0.00627765
0.01495971
0.29417482
-0.07615376
0.03806589
-0.02266322
0.21814518
-0.03956312
-0.06413078
-0.04445815
-0.09863207
-0.01509359
-0.13540883
-0.06308240
-0.26901367
0.05896074
-0.00413705
0.00032758
0.05252808
0.03069660
0.01415781
0.09643359
0.06647648
0.06704103
0.09562770
0.04549222
0.05921253
0.05316187
0.01851259
-0.03961657
0.10213841
-0.15425843
-0.17139907
0.13712639
-0.09534878
0.07971393
0.12925096
0.03571490
-0.08066114
0.05859590
-0.09299083
-0.09197594
0.08172025
-0.23263173
-0.02257901
0.15430783
-0.15431057
-0.15541638
-0.25364655
0.03565712
-0.08434247
-0.00778211
-0.02379878
0.02016018
-0.04945271
0.03548164
-0.00424758
-0.04538324
0.01922862
0.06683241
0.01598972
0.07925890
-0.01748815
-0.00015896
-0.03601856
0.02343697
-0.07147708
-0.01185169
0.03396160
0.00518053
-0.04679946
-0.04939501
0.00257635
0.00860349
0.02009244
-0.02572527
-0.03052247
-0.05278819
0.03420384
-0.06318789
0.01628074
-0.00339630
-0.06581733
-0.00270696
0.00509426
0.03597898
-0.05494132
-0.02597252
-0.01484625
-0.05834392
0.00391052
-0.03470767
-0.02547451
-0.08919813
0.01345089
-0.01882475
0.01024156
0.00957012
-0.07924727
-0.02692444
-0.01683211
-0.06366183
-0.05668372
0.03944042
-0.00111416
-0.01278339
0.09697071
-0.10524446
0.00100816
-0.01268916
-0.06067437
-0.01501007
0.02265782
-0.10421026
-0.02688220
-0.00902145
0.00664894
0.03995473
-0.02002474
-0.05697694
-0.01123736
-0.02465756
-0.09180277
-0.00869109
-0.00757580
-0.00395756
-0.08083215
-0.02310307
0.01931777
-0.08437053
0.05253156
-0.04760121
-0.07289866
-0.10200451
-0.11542038
-0.11213506
0.06078269
-0.04108403
-0.02735503
0.03857337
0.01963870
0.01056997
-0.08554813
-0.04009669
-0.08879025
-0.00926361
-0.00633091
-0.01381184
-0.02793039
-0.04392222
0.01421846
0.02298534
0.00856043
-0.01990056
0.02625154
-0.03637343
0.01301469
-0.04786070
-0.02407830
0.00030868
-0.00193859
-0.01007543
-0.08092492
-0.07524402
-0.05049647
0.00826299
0.00748803
-0.00194318
-0.05767215
-0.02257778
-0.00907331
-0.05011563
0.01918144
-0.04299726
-0.01298417
0.03530154
-0.04458802
-0.05832475
-0.07147393
0.00586500
-0.05925453
0.00749462
0.02619864
0.02027386
0.00293354
-0.01805496
0.01399045
0.01173399
0.03517714
-0.01267150
-0.01743246
-0.01968060
-0.02994040
-0.03053436
0.03081675
-0.00143826
0.03258770
-0.00521132
0.00475413
-0.00432627
0.00430975
-0.00691374
-0.01520510
-0.01013007
-0.03189780
-0.08286066
-0.07085326
-0.02565281
-0.02639345
0.03446263
-0.01318503
0.02561877
-0.04330698
-0.06218285
-0.01588450
-0.02972252
-0.09271743
-0.00882712
0.00212648
-0.04691473
-0.07881645
-0.05230040
-0.01388550
-0.04669069
-0.06151707
-0.02661292
-0.00505842
-0.03686054
0.00438414
-0.04924672
-0.03002646
0.00031700
-0.00007788
-0.04203378
-0.10303693
0.02230944
0.00264952
-0.04625457
-0.05374021
0.04464055
-0.00795042
-0.01419662
-0.03183280
-0.03790842
0.03565459
-0.01756306
-0.03729793
-0.01104344
-0.05631927
-0.04687860
-0.03572189
-0.05263052
0.00202223
-0.08709101
-0.02670749
-0.01936561
-0.05592384
-0.02524034
-0.08970953
0.01597881
-0.02416541
-0.04312975
-0.09112807
-0.03649700
-0.02616615
-0.07599138
0.04269876
-0.06980426
-0.00012817
-0.04595349
-0.03450747
-0.03346797
0.00826543
-0.02070910
-0.04225175
0.02464842
0.01072372
-0.01942903
-0.03253819
0.02873605
0.01256165
0.00977818
-0.02635277
-0.02561370
-0.01930278
-0.04507536
0.01083887
0.00980175
0.02627520
0.02788318
-0.07501088
-0.03821770
0.05571813
0.03652342
-0.03815705
0.02269245
0.01188730
0.07143470
-0.02502806
0.00346548
-0.06293811
0.00934836
-0.06089563
-0.05667208
0.06080234
-0.06636087
-0.00157491
0.01372017
0.01892724
-0.03155271
0.03151128
-0.01694876
-0.00190690
-0.00183071
-0.03453812
0.01012430
-0.01769319
-0.00732738
0.05600594
0.01234210
-0.00127893
0.04097147
-0.03902682
0.02193924
-0.00007994
0.03566727
-0.07397404
-0.01004370
-0.02434660
-0.05395737
0.00773170
-0.07038990
-0.08661424
-0.00640022
-0.05589895
0.07500475
0.02974731
-0.00477074
0.04768586
-0.03192242
-0.02103662
-0.05314024
-0.10800643
0.02262868
0.00393214
-0.01725233
-0.07650709
0.00608884
0.04525253
-0.05087857
0.00261918
0.03748571
-0.04144438
0.01163178
-0.03190908
-0.03337790
-0.03799783
-0.02411962
-0.00615090
-0.04073930
-0.04405761
-0.08315895
-0.00683169
-0.07398356
0.02348012
-0.05734015
0.01602406
-0.09717884
-0.02931144
-0.04260416
-0.01850929
-0.08789984
0.00242010
-0.01953730
-0.04235281
-0.07629628
0.04588943
0.06893775
-0.00977131
-0.04943653
-0.04018232
0.01287022
0.01372656
0.03389033
0.03215789
-0.06744769
0.01999378
-0.04375271
-0.01807897
-0.05841479
-0.04867241
-0.08735506
-0.03441606
-0.05979500
-0.03126729
-0.02976029
-0.07217613
-0.00676488
0.02486343
-0.00154742
-0.04510150
-0.00375177
-0.01237614
0.04418381
0.01464283
-0.07069151
-0.05324630
-0.02858757
-0.04680306
0.05723791
-0.06342787
-0.09801264
-0.00494171
-0.12335981
-0.05331414
0.02585810
-0.04858778
-0.03851606
0.02436437
0.01581888
-0.04030914
0.02829930
-0.03724719
0.02558218
0.00264763
0.02906191
-0.03543142
-0.01408762
0.01235422
0.03340762
-0.03136339
0.00848573
0.02926171
-0.04825760
-0.02136710
-0.00966959
-0.06296143
0.04391593
-0.02461044
-0.04427940
0.00107618
-0.04721466
-0.03821353
0.05077959
-0.02485816
-0.01126434
-0.05466923
-0.00082272
-0.08545112
-0.07228778
-0.09929463
-0.05851215
-0.02485186
0.04085300
0.01786358
-0.04826585
-0.00463613
0.01600853
-0.03176091
0.00449552
-0.04507513
0.04116989
-0.01316648
0.01296169
0.04611216
-0.00582492
-0.04995621
0.08365759
-0.06420206
0.02766621
-0.01373757
0.00975100
-0.02740661
-0.03819120
-0.03077388
0.00953327
0.00741102
-0.04504717
0.04086939
-0.04103469
0.02263134
-0.03053219
-0.03130406
0.00831204
0.02308629
-0.04849596
-0.01458530
-0.05793682
-0.01080523
-0.02616959
-0.02777775
0.00088699
0.01560207
0.04428097
0.03368402
0.00140499
-0.06574167
-0.07303882
-0.00031344
-0.02294293
-0.05189861
-0.05343413
-0.07184799
-0.05090710
-0.10048395
-0.03024932
-0.02882334
0.00210990
-0.02878980
-0.03576580
-0.02874650
-0.00869074
0.00327523
-0.00814933
-0.01360849
-0.03941625
-0.04349250
-0.10179389
-0.02528171
0.04559083
-0.01461553
-0.03077893
-0.02048062
0.00227005
-0.05808717
-0.03285782
0.05071482
-0.02949633
-0.06423502
-0.04950580
-0.12161495
-0.14274661
-0.02421264
-0.07450496
-0.07748511
-0.01019929
-0.05284354
-0.00885814
0.01597728
0.02496077
-0.10741749
0.00980546
0.00625192
0.00896347
0.02330218
-0.01892594
0.02767820
0.02709494
-0.03803915
0.01390569
-0.00121175
-0.02172225
-0.01589294
-0.00696652
-0.03239822
0.02124447
-0.00213898
-0.02206655
0.03501921
0.01768692
-0.02383279
0.02611672
0.00325309
0.01368592
-0.01306704
-0.04523410
0.01004809
-0.01821430
-0.04547087
-0.03281028
0.03054052
0.01958929
-0.01444766
0.01108035
-0.00115120
0.00658902
0.00318700
-0.07478274
-0.00603209
0.01878228
-0.02659303
0.03646244
-0.02762902
-0.02966221
-0.04209536
-0.02358561
-0.03542368
0.03580461
-0.04958579
-0.00778421
-0.02064168
-0.01582062
-0.08885089
0.02541233
-0.01006909
-0.02224579
0.01540307
0.02996930
0.01475741
-0.02224819
-0.04140919
0.02007044
-0.03421907
-0.03503952
0.02959923
0.02017752
0.02551956
-0.00950496
0.03899689
-0.02923986
-0.04582754
-0.06655969
-0.06735471
0.02527061
-0.06695008
-0.04552688
-0.00395553
0.06849769
0.00612634
-0.04048631
0.01375926
0.02333033
-0.03320371
-0.03833219
-0.02329383
-0.04511365
-0.08434947
-0.10058947
-0.02972772
-0.06848952
-0.03478410
-0.05572115
-0.08461545
-0.07079423
-0.03040933
-0.03024655
-0.06160844
-0.06104655
-0.05150422
-0.16581690
0.07567613
-0.06137133
-0.07057112
-0.01018696
-0.03909076
-0.03132157
-0.15299818
-0.08290828
0.04658228
0.00700525
-0.02446034
0.01646023
-0.02576552
-0.02363824
0.07477187
-0.08481012
-0.03351349
-0.02275545
-0.06687085
0.01141116
-0.07402902
0.02473491
-0.06081456
-0.03038342
-0.06031714
-0.09754694
-0.01015991
0.03145037
-0.00478318
0.00154959
-0.03361559
-0.04907893
-0.01535262
0.02135001
-0.00230639
0.03929665
-0.02068710
0.03721881
0.02819883
0.00385234
0.02000985
-0.00805739
-0.02995757
-0.01166034
-0.04856459
-0.04000733
0.01257468
-0.00318938
-0.06004611
0.05793536
-0.02012327
-0.02991977
-0.03579273
0.02552204
-0.04113629
0.03590521
0.01318700
0.00101551
-0.09109341
-0.09730622
0.00530291
-0.04520258
-0.08703967
-0.02051185
-0.04439576
0.03326286
-0.02054618
-0.04152140
-0.04806451
-0.02806956
-0.04031434
-0.08395665
0.01980632
-0.09365498
-0.05337169
-0.05917598
-0.09556203
-0.09348349
0.00604993
-0.01233278
-0.04522135
-0.02171335
-0.04686921
0.00468596
0.01988425
-0.02587632
-0.04285673
0.00949239
-0.03570205
0.02719195
-0.01386792
-0.02427792
0.01130933
0.08048779
-0.01232136
0.01998983
0.01611286
-0.04685101
0.00425941
-0.04220168
-0.06054614
-0.07242890
-0.07423552
-0.01301308
0.00471510
-0.02605163
-0.04474504
0.01297803
-0.08093045
0.05380561
-0.01811573
0.00289821
-0.05341679
-0.06823879
-0.02461939
-0.04303357
-0.10676641
-0.01649405
0.01938468
-0.04703610
-0.04582212
0.01277619
0.00438996
-0.04868210
0.02147013
-0.03065491
0.06151099
-0.06313883
0.00153159
0.05500511
0.07504059
0.02598006
-0.05938255
-0.10480676
-0.01991118
0.05423862
-0.04913144
0.03019608
-0.03333448
0.02300018
0.04572245
-0.06744008
0.03200856
-0.02777879
-0.03992373
-0.01226309
0.02638041
0.00862639
-0.02458371
0.01913610
0.02828568
-0.03131833
0.00987722
-0.01410148
-0.11312710
-0.05427358
-0.11942608
-0.10701263
0.04088039
0.00040291
-0.02550822
-0.04479834
-0.02884897
-0.03590944
0.01162408
-0.04240912
0.02388074
0.00682076
-0.03521210
-0.00950712
-0.04507335
0.06177196
-0.09319901
-0.00857465
-0.07933520
0.00522007
0.03211297
-0.04112090
-0.02356832
-0.03936573
0.00162835
0.01430152
-0.01507477
-0.03990710
0.02718714
0.03869156
0.04739548
-0.03033049
-0.00215308
-0.08255201
-0.02306435
-0.00839522
0.00991431
0.01219489
-0.01045069
-0.00117574
0.03028288
-0.04075453
-0.04817401
-0.03796087
0.01276785
-0.05378134
0.00907991
-0.07056239
0.03966385
-0.06399939
-0.09495316
0.00868342
-0.07354053
-0.00640428
0.03769151
-0.01316229
0.03364137
0.00742851
0.01361251
-0.03350732
-0.03515526
-0.01498059
-0.05419581
-0.03310830
0.00262632
-0.06563944
-0.07296451
0.01853484
-0.00315731
-0.02639794
-0.00620066
-0.01273031
-0.03942974
0.02710195
0.02990572
-0.00737164
-0.00532741
0.02792299
-0.06572823
-0.11009649
0.02764293
-0.05396818
-0.13855258
-0.08799770
0.03810515
0.01311810
-0.08036592
-0.03815071
0.01397906
-0.04366236
-0.03611587
-0.02104715
-0.05179764
-0.06241184
-0.00304019
-0.00432873
0.01149529
0.01438966
0.02258553
-0.04994027
0.01700241
0.02204652
-0.04821080
0.00332140
-0.04805459
0.05550804
-0.04642890
-0.02493846
-0.02405843
-0.04311224
-0.05917996
-0.08886182
0.01779726
-0.00369631
-0.00233561
-0.04015720
0.03160611
-0.03066155
-0.02225500
-0.01518296
-0.04009553
0.00193410
-0.04268941
-0.04794703
-0.00654485
-0.02673948
0.00829316
0.03085129
-0.00379316
-0.00356624
-0.01039316
-0.03274535
-0.05868478
0.01450483
-0.03252984
-0.08020152
-0.01052156
-0.00019715
0.07037575
0.00081588
-0.07427481
-0.01585101
0.02388412
0.01532975
-0.04091606
0.00473442
-0.03082261
-0.01080494
0.02942065
-0.02271146
0.01571123
0.00211319
-0.01521444
-0.03534626
-0.14256659
-0.10465577
0.02479230
-0.00474315
-0.09092131
-0.03275836
0.03595884
-0.04294880
-0.04392746
0.02894677
-0.04555264
-0.01505396
0.02314381
-0.01461869
-0.07832702
0.02215059
0.02391080
0.04981063
-0.02381548
-0.08698733
-0.02449222
-0.04608938
0.00572504
0.00544586
0.03166128
0.01119122
-0.02931821
0.00565229
0.02432150
0.00050171
0.00727056
0.02953559
0.00474705
-0.03374724
-0.02304530
-0.05056729
-0.00249508
-0.05337431
-0.02752035
-0.02191687
-0.02754093
-0.00668214
-0.06813175
-0.06260590
0.04427410
0.00282909
-0.02083135
0.02952848
-0.01256016
-0.11363114
0.05021751
-0.03422521
-0.01719590
0.02724186
0.00518747
-0.03942607
-0.06045145
-0.02502623
-0.05288817
-0.09730443
-0.05588773
-0.04433629
-0.05883760
-0.01534778
-0.08003837
-0.02112769
-0.15248632
-0.09353103
-0.05036908
0.00872199
-0.02538854
-0.00711809
-0.00840057
-0.00916355
0.03243521
-0.03549517
-0.02764466
-0.02958713
0.00123868
-0.01471240
-0.04119188
-0.01892512
0.00166268
0.02344914
-0.03215002
-0.03768409
0.01952356
0.01423044
0.00926476
0.02659767
0.02091778
-0.03205279
0.02939824
-0.00332070
-0.02128285
-0.03439371
0.02500321
-0.01897258
-0.00145670
-0.02055949
-0.07179109
0.02086852
-0.01329403
-0.00301935
-0.01921240
-0.06690894
-0.01787019
-0.00877902
-0.03731847
-0.02029614
-0.06157900
-0.02212673
-0.07612102
-0.03388609
-0.03669332
-0.04798164
-0.00074010
-0.09165762
-0.08881422
-0.03352405
-0.08173775
-0.02499372
-0.04732756
-0.04449429
-0.10188328
-0.09775300
-0.04989796
0.05331538
-0.05042429
-0.01895864
0.01541958
-0.01823255
-0.12310550
-0.00222928
0.06008150
0.03470841
-0.06948958
0.07043448
-0.02820907
-0.03651959
-0.08342170
-0.02898802
-0.05799947
0.05029697
-0.02618688
-0.07235177
-0.06732518
-0.02786922
-0.03248085
0.00270014
-0.00813753
-0.01863395
-0.01785783
-0.09153782
-0.03513772
-0.03438141
-0.05356454
-0.08266504
0.01862524
0.02277300
0.01744282
0.02784454
-0.00773104
-0.04120389
-0.02516690
-0.00783017
-0.01176736
0.00999986
-0.01914752
-0.06377568
-0.00676050
-0.11015302
0.03084445
-0.03807287
-0.05465256
-0.03596095
-0.04762023
-0.03037787
-0.00414582
-0.07972416
-0.03326550
-0.04800141
-0.03583554
0.02812849
-0.00981462
-0.11918969
-0.00221942
0.06034642
0.00607470
0.01146420
-0.09045413
-0.00933633
0.01102066
0.02688839
-0.03303690
-0.01317156
-0.07174132
-0.01038012
-0.08451840
-0.00745710
-0.04493929
-0.06797958
-0.01653811
0.00951085
-0.04150124
0.02445189
0.09867598
-0.03488398
-0.01849299
-0.03330510
-0.02933197
-0.08447442
-0.04069869
0.02388725
0.01872421
0.02246683
-0.01056969
-0.02928497
0.02489507
-0.00036284
-0.08447486
0.03164148
-0.02727042
-0.01617824
-0.00474855
-0.01009507
0.03406815
-0.02971849
0.00716153
0.03328808
-0.06642266
-0.01686385
0.00874358
-0.04977391
0.00065243
-0.05847556
-0.07929838
-0.05528406
-0.07549614
-0.08969720
-0.05499512
0.02454112
-0.11425567
-0.06093739
0.01539851
-0.03154677
-0.06936704
-0.05800391
-0.00880225
0.01710298
0.05109770
-0.05475293
0.03338730
0.01000168
-0.00342235
-0.01585898
0.02548517
0.16411881
-0.33102071
0.09094037
0.07449137
0.11159420
-0.09854552
0.04657130
-0.10001109
-0.24824584
-0.16630585
-0.03140525
0.20218740
-0.23442914
-0.18074623
-0.12252765
0.10220531
0.04608043
-0.06904382
0.19335008
0.08351573
0.18155794
-0.03886305
0.00045188
-0.10658216
-0.07113808
0.10241304
-0.14126506
-0.06863154
-0.00142791
0.07020690
-0.13863419
0.01812560
0.00007041
-0.09275961
0.04725730
-0.01351242
-0.13052458
-0.08559370
0.09557775
-0.02711319
0.05510617
0.03269352
-0.27262002
-0.13721989
0.00493976
0.14051612
-0.09619650
0.00092469
-0.10652468
0.10775717
-0.02482730
0.24088441
0.05950169
-0.08088320
-0.02306078
0.00623617
0.09492924
0.00646729
0.15512145
0.00083016
-0.04621553
0.02503881
0.05956779
0.01079188
0.01567133
0.02080080
0.02520842
0.23428342
0.01920898
0.10011965
0.02006442
0.01661340
0.16585891
0.02480483
-0.05026499
0.17260276
-0.10387160
0.02153824
0.15116350
0.07994034
-0.02183948
0.01971286
-0.18709669
0.08281635
-0.27741641
-0.01542399
0.06393691
-0.02772953
0.12142313
0.01205516
-0.03684064
-0.04491691
-0.01060615
-0.02490310
0.00360202
-0.02233140
-0.04730004
-0.02880110
-0.02656901
0.04630437
0.03255295
-0.06369843
0.09692056
0.19190340
-0.09426605
-0.03698706
-0.08949428
-0.03762730
-0.09340250
0.04399714
0.17933506
0.03993685
0.10154631
0.00044046
-0.04492665
-0.02229908
0.10420576
-0.04185372
0.08043154
-0.10515769
0.01386139
-0.00562987
-0.10572580
0.14667369
-0.06331538
0.08852167
-0.04440732
-0.00403811
-0.02847585
-0.00319954
0.03460326
-0.01376772
-0.07019620
0.01862993
0.05423768
-0.00573200
-0.00563129
0.01671507
0.01584901
-0.00768746
-0.04446402
0.00604470
0.04425213
-0.00938316
0.17616712
-0.19921628
-0.04813441
-0.01876770
-0.23641938
0.03300028
-0.15825598
0.05398329
-0.08272949
-0.28596675
0.07234900
0.16714104
-0.04121225
-0.07608991
-0.00015922
-0.00375878
-0.11830381
-0.06344933
0.12027303
-0.08514028
0.02174197
-0.02298350
-0.29214531
0.01506963
-0.02312485
0.04550792
-0.11780570
-0.25141615
0.16539207
0.17764676
-0.25760001
-0.14865866
-0.02333690
0.24097119
0.02869045
0.04492074
-0.11390836
-0.15198119
0.08959633
-0.08656160
-0.06575342
-0.00734412
0.05227172
0.12900957
-0.04954695
-0.06985487
-0.00613213
0.14225191
0.08240794
0.01766908
0.11086136
0.12734090
-0.19656084
0.08491590
0.08879974
0.08680008
-0.10367912
-0.15839472
-0.31089848
-0.03573131
0.06585448
-0.09480694
-0.00248220
0.00771245
-0.05982688
0.07373657
0.17371354
0.02792197
0.02105515
0.25350454
0.10694982
0.05403912
0.00874677
0.03642846
-0.00150903
0.00517175
0.03087655
0.02889526
-0.00486358
-0.00125595
0.00846671
-0.01018830
0.03378621
0.01344453
-0.03258435
0.02059801
-0.02330885
0.03408516
0.04536501
-0.02512526
0.04639019
-0.00939116
-0.07723615
0.08977739
-0.20148146
0.09669656
0.05737628
-0.05181337
-0.02239039
0.00032424
-0.09834021
-0.03081295
0.02007725
0.05798531
0.01622508
-0.15327808
-0.03649749
0.04210907
-0.00380199
-0.01480364
0.02525935
0.00049763
0.02255603
0.01337556
-0.03725411
-0.02637421
0.01428559
-0.04496774
0.07216932
0.01948059
-0.28516027
0.04136380
-0.13717099
-0.10215190
0.00708974
-0.15630580
0.12927441
-0.20942758
-0.04600479
-0.04002653
-0.06453881
-0.06965870
0.10067749
0.01646075
-0.03076865
-0.35999072
-0.02098656
0.07478372
-0.17843293
-0.10945518
0.03338233
0.04176604
0.01008046
-0.00327831
0.16786343
-0.34949774
-0.02986639
-0.15614328
-0.18937859
0.10010492
-0.07905906
0.15706667
0.01262598
-0.03799826
-0.06904149
0.06415489
-0.03610883
-0.03665220
0.04567569
0.02703606
0.00216929
0.07398670
-0.13308178
-0.15924625
0.04618720
-0.22084805
-0.27289087
0.04238198
-0.05697606
0.15051684
0.06523902
0.05901105
0.00155816
-0.10464928
0.12162725
-0.02494831
-0.01298887
-0.17765544
-0.13694295
0.01141316
-0.18153141
-0.07035771
0.05495207
-0.20857912
-0.19597824
0.03337696
-0.08359762
0.00568989
0.11786440
0.17481604
0.08624014
0.10205501
0.05323694
-0.04225925
-0.08520357
-0.28800988
-0.14242217
-0.13176616
0.10111982
-0.21756411
-0.06901973
0.15707406
-0.12658779
0.03933940
0.13205107
0.01136782
-0.05526215
0.10652083
0.15642630
0.10496165
-0.04848335
0.08626319
0.26249689
0.01063367
0.01799905
-0.07212633
0.03489270
-0.03348668
0.02688112
0.04000850
-0.02929678
0.02465987
0.02777233
-0.00912547
0.04283737
-0.02146319
-0.04178908
0.01075938
0.01346644
-0.03877277
-0.02425148
-0.00233547
-0.00381659
0.01937156
0.09179817
-0.03006124
0.12832904
0.03968059
0.04472044
0.18223828
0.12359317
0.18942586
0.01896415
-0.01448011
0.06328898
0.14371799
-0.02949797
0.06871898
-0.05701883
-0.17055833
-0.19014332
-0.18028930
-0.14783150
-0.02933339
0.00784704
0.03168100
-0.13481919
-0.05234936
-0.07503606
-0.20916502
-0.07739910
-0.05677453
0.08498925
-0.03381358
-0.27571318
0.08079895
-0.00763641
-0.18085466
-0.00219690
0.00537523
0.01582374
-0.02104382
-0.01091367
-0.00600448
-0.00434911
-0.02540989
-0.01287022
-0.00858234
-0.02306049
0.02029883
-0.03684941
-0.10655304
0.05726318
0.08605039
0.01706594
0.05300723
0.03901193
0.03790158
-0.01672975
-0.15990227
0.05638306
-0.13342847
0.06096352
-0.03726315
0.02343426
0.05085972
0.06501261
-0.01060419
0.17571658
0.16569784
-0.01137223
0.09947707
-0.01622003
-0.12936053
-0.07771330
-0.09150030
-0.08743291
0.05445958
-0.16085923
0.05354334
0.10780612
0.06930079
0.15293027
0.14692894
0.03920192
-0.08530379
-0.06687471
0.01089611
-0.05828482
0.08250205
-0.03224278
-0.10540973
-0.25044915
-0.01199916
-0.18441527
-0.08555279
0.00795728
0.01299676
0.10348229
0.05827700
0.12800625
0.24947882
0.02937576
-0.21802400
-0.16348994
-0.08252106
-0.30033451
-0.32090104
-0.03160748
0.00114315
0.10906949
0.09773672
0.03263788
0.00418033
-0.03610444
0.03876112
-0.00028617
0.03598091
0.01899655
-0.01957937
0.02704871
0.03908755
-0.04578973
0.03050180
0.01559808
0.03913232
0.01202659
-0.00757173
0.04170087
0.01174408
-0.06425940
-0.00242811
0.04501334
-0.01642982
0.01382699
-0.02169502
0.02302173
0.01454411
-0.01304454
-0.00172451
-0.03669611
-0.00658759
-0.02841293
-0.03532352
0.03263715
0.01949817
0.01594864
-0.01796489
-0.08541919
-0.02966870
-0.02605121
-0.14963827
-0.05465871
-0.08045180
-0.09072780
-0.10184120
-0.19383208
-0.10709164
-0.01200181
0.04203971
-0.01699924
0.02360551
-0.02136395
0.07508755
0.11968751
0.00634119
0.02914387
-0.03214650
0.05853007
-0.01101955
0.02748646
-0.04735871
0.06560940
0.04618438
0.01959526
-0.32478341
-0.13427380
0.12942246
-0.23160499
0.02969508
0.07592508
0.18092723
0.10296667
-0.02518099
-0.00551632
-0.00680596
0.01679564
