0.02234720
0.16202113
-0.10257291
0.18694597
0.01471145
-0.12116283
0.04396177
-0.10613637
-0.09331802
-0.07786620
0.11207757
0.03011600
0.12131004
-0.02476177
0.10786121
0.05194491
-0.02080424
-0.03895684
-0.07506149
-0.16701028
-0.13081618
-0.01804984
0.02619563
0.00178206
0.07213349
0.16233397
0.12155222
-0.13636476
0.16896942
-0.03587332
0.07356244
0.17342824
-0.11117100
0.06540382
-0.03843227
-0.13162589
-0.01380811
-0.05596226
-0.14986554
0.11746310
0.19677767
0.06501501
-0.13832872
0.04102536
-0.04328147
0.06876629
0.01436141
-0.07255825
0.13319468
-0.05211620
-0.01226987
0.12132102
-0.13477163
-0.08018959
0.07353857
-0.02626520
-0.08648225
-0.03262506
0.16324614
-0.10435244
-0.06591127
0.18582137
-0.11047589
0.13045940
0.15990578
-0.10127082
0.07253382
0.04831368
-0.02111363
0.08448820
-0.12055278
0.20323972
-0.07969713
-0.14687961
0.11112881
-0.16096506
-0.03645718
0.18293016
-0.11419239
0.10930591
0.12608711
0.08447766
-0.01900104
-0.04627033
0.05413241
0.12536205
0.13750367
0.06416045
-0.03329264
-0.07558510
-0.01821830
0.07759303
-0.02263391
0.14727809
0.07194342
0.16740017
-0.08132342
-0.05972694
-0.14023380
-0.09475517
-0.03442387
0.14235918
0.10139170
-0.08067653
-0.01698201
0.00509604
0.19126095
0.21257670
0.11946781
0.01071960
-0.10021547
-0.17521982
-0.03153079
0.17044736
0.09941567
0.03818905
-0.10607655
-0.00329880
-0.09341761
0.11538341
0.09034596
-0.10293966
-0.06700417
0.10684828
0.07455108
-0.06785049
-0.00029814
0.20753953
0.20388532
0.13209414
0.16144055
0.03092511
0.10711824
-0.03082081
-0.11317066
0.05085050
0.03162811
0.05021396
0.16019389
0.05931495
0.03913033
-0.09960703
-0.15383308
-0.13780831
-0.17984565
-0.10412389
-0.04048311
0.01034845
-0.05121871
0.04218654
0.14393683
0.17501494
0.00458526
-0.02433640
-0.12903108
-0.15706289
0.11519305
-0.00402370
-0.10670870
0.15481050
0.16077462
-0.00057118
0.00044022
0.11915289
-0.09084198
-0.01994551
0.15396391
-0.09853156
0.04528937
-0.09227138
0.18939422
0.01047174
0.11033321
0.00704875
0.03939306
0.01060011
0.07923963
0.01509953
0.12400024
-0.04483247
-0.11477801
0.08362268
0.04662219
0.17389302
0.12206311
-0.01249200
-0.03108064
-0.11090895
-0.09129359
-0.16259326
0.02497043
0.01951065
-0.08947503
0.09324298
0.06612429
-0.03428767
0.18368044
-0.09085270
0.02006457
0.17948624
0.11701465
0.06523992
0.01114048
-0.06583108
-0.08500639
-0.17388831
-0.07555299
0.19415075
-0.03344148
-0.15511136
0.08155747
0.13940458
0.11435463
-0.08359978
0.02405975
0.03980510
-0.11496550
0.75743437
0.43482015
-0.12713940
0.89640951
0.72705662
-0.17879477
0.69058704
0.89262497
0.05998870
0.06439321
-0.04861108
0.06210439
-0.06181939
0.03912576
-0.03857828
-0.01032644
0.05801665
0.01044501
0.15732589
0.18176699
-0.13203198
-0.01200703
0.15227358
-0.15617593
-0.13240860
-0.05613795
0.17231341
0.10170345
0.01938687
-0.01291043
-0.17134139
-0.12059036
0.01656704
-0.08939400
0.09563345
0.04741554
0.04393180
0.02447654
-0.02892613
-0.02523050
0.06333023
0.14719416
-0.00508793
0.00391019
-0.11361824
-0.21273184
-0.12268144
0.05121563
-0.01325390
0.01692375
0.16088584
0.21870784
0.13209622
0.22068332
-0.04174601
0.09547433
0.13736847
-0.18457901
-0.14181347
0.33461508
0.04329874
0.00947776
0.12966713
-0.02711959
-0.17417122
0.16103800
0.03157998
-0.03328208
0.11356235
-0.06790780
-0.09241198
-0.10206824
0.09314803
0.19820733
-0.14977820
-0.13890007
0.10755751
0.24299204
0.10174485
0.41613987
0.15872423
-0.00909436
-0.12135543
-0.13774037
0.18745929
0.03760236
-0.09278388
-0.08076159
0.09233990
0.01023460
-0.07196377
-0.09557397
-0.06688540
-0.09806321
-0.03053682
0.05604136
0.16761807
0.13478908
-0.14029154
-0.17175302
0.06752141
-0.01528516
0.05445459
-0.04040416
0.18161991
0.08691721
-0.03210675
0.06054918
0.08689673
-0.14238578
0.02838457
0.14418064
0.16379713
-0.19938996
-0.13748059
-0.00753394
0.05979788
0.15217741
0.07724942
0.18147169
0.00956398
-0.04951235
0.08516860
-0.06668444
-0.04711922
0.05452219
0.16715121
0.02931765
-0.03668465
0.19616112
0.08242334
-0.01859224
0.09624278
0.11252524
0.01061535
-0.09700611
0.11668545
0.07441736
-0.15018444
-0.10008193
0.12917347
0.01415912
-0.01681964
0.03313034
-0.19426216
0.23906623
0.15254359
-0.07838675
0.11226355
0.10321039
-0.00563838
-0.05289694
0.07668162
0.11713652
-0.05909965
-0.15026195
-0.10793472
-0.12997545
0.03664191
0.11450996
0.09457514
0.02038900
0.00392933
-0.02587500
-0.03348532
0.13614607
-0.06553684
0.12716506
0.03335273
0.14429165
0.10358189
0.08325205
0.04058233
0.19427496
-0.07225544
-0.06412903
0.00044024
0.15233296
-0.03068319
-0.08821488
-0.00096260
-0.02361788
-0.06571759
0.23133364
0.11621796
-0.08250328
0.11114142
0.01467709
-0.05671914
-0.11881068
-0.08782586
-0.12387656
0.00388599
0.12060922
0.09968241
0.09281382
0.06474242
0.11328042
0.00235392
-0.15502845
0.10905696
0.03473130
-0.15423058
0.11677548
0.01990364
-0.09584279
-0.09035211
-0.01148456
-0.06711952
0.38778502
0.33005142
0.18626462
0.10784803
0.02882182
-0.01277578
-0.09513494
0.16435052
0.00295549
0.06619897
0.06299662
0.08338585
0.03234551
-0.08262835
0.11019387
0.09701300
-0.16578624
0.03913341
0.16323374
-0.18373117
0.05323370
0.05004647
-0.05870083
0.00646688
-0.05556383
0.03100235
0.02115543
0.21414810
0.07789204
0.00942511
-0.16284797
-0.10587148
-0.03944002
-0.02009893
-0.01593377
0.04070873
0.10988604
0.04367948
-0.04344878
-0.09008884
0.00935612
0.07861859
0.09059831
0.21156374
0.03310135
-0.04960559
0.29689160
-0.00946105
-0.06356718
0.08091722
-0.14129460
0.07203440
0.08540198
-0.03034564
-0.01511614
-0.11226495
0.13179603
-0.00769431
0.15262456
-0.01001259
0.00930907
-0.08816780
0.21924147
-0.10966562
0.03956269
0.00563751
0.03805643
-0.00182021
0.06575435
0.10650911
-0.10376611
0.08274505
0.04586668
-0.07040884
-0.01215969
0.11005069
-0.02931787
0.00693588
-0.01574287
0.12399045
-0.10085777
0.09132017
-0.04220923
-0.03780431
0.01259342
-0.14406672
0.21716216
0.22372179
-0.10147381
-0.09834114
0.13863951
0.06977237
0.21846440
0.06667004
0.04526734
-0.07388248
0.21395953
0.13799991
-0.06942027
0.11657737
-0.03979466
-0.00477109
-0.10859761
-0.11816908
-0.10359017
0.15304507
0.09661785
-0.00477728
0.14971706
-0.05570246
-0.09811556
-0.06944123
-0.06306728
-0.10788117
0.06163917
0.03066638
-0.10707378
0.12605475
-0.01797947
-0.11472046
0.13836630
-0.02529637
-0.09977559
-0.04530916
-0.15266331
-0.03074242
0.18658273
-0.07935083
-0.10646388
0.09612381
0.08709315
0.03470195
-0.13934942
0.11169014
0.04056389
-0.17482424
0.13549259
0.04817471
-0.14325660
0.08339523
0.03789265
0.07001656
0.04251229
-0.01957964
0.09421574
0.15529065
0.20119254
-0.15572125
-0.13278554
-0.11108248
