-0.04800146
-0.02879322
0.14544912
-0.00826671
0.06783210
-0.01476874
-0.00834274
0.16877592
-0.05378302
-0.08670029
0.01094416
0.00556764
-0.01174020
0.00660902
-0.00229948
0.00270237
0.15874465
0.07767052
0.07757875
-0.07891907
-0.00716956
-0.05897634
-0.02259187
-0.00740811
0.12038964
-0.05559516
-0.00874770
0.02501740
-0.08735050
-0.03573329
-0.04871405
0.01555834
0.02531573
-0.10064382
-0.00836721
-0.03485826
-0.01914595
0.01869144
0.03011314
-0.00149975
0.08591630
-0.08391900
-0.00493013
-0.10009818
-0.01320123
-0.00699770
-0.03443760
-0.00636639
-0.00638668
0.04106069
0.05092535
-0.03877885
0.23591353
-0.01021962
-0.01524408
-0.00616996
0.00278533
0.17037444
0.00275213
-0.38804689
-0.01214230
-0.01067272
0.05303188
0.26445034
0.08841023
0.23307507
0.03022430
0.00343762
0.00010935
-0.01588897
-0.00027913
-0.01047039
-0.00649659
0.28822654
-0.06422207
-0.08601415
-0.00261773
-0.16485177
-0.04098189
-0.21894053
-0.01033425
-0.00590492
0.03243488
0.06167214
0.00559184
-0.01685372
-0.05497265
0.05161891
-0.04790622
0.04377050
-0.06052445
-0.04831278
0.00354640
0.09639642
-0.00916702
0.10596775
-0.09535860
-0.00979269
-0.00865709
-0.20714094
0.03405226
0.09980871
-0.06584575
0.00694999
-0.00904143
0.01449970
-0.02183411
0.03145700
0.05247846
-0.00534411
0.16931359
0.09617452
-0.00953547
0.00819358
0.13044249
0.00363170
-0.07479123
-0.00359620
-0.10245441
0.10935852
-0.01107156
-0.11106406
-0.22404735
0.01795794
-0.22539011
-0.10455848
-0.05191331
0.22476621
0.06024332
0.00232798
0.18643230
0.01607235
0.37664023
-0.19959363
0.03548288
-0.00184285
-0.12661432
-0.11311513
0.12781519
-0.01884129
0.08283511
-0.05173326
0.09538431
0.08592197
-0.07992002
0.25925204
-0.14311485
0.00168537
-0.28308287
-0.00653434
0.20906280
0.24877034
-0.00809029
-0.27550626
0.07415634
0.02272364
0.28220272
0.00589336
-0.08939509
-0.06083299
-0.03330630
-0.01815473
0.05273036
0.10870862
-0.05152471
0.06655995
-0.21005109
0.00921517
0.16547970
0.09741271
-0.01259318
0.19588876
-0.00580433
0.05099849
-0.09955604
-0.00908996
0.04035157
0.00942578
-0.03712373
0.05260473
0.10588650
-0.04384323
0.03947378
-0.02868693
-0.00658936
-0.02548232
-0.28808275
-0.00706296
-0.00438461
0.04221848
-0.17652537
-0.00744346
-0.00767062
0.02696872
0.26195571
0.00591671
-0.06254886
0.18572479
0.15372457
-0.03206309
-0.09021161
0.21224971
-0.00945048
0.04487411
-0.01275065
0.01628068
0.05005604
-0.00841099
-0.06721403
-0.01248874
-0.01041112
-0.05420260
-0.06232787
0.20590679
-0.00371202
-0.01556954
-0.03833916
0.04545388
-0.00275347
-0.12910827
0.17380865
-0.02706233
0.05968637
-0.05427868
-0.00217683
-0.03949226
-0.01271673
-0.01062329
0.01032706
-0.12579031
0.15876192
-0.05742033
0.05167209
0.02283128
-0.07402330
-0.01108114
0.00333598
-0.01536098
-0.02476449
0.11582401
-0.03504831
0.12087382
-0.00670609
-0.06987213
-0.02186762
-0.05065501
-0.09011042
0.00491075
-0.00471902
0.34501985
-0.07983308
-0.00054997
0.09067647
-0.02811004
0.03553625
-0.11488279
