-0.22867584
0.00538427
-0.47334614
-0.04077194
-0.04656541
0.18539195
-0.10070554
0.26465154
0.15483773
-0.08523358
0.51547128
-0.05789447
0.15477507
0.01495706
0.01530346
-0.19588071
-0.01391520
-0.04158654
-0.10833204
0.12388956
-0.12766470
0.14957809
0.05253260
-0.01308787
-0.08133403
0.26605400
0.23819484
-0.06952936
-0.01190624
0.17964719
-0.01385963
0.40252891
0.07873582
-0.01214361
0.16193822
0.06856064
0.02061152
-0.02359371
-0.03509562
-0.24990885
-0.03218488
0.34083730
0.15555799
-0.01094804
-0.02715255
-0.04670197
-0.00613504
0.22874264
-0.02489699
-0.00816853
-0.01983217
-0.00772711
0.39426419
-0.00577823
-0.00385758
0.05214324
0.10116481
-0.02118855
-0.18241706
-0.02620538
-0.10707048
0.17760952
-0.13102524
-0.11526342
-0.01153401
-0.09049027
0.05946069
-0.01104203
-0.01382759
-0.06677656
-0.00932652
0.01279878
0.15050694
0.00481351
-0.05744024
0.08733901
0.24597391
0.17505988
-0.52101094
0.04024135
-0.00377103
0.13155295
-0.06484231
-0.07975425
0.03957565
0.15149349
-0.03968763
0.15768795
-0.34829405
-0.00513534
-0.00655231
0.17117563
0.23315640
-0.00742189
0.18604010
0.16954879
-0.00778740
-0.01293784
-0.04146068
0.10428342
-0.04148907
0.22197904
-0.01012999
0.00434642
-0.01138247
-0.00911835
0.17633685
-0.00565012
-0.01213657
0.07185888
0.25249174
0.06125724
-0.00637638
0.00675470
-0.00984096
-0.05880808
-0.24055533
-0.01018840
0.17581381
0.02202932
0.00218068
-0.21024269
0.02716135
-0.05505030
0.00833158
-0.08677008
-0.00648604
0.24850610
-0.03035896
-0.08883632
-0.00283066
0.26924160
-0.00602761
0.07028457
-0.06348639
-0.01037343
-0.01144518
0.02795925
-0.00898221
-0.06617886
0.09261712
0.00969620
0.00308811
-0.00259385
-0.00888899
-0.35323468
0.05120766
-0.02652459
0.18909569
-0.02104398
-0.12980573
-0.03446189
0.05228456
0.13962600
-0.10114893
0.17451003
0.06302174
-0.02365266
-0.00908613
-0.01465723
-0.02873776
0.13894163
0.39656189
0.00175869
-0.32968274
0.03730327
0.19596733
-0.28569067
-0.31984183
-0.00320917
-0.52137148
-0.00839345
0.11579411
-0.19204363
-0.01661752
-0.02903472
-0.00067739
-0.01946569
-0.11894130
0.00097910
0.07372323
-0.23550822
-0.02816621
-0.02100362
-0.18538421
-0.00729974
-0.05683110
-0.00997233
-0.34495863
0.09939373
-0.01397987
-0.02122048
-0.01544129
-0.02739247
0.11889080
-0.00695225
-0.06398932
-0.03677678
-0.04096960
0.08201787
-0.00704295
-0.11464981
0.05338429
-0.03042946
0.06888735
-0.01568856
-0.00942291
0.05535995
-0.00989080
0.05049194
-0.01395323
-0.08887333
-0.01368834
0.25850770
0.13347512
-0.00811545
-0.17866141
-0.11890953
-0.00925628
-0.24430124
0.00481325
-0.02801991
-0.37416062
-0.04308701
-0.02643746
0.09925007
0.48459908
0.00361603
0.00881191
-0.03640869
-0.06295610
-0.02052538
-0.00472509
-0.00836144
-0.16800593
0.07843930
0.15454473
0.00215630
0.06845002
0.49295992
-0.01392491
0.41084862
0.09796246
0.00679012
0.15220885
0.14324051
-0.01637851
0.08335291
-0.00060818
-0.29188439
0.09065308
0.22987108
-0.19360743
-0.06696193
0.30447695
-0.00979334
