-0.11091442
-0.10122746
0.06260524
0.17836808
-0.48654848
-0.24160191
-0.65262723
-0.08752695
0.08585806
-0.09360152
-0.03394074
0.29081875
-0.09098206
-0.19709057
-0.02710242
-0.02018291
0.50238377
0.17067142
0.00665658
-0.47424176
-0.04690701
-0.06743081
-0.30037865
0.11775140
-0.01114946
-0.02747155
-0.55498773
-0.30524394
-0.00215093
-0.75840080
-0.72861260
0.21159022
-0.52870786
-0.02942113
-0.55643260
0.58849370
-0.61640024
-0.08965296
-0.14023682
0.21372697
-0.02552028
-0.02127798
-0.02432000
-0.03130269
-0.12224716
0.37621808
-0.01750212
0.02061070
-0.31151807
-0.00632584
-0.05186543
-0.64038271
0.13572860
-0.54022920
-0.02237305
-0.01239765
-0.06273111
-0.02349090
-0.08601511
0.06588868
-0.05777762
0.08969217
0.06591749
-0.30375838
0.03632484
-0.22994179
0.27849323
-0.22228733
-0.01129887
-0.20711641
0.04279643
0.24772920
-0.01493243
0.30099976
-0.02653225
-0.79527199
-0.15683967
-0.20183480
0.17790452
-0.20106545
0.13929725
-0.00002640
-0.18303198
-0.03043804
-0.78489703
-0.01070713
0.02524419
-0.52918291
-0.16899522
0.13997558
-0.07543809
0.21072909
-0.22023273
-0.03656106
0.16974764
0.00226621
0.06261202
-0.31665748
-0.03702513
-0.10454883
-0.07847720
0.03796483
0.00453803
-0.37509251
0.03851555
-0.39786682
0.07660713
-0.43565175
0.03026810
-0.02214919
0.06560588
-0.07841049
-0.05228398
-0.30451971
-0.39364272
-0.21223746
-0.13448504
-0.02751419
-0.27047518
-0.34487480
-0.18555723
-0.88660026
-0.51085478
-0.05838980
-0.05194821
-0.21085566
0.16043325
-0.58019620
