-0.08846402
0.01181014
-0.02057950
-0.04679007
0.06821678
-0.09902371
0.03614288
0.01383869
-0.05918009
-0.00428318
-0.04094791
-0.09794871
-0.00461917
-0.07090536
-0.09328824
-0.00348282
0.02418551
-0.11201943
-0.11985718
-0.04058961
-0.09061493
0.07730204
-0.12917216
-0.13400701
0.16220033
0.12661579
-0.18035668
-0.08153200
0.05903285
-0.04119860
0.01442704
-0.00043171
-0.11435672
0.01099200
-0.01314014
-0.15072748
-0.09709519
-0.02345216
-0.13635565
0.22756353
-0.11091081
-0.09239355
0.15356222
0.09523764
-0.14526224
-0.04987911
-0.00824106
-0.00626432
0.01909881
0.02745241
-0.09215237
-0.02618724
-0.03110907
-0.08679134
-0.08346161
-0.13149089
-0.28081593
0.15414052
-0.08909424
-0.29192120
0.07743637
0.07791872
-0.37297484
-0.12208371
0.01452166
-0.00283876
-0.02349979
0.08970459
0.07763121
0.16123942
0.08292057
0.07217918
-0.13502097
-0.02762036
-0.27782017
0.11794936
0.03589689
-0.22614840
0.05940843
0.00420650
-0.20441388
-0.10821969
-0.10211428
-0.05520123
-0.01255099
-0.03191918
-0.11508623
0.07233728
-0.00610393
-0.14373519
-0.06677198
-0.14203757
-0.14041243
0.12229702
-0.14842762
-0.06609141
-0.09804844
-0.09952206
-0.15971215
-0.00675967
-0.05695997
-0.02535189
0.20718330
0.21845561
0.00819175
0.10442235
0.17853539
-0.01537279
-0.01448071
-0.06827008
-0.09849686
0.07464039
0.01287938
-0.06550743
0.14484750
0.08004052
-0.06446517
-0.14575799
0.01698322
-0.08536160
0.02275977
0.07719306
0.00160439
0.08344459
0.08098540
-0.12952320
-0.13287558
-0.00432633
0.04648577
0.00416295
-0.07224806
-0.14390872
0.20717925
0.03835709
-0.02492085
-0.12272096
-0.12415589
-0.05185666
-0.02700759
-0.16656074
0.01330714
-0.09393190
-0.05980393
0.00675380
-0.00949307
-0.09155204
-0.11411405
0.05927719
-0.09691479
-0.19826588
0.09501298
0.04192816
-0.16473046
-0.06500494
0.04864578
-0.06182656
0.03478679
-0.02275103
-0.19593084
0.19708197
0.11465462
-0.28495288
-0.08163561
0.03344856
0.01189663
0.05006918
0.03279952
-0.15423575
0.07640230
-0.00645985
0.06822333
-0.12318666
-0.03502380
-0.13716206
0.01801925
0.06292633
0.02951824
0.02342692
0.04361441
0.03033834
-0.08688650
-0.16305651
-0.12429145
0.02909557
-0.11669391
-0.07859965
0.00861650
-0.00554292
-0.05739545
-0.10282188
0.02285666
-0.14436652
0.06310476
0.02762642
-0.17140131
0.08749630
0.04516645
-0.13824770
-0.07161180
-0.12680440
-0.03288127
-0.00202621
-0.27230525
-0.17320743
-0.02565514
-0.06586840
-0.20040378
0.11541522
0.11060114
-0.04705456
0.02873660
0.12974744
-0.06489353
-0.24075350
0.05192391
0.04574269
-0.18587147
-0.01161743
-0.06124853
-0.01270360
0.07908025
-0.10252270
0.12298707
0.00756206
-0.05225068
-0.04356541
-0.10496124
-0.05644120
0.05134893
-0.18175134
-0.14609951
-0.10153575
-0.04337677
-0.13707153
-0.16932496
-0.15456979
-0.06950907
0.08012994
-0.04640087
-0.20427732
0.06990375
0.04297036
-0.29339865
-0.22497150
-0.05040431
-0.04757173
-0.05472998
-0.21260238
-0.17927220
0.11974926
-0.10725226
-0.12088629
0.01629079
0.07076267
0.08751090
0.05099302
-0.03489945
0.04168957
0.03661158
0.09380314
0.06125265
-0.23086922
-0.10461932
-0.11992835
-0.07729297
-0.27426910
-0.17240365
-0.06708572
0.03219732
-0.27482411
-0.02788930
-0.16834764
-0.08234294
-0.14225034
-0.12615946
0.06614363
0.14515227
-0.03670999
0.04702751
-0.19227152
-0.05353335
-0.03684640
0.01067748
0.11097927
-0.24546267
0.06037990
0.02830683
-0.21986017
0.14022289
0.03545853
-0.12043115
0.02603729
-0.04065544
0.16362149
-0.02313100
0.27116570
0.10398070
-0.05478625
-0.08654701
-0.01022097
0.25817177
0.13509671
-0.11863072
0.15372349
0.15267251
-0.21300776
0.02132973
0.00505670
-0.00106461
0.08740465
-0.09672352
-0.13989189
0.10771253
0.10110434
-0.14934175
0.07415687
0.13654982
0.03299925
0.20862302
0.03861430
-0.06667132
0.21494743
0.11791923
-0.10384335
-0.13742985
-0.04773293
-0.15626483
0.21604003
-0.04260281
-0.14782870
0.05154068
0.04711156
-0.17583814
-0.07568409
-0.02634732
0.01375573
-0.07950440
-0.09694016
-0.06423156
0.06208518
-0.08335521
-0.04044215
-0.15472960
0.02346868
-0.06836753
0.02290161
0.01914605
-0.08281707
0.08175235
0.07793953
0.02136385
-0.08988973
0.02644278
0.02738971
-0.02510082
-0.01601661
-0.01947080
0.01379050
0.13159598
-0.11411040
-0.18414472
-0.03970931
0.18100719
-0.06093162
0.14875740
0.12643141
0.10436412
0.34147984
0.08172149
0.02121932
-0.06439530
0.00181239
0.12822637
-0.02170267
-0.14817664
0.13243857
-0.04040780
-0.15117005
-0.10258164
-0.08867893
-0.11838013
0.00254416
-0.05697369
-0.18820858
-0.04717643
0.00683927
-0.13486843
-0.11816096
0.06243812
-0.05353448
-0.12997079
0.05231515
0.01767386
-0.00756237
-0.12973271
-0.03270471
-0.14229056
-0.06214910
-0.19567271
0.07629641
0.00015536
-0.23472537
0.06176374
-0.03310594
-0.11559319
-0.12435940
-0.00060440
-0.10800764
0.01995408
-0.07814386
-0.20091689
0.06683978
0.04387105
-0.20284171
-0.05235868
-0.03854812
-0.07354073
0.09835348
0.01081531
-0.09537621
0.12920175
0.10938670
-0.07344084
-0.01027119
-0.12644108
-0.05891186
-0.07730646
0.00706477
-0.03666882
-0.05977658
0.04132786
-0.13906734
0.10280124
-0.07917900
0.02574508
0.09227415
0.00615355
-0.04149716
0.03391212
0.15638216
-0.00830127
-0.20913526
-0.09906567
-0.03486269
-0.09951333
-0.01579130
-0.10967980
-0.02236528
0.08869796
-0.21304119
-0.04955880
-0.02075521
-0.05872242
0.19591223
0.01245764
0.01813203
-0.02892999
0.18651079
-0.03168664
0.06609958
-0.06651837
0.03854935
0.28003496
-0.01623615
-0.13600163
0.06505471
0.12828390
0.08112186
-0.15685320
-0.08577152
0.01498046
0.05361366
0.14009139
-0.06285349
0.14524832
-0.05038178
0.08212572
-0.11692306
-0.13873741
-0.14000413
-0.04637530
-0.01322631
-0.18616603
0.07551009
0.04133676
-0.05251720
-0.22207595
-0.04345390
-0.07888756
0.02526099
0.05183407
-0.21909131
0.04973146
-0.00753194
-0.13558665
-0.18361267
-0.07396086
-0.00372489
0.03249723
0.03943524
0.13383844
0.11982802
0.06762666
-0.12227327
-0.00889339
0.07833035
-0.01477018
-0.08281825
-0.23371510
-0.16037910
-0.03380574
0.07035936
-0.11964885
-0.09876966
-0.02908313
0.07718743
0.09635682
-0.09601037
0.07399274
-0.28496739
-0.11153252
0.09440608
-0.17685384
-0.10479404
0.03576415
-0.07690313
-0.30996811
-0.26873794
-0.03567351
-0.17863606
-0.18042187
-0.09337977
-0.08030362
-0.01526127
-0.04799222
-0.17741118
-0.08163222
-0.00131433
-0.17946461
-0.15626825
-0.05889069
0.00766811
-0.01554632
-0.00026918
0.04128534
-0.05649178
0.10505099
0.00057292
-0.06329646
0.02289555
-0.02075112
-0.08294891
-0.05742279
0.11213082
-0.10434461
0.10244747
0.04851734
-0.19562918
-0.30438474
-0.09936384
-0.18729682
0.09736687
-0.02732207
-0.14833832
0.16341560
0.05763426
-0.12033167
0.06556126
-0.14198220
-0.04828215
0.14874494
0.00153428
-0.17638363
-0.07557625
0.06217081
-0.11631518
-0.01116675
0.03617683
0.03806866
-0.08510830
0.18946406
0.04148128
0.05123806
0.04895244
0.00264075
-0.00068903
-0.05065510
-0.15389788
-0.12089611
0.00815896
-0.11861593
-0.01260456
-0.07011238
-0.00545791
0.07689698
0.03177409
-0.07677656
0.21933816
-0.09050108
-0.15477099
0.02490911
0.01242148
-0.05284441
-0.03166236
0.13821360
0.01954091
-0.11146197
0.16361052
-0.07815794
0.08559585
0.01978206
-0.08113617
0.07638894
0.06036982
-0.21978188
0.19488589
0.03723566
-0.07652170
0.00351665
-0.02127514
-0.05465144
-0.23827009
-0.02825575
0.14761110
-0.12657745
0.13545637
0.13626224
-0.06608417
0.07080076
0.05062963
-0.05832167
0.19865504
-0.10548111
-0.04300700
0.12290406
-0.11957734
0.13813525
0.07955848
-0.08940009
-0.00882604
-0.14362144
0.08199064
-0.08029184
0.13031414
0.01529327
-0.12058991
0.07003005
-0.08649561
0.05531595
-0.18125921
0.02835427
0.14634395
-0.29806796
0.10674076
0.11486505
-0.59698480
-0.18750875
-0.00993904
-0.04737343
-0.07067920
0.04130280
0.01538318
-0.02946607
-0.11959068
0.01078358
0.07774076
0.09960317
0.04571253
-0.01254486
0.06856552
0.04376144
-0.04953191
-0.06637857
0.02287403
0.00041222
0.12793222
-0.00877748
-0.10717214
-0.09032407
-0.04389059
0.04388646
0.09650183
-0.04862077
0.03425436
-0.00330491
-0.01353006
-0.06092234
0.26512280
-0.03993300
-0.04505923
0.00148090
-0.02953837
0.03288195
0.09298858
-0.08973889
-0.03552027
-0.10081328
-0.05936082
-0.02851194
0.01089715
0.08166184
-0.00327535
-0.09654734
-0.03579958
-0.07459112
-0.01929117
-0.07154524
-0.00498880
0.06018158
0.17211077
0.06016384
0.02548051
0.02881009
0.11150837
0.01916625
-0.02779881
0.08566093
-0.12149563
-0.12246572
0.08733839
0.16739173
-0.05041027
-0.14774962
0.16117907
-0.10167775
-0.14541408
0.02352847
-0.04390379
0.00410922
0.02329209
-0.11833292
-0.23658063
-0.00847866
-0.01741280
-0.38941211
-0.11137575
0.03385078
0.07605043
0.14874883
0.05048979
0.07365429
-0.10448131
0.17062664
-0.00316864
0.03524823
0.18923448
-0.24093790
-0.11394817
0.00670605
-0.05192120
0.00246342
0.02440073
0.00522782
-0.01196780
0.04079076
0.10108045
0.06326696
-0.03144831
-0.07609034
-0.03948000
0.13862252
-0.17529781
0.06775185
-0.02820239
0.01240747
-0.05872754
0.11688265
-0.09667674
0.00784947
0.00178187
-0.06508005
0.12332712
-0.32542565
-0.20358807
0.02232103
0.04342179
0.06217054
-0.00630472
-0.13117243
-0.04312532
-0.26333141
-0.11987265
0.08905527
-0.04342566
-0.11666936
-0.14786622
-0.14078312
-0.01147530
0.08521149
0.00506275
0.11727232
0.06042951
-0.24993044
-0.00540462
-0.00005566
-0.12935910
-0.14009224
0.02235645
-0.02323304
-0.07857462
0.18045411
-0.04418782
0.01460487
0.07373377
-0.00455368
0.00078692
0.07467645
-0.08035022
-0.06348035
0.02721060
-0.00978475
-0.17705460
-0.14959273
-0.12565152
-0.61025935
-0.05261517
-0.28492191
-0.56836081
0.14620449
-0.05597240
-0.05445729
0.09504284
0.13796020
-0.03710162
-0.00697168
-0.10345163
0.01576823
0.14731482
0.06480865
-0.00996758
0.01014351
-0.01043782
0.01792339
0.04569780
0.05860902
0.00753259
0.04890576
0.07897620
-0.10049857
-0.15173925
0.20115496
0.02884312
0.02350375
-0.06653742
-0.01862002
-0.02308779
0.27684647
-0.35046527
0.13832678
0.04456133
-0.25412706
-0.08951185
0.17313905
0.03588149
-0.15169321
0.14300008
-0.08789858
-0.14921306
0.06375568
0.03359408
-0.16095847
0.00602206
-0.12065582
-0.19180885
0.06422702
-0.09739508
-0.22010148
-0.14422706
0.05593134
-0.14119102
0.28294146
-0.00473528
-0.04421520
0.04518778
-0.12501694
-0.12693056
0.20432127
-0.38112375
-0.03851600
0.01041691
-0.13872853
-0.02035822
0.06475339
0.00150806
0.09741769
0.16438074
-0.13522357
-0.11039347
-0.04470599
0.06099843
-0.04113365
0.02463578
0.03366329
-0.19125302
0.13169776
-0.02048547
-0.20448138
0.08928537
-0.01602235
0.08183981
0.11278937
-0.16049810
0.04401204
0.04881036
-0.29095879
-0.08151748
-0.04023617
-0.17848924
0.02826357
-0.07291531
-0.07660667
0.06445488
-0.09061521
0.12314420
-0.05045132
0.11138136
0.15825166
-0.00358263
-0.00654798
-0.03892255
-0.02477242
0.03193680
0.07951260
-0.02928315
-0.00459401
-0.05175815
0.00353298
-0.04311389
-0.08844399
0.09388030
-0.09705845
-0.05451741
0.10754094
-0.17528817
0.12976299
0.21211968
0.03782638
-0.04720573
0.15903948
0.05972804
0.07323083
0.34938431
-0.16354471
0.14138941
0.11341958
-0.04292190
0.02135083
0.07683225
-0.10121749
0.00332329
-0.15122917
-0.06726895
0.15503474
0.04077697
0.04051391
-0.01772368
0.02914100
-0.03976745
-0.03428117
-0.13220572
-0.03856269
-0.12538931
-0.07153138
-0.01232088
0.04543898
0.03286107
0.03942000
0.03283612
-0.04746931
0.06850917
0.05766106
-0.04963742
-0.14911866
-0.08198692
-0.02257413
-0.00437240
-0.04563162
-0.00615205
-0.00798625
0.00508533
0.00051522
0.10374393
-0.02833554
0.13715175
0.14220919
-0.16703591
-0.02052123
0.10461119
-0.02552370
-0.05803810
-0.22519222
0.11131983
0.04224456
-0.21338543
0.15427265
0.00871948
0.04841790
0.15165669
0.03988324
-0.02311426
0.00239200
-0.08797841
0.04253793
0.13446595
-0.11295611
0.01598620
-0.03444894
-0.04070154
0.00091603
0.06616036
-0.23193632
-0.20869303
0.05727161
-0.04378569
0.05744098
0.10384734
-0.06132554
-0.12742849
-0.15236214
0.13697425
-0.11976830
-0.01444526
0.23177575
-0.25734153
-0.06499858
0.12772124
0.15595844
0.01190312
0.01751135
0.31276745
0.00254152
-0.04210555
0.00144948
-0.20359163
-0.04710963
0.03401943
-0.03530008
0.02060562
0.00443053
-0.10604980
-0.06726839
0.03766545
-0.07414037
0.08187439
0.01135847
0.21325836
-0.07133421
0.05865185
0.05785880
-0.09687152
0.15727755
0.08176388
0.03074990
-0.11552049
-0.09583512
0.03965890
0.07787374
-0.06807259
0.06002384
-0.04280785
0.02241648
0.03098691
-0.09124148
-0.11331795
-0.05161198
-0.05810932
-0.20425111
0.13224168
0.17390658
0.00672731
0.12641652
0.08405659
-0.11904892
0.11612140
-0.04371504
-0.09297059
0.01214028
-0.05486178
0.01431392
0.07281315
0.04655402
-0.30509403
0.36156219
-0.04346130
-0.02073471
0.06975468
-0.17975166
0.21899924
-0.16010018
-0.05623052
-0.07162935
-0.10851478
-0.08152334
-0.09525597
0.02482527
-0.04755171
0.11362055
-0.05169891
0.02156262
-0.09197792
-0.00941010
0.04909411
-0.06734578
-0.23557675
-0.06780803
-0.20195226
-0.15819454
-0.10586514
-0.01951964
0.03388949
-0.09103975
0.07697743
0.04199024
-0.02712840
-0.06237520
0.02351505
-0.19964129
0.02245544
0.04612942
-0.12422472
0.17775789
0.05414642
0.06631964
0.16801988
0.07526954
0.01416423
-0.01700651
0.00419492
0.01178783
-0.05372426
0.06390306
-0.08822995
0.01798139
0.11862625
-0.02127167
-0.05316290
-0.14383495
0.03054359
-0.01298177
-0.08556364
0.07517970
-0.36475104
-0.14019550
0.09020050
-0.03928487
-0.08238707
0.12337957
-0.25208023
-0.08446486
-0.02036471
0.02196331
0.03189061
0.10865578
-0.14490570
-0.25287682
-0.02072894
-0.07806973
-0.02422495
-0.15186886
-0.20645255
-0.06120657
-0.13410372
-0.29733846
-0.47316921
-0.13595881
-0.00629530
0.02359347
-0.05050071
-0.02244082
-0.24122269
0.01483319
0.11093564
0.04880075
-0.10358799
0.05206132
0.06339285
0.03987046
-0.13941531
-0.06359787
-0.02150260
-0.23512779
-0.21239620
-0.07537202
0.05231391
-0.06131171
-0.19610475
-0.25250733
0.00259219
0.10646220
0.06238246
-0.02865996
-0.01216931
0.01381622
0.07998288
-0.17462654
-0.24669062
0.07895683
0.09346095
-0.01789818
-0.24274203
0.01975118
-0.01911560
0.05319787
-0.10228536
-0.32035515
-0.05824128
0.30144888
0.09214475
-0.25682485
-0.14123057
0.09805735
0.05518926
-0.12824726
-0.11937133
0.07517910
0.29069248
0.03063580
-0.05659788
-0.08424072
-0.01327841
-0.13134284
-0.02996311
-0.08162174
-0.04219312
-0.17387472
-0.30079129
-0.26777068
-0.08265677
-0.07532325
-0.09528878
0.00947044
-0.04197949
-0.02212426
-0.03334517
-0.00419426
-0.00110736
-0.01641669
0.08809981
-0.02285844
-0.15548456
-0.08299927
0.01903567
0.14115587
-0.18384004
-0.20487212
0.08605305
0.06098933
-0.02909436
-0.23241593
-0.09109251
-0.19920374
-0.02861906
-0.12928170
-0.10642470
-0.05161771
-0.04578802
0.01254928
-0.01440923
0.04593801
-0.12508324
0.12486647
0.05409714
-0.17364068
-0.11403508
-0.32067278
-0.40754479
-0.16002968
-0.16797565
-0.14054129
0.08423574
0.00284394
-0.13210769
-0.18459141
-0.23347025
0.02743837
0.08618540
-0.22043572
-0.27657986
-0.04300284
0.03219438
-0.00795946
0.05628444
-0.19542097
-0.12900646
-0.13378395
-0.04715277
-0.02661302
0.07435697
-0.11398049
-0.07566474
0.11731775
0.08393147
0.00684894
-0.07342171
-0.05660457
-0.01719996
-0.08807885
0.09210055
0.02573591
-0.08194283
-0.06701514
0.10763371
0.02190110
-0.08651246
-0.05327570
0.08059607
0.13406645
0.19945864
-0.11027155
0.01229488
0.19552076
-0.07282884
-0.37278017
-0.02588305
0.09631087
-0.11098365
-0.45749134
-0.15861075
-0.10765082
-0.06540801
-0.17437334
-0.05924078
-0.00069865
-0.02603790
-0.13403678
-0.15462759
-0.02535443
-0.10602691
-0.18355793
-0.01489542
-0.01698934
-0.06918389
-0.21143736
-0.23276585
-0.30887696
-0.09920207
0.07188075
0.03633885
-0.20238359
-0.32211286
-0.19665974
-0.15542506
-0.21345216
-0.25131345
-0.04712307
-0.01197457
-0.06337012
0.00164597
0.01685220
-0.02854205
-0.02088340
-0.12615523
-0.16584946
0.15857479
0.08343620
-0.14601356
0.03443003
0.03559330
0.01892104
0.25789225
0.05071560
-0.28589299
-0.04027726
-0.05440617
-0.01927719
0.12263910
-0.08498523
0.11818433
0.05077981
-0.04477197
-0.04929680
-0.10322849
-0.06715195
-0.09389651
-0.08984231
-0.21425582
-0.08152653
0.13878468
-0.07984005
-0.05924897
0.11735942
0.00061401
0.05449554
0.01305866
-0.03066522
0.03236104
-0.03546165
-0.02397202
-0.16275699
0.11313628
0.07189103
-0.12576784
0.14205168
0.08329324
0.06853438
0.06860213
0.00963796
0.20442453
-0.08551706
-0.12569326
-0.18120974
0.10225957
0.08818751
0.02558768
-0.08878651
-0.04029147
0.02063281
-0.00591726
-0.14048570
-0.19307879
0.00647977
-0.00952556
-0.12594870
0.02088688
0.20142558
0.09298874
0.05279202
0.02409246
-0.03051895
0.17629030
-0.01365255
-0.00890991
0.12972699
-0.13591523
-0.28270280
-0.14354447
-0.19704491
-0.22018351
0.13286100
-0.03471904
-0.22315535
0.05651225
-0.03090833
-0.31863105
-0.15103529
-0.14145552
-0.12491555
-0.13387249
-0.20187642
0.11077182
-0.07299766
0.00350461
0.08368459
-0.04726728
0.08722991
-0.32314309
0.11203690
0.14485398
0.06151596
0.11161319
-0.03579543
-0.36318541
0.04590415
-0.04339250
-0.09799902
-0.04213897
-0.19499190
-0.03766048
0.01646728
0.12037621
0.04135493
-0.05644995
0.04257804
0.14598714
0.02421365
-0.23357312
-0.04245848
0.03720399
0.17582454
0.08471049
-0.16215995
-0.04523405
0.06208270
0.08775309
-0.16974297
-0.19581193
0.24302369
-0.03171641
-0.25752744
0.15363713
0.08086514
-0.00881411
-0.04775828
-0.04286732
-0.07633403
-0.00536092
-0.07227901
-0.04036610
0.04147673
0.00070562
-0.00203729
0.03936512
-0.11764103
-0.19434610
0.01010480
-0.08956154
-0.03264657
-0.01333195
-0.00982186
-0.01720401
0.00159238
-0.09965062
-0.05298911
0.14784767
0.11104789
0.06599069
-0.22116721
-0.21338978
0.01162850
0.08128652
-0.08614390
-0.21190768
-0.05760913
-0.18460612
-0.15515603
0.00061492
-0.27677432
-0.18690464
0.20105153
0.14115061
-0.09766498
0.02677343
0.01846690
0.22038871
-0.28472346
-0.23336901
-0.19449723
-0.18692166
-0.05615995
-0.01188997
-0.01894887
0.11467557
-0.06887020
0.03860008
0.11067212
0.10003005
-0.01719809
-0.03912059
-0.09728827
-0.12541449
-0.16721603
-0.26077363
-0.11190768
-0.25989959
-0.18192635
-0.19513175
-0.00394189
-0.15739247
-0.12135596
-0.06359001
-0.14452216
0.02178911
0.15339880
-0.04179457
-0.01179761
0.04253298
-0.02111747
-0.07929274
-0.04838932
0.01252073
-0.24158761
-0.05961971
0.08022617
0.03526138
-0.11570241
-0.03404293
0.16235103
0.03641168
-0.10758412
-0.04871028
-0.02986461
0.12446105
-0.09961718
-0.17936714
-0.01599023
-0.17762548
-0.11430019
-0.04657611
0.09893455
0.06603032
-0.08027279
0.00423296
-0.06930909
-0.02384494
-0.11703444
-0.01366834
-0.00818728
-0.13846759
-0.04046550
-0.08250675
-0.01664483
0.25120029
-0.07787660
0.07254578
-0.08305310
-0.21684405
-0.11713132
-0.09105470
-0.06467491
0.03245293
-0.12103032
-0.08652217
0.07092948
-0.11739681
-0.15659913
0.09518396
0.00149539
0.04391053
-0.11950856
-0.13144428
-0.14139147
-0.08571998
-0.13449258
0.00390100
0.06329761
0.02330546
-0.10241468
0.01492594
0.00203235
-0.10554858
0.05453374
-0.07428806
-0.26856178
-0.06650703
0.10377737
0.00924231
-0.18291147
-0.12842798
-0.15730795
-0.02720403
-0.16110837
-0.17889886
0.00017233
0.09078605
-0.11022310
0.06224571
-0.03323027
0.00270944
-0.09718625
-0.01839494
0.08748824
-0.03840492
-0.12936911
-0.18760468
-0.03440042
0.04981817
-0.08716634
0.07246525
-0.01720674
-0.12725705
-0.18543366
-0.11772601
-0.11564415
0.00060238
-0.19686083
-0.17392287
0.04843820
-0.16761406
-0.38986766
-0.14919153
-0.07557524
-0.04332095
-0.20803982
-0.26034603
-0.16405359
0.17160353
0.13821989
-0.23151052
-0.09752118
-0.15438898
0.00502755
-0.00174179
0.13427809
0.05784437
-0.00995302
-0.13880521
-0.13424471
0.04536302
-0.05812119
-0.04426381
-0.05695973
-0.02552345
-0.03964758
0.03426435
-0.06154890
-0.24691795
0.06323399
0.05372488
0.00225153
-0.05624786
0.04790530
0.05020905
0.16755423
0.03108237
-0.01381247
-0.04344132
-0.00806686
0.12978816
-0.01425292
-0.21677305
-0.02649630
0.13378926
0.18402286
0.12884033
-0.08330735
0.07888671
0.16682272
-0.02201183
-0.13538440
-0.07326076
-0.09428026
-0.29871511
-0.47488588
0.01709608
0.00043784
-0.24703698
-0.06383228
-0.03421756
0.02973618
0.10221940
-0.16116452
-0.13968539
0.10763266
0.12177949
0.17908099
-0.10157334
-0.04089537
-0.01309156
-0.11038489
0.05275606
-0.13342890
-0.08784833
0.05720386
-0.15134627
-0.07980775
-0.05164474
0.03857576
-0.08037098
0.04814654
0.00444797
-0.11570633
0.09288312
-0.01842828
-0.04270801
-0.03653896
0.09447408
-0.39182305
-0.04441242
0.19934550
0.05551433
-0.02543529
-0.07854383
-0.22424917
0.08780714
0.10976437
-0.06263162
0.00594556
0.02322694
-0.02282341
-0.02703395
0.06031963
-0.04624685
-0.00462700
0.12394059
-0.18697138
-0.04899790
0.01552733
0.13511282
-0.25755107
-0.32142159
-0.11461756
0.04769778
0.08088729
-0.12915611
0.04504775
-0.36712715
-0.20905980
0.06659804
-0.28993273
-0.16898692
0.10526822
-0.14915088
-0.28636751
-0.21329096
0.14896405
-0.24129324
-0.33546236
-0.08182736
-0.24907829
-0.14706942
0.05554570
0.05204573
0.02973290
0.08644926
0.05351432
0.08645326
-0.02312054
0.07940409
0.06873782
0.02455278
-0.04812255
-0.03984522
-0.38046315
-0.00802299
-0.14629827
-0.26105717
-0.14524785
-0.01142340
-0.16228136
0.04221039
0.07200858
0.03128165
0.07654376
-0.01302237
-0.09355459
-0.06042152
0.07588915
-0.03341890
-0.18847565
-0.12259407
0.09760533
-0.18434316
-0.02753454
-0.08386322
-0.06992498
-0.07573587
0.08015699
0.05100092
0.06542119
0.00124342
0.09073864
0.11508350
0.00409206
0.01617639
0.01837376
0.07688034
-0.04221118
0.06143909
0.16143931
-0.02540202
-0.00355905
0.06628931
-0.11222900
-0.02275185
-0.15030469
-0.01220146
0.03018845
0.01235241
-0.02205478
0.00298024
-0.14961205
-0.10359839
0.01740789
-0.02288052
-0.03196356
0.05741846
0.00316308
0.00088912
0.03739041
-0.03146538
0.05506726
-0.00339531
-0.00328509
-0.02631069
-0.01375723
-0.00362926
-0.10874792
0.02278020
-0.06196115
-0.04483001
-0.03818383
0.02596164
-0.21227542
0.07362090
0.16937409
-0.03490505
0.05046426
-0.00935299
-0.17839338
0.03224726
0.09117407
-0.23249944
0.01613150
0.01261164
0.07807392
0.01943876
-0.32062426
-0.17959599
0.07200621
0.09929124
-0.10095231
-0.05054256
0.14742324
-0.19848724
-0.08129984
-0.12351057
-0.23165326
-0.24564368
0.08718153
0.01224401
0.05054572
-0.02914667
0.00329122
0.07666627
-0.06704919
0.00396121
0.02221022
-0.07419225
-0.02894948
0.02633347
-0.00898350
0.02893670
0.08238275
0.09933775
-0.03534975
0.05360592
0.15932240
-0.04788007
0.03615714
-0.12157036
0.01027424
-0.05989945
-0.18370460
-0.09961793
-0.06052136
-0.04062185
-0.15999633
-0.02141182
0.17908001
-0.06748570
-0.05570466
0.03647271
-0.07563862
-0.06455731
0.08719174
0.07179487
0.01927490
0.02940092
-0.01538358
0.02295073
0.03313140
0.04991251
0.09316140
0.04293587
-0.12725009
0.13561377
-0.08619601
-0.05594832
0.10478936
-0.03673016
-0.27825561
0.13891836
0.01461953
-0.02211300
-0.03667645
0.01170436
-0.00305714
0.06943072
-0.02422250
-0.03819128
0.05752350
0.04901719
-0.03543242
0.08726270
-0.29735398
-0.16655461
-0.08123351
-0.27296630
-0.15403523
-0.21426420
-0.52081800
-0.08223549
0.04568010
0.06598979
-0.14807834
0.09870549
0.07776997
-0.09420433
0.09199206
-0.08758957
-0.00387805
0.00145772
-0.00686225
-0.00186892
-0.01974716
-0.04413353
0.03572134
-0.02908094
0.02422590
0.11438816
0.08477248
0.34803823
0.27944815
0.11236120
-0.00018014
-0.11956562
0.13004512
0.23711225
0.11511486
0.00162300
0.18634416
0.07486742
0.17547522
0.11108678
0.14153251
0.12567955
0.15906337
-0.21405613
-0.00101678
0.04468018
0.08767695
0.05545400
-0.25663304
-0.20601061
0.01174683
0.05286983
0.12594548
0.10313427
0.21051611
0.15503733
0.34137303
0.17133510
0.12519780
0.12144306
0.10225361
-0.08313739
0.10263445
0.27746862
-0.23156136
-0.19745384
-0.05807245
-0.17481768
0.08761561
-0.20086460
-0.24062636
0.02249285
0.21419160
0.01159567
0.01687314
-0.03102423
-0.16657126
0.11217444
0.09182781
-0.33706826
0.02701467
-0.02984100
-0.02744176
0.07282170
-0.16542888
-0.15422796
-0.01386380
0.05739387
-0.13988778
0.02228562
0.09355814
-0.28664657
-0.22637573
-0.18885975
-0.24234614
-0.03776705
-0.24469094
-0.04849420
0.07820755
-0.00649654
-0.06894592
-0.04739180
-0.02805198
-0.03092399
-0.04018823
-0.21186864
-0.01394795
0.05716265
-0.00451377
0.00110954
0.02581277
0.04172942
-0.04076307
-0.01232936
-0.05104807
-0.04310124
0.07498909
-0.21975778
-0.07775079
0.09066873
-0.32026953
-0.18588492
0.02532506
0.01928589
0.22339635
0.11963937
0.13416968
0.35692436
0.27373821
0.16779698
0.17461948
0.15479195
0.07550437
-0.02585402
0.05341433
0.24947716
0.05994172
-0.16665865
-0.04045936
-0.12286879
-0.00005589
0.07105999
0.04952460
-0.00754010
0.02146997
0.03837214
0.04967343
-0.09096774
-0.11007382
0.02158673
0.05112929
0.02762805
0.08352547
0.03763010
0.00581828
0.05117040
0.02766631
0.01787862
0.01025246
0.02757843
-0.08493253
0.15093072
0.01574104
0.05389969
0.05065219
-0.11599869
-0.14999180
-0.00452966
-0.01483182
-0.11229762
0.08005595
0.14876312
-0.03417590
0.00383844
0.03703746
-0.19788432
0.10330447
0.12881459
-0.15820415
0.02861665
-0.12622736
-0.08133396
0.05607025
-0.37097174
-0.21661949
0.10467821
-0.16228911
0.01551860
0.07466216
0.06294976
0.06240558
0.04321670
-0.08501808
-0.09915976
-0.02568970
0.05124039
0.01319848
0.07549637
0.03412910
0.01194659
0.13902044
0.05463177
-0.05138382
0.01334125
0.01212791
-0.07845002
0.05727146
-0.21154435
-0.06684503
0.01981572
-0.24458800
-0.12427056
0.01419219
-0.16882522
-0.22725034
-0.16570839
-0.08590370
-0.00313342
0.02415676
-0.16122638
-0.04748950
-0.01691124
0.05753242
-0.05244469
-0.02539038
0.05486935
-0.01627406
0.01345135
0.02588642
-0.00075206
-0.05474522
-0.03075621
0.01998241
-0.06049956
0.20465797
-0.03366924
0.06856117
0.16850619
0.05196622
0.01737783
0.12567239
0.00598006
-0.02336353
-0.03469058
0.01922046
-0.03869613
0.01833320
0.02039697
-0.02425578
-0.05941685
-0.02412047
0.10353814
-0.14905171
0.01524104
0.15139143
0.05373485
-0.12130307
0.03387821
-0.11167835
-0.04032941
0.06017750
-0.04973254
0.02513291
0.04653218
0.02957863
-0.02934091
0.00190754
-0.15063538
0.12503682
0.00841205
0.11195896
0.12344795
0.15434682
0.20917854
0.12834312
0.20081261
0.13064642
0.00687087
0.08732445
0.07968581
0.08270236
0.02776884
0.04785312
0.09638863
0.17258020
0.07935697
-0.12572303
-0.01651394
-0.00560415
-0.21678351
0.00245489
-0.07075723
-0.09639460
-0.08191146
0.11988430
-0.05036751
-0.01389330
-0.04417170
-0.14962365
0.07492334
-0.04265546
-0.04101594
-0.03937491
0.10672894
-0.15916353
0.04914888
-0.27464578
-0.07037881
0.03318019
-0.37826410
-0.27702576
0.09394643
-0.18678048
-0.15067878
0.10770194
-0.03453306
0.04663258
0.10228752
-0.33351687
-0.14335619
0.07371037
0.02534577
-0.19470623
0.03909237
-0.69922185
-0.17931581
-0.03763358
-0.74920112
-0.31842315
-0.15794007
-0.46617892
0.07849414
0.02340581
-0.03379061
0.02421455
0.07069280
-0.00492518
0.04062924
-0.02079198
-0.09408772
0.03196907
0.03300054
0.00331654
0.02739445
-0.20770308
-0.02561747
0.08355129
0.04494606
-0.00495060
0.01257331
0.02587714
0.01217239
-0.07004493
0.00021513
-0.03790714
-0.10029941
-0.06637324
0.00545688
-0.10691649
-0.09427735
-0.03914307
0.25033486
0.32985216
0.11266290
-0.13101113
-0.10118657
-0.12805542
0.08238638
0.00214868
-0.04062575
-0.02736659
0.02755376
0.02962293
0.06377102
-0.10792470
-0.09330769
0.08566768
0.05325483
-0.01204401
-0.12386355
0.21658278
0.07545923
-0.11585482
-0.21599554
-0.04131464
0.13778646
-0.06657182
-0.07512229
-0.00493018
-0.15491559
-0.12607126
0.06344163
0.04008730
-0.04425194
-0.09109588
-0.14510022
0.00088771
-0.09430796
-0.01496208
0.08315392
0.01818911
-0.06026172
0.03520950
-0.08693852
-0.01731402
0.02624674
0.11260056
0.05985031
-0.08425178
0.03360265
-0.02763629
0.06637836
-0.14734913
-0.21092564
-0.00693000
0.18401012
-0.01432174
-0.01699066
0.08052240
0.04549301
-0.00511898
-0.03781228
-0.04760052
-0.19163896
-0.06792761
0.07939360
-0.01572258
-0.06326056
-0.09808657
0.10193539
0.01960325
0.12920585
0.06606866
-0.07717919
0.08056556
-0.11612576
-0.12326664
-0.00623128
-0.05940379
-0.01226326
-0.08004629
-0.11927807
0.15176398
0.11009708
0.03286106
0.05950639
-0.03917782
0.08054059
-0.03227961
-0.00342890
-0.15290204
0.07308583
-0.02081338
0.14682278
-0.26520145
0.20170374
0.27981415
0.01748846
0.00392492
0.10462276
-0.18249719
-0.10364353
0.05932803
0.06057076
0.04804999
-0.00605880
-0.03822954
0.04314862
0.04314589
-0.17979497
-0.13152489
-0.00314745
0.03173225
0.13113150
0.06565081
0.08087314
0.13653430
0.00366232
-0.02826687
-0.07860724
-0.12545344
0.00778493
0.05374846
0.03398201
-0.09643421
-0.06917524
-0.03193890
0.13608269
0.29290345
0.22690257
-0.17889100
-0.07490268
-0.11583550
-0.19191720
-0.07577512
0.15003988
-0.15962413
0.19182023
0.13634846
-0.06262919
0.01917830
0.03383241
0.00918481
0.04743990
0.11655337
0.02721661
-0.01591255
-0.08467482
0.12799926
0.18826762
0.07545232
-0.05428936
-0.07885344
-0.04490812
-0.03203014
-0.05307946
-0.06104297
0.10325258
0.05409926
-0.01561148
0.00749061
0.13654992
0.05377363
0.00606052
-0.00931386
-0.13807537
-0.02866213
-0.09446964
0.04893666
0.03570867
-0.05882929
-0.00009044
0.06079351
0.00413538
-0.06736954
0.09644254
-0.04384380
0.01140575
0.08936325
0.19330215
0.01666905
-0.10104854
-0.08475060
-0.08342776
0.05342416
0.20487626
0.08369701
-0.04869411
-0.07750539
0.03760960
-0.07092354
0.00989604
-0.00316176
-0.02423245
-0.08181269
0.04047119
-0.19555897
0.04409592
0.10706327
-0.32236174
-0.18013468
-0.09642684
0.01390310
-0.10113221
0.05861510
-0.03240575
0.03670608
0.05111979
0.00585089
-0.06411231
-0.05245382
0.09690358
0.10258952
0.04390059
-0.01702226
0.07508267
0.03391152
-0.12894374
0.03607411
0.12635921
0.05690474
0.22220980
0.05572060
-0.07735799
0.03311767
-0.09441349
0.09288989
0.03858953
-0.03507319
0.19127430
0.31099221
0.25169447
0.04578611
0.00483496
0.02824254
-0.02884288
-0.09246195
0.05282885
-0.03160929
0.03420135
0.06295491
0.31277648
0.25255167
0.11562612
-0.31288198
-0.28596056
-0.33280259
-0.04382654
0.04627580
0.17058963
-0.12974070
-0.11282025
-0.09296560
-0.09068153
0.03556266
0.06141232
0.10320632
0.18653743
0.08145800
0.06213158
0.21481375
0.07872368
0.04911681
-0.00102087
-0.02889243
-0.00855408
-0.00779800
0.01002799
0.05594737
0.03158746
0.16915630
0.32078668
0.17349321
0.00699785
0.04060398
0.04535881
0.11048046
-0.01396543
-0.01765653
0.15272920
-0.14810590
-0.21613657
-0.11118931
-0.11080107
-0.14098154
-0.01624364
-0.12579854
0.02656270
-0.00862773
0.12596825
0.22620490
0.05416788
-0.30299303
0.03927412
-0.03746619
-0.06697013
0.02812422
-0.06220460
0.05393358
0.19576034
0.16178958
-0.12878895
-0.05646066
-0.10916346
0.00819529
0.15000266
0.19389141
-0.17609817
-0.07300262
-0.08770241
-0.17310610
-0.04626825
-0.00444213
0.03383353
0.03223389
0.09582306
-0.16038828
-0.12160961
-0.10883126
-0.02612547
0.00017104
0.13926382
-0.21743888
0.03260971
0.01166028
-0.21764557
-0.11856977
0.00287688
0.06791945
-0.05719671
-0.04716419
-0.07333804
-0.10374729
-0.09911440
-0.06482135
-0.12432557
0.01112581
0.06815245
0.21499482
0.02046117
0.14406954
0.10084358
-0.12647514
-0.10004487
0.03185713
0.01928564
-0.03842037
0.00699960
-0.01643089
-0.21303809
-0.08036831
-0.11194190
0.09907079
0.09798917
-0.01425865
0.16789378
0.30502072
0.23866628
0.02921759
-0.06826426
-0.01922887
-0.02083101
-0.05538007
-0.13161682
-0.03697607
-0.05828534
-0.05402096
-0.04331343
-0.05102424
-0.07363167
0.00594824
-0.13686924
-0.07582439
0.09197318
0.02152359
0.00816143
0.27027297
-0.00298127
0.10722355
-0.26022655
-0.18900865
-0.26760805
0.15664944
0.03530895
-0.01377886
-0.05459508
-0.01295056
-0.12843864
0.26021919
0.21023795
0.11784734
-0.21591136
-0.04320661
-0.02098327
0.04792468
-0.10684990
0.01192283
-0.10990476
-0.09526424
-0.01407530
0.05564528
0.06017469
0.02155807
0.01628567
-0.07453614
-0.10721961
-0.37090510
-0.21583961
-0.31061262
0.13626419
-0.04015340
0.15396725
-0.19383602
-0.08039618
0.01137351
-0.08741780
0.06512298
-0.02606289
0.12422261
-0.16995242
0.00444299
0.02310605
-0.04406773
-0.00837945
-0.00196406
-0.23797959
0.01570858
0.02665306
0.00238578
0.03832759
0.02574855
0.24385870
0.15805213
-0.15154369
0.22801401
0.11953248
-0.15586060
-0.05294345
-0.13411573
0.05306885
-0.02581481
-0.01076144
0.12876147
0.01971847
-0.14787251
0.08211718
-0.02351509
0.02948553
-0.00307481
-0.06725550
-0.01919137
-0.30753341
-0.41679105
-0.21559595
0.06669391
0.10895453
0.17602251
-0.04962756
-0.02386714
-0.01948822
0.06313056
0.01143031
-0.00699292
-0.07317069
0.09857800
0.07200589
0.11266642
-0.05645285
-0.02750941
0.12996946
0.04301899
0.06849422
0.09225712
0.16726162
0.00446636
-0.00673627
-0.02187929
0.05737309
0.04788309
-0.05528064
0.06064709
-0.00363039
0.04278466
0.10208197
-0.05488111
-0.07203688
-0.02104781
0.05693609
-0.20711242
-0.10203733
0.17503136
0.01411026
0.08044800
0.17115571
0.08558800
-0.04833161
0.00458841
0.28214332
-0.17774597
-0.01291864
0.16084705
-0.07346180
-0.11688113
-0.02470529
-0.04734861
0.09200887
0.04907415
0.00236969
0.08238489
-0.06810923
-0.08734859
-0.00738231
0.08215543
-0.02730581
0.04924303
-0.08722209
-0.06351428
0.16782941
0.15999629
0.06568547
0.02400807
-0.10781710
-0.03253391
-0.05570652
-0.11608363
-0.06876758
0.13899399
0.11442980
-0.01429772
-0.25520322
-0.18953963
-0.02640602
0.10868831
0.21104622
0.25942963
-0.11398281
-0.06607119
-0.09517232
-0.16963458
-0.10206881
-0.00417218
0.00623583
-0.04588069
-0.04934664
0.09998401
0.03656923
-0.11009725
-0.11450025
-0.08332778
-0.00008764
0.07386336
-0.09308533
-0.18344679
-0.04947187
-0.10041731
0.01818000
0.14253801
0.07995815
0.00923556
0.04598188
0.07239065
-0.09238551
-0.23772974
-0.21001665
-0.06153442
0.14578217
-0.10219053
-0.06092034
-0.07611454
-0.14117302
-0.06850872
0.10832826
0.14195891
-0.10523129
-0.10008233
-0.03715074
-0.09169436
0.00561971
0.06273636
-0.11053573
0.10499131
0.01087949
-0.18582334
0.15249194
-0.00506831
-0.10051402
-0.11636169
0.03843826
-0.00749149
-0.10414869
-0.10251992
-0.17570925
0.12291332
-0.13111366
-0.21610141
-0.25864208
-0.17055948
-0.09661265
-0.00731406
-0.07227685
-0.07705685
0.11832077
0.05649741
-0.08314495
-0.08418594
-0.09042021
-0.10972682
-0.19880657
-0.38168842
-0.06074200
-0.05018621
-0.01774041
0.01312230
-0.04383852
0.06172649
-0.08263481
-0.20144458
-0.10180189
0.01361809
-0.08914733
0.04233718
0.12447418
-0.11502994
0.01876217
0.02868579
-0.14911850
0.10758910
-0.20864274
-0.13107891
-0.01494160
0.11361878
0.13817109
0.05812548
-0.00572077
0.17635168
0.00904305
-0.01254113
0.10770617
-0.01099892
-0.10891902
-0.07522395
-0.19481057
-0.04461505
-0.00065867
-0.16719146
-0.07994039
0.17870012
0.07104569
-0.26987547
0.10115597
-0.13797735
-0.13147727
-0.16111556
0.02753965
-0.03811248
-0.00582670
-0.13585025
-0.05002094
-0.09181872
-0.03737909
-0.04185894
0.09542909
0.02285411
0.09618758
-0.12318075
-0.10725673
-0.06823547
0.36176875
0.10777438
-0.22898349
0.02951969
-0.23669970
-0.16607237
0.04696515
-0.02927259
-0.08019411
-0.14816950
-0.11055987
-0.22197342
0.04218330
-0.11289877
-0.15769009
0.09970647
0.06567753
-0.06022442
0.01412692
0.00620354
-0.06902868
0.11693624
0.08828814
0.04062525
0.18199693
0.14200407
-0.23161705
0.09456386
-0.04589439
-0.18068016
-0.14657359
-0.12497893
-0.11062066
-0.06270836
-0.02951864
0.06360963
0.06045045
0.06770001
-0.11186290
0.15223412
0.01929104
-0.14296797
-0.07305189
-0.24265178
-0.22338493
-0.20055042
-0.10111421
-0.10345170
0.06248624
-0.15544856
-0.17484508
0.03712203
0.03197415
-0.05755312
0.04584454
-0.00737002
-0.10000455
-0.27473408
-0.00626711
-0.11134322
0.02903257
-0.09205560
-0.10904989
0.05057303
-0.04556748
0.01259513
-0.08472899
-0.08203787
-0.04842675
0.23195654
0.05053255
-0.01621782
0.08820499
-0.06592891
-0.06583855
0.15026450
0.00973204
-0.11692196
-0.30788335
-0.02021076
0.15341923
-0.12837681
0.05068684
0.06009127
-0.00294633
0.08819944
-0.00997778
0.18573846
0.05271784
-0.26482603
0.23763798
-0.13759448
-0.27835485
-0.21381670
-0.17312413
-0.28085697
0.13436759
-0.15311256
0.05011862
-0.15721574
-0.02763367
-0.11007990
-0.10822297
-0.06134529
-0.04395985
-0.10870822
-0.11193035
0.02663554
-0.10186375
0.01582942
-0.04833705
-0.24013902
-0.12765549
-0.11900521
0.05189209
0.03523483
-0.04352105
0.10077994
-0.01729948
-0.11193058
-0.05009882
-0.11610612
-0.04187243
-0.00593331
-0.03688751
-0.02093187
0.12194218
0.00338537
-0.14880203
-0.05534482
-0.06810512
-0.09619205
-0.07482934
0.05986678
-0.21287088
0.24165936
-0.00533192
-0.22022495
-0.09921423
-0.39937410
-0.27075124
-0.01235235
0.03339329
0.03302055
-0.03402728
-0.01027307
-0.10202777
0.00979031
-0.14310731
-0.03197489
0.16880283
-0.15874723
-0.18803684
-0.06517325
0.16438663
0.15816423
0.11807307
-0.06699644
-0.09122965
0.09224348
0.11332411
-0.02226395
-0.20290992
-0.08906765
-0.05619983
-0.10532972
-0.13132454
0.01042647
-0.01276581
0.16344267
0.07252963
-0.05984589
0.08289868
-0.09269440
-0.15605515
-0.23243731
-0.08171412
0.15097673
-0.20208588
0.03481378
0.00627396
-0.09700389
0.03659575
0.11449898
0.16723156
0.01577384
-0.18978268
-0.08270437
-0.03136532
0.23887581
0.12296358
-0.18145986
-0.11211220
-0.14236645
-0.17910074
-0.21160641
0.02491059
-0.03293570
0.09599106
0.10261196
-0.20096099
0.06217327
0.00162713
-0.12248496
0.06439497
-0.15612037
0.03653950
-0.10451914
0.14614807
-0.11730362
0.25177529
0.06590489
-0.05259671
0.11647112
0.15426613
-0.17720687
0.13148245
-0.01910284
-0.22296549
-0.23961237
-0.08018132
-0.18269728
0.24606021
0.27314916
0.09723481
0.15631822
-0.20692015
-0.11771896
0.09041248
0.04637308
-0.05049039
-0.00424635
-0.15764207
-0.08506136
-0.10319586
-0.07051823
-0.04030608
-0.06991379
-0.07507350
-0.03366765
-0.05923590
-0.05560195
-0.23771240
-0.09483892
-0.11359192
-0.19558969
-0.11024366
-0.13710696
-0.12848014
0.04858738
-0.28176299
-0.13990729
-0.06527524
-0.16337730
-0.22833471
0.12027513
0.11385374
0.06439707
-0.23139437
-0.12487403
-0.12985942
0.14440094
0.01219309
-0.11855566
-0.04981270
-0.22923256
-0.17469686
0.03704951
-0.06904109
-0.01352655
-0.10289644
-0.10288960
-0.01111560
0.02278642
-0.01231707
-0.11937788
0.08290821
0.06748791
0.04021096
-0.13492331
-0.02313204
-0.15388329
0.10810059
-0.11405851
0.11416048
-0.05774027
-0.03394102
0.07590465
-0.20490989
-0.10643732
0.05681170
-0.16279176
-0.09217764
-0.09515114
-0.12555523
-0.12476353
0.12222370
0.15340865
-0.00288653
-0.03392801
0.10754561
-0.11723717
-0.10284859
-0.00551370
0.04248939
-0.09881818
-0.07377428
-0.14181921
-0.08856852
-0.17843106
-0.29290828
-0.15095131
0.19226044
-0.05723825
0.03020156
-0.05333747
0.02079108
0.00271373
0.08831084
-0.02918291
0.02021405
-0.05845443
-0.00465304
-0.02469429
-0.08854783
0.10116909
-0.09041917
-0.10356587
0.10574247
-0.02863040
0.02028600
0.09561376
0.05769172
-0.00265790
0.07343076
0.01366271
-0.06323128
-0.08614034
-0.11890234
0.24218483
0.15215909
-0.23084939
0.10099726
-0.14433593
-0.13986349
-0.11427376
-0.08593613
-0.09609149
0.00032703
-0.05238812
-0.09346239
-0.02157474
-0.06657200
-0.15586551
-0.03689075
-0.08579973
0.04833738
0.11676213
-0.15658215
-0.06938875
-0.05963089
-0.12355448
-0.14274338
-0.03251275
-0.06264988
-0.03187726
-0.09484643
-0.05590301
0.09178235
0.10680930
-0.08894791
-0.06525576
-0.02136239
-0.11916248
-0.09547611
-0.05314739
-0.09060019
0.20273754
-0.03556993
-0.12775201
0.01797341
0.10307043
-0.09958764
-0.06368550
-0.03918592
0.09272306
-0.05753210
-0.09825681
0.08988259
-0.18703882
0.00109908
-0.08867762
-0.11489402
0.06750740
0.24889989
0.14232515
0.13884345
-0.09798533
-0.12394852
-0.14506480
0.03962284
-0.14290917
0.01490045
0.04678805
0.04282743
-0.16849753
-0.06966387
-0.14840125
-0.28507298
0.00218105
-0.07347355
0.11525462
0.05429424
-0.19017541
0.20101082
-0.08441050
-0.29522321
-0.10947409
-0.01662586
-0.10492954
0.12592471
0.11188165
-0.07132930
0.15034123
-0.09428218
-0.11793216
-0.16421489
-0.14876166
-0.03770587
0.03600587
0.01821268
-0.08451233
-0.09880760
-0.13429467
-0.04405662
-0.18014133
-0.34973380
-0.04637738
0.04092832
-0.13803761
-0.21543591
-0.11428618
-0.11653723
-0.24569397
0.05578279
-0.07117128
-0.17467767
-0.23693211
0.00581753
0.19038509
-0.01886664
0.12949237
0.07769316
-0.02437686
0.08566328
-0.03058757
0.09601083
-0.12204488
-0.19104037
0.09377657
-0.10524410
-0.13767560
-0.04206551
-0.00253989
-0.13688964
-0.03106110
-0.00229687
-0.08388277
0.00285834
0.11452973
0.03845000
0.11487881
-0.10288265
0.02947249
-0.02378066
-0.07124440
0.09892713
-0.03609459
0.07194507
-0.06702459
-0.01063880
-0.01673221
-0.08479605
0.13354506
0.15282743
-0.09539144
0.17174940
0.10585983
-0.09475730
-0.09235493
-0.03375705
-0.09188581
0.00143904
0.08241312
0.03986593
-0.02110997
0.04373465
-0.05010462
0.01880213
-0.04093365
-0.12283947
-0.15452997
-0.07724106
0.11049134
0.14015704
0.15635185
-0.05452819
-0.21196686
-0.09957299
-0.10373685
-0.11118574
-0.04721286
-0.00325631
0.00144578
-0.04145025
0.11214594
0.06134272
-0.12711689
-0.10695827
-0.02329876
-0.17973414
-0.13901527
-0.10804059
0.01073272
0.02832124
-0.00936069
-0.04037645
-0.05597215
0.01999144
0.00577123
-0.04838011
-0.15002784
0.00773308
0.05370505
0.00971683
0.01889989
-0.01230067
-0.00123832
0.14314517
0.07681525
-0.13910341
-0.15700415
-0.07524099
-0.11433148
-0.00545921
0.07849820
-0.02016239
0.08952093
-0.02193630
0.17016357
0.11152638
-0.01784721
-0.17428257
-0.06063693
-0.08742879
-0.19931403
-0.01553549
0.03544009
0.11137391
0.14334455
-0.03210884
-0.10198314
-0.01514944
-0.04344369
0.16782387
0.05931175
-0.09400036
0.08653353
-0.07237566
-0.07913758
-0.12036408
-0.02165130
-0.01462403
0.06054061
0.22624391
-0.09740759
0.22343768
0.10705972
0.04512068
0.04713967
0.10760193
-0.09103733
0.06766324
0.09554008
0.03029481
-0.07290540
0.05075350
0.10958731
-0.01121614
0.18680553
0.03251342
-0.02669014
-0.04488230
-0.02876745
0.07480198
0.19982401
-0.04631433
0.01800888
-0.06761457
0.01131292
-0.14755014
-0.06618048
0.08400105
0.17555411
0.22425832
0.02390815
0.07122720
0.01649090
-0.04930581
0.06713860
0.17633867
-0.08746582
0.09773851
0.02180171
0.06538471
-0.20583956
-0.00071190
-0.07583101
0.17945814
-0.10118700
-0.09770661
-0.06360745
-0.02563413
0.08861661
-0.02073083
0.13693888
-0.05562652
0.09384687
-0.04231720
-0.14531972
0.01371640
0.09704656
-0.02772323
-0.15608738
0.09518192
0.07864390
0.04262514
-0.14023140
0.01596048
-0.11103392
-0.12457992
-0.11294052
-0.01215418
0.03799018
-0.02375812
0.14488362
0.01433427
-0.07798878
-0.07490440
-0.16752134
-0.18773247
0.05266430
0.08934787
0.05253495
0.01125517
0.05212140
-0.02583398
0.13671294
-0.19828114
-0.08223460
0.00590122
-0.05512395
0.04759081
-0.04885726
-0.02465914
0.07259696
0.13499080
0.18791604
0.01812506
0.15493631
0.09934296
0.06322572
-0.03060119
0.02323897
-0.02572316
0.18438940
0.10302297
0.11577123
-0.00354567
-0.02014162
0.00711742
-0.20285507
0.06888803
-0.03479001
0.03672398
0.12662223
-0.01416951
-0.06055191
0.23791943
0.06007671
-0.05119083
-0.04919712
-0.07246491
-0.05261321
-0.09095536
-0.00298103
0.11263865
-0.00825243
0.04062209
-0.03829943
0.06618613
-0.00304070
-0.17373139
-0.01603290
-0.03738298
-0.00691585
0.14609510
0.09541649
0.03691054
-0.06094226
-0.03560711
-0.05087123
0.01817325
-0.02911925
0.32480937
0.11027690
0.02778429
-0.00642171
0.02416274
0.05173288
-0.06886183
0.01161470
0.05479741
-0.01927510
0.05728382
0.06351084
-0.11781152
-0.21855889
-0.25812837
-0.00659177
-0.03457197
-0.08815572
0.03527792
0.01127455
-0.03559152
-0.01643022
-0.04846946
-0.09218231
-0.05816115
0.01036723
0.03519619
-0.00824495
0.06000347
0.00359064
0.03068360
-0.00326628
-0.02264362
-0.03579842
-0.08473257
0.06675632
-0.17781089
-0.05300815
0.10858703
0.38603139
0.26887006
-0.02563970
0.06914207
-0.06756084
0.01684372
0.00839645
0.01010838
0.08850345
-0.00377234
-0.03483600
-0.04220869
-0.14756577
0.08520775
0.05853469
0.08548961
0.00534359
0.01001185
0.19815239
0.17600286
-0.13316748
0.07877357
0.11383906
-0.07828545
0.01922813
0.09560525
-0.05732163
0.01295906
0.15517971
-0.06362388
0.02408239
-0.05895219
-0.04946904
-0.08574644
0.03171692
-0.00067591
-0.27233675
-0.11142946
-0.01146196
0.12764469
0.18826357
0.08977112
-0.05463915
0.07001819
-0.02323513
-0.03641461
-0.03851577
0.00734219
0.12578012
0.00609614
-0.04979232
-0.06359232
0.03531468
-0.03014887
-0.13926636
0.02287040
0.08123796
-0.05409265
0.07796513
-0.06035498
0.00853957
0.09899218
0.03849694
0.17973576
-0.02836524
-0.03298703
-0.19035085
-0.14160879
0.00013957
0.14655444
0.13739152
-0.09870371
-0.05995578
-0.10514365
0.13892612
-0.15658428
-0.07579610
0.15191795
-0.21342874
-0.03940713
0.04633099
0.22325687
0.19011988
-0.07734721
-0.06450962
0.07130091
-0.07986419
0.13264380
0.09653914
-0.00653859
0.03782942
-0.00495729
-0.07966505
-0.09898821
-0.09013070
0.02407442
-0.01915117
-0.06710932
0.00343824
0.03990456
-0.19815947
-0.05474047
0.01590686
-0.04765718
-0.00396764
0.02567912
0.09225803
-0.11456076
-0.02714067
-0.00545415
0.00443212
0.03224153
-0.01257169
-0.04513634
0.02334036
0.02498692
0.12503646
0.08811799
0.17460841
-0.11221383
0.08817463
0.00317974
-0.12254138
-0.12675886
-0.01289808
-0.05630200
-0.04455398
0.00757312
0.04428613
-0.20865791
-0.01555419
0.08260342
0.15933338
-0.02909108
-0.01135190
-0.14841424
-0.03273398
-0.09156197
-0.05767494
-0.07459933
0.00494689
-0.01022019
0.08287051
0.05939303
0.08477171
0.04936662
-0.04098741
0.09509739
0.07031815
0.03198533
-0.07586423
0.13601205
-0.06490783
-0.02259618
-0.10674413
0.00217831
-0.18092301
-0.19064653
0.05451873
-0.09576953
-0.10555944
-0.00237592
-0.09367643
0.10434175
0.04790275
0.14453351
0.38124597
-0.00266556
-0.11624908
-0.11552425
-0.03448827
-0.03950880
0.05623796
0.06787158
-0.08287713
0.00399906
0.06322084
-0.00222665
0.00340231
0.05262233
-0.28222668
-0.01420991
0.00149913
-0.28686696
-0.03979523
-0.02449199
-0.13355444
0.09796659
0.00546243
0.03730101
-0.04351946
-0.10425492
-0.05371212
0.03905535
-0.05409261
-0.01899384
0.04860385
-0.00390872
0.04617174
0.10317112
-0.01918582
-0.06268372
0.00024390
-0.07381745
0.01605211
0.18530907
0.04379670
0.10280588
0.11470538
0.00244018
-0.17177761
-0.16065782
0.10002176
-0.02907884
0.03545647
0.08930176
-0.04565842
0.07397645
-0.05117293
-0.14313047
0.01922351
0.03333838
0.07952851
-0.11456728
0.03914837
0.04568712
-0.02883233
-0.08098927
0.32192731
0.17823581
0.13987032
-0.05954671
0.16360945
0.03459785
0.12722503
-0.01966625
0.05959247
0.01016193
-0.20608671
-0.13048331
0.07818718
-0.13014068
0.03148270
-0.04483460
-0.02611324
-0.07991029
0.00416325
0.04930001
-0.03880037
0.23684521
0.07656749
0.03741447
-0.05335711
-0.01989384
0.05650964
-0.14499870
-0.08193709
0.03201280
0.14741360
0.03899350
-0.09147679
0.30214500
0.01140051
-0.02308926
-0.12944503
-0.00988587
0.08797896
-0.09312097
-0.06896742
-0.09825926
0.00964684
-0.09874383
-0.01774157
0.01064833
-0.27243492
-0.10166139
-0.03742461
-0.11324160
0.09272212
0.15533674
0.08466650
0.03914762
-0.32030672
-0.34549865
-0.14296690
0.02463730
0.09457932
0.11115891
-0.04718418
0.03227995
-0.11847817
-0.03510165
-0.28218585
-0.12405247
0.15778887
0.23990360
0.13025829
-0.00741942
0.08282424
0.01687692
-0.13244127
-0.10059926
-0.07209609
-0.13879722
0.03774717
-0.02059398
0.09514527
0.09395349
0.04955974
0.10128916
0.23704660
0.15442611
0.07875504
0.11164518
-0.07585081
0.02917821
-0.03532669
-0.06337092
-0.10299910
-0.12920234
-0.08793332
0.25373438
0.11558344
0.03590367
-0.00118601
0.13103417
-0.03623943
-0.18749437
-0.08141628
0.08416191
0.07684469
0.08519146
-0.05825349
0.00129921
-0.16794382
-0.06892478
-0.05136690
-0.16339709
-0.05503388
0.20042332
0.25269279
0.04055403
-0.19987421
-0.28385356
-0.04454244
-0.20945346
-0.17363627
0.09344853
0.16531070
0.05725712
0.07535129
-0.06243966
-0.04597046
0.01502744
-0.11831520
-0.01380421
-0.05119589
-0.24396153
-0.02772247
0.03302199
-0.14402778
-0.24308354
-0.04619234
-0.03001360
-0.04068445
0.08469691
0.23573260
0.04797084
0.03122546
-0.10112255
-0.11197912
-0.15272577
-0.24512857
-0.10887177
0.01229672
0.07770031
0.18949749
0.07467128
0.04417839
0.18878242
0.01015143
0.00584657
-0.08825233
0.05132451
-0.11103713
0.04413070
-0.09329653
0.06460295
0.03243243
-0.00623245
0.14575207
0.09974859
0.17896278
0.15671508
0.03041187
0.04900105
0.02210251
0.06112962
0.01806812
0.11831060
0.03158218
0.10318207
0.08665221
-0.04198839
0.11149875
-0.13353594
-0.15046176
0.04512175
-0.20163351
-0.04107846
-0.08370154
-0.03505480
-0.07316861
-0.08657090
-0.12026089
0.09588244
-0.14266358
-0.09126086
0.02767493
-0.05170195
-0.07314527
-0.02545709
-0.07520720
0.10369606
0.10035546
-0.02006586
0.07581510
0.04068408
0.04065594
-0.20648654
0.08281033
-0.02260292
0.07237528
0.00914318
0.11703788
0.00616370
0.07835099
0.05267661
0.03758666
0.04263914
-0.03768092
0.05738142
0.05522017
0.13278814
-0.27152815
-0.07466312
0.05240015
-0.07825184
0.03183277
0.02082888
-0.09879024
0.03325750
0.06352806
-0.02297075
-0.06934971
-0.17833254
-0.18238661
0.13813724
0.08735447
-0.04219607
0.02089226
-0.11502270
-0.07146333
0.04054622
-0.03775946
0.02145248
-0.11609825
0.09468018
-0.02161916
0.11645897
0.05587037
0.17673109
0.00046676
0.03454766
0.00182914
0.04578029
0.03241005
0.05913626
-0.09471183
-0.10383016
-0.06528497
-0.15310806
-0.09765791
0.26321000
0.06318987
0.16272491
0.06708664
0.18508783
0.08878196
0.14104302
0.09524053
0.00056103
-0.39767921
-0.02192465
-0.09277042
-0.10363970
0.07743168
0.13207464
-0.06068261
-0.05262994
0.12660763
-0.23088504
-0.19942391
-0.09921546
-0.12464052
-0.15368831
-0.32858589
-0.16083929
-0.30520865
-0.08244620
0.06049199
-0.21699147
-0.12417057
-0.03881630
-0.01427821
-0.00083538
0.01339102
-0.02407281
-0.03341163
-0.10067371
-0.07920934
0.01596174
-0.10032728
-0.01460088
-0.04080154
-0.22639249
-0.04937638
0.06212729
-0.29904690
-0.04507837
-0.08132651
0.02514902
0.01581010
-0.04411446
0.12478924
0.00755179
-0.05324344
-0.23835433
0.02291774
0.02554411
0.06078623
0.01875089
0.00869225
0.05638572
0.06752285
0.03573624
-0.03627246
-0.07292412
0.00265598
0.03921876
0.13583006
0.25481248
-0.14420784
-0.11414617
-0.08118173
-0.01592807
-0.10639121
-0.05481481
-0.12788311
-0.15921633
0.08834366
-0.04806772
0.02231017
-0.19432347
0.07420354
0.15767445
0.05359693
-0.11304230
-0.00257114
0.10588158
-0.33193654
-0.15878516
-0.04697334
0.02590755
-0.02229814
-0.08198702
-0.07218571
-0.12585968
-0.04227459
0.13404390
-0.01866632
-0.04989564
-0.07485073
-0.10660404
0.08900846
-0.13039586
-0.01300669
0.04677806
-0.06977595
0.00673318
0.14600344
-0.02749213
-0.03802399
-0.11666860
0.12236298
0.13916585
0.19175276
0.06343377
0.15463650
0.02129918
-0.05359472
-0.07986562
-0.10740014
0.02387483
0.00584023
0.01502024
-0.00297095
0.07029715
-0.01881145
-0.05353408
-0.00627653
-0.01840442
-0.04722440
0.06123755
0.15954331
-0.09394580
-0.03721840
0.08250024
-0.09754574
-0.15001141
-0.10493779
-0.10605732
-0.04881002
0.11170331
0.05624615
0.12624626
0.06690361
0.16473353
0.02037359
-0.11648855
-0.16414049
-0.05129905
-0.01304926
-0.04566175
-0.18064433
-0.06862881
0.04090650
-0.19329877
-0.12983687
-0.02274020
-0.07118215
0.04819667
-0.15485208
-0.07116596
-0.06869604
-0.18355231
0.00915853
-0.00932854
-0.37868944
-0.27279392
-0.07200839
-0.00949329
0.09242421
-0.17127812
0.03009544
-0.12031582
-0.09851464
0.03049405
0.09596059
0.01980697
0.04896082
0.06604134
0.03913686
-0.15728313
-0.02868284
-0.00752387
-0.02372439
0.01021110
0.14062089
-0.11425331
-0.13657020
-0.02570700
-0.02630778
-0.04892661
-0.10105351
-0.13845210
-0.01834466
0.00970789
-0.00881618
-0.00351397
-0.16413894
0.03076742
0.02262712
0.11692120
-0.07706745
0.00192249
0.15691911
-0.05347941
-0.22142461
-0.06039103
0.13112971
-0.12217754
-0.13353202
0.08365737
0.04174715
0.01783512
0.04654251
0.14458694
0.16382501
-0.05834853
-0.06764822
0.02538136
0.03185479
-0.19908126
0.01994774
-0.29347196
-0.25237256
-0.10003116
-0.01131256
0.12618627
0.12461882
0.04746186
0.02618860
0.20970058
-0.18246613
-0.16033445
-0.08266059
-0.00668946
0.04012654
-0.05105315
0.03887126
-0.21948230
0.08576285
0.07306557
-0.00385912
0.15429464
-0.08641765
-0.00325724
-0.00480278
0.06991453
-0.27116129
-0.00552367
-0.24022222
-0.34483391
-0.10579611
-0.03747058
0.10503942
0.08371153
0.14031871
0.23325436
0.00330436
-0.02265719
-0.07525272
0.10904787
-0.21605678
0.08312207
-0.02725024
-0.06371720
-0.06769831
0.07643101
-0.07372905
-0.07272108
-0.02324463
-0.14275724
-0.10625483
-0.03312088
-0.05113708
0.06294805
-0.09067851
-0.14857522
0.00560624
0.04127046
0.15561050
-0.04668613
0.04559570
0.03509696
0.08984311
0.02460910
0.05965867
-0.04452743
0.05052485
0.02793420
0.02466300
-0.01317457
-0.05043139
0.02176910
-0.05758680
-0.03897589
-0.07111895
-0.06799270
-0.00853419
-0.01105823
-0.02222373
0.01516152
-0.17963646
0.05778916
-0.10014418
-0.23159054
-0.03184178
-0.07389671
-0.04390530
0.02161018
-0.11817480
-0.02860107
0.05125671
-0.11973233
-0.06131856
0.09633870
0.01977537
0.13469614
0.09926262
-0.21260709
0.10389452
-0.04415081
-0.11329699
0.11115367
0.00794946
0.06530499
-0.02157321
0.04835518
-0.13288039
-0.00634733
-0.07910217
-0.00039772
-0.00851526
-0.04239903
0.00105794
0.03513737
-0.05103590
-0.02295846
0.02966604
-0.00142128
0.17010854
-0.05620927
-0.08310989
-0.07050972
0.09384900
0.04959565
-0.02527734
-0.15210356
-0.02086152
-0.14078541
-0.23105493
-0.07257342
0.10977955
0.18186717
0.10855448
-0.00742407
-0.06703376
0.03503267
-0.14302109
0.02022553
0.07190097
-0.14893697
0.06562791
0.03752754
-0.18686643
-0.14689256
-0.05059933
-0.19933471
-0.09932077
0.04780659
0.30947095
0.01797867
-0.03261994
-0.02265962
0.05593368
0.14435174
-0.09658194
0.04082032
0.03280062
-0.25721356
-0.22252785
-0.09821474
-0.07672369
-0.00459702
-0.01054412
0.06711173
0.23975879
0.07823395
0.30975440
0.13138327
0.08915657
0.00248547
0.01568844
0.06751060
-0.06202327
-0.07115945
0.04247915
0.03945508
0.04532615
0.07688270
0.11290685
-0.05341099
-0.06874510
0.11465593
-0.25861171
-0.07866447
0.03128782
-0.31501627
-0.16708925
-0.16418464
-0.03197520
0.05421278
0.12693849
0.12575109
0.02634542
0.18402104
0.17224368
0.13821116
0.18413790
0.01576146
-0.02984015
0.03954567
-0.18542157
-0.07380668
-0.32414111
-0.36843219
0.09697176
-0.12948357
0.00011483
0.03728484
0.04168816
0.18697506
0.09178314
0.10807991
0.16997436
0.08910370
-0.03847661
0.21573877
0.03198728
0.13554384
0.08128037
-0.00365794
-0.17193013
0.11046953
0.17711943
0.15468593
0.29366627
-0.04650769
-0.01375516
0.11758468
0.06043908
0.16668025
0.03542578
0.00152619
0.00773919
0.01473686
0.04668603
0.16754730
0.06899700
0.13987780
0.12693577
0.29466939
0.02992210
-0.03113056
0.10054887
0.07000349
-0.05170153
-0.01759759
-0.01073388
-0.11094118
-0.07447503
-0.09843218
-0.11911707
-0.14302786
0.12920691
-0.02039793
0.09472914
0.03768813
0.10424993
-0.00420775
-0.02412103
0.05034025
0.04473552
0.01103223
0.01568874
0.00229045
-0.09566602
0.03546165
-0.02932156
0.00133931
0.02431606
0.02733978
0.06283520
0.05091757
-0.18706170
0.18017456
0.06463056
0.11457165
0.13231927
0.07091847
0.12064505
0.03380491
-0.13396928
-0.27739525
-0.18555573
-0.18211879
-0.20920017
0.05355194
0.00349007
-0.05154581
-0.09811515
-0.01191629
0.01834142
0.02252565
-0.03504812
0.05071374
0.03351985
-0.08243656
-0.11523455
0.18143743
-0.17865999
0.08428651
0.04531455
0.11677719
-0.07968907
0.02186867
0.10912886
-0.09550487
-0.14802682
0.11018150
-0.20846644
-0.00636294
0.24308972
-0.10386196
-0.14729743
0.15461546
-0.02344947
-0.16996546
-0.19963844
-0.45095798
-0.42501259
-0.48905641
-0.57386535
-0.25580049
-0.00469458
0.11110662
-0.09049872
0.05067525
0.05985131
0.21340214
0.24120010
0.01212073
0.17317291
0.00563956
-0.05700483
-0.03131583
-0.01176977
-0.01911560
0.12249148
-0.05842498
0.07471323
-0.00725132
-0.04602400
-0.07039168
0.00346533
-0.12581937
-0.10875318
0.15307800
0.08072483
-0.02563668
0.10879138
-0.09504057
-0.09840485
0.01295838
0.18136239
0.07260507
0.08608793
0.08896172
0.19575806
0.09327425
0.03040857
0.01313971
0.05826619
-0.17857613
0.09356069
-0.01295968
0.13653892
-0.04915946
-0.06089642
0.01189228
0.19495280
-0.06819844
-0.05995877
-0.08567055
0.05030676
-0.16902283
-0.05026752
0.13960667
-0.35790101
-0.05858729
-0.17840794
-0.23843195
0.10113359
0.06268034
-0.27725655
0.12206773
0.10130233
-0.06157503
-0.01697147
-0.00592886
-0.00157490
0.00327434
0.00994966
0.07192183
0.10529312
0.07723692
0.13426147
-0.03456957
0.02326531
-0.19551195
-0.30314794
-0.16238442
-0.43203181
-0.37437016
-0.07991861
-0.04378417
-0.07812852
-0.04417278
-0.07947633
0.11771291
0.18211971
0.07422286
0.16355258
-0.03966490
0.05358827
0.00527643
0.08574496
0.02932693
-0.02066758
0.00415375
-0.02200007
-0.02463828
0.02503458
0.02406625
-0.07522300
0.04651982
-0.20641887
-0.25993156
-0.15350015
0.02193872
-0.22957803
-0.12526257
0.06050545
0.07825270
0.06157506
0.02741930
-0.22235785
-0.08765087
-0.05043351
-0.12766977
-0.07356960
0.12328839
0.03394293
-0.23089878
-0.08157765
-0.28124389
-0.22625551
-0.18574648
-0.32628661
0.00882051
0.10920120
-0.02061780
-0.04597188
0.00233889
0.08777477
0.06300556
-0.05556932
0.13112552
-0.23019269
0.33055615
0.05218126
-0.05373417
0.16197795
-0.29183143
-0.25623286
-0.00007335
-0.16505952
0.10838009
0.03938732
-0.07233361
-0.02308970
0.09636787
-0.27331105
0.02143286
0.04145528
-0.24488802
-0.04417332
0.09283822
-0.00653605
-0.17391676
0.14172272
-0.09989684
-0.12956747
0.28944120
-0.03214241
-0.04019588
0.22968529
-0.09947209
-0.05334853
-0.09223074
-0.23038390
-0.10430545
-0.12246522
-0.15377180
0.03921383
0.06760966
0.07295558
0.01493881
-0.01802098
0.03080196
-0.04667682
-0.08267894
0.09257625
0.06494713
-0.10040405
-0.00511939
-0.03720694
-0.00321319
-0.09410952
-0.02548653
-0.15924726
0.09334537
0.08879200
0.18886662
0.08790610
-0.03453155
-0.04364866
-0.03381985
0.08139493
-0.22814398
-0.09918396
0.00880001
0.18454833
-0.00087546
-0.02398651
0.07954552
0.08649302
-0.09205703
-0.22577235
0.23793465
0.10140125
0.10111124
-0.05079053
-0.03712565
-0.00681150
-0.18742217
0.01415684
-0.15508923
-0.15749244
-0.07580834
-0.00690751
-0.06925870
-0.03898001
-0.06185827
-0.09359028
-0.01560573
-0.01876948
0.02599886
0.04982822
-0.07891706
0.02396832
0.16270266
-0.02011564
0.04117519
0.03032793
-0.10879130
0.01751054
0.00372277
-0.09969950
-0.04365752
0.02900225
-0.25186577
-0.05508087
-0.13791350
-0.09823423
-0.00220538
-0.04759686
-0.03235671
-0.15209226
0.02110123
0.05577750
-0.12711142
0.02283629
0.15766679
0.08661564
-0.07895196
-0.02955808
0.08626197
0.03546405
0.05499120
0.17718962
0.10801205
0.08352974
0.16475393
0.08650541
0.07729047
0.06600739
0.04116789
-0.08158942
-0.11170875
0.03145012
-0.04296755
0.20049423
0.14720428
0.03068888
0.10615435
-0.06161883
0.01055765
-0.07661285
0.09247994
-0.11027707
0.20519148
-0.11678557
0.00669194
0.04118783
0.05509773
0.07659533
0.08274991
-0.09780376
-0.00765769
0.12373274
0.03147312
0.04416411
-0.14537214
0.09692327
-0.11375321
0.04839538
-0.08235465
0.28116450
-0.15862079
0.07073609
0.03401494
0.07459183
0.03792087
-0.05753132
0.00553508
-0.02533457
0.04003168
0.04276183
0.02740737
0.05963987
-0.05166987
0.06661371
-0.06934845
0.13016808
0.22057948
-0.15666533
0.25584996
0.13624354
-0.10634939
-0.13128613
0.00569172
-0.06970636
-0.03538167
-0.02434093
0.07405856
-0.04190480
0.15954612
0.01183392
0.03449097
-0.04177338
-0.02526490
0.03561109
-0.11283643
0.01431264
0.04501863
-0.00296413
0.10103650
0.04830054
0.00367238
0.06538413
-0.10577101
-0.14821433
-0.21315613
-0.09095155
-0.14210495
-0.20408466
0.12755951
-0.13359322
0.16776869
0.33716527
0.13397627
0.35022676
0.35887063
0.23259072
-0.05459131
0.02195267
0.05540599
0.02729260
0.04670977
0.11151125
-0.07596281
0.02919860
-0.02505174
-0.00625378
-0.11719599
-0.06039482
-0.05673369
-0.04163045
-0.04925707
0.10248277
-0.12130582
-0.02554216
-0.12075088
0.04187693
0.02179100
-0.11764509
0.10643797
0.14057182
0.21925937
0.08335684
-0.08940314
-0.12892456
0.11278864
-0.01424644
-0.00203050
0.19435203
0.03741840
0.17088881
0.13959259
0.06949664
0.27062193
0.05650433
0.01335568
-0.01232948
-0.03675419
-0.19086218
-0.09993058
-0.25517875
-0.03352983
0.05413079
0.06126735
-0.06218373
0.14408606
-0.05155855
0.03472218
-0.07375780
-0.02296006
0.10005591
0.06438494
-0.01065834
0.04343388
-0.04875600
-0.01712022
0.28337547
-0.17073546
-0.12555738
-0.01296087
-0.03452125
-0.10538748
0.05176918
0.03042561
-0.35323021
0.05813770
0.12272358
-0.14434300
-0.07416460
0.28409022
-0.07286127
-0.15168694
0.21415198
0.10011629
-0.08515128
-0.11738473
0.06359911
-0.07100402
0.03030789
-0.07858208
-0.06537821
-0.00181905
-0.38771218
-0.05334264
-0.02968952
-0.42365626
-0.18445544
-0.11025961
0.00744895
0.05110320
0.07682443
-0.23166315
-0.00678097
0.06324026
-0.06644584
0.01701778
-0.08773604
0.15529054
-0.10844772
-0.10186985
0.20970398
-0.06939380
-0.01781585
0.01510761
0.03099089
-0.01563057
-0.13226728
0.11478765
0.04640132
-0.17220815
-0.02555466
0.14337984
0.10373749
-0.04564866
-0.34906471
0.22296807
0.00337772
0.03561426
0.29851514
0.16195342
0.10543782
0.16050719
0.09914169
0.29117912
0.06354273
0.14342473
0.16830902
-0.03535436
-0.04709129
-0.11225072
0.04109965
-0.06021879
0.09558945
-0.18147236
-0.04411906
-0.08222854
-0.04760033
-0.09658502
-0.08718369
0.01717865
0.04806032
-0.09847405
-0.11839486
0.02481650
-0.04825640
-0.12875660
-0.06519064
-0.05342428
-0.06687526
0.02806590
0.14787470
0.10846081
-0.09762162
0.06661537
0.06733084
-0.09454567
-0.11044928
-0.13940677
0.04748366
-0.06580242
-0.15491828
0.15822658
-0.00180982
-0.29411528
-0.07204574
0.00629508
-0.03470292
-0.15952152
0.16777661
0.19562882
-0.14187084
0.06239213
-0.01416011
-0.21704698
-0.09972570
0.03822440
-0.11973612
-0.04073700
-0.02623824
-0.08291813
-0.02819516
0.29794690
-0.07278387
-0.04061664
0.20098680
0.08498660
-0.12584151
-0.21565482
0.07969291
0.15883224
-0.05652500
0.05521768
-0.06868804
-0.11055652
0.11764459
0.23798992
-0.13256653
-0.11839125
0.11097032
-0.05117844
-0.22597811
-0.02007082
-0.03956047
-0.00502956
0.20243075
-0.11721311
-0.01845025
-0.07524855
-0.33051547
-0.00338367
0.00493300
-0.32753775
-0.19964153
-0.32533804
0.09426434
-0.01785134
-0.23786257
0.31126723
-0.06572611
-0.13281868
-0.15000108
0.08958343
-0.02428175
-0.04525680
-0.04822312
0.02924750
0.03647141
-0.22327484
0.00095697
0.09064173
-0.11050908
-0.03042652
-0.02289967
-0.03692667
0.16349782
-0.10065448
0.02573632
-0.01747055
-0.02516465
0.04102957
0.12840903
-0.02920496
-0.08483212
0.11269712
-0.40966409
-0.04311180
0.00945528
-0.21710838
0.02615732
0.10759924
-0.26478609
-0.02306347
0.07420781
-0.28433993
-0.15049230
0.09940951
-0.06658589
0.04474399
0.26501241
0.00598978
-0.18098134
0.07210467
0.13008603
-0.22420979
-0.20037492
0.00937687
0.04611119
0.04462122
0.19509175
0.19211508
-0.00219934
0.25760818
-0.00490556
-0.08331011
0.03493368
-0.13786948
-0.10548788
-0.24712089
0.06128506
-0.14453107
-0.10126191
-0.07245538
-0.06898587
-0.07534192
-0.09699985
-0.01218091
0.07603619
-0.01644344
0.07453359
-0.00962932
-0.02810972
0.00266593
0.00025298
-0.05496005
0.20114741
0.23359828
-0.10551925
0.04222242
0.31058359
0.02895239
-0.22191043
0.18137097
0.20346224
0.18903881
-0.20782436
-0.08215724
0.20155399
-0.19116980
-0.30173278
0.04955599
-0.02430844
-0.05339158
0.03744831
-0.01136051
-0.07728084
-0.05399386
0.01538702
-0.10102247
-0.07069919
0.08723346
-0.07561551
0.23465440
-0.16069148
-0.20153877
-0.18037547
-0.23984750
-0.14115873
-0.37984344
-0.47416309
0.09895723
-0.02483120
0.04521759
-0.05809884
0.04026533
0.12407202
0.16033958
0.04707724
0.13568880
0.10295741
-0.19918075
0.03007380
0.05797787
-0.00361480
0.21409827
-0.17884724
-0.04447528
0.22388162
0.02289074
0.06786383
-0.40318185
0.16236389
0.19608763
-0.01322602
0.01016547
0.04494173
-0.06210093
-0.53569400
0.00241119
0.20713724
-0.09945613
0.00705615
0.25807831
-0.06846257
-0.04952182
0.26038605
-0.06349654
-0.01435294
-0.14141257
-0.03338777
-0.03102510
-0.47232443
-0.06304563
-0.06682645
-0.43367064
-0.17182960
0.07332409
-0.02199053
0.01043261
-0.01530675
-0.04078820
0.05419263
0.06296950
-0.14409406
-0.12899555
0.24616553
0.39332661
-0.10068651
0.03716690
0.26275605
-0.00640131
-0.13839811
0.10118983
0.01117592
0.08955976
-0.22631931
-0.07466346
0.28029132
-0.00394531
0.12900984
0.17509109
-0.04611728
0.05290892
-0.06017856
-0.10072407
0.08397186
-0.01497566
0.07810293
-0.18164055
-0.09524496
-0.03910651
-0.06664648
-0.08533699
-0.19145288
-0.02310629
0.10176051
0.07925124
0.03510861
0.06499932
0.29524520
-0.03104804
-0.06267551
-0.02273090
0.17032367
0.11821322
0.12095773
-0.03389998
0.08430012
0.03827164
-0.01912236
-0.16098595
-0.11455966
-0.11954160
0.00819514
0.03199051
-0.15663542
-0.09351923
-0.14443807
-0.02031300
-0.02225000
0.04536101
-0.08505870
-0.02704119
-0.03620021
-0.11772151
-0.01922008
-0.14675426
-0.13032466
-0.14240436
0.17823999
0.06091224
0.00088545
0.08396693
0.04433298
-0.07023051
0.12868030
0.08947054
0.01503248
-0.31887272
-0.11733914
0.04229261
-0.13704729
-0.15606312
0.07678889
-0.03520366
-0.13444355
0.01102398
-0.18078727
0.06324156
-0.11143606
-0.58012086
-0.06389341
0.01413700
-0.32601130
-0.24716446
-0.27210996
0.02153706
0.21559271
0.06386586
-0.22671722
0.04947336
0.12323216
0.05591404
-0.04998816
0.06885695
0.04500344
-0.02730586
-0.10123363
-0.09383495
0.07674985
-0.08763452
0.04960593
0.01145929
0.05685766
0.01140381
-0.07272242
-0.06758374
0.24600154
-0.08026011
0.05202825
0.03525132
-0.18526131
-0.03354907
-0.37443313
0.19818942
0.01525470
-0.09527644
0.12633798
-0.01185070
0.34195966
-0.06747721
0.38977629
0.12446400
-0.09334341
0.04735199
-0.01702544
-0.13847645
-0.13041058
-0.26566726
-0.00449974
0.13159546
0.13382837
-0.02846867
-0.21654516
0.05929339
-0.25147566
-0.06194735
-0.02800038
-0.06791343
-0.09021411
-0.11049979
0.03074605
0.09488396
0.17443579
0.05090866
0.11179037
0.15991017
0.11484443
0.06056894
-0.09107362
-0.00729550
-0.01461540
-0.16130906
-0.06447212
-0.02686002
-0.02324459
-0.21930738
-0.04082973
-0.20275539
0.03953175
0.04734523
-0.12999325
0.01937898
0.01844492
0.00394997
-0.05315465
0.01563321
-0.11352447
-0.03899922
0.00983174
0.09250208
0.08174051
0.02245977
0.31280628
0.16650409
0.33995831
-0.08130702
0.09441650
0.40143827
0.07024246
-0.04566173
-0.04736779
0.00960022
-0.02428937
-0.05942903
-0.07526475
0.10787845
0.01940226
-0.08313236
0.18285294
0.01129722
-0.21873133
0.04867074
-0.04321575
-0.10531747
-0.01414237
0.05032733
-0.14720759
-0.13403630
0.12390301
-0.15967405
-0.03847832
0.05612800
-0.09517943
-0.05264822
0.13813429
-0.30737180
-0.10088303
0.11780224
-0.18202722
0.04919533
-0.11260188
-0.00770230
0.25001305
0.06688116
-0.22547199
0.08194788
0.12565744
-0.05698969
-0.07352019
-0.08167817
0.01717437
0.17262617
-0.11465342
-0.09525005
0.02161572
0.03196566
0.08326808
-0.09644389
-0.00339620
0.09365333
-0.04792019
-0.14581096
0.17982885
0.11686751
0.05088257
0.17876077
0.28206930
-0.00411969
-0.00897692
-0.02691946
-0.05765711
-0.15702243
-0.34901735
-0.00352116
-0.04614878
-0.09989832
0.03487316
0.01695095
0.00419286
-0.01029647
0.01528853
0.00192229
-0.01285204
-0.01758591
-0.01138428
0.02246451
-0.05130325
-0.02427784
-0.03010478
-0.06101169
-0.01220234
-0.02420611
-0.06531928
-0.04284295
-0.01736551
-0.03335030
0.00861336
-0.06810956
-0.06857787
-0.11721224
-0.04664731
0.05490795
0.01047549
-0.05106591
-0.01212564
-0.03059104
-0.03843143
-0.06749652
-0.04516548
0.02243815
-0.05175497
-0.07967868
-0.06259475
-0.01335875
-0.03190805
0.04437103
0.11594199
0.02981182
-0.08206046
-0.02892874
-0.06795394
-0.03481967
-0.02689265
-0.08856789
0.02387873
0.03431579
-0.02050153
-0.02948226
-0.01960955
-0.12149791
-0.04328760
0.02857047
-0.03975140
-0.00137554
-0.06011284
0.00975538
-0.10217864
0.07961538
-0.00704268
-0.07195996
0.00115578
-0.03948714
0.01051009
0.05586902
-0.06990391
0.02242303
0.01625048
0.02825598
-0.00009536
-0.06028635
-0.05718962
-0.07714312
-0.01803223
-0.06910108
-0.08290222
-0.07006779
-0.00463850
-0.05181311
-0.05928030
0.02167379
-0.02883634
0.02180451
-0.06703267
-0.06441133
-0.10616597
-0.07180587
-0.03967334
-0.14548410
-0.06448325
0.04972464
0.09269422
-0.00330280
-0.14032856
0.01025070
-0.13620983
-0.02099011
-0.01478741
-0.07464223
-0.02705164
-0.01973867
-0.01213639
-0.00502654
-0.03896345
-0.02537137
-0.00758129
-0.06175061
0.04109840
-0.05567447
-0.05056247
-0.00442153
-0.03402909
-0.06381372
-0.00144816
-0.01445004
-0.10213669
0.00012635
-0.03441139
-0.07982316
-0.01838523
-0.10845038
0.03319684
-0.09256452
0.02367629
0.04441868
-0.04411881
0.03722853
-0.00209213
-0.03287593
-0.04333870
0.02853986
-0.01400902
-0.00899169
-0.06692655
-0.08090244
-0.05388719
-0.01272446
-0.01923390
-0.05682096
-0.05431978
-0.09927448
0.02254911
-0.04697741
0.01329171
-0.07701038
-0.07088450
-0.02186847
-0.05126207
0.01492904
-0.04673557
0.00793970
-0.09166409
-0.15480775
0.00045513
-0.11364997
-0.01426171
-0.03381256
-0.01082864
-0.04130094
-0.02527608
-0.04495755
-0.04057940
0.00573128
0.08686468
-0.07912967
-0.07154535
0.11792027
-0.05395806
0.00666627
-0.00809612
0.03185458
-0.01970904
-0.02120898
0.02066726
-0.02386440
-0.00775688
0.00150484
-0.06205551
-0.00075985
-0.03736143
-0.03536514
-0.00998713
-0.07034854
-0.01940961
-0.01592651
-0.09060535
-0.00244851
0.02055458
-0.01293462
-0.02927949
-0.01142059
0.00416229
-0.05408683
-0.01845888
-0.04215805
-0.09898099
-0.06592067
-0.00445591
-0.00413609
-0.02525037
-0.04786076
0.02314888
0.07032587
-0.05541332
0.02185147
-0.00312949
-0.03988302
0.03532888
0.00079633
-0.03401800
0.03332669
0.03359170
0.00423230
-0.00806097
-0.08215676
-0.11900102
0.00585792
0.02746251
-0.06923459
-0.01506738
0.05216770
-0.10979696
-0.02567388
-0.07757895
-0.00383897
-0.02538728
0.01897689
0.01181913
-0.01911560
0.03052539
-0.08710158
-0.07165118
-0.08477798
-0.01918085
-0.06171039
-0.04546436
-0.04397892
-0.05613388
0.04763222
-0.11004036
-0.06333793
-0.01199267
-0.01466630
-0.10798997
-0.06614377
-0.05503369
-0.01280162
0.06209659
-0.10370614
0.04554079
0.01705919
-0.05192897
-0.01859847
-0.02418263
-0.00019457
0.01699954
0.03636345
-0.03810828
-0.05540602
0.03272442
0.03159705
-0.05024640
0.04166799
-0.12557910
-0.01807460
0.11591511
-0.04811407
-0.02175020
-0.00002167
-0.04385752
-0.04150508
-0.11179186
-0.01327636
-0.05299194
0.09069470
-0.08253584
-0.03177160
-0.02864492
-0.13217996
0.02038705
0.02917299
-0.00907339
-0.10281780
-0.02678517
-0.13690335
-0.01930701
0.01581860
-0.01303980
-0.01086517
-0.06503116
0.01793932
-0.05792751
0.12494059
0.05526926
-0.00329853
-0.05818008
-0.07767043
-0.05788914
-0.00438426
0.02939127
-0.03657515
0.09027834
-0.05447472
0.02818792
-0.07606637
-0.04029690
0.00151923
-0.07160057
0.01670595
-0.06918882
0.04946380
-0.01565146
-0.01127484
-0.07182474
-0.07621116
-0.11363869
-0.12578939
-0.03858073
-0.09319172
-0.00692023
-0.05376705
-0.03770066
-0.08604936
-0.12569886
0.01026245
0.07562916
-0.03209055
-0.03429197
0.06876969
-0.02585734
-0.03327673
0.00210002
0.04260140
-0.06454580
0.00640833
-0.09328068
-0.06711128
0.03913219
-0.04027029
-0.03208439
0.00800151
-0.06902553
-0.06608105
-0.05139470
-0.00252086
0.00640330
0.05945947
-0.03907754
-0.05232877
-0.02373589
-0.03692504
-0.02545174
-0.11801628
-0.08255254
-0.12177945
-0.00630710
-0.18739527
-0.07082406
-0.00815550
-0.02965561
-0.05030869
0.05877285
0.00872149
-0.08021136
0.08256443
-0.01136369
0.00692765
-0.03783087
-0.04078607
-0.06319328
-0.05931239
0.03240284
-0.04412590
0.02006984
-0.08239459
-0.01226157
-0.01619366
0.00660581
-0.05360486
-0.05072723
-0.05390110
-0.07515212
0.04291925
0.02682063
-0.01851241
-0.05173573
-0.00493000
-0.05226499
0.02478278
-0.06738672
0.03771522
-0.01477076
0.00983251
-0.02469162
-0.05377667
-0.10528168
-0.03762711
-0.07100938
-0.01896259
-0.00643712
-0.04165358
-0.10541109
-0.04549601
-0.07875166
0.00521252
-0.06944752
-0.06027994
0.00284523
-0.06278827
-0.06872372
-0.03104604
-0.01738814
-0.08894867
-0.01865473
-0.04796950
-0.06660329
-0.09933640
-0.01251600
-0.05066481
-0.14552377
0.03612829
-0.03660276
-0.05415133
0.02192495
0.00073022
-0.03620375
0.00322810
-0.02613450
-0.05922001
0.01435489
0.02701937
0.04508239
-0.06174211
-0.03144115
-0.03123379
-0.02901927
0.02249144
-0.00601332
-0.05997519
-0.11374361
-0.01823265
-0.06785543
-0.02394680
0.01877056
-0.07751981
0.02353543
-0.10730665
-0.17310624
-0.09125020
-0.02602817
0.05345079
0.07562665
0.00260697
-0.04991712
0.06482704
-0.06375153
-0.02871501
0.00263744
0.01171916
-0.01448564
0.03743637
-0.04131923
-0.01425398
-0.04441407
-0.01216545
-0.07070123
-0.05800974
-0.07236345
-0.06948822
0.00176558
-0.15592769
-0.11919823
0.08666692
-0.02376710
-0.05221820
-0.03270464
-0.03568026
0.00766603
-0.02711770
-0.06507456
-0.05225496
-0.01467669
-0.05707524
-0.02205112
-0.04463828
-0.04428609
0.00611461
-0.02483410
0.03712839
-0.00704048
-0.01340161
-0.00790789
0.02612813
-0.01990563
-0.06686438
-0.01494900
-0.07846778
-0.00158560
-0.00967250
-0.01421983
-0.08369184
-0.05552138
-0.04140320
0.02455605
-0.05892675
0.03672419
-0.08523733
-0.02299692
0.10261804
-0.03904609
0.03419695
-0.03407838
-0.00948145
-0.00191852
-0.01594447
0.02669208
-0.00131847
-0.01441074
-0.04372523
-0.04469649
-0.04050687
-0.10192971
-0.06732024
-0.04394972
-0.04611374
0.00287436
-0.00648515
-0.00568702
0.02531364
-0.09426402
-0.06446412
-0.07953414
0.01539422
-0.00822011
-0.01756634
-0.04456934
-0.06348971
0.00062983
-0.01285516
-0.05104003
-0.02118701
-0.10759827
-0.08841365
-0.01088374
-0.04472558
-0.11021910
0.03806529
-0.00447087
-0.13232571
-0.06815074
-0.11132812
-0.04101174
-0.05225567
0.00704112
-0.00134684
-0.09514085
-0.07368850
-0.05034414
-0.05315679
-0.08598197
-0.00272639
-0.02337547
-0.01498727
-0.02712419
-0.03479861
-0.03361406
-0.07355694
0.02386804
-0.00546361
-0.07632133
-0.02955450
0.05778140
-0.02369226
-0.11333451
-0.11439098
-0.15846170
-0.28528905
-0.45877501
-0.36259994
0.07951529
-0.03878807
0.02647640
-0.01599247
-0.00017980
-0.00142028
0.05662339
-0.00934235
-0.02058351
0.06332603
0.03076033
0.03799061
0.07969003
0.08885886
0.11063737
0.13394600
0.09340987
0.08256669
0.13412564
-0.00276459
0.03617831
0.07018229
-0.07877366
-0.05683590
-0.09740086
-0.15442538
-0.27913091
0.15270454
-0.07491290
0.07481396
0.25039825
0.05532421
0.00686826
0.03643670
0.12812790
0.12218750
0.08107310
0.12194071
0.11853616
-0.02976731
-0.16969788
-0.10793775
-0.28727859
-0.26740077
-0.10768161
0.16522184
0.01152734
0.05575316
0.08707291
-0.09328393
-0.17984603
-0.04661641
-0.00019084
0.07142896
0.02697427
0.09784007
0.05007444
0.02735963
-0.10895684
-0.11349879
-0.05628322
-0.01696970
0.01327448
-0.01907613
0.09628911
0.18604982
-0.02027776
-0.23025271
-0.02301127
-0.16032515
-0.34685758
-0.12747942
-0.17430171
-0.21784487
0.00794775
0.00790930
0.00524737
-0.16658665
-0.14621769
-0.05613603
-0.01473267
0.11036845
0.05473099
0.01910122
0.09178457
0.14472134
0.01717471
0.16625588
0.04884763
-0.00448420
0.11311586
0.04031337
0.08043463
-0.00974513
-0.05106419
0.00329409
-0.06735570
0.03972967
0.03619071
0.12486322
0.02969764
0.03215005
0.10352072
0.11025702
0.08273900
0.12138619
0.29367164
0.21381503
0.21649747
0.30702308
0.26980525
-0.21250646
-0.14824264
0.05402583
-0.22109517
-0.07396511
0.12960002
-0.02486926
0.04034235
0.00877728
-0.05978264
-0.00889607
-0.11013800
-0.09263863
0.00704608
0.06200262
0.08227302
-0.04820668
-0.14961959
0.11025906
0.05242677
-0.06756309
-0.00368879
0.00566619
-0.02491490
0.12313799
-0.04183862
-0.02305014
0.04296768
0.01378949
0.00190339
0.08920845
0.06429153
0.00660372
0.10257929
0.03140729
-0.02874482
0.02170900
-0.02228951
0.08082335
-0.08665735
-0.00044855
-0.11569564
0.09953011
0.08827581
0.04287736
0.03999336
0.03470641
0.07772225
0.02691450
0.19790812
0.03669674
0.00237235
0.15695100
0.18465354
-0.05814656
0.08250853
0.03656919
0.05705607
0.03404463
0.05650378
0.03560789
-0.02665807
-0.08407565
0.04510198
-0.00090769
0.08881998
0.23711538
-0.11037160
-0.16414388
0.02600798
-0.11649383
0.13563846
0.05379118
0.00121750
-0.06831681
-0.14081788
-0.17247649
-0.21232136
-0.06687634
-0.18669914
-0.09385575
0.07156983
0.13086650
-0.08291159
0.11099593
0.15924764
0.17460641
0.21788776
0.07389702
0.07210032
0.14517528
-0.01310320
-0.09752387
-0.16687976
0.06986587
0.15062527
0.14976698
0.15131013
0.11019828
-0.33971289
0.09670395
-0.27640644
-0.13021079
0.03224896
-0.17067471
-0.23382001
0.03524286
-0.12810317
0.01699975
0.01505228
-0.00738195
-0.05376837
0.01111061
-0.09649571
-0.01321202
-0.04255051
0.03005710
0.03855174
0.08173801
-0.02860202
-0.04560666
0.09054073
0.21344964
-0.01401817
0.02713670
-0.00851832
-0.01800939
0.07756483
-0.04529895
0.04409113
-0.07319827
-0.07859959
0.21208045
-0.02640993
-0.12696557
-0.05039559
-0.06961546
-0.01940239
0.01026022
-0.00888090
-0.04533653
0.00435883
-0.00460737
0.05922941
0.14263375
-0.03344214
-0.08961350
-0.09989354
-0.14454117
-0.11234549
-0.07586130
-0.21463035
-0.20964605
0.06783633
0.01715793
-0.19990033
-0.20525791
-0.20420039
-0.14664862
0.05653660
0.12069619
0.12239221
-0.13683379
-0.23646557
-0.30327177
-0.36311540
-0.33921164
-0.34283179
-0.11831179
-0.01263762
-0.04586393
-0.06963674
-0.26146150
-0.06292748
-0.34463575
-0.19036089
-0.20663352
-0.34262839
0.00254711
-0.11440077
-0.02551894
-0.01466769
0.24163117
0.03772057
0.00159020
0.27376989
-0.14979690
0.30200234
0.17297180
0.06364946
0.11037902
0.05522949
0.12565890
0.14340143
0.06681996
0.03400038
-0.04441998
-0.04667152
0.06937233
-0.04145224
0.00127559
0.06620418
0.04281354
0.06511150
0.12120496
-0.00216179
-0.00664757
0.07489827
0.20883514
0.18678504
-0.01633971
0.17875594
0.18505111
0.05914165
0.20820980
0.06337192
-0.10826802
-0.18557145
-0.16586663
0.03064740
-0.04292481
-0.11191903
-0.03914206
0.02792088
0.05692948
-0.18756698
0.06326235
-0.08366539
0.02003114
-0.01369706
-0.06127968
-0.12924638
-0.03716132
-0.02785271
-0.07894787
-0.05637231
0.05880217
-0.00408752
0.10853027
0.11256558
-0.00221950
0.06669899
0.03481231
-0.41910908
0.06707746
-0.02045780
-0.05643125
-0.14532733
0.02054116
-0.18679881
-0.03441720
0.10018107
0.01137440
0.10802591
-0.02799494
0.19055435
0.11970733
-0.11824443
0.04414184
-0.04929952
0.05038589
0.09592752
-0.00041447
0.07856124
-0.02157059
0.06717701
-0.09883989
-0.00987324
-0.09511499
-0.04649770
0.06485036
-0.04842480
-0.08866919
-0.02126747
-0.19617659
0.00254258
-0.12685493
-0.01688085
-0.06017037
-0.11937334
-0.10084409
-0.02417188
-0.10869966
-0.09834009
-0.24959981
-0.19518702
-0.09815390
-0.27433920
0.08228156
0.04117398
-0.05424296
0.15314129
-0.00440393
-0.04968572
0.02835006
-0.11139012
-0.00309888
-0.11067785
-0.16066353
-0.00710790
-0.27608010
-0.20368950
-0.12947768
-0.03326825
-0.09417769
-0.01605064
0.04201746
0.07429603
0.08270565
-0.02772553
-0.13046546
-0.17822452
-0.07183302
-0.10414708
-0.15009093
0.14707957
-0.10707131
-0.03956807
0.10387690
-0.00878211
0.06546619
0.00943201
0.09374396
-0.14980808
0.01607430
-0.11011965
0.07018516
-0.23011790
-0.24042781
0.03172147
-0.18210411
-0.02209944
0.05086518
0.20470414
0.24538065
0.09556995
0.16338599
0.07129841
0.13240081
0.12298264
0.09719718
0.12758450
-0.07237973
-0.06530304
-0.01268643
0.02678696
0.06980746
0.14289953
0.07460245
0.01077834
0.00524057
-0.01351621
-0.13306741
-0.24799140
0.02612758
-0.04041529
-0.06918688
-0.01169880
0.05982446
0.10102286
-0.01675939
0.02232176
-0.05588201
0.03699327
0.01441064
-0.08306002
0.14871825
-0.03033936
0.06162291
0.05120589
-0.04893515
0.03359045
-0.09470950
-0.07581756
-0.04241459
-0.10742967
0.06088834
-0.01643092
-0.19327275
-0.15627977
-0.01167039
-0.24017033
-0.12398975
0.01709166
-0.11612587
-0.12617055
0.05482011
-0.03679695
-0.04019941
0.11221300
-0.14602849
0.00615769
0.06559269
0.06199253
0.00425860
0.07064070
0.12694448
0.10002706
-0.22758554
-0.14089599
0.04391791
0.08738494
0.07059804
0.13980134
0.30438155
-0.05405995
-0.04056952
-0.20633997
-0.05019446
-0.25241220
-0.19165033
-0.10840260
-0.14029884
-0.16430539
0.02000518
0.03827223
-0.06792413
-0.00626389
-0.19242817
-0.17766197
0.04270997
-0.11465390
-0.05816135
-0.04352611
-0.21699300
0.01377968
-0.29363310
-0.20063275
-0.05010413
0.11917783
0.03334235
0.09167692
-0.06443794
-0.00434069
0.04953853
0.06098396
0.02658211
0.11821672
0.03210546
0.09053129
0.17593767
-0.01187820
-0.09008701
-0.06887583
-0.28607842
-0.30459535
-0.18330333
-0.05972003
-0.15848750
-0.05256266
-0.03292079
-0.05974143
0.02648357
0.16800883
0.05108945
0.02134943
-0.10117369
-0.05407742
-0.00708647
-0.00394907
-0.06567189
-0.14648423
-0.05000728
0.07620262
0.12655926
0.10484941
0.02629663
0.03296609
-0.00593223
0.00060037
0.10935764
0.01018914
0.11136353
0.14392157
-0.05565488
-0.06922122
-0.04788129
0.04584979
0.09170820
0.18094949
0.13962004
0.08389796
-0.09734293
0.05412882
0.05148625
-0.07554030
0.09430709
-0.12176138
-0.09147259
-0.08487799
0.04167471
0.00196929
0.03255229
0.09045734
0.19974627
-0.12536298
-0.14299855
-0.00954530
0.12068217
0.00493470
0.11901654
-0.02025610
-0.02708018
0.07334663
-0.08609694
-0.03776513
-0.02957419
0.06373943
0.11221155
0.09354930
-0.01998828
-0.03264150
-0.06572719
-0.04346933
-0.21544978
-0.08558301
-0.13709611
-0.19317225
0.10854101
-0.03455685
0.07067760
0.01781931
0.09620998
-0.10484169
0.01527046
-0.13508210
-0.09757306
0.03405621
-0.00575670
0.19508877
0.01188780
0.07152267
0.02145347
0.05437866
-0.13570563
-0.27013871
-0.18113233
0.08140358
0.12140280
0.08165793
0.03590399
-0.02921346
-0.04761440
0.10651216
0.01708911
-0.08934586
-0.05906667
0.02889331
0.12761296
0.02490381
0.10378435
0.06330978
0.19665141
0.26188204
0.19078426
0.04384936
-0.05342481
-0.06108436
-0.07641210
0.07870467
0.13080104
0.04156118
0.02260726
-0.14669594
-0.01195602
-0.03203060
0.02248134
0.02109039
0.19448295
0.20026699
0.12505513
0.06119144
-0.08705810
-0.01094593
0.08681116
-0.06278236
0.08426556
-0.07356801
0.02892702
-0.01040036
0.11286668
0.01696002
-0.04407053
0.02564939
-0.01542782
-0.08574549
-0.03463461
0.23488896
0.10356325
0.17112994
0.02808408
-0.07730336
-0.17047535
-0.17351991
-0.12815283
0.00872960
0.05072365
0.24258129
0.24354327
0.17210783
-0.01688312
-0.11056622
-0.10772188
0.05635618
0.06306969
0.11552612
0.12516296
0.02088557
-0.10696691
-0.00800404
-0.01934387
-0.05876066
0.12619741
-0.02946541
-0.07756965
0.02717672
-0.10562431
0.05338473
0.00129218
0.07685902
-0.11651707
0.12494893
0.00707725
-0.15802741
-0.25780594
-0.11515228
0.06942673
-0.09604450
0.16809873
0.15017633
0.03810565
-0.02793624
0.04419207
0.02229081
-0.03007818
-0.07594890
-0.10063787
0.01884469
0.00414407
0.18616743
0.05410466
0.09243753
-0.07105259
-0.07991964
-0.08176045
-0.01974821
0.06169441
0.22663926
-0.07732850
-0.13455349
0.05667444
0.09912693
-0.13541310
-0.09517695
0.05046266
0.06971250
0.08571748
0.02289119
-0.05220685
0.10045268
0.19606604
0.21279484
0.08347487
0.09510895
-0.07893276
-0.03688267
-0.04289721
-0.09938953
-0.10395482
0.10676218
0.15527427
0.03942327
-0.09654289
0.12540798
0.01260553
-0.03595872
0.20229352
0.05095768
-0.07937284
0.07269504
-0.03934682
-0.01270550
0.34923655
-0.00163429
-0.05607755
-0.02228905
-0.01782624
-0.02025901
0.00181360
-0.05578527
0.03007393
0.01759062
0.02620868
-0.07934770
-0.01621306
-0.02014193
-0.18203434
-0.08824480
-0.02060025
0.01093927
-0.10706863
0.04306020
0.01500637
-0.01688100
-0.01603772
-0.10157690
0.02000633
-0.01737733
0.18250372
0.12271123
-0.12453736
-0.02037740
0.01319918
-0.01416353
-0.02585997
-0.05501213
-0.04133026
0.04139566
0.04604783
0.02241361
-0.24458532
-0.35063872
-0.17350775
-0.16323228
-0.01542644
0.05042764
0.09889054
-0.07155384
-0.07401804
0.08071125
0.18346572
0.01567319
-0.12179627
-0.14540786
0.00595636
-0.00017519
0.05985961
-0.09715968
0.01625606
0.12916717
-0.26932079
-0.05825096
-0.16560397
-0.14731091
-0.01477209
0.07840661
0.17368273
0.14555901
0.09117757
0.14618671
-0.04213645
0.10172334
-0.04413304
0.16706213
-0.09053989
-0.06264929
0.00370948
-0.06100379
-0.11966318
-0.02426768
-0.16256361
0.12889491
0.06850183
-0.04262595
-0.08209799
0.18755220
0.28015235
0.11265171
-0.00455442
0.02548309
-0.08838997
0.04439549
0.00728093
-0.08190452
0.01758808
0.03939073
0.18594497
-0.02665660
-0.05627531
-0.12904532
-0.07844703
0.03599768
-0.00799853
0.06178705
-0.00559148
-0.00431784
0.29462734
0.31605554
0.36971447
0.01269354
-0.10613531
-0.07086879
-0.03412281
-0.00625857
0.08521036
-0.08990464
0.06524607
0.03605316
-0.00031828
-0.03445004
-0.01136848
-0.01674851
0.01445332
0.02616235
-0.12459775
-0.00702965
0.08214701
-0.00707642
0.12753995
-0.03356836
0.02422232
0.00408505
-0.00133414
-0.12223393
-0.04760496
-0.14901537
0.03385401
-0.05681399
-0.06490392
-0.01129544
-0.18694720
0.07541819
-0.07446418
-0.04734893
-0.04362096
-0.05499920
-0.18321380
-0.02519700
0.22555147
0.28882489
-0.09523493
-0.19223896
-0.16019198
-0.05948192
0.07955124
-0.02322127
-0.11005402
-0.02680401
-0.03290908
-0.01884208
-0.15405712
-0.17383067
-0.16272311
-0.01578471
-0.01389834
0.04819797
-0.02819944
-0.05171721
0.11952858
-0.01133776
-0.03262112
0.14447677
0.06918085
0.14985511
-0.15606548
-0.13061859
0.01259553
-0.02615748
-0.03272837
-0.07356518
0.02330904
0.09578038
0.16403829
0.05599116
-0.01129748
0.10418544
0.10495261
0.01088918
-0.00928715
-0.18371025
-0.01375801
0.06723067
0.04202923
-0.02112887
-0.01780569
-0.08749951
-0.21283074
-0.18926930
0.00638144
0.08221503
0.07830209
0.08856098
-0.08541498
-0.04206586
-0.06661031
-0.09611846
-0.09173781
-0.00233204
0.03660755
0.09211248
0.03402707
0.06686050
0.06833187
0.01446064
0.11895395
0.00093834
0.10616411
-0.07714381
-0.04775913
-0.02024969
0.09096487
-0.03582288
-0.04023989
-0.06704154
-0.00478515
-0.08614428
-0.00209560
0.01818834
0.11332780
0.17622733
0.17150539
0.19455151
0.26581520
0.31538925
0.29180080
-0.03754411
-0.17222036
-0.11433398
-0.00223154
-0.03683555
-0.03796300
0.06086967
0.04084916
-0.04943975
-0.00060237
-0.01420585
0.02564238
-0.11503702
-0.07191455
0.18894269
0.02233161
-0.03800803
0.07508011
-0.03278162
0.09549253
0.04673767
0.06469159
-0.00016761
-0.04640368
-0.02752262
-0.00815655
-0.10748548
0.02585765
0.09215278
0.11342177
0.04052505
-0.05595329
-0.02814512
-0.28992859
-0.11326243
-0.17773141
0.09043917
0.04577111
-0.02487930
0.04887430
0.09501110
0.10319825
-0.15625381
-0.17574924
-0.11411466
-0.05676857
-0.01721064
-0.05247522
-0.02855917
0.20328546
0.05711120
0.07056125
-0.06883926
-0.01605003
0.06054991
0.18264334
0.06267507
0.08169793
0.18671720
-0.09755836
0.29267657
0.25691608
0.01402795
0.10510787
0.17695159
0.26747438
0.13027970
0.09460905
-0.04667233
-0.01095428
-0.23704083
-0.23776543
0.05415651
-0.12935276
-0.06575422
-0.04779780
0.00467770
-0.05142992
0.06500524
0.14982751
-0.03617494
0.09798419
0.08398350
-0.02969207
0.00965957
-0.09270450
-0.09929240
-0.08119643
-0.10133098
0.08013690
0.01554960
0.10667079
0.09798706
0.19130301
0.06929108
-0.02629619
-0.18631117
-0.14758822
-0.03870262
-0.06583451
0.00026492
-0.10547274
-0.02836203
-0.10025242
-0.10083449
-0.06495243
-0.21605605
-0.05184172
-0.03837956
0.00130398
0.12360229
0.04388968
0.12836190
0.11120857
-0.17492774
-0.22448315
-0.08281815
0.07090630
0.16021122
-0.01215766
0.03307017
-0.00878786
-0.02359102
-0.01037425
-0.05653228
0.08662397
-0.01138714
-0.04006811
0.12150513
-0.08223970
-0.17232570
0.11941207
-0.04059572
-0.00033288
0.02517090
-0.10732605
-0.06884041
0.02087945
-0.16100462
-0.09504232
0.01542450
-0.17878300
-0.04466572
-0.16557404
-0.00465475
0.02206074
-0.35717833
-0.06200254
-0.11884766
0.04301269
-0.07077244
-0.20857105
0.10848109
0.03335629
-0.10872649
0.05377655
-0.08240632
-0.05488009
-0.01923604
-0.00380677
-0.18915063
0.07461230
0.21252418
-0.03748015
0.01799439
0.05585265
-0.04462769
-0.02838660
0.04829662
-0.18979067
0.09735447
0.02410849
-0.15803610
0.18866667
-0.04520690
-0.02486485
0.08955387
-0.03242344
-0.30993089
0.14241327
0.01981344
-0.04365999
0.09129162
-0.06619859
0.01993929
0.04500325
-0.06061969
0.01668726
0.08701423
-0.09753687
0.02745152
-0.01369849
-0.18602641
-0.23729062
-0.00205951
-0.31164834
-0.17914160
-0.12733249
-0.21377994
-0.11391718
0.00107627
-0.14738035
-0.14676671
0.12546791
-0.02711339
-0.10596933
0.04605781
-0.05057250
-0.00213540
0.14671808
-0.08683020
-0.07425999
0.15836817
-0.02765543
-0.08194225
0.04688133
-0.08547829
-0.07533132
0.01513357
-0.03091546
-0.03500307
0.03534064
-0.01789496
-0.06605857
-0.04702130
-0.13927346
-0.04619123
0.03741168
-0.05166148
-0.05171484
0.25700316
-0.02197618
-0.00570338
0.04362983
0.04247239
0.09482079
0.01069141
-0.06201651
-0.08414614
0.05736042
-0.02283758
0.01377856
-0.04311673
-0.01606001
0.01962679
-0.12007458
0.01555850
-0.06916288
0.16377182
0.04639254
0.05864656
0.07977519
-0.04367505
0.07479024
0.20629622
-0.07734390
-0.15424436
0.00867525
-0.07531140
-0.06922685
0.00543783
-0.05230487
-0.13636681
-0.03176847
-0.07635228
-0.10925672
-0.05567288
-0.12207101
-0.08590081
-0.10339775
-0.02751806
-0.04034708
-0.18568845
-0.12329087
0.02822027
0.03637790
-0.12619971
-0.19381081
0.04105012
0.03168940
-0.14289744
-0.01343443
-0.00494953
0.04513811
-0.06174739
-0.09139685
-0.07965831
0.03934025
-0.14021151
-0.01062102
0.05374469
-0.03514817
-0.05403500
0.08433897
0.03159099
-0.03018812
0.07676358
-0.00945240
0.10601980
0.07727162
-0.04156917
-0.11195451
0.12727663
0.07183984
-0.03574384
0.08881187
-0.09418143
-0.04883113
0.13466564
-0.11157538
-0.20314762
0.07262853
-0.14562909
-0.08236019
0.01446130
-0.12618706
-0.07624199
-0.08640331
-0.20812397
-0.18185350
-0.04217501
-0.12905525
-0.04509933
0.08003663
-0.07954776
-0.16697006
0.03941769
0.03476268
-0.08546805
0.11878929
-0.00879747
-0.03711420
0.00780624
-0.08634452
0.03348730
-0.05825870
0.14339237
-0.03243882
0.10433324
-0.05827611
0.12323987
0.05212242
-0.20699826
0.15965916
-0.01620321
-0.06440273
-0.09941877
-0.10377683
-0.00502648
-0.05292700
-0.02185103
-0.07173520
-0.05734457
0.11284337
-0.21397804
-0.12541068
0.11833938
-0.39591804
-0.25197655
-0.14031975
-0.22459461
-0.27828002
-0.18604001
-0.06017372
-0.02663865
-0.22816946
-0.07671031
-0.01536313
-0.12196904
-0.04105980
-0.13501951
0.11432428
-0.01008864
0.00243012
-0.02242045
-0.05774714
-0.03952489
0.03105183
-0.00324976
0.00648870
0.05355604
-0.18791433
-0.09175020
-0.07728620
-0.11153319
-0.04380003
-0.13217008
-0.00762240
0.06786501
-0.21838635
0.09057630
-0.11156857
0.03100217
0.02872580
-0.13189895
-0.04564537
0.03231899
-0.03032761
-0.04016427
-0.05839416
-0.02005339
-0.03766784
-0.00718410
-0.06364768
0.08040330
0.08131462
-0.16428459
0.19819756
0.16234292
0.00473485
0.18190844
0.01081122
0.01775542
0.21646637
-0.08595074
0.00683747
0.09573055
-0.20699084
-0.01740413
-0.06868913
-0.26487824
-0.05761420
-0.09008188
0.01500271
-0.15068895
-0.14414687
-0.12462346
0.01222037
-0.06156188
-0.13122015
-0.04886635
-0.11693939
0.01421479
-0.06353360
-0.25267747
-0.13041492
-0.10467252
0.02051299
-0.14412262
-0.23631939
0.00425857
-0.07262769
-0.07081380
-0.12153771
-0.14787982
-0.10209040
-0.18428414
-0.26822260
-0.09058315
-0.30864671
-0.08624151
-0.21086439
-0.22702873
-0.02161392
-0.12131301
0.06944051
0.02395059
0.01777174
0.07293916
0.03611308
0.04553637
0.24179825
-0.00932169
0.02643597
-0.04001323
-0.06652650
0.05688965
-0.07659975
-0.10221231
0.15327179
0.01548575
0.06398721
-0.05474472
-0.04980698
-0.01126204
-0.00488918
0.00596043
0.06192433
-0.16890806
-0.09902652
0.03834996
-0.00297702
0.03295588
0.09111594
0.01890647
0.08072737
0.03469979
-0.02272629
-0.08979345
-0.07089128
-0.08487367
-0.08678750
-0.10031844
-0.06501181
0.00979004
0.00213146
-0.13567859
-0.04723115
-0.02087156
-0.03864894
0.03220352
-0.06618285
0.00305089
-0.00004626
-0.11234424
-0.06113059
-0.05984428
0.01696960
-0.10158543
0.08688273
-0.00958760
-0.05512644
0.01290274
0.04081710
-0.02207173
0.05443810
0.16904010
-0.00774777
0.13718711
0.01742022
0.06455313
0.05047388
-0.12799127
0.02198169
0.04199131
-0.14662977
-0.17945039
-0.11655668
-0.20739709
-0.17946978
-0.11265761
-0.15883800
-0.11239178
-0.15150024
0.00054342
0.00360236
0.10296477
0.02274402
-0.10049881
0.17085828
0.06418034
-0.17252241
0.19522694
-0.07847793
-0.02378320
0.01712261
-0.01312024
-0.04608946
0.06227724
-0.03393891
0.03449230
0.03230532
-0.03706700
0.03385389
0.04153167
0.03978390
-0.00477659
0.03786675
-0.13234232
-0.02255260
0.07005938
-0.03443748
-0.00963651
-0.04189428
0.03215188
0.08757693
-0.19131260
0.01409473
-0.01865658
-0.07726234
-0.08015776
0.00935013
0.00096300
-0.01717904
-0.05721866
0.09171432
-0.09632622
-0.05776873
0.05702759
0.03447998
-0.06454391
-0.02510644
-0.02111186
0.04240147
-0.03823209
-0.03274493
-0.08090852
-0.02508235
-0.09370199
-0.01746676
0.18754578
0.06836115
-0.09057631
0.17820391
-0.05285981
0.08446833
0.22853357
-0.11204783
-0.00579533
-0.02402802
-0.09573144
0.02466094
-0.08544368
-0.12291958
0.00788231
-0.05566548
0.03175850
-0.02292436
0.15320915
-0.11681189
0.00221187
0.00405398
-0.04418739
0.01769908
-0.00501478
0.02668431
-0.01425308
-0.09820936
0.06857311
-0.04102197
-0.18006799
-0.03862047
-0.04140989
-0.06254139
-0.00724860
0.00476116
-0.08507592
-0.07363585
0.05005524
-0.00110253
-0.11057602
-0.00827041
0.14042175
0.00211565
-0.10307641
0.22715490
-0.02454817
0.05881450
0.05815972
0.00563924
0.18598202
0.07408635
-0.10501423
-0.15047477
0.04901112
-0.11366765
-0.22334711
0.10995188
0.01651887
-0.15958521
0.23903701
-0.09023546
0.01747573
0.00813471
0.02787252
-0.05638831
0.09057231
0.03163693
-0.13997005
0.07090791
-0.00400861
-0.01280708
-0.01970313
-0.04529872
-0.20728256
0.13389143
0.01436958
-0.12943636
0.16803616
-0.01425357
0.03227467
0.02046983
0.03895303
-0.05455548
-0.01841910
0.06777090
-0.11323681
-0.06757096
-0.15471891
-0.19915016
-0.03428637
-0.21405691
-0.08523104
-0.07920177
-0.25791436
-0.07145660
-0.09745949
-0.16647200
-0.13376673
0.02864992
-0.07027409
0.04350398
-0.03171118
-0.07725115
0.03451241
-0.07650609
-0.01780715
-0.05000923
0.01986429
-0.05580311
-0.09169770
-0.00921216
-0.04274298
-0.02611413
-0.01308177
-0.05027477
-0.03830706
-0.02113842
0.02005091
0.01887491
-0.04767399
0.03488514
-0.01219673
0.00725515
-0.01132270
0.00301921
-0.06492074
0.03853171
0.00827520
0.03841337
-0.03769740
0.00868765
0.00484679
-0.05165512
0.03711821
-0.06305562
0.03076031
-0.07749770
-0.02612852
-0.06454755
-0.02674799
-0.00679805
0.02180866
0.02384970
0.00824516
0.02577168
-0.06688610
0.00710322
0.00697497
-0.03155043
-0.02317764
0.04425699
-0.03354431
-0.03255015
0.02491270
-0.03607893
-0.07873584
0.00298495
-0.00435360
-0.01757133
-0.02834211
0.04052413
0.01813361
0.03049219
-0.06958707
0.02988001
-0.01637446
-0.00811509
-0.05271525
-0.05412708
-0.01634237
-0.04812283
-0.02167997
-0.03256113
-0.00798813
0.02414279
-0.05222326
-0.01666709
-0.05175112
-0.08696601
-0.04384473
0.00455170
-0.05394246
-0.02501319
-0.03511804
-0.07949378
-0.00026608
-0.01388700
-0.00525345
0.02765016
-0.02854551
-0.03239098
-0.02282534
-0.01065167
-0.06138131
-0.02850728
0.03765930
0.02370480
-0.04728526
-0.05460177
-0.00401129
-0.09421905
0.06572842
0.02393898
0.01052166
0.04268408
-0.01943315
-0.06570653
0.04724625
0.03661393
-0.05327083
0.00799222
-0.06342236
-0.03349753
0.02714911
-0.00630910
0.06622102
-0.00991551
0.05917624
-0.03823369
-0.00047014
0.02749492
-0.01320298
-0.00429810
0.02621353
0.01522261
0.01776885
-0.02988293
0.01208312
-0.04675410
0.07086233
0.02433354
0.00966028
-0.04286528
-0.06410937
-0.05859718
-0.06348463
-0.03098004
0.00248139
-0.03129527
0.01985643
-0.03742779
-0.01036226
-0.02195031
-0.05070280
-0.06726751
-0.01628180
0.01228521
-0.01076946
-0.02340687
0.02959237
-0.00055850
-0.07246841
-0.06813464
0.05373736
-0.06988059
-0.00395214
-0.06943854
-0.00003750
-0.02777795
-0.04180493
-0.08963408
-0.01147253
-0.06059317
-0.03076205
-0.02492237
-0.00240928
-0.09357903
-0.00009457
0.07247463
0.02810916
-0.03196240
0.01275810
-0.04213901
0.03604828
-0.02654037
-0.01219710
-0.02021314
-0.01291958
0.00521374
-0.05667385
-0.07879069
-0.05418525
-0.03719343
-0.05409400
-0.08018193
0.01475206
-0.05599662
0.00589213
-0.06089621
-0.02685742
-0.04367599
-0.03856711
-0.05321245
-0.01825373
-0.06491549
-0.04159639
-0.00670265
-0.02079232
-0.03049618
-0.02469189
-0.03900506
-0.00313335
0.01910574
0.02430458
-0.02623702
-0.08530583
0.00050659
-0.08437204
0.01057229
-0.02938168
0.02701905
0.04180140
0.01046034
-0.06536855
-0.02712102
0.03570291
0.00087776
-0.01575084
-0.00903114
-0.03882015
-0.02185927
0.02986843
0.03825514
0.03576251
-0.04431019
-0.01184227
-0.02197669
-0.02569912
-0.01746634
-0.00014762
-0.06168145
-0.09537772
0.00096543
-0.03705132
-0.02172970
-0.09655960
-0.06404910
-0.01624033
-0.04680746
0.00482577
-0.10348490
-0.05090929
-0.04080846
-0.03812560
-0.05802243
-0.01890111
-0.01461156
-0.03867204
0.04864385
0.02606734
-0.04045266
-0.06423124
0.03479718
-0.09021986
-0.01298809
0.02819691
0.00883057
-0.03612185
-0.05052442
-0.01736726
-0.01674296
-0.02133673
-0.08903632
-0.03153551
-0.03421266
-0.07813524
-0.03139263
-0.07058516
-0.07036205
-0.01422631
-0.07198235
-0.01741538
-0.05177692
-0.01430076
-0.00342248
0.01489450
0.02227370
0.01942840
-0.05590835
-0.01924050
-0.01169861
-0.04891572
-0.02969597
0.01342593
-0.09259455
-0.05645794
-0.06465640
-0.07643826
-0.03929317
-0.03923783
-0.10197486
-0.02427598
-0.07724899
0.03901924
-0.04430433
0.03775506
-0.05700183
-0.06105455
0.04760039
-0.00192499
-0.04791845
0.05625486
0.01962261
0.00723813
0.00597595
0.03776423
-0.07399733
-0.02841611
-0.00440029
-0.00229337
-0.03430114
0.02285925
0.02306071
-0.00298049
0.01226527
-0.03629122
-0.02106365
-0.03185963
-0.03199193
0.01169687
-0.03934842
-0.00243374
-0.07682554
-0.06806082
-0.03945979
-0.10275173
-0.04062683
-0.02580678
-0.10323305
-0.08283754
-0.02997497
-0.02962823
-0.04365516
-0.00573104
-0.03803185
0.04219655
0.03083232
-0.01074041
0.03501811
-0.07866411
-0.03442898
-0.08344321
0.01081301
-0.02448960
-0.05108688
0.03047284
-0.03038475
0.01412937
0.00225335
-0.04415927
-0.04582630
-0.02037557
-0.03724730
0.01698333
0.05224515
-0.05089151
-0.03552853
-0.07375234
-0.04492623
0.05196827
0.04646689
0.01518017
0.02934461
0.07513487
-0.00170061
0.02336557
-0.04895716
0.02100439
0.01255361
0.01895582
-0.05446868
-0.02769275
-0.00147488
-0.03412395
-0.02544547
0.02421280
-0.05132279
-0.04829576
-0.03037616
0.04346621
-0.03110671
0.05151693
-0.02883066
0.00486730
0.00737962
-0.02600631
-0.04493810
-0.01606438
-0.07293566
-0.01417230
0.01354469
-0.04612111
-0.05235510
0.02223360
0.02048847
0.01340692
-0.06581576
0.00762820
-0.00916057
-0.04607465
-0.06352929
-0.04812040
0.00669947
-0.01101943
-0.04826178
0.03055569
-0.02976019
0.02060683
-0.03446157
0.03609596
-0.06785395
0.02961101
-0.00402297
-0.03672210
-0.04163172
0.03209384
0.02708840
-0.05440968
-0.06547444
-0.03668698
-0.07184790
0.01806208
-0.06949327
-0.08678120
0.00624463
-0.00401045
-0.04598936
-0.03841501
-0.03835583
0.03506646
0.00460434
0.01861017
-0.05264913
-0.05024390
-0.06003448
0.01378306
-0.03120076
-0.05278164
0.03335988
0.03607895
-0.00640332
0.02372715
0.02105278
0.03114786
-0.01840443
-0.07192823
0.01388319
-0.03572218
-0.02490126
-0.07259802
-0.03935825
-0.05182045
-0.07370605
0.00597315
-0.05971841
-0.02875022
-0.06962394
-0.04669261
-0.07519964
0.04920508
0.04515967
-0.03667973
-0.02897624
0.00559717
-0.02006766
-0.00412497
-0.07157959
-0.01262366
-0.07461049
-0.08753227
0.00127423
-0.00613191
-0.03309496
-0.06954508
-0.01945055
-0.07007498
0.03505069
-0.06621202
0.05180544
0.00581015
-0.03289909
0.03022679
-0.07278142
-0.02200817
-0.04114290
-0.05186405
-0.05803015
-0.06372222
-0.01783060
-0.06101881
0.01737014
-0.07211704
-0.03142802
0.02925320
-0.03868726
0.02465398
-0.08052093
-0.00916015
-0.06728354
-0.07820367
0.00571468
-0.07023896
0.00535870
-0.03842919
-0.04514023
-0.01538979
0.04713884
-0.00789775
0.05160455
-0.01681591
-0.01678616
0.07756104
0.03480919
0.05371310
0.00914208
-0.02161621
-0.06406547
-0.01626900
0.03373777
-0.00715386
0.02047781
0.01305839
0.02097683
-0.03961647
-0.02828624
0.04447167
-0.04186547
-0.07721464
-0.02289734
-0.04785473
-0.00988993
-0.03808078
-0.09569416
-0.03176841
-0.08970101
0.02413258
0.03860531
-0.02788885
0.04614435
0.00676181
-0.06059448
-0.05519306
0.01675705
-0.03893013
-0.01484372
0.04544000
-0.09723582
-0.03999250
-0.04060914
-0.08483663
-0.00461734
0.01080049
0.06404405
0.01346163
0.02491581
0.01508703
-0.05096911
0.05395382
0.05830033
-0.02358020
0.03261800
0.05753352
-0.04068141
-0.02301197
-0.06326406
-0.03121146
0.04412061
-0.01787080
-0.00035313
-0.02399923
0.00231413
0.00965849
-0.01966711
-0.05702287
0.01449253
-0.04586090
-0.09150573
-0.03207089
-0.02162384
0.02891142
0.03429157
